10 64
9 -0.0007633001 -0.00046671566 0.010023921 0.016621772 -0.016459858 -0.01317199 0.011749822 0.016740238 -0.0087258415 -0.0055328077 0.013579991 -0.0023492528 -0.0076626074 0.011668624 -0.008812843 -0.0019016848 0.005119739 0.002359581 -0.015578215 -0.015287437 0.014608195 0.010022769 0.013457329 -4.390175e-05 0.012259719 -0.004875877 -0.0027267784 0.010062629 -0.013570152 -0.007360127 -0.013274291 -0.0024905782 0.016211404 -0.0141025195 -0.0043820664 -0.0029387362 0.01436837 -0.009167915 0.002367885 -0.0092780115 -0.0167168 0.009376121 -0.015031227 -0.008877898 0.00011779805 8.41882e-05 -0.01330867 0.01684902 0.0078507755 0.014969825 -0.013151269 0.008322663 -0.007318977 0.0027718104 0.015614654 -0.008768904 0.0072147516 -0.011936471 -0.006108304 0.015725648 -0.003171765 -0.00032186485 -0.008148406 -0.013404236
5 -0.002407541 0.003797122 -0.0012283308 0.008817454 -0.00438871 0.0033213526 0.008729472 0.013334757 -0.0023438064 -0.014303661 0.0071806475 0.0010322573 0.0117173325 -0.0012277395 -0.004248966 -0.013668723 -0.0013402025 0.0045886636 0.008286046 0.011187183 -0.008626742 0.0031329205 0.00981374 -0.00772169 -0.0047536176 0.010752653 0.0023298499 0.00039617118 0.0053888154 0.00024644437 0.014980047 0.007838553 -0.013976521 -0.011186419 0.0013433483 0.010096001 -0.0133681465 0.005784356 0.008532098 0.008996107 0.011788808 -0.009568135 0.0017589054 0.009309258 -0.004573708 -0.009526843 -0.00065875845 -0.013134785 -0.008856312 0.011028142 0.0054250993 0.011457632 0.010678087 0.011944851 -0.0057211216 -0.0009649659 0.0037417202 -0.0072855786 0.01320776 -0.015542911 0.010753679 0.0043964586 -0.007926441 0.0069341
7 -0.0028027992 0.0101811625 0.016288055 -0.0059500886 -0.0016069958 -0.010066717 0.0070088455 0.005680723 0.010204089 0.009950741 0.016194005 0.014852432 0.012111808 -0.010112801 -0.015003346 -0.00022470267 -0.0046286457 0.012983155 0.00825164 -0.0027358478 0.004008493 0.0037738883 0.013492084 -0.015495203 0.0006608454 0.005343159 -0.0022780118 0.013768521 0.013461967 0.009623486 -0.002049772 0.011547729 -0.012389203 0.0039753257 -0.0076794927 -0.007829976 0.0066979653 0.008194022 0.013330964 -0.009744641 0.011050148 0.011087646 -0.006478213 -0.014874144 0.008367372 0.010836315 -0.0019292742 -0.00990267 -0.010945539 -0.0034674096 0.0077807275 -0.0048760697 -0.014986733 0.006311111 0.009097499 -0.010757539 0.0022456013 -0.0042199288 0.00012465844 -0.015174541 0.0042580008 -0.008064812 0.0006280936 -0.0030464928
2 0.003454945 -0.012728268 -0.0037290116 0.0051613585 0.0077925706 -0.0045673316 -0.014278941 0.008283369 -0.00034300552 0.0048393644 -0.009907179 -0.0021076004 0.012002759 0.0122842 -0.006333705 0.0043026144 -0.012963139 0.010224354 -0.008141603 -0.0052198768 0.015841523 0.0021653024 0.012932122 -0.010065434 0.008947439 0.015798874 -0.013853962 -0.007672182 -0.011781628 -0.008173569 -0.0064972136 -0.013852164 0.013193402 -0.008733794 0.013076426 0.008498881 -0.009768527 0.0061615715 0.0095029725 -0.012307837 -0.012288639 -0.0034828342 -0.0142342495 -0.0032230336 -0.0006873551 0.005419542 0.0016910647 -0.0008949055 -0.008781542 0.0032978517 -0.0017005152 0.011506296 0.0061082356 0.0076346872 0.003218568 -0.004894992 -0.006695528 -0.0023505236 0.0023440802 -0.003926517 -0.011268662 -0.012666385 -0.015281051 -0.009890782
6 -0.003002771 -0.0071881097 -0.009408865 -0.0047392854 0.0059140385 -0.0072049876 0.014351026 0.00398613 -0.012152295 0.015174846 0.013476153 0.008962313 -0.011107499 0.010173482 0.0055538258 0.008462708 0.0069840113 0.0037316969 -0.0062287203 0.012752403 0.01698856 0.0071071945 -0.0030287292 -0.00062001497 0.003045865 -0.013436268 -0.01384254 0.00038295763 0.0011294773 -0.009780731 -0.008502297 -0.0121734105 0.014280622 -0.0010846443 -0.007557638 0.009159982 0.0156727 -0.0067804116 0.013828535 0.0076953354 0.008508745 0.0015835933 0.012129511 -0.012331897 -0.013188961 0.015292591 -0.0011529882 -0.0023492223 0.007480408 -0.005817452 0.0039318255 0.011979541 0.009229618 -0.0114508215 0.016425634 0.006572869 0.006691705 -0.011000001 0.013422379 -0.0029512933 0.013959914 -0.009106386 -0.014062395 0.01005908
3 0.0027053028 -0.003780578 0.016390074 0.016438162 -0.01669299 0.0033066436 0.010578786 0.0071665603 0.0029795566 0.0005877999 0.0020076043 -0.006250304 -0.011746136 -0.0031884701 0.0059722704 0.014463497 0.015258559 -0.009533773 -0.016179528 0.015761271 0.006478633 0.009210735 0.01115119 -0.0048676264 0.012536245 0.004832733 0.0043389425 -0.0033717563 -0.005740432 -0.004121163 0.0065324246 -0.00013122892 -0.015446076 -0.016548228 -0.01023984 -0.00032047162 0.0038125499 0.01522307 0.0099145435 -0.007331829 -7.4902e-05 0.008587706 0.012195489 -0.0023462772 0.006995859 -0.009436408 -0.0016619537 0.013798421 -0.0037638785 -0.015645903 0.009428982 -0.006138383 -0.0023755752 0.016838133 -0.0030113792 -0.008331192 -0.008566787 0.010830385 -0.009643827 0.003942529 -0.008618602 0.009730907 0.0067148544 0.0038516244
1 -0.0023490647 -0.0042819777 0.014093552 0.008161583 -0.003402796 -0.014787802 -0.011550905 -0.001656993 -0.0012283142 -0.003994345 0.01520805 -0.0006865435 0.009183102 -0.011714224 -0.0038838852 -0.008670491 -0.011121649 0.0019243998 -0.0112154335 -0.0033659958 0.0057932544 0.009149271 0.0018797925 0.003257969 -0.0064573847 0.011319454 -0.00986211 0.007260219 -0.012799824 0.0031955969 -0.0077105304 -0.0066131214 -0.0049948217 0.0088429265 0.009022571 -0.007755081 0.0012032858 -0.013232915 0.012295492 0.014557174 -0.0041596126 0.0012451309 0.0012968339 0.008592472 -0.01349481 0.00089937146 0.010783711 0.003440955 0.0017217556 -0.014683888 0.013382695 -0.009821156 -0.00464002 0.0055087404 -0.0012420363 0.0022296726 0.0027878475 -0.010670469 -0.015180973 0.014066308 0.009777268 -0.010788212 0.005350745 0.0004297156
4 0.007434416 -0.011170552 0.0064508696 0.0069607096 0.0154404985 -0.0071364064 -0.0020546603 -0.011259016 -0.015210888 -0.014179653 -0.0014458807 -0.01015239 0.0075661624 -0.009565614 0.00384256 0.0012054632 -0.0052695777 -0.0014663237 0.015452461 0.014268328 -0.006780481 0.014343775 -0.008619915 0.009178745 -0.004698468 0.0054056277 0.004643279 0.010877185 -0.003810638 0.013660555 0.011777336 -0.014975591 -0.0124659445 -0.0121138515 0.0045156768 -0.0043740207 -0.010724092 -0.012695583 0.013155189 0.0029898416 -0.014680298 -0.0073870267 0.0048126807 -0.0075080195 0.008278945 -0.0065830527 0.0040430194 -0.012480451 0.009700987 0.0075731874 0.0012154849 0.0047898656 -0.01371957 0.0034397868 -0.0012129941 -0.014701815 -0.014729234 -0.0022980643 0.006896685 0.0058394237 -0.010198545 -0.010803626 -0.007921871 -0.0036669807
8 -0.011328574 -0.015005184 -0.0042869207 -0.013066938 -0.009435743 -0.0088608265 -0.0036627147 -0.002667183 -0.01399531 -0.0011487491 0.012738291 0.012016296 -0.011259556 -0.005729424 0.0048727375 -0.014954254 0.0023069363 0.010194479 0.00897878 -0.013692284 -0.0070580374 -0.012719002 7.180683e-05 0.014474427 0.00933329 0.007917669 0.00790791 -0.005067058 0.014925286 -0.011494413 -0.01135998 -0.0035396703 -0.001216501 -0.0050251614 -0.0009259153 0.011701286 -0.0010898728 -0.0025389697 0.004288124 -0.013061095 0.012274694 0.013337662 -0.014975136 0.0038222913 0.015476517 -0.011977818 -0.0108858105 -0.012088308 0.01311863 -0.0010645874 0.014288139 -0.012747221 0.00584857 0.004117254 0.0011604894 0.0036369935 -0.011670459 -0.014622459 0.003679026 0.009606961 0.012477638 0.008962335 -0.0012145881 0.012978382
0 -0.014587991 0.005322082 0.00041680224 0.006026944 0.011540286 -0.0105080735 0.008725751 -0.014878476 -0.001256967 -0.013576152 -0.007966677 0.014514416 -0.002903534 0.004553791 0.014173875 0.013965832 -0.012825679 -0.0047067404 0.0154478215 0.007975673 -0.002481386 -0.013581283 0.0046273693 -0.01043109 0.012706675 -0.006964585 -0.0016693082 0.001572445 -0.00029861555 0.0017940272 0.009552907 -3.167428e-05 -0.0050718207 -0.0023605134 0.00921453 0.0023657847 -0.0011316594 0.014583198 -0.007689506 -0.0013100151 0.01433658 0.01054598 0.0023482125 -0.013879001 0.0017949156 -0.0035753995 0.014637871 0.0018905122 0.0023282245 0.0037600156 -0.0028687604 -0.007811928 0.0003631711 -0.003147157 0.010313958 0.013968943 -0.0010543037 0.0046515856 -0.00954321 0.002655195 -0.010822238 -0.013584416 -0.009219067 -0.013994493
