2707 64
1358 0.61275566 -0.07256141 0.50521356 0.32326865 -0.041537974 -0.5489233 0.6530459 0.29492077 -0.076539285 -0.30067086 0.4912399 -0.26707423 0.04163068 0.2709294 0.5100718 -0.14218152 0.48623908 -0.14431298 -0.34867805 0.03780694 0.22078855 -0.075834736 0.28041643 -0.77393115 -0.28647223 -0.6424179 -0.03301839 0.16033658 -0.04003289 -0.8533368 0.32081628 -0.6915635 0.45877147 -0.3390988 -0.6738433 0.16570655 0.02768532 -0.17908825 -0.08677349 -0.26281205 -0.24984224 0.25974742 -0.054248847 0.70283294 0.22432481 -0.2758578 0.065446675 0.20882551 -0.231844 0.27568808 -0.35701114 -0.15548961 -0.008418888 0.2976208 -0.7395268 0.09115712 0.4843827 -0.1566773 -0.43324652 -0.056752834 -0.10028825 0.76389885 -0.3230265 0.32638463
1701 0.37991896 0.7246238 -0.03433046 -0.26634592 -0.40099484 -0.6527433 -0.08511208 1.0358987 -0.15521966 -0.93676823 -0.3350311 0.35896 0.17552248 -0.452363 0.47211537 0.32079408 -0.088917665 -0.17015482 0.09318943 -0.0039286115 -0.71606916 0.035916764 -0.040078476 -0.12886909 -0.2857939 0.030344952 0.16601 0.68572485 -0.32000637 -0.341072 -0.26619786 1.3424168 -0.3841648 -1.121362 -0.39738142 0.11370529 -0.4876585 0.6338678 -0.6460496 0.0185034 -0.9368957 -0.6334685 -0.830424 -0.425657 -0.23272768 -0.13152854 -0.15437159 -0.16678622 -0.06439161 1.0544933 0.57303977 0.31615496 -0.8369126 0.42995867 -0.11187339 -0.81799865 0.009284346 -0.5950374 -0.6065293 0.012431141 -0.42213508 0.11427278 -0.28171417 0.6254058
2249 0.01101868 0.80507934 1.2124779 0.6358062 0.15289298 -0.66464674 0.274969 -0.47277766 0.41384757 0.30391678 1.1061829 -0.21509264 -0.88444406 -0.09066834 -0.110523894 -0.2546613 -0.09972811 -0.8249144 0.19219159 0.4559521 0.014915597 -0.30844694 0.18567179 -1.3810085 -0.57297426 -0.1809427 0.44715652 0.49417093 0.45470992 0.064795606 0.22368717 0.26345295 -0.2856625 -0.6045871 -0.48179287 -0.04009534 0.946611 0.9673534 -0.01054311 -0.8305103 -0.40993705 0.30519384 0.11316603 -0.6693179 -1.117094 0.8769233 0.17621577 0.52834195 0.11542372 -0.37106383 0.77787745 0.06957844 -0.25325978 0.49474743 1.2676557 -0.66714495 -0.982621 -0.490677 -0.7119364 0.02503394 -1.0035676 1.151273 0.46473944 -0.5145412
1986 0.38799968 0.28679925 -0.6339365 -0.6805204 -0.20253703 -0.17232965 -0.5451374 0.38559264 -0.09610835 -0.54528743 -0.16536398 -0.14925127 0.3746448 0.5704624 -0.26578712 0.05694343 -0.3912084 -0.2834954 -0.0034336876 -0.16229598 -0.2662643 0.06138288 0.4535948 -0.7138467 0.014957855 -0.39989161 -0.092765786 0.89413536 -1.1148893 -0.9516091 0.5484689 0.09494146 -0.03050021 -0.48954877 -0.022828655 -0.3155859 -0.50981164 0.63121897 0.73873633 -0.5199773 -1.3638006 -0.07741947 -0.3131794 -0.28648022 0.13797137 0.55229324 -0.30702877 0.17443235 -0.17476277 0.5102177 -0.28496084 -0.20143488 -0.7531025 -0.092102274 -0.43112504 -0.46455884 -0.56378114 -0.41635543 -0.69786024 -0.029474199 -0.6238275 -0.26796487 -0.40571997 0.085558854
2034 0.5195388 0.91970134 0.12972936 0.027683008 0.45370743 -0.36350676 -0.022584762 -0.03912675 -0.22686101 0.2903337 0.7541828 0.8311088 -0.38312662 -0.26108727 0.8604019 -0.3783711 -0.59887123 -0.7120213 -0.34645662 1.0970082 0.5158287 0.14268446 -0.39926398 -0.66342235 -0.14581296 -0.6041083 0.08314031 0.13767795 -0.44061634 0.43457583 -0.16215561 -0.5431304 0.18395454 0.06924166 -0.8359927 0.011774196 0.44033647 0.7325243 0.61593723 -0.35785785 -0.14308226 -0.40466052 -0.47167164 -0.21103606 -9.585086e-05 0.11831224 0.21735376 0.6965769 -0.32395902 0.7689797 0.4872092 0.8042086 -0.17564443 0.38521808 0.9890549 -1.2330283 0.06291147 -0.41151622 0.0516241 0.27795634 -1.2333746 0.080962606 -0.057942703 -0.15056846
2130 0.14664932 0.6314788 0.30792692 0.45898807 0.26747236 -0.7296588 0.49015194 -0.21704125 -0.40162852 0.8163888 0.93934566 0.3601461 -0.25844982 -0.23645754 0.395061 -1.1528213 -0.73630846 -1.1487815 -0.36932695 0.6625073 0.12326591 0.029573016 -0.005225119 -0.9912834 0.07259069 -0.57659805 1.1530358 0.35133073 -0.043610066 -0.059252992 0.15523152 0.0049129226 -0.54293436 -0.7029323 -0.53348947 0.46865234 0.84100515 1.2726043 0.1247712 -0.21181814 -0.7187637 -0.19058433 0.15699859 -0.6063295 -0.9109339 0.56697696 0.06756243 0.8215542 -0.42462975 -0.04194644 0.33651054 0.5192674 -0.014597513 0.88165396 1.4602833 -1.2622548 -0.47802457 -0.65356845 -0.66587424 -0.2845269 -1.118869 0.7199081 0.9688508 0.017719336
2451 0.33533925 0.5684513 1.1118807 0.3934913 0.26784533 -0.7954332 -0.12180782 0.53092015 -0.38934433 -0.43777442 0.83062357 -0.5896686 0.53008646 -1.7625892 -0.3596308 -1.0136205 0.42865327 -0.3609998 0.1388734 0.077082515 -0.4335815 0.15510519 0.360797 -1.3075765 -1.1028947 -0.18518195 -0.5138204 0.12910493 -1.295794 -0.9730566 0.06673339 0.12627229 -0.73124415 0.15847704 -0.74898434 -0.23879641 0.16297624 0.3689978 -0.6008198 0.6065573 0.11522185 0.75095737 -0.4383744 1.428685 0.1863772 -0.8010668 0.3470858 0.124864735 -0.20946223 0.17625341 -0.44530752 -0.22223425 0.3437262 0.23669371 -0.08819111 0.8033228 0.32900646 -0.09461503 -1.3144888 0.44334316 -0.5780668 0.6239253 -0.13121432 0.39964437
1810 0.60049784 0.03542492 -0.6500342 -0.28980008 -0.1292285 -0.6173201 0.3734122 -0.43062615 -0.113563456 -0.4239112 -0.47943735 0.41146785 0.40610486 -0.73830616 0.13817039 0.07583274 -0.4434621 -0.90020084 -0.24719961 0.7688963 -1.149331 0.3421265 -0.11988434 -0.46656448 0.6183035 0.4630115 0.33447167 0.3822958 -0.39224637 -0.71618605 -0.14027026 -0.7910788 0.08615427 0.16590542 -0.10728368 -0.3584695 0.014574589 1.0516458 -0.60942596 -0.13261582 -0.8459994 0.31002706 -0.3883191 0.2782595 0.3907904 0.36770517 0.9005544 0.77363193 1.1873403 0.054946482 0.71586084 0.35013714 -0.5713705 -0.2503408 0.27904645 -0.16447425 -1.0132201 -0.37245068 -0.15527669 0.0632698 -0.5588406 0.57466835 -0.61547107 -0.110946625
2045 -0.58760875 0.8696043 0.5277762 -1.1139696 -0.27753937 -1.0094867 -0.1099265 -0.1031114 0.20213173 -0.029089753 -0.12363491 0.86189264 -0.7476641 -0.5557244 0.10811844 -0.12633577 -0.48176903 0.35829207 -0.3280304 -0.024303636 -0.26816672 -0.06573791 -0.108068734 0.28100228 0.012622596 -0.03440668 0.7199666 -0.2280241 0.2828201 -0.89755577 1.0227135 -0.12311755 0.17106986 -0.58233696 -0.42358693 -0.047682267 -0.27240452 0.376776 -0.58663803 -0.27368474 -0.22277859 0.09789248 -1.4766903 0.10015258 0.45095822 -0.1659209 -0.22260603 0.10722169 0.3216476 0.97242886 -0.28880343 0.26128167 -0.7777387 -0.73696125 -0.06584967 0.04253081 -0.60076827 -0.223602 -1.2589052 0.18399245 -0.41528773 0.5798294 0.5128144 0.6748239
2248 -0.53217995 1.2457422 1.50863 0.6151 0.42506385 -0.1475875 0.919701 -0.5496934 0.6720963 0.021374572 1.0430973 -0.94499606 -1.7249445 -0.41238624 0.0071514077 0.39205724 0.026811698 -0.17611718 0.48557645 -0.11964015 -0.63109106 -0.31924656 0.8818373 -1.7934196 -0.49743217 -0.24854986 -0.22655281 0.64702314 0.087479286 0.06378648 -0.037197463 0.7292389 -0.56700873 -0.46039364 -0.6002833 -0.44543892 0.43546975 0.39339364 -0.9523655 -1.1474625 -0.6948937 0.668819 -0.0059927446 -0.67378926 -0.22789095 0.39691794 0.18675205 0.7795483 1.2827411 -0.3022846 -0.16000922 0.12069144 -0.34558 0.77002645 0.4954959 0.05210271 0.113978885 0.46516395 -0.68424094 -0.48888287 -0.78473365 1.2361815 0.514875 -1.2472811
2182 0.5390178 0.24860694 0.33901983 -1.085225 0.039474595 -0.06069783 0.18440472 -0.3875296 -0.015386926 -0.37915477 0.16157705 -0.88902026 -0.009664461 0.12582818 0.22248246 0.32156157 -0.6442749 -1.3265034 0.14771858 0.14182872 -0.14191654 -0.73549986 0.33217245 -0.84038013 -0.02613059 0.16396615 0.51048106 0.06621405 -0.41677806 -0.87824064 0.3455854 0.13969773 0.6393125 0.11811465 0.5176776 -1.2642578 0.041855104 -0.46512818 -0.017933188 -0.24887861 -0.065503046 0.012992847 -0.12679364 0.66755444 -0.31417024 0.8128745 -0.43932986 0.23837936 1.1603503 -0.45045683 0.8393764 -0.18492055 -1.0377712 -0.2287344 -0.49351498 0.18706694 1.4283943 0.32342738 -0.22274028 0.18245576 -1.7746089 0.55965346 0.75211567 0.52475244
1308 0.6526153 0.5133775 0.33068275 0.28391588 0.04543386 -0.24994932 -0.45224953 0.9558387 -0.3239152 -1.103452 0.74715626 -0.52396077 0.18486163 -2.082476 -0.5551551 -0.12671915 -1.1757524 0.107707694 0.1930619 -0.2820946 -0.5170854 -0.6530178 0.5087386 -1.0315748 0.79417634 0.2611449 -0.74789524 -0.12816319 -0.904844 -1.1323178 -0.0882239 -0.881307 -1.0375638 -0.2593516 -0.70960104 0.18080668 0.39513114 -0.124605395 -1.0927348 0.4301737 -0.7218532 0.64343935 -0.6297085 0.06366283 -0.037837908 -0.97662544 -0.3062344 0.04763416 0.07433462 0.42861885 -0.2318852 -1.1729075 -0.295866 1.2159107 0.26023784 0.524619 -0.058366753 -0.011798916 -1.2271961 -0.24163254 -1.4962567 0.7279913 0.60217535 -0.071506545
1740 0.80132955 0.37861395 0.74656963 0.44685644 -0.20504352 -0.84204495 -0.4729572 0.2729113 -0.31663388 -0.790239 0.7150872 -0.37749586 0.35585615 -1.2751508 -0.39722866 -0.05040609 0.053473737 -0.3330826 0.4132586 0.024205318 -0.33636615 0.01701226 0.33666176 -0.89052206 0.13315012 0.0523843 -0.460538 0.22430485 -1.1654329 -1.1288065 0.58924913 -0.63305885 -0.8124953 -0.1779934 -0.57023466 0.38117462 0.39074185 -0.21480665 -0.80066687 0.3324074 0.14077856 0.34999484 -0.5398923 0.7838868 -0.36921957 -0.5432543 -0.14909573 0.08257438 -0.32764196 0.13322721 -0.7067465 -0.4239153 0.32552508 1.111372 0.047971573 0.40630713 0.5418128 -0.30008835 -1.2546443 0.024540834 -0.52650857 0.38913012 0.28338945 0.042696558
1627 0.6146001 0.64383686 0.50338686 0.0829999 -0.045253314 -0.44780314 -0.40295413 0.99070245 -0.062112015 -1.1375662 0.8328185 -0.58261037 0.13264701 -1.8344406 -0.6982812 0.223455 -0.9425036 0.20855579 0.25536862 0.07563265 -0.62170964 -0.44937304 0.46560138 -0.97184646 0.402289 0.49899545 -0.7869196 -0.12041777 -0.77907825 -0.8428383 -0.059815556 -0.95675147 -0.7901688 -0.15097632 -0.8090591 0.22372599 0.4036966 -0.2786747 -0.8904856 0.0020820708 -0.6963545 0.9206856 -0.86307406 0.4075813 0.06600896 -0.8411319 -0.085646756 -0.020628087 0.0029650505 0.22656882 -0.21613061 -1.2492715 0.04564901 1.1688491 0.26871422 0.69983196 -0.25282025 0.05026404 -1.2602079 -0.15602563 -1.2389258 0.69108427 0.6680141 -0.17594433
1914 0.26070264 0.049021073 0.0018360973 -0.5411478 -1.5078639 0.010401627 -0.60307264 0.21040776 0.30754066 0.52803034 -0.018629448 0.07116207 -0.16951065 0.15250142 0.3193809 0.42424774 -0.79405504 -0.42846328 -1.0511632 0.72123635 0.23095086 -0.2678601 -0.61316043 -1.4757818 0.25232884 0.5880704 0.091823235 0.5362311 -1.019499 -0.00057042454 -0.13354398 0.2657256 -0.9799399 -0.118601106 0.084837206 0.92781633 0.37887406 0.06800179 0.17678107 0.15512308 0.3737377 0.2114027 0.4006131 1.2385936 -0.06616739 0.34125695 0.42313346 0.2565708 1.357583 0.73761666 -0.6328207 0.20699888 -0.90324885 0.23244776 0.24576294 0.51341826 -0.09943138 0.6823309 -0.57339907 -0.8158104 -0.5493424 0.09664675 1.0783116 -0.34090164
2671 -0.07581145 0.92960805 1.084773 0.75777715 0.012749426 -0.69879556 0.07705349 -0.19258852 0.37440163 0.491498 0.89326835 0.35352683 -0.6781805 -0.3970797 0.036934223 -0.36729258 0.28236246 -0.5257511 0.00528713 0.31701615 0.5346751 -0.3447053 0.27824137 -1.2180934 -0.14134338 -0.09818829 -0.24868976 0.359119 0.010324374 0.79237163 0.4400007 0.77418905 -0.18744417 -0.2398516 -0.8849842 -0.7680419 0.48799145 0.9881606 -0.368437 -0.6997617 -0.3545272 0.25425363 0.39538476 -0.94177717 -1.2362394 0.05391736 -0.2416625 0.726585 0.101731606 -0.68512446 0.3881622 0.030015554 -0.76593393 0.45288846 0.5348788 -0.30187884 -0.7814333 -0.43741903 -0.5470624 -0.19010775 -1.2884322 1.6668855 0.6921878 -0.5391753
1623 -0.27517033 1.2141391 -0.043063484 -0.20907633 0.9553241 -0.3010542 0.6946496 0.07821862 0.6341592 0.44582766 -0.17655346 0.7885035 0.2802012 -0.70902616 -0.68275267 0.26988447 -0.32144782 -0.47245684 -0.4955716 1.1985345 -0.03741423 0.48641413 -0.11517836 -0.20959814 -0.5167335 0.45399874 0.4182775 0.7487762 -0.9736583 0.12447423 0.6669678 0.03917234 -0.7890984 0.7234155 -0.0015825316 -0.27143762 -0.07457941 -0.0010486459 0.15869808 -0.62561905 -0.031032821 0.07161073 -0.50788695 -0.92124414 0.16137402 -0.3297201 -0.1940273 0.04813477 0.24209149 1.4239005 -0.12707093 -0.24991238 -0.7286322 -0.6714372 -0.3033632 -0.1337136 0.10549363 0.9870305 -0.5769805 0.72869885 -0.1320188 1.009904 0.45705596 0.33260363
1902 -0.15092942 1.269323 0.9383394 -0.3335697 -0.34267637 0.49903864 -0.22327712 0.30508384 -0.19076265 -0.5756526 1.0879897 -0.093132675 0.8141226 0.120667 -0.29662615 0.36581188 1.0999949 -0.19737431 0.9553182 0.65129673 0.3381002 -0.96849704 0.33334893 0.124776214 0.61769766 -0.8771809 0.3109724 0.2809365 -0.09312749 -0.68360734 0.1958014 -1.2103453 -0.474573 -0.5936191 -0.4104893 -0.7914342 -0.5806955 -0.16133209 0.3175174 0.6025937 0.9098721 -0.9464654 0.0989169 -0.07117679 -0.3272146 0.7096471 -0.51858157 1.203185 0.6755973 1.4399658 0.5583211 -0.229643 -0.9659256 0.355274 0.023237446 0.30175102 0.36292028 -0.4113501 -0.43088996 0.3953885 -1.191483 0.76824224 -0.3775179 -0.76837236
1765 1.3644944 -0.14631966 -0.10594882 0.7008005 -0.456027 -0.0012844396 1.0325748 0.7428747 -0.17403856 -0.036397737 0.9486044 -0.63313395 0.011370551 0.47617158 0.81595874 0.37824363 0.29552615 -0.77424777 -0.45501462 1.3200569 -0.21463187 -0.18723248 0.62758356 -0.7540335 0.12766798 -0.16204998 0.17906384 0.35680833 0.6337153 -0.23862459 0.6008267 -0.71693325 0.47740048 -0.28737572 -1.2230113 0.19266069 0.14313965 0.0212562 0.16299166 -1.0347356 -0.5734431 0.1110651 -0.24777998 0.6236581 0.42589402 -0.27713522 0.15793718 -0.18632925 0.531423 0.9002148 -0.46194074 -0.902661 0.57315 0.4825749 -0.49791023 0.10241767 0.9752625 -0.6615149 -1.1724645 0.11920204 -0.3829366 0.69111294 0.19724786 0.14831151
1254 0.37534842 0.6089434 0.26809123 0.40411404 0.22677094 -0.03470962 -0.44790846 0.8918965 -0.41289255 -0.8733251 0.50844574 -0.7672986 0.08133516 -1.7679305 -0.80838305 -0.16702637 -0.9989724 -0.081667766 0.078230895 -0.4335156 -0.28285876 -0.7020845 0.3805234 -1.0757372 0.81801265 -0.000537535 -0.45045716 -0.26901773 -0.5232882 -0.80683905 -0.042163204 -0.71391803 -0.79315704 -0.24061859 -0.7340434 0.071467154 0.43032587 0.07477975 -1.1430074 0.38160282 -0.6478355 0.52999276 -0.56565994 -0.0346594 -0.13495567 -0.84029245 -0.50553524 0.20643526 0.20707756 0.612822 -0.3729225 -1.0264895 -0.13154556 1.048154 0.18358222 0.2305161 0.095847785 0.21757677 -1.2861246 -0.14263934 -1.0491134 0.50438565 0.5153571 -0.101523675
2452 0.72074455 0.5840065 1.1678045 0.2828688 0.38263878 -0.5997379 0.013869012 0.6493884 -0.6730186 -0.55951595 0.8813148 -0.39599624 0.62146914 -1.8831275 -0.56423795 -1.1685274 0.5578437 -0.19447005 0.30068803 0.2479652 -0.7996248 0.08710451 0.40032795 -1.4406048 -1.0425392 -0.103522904 -0.6743991 0.40676147 -1.247984 -1.0616974 0.068475194 -0.14042364 -0.7335157 0.17957301 -0.8597533 -0.322228 0.17401223 0.06392273 -0.6643265 0.28567725 0.27956694 0.7850102 -0.012327233 1.7288167 0.013347859 -0.54442745 0.28750288 0.19354504 -0.23850004 0.25428545 -0.2116385 -0.14387035 0.19827439 0.5840813 -0.10899732 0.7382211 0.25938952 -0.10915278 -1.7446896 0.6261001 -0.6052023 0.56783164 0.12727442 0.5230877
2685 0.1438083 0.7712876 0.5330322 1.3254322 0.41428766 -0.737806 0.25036517 0.8413576 -0.15028659 -0.694627 0.39744428 0.21978602 0.6908794 -0.48770577 -0.5483019 -0.6970474 0.62949634 -0.44780564 0.45008337 1.063887 0.0862419 -0.8493072 0.28801826 -1.2710057 -0.815714 -0.6059194 -0.35264808 -0.3874273 -1.6768146 -1.375349 -0.5422796 -0.46347573 -0.8569484 0.65407 -0.33762565 0.12980254 0.21903752 -0.6486462 -0.3784969 0.707078 -0.19872774 0.6953613 -0.017951265 1.6100645 0.6951239 -0.77142566 0.2565224 0.2862802 0.49623922 -0.22677167 -0.23144239 0.74063146 -0.08032023 -0.118175276 -0.37971568 0.935426 0.05373238 -0.3648964 -2.0006788 -0.2844895 -0.39850166 0.713406 0.60285515 0.56030035
2133 0.6291145 0.26204345 0.20773244 -0.46716693 -0.02281374 -0.68648577 0.054235514 -0.89140713 0.41779634 0.0070211533 -0.12676656 -1.5252926 0.20660561 0.21392728 0.37958285 0.15170535 -0.5254733 -1.1384066 -0.0025094475 0.3859876 0.12727317 -0.7017419 0.0573958 -0.36803052 -0.12318721 0.6638905 0.5479185 1.1025124 -0.26629415 -0.586418 0.2112789 1.0522888 0.8086995 0.05339495 0.050433632 -1.5860066 -0.0023257683 -0.34592217 0.12502304 0.7830277 -0.19580711 -0.34833336 -0.51211834 0.52528024 -0.49638724 0.97222525 0.060925916 0.6997064 1.8081818 0.061547037 0.5959249 -0.21181181 -0.8521898 -0.75094616 -0.6833444 0.2995453 1.1863636 0.07401838 -0.15125743 0.36709204 -2.1089501 0.3855021 1.1483719 0.515229
2168 0.18410464 -0.031700198 1.0624119 -0.0001849341 0.9127051 -0.4344635 0.7701982 0.04016285 -1.1653659 -0.9271126 0.5264178 0.009552847 0.46817744 -0.38469508 0.37434524 -0.5868429 0.49301216 -0.81012654 0.13625586 0.3032819 1.0533372 -0.72542626 -0.10756225 -1.2679611 -1.2119431 -0.22334747 -0.7808345 0.27297598 -0.14465636 -0.72027737 0.05753553 -0.11607602 0.95439136 -1.0301722 -0.77272576 0.2412856 0.1479008 0.6664166 0.07232529 -0.5706822 0.590122 -0.31612083 -0.3708165 0.8737662 0.054641575 0.89456326 0.61925894 -0.28023344 -0.22084554 1.2258836 -0.6907275 0.4122575 -1.0696212 0.06279311 -1.3326072 0.3942767 -0.64724094 0.19338161 -0.80927515 -0.3106116 -0.5720577 0.37866685 -0.08116243 -0.1554555
2241 1.0755011 -0.48611394 -0.17911151 0.0814785 0.25518322 -0.03963242 0.3339967 1.0340562 1.1972305 0.49045256 -0.38097703 -1.2199011 -0.25740567 -2.0980031 -0.44984338 -0.5488304 0.3902177 -0.022661516 -0.4848581 0.35648924 0.81584346 -1.1204522 -0.045062583 -0.97715384 -0.4900095 0.8293025 1.549315 0.15493794 -0.20308053 -1.0502132 0.17684402 0.14243855 0.2536144 -1.4012517 0.17881474 -0.30539572 -0.3175027 1.0009005 0.017373484 -0.8820248 0.38991183 -0.350221 -0.20799577 0.29547104 0.47060707 0.15830852 -0.119497694 0.711799 -0.16739908 0.8895279 1.0022776 -1.0660489 -0.41491708 0.60307926 -0.64244014 0.2448047 -0.7839885 -0.7583468 -0.05530823 0.16135412 -0.05984549 0.7177574 0.8063854 0.1837974
2291 0.5088758 0.7467766 0.5527314 -1.0022388 0.4786072 0.01236474 0.4478766 0.32881933 0.58053756 -0.95760214 0.19989666 -0.8388542 -0.005008266 0.16069315 -0.23399818 0.4991064 -0.9303305 -1.2941594 -0.34086725 0.5975736 -0.10596976 -1.0866591 -0.078140445 -0.60207534 0.04197605 0.48599863 0.21231617 -0.10728268 0.01629918 -0.68091226 0.5002369 0.5949148 1.0893812 -1.2658111 1.060629 -0.078002654 -0.6103838 -0.96992505 -0.98293716 -0.6523149 -0.76930714 -0.23980893 0.8770581 0.600686 -0.06821465 0.12379012 0.3147483 1.0380689 1.3633558 -0.23098178 0.31995884 -0.6234146 -0.043052677 -0.5959992 0.6468267 0.6846363 0.36053097 -0.5924658 -0.29308298 -0.09534621 -1.1737887 0.5538634 -0.0117457025 -0.36768237
2518 -0.4887847 0.772988 1.1076672 1.0318995 0.6517569 -0.71025735 0.6764868 -0.5911493 0.7300509 0.65778065 1.094156 -0.30716664 -0.66560555 -0.22960582 0.19117521 -0.0040972685 -0.010269743 -1.0754659 0.37592483 -0.19780414 -0.101559065 0.38165748 0.5036339 -1.4725652 -0.4162485 -0.6679899 0.53747416 0.93173444 0.04984782 -0.19971989 0.23007895 0.13043126 -0.19280046 -0.52784115 -0.28093317 -0.097740695 0.9603468 0.79705155 0.025299275 -0.8727668 -0.6184533 0.1792563 -0.057983786 -0.67096406 -1.2097024 0.2787415 -0.45727766 0.6453308 -0.06845001 -0.41137394 0.5537316 0.25324306 -0.8535832 0.27084696 0.8013699 -0.5467208 -1.0527568 -0.38629073 -0.5830733 -0.40906876 -0.6353693 1.3279624 0.6596113 -0.3881497
2492 1.5045208 -0.12367918 -0.0882144 1.0243353 -0.9219271 -0.22055702 0.85026145 0.7320759 -0.047383048 -0.37764087 1.4173497 -1.3734047 0.85943156 0.51872176 0.99803394 0.47152376 0.1273 -1.0666603 -0.8812645 1.0710007 0.009579044 0.17440477 0.26311484 -1.0934474 0.2627996 -0.5107679 0.4708042 0.52667916 1.4116598 -0.7365461 0.6141256 -0.8417884 0.44593576 -0.23299924 -2.1386025 -0.080720134 -0.20012818 -0.6133443 0.13378084 -0.9381937 -0.87659544 -0.8280061 -0.48500413 0.79478776 -0.16972701 -0.54416645 0.16254988 -0.7701509 0.5457412 1.7657856 -0.560078 -1.0156695 0.54291034 0.5164125 -0.75915337 -0.1331736 1.149717 -0.38878247 -1.1894215 -0.070279345 -0.56912416 1.4516013 -0.19889195 0.007854995
1903 -0.1636597 1.0181087 1.022611 -0.62804765 -0.30146715 0.5791465 0.2955136 0.6566512 -0.21181323 -0.022677226 0.46300837 -0.5762268 0.6087202 -0.9508179 -0.11004044 0.629559 1.214261 -0.1717977 0.94573873 0.14683184 0.38364074 -0.5959622 0.74411744 0.2019527 1.0735224 -0.7042588 0.47128162 0.6001134 -0.15045936 -0.84533066 0.20792533 -1.454738 -0.19179967 -0.70523286 -1.0060234 -0.562174 -0.51063585 -0.3866885 0.91730547 0.3199168 0.6296221 -0.6970939 -0.23422033 -0.20877996 0.15947448 0.5386439 -0.19628312 1.1850159 0.82437843 1.0905243 0.8891766 0.070485376 -0.9195322 -0.12392674 0.42145967 0.17871577 0.6797802 -0.21540937 -0.340788 -0.26759538 -0.75140375 1.1190721 0.1569076 -1.3504349
1441 0.9213185 1.9758228 0.23827581 0.09129718 -0.49180987 0.5680042 -0.37033957 0.36131603 1.1217583 -0.021878159 -0.34955585 0.9104322 -0.0046844883 -0.95485544 -0.083149225 -0.47575873 0.42024177 -0.20182104 0.47378182 0.039977618 0.21559368 -0.10195759 0.12364084 -2.043049 -0.11926942 0.5480086 1.1970407 0.5742846 0.7598234 -0.5436689 -1.013397 0.38755718 0.0074323355 -0.24329199 -0.54930425 -0.028940536 -0.35283482 0.5038566 0.64956635 -0.3558915 0.80727243 -0.18081535 -0.16043197 0.71368873 0.8583946 0.075714156 0.8615157 0.7633139 -0.27316183 0.8699873 0.31300333 -0.60623854 -0.5890067 -0.20669582 -0.48683503 -0.17683843 0.86475974 -0.57848614 -0.14451645 -0.13007987 0.5228775 0.6008072 0.3274158 -0.9118357
2367 1.4767928 1.1048784 -0.26964578 0.2733322 -0.8760293 -0.12797174 0.032426383 -1.1253515 0.45506456 0.647157 0.94380766 0.35069323 0.7021664 -0.6779238 -1.3421531 0.9913114 0.33176973 -0.4510713 0.1485589 -0.4833197 -1.0431001 0.14535621 -0.27183092 -1.2383183 -0.3468688 -0.26091066 -0.09006578 1.0487238 0.7653446 -0.24614093 0.1496791 -0.41663042 -0.79435426 -0.2621323 -0.3246878 -0.49396098 0.4184881 0.5874535 -1.0390925 0.3490328 0.9243693 -1.6172814 -0.22279716 0.5324692 -0.0010836226 -0.24111837 -0.25020453 0.8965243 0.24991834 0.9713709 -0.62977785 0.0008320079 -0.5628043 -0.4504521 -1.4226364 -0.29456216 0.094108656 0.18516836 -0.0900249 -0.8405711 -1.434449 -0.12675898 1.3258913 -0.02370425
973 0.38654006 0.63725275 0.079903275 -0.71858644 -0.75922656 -0.6431155 -0.07266575 -0.6872259 -0.06165324 -0.2806792 -0.62367827 -0.26867992 -0.7102003 -1.272746 -0.7452416 1.0643165 -0.43335795 0.015122234 0.46366128 0.79653955 0.8220489 0.1711565 0.6864951 -0.7040266 0.13527068 -0.1558053 0.22146092 0.43695104 0.32352933 -0.5737302 -0.074353 0.29644448 0.1755784 0.33170828 -0.37196693 0.4713672 -0.7331376 0.3666831 0.2014507 0.37737802 0.7346525 -0.3424788 -0.20706064 -0.4564822 0.06703618 -0.15999751 0.061428055 -0.48167977 0.27665403 0.07886324 -0.670438 0.29124403 -1.3571013 0.22735566 -0.04445544 0.74847794 0.031153293 0.10567231 -1.5413492 0.297235 -0.78731155 -0.04142983 -0.333586 -0.50560534
2270 0.6542051 1.11701 0.4452946 -0.817835 0.4223843 -0.51848257 0.15952997 1.2838655 0.8735463 -0.0117491465 -0.63275504 -0.3156328 0.60293096 -0.10447208 -0.037709706 0.23621759 0.4488608 -0.50767696 0.001170405 -0.61748344 0.4661269 -0.6421019 0.64575684 -0.8354687 0.27164787 -0.6655698 0.11267153 0.8716504 0.5410416 -0.45629504 -1.0931779 -0.27459347 -1.0385132 -0.51072603 -0.8071372 -0.40113762 -0.13027786 -0.03214976 0.6790763 0.9778399 1.1225008 0.05336723 -1.4621378 -0.3394632 0.7236174 0.58573145 -0.033031836 1.197144 -0.024422966 0.7623905 1.003757 -0.96071506 -1.0882243 -0.2978703 0.5709184 1.2131064 1.1942006 -1.1487303 -0.4135779 0.37551844 -0.5968133 0.8881116 0.02863033 -0.82185835
1894 0.36655495 0.10140539 -0.09103804 -0.044211466 0.17052004 -0.4639329 -0.32467818 0.013912605 -0.4145514 0.70235825 1.3551689 -0.42753154 -0.046216846 -1.3785759 0.11574616 0.4698618 -0.0071372655 0.37105045 0.14775118 -0.10670425 0.078912355 -0.40312916 -1.4738165 -0.8987587 0.7430811 -0.40556598 0.6894068 -0.10625671 -0.6938818 0.09209141 0.23810585 -0.20642601 -0.25849587 -0.095090315 -0.641895 -0.17438515 -0.2691643 -0.20934133 1.0103372 -0.36780256 -1.605498 0.058900286 -0.8415739 0.19946492 0.7680105 0.29067007 0.43138075 1.1365386 -0.11159122 1.5258503 0.63020223 1.6318111 -0.04913053 0.6840281 0.20170161 -0.39341784 0.21991673 -0.9192459 -0.6268642 0.4137896 -1.0089602 -0.48052087 -0.2584664 -0.06866182
2122 0.41092747 0.9409177 0.13278641 0.1094831 -0.4861686 0.16918136 0.77062225 0.09455749 0.36967832 0.68492085 1.0109553 -0.7415057 0.064832285 -0.60522676 0.7724575 -0.7139645 -0.9225899 -0.7225506 0.5733259 0.9487422 -0.252556 -0.41192526 0.40642467 0.061937846 -0.08147119 0.27387938 0.3350222 0.69835776 -1.1760535 0.11577155 -0.5156122 -0.24919312 0.54072934 -0.11577771 0.6084726 -0.20162177 0.3687282 -0.3383839 1.122305 0.24195483 0.07203959 0.25181955 -0.48267248 0.22474402 0.14891051 0.7025365 -0.19188412 0.9738537 -0.33138394 0.77183825 -0.9470395 1.3925562 -1.0463492 0.14846823 0.07217426 -1.1911258 -1.0819993 0.058326427 -0.32940987 -0.24849018 -0.4841646 0.69241506 -0.8522183 -0.29229006
1829 0.13686222 0.8277922 0.54519224 -0.16156101 -0.17350565 0.030077146 0.2629931 0.5685348 0.6977309 -0.5428192 1.1183815 -0.19974719 0.8729168 -0.51928633 -0.4888894 0.534253 0.8106316 -0.1550883 0.8798428 1.1471732 0.7840987 -0.6129326 0.1795187 -0.11046519 0.9525414 -0.8409336 -0.07419601 0.9170273 -0.59585524 -1.2409343 -0.900911 -1.332157 -1.0928441 -0.51361895 -0.5287973 -0.59286815 -0.015434768 -0.04139927 0.3528311 0.47822595 1.0971931 -1.0936365 -0.2839249 0.27637962 -0.16757266 0.27307975 -0.74953485 0.78938985 1.1796297 1.6211102 0.59975165 -0.041723758 0.08912888 -0.113082826 0.1021892 0.45444956 -0.10923118 0.22677504 -0.85827804 0.39583203 -1.0062348 0.27791366 -0.0262196 -0.5180904
2359 0.5523662 0.83786875 0.155024 0.12005368 -1.093515 0.34254834 -0.088981256 -0.43501863 0.6159415 -1.0907899 1.3341782 0.4021445 -0.23247659 -0.4312278 -0.5207237 1.0220388 0.37407324 -0.7604412 -0.490215 -0.016426517 0.37339285 -0.4315585 0.5293652 0.750833 -1.2486075 0.6814379 0.036103938 0.44782528 -1.1404421 -1.0929565 0.70348394 -0.07482231 0.65029657 0.09131647 -1.6938995 0.1626946 0.8535609 0.30145276 0.5320605 0.43853262 0.23707645 -0.8585597 0.16329706 0.7104223 1.0777808 1.4224063 -0.3323673 0.6926573 0.1723766 1.1519133 0.3029024 -0.36355206 1.2377793 0.5682429 -0.440105 0.19870426 -0.28013033 -1.415469 -0.6188982 -0.65077406 -0.14628053 0.7778898 -0.39327374 -0.22050446
2123 0.63233346 0.90016377 -0.5145401 -0.34180292 -0.68921375 0.2198347 0.8160792 0.2453943 0.6707374 0.36796713 0.36395776 -0.7616735 0.020379234 -0.9279842 0.46090916 -0.98363626 -1.0738541 -0.69697416 0.3556176 0.5816848 -0.13332744 0.16601297 0.65714896 -0.008399582 -0.12113484 -0.1861336 -0.545111 0.43252304 -1.020937 0.059117556 -0.087548435 0.0260274 0.30439904 -0.6114915 0.25711608 -0.22159916 -0.2943418 -0.30607215 1.3602569 0.5160001 -0.38308683 0.12493952 -0.72912925 -0.08694705 0.3951933 0.69670755 -0.2540619 1.1363863 -0.080482535 0.20813623 -0.838367 0.8743986 -1.0792493 0.20430888 -0.52021927 -0.8283788 -0.8068687 -0.3778317 -0.84097457 -0.2596678 -0.45681188 0.38345715 -0.98381615 -0.4605178
2169 0.3399578 0.22119315 0.8634309 -0.86721176 0.9039961 -0.42711166 1.3032727 0.23442818 -1.7274375 -0.50398254 0.40117028 -0.19367942 -0.07993634 -0.75829047 0.48706982 -1.145487 0.66632456 -1.1279056 1.3910238 0.6921032 0.97127134 -0.57671773 0.115590915 -1.4577894 -1.171544 -0.14746358 -0.7565771 -0.09670903 -0.8481451 -0.2547803 0.14540415 -0.45574927 0.91444373 -1.2689852 -0.51290363 0.11150048 -0.22184432 1.5079993 -0.4681807 -0.88734984 0.7330158 -0.078795895 -0.55391306 0.5984288 0.24108985 0.2855613 0.28758863 0.2879154 -0.17976968 1.1126102 -0.40450704 0.49743822 -0.8619813 0.5284957 -1.3602493 0.6956917 -0.063714005 -0.52465546 -0.5112437 -0.03380834 -1.0909965 0.682843 -0.48716184 -0.14579713
2269 0.74108046 1.2774715 0.8974981 -0.8550494 0.00088826683 0.007382272 0.551738 0.29275262 0.59399444 0.0011633267 -0.74393076 0.014844856 0.5276838 -0.1792564 0.0737312 0.6169781 0.8666893 -0.71259505 0.45667648 -0.28549883 -0.048546247 -0.33924744 0.31129798 -0.89093506 0.6460997 0.05208908 0.48005852 0.9783005 0.5379897 -0.66422564 -1.2704884 -0.6561402 -1.1134341 -0.6668738 -0.47915247 -0.4188946 -0.3838325 0.08078125 0.92428356 1.0930997 1.0536283 -0.40866768 -1.1456262 -0.34522974 0.46782437 -0.029026398 -0.38850257 1.5259306 0.121946506 0.9561575 0.7053633 -0.7888211 -1.4028525 0.09223243 0.4067811 0.9999944 1.0970833 -1.0128685 -0.48210993 0.20981199 -0.01615547 0.9083544 0.005523269 -0.86571354
883 0.6640506 1.1102673 0.76554626 -0.18512912 -0.13221307 0.17565021 0.49690667 -0.06987365 -1.3495979 -0.74358064 -0.016305521 -0.118532136 -1.167561 -0.27203348 0.021308007 0.81851315 0.13577211 0.002177687 -1.6188055 0.52556837 0.35189125 0.58133173 0.40811303 -0.40980333 -0.11210474 -0.37046662 1.727939 1.3044609 -0.95225596 -0.47493693 0.122258596 -0.5606159 -0.25529486 -0.70621204 -1.7655829 0.08295467 0.23287804 -0.47411084 -0.800757 -0.13323233 -0.61916953 0.62449336 0.16215824 0.15751247 -0.050357994 -0.26046365 -0.3155307 0.39557832 -0.43679228 1.2696395 -0.91376764 -1.0420989 0.37604126 -0.6795717 -0.60009295 1.5797865 -0.65398335 -0.25304163 -0.29750007 -0.8523577 -1.0619481 1.5863618 -0.43133837 0.31734538
1950 0.7370576 0.94928086 -0.53057647 1.1860415 -1.4077326 -0.8077153 1.014804 0.94250596 -0.5987713 0.35887825 -1.6784995 0.22850442 0.36424333 -0.78242064 0.5621485 0.111687005 -0.8289736 -0.67714477 0.4827049 0.61305773 -0.18662174 0.05647941 -0.10975423 -0.7163968 0.24076302 0.57882744 0.9222236 0.23330024 0.1844407 -1.5080034 0.3004815 -0.24457143 0.5719507 1.3910071 -1.499643 -0.7022287 0.6183914 -0.20031047 -1.3002498 0.27376115 -0.11447695 -0.8266527 0.34695026 0.160058 -0.0006997393 0.42942116 -1.1225516 1.3761474 0.3615316 0.67044485 1.101877 0.6412594 -0.023196762 0.10968364 0.19978349 -1.0695398 -0.88792735 -1.2873794 -0.44931626 0.07624927 0.43792006 0.31322306 -0.7640316 -0.7196561
2292 0.2777679 0.874926 0.3959921 -1.7242794 0.5752565 -0.088021144 0.667401 0.43868098 0.5242236 -1.3569306 0.61725086 -1.2097287 0.06974529 0.12903598 -0.38280955 0.016519003 -0.71722317 -1.7610356 0.12661102 1.0447788 0.16924773 -1.1346648 -0.07709792 -1.719439 0.04063378 1.1459105 -0.04114844 -0.24815682 0.33907664 -0.9821434 0.75269926 0.17492491 1.3496932 -0.933668 0.31755933 -0.51829076 -1.2208873 -0.2900697 -0.5788447 -0.835538 -0.7450176 -0.27012157 0.9613995 0.60968506 -0.25379315 0.35248938 0.2119872 0.8380225 1.5211707 0.11285863 0.25838822 -0.1283595 -0.044911403 -0.80655557 0.69133914 0.97948176 0.5668434 -0.34846345 -0.0820912 0.29957372 -1.3187971 0.10055896 0.5609064 -0.59033126
1255 -0.041543547 1.4553176 0.56581736 0.23496556 1.7278938 -0.0741471 0.10834025 0.009775802 -5.9113525e-05 -0.84375453 1.8886446 -0.69481933 -1.2948003 -0.72979915 0.14588836 0.22326738 -0.37255684 -0.36476707 0.059935346 -0.5613898 0.009396536 -0.8576849 -0.18567549 -1.937256 0.8132503 0.28010586 0.040445585 0.7338167 0.3063435 0.38964987 0.5329954 -0.071759276 -0.100512266 -0.4345025 -0.108858064 0.49467218 0.48139334 1.7174389 -1.2649363 -0.5884017 -0.5703761 0.015157867 -0.43110406 -0.13696872 -0.14012372 0.5084322 -0.031832162 0.4424571 0.62425405 0.4725076 0.7270656 0.13546269 -0.713405 0.1881266 0.0007998861 -0.13419086 -0.33835006 0.30775326 -1.522318 -0.41046926 -0.06929577 1.3415614 -0.5500847 -1.337063
1927 0.5429919 0.163678 -0.2564207 -0.32515585 -0.5136876 0.5305808 0.014890586 0.2502928 0.5561893 0.032172132 0.8127663 -0.07583691 -1.5882871 0.6988179 0.54512817 0.34453642 -0.4713629 -0.51875544 -0.6224721 0.7949573 0.1210334 -0.5966287 -1.1333717 -0.9443706 -0.5942333 0.15927108 1.5075002 0.83499146 -0.013606862 0.3750167 0.5400893 -0.17946886 -0.3416591 0.6791503 -0.12036776 -0.43460333 -0.09987344 0.4964108 0.1433639 0.8358823 1.0177895 -1.1160942 -0.89005226 0.32222545 -0.04848777 -0.862688 0.30322853 1.2222487 0.40457782 -0.17625505 0.37997705 -0.049822293 -0.7653318 1.7271395 0.6062278 -0.17754968 0.079915024 0.62756747 -1.1616348 0.25959393 -1.3707354 0.47173664 -0.5560981 -0.22739597
2238 0.3949371 -0.14344975 -0.8748231 0.31421822 -0.33780137 -0.3533483 0.16609874 0.44343305 0.6778565 -0.38478926 1.0338405 -1.04466 -0.67584956 0.14704485 0.28272468 -0.07831723 -0.99298126 -1.1348648 0.42478907 0.012481339 -0.011461197 0.9109326 0.75434554 -0.49289966 -0.8992722 -0.4618162 -0.14921384 -0.017283587 -0.12382881 0.38021383 0.14036448 0.19009368 0.4757716 0.7349256 -0.31872788 -0.09441709 0.33747888 -0.15275122 -0.7874808 0.10775563 -0.71086764 -0.8700691 -0.6179901 1.1637825 0.72587746 0.20825292 -0.46652314 1.2390124 -0.692202 0.94530636 -0.038988482 0.6007081 -1.3623762 0.40502435 0.2981283 0.36128342 -0.8073903 0.8070189 -0.64494544 -0.5566206 -1.0433154 0.22301687 1.7736329 -0.56014276
2025 -0.23416124 -0.083732925 0.012937067 -0.68276167 0.17468253 -1.3013986 -0.22857334 -0.13707696 -0.033299483 1.2076136 -0.3450671 -0.5430036 -0.31303692 -0.45478535 -0.05222493 0.15086044 -0.55592936 0.32647043 -0.28167412 0.4330735 -0.03918424 -1.1735415 0.6813245 -0.73948425 0.053560793 -0.37270597 -0.013495947 0.8870014 -0.42411372 -0.29489553 0.1915279 0.36138555 0.85137963 0.3181888 -0.2793887 0.97382265 -1.6128966 0.7562708 -0.67885387 0.23951821 -0.922246 0.13254696 0.34313908 -0.32981157 1.2584764 -0.12124747 0.044081565 0.22409295 -0.02184578 0.7908933 -0.7514926 0.35753226 -0.5486562 -0.104311876 -0.18824138 -0.5034403 -0.17567123 -0.039810546 -0.47806674 0.61651397 -1.1459934 0.29012635 0.5995651 -0.5922213
933 0.38493654 0.6372275 0.85978526 -0.23054054 -0.3023765 0.35593602 0.533823 0.25160283 -1.0893416 -0.93804985 0.11591983 0.12888572 -0.5874609 -0.33487192 0.14572272 0.6720581 0.28145945 0.096308686 -1.48316 0.5063834 0.2032845 0.8782432 0.045987993 -0.6060536 -0.22266467 -0.35722792 1.5751979 1.391251 -1.0330065 -0.15977918 0.29952332 -0.67562526 -0.09467464 -0.6644867 -1.7930984 -0.10409299 0.38707337 -0.5497697 -0.84471273 -0.10662511 -0.4954526 0.65066886 0.23707221 -0.082890995 0.26940212 -0.36141703 -0.433671 0.58776444 -0.46708748 1.1331482 -0.8567151 -0.78827214 0.5879962 -0.44938642 -0.85153455 1.3199441 -0.34557006 -0.31585264 -0.102791384 -0.77585465 -1.182817 1.5595399 -0.34856188 0.6715731
2242 1.1663185 -0.43030873 -0.12791008 0.2278681 0.1417889 -0.14214599 0.32437783 1.3274245 1.1346325 0.4771261 -0.5848078 -1.3913963 -0.04943147 -2.3302188 -0.41459143 -0.49956232 0.286519 0.24719952 -0.32052198 0.64295435 0.984551 -0.9871868 -0.31010818 -1.1826782 -0.72277284 1.037988 1.554302 0.18572158 -0.17932254 -1.082174 0.5899771 0.09378975 0.2393396 -1.3289063 0.24274841 -0.25957432 -0.32921055 1.2803167 0.15873209 -0.67045146 0.5914454 -0.1561625 -0.008018622 0.35936657 0.724055 0.17864218 -0.24140829 0.78740305 -0.10950785 0.90945655 1.099063 -0.89909506 -0.3596185 0.5006059 -0.7597206 0.40443724 -0.7649309 -0.8239407 0.08245976 0.15411513 -0.22186226 0.9163116 1.1130222 0.25136894
2450 0.8064313 0.56118053 -0.06679112 -0.68497866 0.582227 1.0380038 0.04712797 0.33823848 -1.1947939 -0.7300278 0.13894108 0.1371567 -0.51750666 -0.6227309 1.1484629 0.8963604 0.7690107 -0.8932892 -0.54823476 1.2739371 0.20230289 -0.15321606 0.02238804 -1.3856134 -0.044005014 -1.1712056 0.39072216 -0.20190544 -0.29249984 -1.3958229 0.1276501 -0.13588236 0.4755148 -0.22438641 0.20429322 0.11804943 -0.76243675 0.053819127 -0.40437955 0.21362442 0.444217 0.06020576 -0.6355134 1.1284956 0.040634844 1.0347053 0.22333562 -0.7822623 -1.1501606 0.49459302 -1.0414681 -0.7659262 -0.6610457 0.034904797 -0.57886326 -0.24743992 -0.09289729 0.32609367 -1.0114303 -0.68756837 -0.32323647 1.0758173 0.9316325 0.3070471
1692 -0.3472927 0.6063467 -1.1466728 0.78049886 0.012025051 -0.6088613 0.7835999 0.46203142 0.5374637 -0.5509639 0.79463327 0.5408233 0.0023647246 -0.96274775 -0.07323069 0.87085515 -0.53801423 -1.3381987 0.6546978 0.84075856 -0.04058185 -1.6862528 1.7608978 -1.27778 -0.26603687 -0.36279225 -0.6068033 0.9409677 -0.5590567 0.31078956 0.053023163 -0.3922062 -0.24216819 0.022001632 1.150375 -1.0411685 -1.5133084 -0.06653328 -1.0266786 0.5779766 0.027770529 -0.2668814 -0.18059814 -0.014476159 0.056853276 0.2554375 0.3878102 0.30434802 0.28542006 0.9222492 -0.82380617 0.2441168 0.4193802 -0.15037139 -0.055742078 -0.40672734 -0.43716428 -0.5837992 -0.5451058 -0.6790099 -0.47634357 0.31186494 0.42570013 -0.06834918
2335 0.83008486 0.24804318 -0.1439563 0.6603586 -0.421456 -1.2306896 0.4959167 0.3490769 -0.5369504 -0.9572535 -0.17840342 -0.38345295 -0.8430942 0.12068506 -1.0686364 -0.5535703 0.5884199 -0.4019015 -0.7044399 0.37543988 0.37779772 1.1419288 1.468101 0.11797407 -0.14791654 0.20959875 0.7579609 0.9972005 -0.5822702 -0.26673836 0.8372714 0.6836448 0.7113828 0.21589305 0.6503244 1.2319 0.21665603 0.32845864 0.48708764 0.5342296 -0.4980547 -0.5604531 -0.27003628 1.3531978 0.1323439 0.7700931 -0.958737 1.6377962 0.87170553 0.8459232 -0.37503222 0.4804084 -1.0568451 -0.052848898 0.64656544 -0.26432464 -1.012595 -0.70325065 -1.0299059 -0.1736891 0.110037826 0.26253188 0.7448514 -0.037481725
2538 -0.10027666 0.7415065 0.8320797 0.8673402 0.5616554 -1.3170605 0.6745525 0.0069896015 0.6064378 0.32258013 0.6094862 -0.5688283 -0.75036794 -1.0765545 -0.033532046 0.009898079 0.59590566 -1.1745651 0.5350307 0.40591228 0.04803743 0.65692806 0.68863106 -1.5642715 0.13730611 -0.11073409 0.25585666 1.4808098 0.20552224 -0.13411847 0.30657655 0.24656767 -0.7874065 -0.8380654 -0.011663909 -0.14942871 1.2549804 0.5871262 0.40871844 -0.74201703 -1.2119955 0.138586 0.68360883 -0.490271 -1.3490996 -0.03958711 -0.7210391 0.66048676 -0.23493388 -0.94668055 0.89119476 0.50996566 -0.464002 0.25370368 0.46331054 -0.14391494 -0.9267511 -0.2777089 -1.1743926 -0.21304843 -0.60284615 1.3914312 1.0034953 -0.48080122
1542 -0.20558254 0.63563514 0.06771584 -1.0350835 -0.8624403 0.24668796 0.4511631 0.8970456 0.45472074 -0.10914585 -0.09294239 -0.661948 0.6504736 -0.86841005 0.3008267 -0.05240468 -0.12755069 0.53579414 0.1947932 0.69490767 -0.23634715 -0.25971282 0.2576975 -0.56915396 -0.64144653 -0.011582583 -0.31674373 1.1560615 0.7031236 -0.31471708 1.1511999 1.0610546 -0.517911 -0.4072598 -0.38674915 -0.9368814 -0.8752146 -0.10170119 0.35190314 0.8162889 0.5663647 1.1182601 -0.10445579 1.3235323 -0.5561654 0.39453688 -0.68520755 0.50669223 -0.03149306 0.77131075 0.98238784 0.10880347 -1.2506672 -0.18461032 0.20081662 -0.25831974 -0.58051187 -1.1246209 -0.094165 0.48753926 0.58725125 0.73064244 -0.19668567 -1.1513712
1776 0.4637105 0.61963403 0.85484 -0.33368617 0.38309348 0.19082619 0.41849756 -0.44376606 0.19180328 -0.8255765 0.2278752 1.0600615 0.021580243 -0.027604826 0.363307 0.1285681 -0.0889082 0.11917436 0.4961768 1.0945632 -0.37679365 -0.53059083 -0.29798946 0.0766027 -0.45451412 -0.04189149 1.1339679 0.4247867 -0.34887564 -0.9389472 1.0608895 0.07585622 0.3446514 0.007759035 -0.84790075 0.6912594 0.7471049 0.049170863 -0.4136612 -0.68310475 -0.55654144 0.12694772 -1.0296518 0.5018119 0.5587686 -0.030664532 -0.21758237 -0.06462203 0.011180963 0.5942683 -0.7821958 -0.35070553 -1.6691451 -0.30395725 0.05298316 0.72318655 0.22026302 0.48283398 -0.042259976 0.5972152 0.23663387 1.3607816 0.5755693 0.048389893
2155 1.2490646 0.029375115 0.19660258 -1.0478287 -0.8335384 -0.17632328 -0.3723035 0.5720942 -0.9986576 -0.56848764 0.30730903 0.13525105 -0.8041172 -0.38863063 -0.79317135 0.3924192 -0.8660459 -0.752177 -0.11822712 0.81579053 1.9343562 -0.6399677 0.12657969 -0.6796979 -0.6294431 0.28098753 0.2396774 0.9522119 -0.04432271 1.0590613 0.49243653 -0.16851655 -0.41975695 0.5364459 -0.18817826 -0.10374632 -0.6655414 -0.04832056 -0.08390468 0.6205552 -0.50558805 0.49998456 0.63337785 -0.7586449 -0.24598962 -0.02898717 -0.2785442 1.1401771 0.15042202 -0.029769484 0.145165 0.7911163 -1.3362802 0.40262923 -0.13320504 0.33486855 0.5946367 0.3281825 -0.72726005 -0.6141602 0.0032647278 -0.24999832 -0.13715549 -0.5198747
1013 -0.24806558 0.22774588 -0.061778605 -0.8202647 -0.04511939 -0.55964 -0.2554894 0.0010999066 0.3851397 -0.28038675 -0.20639555 -0.11073068 -0.29422662 0.0050589927 -0.04605182 0.0025917052 -1.4894913 0.6307509 -0.76208603 -0.10070005 0.26446217 -0.55761915 0.41397342 -0.7129684 -0.44852766 -0.038176723 0.014961143 0.35787868 0.56642604 -1.4887487 0.21331406 0.4446561 -0.6259202 0.05322904 -0.5266796 0.645327 0.40389776 -0.05297998 -0.72805333 0.63324636 -0.08735513 -0.9342892 0.4200678 -0.65469354 -0.30872503 0.30097118 0.06128188 0.5445437 1.1532419 0.9704562 -0.39605197 1.2061867 -0.44068876 1.421641 -0.64145064 0.2515181 0.74813616 0.007066765 0.037217654 -0.5103078 -0.03720391 0.4580751 0.42857406 -0.605336
1531 0.2897298 0.94742113 0.071592785 0.7541807 -0.06728503 -0.24938373 0.46804836 -0.43247002 0.5952637 -0.2252819 1.6774544 -0.9263265 -1.3104657 -0.22455564 -0.1635487 -1.7165598 -0.48764315 -1.5155383 0.4895027 0.54494965 0.6495705 0.22424869 0.0304247 -0.25174817 -0.15483975 -1.1353805 1.2088772 0.5543932 -0.4769878 -0.5648555 -0.3764703 0.86290336 0.18776368 0.04490304 -0.1539418 -0.14936745 0.21256126 0.65489274 0.17130196 0.75286615 -1.1776345 -0.34117395 0.03348031 -0.21846361 -0.5516026 -0.2030483 0.4332374 0.44271067 0.5076101 0.8567311 -0.3172783 0.06801394 -0.24967556 -0.0507832 1.0309471 -0.24550943 0.44945863 -0.57093424 -0.30473474 -0.14330985 -0.674231 0.86734676 1.1241527 -1.1637899
2083 -0.057114795 0.5533461 1.2988719 -0.06979724 1.401879 -0.61840624 0.7267159 0.62681 -1.1920379 -1.1253662 0.7727229 0.33502766 0.36878267 -0.5025391 -0.5345312 -0.30336574 0.7132835 -1.0744152 -0.38745394 0.83016187 0.8967411 -0.80607986 -0.58246595 -1.1959444 -1.2948078 -0.61902 -0.75451463 0.4535745 -0.07435237 -0.8928002 -0.06953595 0.10353294 1.0684532 -0.8885007 -0.6072464 0.31031895 -0.37451828 0.63096446 0.24129222 0.11489855 -0.03226807 -0.36966288 0.25727442 0.7311045 -0.13165031 -0.044814754 0.91338426 -0.19286558 -0.0149736125 0.68269634 -0.602784 0.18452534 -0.63212746 0.29583102 -0.41071194 0.24204198 -0.75338775 0.036581747 -1.0443126 0.5922159 -0.1849761 0.31004158 0.64553934 0.64889365
198 -0.024366444 1.3498385 0.6189147 0.23200358 1.6088636 0.22885412 0.10441467 0.2639246 0.24092363 -0.7938274 1.5513079 -0.59407705 -1.1138413 -1.1786729 -0.16734023 0.01286665 -0.31663668 -0.59558123 -0.044002566 -0.6599934 0.11551226 -0.6542351 0.039063513 -1.556129 0.58020324 0.12007141 0.022275425 0.73276234 0.16905437 0.36930767 0.30153188 -0.16468832 0.08891309 -0.1484834 -0.11509362 0.24790823 0.82580954 1.4957274 -1.478527 -0.53361815 -0.26954538 -0.013460677 -0.46876442 0.08452727 0.23583962 0.33737946 -0.23580392 0.30354324 0.72564644 0.45308572 0.6037804 0.36800689 -0.562219 0.23961718 0.03158348 -0.60054994 -0.2997908 0.7215483 -1.4803532 -0.26168928 -0.019154323 1.1315821 -0.3070121 -1.0875934
2464 0.2988193 -0.7139204 0.60988414 0.5706555 0.9735948 0.11320588 0.18030365 1.7172079 1.1833106 -0.26553848 -0.3626823 -0.3711067 -1.2360058 -1.2126215 -0.9348261 -0.46349722 -1.501309 -0.5667922 1.4514722 1.0308107 0.13991544 -0.4013687 -0.31885764 -0.6921935 -0.59547484 -0.6376245 -0.099500045 2.4595003 -0.10236926 -0.32425433 0.21699078 0.63064444 0.69341624 -0.44902644 -0.7649513 0.30918473 -0.020779839 0.5662843 -0.67210555 -0.19599554 0.7546596 0.29891533 0.72728145 0.22052296 0.5310878 -0.027851408 0.56601864 0.94177353 0.14972751 0.3645028 0.03648275 -0.8032093 -1.1465636 0.4914999 -0.21664871 -0.2611811 0.2864699 0.6686499 -1.2021854 -1.2025834 -0.6736502 -0.08328918 0.3499611 0.7091188
1960 -0.3677923 1.1515566 0.47690675 -0.69433165 -0.22619164 0.5271919 0.3230711 0.52457124 -0.39457235 -0.44674358 0.47648612 -0.38347593 0.5162135 -0.35835007 0.23471098 0.6158336 1.484272 0.08961301 1.2533733 0.6418786 0.3119307 -0.8967715 0.5392453 0.06996276 0.60084015 -0.85972357 0.071096264 0.3087577 -0.18921754 -0.6764985 -0.16148207 -1.2636006 -0.2507055 -0.45497537 -0.40483257 0.015360095 -0.5964377 -0.356343 0.45488107 0.4557655 0.6243765 -0.86506814 0.61387116 -0.56757605 0.3608942 0.53637254 -0.42054477 1.1584595 0.43969887 1.6622039 0.8001202 0.21796173 -1.051392 -0.021902297 -0.22499493 0.087555766 0.6658166 -0.48525688 -0.53522205 -0.029094242 -1.0444183 1.0683153 0.78936857 -0.82611173
2391 0.7841814 0.5578674 0.5157585 0.57713145 0.7092113 -0.6076074 0.22889781 1.0134423 -0.55185443 -1.1729403 1.0674404 -0.9527329 0.394065 -1.097437 -0.49679586 -0.93814415 0.6617633 -0.48414046 0.4257858 0.18349268 -0.28946802 0.42527074 0.51603985 -1.2621444 -0.03906151 -0.27114928 -0.5073733 0.7787124 -1.7002962 -0.7072332 0.60395396 -0.48167577 -0.79981697 0.19044156 -1.0969996 0.09745063 0.20328598 0.12547983 -0.89316255 0.6084414 -0.08215996 0.56076044 -0.4634353 0.9919847 -0.10366511 -0.72640675 0.11639479 -0.012952138 -0.2886718 0.2508168 0.047677208 -0.5380639 0.369058 1.0034579 0.075407274 1.0545989 0.19780561 -0.00021511788 -1.6665981 0.21227942 -0.5082991 0.54113865 0.1315444 0.13946576
2375 1.4060701 1.4302645 0.46311554 -0.965873 0.7675898 -0.71259016 0.117939785 1.4729587 1.3073207 0.15083131 -0.68125856 -0.91197085 -0.20254381 0.5349705 -0.4646699 0.45662418 0.33902305 -0.7743625 0.559072 -0.5022592 0.49682623 -0.899249 0.4041375 -1.4291534 -0.38506672 -0.15248644 0.25852573 1.2233596 0.20518766 -1.0142298 -1.010364 -0.53656685 -1.3115157 -0.69420815 -1.1931164 -0.47155005 0.27231804 -0.22934811 0.841657 1.2401427 1.3395686 0.24793288 -1.5918082 -1.0314134 1.0359646 0.605891 -0.13114291 1.5167769 -0.42820114 1.0889384 0.55847955 -0.49670142 -1.0312735 -0.16681024 0.5904692 1.4393162 0.78531975 -1.5720993 -0.100163355 0.7368138 -0.6276503 1.0607454 -0.14964148 -0.21788876
2048 -0.95376295 1.5024472 0.6397801 -1.4976099 -0.61268777 -1.4447714 -0.006232895 -0.26846775 0.013695717 -0.0013943694 -0.06859935 0.8673512 -0.93260276 -0.3483373 0.22927794 0.17481673 -0.6765995 0.31100854 -0.24706152 0.12581128 -0.5189052 -0.4127709 -0.36632484 0.10083215 -0.5260853 0.43236738 1.0568469 -0.23803654 0.19688608 -1.4581759 1.5823812 -0.026452407 0.09206152 -0.82556546 -0.2454307 -0.4010228 -0.043774784 0.74924207 -0.6042548 -0.102617666 0.007944771 -0.15194748 -1.9186044 0.44271162 0.61272115 -0.46816853 -0.06850558 0.31860173 -0.038888864 1.1156464 -0.5125693 0.52486455 -1.2984973 -0.38308227 0.050779346 0.08086249 -0.88811046 -0.10763899 -1.7283456 0.41716322 -0.582688 0.8303833 0.50445855 0.69058
1973 0.3706375 0.0034737436 -0.3049477 -0.16160952 -0.52770233 -1.6946864 -0.36045137 0.5202615 0.26064098 -0.3237549 0.36193693 -0.20498572 0.21961091 0.25171024 -0.009949374 1.1265483 0.24131328 0.5166602 -0.5083658 0.02834389 1.3054014 0.16676049 -0.6412788 -0.9994638 0.19064783 0.44414872 -0.3601809 0.25196695 -0.14885879 0.07423869 0.11459547 -0.0510915 -0.7331944 0.47401956 -0.6249517 0.8446832 0.13473746 -0.15401432 -0.606446 1.6246706 0.5462224 0.7204647 0.17343935 0.12678324 0.40553758 -0.3253072 1.3613608 0.12688659 0.5754152 1.3341647 0.43171772 0.3186198 -1.2672025 0.5864187 -0.99977666 -0.86713815 -0.6210124 0.14557217 -0.84510356 -0.3259942 -0.48653084 0.92999667 1.192539 -1.4626875
2176 0.9313369 -0.03402479 -0.44143382 1.0792949 -0.62702984 -0.40991393 0.73521864 -0.5468808 0.23929682 0.21990895 1.3395002 -0.81466764 0.4609963 -0.7324596 0.47821236 -0.3788199 0.53162754 0.3720912 0.4805148 0.2599026 1.3654068 -0.3369398 -0.42762923 -0.8271866 -1.1648268 -0.2961646 1.8987808 0.5145983 0.59860337 -0.59081584 0.6677998 0.331371 -0.33932897 -0.0801581 -0.15397143 0.39968657 0.49968252 -1.7198322 -0.63974404 0.04313309 -0.7168908 0.65760815 0.9898904 -0.56043005 1.6058595 -0.28266606 -0.1542522 0.5906913 0.06961916 1.5153762 -0.97748274 -1.2856241 -0.73592913 -0.15851681 -0.58731276 -1.0716712 0.23738985 -1.1369587 -1.9223499 -1.0822737 -0.59089273 0.63115007 -0.83537763 -0.19848196
2227 -1.0145848 1.3606161 -1.187334 -0.5818749 0.013394078 0.422841 0.18792333 -0.6212235 -0.2921213 0.32463968 -0.4069726 -0.7076557 1.140888 -0.20592338 -0.035475284 -0.43391234 0.5513649 -0.80134016 0.36317626 0.69258016 0.1536292 -0.2598231 0.06885851 -1.3655058 -0.17799573 -0.8739812 0.28693378 1.063972 0.92387605 0.61695266 0.20692174 -0.34902096 -1.0202876 -0.0011728198 -0.6139881 1.1121391 0.75498325 -0.5924804 0.39752486 0.6658456 -0.92366046 -0.2744343 0.024864182 0.6659289 0.18917982 0.123005606 -0.43736735 0.481165 1.0250458 0.060618613 0.86385536 0.544909 -0.69998276 -0.31171477 -0.7815627 -0.5892505 0.3304846 -0.8263422 -0.83607745 -1.1899889 -0.79510975 1.075177 1.0095283 0.51026714
2309 0.3809307 0.4349221 1.0440807 -0.5674606 -1.84098 -0.42451134 -1.5446839 0.73394376 -1.565364 -0.46773753 -0.5791951 0.50456333 0.5039384 -1.2189857 1.1282022 0.11320837 -1.4230567 -0.74821144 0.47844124 -0.45289648 -0.33745933 0.6243181 0.7478317 -0.674404 0.553271 0.455403 1.4598503 0.0062242565 -0.37626287 1.129814 -0.45976594 0.07392443 -0.1775904 0.5088336 -1.0391395 -0.32414165 -0.85755664 0.4912281 0.014585991 -0.43985942 0.09930769 -0.10135675 0.5570579 -0.29933965 0.33011022 0.36707485 0.46791628 0.5604717 0.74150723 1.3642116 0.5689344 -0.030738767 -0.43320972 0.5428752 0.56759024 -0.55577755 -0.17562512 -0.2014739 -0.10977069 -0.1240917 -1.5222597 0.7692534 -0.0899879 0.5770065
2117 0.13281131 0.19690882 -0.06963945 0.03384017 0.0036764236 -0.6363595 -0.4492133 -0.21994969 -0.16045214 -0.5634894 0.080403715 -0.06972396 0.30271646 -1.7860783 0.53921413 0.75372857 0.5190518 -0.17970465 -0.38853657 0.5212373 -0.10048957 -0.45316866 -1.1296588 -0.70185286 0.21220751 -0.3181938 0.8031283 -0.0054118107 0.009312784 -0.7304961 0.03519163 0.5495834 -1.1669239 -0.65879756 -0.35884818 -0.14211276 -0.26770437 -0.38972768 0.3086738 -0.41660225 -1.5503631 0.55897146 -0.70169663 -0.394378 0.6318923 0.5336303 0.27395234 0.38094515 -0.27472445 1.4460417 0.7668267 1.774711 -0.4679765 0.554261 0.52767295 -0.6446723 -0.26201028 -1.0279175 -0.21678436 0.13984115 -1.1361343 -0.60473347 0.16715574 0.4354312
1721 0.47099492 -0.25405064 -0.45103097 0.0011976217 -0.059045482 -1.0737392 1.0866001 0.65051556 -0.675914 -0.18144809 1.3887036 -0.04487261 0.63751537 -0.90977293 0.9520311 -0.014120248 0.0534948 -0.29725802 0.38826644 1.1398352 0.1920213 -0.79372185 -0.67517585 -0.5498174 -0.53079605 -0.4918516 0.12005343 0.7678332 0.4359911 -0.7995322 0.62508154 -0.56755596 -0.31600887 -0.44148594 -0.78659344 0.5683004 0.10565442 -0.5647347 0.15166488 -0.11455266 -0.40975916 1.0100325 0.5251777 0.5576872 1.0095588 -0.049574602 -0.4291077 -0.040837873 0.026195709 0.27449602 -0.2761732 -1.3965216 0.124175526 -0.37969026 0.13897406 0.25050256 -0.5179531 -0.81259626 -0.50559884 -0.08608459 -0.374358 0.826681 -0.50414515 0.089865275
2394 -0.16893484 1.6868622 -0.39528874 -1.070161 0.6931374 -0.047571633 -1.2194178 -0.48002288 -0.6275518 0.36097506 -0.079412125 -0.8319765 0.8330082 -0.3273569 0.30462041 -0.43514174 -0.26470083 0.31744602 -0.641746 -0.036709767 0.7269682 -0.42859808 0.014983685 -0.9852852 -0.06921353 -0.48802328 -0.3510788 1.132688 0.4471753 0.3372332 -0.074881725 0.014787738 -0.24418667 0.167734 -0.34099218 2.1818392 0.2757373 -1.396693 0.62342304 0.121526696 -0.021665566 -1.0642064 -0.5216121 0.3145864 0.32706794 0.14521508 0.35853845 0.8300543 1.3553963 -0.2868703 0.43234864 -0.16228092 -0.37193877 0.24252807 -1.3685704 -0.15127052 -0.3351511 -0.0446977 -1.515303 -0.98450077 -1.2246351 1.3946838 1.0568718 -0.14981997
2160 -0.27395433 0.89566606 -0.15137601 0.67464805 -0.35820857 -0.5767647 0.4591596 0.43438432 0.050573405 -0.95201653 1.1390824 -0.2496767 0.19914043 -1.0581874 0.090276346 0.10301851 -1.1493876 0.045823097 -1.0012876 0.51396155 -1.1557577 1.0459251 0.8051286 -1.8259829 -0.94855225 0.009209908 0.82878387 0.14764363 0.5366119 -0.41041064 0.5307417 -0.2711428 -1.2617878 0.43570635 0.24361044 0.5240776 -0.47646073 0.95258987 0.83972883 0.54719925 -0.34327316 0.79171634 -0.78664756 -0.7386468 -0.70599467 0.30878505 0.135139 0.6788535 -0.21729144 -0.50152606 -0.36139473 -0.66131544 -0.12875253 -0.6496258 -1.0369613 -1.0083151 0.8978641 -0.23799206 0.47581956 -1.0798913 -1.7731222 1.2374928 0.7438744 -0.3907223
2246 0.99488693 -0.42729712 -0.7354146 -0.59797966 0.0004924099 0.012520748 0.8898194 0.12378903 0.09866951 0.4139579 0.32325318 -0.99961454 0.9961221 -1.3861356 -0.582671 0.5578762 0.23482464 -0.54644847 0.31690112 0.11222646 1.4665062 1.1333618 -0.3863201 -0.2327356 0.21801747 -0.6285534 2.4547355 0.72105265 -0.14803568 -0.7914967 -0.6671025 -0.33916017 -0.030561874 -0.90856475 -0.07406167 0.028243965 -0.38010803 0.12797716 -0.9516545 0.9232247 -0.7636896 -1.213068 -0.4903611 -0.8015894 -0.24093917 -0.35114592 -0.5264857 0.48632735 -0.08844863 0.7695211 0.65927863 -0.41560248 0.045935314 0.050034408 -0.5547547 -0.61719173 -0.48610398 -0.9422385 -0.95492625 -1.1399931 -0.5701776 1.3039063 0.20230056 -0.68019783
2237 0.6628892 0.34081048 -0.093460225 0.31295502 -0.007435981 -0.58196646 -0.28795263 0.8111266 0.31841815 -0.31773615 0.3945642 -1.2356751 -0.2579553 0.66131055 0.19286886 -0.2480247 -1.1990874 -0.58759433 -0.29175657 -0.66926265 -0.15406846 1.4890734 0.6941195 -1.1153009 -0.92375964 0.08249934 0.20408979 -0.027625892 -0.23859377 0.6039149 0.018644303 -0.114508115 0.74910134 0.5846224 -0.43280745 -0.2213788 0.5164672 0.2337727 -1.2356055 -0.06264253 -0.7929985 -0.40727648 -1.0590708 1.180352 0.65357995 -0.17972799 -0.37045217 1.1580216 -0.23445152 1.3929312 -0.19204861 -0.35509482 -1.7928792 1.1484452 0.12818535 -0.11898041 -0.54474056 0.80877954 -0.29953927 -0.88068414 -1.5551852 0.26858893 1.739646 -0.6058079
1966 0.35670373 1.4338624 -0.98293865 0.23886156 0.14494947 -0.752071 -0.4513323 -0.52404445 1.2035652 -0.4017833 -0.22164483 -1.3325142 -1.2054898 0.19031201 0.23245886 -0.22459115 -0.05662766 -1.0443269 -0.046215795 1.0228323 1.5226045 0.2902949 1.2488742 -0.46367934 -0.26660928 -0.92642576 0.4072952 0.04535008 0.12771635 -0.6460704 0.5731478 -0.5329809 -1.0704136 0.41502392 0.050923623 -1.6713089 1.1342528 0.14378847 -0.17772682 0.51632893 -0.6007736 -0.6186533 -0.16823786 0.7577254 -1.0883529 0.28503084 -0.16620483 0.90129685 -0.47529554 1.0753549 -0.8912931 0.27862304 -0.14473544 0.40023997 1.2769376 0.33438468 0.13492997 0.42264923 -0.57854575 -0.68586934 -0.23332274 0.7693157 0.7121934 0.26755998
2118 0.11013622 0.52770615 -0.21265359 0.38102138 0.27007246 -0.5491888 -0.31755567 -0.41287455 -0.0024062213 -0.14611328 0.5510037 -0.26173308 0.4147934 -2.1361482 0.2966154 0.77067816 0.42685583 -0.18904427 -0.30694202 0.52923256 0.19330509 -0.3443037 -1.3582019 -1.1898392 1.0247453 -0.4486119 0.9001473 -0.22469679 0.4072824 -0.37423655 0.4535707 0.4034068 -1.3161173 -0.68697065 -0.7618508 -0.16072951 -0.14894022 -0.51316404 0.6275994 -0.7224671 -1.5177636 0.38886693 -0.87209 -0.3828775 0.68138295 0.5425374 -0.009426833 0.6934504 -0.33377513 1.6398385 0.27834064 1.9846971 -0.6276957 0.6971595 0.7225356 -0.83667094 -0.5868742 -0.6161961 -0.7489922 0.7107404 -1.3394153 -0.48573285 0.04504484 0.0065205116
2054 0.35651973 0.12463516 -0.24911655 -0.893176 0.57707715 -0.65145826 0.5735844 -0.79654807 0.331114 -0.22731331 0.14279915 -1.0916967 -0.1556982 -0.0020827223 -0.14800428 -0.05042386 -0.34365574 -0.8566764 -0.45764676 -0.13402283 0.025709365 -0.27017435 -0.37400562 -0.59288096 -0.45077088 0.63953465 0.5129697 0.770892 -0.0014814561 -0.1306497 -0.17781536 0.11617431 0.20376956 0.61465836 0.11360384 -1.3029348 -0.044692393 0.24594115 0.099555135 1.1665268 0.081667095 -0.16958706 0.2211645 0.6725091 -0.74826115 0.5680828 -0.22976404 0.24662171 1.1815915 -0.23524792 -0.2363513 0.39191806 -0.86471057 -0.8641216 -0.45969236 0.5030178 1.1104103 -1.0562539 -0.33516017 0.5059532 -2.2733347 0.93421435 1.135359 0.4075404
2240 0.764681 -0.5340913 -1.1645546 0.33424002 -0.2730277 -0.8371689 -0.23212883 0.56111115 0.5518842 -0.5119914 0.48844627 -0.851753 -0.65157175 -0.089283206 -0.07387226 0.062888116 -1.0440254 -0.484073 1.0091059 0.19081771 0.09018785 0.9388122 0.7351607 -0.39726162 -1.0450509 -0.097308576 0.15717348 0.809007 -0.291483 0.07357214 0.41465655 0.35650355 0.5882819 0.22321306 -0.8825279 0.013001112 0.2538664 -0.54456556 -0.100054115 -0.4285072 0.3566073 -0.7802212 -0.08497966 0.99795455 0.66217214 -0.12454191 -0.15728632 0.58364934 -1.0917856 0.3971227 -0.33699626 0.41119173 -1.3292297 0.61800176 0.6964361 0.32372367 -0.50478923 0.6845747 -0.46654323 -1.0761818 -1.6551697 0.90905654 1.3653255 -0.6165183
1761 0.62194675 -0.37109333 0.19507094 0.45895657 0.09197064 -0.74170905 0.62038666 -0.072510615 -0.5019522 -0.30606508 1.5599917 -0.33194005 0.61274785 -0.91731423 0.2962312 -0.071782954 0.32055685 -0.16067998 0.2484163 0.51352227 0.9862253 -0.7956914 -0.24883142 -0.6916618 -0.2853771 -0.9040636 0.58607286 0.7138584 0.58471566 -0.6377483 0.92049265 0.04896049 0.13446055 -0.44627175 -0.23704492 0.112290196 0.5160952 -0.91574156 -0.10118258 -0.077840805 -0.364193 1.0857692 0.6681342 0.49728343 1.3048059 -0.59310275 -0.1098588 0.3265132 -0.12190426 0.8103587 -0.84473896 -0.8508683 -0.21171795 -0.37001592 -0.0027001372 -0.76956016 0.25015357 -0.5998523 -1.4396323 -0.8462419 -0.20200543 1.053592 -0.8067774 -0.30187076
2539 1.061298 -0.38787782 -0.07284009 0.33458346 0.34399202 -0.08221527 0.4862929 1.0763404 0.9207225 0.27670303 -1.1432174 -1.0380278 0.203321 -2.1804774 -0.58303815 0.16770203 -0.33690652 -0.13446529 -0.046848256 0.7001981 1.2993528 -1.1812211 -0.082431115 -0.9399932 -0.86843 0.8889265 1.1391605 -0.2265287 -0.10373672 -1.2478077 0.26424843 -0.19293322 -0.11636906 -0.8109441 -0.2770731 -0.19058481 -0.18742257 1.1782002 0.06296396 -0.9076242 0.737291 0.15098286 0.3053913 0.88229364 0.40759686 0.25867325 -0.4437276 0.7654857 -0.5556401 0.65509194 0.6623338 -0.9164369 -0.4940972 0.68952024 -0.37750992 -0.26022047 -0.8188825 -0.6647456 0.27994227 -0.1688783 0.041656803 1.0129408 0.8439525 0.0447063
2372 0.5002412 1.3431476 0.29230598 0.15681048 -1.0087795 0.5227091 0.18443155 -0.7687202 0.22831759 -0.76225716 1.704734 0.74719703 -0.01752834 -0.36271518 -0.9918674 1.2808018 0.43178055 -0.79282033 -0.29778323 0.10610719 0.73998636 -0.9213846 0.24335636 0.49208236 -1.2551283 1.1152849 -0.13009635 0.6703331 -0.87464255 -1.5110409 0.713442 -0.49510017 0.32862908 -0.5718927 -1.780964 0.087186635 1.2885962 0.2746429 0.29580495 0.24729839 0.44049236 -0.19452427 0.06722589 0.6957114 1.2708318 1.7478392 -0.6331936 0.9275979 0.029393736 1.2753485 -0.20799366 -0.30679396 0.7841334 0.91726553 -0.4917057 0.31627578 -0.46786058 -1.6015168 -0.4692619 -0.07302321 -0.19344467 1.0436153 -0.43087828 -0.6157786
1687 -0.18326567 0.020201514 -1.1058403 -0.5643684 -0.082693964 -0.81006795 0.9927609 1.6565552 -0.69127667 -0.6551312 0.73942727 -0.34229103 0.3624671 -1.877172 0.5009922 -0.1735159 -0.2759993 -0.0762506 0.31155473 1.2241968 -0.08465983 -0.81829816 -1.051963 -0.4440256 -0.60494816 -0.27955508 0.720894 1.382468 1.0470836 -0.808793 0.8538427 -0.19411056 -0.4440886 -0.21867326 -1.1503493 0.5609809 0.49047318 -0.6756901 1.0342056 0.041094195 -0.7649527 0.89299506 0.59014356 0.82668066 0.94607145 -0.3749995 -0.18277279 -0.10272746 0.6291517 0.28805175 -0.043535728 -0.9717169 0.079124086 -0.519589 -0.10605196 -0.11707765 -0.85796565 -0.5167399 -0.87515867 -0.3636129 -0.6916133 0.49050197 0.110080905 0.5337773
1038 -0.06941755 0.41545948 0.5875986 -0.31117946 -0.43696898 0.4724142 0.7023544 0.27802363 -0.894271 -0.52670795 0.18075633 0.035373308 -0.1412169 -0.0134018585 -0.11360657 0.45694068 -0.16618581 0.10165325 -0.7046768 0.27572477 0.09710207 0.68275034 0.122476146 -1.0360655 -0.20472363 -0.11638713 1.4254528 0.9149244 -0.79524606 -0.03605574 0.124726176 -0.47322097 0.1737532 -0.3383628 -1.746761 0.008307191 0.35076421 -0.4521927 -1.0161229 -0.48908702 -0.22637728 0.732758 0.29177192 -0.03649055 0.024348961 -0.45180324 -0.5658597 0.21780458 -0.4430454 0.90420526 -0.82156694 -0.51386136 0.72384703 -0.11031528 -0.44733733 1.0682274 -0.11730699 -0.46879107 -0.122518025 -0.5282314 -0.94409454 1.4816364 -0.46985528 0.6668646
2383 1.7796106 -0.8708298 0.33733124 -0.28239185 0.36954015 -0.9121082 1.6064236 1.2901567 0.40876356 0.24407606 -0.13019036 -0.8850797 0.013811221 -0.26410815 0.22985709 0.70824045 -0.5257192 -1.5123038 0.62478024 -0.34194165 -0.48657733 0.22690514 0.27940327 -0.265827 -0.15656301 -0.38683045 -0.55339795 0.5868706 -0.9680658 -0.5850108 1.1185049 0.61506724 0.005736913 1.2467663 0.09091344 -0.8260458 0.67742 -0.45020455 0.65424955 0.8894267 -0.45298776 0.2276648 -0.56169754 -0.4858294 -0.7037932 -0.21700124 -0.97728306 1.6823184 0.49314132 0.6929792 0.70212513 1.3307201 -0.54175675 -0.07502404 -0.31124097 1.0377668 0.014296576 1.3093919 0.676629 -0.6090068 -1.1153519 1.0988714 0.822891 -0.60332745
2247 0.8110731 -0.79727 -0.71695155 -1.5835756 -0.19647452 -0.63345647 1.12809 -0.12897144 0.051673587 0.25852525 0.85794437 -1.0196909 0.94348407 -1.1481508 -0.6101448 0.88841707 0.6891876 -0.16414842 0.68481845 0.31243163 0.87842864 0.77360654 0.2647047 -1.0105842 -0.85533917 0.14852993 1.618021 0.4758051 -0.104415365 -0.6564647 -0.96699935 -0.48353174 -0.6043893 -0.45975494 -0.31592187 -0.6354081 -0.13726479 -0.017602721 -1.2214962 0.7626396 -0.9525227 -1.7644696 0.43084154 -0.79604626 -0.5448708 0.0045368415 -0.5391473 0.81146437 -0.80871123 0.120648175 0.5932576 -0.6679243 -0.23232481 -0.63913697 -0.2984023 -1.4267356 -0.9456221 -0.43760607 -0.7513669 -0.7635816 -1.4027543 1.0450819 -0.873409 -0.43255597
2306 0.6990725 -0.098285556 0.1813101 -0.08528081 0.14942834 -0.3897906 0.5475151 -0.6101729 0.4804613 -0.99009895 -0.40236905 -0.40323722 0.31942415 -0.37459388 0.54861695 -0.17531292 -1.1126233 -1.0648052 -0.49976513 0.99355906 0.18888646 0.6328659 -0.8222241 -1.0019319 0.5187394 0.23719057 -0.15708126 1.4171581 0.31529847 -0.33303183 0.11533225 0.26453492 0.17379047 0.36609027 0.6933722 -0.19135143 0.24445313 0.88700294 -0.8747099 -0.62641126 -0.47169307 -0.6717106 0.04611818 -0.17647995 1.1137435 0.20238458 0.76255274 0.74056 1.8343972 0.58404034 0.5783543 -0.7798083 -0.12431761 1.2957994 -0.8776325 1.2040431 -0.860409 -0.8902988 -0.39056394 -0.33490485 -0.8795899 0.13375358 -0.4440546 -0.64873815
2380 0.40823156 1.0203391 -0.8320623 -0.31301752 -0.4719868 -0.6247375 0.9418534 0.23323742 0.99287903 0.095867835 1.0306101 -1.2776275 0.28186384 -1.5030178 0.5552987 -0.721585 -1.1906208 -0.6421753 -0.22688888 0.33568722 -0.33214673 0.27933636 1.3804106 0.12205202 0.12561701 0.30411667 -0.4510723 0.5674097 -1.1619371 -0.10080196 0.39975274 -0.05524816 0.47286072 -1.2133532 0.48997626 -0.594587 -0.15382689 -0.6402058 1.5844657 0.7898321 -0.43286353 0.12795477 -1.0786518 -0.1700501 0.8541678 1.1382692 -0.21047543 1.910517 -0.51088244 0.36173016 -0.9258722 1.1006186 -1.6760054 -0.006969487 -0.3974947 -1.0612493 -0.6893673 -0.19469506 -1.3028985 0.3235089 -1.006004 0.78957164 -1.1923867 -0.1731547
1873 1.2066008 0.4356827 -0.5078304 0.07341553 -1.0331612 -0.50014794 -0.6925732 0.2685878 0.025354471 -0.6945446 -1.0576416 0.215735 -0.23060924 -0.96516496 0.15275617 0.010751003 -0.48270756 -0.28328225 0.047349297 0.24478468 -0.63262576 0.68115366 0.74738544 -0.8887555 0.44615608 -0.5542155 0.2998198 1.3221872 -1.1049672 -0.31801355 0.26753893 -0.42974892 -0.3937111 -0.47936302 -0.366921 -0.39542076 -0.5064977 0.64053476 -0.11705423 0.43652445 -1.0440495 -0.12778197 -0.8809877 -0.37570658 0.5829258 0.5191272 -0.6862568 -0.39113075 0.5557915 0.025439886 -0.10661381 -0.05809837 -1.4080352 0.18191355 0.33835617 0.019758208 -0.9840385 -0.7397522 -0.5271837 0.46406803 -0.12427986 0.1653847 -0.24960893 0.27251425
1889 0.16589709 0.8774701 -0.20243658 1.0550275 -0.0766416 -0.46451005 0.7691666 -0.45431826 0.26509926 -0.4258595 1.6735439 -1.2098291 -1.1738939 -0.58029467 -0.2648679 -1.5183842 -0.45203528 -1.2271084 0.43428883 0.60454005 0.70494044 0.20462972 -0.39417982 -0.21786116 -0.1301757 -0.840008 0.90142894 0.74746627 0.058764465 -0.43973058 -0.32674444 0.7572857 0.3830172 -0.16258642 -0.05050466 0.006274313 0.106273 0.9312771 0.30887282 0.67362386 -1.405563 -0.36807683 0.04524155 -0.38458043 -0.5836028 -0.26821095 0.31439984 0.48207736 0.40500346 0.8817904 -0.38497832 0.27446547 -0.188658 -0.37523937 0.7166278 -0.38854206 0.23143019 -0.47649965 -0.16468777 -0.030648975 -0.7877338 0.7159857 0.9738086 -1.2706575
2228 -1.1168165 1.9556376 -1.0091317 -0.72334266 0.3832968 0.14272515 -0.33331808 -0.78206986 -0.2731872 -0.0049749822 -0.4082839 -1.3034314 1.1303608 -0.17556535 0.3727016 -0.723061 0.14733194 -0.36640674 -0.22343728 0.8557673 0.017997911 -0.08239123 -0.19902948 -1.3764338 0.13072672 -0.5108717 0.3743563 0.9139165 1.2248305 0.7325722 -0.3248267 -0.2530005 -0.8863306 -0.027277997 -0.6237311 1.215553 0.36852106 0.13202058 0.4410809 0.43493512 -0.34615737 -0.763119 0.38298413 1.3506342 0.534564 0.26525533 -0.6595729 0.20491986 1.1789595 0.20080322 0.43873715 -0.065426484 -0.89803374 -0.17308705 -0.78556967 -0.32794613 -0.37464178 -0.50196534 -0.8556405 -1.0156323 -0.6475678 1.0851414 0.570392 0.5467867
1169 0.55053955 -0.19372873 0.1970405 0.12025514 -0.27894214 -0.102903254 0.29864115 0.99719536 0.35289806 -0.38422915 1.1439183 -0.38291138 -0.4480478 0.19517756 0.8078511 0.64852136 0.24959205 -0.84318554 -0.48243278 1.0195775 0.7228857 0.6856235 -0.27186847 -0.69513726 -0.21269517 -0.26627827 -0.13054724 0.95114076 0.42144766 -0.7719592 0.06900324 -1.7206879 -0.7738783 -0.69679135 -0.19343168 -0.07493914 -0.10655679 -0.78794587 0.11783552 -0.5230624 -0.60133076 -0.6686498 0.321596 1.3235769 -0.22485708 0.07658746 0.35725358 -0.5087816 0.6333495 1.0789108 0.5285989 -0.90814793 -0.43037915 -0.19269697 -0.631471 -0.106201425 0.7312826 -0.34360096 -0.82051086 0.05039906 0.033445932 1.287032 -0.29327303 1.2002821
1904 -0.48751745 1.2997593 0.9108123 -0.41878054 -0.26542017 0.6146088 0.10727011 0.5618552 -0.077002525 -0.6119297 1.0699304 -0.04920755 0.9936903 -0.013020482 0.14257158 0.17860037 1.1091298 -0.34170586 1.1761912 0.2940709 0.35031992 -0.8042293 0.2918712 0.14671531 0.70598775 -0.8496281 0.12743194 -0.20664126 -0.11499561 -0.7006712 0.3661916 -1.0572108 -0.47289565 -0.37992144 -0.33263305 -0.38051495 -0.5884444 -0.23583284 0.035090964 0.6902635 0.9286035 -0.7740521 0.35142168 0.07365112 -0.14863098 0.7530974 -0.5298904 0.95144737 0.46185282 2.0541704 0.45568407 0.20780264 -1.1889372 0.30472684 -0.21779865 0.45174024 0.49664384 -0.65086544 -0.8895312 0.26585186 -1.2691141 0.52285486 -0.13805334 -0.91953224
1869 0.06479105 -0.03005595 0.37497714 0.061987072 -1.4992839 -0.4186871 -0.08429273 0.0935718 0.059735708 -1.2753166 -0.7668145 0.82145286 0.6930873 -1.4103354 0.57145 0.39775154 -0.50684816 -0.3433004 0.6303326 0.52657443 -0.98194 0.74941427 0.69710433 -0.08148708 0.40448382 0.12055115 1.2084093 0.22129141 0.2813053 0.5515102 -0.42861107 0.21248953 -0.13665116 -0.27650648 -0.6621699 -0.24532564 -0.55092824 0.6579623 -0.16226289 0.08979419 -1.2858711 -0.29605353 0.47467518 0.08459507 0.66068757 0.2961097 0.16731271 0.16902363 0.958358 1.1733322 0.28450987 -0.5864793 -0.5707465 0.1874584 0.49225363 -0.620421 -0.36460674 -0.006439243 -0.4504013 -0.011948234 -1.4298303 -0.0034307616 0.02509021 0.33741313
2216 0.057078168 -0.21594617 1.3179876 -0.3713093 0.04633561 -0.53966063 0.6174099 0.54361194 -0.5901888 -0.4132833 0.9826736 -0.28859288 -0.3031336 -0.4956494 0.09828997 1.3800159 -0.13544363 -0.09677961 -0.029650837 0.56366277 -0.4943077 0.16548505 -0.65892625 -1.4467766 -1.017246 -0.85242826 -0.45375785 0.56698084 0.7486057 -1.5638208 -0.6275631 -0.9194902 -0.70893574 1.2280176 -0.08461961 -0.6681715 -0.4393896 1.6868902 -0.010425704 -0.03824278 0.15442176 1.0578923 -0.4781674 1.1257297 0.48159075 1.2136785 -0.023681585 0.23566204 -0.4239503 1.2174966 -1.0976019 0.56106627 -0.772567 -0.46953472 -0.6788025 0.6336892 0.18721573 -0.5548736 0.51606405 0.0053118975 -0.36355573 0.7372467 -0.22837667 0.822889
2503 -0.3497584 1.1958671 0.5485442 0.8923706 -0.22351387 -0.40059173 -0.10804318 0.5299298 -0.048433155 -2.3605375 0.024350848 -0.44700176 0.5267056 -0.7109644 0.050990507 0.45826966 -0.04036351 -0.13554412 -0.024912992 0.5906458 0.32534382 0.48612407 0.27988374 -0.92207587 -0.9340908 -1.1139538 1.7541165 0.11779301 -0.8592896 -0.47362274 0.8053529 0.17428263 1.3408833 0.21622905 -1.3397331 -0.18136935 -0.46607074 0.27834722 -0.16625431 -0.24657498 -0.837735 0.7359863 0.15919815 1.3114451 0.53371334 -0.122910544 -0.79626936 0.9184642 -0.120276265 0.43292415 -1.3192654 0.0636004 0.4564204 0.0042575547 -0.94419086 0.7613987 -0.20682654 -0.8333563 0.12960626 0.0194897 0.007430097 1.2580508 -0.51420635 0.08640896
1317 2.2117267 0.9378724 0.43170965 -0.36350137 0.6309076 0.03563363 0.4044712 0.5468576 0.93834984 -0.38518682 0.5889644 -0.7826597 0.9762288 0.30639586 1.6371945 0.53011227 0.1976376 -0.25701514 0.35456654 0.34274948 -0.5029354 -0.5232959 0.518057 -0.19961075 -0.03633284 -0.42270684 0.22464621 0.99886394 -0.009537792 -0.083061226 -0.28505364 -0.7722913 -0.60651857 0.00034184943 -0.67935175 0.2663317 -0.32407266 -0.39454255 -0.06393307 -0.5032854 -0.72787285 -0.7225729 0.07485641 1.1361545 0.26956442 -0.16229323 1.302255 -0.29902607 0.6578934 0.6041471 -1.0276874 0.19231568 0.3289225 -0.24477954 -0.7434909 0.9031894 0.22272241 -0.97825235 -1.1146228 0.36568382 -0.2532404 1.2331368 0.48157448 0.6210057
2236 0.32430106 0.30866086 -0.027961103 -0.046041925 -0.044532314 -0.3908884 0.2684251 0.9024566 0.29509497 -0.35230392 0.44017398 -1.2504921 -0.39460215 0.3766894 0.60722315 -0.5169327 -1.5627732 -0.629086 -0.36137968 -0.4381234 0.07544136 1.5328698 1.0908886 -0.9460228 -0.91599184 0.15814596 0.012747324 0.0025802376 -0.3447451 0.41224608 0.0028523912 0.21055877 0.65816766 0.46467656 -0.66915923 0.013846871 0.3775619 0.4117939 -1.1074262 -0.05308162 -0.8253494 -0.4094075 -0.59030885 1.1241771 0.3117557 -0.037426025 -0.69977885 0.83324385 -0.5472144 1.3081205 0.008529626 -0.4798079 -1.5537058 0.7161941 0.08252154 0.09446195 -0.9041925 0.49855277 -0.5878893 -0.560956 -1.2859873 0.010412197 1.9745798 -0.51949054
2305 0.5262548 -0.10128561 0.11289313 0.1445504 0.08059917 0.018449407 0.6022544 -0.67759025 0.49898317 -1.0962135 -0.55730516 -0.45205396 0.5072249 -0.3150617 0.5038607 0.03544411 -1.0280015 -0.7084086 -0.28269058 0.76127905 0.33269516 0.5070752 -0.78627396 -1.1354063 0.19172634 -0.13933904 0.03668227 1.2832167 0.25040862 -0.2077299 0.24900864 0.35691768 -0.0131310485 0.27993774 0.6520648 -0.2958874 0.60349554 0.6753712 -0.7535048 -0.6221168 -0.49555734 -0.5660494 -0.13961092 -0.30644763 1.2398443 0.425945 0.52583283 0.6996986 1.7390285 0.28922942 0.51680696 -0.49995062 -0.19475864 1.1049272 -1.1197402 1.1532297 -0.7379011 -0.7951718 -0.5234652 -0.25500503 -0.6901202 -0.14284633 -0.2460874 -0.75642383
1366 0.70666426 1.343312 0.8172275 -0.2462189 0.2757161 -1.0875049 0.33468512 -0.71610403 1.2439418 -0.441442 2.3302028 -0.26702237 -1.1557881 -0.5378074 0.906062 0.22738884 -0.38354206 0.48337355 0.043447472 0.15225098 -1.2953843 -0.43678606 0.8430545 -1.2717253 0.14845541 -0.3437337 0.31025705 0.99030465 -0.09592644 0.052949537 -0.60952544 -0.08303217 -0.016117577 -0.45120776 -0.2066632 -0.17164199 0.18727408 0.4244829 -0.38216582 -0.2898065 -0.7398394 0.10426606 0.62308264 -1.2423635 -0.949784 0.32861894 0.5480305 0.5025019 1.1140367 -0.1279592 -0.27148873 0.3678053 -0.2842005 0.6524595 -0.57591414 0.31376594 -0.63197917 -0.1789221 -1.306219 0.09049532 -0.6463247 0.8561723 0.99408937 -0.6909949
2071 1.5086849 0.1991969 1.1173624 -0.12686062 -0.15054825 -0.3109075 -0.30123046 0.3483348 -0.84376055 -0.48273402 -0.025904581 -0.7544198 -1.1262034 -0.4915853 -1.0715518 1.0104562 -0.6403399 -0.32860526 -0.52356523 1.0641016 0.34288794 -1.4905301 -0.3596714 -0.51663303 -0.892375 -0.70331955 0.22647709 0.44451234 0.09079197 -0.4871161 0.62140584 0.14445662 -1.0857421 0.42434913 -0.0053386227 1.212419 0.3871383 0.16985656 0.8514684 0.62635356 0.43900016 0.23240615 -1.1367363 -1.1413699 -0.88006544 0.4353936 0.04316418 -0.49234736 0.06438046 0.46024644 -0.06507555 0.724115 -0.17837699 0.35395366 -1.5240886 1.050925 -0.8201193 0.44389063 -0.57616216 0.021528037 -1.9604415 -0.1202775 -0.13398872 -1.8079201
629 0.59490836 0.9018574 0.470875 -0.25693294 -0.016148847 -0.17408423 -0.07778718 0.1925185 -1.2697608 -0.96042514 0.34083197 -0.61186975 -1.1059039 -0.084581226 -0.007530652 0.80853313 -0.079948634 -0.1650924 -1.435494 0.90810174 0.33095518 0.18967259 0.6889601 -0.34045178 -0.12088897 -0.6899626 1.9378909 1.5427324 -1.2831354 -0.37876016 -0.090832695 -0.47765005 -0.04211453 -0.54716694 -1.346042 -0.21256453 0.23038794 -0.8035161 -0.6025947 -0.23191698 -0.32103425 0.46966165 0.33197433 -0.19785072 0.13180844 -0.30674782 -0.34063706 0.3517982 -0.38866553 0.7769976 -1.0633812 -0.97367567 0.236634 -0.16796681 -0.7263332 1.1724055 -0.6235369 -0.24759623 -0.2555562 -0.63621294 -0.9623112 1.3707544 -0.6694857 0.022745082
2233 0.89532053 0.87051564 0.16943105 -1.27289 0.5451402 -0.1486176 0.22623909 0.12620457 -0.09553188 -0.23811717 -0.13531718 -1.0219324 -0.48965198 0.02695006 0.43016258 0.1278415 -0.64618266 -1.0574018 0.21702187 0.29456443 -0.25993568 -0.1095436 0.26204053 -0.7567107 -0.1403472 0.23926501 0.586385 0.43177482 -0.11802056 -0.752767 0.8477969 -0.2615582 0.9912906 -0.2727513 0.781391 -1.0722293 0.075640164 -1.0902247 -0.009818343 -0.4788596 -0.047429953 0.12548308 0.21725482 0.3580187 -0.43308908 0.75654256 -0.40493536 0.63397944 1.6502422 -0.54263157 0.8861787 -0.053952035 -0.5749084 0.30041486 0.03927027 0.6092765 1.2770252 0.23991522 -0.76197135 0.28734002 -1.7757765 0.50521034 0.91865957 0.42090356
1264 0.45740092 0.8177182 -0.045822605 0.43278065 -0.10690685 -0.18157008 0.19388293 -0.3570333 0.7180437 -0.16668412 1.7735065 -0.80293983 -1.2787619 -0.21947703 0.010584895 -1.5425367 -0.49420592 -1.5360489 0.48079064 0.39745143 0.3873766 0.44096163 0.3057759 -0.5869324 0.0027333037 -1.1110078 1.3095735 0.5310989 -0.4885233 -0.68687576 -0.4470464 1.1279145 0.07426108 0.0085054645 -0.40901133 -0.30081442 0.21319485 0.5487525 0.2944564 0.5142737 -1.2249581 -0.20204112 0.23372032 -0.10881474 -0.6990903 -0.1773219 0.19632186 0.06121893 0.6133255 0.9015024 -0.46138886 0.15906966 -0.17364737 0.29257384 0.9756218 -0.2699472 0.34216404 -0.4338883 -0.36189544 -0.29603451 -0.6664893 0.9342791 0.98678166 -1.1934761
2399 0.8723547 -0.5048167 -1.2987547 0.26265505 0.011899746 -0.8556245 -0.32281768 0.84285116 0.3697817 -0.5312304 0.12875944 -0.8232852 -0.7399841 -0.06396098 -0.1343398 0.1079432 -0.8724051 -0.41101387 1.2370585 0.19855888 -0.012140977 0.7534347 0.73971415 -0.43778569 -1.4447403 0.11364953 0.4252396 0.7569757 -0.276798 0.2380876 0.69688237 0.03190932 0.5806807 0.12951107 -0.8579436 0.124074586 0.22346851 -0.37424886 -0.06900311 -0.23659699 0.27980882 -0.5519968 -0.052385036 1.158525 0.8369872 -0.036301617 -0.30140522 0.4975647 -0.92232084 0.38415566 -0.16663411 0.7449424 -1.0647436 0.51886517 0.5207427 0.44434023 -0.39566356 0.634111 -0.4627808 -1.0444815 -1.8034414 1.0387803 1.3971806 -0.7000844
1849 0.14206918 0.1369848 -0.50594646 -0.68229437 -0.91295743 -0.056979854 -0.984702 0.35742137 0.39188385 -0.020347897 -0.62905186 0.043158777 0.11054068 -0.6132455 -0.2927925 -0.46538898 -0.81691504 -0.112117045 -0.8780524 1.0494716 0.31332698 -0.6451838 -0.48702133 -1.5999584 -0.08960749 0.9658638 0.2796086 0.57782674 -0.81026006 -1.1828288 0.67860246 0.40966618 -0.7950927 0.76331276 -0.4811319 0.8596851 -0.006362384 -0.07182693 0.59106827 0.64670384 0.47882098 0.045657266 0.77377844 0.29710102 -0.09982996 0.6554715 0.7153263 0.9722858 1.0197797 1.4419717 -1.3988178 -0.22621568 -0.42696193 0.30943757 0.51902664 0.84937674 0.484592 1.4138614 0.35165364 -0.97825986 -0.82331485 1.0711741 0.6477836 -0.3127275
1703 -0.33444992 0.5958746 -0.7245434 -0.7262803 -0.31242812 -0.27961206 0.0039117765 0.26913092 1.2709099 -0.8618361 -0.1836153 -0.6641085 -0.8214829 -0.114101075 0.33737192 -0.26711664 -0.77911353 -1.0824729 0.78243375 0.64168566 0.5464069 0.69378567 0.4313145 -0.9166368 -0.7055462 -0.35512662 -0.02896286 -0.08949827 0.46635622 0.8269405 0.7838875 -0.4279063 0.33661613 0.3500649 -0.49125054 -1.0233091 0.47858262 -0.0049600513 -0.92846006 0.27183372 -0.660783 -0.20500246 -0.28629148 1.19639 -0.24288148 0.19933474 0.89978766 1.4785386 -1.3125142 0.8429361 -0.12546298 -4.153012e-05 -0.33173728 0.2544408 0.712958 0.30596763 -1.138533 0.4482446 -0.91142 -0.5750686 -0.6909584 0.29837677 1.3141963 0.32438296
2390 1.0217481 0.5834676 0.38396543 0.5574721 0.7474917 -0.43331212 -0.05019936 0.5407439 -0.44162887 -1.1480354 0.9692077 -0.9055024 0.24833055 -1.2128211 -0.46259823 -0.8079984 0.53615797 -0.2784748 0.3501372 0.6095948 -0.75106645 0.67259055 0.6200902 -1.5689287 0.028176064 -0.308269 -0.34986907 0.94817007 -1.6305958 -0.7744566 0.4978442 -0.19717292 -0.7211057 0.035604145 -1.0829622 0.06259087 0.4287292 0.08939829 -0.78095275 0.62121755 -0.0246616 0.4437733 -0.1505322 1.2045983 -0.5650356 -0.7221684 -0.32918406 -0.03995477 -0.4849548 0.49806133 -0.10068154 -1.062013 0.14279948 1.0534768 -0.081513494 1.1273957 0.6060864 0.30448708 -1.4872186 0.2531309 -0.13937198 0.9830709 0.3797151 0.69009894
2446 1.2846521 1.1543787 0.6549408 0.46927473 -0.083230436 0.058939844 0.20158745 -0.048116464 0.029572107 -0.20202851 1.023669 -1.3029574 0.74811804 -1.0550867 0.54905456 0.26559195 -0.17759176 -0.65281135 0.1539685 0.45218977 -0.20020443 -0.07961433 0.7051221 -0.40431616 0.41088504 -0.74112695 0.74425995 0.17732614 -0.07937672 -0.9197783 0.28971475 -0.58976483 1.0084927 0.03874505 -1.4926348 -0.018924791 -0.7700144 -0.45442486 -0.8337228 0.20502426 -0.48389497 0.8966058 0.1626219 0.7162147 0.034287788 -0.87187153 -0.18487251 0.22734313 -0.7873667 -0.27517405 -0.7287907 0.82016844 -0.6117486 0.5587424 -1.0378329 0.9247156 -0.8960745 0.23614606 0.0742184 0.33425283 -0.2960507 0.75388676 0.0088942135 0.62624097
1042 -0.56608784 0.5519348 0.8655084 -0.46198517 -0.89271927 -0.22267298 1.1528656 -0.14471325 0.042643826 -0.34794202 0.7290218 -0.8290106 -0.67111975 -0.7973554 -0.027028775 0.4156709 0.43370816 -0.8384463 -1.0816075 -0.9708087 0.0016080237 0.18174842 0.20564146 -1.0138326 -0.014077815 1.0062294 0.31910115 1.3647271 -0.091654874 -0.11641885 0.73903257 0.503774 0.3369741 1.5351907 -0.12741184 -0.33674744 -0.7829175 -0.33639514 0.43589953 1.0552788 -0.6784119 -0.72638535 0.2739494 -0.187701 0.0429408 0.7381514 -0.19127725 0.79940164 0.7614506 -0.44715148 0.15028492 -0.5715425 -0.55387074 -0.29787385 0.6549826 -0.2507629 0.6311705 -0.6292962 -1.1154357 -0.76974595 -1.0791279 -0.12186672 1.019349 1.3264271
2147 1.4936677 0.5967779 -0.6472131 0.33091176 -0.42045802 -0.39617187 0.71757 0.36855882 0.8481416 0.0017916153 0.8042858 0.36563888 -0.41598883 -0.9792019 -1.5227377 0.8888385 0.38741365 0.039061848 -1.0279886 0.40432304 -0.5616123 0.45898327 0.5542405 0.3452839 -1.4288442 0.06721939 0.5672632 1.1579099 -0.34699407 -0.1432796 0.20082106 0.9848206 -0.04749109 0.76764536 0.737806 0.009554994 0.39917395 -0.11998431 -1.8673042 0.26638523 -0.8421086 0.7429285 -1.0473244 0.59243804 -0.43431148 0.66614157 0.2043573 1.0264713 -0.4502711 0.06588471 -0.48269212 0.42178825 -0.85371816 0.65900195 0.83198744 -0.025004992 0.8111591 -0.3883885 -0.15809655 -0.45996967 -2.196899 0.63914317 -1.2723382 -0.35138607
2175 0.7259711 -0.3004094 0.12795967 0.98532355 0.24173637 -0.5983282 0.7178186 -0.06895207 -0.12740117 -0.5851859 1.1948322 -0.14212936 0.6982731 -1.0100199 0.5997277 -0.046715043 0.62553346 -0.2066819 0.3645787 0.3933181 1.1183943 -0.9561855 -0.35471562 -0.76459056 -0.20365793 -0.96800435 0.95213133 0.5750845 0.62981176 -0.6840676 1.0527339 0.031040743 -0.093090676 -0.27846614 -0.17925516 0.22262682 0.55771667 -0.9927236 -0.11378437 0.38458335 -0.5870679 0.97264355 0.8147514 0.37890464 1.2674376 -0.51478183 -0.13765334 0.46388832 0.04202755 0.9757521 -1.0550182 -1.1374737 -0.10343348 -0.45032263 0.1188073 -0.87876904 0.24382411 -0.6757924 -1.6475377 -0.8942855 -0.23508134 1.2305472 -0.5264784 -0.36139596
1072 -0.026878532 0.6384845 0.9521784 -0.12742285 0.04673952 -0.08618015 -0.13112976 0.09942135 0.2219859 -0.013098439 0.2800415 -0.3585884 -0.39085984 -0.52327514 -1.0728953 0.5083928 -0.27004433 0.25407526 0.85647786 0.80566084 -0.2380974 0.74091595 -0.029487653 -0.6274995 -0.71835405 -0.051506467 0.6795295 -0.19723834 -0.5871611 -1.0643595 0.48134318 -0.51627386 0.22927159 0.1647169 -0.53930175 0.38033164 -0.09950315 -0.33724165 -0.66830987 0.50765383 0.7606695 -0.11948843 -0.29458004 0.24552965 -0.8612787 -0.60760504 0.041773982 0.04529134 0.30969113 0.26425374 -0.4092874 0.18410455 -1.3406105 -0.44089308 -0.10228038 0.39340857 0.955131 -0.37752035 -1.3807755 1.0033468 -0.5802883 -0.03338766 -0.7378444 -0.3650068
2336 0.9352518 0.5848611 -0.29120597 0.81426007 -0.07552924 -1.0465581 0.4343256 0.15362021 -0.0907489 -1.3994818 -0.1413208 -0.42863718 -0.45727047 0.2014807 -0.95396227 -0.5541078 0.73973966 -0.8257839 -0.51425195 -0.07127081 0.37165412 0.9096696 1.9085839 -0.103331305 -0.277267 0.7176528 0.82638234 0.7566833 -0.498658 -0.07011016 1.007668 0.78870445 0.114174664 0.2892866 0.6534626 1.9004526 -0.15083858 -0.22117284 0.13715868 0.2910294 -0.35675114 -0.7042856 -0.3893046 1.3107549 -0.33724418 0.49129343 -1.0119551 1.7797142 0.8885526 1.1229362 -0.6160049 0.5105664 -1.0715234 -0.11866365 0.054072402 -0.40708983 -1.065321 -0.68506694 -0.81950855 -0.34547937 -0.04832688 0.20187539 0.26532668 0.037983686
1483 0.20935962 0.24442679 0.7429082 -0.2911238 0.7769878 0.22046728 0.23630774 0.15884781 -0.38705835 -0.2912561 0.3589468 0.14590175 0.0777216 -0.38707253 0.9300285 0.8712328 0.21447892 -0.92196417 0.33404744 1.0660983 0.19232444 0.01943653 -0.33545226 -1.2734556 -0.5243385 -0.30244675 0.5658464 0.25062227 -0.33434662 -1.3872013 0.498254 0.4449865 0.809808 -0.46942914 -0.40071127 0.89761996 -0.48170632 0.48006108 -0.0967045 0.63394696 0.3448079 -0.13811147 -0.17134945 0.5140972 -0.2960196 -0.02236917 0.69574183 -0.07557908 -0.7465976 0.26377857 -0.85449266 -0.4556068 -0.5899801 -0.23400317 -0.050490815 0.6168753 -0.34773818 0.11897281 -1.039562 0.36989728 0.32387838 1.0640078 0.002271539 0.103868775
1957 1.2331128 0.55418485 -0.30311513 0.33957613 -0.76724714 0.21368437 0.25080588 0.23934864 1.1678323 0.6710683 -0.42327031 -0.20213695 0.1580139 -1.2891568 0.35296097 0.013445623 0.40617296 -0.15292159 -0.52734965 0.18712398 0.83954793 -0.4066293 0.45732212 -1.1444662 -0.21655916 1.0743309 1.3709203 0.9555782 0.966631 -0.6038217 0.39582008 0.30402008 0.005121858 -0.9441448 -0.346407 0.2793248 0.21891905 0.45479134 0.38089308 -0.8295716 0.60883355 -0.14187627 0.66885185 0.43060446 -0.08986169 0.20230989 0.28640538 1.1843917 0.0676254 1.0252718 1.2579986 -0.8578106 -0.29637066 -0.075227976 -0.64132494 0.47803617 -0.447845 -0.9443691 -0.31202304 0.026907453 0.1929722 -0.001004585 0.56785756 0.20018911
598 0.37833002 1.0313374 -0.33620647 -0.3596685 -0.17986436 0.4285208 0.28977948 0.76977795 0.3273029 -1.1833197 -0.5478773 -0.39355272 1.0689405 -0.23994492 -0.41813096 0.7955371 -0.40505603 -0.111332186 0.21313831 -0.3609244 -0.1252753 0.0071444064 0.44583645 0.45862916 -0.29805115 0.77189183 0.33118773 0.79966164 -0.6613398 -1.0100055 0.7931154 0.060119074 0.14834766 -1.2838461 -0.22263108 0.016968874 -0.42596757 -0.3256063 0.10106265 -0.41260248 -0.5292896 0.43181673 -0.42971244 -0.20735101 0.24186845 -0.28776824 0.9356615 -0.427194 -0.18359327 0.16617903 0.75480634 -0.22363491 -0.9710413 0.13841207 0.1507295 -1.2994058 -0.3652203 -1.1191021 -1.1190599 -0.24205694 -0.5112699 0.559707 0.7202034 -0.3396442
2127 0.60434186 1.3699172 -0.57440203 0.5066899 0.12587889 -1.7592092 1.0047709 -0.91397226 0.26051447 0.2941977 0.7288431 -0.22745584 0.25164852 -1.0410975 0.23808348 -0.573578 -1.2161089 -0.65324855 -0.38523564 0.073186524 0.469582 0.37764108 -0.565274 -0.2586848 -0.723601 -0.048711438 0.6470329 0.07583219 0.0029791254 -0.18165201 0.5689552 0.6966142 -0.999649 -0.42866337 -0.7915603 0.502857 0.39120814 0.8803432 0.16251537 -0.9735285 -1.1327455 0.20857538 0.62683547 -0.28290743 -0.7333902 0.5389704 -0.069377735 0.60220546 0.19131038 -0.71719635 1.0943779 0.0005050585 -0.5637542 1.2183226 -0.05572644 -0.041782256 -0.77405995 -1.4424374 -1.4112722 0.41263917 -0.20775461 0.6196189 1.1867129 0.16753367
1826 -0.12421839 0.7969471 0.33712378 -0.18081951 -0.5038952 -0.00899576 0.30943578 0.5710029 0.12576357 -0.8138807 0.488773 -0.4909251 0.60805327 -0.14130822 -0.057799257 0.15335992 0.8713417 0.37511685 0.021513706 1.0878483 0.34734517 -0.9769603 0.83786106 0.6405604 0.3272415 -0.2605318 0.22915748 0.7233167 -0.4161269 -1.1765937 -0.78045666 -1.1197448 -0.99056244 -0.014496876 -0.22141728 -0.2989188 0.47977275 0.20881623 0.10630524 0.62024957 0.7313856 -0.26823652 -0.27345726 -0.22085139 -0.094940364 0.061362304 -0.4932613 1.6178478 0.6594569 1.8328182 0.6806869 -0.70392764 -0.18786281 0.44136378 0.57869583 0.36725235 -0.033896502 0.42329508 -0.82109624 0.01212329 -1.5759404 -0.43362498 0.20563386 -0.5844399
1224 -0.19751956 0.6719095 0.5142176 -0.018130727 -0.69953275 -1.3904802 -0.38399458 -0.2589153 0.0050928793 0.6358341 -0.4021094 -0.36007196 -0.24862182 -0.07738423 0.66372246 0.37843165 -0.6537267 -0.5129516 0.7395105 0.11642058 1.6781999 -0.80077124 -1.5548071 -0.5787382 0.4594097 0.29436836 0.6654577 1.996253 -0.461053 -0.15792143 0.6383853 0.26126784 -0.3740118 0.67777616 -0.68225265 0.56641215 -0.6959543 0.31961155 -0.11540431 0.59168786 0.16467117 0.27466318 0.15104425 -0.0015844926 0.13086936 0.5550517 0.032470368 0.83088183 0.1763824 0.2629604 0.5148223 -0.65294677 -1.2395533 0.9487161 -0.4416256 0.42073393 0.044079542 0.40728724 -0.4969417 -0.17983875 -0.3387083 -0.32309034 -0.45290205 -0.642771
1778 -0.001928508 1.5772434 -0.033774253 -0.49451968 -0.17562746 -0.45200446 1.767345 -0.43435702 -0.2343207 0.09218018 0.17788428 0.25949118 0.012023394 -0.15929282 -0.07510869 -0.43229917 -0.9010817 -0.047961526 -0.15059586 0.75585634 -0.0067636706 0.6120086 -0.0969366 -0.8957328 -0.47801894 0.4321533 -0.03211578 0.72781813 -0.8227314 -0.74848 0.83518887 0.8127052 -1.354217 -0.019805664 0.21155913 -0.3929375 -0.15018189 -0.59891033 -0.59017557 -1.1244335 -0.25300747 0.27677554 -0.33424962 -0.6876975 0.67065936 0.34904128 0.22323696 0.41411313 -0.081851706 0.69021046 0.689546 0.020093078 -0.6314473 -0.368431 0.05277553 0.08520674 0.74291116 1.6853482 -0.65152496 0.4278077 -0.29361 0.97990173 0.27408436 -0.1588868
1538 0.606435 1.7836128 0.16196075 0.30454078 0.062474176 -1.081017 -0.58310056 -0.84183276 -0.37995574 0.18512487 0.09957333 0.48810354 0.003229312 -1.0190918 0.51037276 0.48090807 0.09848021 0.0088265985 0.12447662 -0.03564961 1.0144006 0.6967646 -0.3129788 -0.41022784 -1.4911315 0.09031638 1.0679687 1.4925315 0.7083644 -1.2183357 -0.31563482 0.66539633 -0.66740865 -0.18738861 0.078176625 -1.4530463 0.12282736 0.026673118 0.3720031 0.094651364 -0.54584146 -0.008006305 -0.24813358 0.04623577 0.94752717 -0.48088056 0.15776992 0.6659725 0.5373006 0.4150073 -0.6054263 -0.28349122 -1.0679066 0.16683073 -0.30467987 0.4052207 0.14040497 -0.11201239 -0.12224467 -1.4914494 -0.21383741 -0.31863558 0.26587158 -0.13431393
227 0.54784906 0.9142241 0.09849594 0.035379313 0.14166337 -0.02183968 0.25906304 -0.18365933 -1.2094209 -0.5136678 -0.06706651 -0.12015382 -1.2326167 -0.42839155 -0.49706632 0.64460975 -0.18734284 -0.046815924 -1.2588973 0.7582292 0.39911786 0.31670278 0.122520804 -0.2476951 0.19433396 -0.45338312 0.9635751 1.4885172 -0.47724134 -0.8686897 0.16578078 -0.6811297 -0.24513786 -0.5929784 -1.2570796 -0.07294543 -0.0007967688 -0.16280442 -0.562239 0.08404561 -0.4204722 0.1554682 -0.0017520026 0.50076926 -0.07111127 -0.015545862 -0.51763755 0.7976934 -0.6157202 0.3770355 -0.42263114 -1.0235409 0.28000143 -0.58003443 -0.36476135 1.1835328 -0.496264 -0.1899273 0.26570573 -0.38033074 -1.0953403 0.9778296 -0.35682723 0.10190506
618 0.2668675 0.6472243 0.40119708 -0.19856854 0.78158087 -0.41481966 -0.6336416 0.727759 -0.4382041 0.44229403 -0.6428354 -0.3979632 0.3604007 -1.58379 -0.4652202 1.7168356 -1.0338116 0.2618553 -1.0717525 1.0407386 -0.057177585 -0.5841546 0.40880695 -1.8145365 0.36767855 0.22608589 -0.7717068 1.4808666 0.36768663 -1.2707263 0.25564247 -0.4464165 -0.11079002 -0.4271702 -0.41988748 -0.9571788 0.5822959 1.0792677 -0.79061985 -0.03500551 0.05683481 -0.071893424 -0.7036309 1.0396655 0.59407836 -0.21699744 -0.21018007 1.3105242 0.4222479 -0.43549305 0.09770709 -0.7494659 0.08052181 -0.44778726 -0.61817324 -1.4615313 0.75107694 -0.08173654 -0.61189824 -0.75481766 -0.9058955 0.3360615 0.44789404 -0.30820212
1804 0.6889573 0.31338716 0.8702893 0.83861303 0.078400366 -0.6566594 -0.08008255 0.106541544 -0.84605306 -0.068908036 0.42406204 -0.5261806 0.23004964 -1.2278335 -0.54503024 -0.20507997 -0.39004835 -0.36743465 0.81339496 0.0381174 -0.27748528 0.64352494 0.40580106 -0.84573305 -0.8175177 0.40342912 -0.1621184 0.34715876 -0.9166645 -1.2615255 0.56500435 -1.0488197 -0.61422086 -0.69318557 -0.8106893 0.2984998 -0.20286402 0.42928126 -0.4810344 0.42863864 0.3007752 0.36421752 -0.30649698 1.3009657 -0.114641584 -0.5383191 -0.0064975685 0.14098288 -0.077570446 0.3479732 -0.30810636 -0.1007945 0.50031173 0.51778376 0.08693971 0.9427857 0.3946578 -0.61776876 -1.3012185 0.6593768 -0.685049 0.3857481 0.3174977 0.3114382
1971 0.39840248 1.2224338 -0.95458543 0.3876982 -0.302407 -0.7619988 -0.7323018 -0.76213485 1.300237 -0.36817166 0.02221704 -1.7661448 -0.68655133 0.10744246 0.543572 -0.3888426 -0.1289281 -1.4429216 0.17686395 1.2895112 1.2425532 0.4777762 1.444699 -0.7943225 -0.69411385 -1.4824643 0.76866245 -0.17871845 -0.3042924 -0.49020928 0.32972685 -0.33998102 -1.1584433 0.28560632 -0.58496046 -1.6159196 1.604117 -0.26742047 -0.5548953 0.52729744 -0.6166781 -0.116608515 -0.48884964 0.7185383 -0.667809 0.7553796 0.01290446 0.95742965 -0.4286202 1.2120318 -1.1600766 0.46129292 -0.53483254 0.5351933 1.3931794 0.35611305 0.1392553 0.53388506 -0.4534474 -0.6853949 -0.008560086 1.0021491 0.93071395 0.2638668
2491 -0.52479273 1.3693788 0.39722896 -1.2592776 -0.24069849 0.3947108 0.82480305 1.0108175 -0.11189028 -0.72209525 0.73439354 -0.5406947 0.95943797 -1.0152586 0.90208805 0.1816921 1.7568785 -0.22186805 1.0334865 0.618791 0.23975977 -0.70346797 0.093125604 0.011012421 0.9368926 -1.5018089 0.6524654 0.063183255 0.01004772 -0.6988363 -0.49121302 -1.0958989 -0.64737356 -0.26915157 -1.1203839 -0.41428387 -0.48622563 -0.6198798 0.15807813 0.15872864 0.42637587 -1.4488589 0.7815586 -0.44128588 0.6055846 0.7089305 -0.41537386 0.8350938 0.5844041 1.721353 -0.028953256 -0.2828242 -1.5795076 -0.22217171 -0.14066038 0.23815095 0.48537862 -0.36316568 -0.5196637 -0.47769547 -0.622878 1.2914653 0.7044587 -0.50645804
2596 1.2470654 0.39545882 1.3066571 0.6008088 0.9532063 -0.4291707 0.7577161 0.59840554 0.1652699 -0.9411434 0.81987804 -0.09132964 -0.81844103 0.16946901 0.08034386 0.050139833 0.9963163 -1.2041545 0.102187425 0.8640624 0.24159 0.50978625 0.12306485 -0.21075699 0.30174834 0.47423443 0.084673494 -0.45258757 -0.5101897 -1.3197856 0.9958687 -0.9476198 1.0725943 0.13377102 -1.324005 0.99817914 -0.4124386 -0.540655 0.27071497 1.0890665 -0.3033018 -0.6342957 -0.6255789 1.5243068 0.61474246 -0.10982208 -0.58518386 0.52545565 -0.52859867 0.27937213 -0.03628388 0.084459886 0.06935676 1.1347358 -1.3026125 -0.15145099 -0.5826475 -0.36261508 -0.38079864 0.13109756 -1.5188271 1.2226487 0.5860291 -0.021294344
2434 0.5986045 0.533444 -0.9998535 -0.07486308 0.24389206 -1.3298438 -0.8227326 0.591603 0.84253114 -1.3896285 -0.15964364 -1.6754181 -0.8634082 -0.3390544 -0.0693016 -0.21270508 -1.1723782 -0.58969533 0.56574845 -0.24269718 0.1364655 1.0669345 0.08450455 -0.6436289 -1.8229653 -0.24015877 0.43110314 1.0385262 -0.5610239 -0.18477206 -0.33332047 0.909501 0.6700713 0.026376681 -0.6594151 0.37023744 -0.2258653 -0.27484214 -0.050380915 -0.50062394 0.41572696 -0.05406069 -0.20268685 0.8262235 0.24418241 0.43717024 0.17455898 -0.43454364 -0.0890311 0.69544107 -0.3804937 0.5724193 -1.2028157 0.9084409 0.46982706 -0.1030393 -1.2268283 0.9600348 0.034785137 -0.8966238 -1.7882122 1.5238428 1.191595 -0.5608158
1583 -0.06181977 0.30256346 0.4743707 -0.13033149 -0.021205038 -0.79676604 -0.15998295 -0.75971687 0.2450357 0.36276597 -0.5261447 -0.6577482 -0.1786545 -0.6299811 -0.34453884 1.0308735 -0.6998642 1.0295068 0.22647077 0.6571786 0.48399276 -1.2117925 0.60292375 -1.0359604 0.02066405 0.313046 -0.03245683 0.13199735 -0.4594891 -0.9278084 0.5885759 0.8247928 0.6110137 0.60928816 -0.8734793 0.58259743 -1.1743169 0.5281845 -0.1083668 0.5608857 -0.2621191 -0.880354 0.9925245 -0.14465553 1.0410861 -0.008297798 -0.4651866 -0.016960086 -0.014397289 0.84776825 -0.8820681 0.57687753 -0.7672581 0.44332433 -0.5325237 -0.46951106 -0.45755163 -0.3642557 -0.8487979 0.027005473 -1.2532449 -0.33447382 0.20353879 -1.0580289
1385 1.298092 0.27205247 0.12123345 0.8697305 1.1246117 -1.339694 1.0283016 -0.011507973 -1.054763 0.057437286 -0.34935242 -0.86643445 -0.23113346 0.1720717 -2.1129818 0.110228516 0.020683357 -0.3943668 -0.5037881 -0.15981005 -0.2790198 0.24279313 0.6325245 -0.5240078 -0.018759876 0.33164877 0.48492348 1.2875485 -1.0030526 0.57100993 1.0135106 0.6028365 0.43119863 -0.07402408 -0.6202388 0.99298996 0.6293854 -0.3014873 0.040965278 0.32376134 -0.23143853 0.0040612747 -0.02643855 0.46552357 0.119263366 0.49147832 -0.50583917 1.8223484 0.13012719 1.2691709 -0.14410938 0.8180377 -0.80088186 -0.3085017 0.15171492 0.034943152 -0.86780936 -0.6245824 -1.1208556 -1.607067 0.08910119 1.1029356 0.08136588 -0.07573074
2268 0.28632858 0.6133699 0.026397163 -0.074834794 0.054349996 -0.44561797 1.4145507 0.6079907 0.77079755 -0.75963825 -0.54740274 -0.62312037 -0.46853808 -0.2646953 -0.68347466 -0.29993647 -0.47635856 -0.91481054 -1.1263828 0.77572757 0.6680653 -1.1831056 -0.7540222 -2.0488374 0.202813 0.55443877 -0.52811235 0.62268823 -0.06734959 -0.41503298 -0.19972824 1.0755631 1.0011326 -0.5011982 0.52725065 -0.11289061 -0.32048133 -0.7676788 -0.9293162 -0.22396289 -0.17967877 -0.23331086 0.4107834 0.90113825 0.2175927 -0.06797284 -0.013731317 0.88648045 1.1306771 0.44030702 0.501341 -0.087978594 -0.19247368 -1.417488 -0.3615499 1.0519375 -0.58972234 -1.2281829 -1.2383753 -0.49696 -1.6883688 -0.08219073 -1.4299948 -0.985851
2465 -0.068935245 -0.8942979 0.7282259 0.23474209 0.7544026 0.20258933 0.0055044666 1.6846625 1.6577377 -0.28850734 -0.27511483 -0.54415107 -0.7759946 -1.3282499 -1.1436645 -0.6123288 -1.2883265 -1.0093943 1.6825345 0.96346194 0.24778262 -0.5587832 -0.37046447 -0.92591506 -0.22813022 -1.0151192 -0.16489278 2.3852313 -0.14297071 -0.23276113 0.30527452 1.2763834 0.88630694 -0.6960781 -1.3001825 0.2337041 -0.29476187 0.99197745 -0.4489824 0.30827904 0.7094198 0.051941525 0.87862235 0.4466428 0.7061486 0.0137283085 0.640235 0.87313056 0.5446562 0.6142884 -0.50104344 -0.5026164 -1.4329046 0.3963637 -0.26396918 -0.25764984 0.07872476 0.29509565 -1.4710498 -1.6170963 -0.49132964 0.18461834 0.28623173 0.45662072
2476 0.09226827 0.079176426 -0.117048755 0.4600183 0.08759338 -0.09567933 1.2235433 0.9195486 -0.44650653 0.0138399275 1.0528613 -0.8201776 0.3291305 -0.9980725 0.6862244 0.7386158 -0.15835533 -0.2760305 0.21737437 0.9169168 -0.1642435 -0.46123686 -0.8346657 -0.78260136 -0.4801782 -0.430829 0.2986775 0.5905831 0.6006761 -0.8134493 0.25436914 -1.270375 -0.53468156 -0.632686 -0.699858 0.63780916 0.5243533 -1.4577497 -0.15740296 -0.17083205 -1.2447379 0.58741534 0.58604145 1.3797272 0.21847185 0.78769904 0.12638631 -0.2096502 0.09701392 1.023342 0.18779722 -1.4834425 -0.20276658 -0.21077873 0.07853292 0.2844389 0.16288573 -0.8775462 -1.0120754 0.66536367 0.32085752 0.7350993 -0.53514713 -0.21988817
756 -0.48545486 0.5986442 -0.6031547 0.09720557 0.42712638 -1.3485293 0.36273843 0.8325675 0.21803398 -0.06398175 0.41144413 0.15093601 0.035639983 -0.9553238 -0.04774698 0.9837215 -0.09564011 -1.3556588 -0.2739569 1.5077319 -0.024040768 -0.4865671 1.9274044 -1.1868968 0.085961394 -0.4313231 -0.37559438 1.2527009 0.22225875 -0.26665622 0.04314273 0.65261424 0.14319383 0.43751895 -0.2338444 -0.68471783 -1.0409601 -1.2144574 -1.0621676 0.86512035 -0.07893807 0.08843891 -0.32546365 -0.1941084 -0.12219576 0.15484601 0.76189107 1.4635938 0.19042116 1.2340493 -0.65806794 0.11711437 1.1007776 0.5567496 0.64169353 0.34918055 -0.17275596 -0.8482711 -0.20924774 -0.82261086 -0.33963048 -0.5270077 0.6165595 -0.10639408
1824 0.4637063 1.4335889 -0.045596235 -0.29837325 -0.6250344 0.17599636 0.011998763 0.892933 -0.27104124 -0.20657358 0.5856252 -0.9799724 1.0078511 -0.4709714 0.20754024 -0.11998351 1.33681 0.32862163 0.27966586 1.2048917 0.6298109 -0.7548156 1.1023656 0.067644425 -0.17562953 -0.35212559 0.4027625 0.22616647 -0.12932691 -1.0928401 -0.64532304 -1.0813942 -0.9051422 0.18722649 -0.16062148 -0.8067256 0.55338633 -0.6335 -0.23480782 0.29393572 0.39189887 0.2704684 0.06742429 -0.4309572 0.05250174 0.13632677 -0.14400661 1.2023162 0.60798955 1.5095261 0.92639375 -0.8832133 0.46243274 0.19478688 0.51766175 0.78241736 0.098433316 0.0077951076 -0.83719915 -0.20641276 -1.8303831 -0.52261686 0.6839411 -0.39347833
940 0.6057129 0.9180734 0.013268895 -0.43105513 0.56368685 -0.0978502 1.113196 1.3218472 0.5007054 -0.46502024 1.4906845 -0.5445796 0.48302597 -0.500846 -0.51103324 1.0102036 0.86545986 -0.16490394 1.4615749 0.6881572 -0.4117967 -0.391278 0.4654176 -0.4576412 0.99486953 -0.8063125 -0.5392749 0.7645372 -0.20068157 -0.7393533 -0.46138135 -1.2482237 -1.2706923 -1.0511606 -0.22652501 -0.6018512 0.31899974 0.028140128 0.31863132 0.71159935 0.47293833 -0.87410045 -0.06529852 0.1998919 0.32281223 0.70016456 -1.0032458 0.74694604 1.127735 1.6268737 0.15409628 0.7095457 -0.555498 0.029529765 -0.5205273 0.043112352 0.5280989 -0.22329736 -0.5689747 0.37762576 -0.55743235 0.33984384 0.22877778 -0.6471581
1628 0.031697694 -0.15387905 -0.2371474 -1.3094175 0.29249826 -0.74459517 1.0428905 -1.0673916 0.13983634 -1.0209492 0.25712427 -1.0839369 0.14479439 -0.11550468 -0.05284043 -0.104082055 -0.90342593 -0.9864581 -0.48693207 -0.20803915 -0.67572033 -0.2188708 0.10576794 -0.4710094 0.013764648 0.024454974 1.3845048 0.44571623 -0.17150892 -0.09964737 0.39538574 -0.0806055 0.40736052 1.0738193 -0.35080788 -0.7431922 0.60567915 -0.0237382 0.609679 0.49953026 0.16260117 -0.2966142 -0.035377223 -0.3345936 -0.27549273 -0.11950729 -0.5305426 0.4475929 0.39458492 0.16144548 -0.4304757 0.052003406 -0.91150457 -0.8978959 -0.22401291 -0.051394716 1.7466078 -0.78319174 -0.6179517 0.24990211 -1.6182863 0.3496589 0.7501795 0.65306365
534 0.7809915 0.9311151 0.36680892 -0.29679036 -0.33549547 0.20516707 0.55668604 -0.030823942 -1.1729599 -0.37583053 -0.0117645385 -0.085269324 -0.7134883 -0.6942257 -0.13303857 0.656676 -0.0054098098 -0.11818518 -1.4854223 0.7808504 -0.08664 0.5625228 0.48686725 -0.3921951 0.4075345 -0.9838199 1.0519042 1.1048099 -0.7910866 -0.59394544 0.2588218 -0.7821138 -0.23146981 -0.60183775 -1.5681703 -0.10872718 -0.03801391 -0.2949871 -0.4811332 -0.24423972 -0.70723134 0.4673825 0.46208194 0.4804642 -0.063300736 -0.5831737 -0.416711 0.92443 -0.85890335 0.38231164 -0.62394947 -0.882565 0.511958 -0.49743885 -0.6034847 1.3475769 -0.33793145 -0.19339168 0.09566856 -0.37991425 -1.3151777 0.8882667 -0.057992093 0.4426136
