2707 64
1358 0.17816943 -0.738898 0.28560734 0.31550786 -0.030649647 0.047752094 -0.10848768 0.10288989 0.49172667 -0.2906575 -0.2937024 0.16060068 -0.064264156 0.13533944 -0.7024642 -0.24440376 -0.3048752 -0.14841436 -0.56034124 0.6058104 -0.077501506 0.8684525 0.19660164 -0.35568348 0.5015718 -0.03976312 -0.104863174 -0.04948682 -0.21822184 -0.3306674 -0.23077786 -0.11842194 0.5291879 -0.107948825 -0.23782882 0.7947679 -0.75120133 -0.40828115 -0.28783518 -0.23999916 0.6907548 0.0071385494 0.29780063 -0.3707383 -0.13980691 -0.8497539 0.32997298 0.24613012 0.15444122 -0.03154483 0.04746566 0.32514605 -0.61474854 -0.34921068 0.22147937 -0.4443867 0.37702045 -0.2978982 0.4415951 0.8387283 -0.28659016 0.039770808 0.39553785 0.7119154
1701 -0.106384225 -0.709261 0.6275025 0.42282745 -0.51580465 0.04844441 -0.37186405 1.0737536 -0.04713896 -0.15485774 0.020484399 0.4335351 0.3376682 0.13780677 0.52559966 -0.48932204 0.5729783 -0.32971054 1.1462742 0.42352545 -0.18762673 0.21169321 0.622094 -0.5145767 0.4706214 0.5111585 -0.51558244 0.06263243 -0.46630237 -0.36369842 0.512148 0.35593307 -0.72985405 -0.8749331 -0.19634712 -0.047284767 -0.06557876 -0.07370221 0.6758671 -0.8203504 0.9463444 -0.5012684 1.2309445 0.9799226 0.21214963 -0.13966712 0.6291134 -0.5931623 0.21366046 0.7513686 0.42022285 0.21675432 0.013742583 -0.049758755 -0.5050965 0.45102087 0.048898183 0.01635605 0.6103998 -0.24895778 0.16534919 0.16531 -0.64792717 0.33345413
1986 -0.29937747 -0.505894 0.22719735 0.51208186 -0.76291955 0.21991572 0.7711781 0.79230773 0.593086 0.25066182 -0.35021606 1.4446596 0.79808736 -0.5010684 -0.33788082 0.006481222 -0.03364409 -0.22084717 0.007804441 0.6209507 0.33230174 0.008588553 0.60072196 -0.071037315 0.9375552 -0.114747785 -0.49495792 0.43403074 0.34611732 -0.19569317 0.46144706 -0.049608774 -0.10017371 -0.72772986 0.09687828 -0.6789163 -0.1094586 0.4215229 0.10262269 -0.38065323 0.8708946 0.2814893 0.528284 0.28677425 0.4464034 -0.19418213 -0.25844142 -0.24680707 0.28571016 0.43046084 0.83242166 -0.7650318 -0.35475996 0.079556145 -0.04468632 0.2137326 -0.48042053 -1.0133264 0.5863245 -0.08482351 0.027588014 0.07379573 -0.04506018 -0.3307124
2034 0.5936662 -0.40057746 0.3399867 0.06785385 -0.27997327 0.11464761 -0.20429066 0.7899018 -0.30378 -0.0664415 -0.4663103 -0.04281676 0.8458357 0.82701385 0.23968916 -0.15647808 -0.26362255 0.026988477 -0.0334583 0.1615999 1.338785 0.38321307 0.95486695 -0.25888187 0.18685317 -0.026546549 -0.12305169 -0.28207475 -0.53317463 0.0069167553 0.837982 -1.1762081 -0.6269703 -0.7817879 -0.25728247 0.5193381 -0.57849085 0.27680522 0.7171289 0.28120214 -0.5009849 0.1486891 0.31938684 -0.2299558 0.45731565 0.34052256 -0.15523039 -0.40644628 -0.2240015 -0.6986765 0.97873914 -0.3232394 0.1545737 0.6291673 -0.3889563 1.2061871 -0.14287107 -0.3538883 -0.74533087 0.4025416 -0.33873066 -0.06586891 -0.43663052 0.57381314
2045 0.62418675 -0.40664738 0.41998124 0.537875 0.4532813 0.392348 -0.18844508 0.56068987 -0.0032863033 0.55844295 0.30266553 0.11723592 0.5241908 -0.017483963 -0.6167196 0.37694865 0.24342717 0.38167617 0.41477272 1.424216 1.0305257 1.0734128 -0.0130779445 -0.013657959 0.22354478 -0.69777834 -0.41918132 0.341195 -0.7081499 -0.1328024 0.49800816 0.17361668 -0.118876964 -1.1254715 -0.13093269 0.40153387 0.5387488 -0.34369317 0.78317344 -0.7774314 0.21974151 -0.87596834 -0.56966764 0.680023 0.6273359 0.043975998 0.8841327 -0.0020268788 0.39948013 0.38688928 0.68551415 0.4641481 0.638265 -0.4061057 0.23811528 0.5840354 -0.065866075 -0.69200134 1.1804372 -0.39192012 -0.29884374 -0.5272708 0.092665635 0.46380487
1810 -0.029056381 -0.45618674 1.2121072 0.85710186 -0.26058936 1.312902 -0.38864747 0.07380042 -0.047579292 0.8052586 0.34955314 -0.060324937 0.015797392 -0.062650345 0.44782537 0.5456991 0.2689622 0.2007867 0.36124778 0.40212053 0.49904773 0.36320856 0.55746037 -0.19577058 1.044228 -0.3932529 -0.059954137 -0.12259595 -0.021820879 -0.5419201 0.51510423 -0.8414344 -0.5696628 -0.32019943 0.22234112 -0.37380955 -0.11185174 0.73415637 -0.12655169 -0.058438953 -0.030406317 0.42822173 0.44617066 0.049416706 1.0131786 -0.60912865 0.2394426 -0.09449015 0.5207829 -0.032692194 1.4407773 0.1920794 -0.9490214 0.75286865 -0.7583158 -0.0010567801 0.41545445 0.3242027 -0.18567811 -0.14013115 -0.8294754 0.5511112 -0.020721007 0.049462464
2249 0.15283944 0.23042534 0.7467674 -0.36132568 -1.2879401 0.0756895 -0.7312877 0.21953683 -0.16477908 -0.20670028 0.39868405 0.08304903 0.8557593 -1.0377554 -0.32803082 -0.14900325 -0.75390357 0.19904006 0.1836783 0.41803634 0.7166948 0.84413666 1.46998 -0.2767439 0.1573994 0.5106485 -1.2178631 -0.56465364 -1.1922388 -0.36428365 0.6700201 -0.6167275 -0.37054217 -0.27611786 0.456955 -0.13609406 0.11669062 0.04924122 0.61050415 0.7796949 0.12770133 0.5181364 -0.5831854 -0.7153423 0.08927715 0.077424094 -0.15316914 -0.44519517 -0.20732458 -0.8289445 -0.099895455 0.6575282 -0.016671784 0.95850664 0.5178682 0.8641408 0.6001334 0.26569027 -0.4857598 0.7618266 -0.77288383 -0.5284075 -0.09215906 0.4067146
1914 -0.10724276 0.62465185 0.28945884 -0.6456791 -0.024673518 -0.114569336 -0.75542164 -0.019466557 0.37248376 -0.7125908 -0.8153596 -0.11712282 -0.43593198 0.041109093 0.56597155 -0.5501012 -0.048932996 0.21629915 0.7369589 1.1699233 1.4811667 0.3755812 0.019977463 0.29067826 0.0195554 -0.44481143 0.14217867 -0.49705625 0.1363141 0.07270547 0.72180593 -0.28914294 -0.27523568 0.94167054 -0.36740786 -0.16760808 -0.6908389 0.2283154 0.06297054 0.76318955 0.46442258 -0.8746207 1.0080652 -0.20364206 -0.1016701 0.34196228 1.0042478 -0.0711177 1.7667422 0.842483 -0.5916826 0.03262365 -0.4862883 1.1332884 -0.7865943 0.38520303 -0.18917832 -0.18245804 0.06583357 0.7413372 -0.3038005 -0.20144394 -0.48018765 0.51978636
2182 -0.35339335 -0.49243012 0.2555773 0.44148988 -0.056485996 -0.5714797 -0.93540114 -0.8983603 -0.33173674 -0.49099046 0.8441231 0.3033062 -0.054544386 -0.23745714 0.576652 -0.21332034 0.092027076 0.32792982 0.9171533 0.16259687 0.23843989 0.45303813 -0.3777601 -0.7045733 0.25343338 0.6263956 -0.17677057 0.07321287 0.34670478 -0.034493852 1.3496448 -1.5597293 0.69745153 -0.054515533 0.05245805 -0.38000664 -0.9071621 0.40538427 -0.08218809 0.34718797 1.3476623 0.72409725 -0.13924438 -0.62574434 0.8480143 -0.06659455 0.45692444 -0.121160485 0.5178735 0.8084382 0.48411807 -0.5956158 1.8236103 0.7327869 0.670196 0.18725707 -0.33092627 0.09990127 0.26036292 0.28221062 0.941845 0.1550163 -0.31502834 0.85424685
1765 0.21315159 -0.9844668 0.18613356 0.001849923 0.50555336 -0.5832606 -0.09462831 -0.21002251 0.6582316 -0.06674139 -0.096783996 0.8317594 -0.48229197 0.56294847 -0.0064571416 0.5395985 -0.21913974 -1.0521027 -0.02023028 0.7824888 -0.23832317 1.1419721 0.80617464 0.23769893 0.8254231 0.2653236 0.13808228 -0.5432482 -0.6653721 -0.21894571 0.29578313 -0.27238128 0.5738382 0.18014723 -0.4642226 0.34028876 -0.21219346 -0.13940406 -0.42479002 -0.038716387 1.131242 0.8037043 0.2900462 -1.2584636 -0.39293978 -1.112302 1.2673473 -0.69506454 0.09053375 0.58661634 0.6383745 0.19675477 -0.21258968 -0.7913312 -0.7101759 -0.23307496 0.3279608 -0.1843063 0.11014478 1.4536192 -0.3051139 -0.56522816 0.51957536 0.67414224
2451 0.69916964 -1.9923182 0.1135937 -0.5004729 -0.49856934 0.20038077 -0.24294773 0.23737955 0.2543463 0.019697834 0.94472516 -0.4613619 0.10601446 0.55793816 -0.75810367 -0.25824782 0.35655192 -1.3926644 -0.12402913 0.09076702 0.7372296 0.017815057 -0.1707972 -0.56833535 0.5340024 0.17388079 -0.7183841 -0.3234836 0.05341576 -0.12985548 0.40720096 -1.2573658 0.4516587 0.7055246 0.634464 0.19823916 0.07970494 -0.26880756 -0.36994553 -0.20968707 0.8974243 -0.5799751 -0.5708819 0.06239357 0.5059677 -1.1310618 0.3936618 -0.5925178 1.0592188 0.70997477 -0.45428136 0.15670504 -0.38417608 0.23209457 0.07028451 0.024231773 0.71284175 -0.7360795 -0.5244354 1.3586054 -1.2769694 0.082953624 0.1421418 0.6953921
2130 0.025132569 0.09336545 0.93656296 -0.21382093 -1.5020306 0.10246908 -0.60955024 0.48626855 -0.36990368 0.17048283 -0.10099295 -0.14589149 0.614634 -0.14057346 -0.83447546 -0.008823728 -0.3686634 0.10755757 0.021494102 -0.1324214 0.9421015 0.6964674 1.1623985 -0.08141124 -0.08292632 0.5740859 -1.2649931 -0.34219548 -1.39957 -0.17925893 0.46098787 -1.0709955 -0.62743527 -0.25002596 0.2143329 0.012653057 -0.9843186 0.31024233 0.7733759 0.8121585 -0.058883425 0.88120043 -0.14426072 -0.3728034 0.18047631 0.43266115 -0.08605148 -0.14630793 -0.38941532 -0.32970992 1.1413401 0.46583655 -0.09674371 0.58374894 0.5252076 1.4337448 0.15583634 0.24276637 -0.5598664 0.5971254 -0.5980931 -0.07762941 -0.54378957 0.8151507
1623 -0.10164242 -0.11289143 1.2243588 0.4382416 0.23092696 0.28122565 0.31737527 0.7700105 0.08155906 -0.3268651 0.8392575 0.33799878 -0.28606835 0.706379 -0.066378504 -0.23283587 0.30144426 0.7215105 0.5359588 1.4374726 1.3641441 0.067837544 0.707022 0.24421223 -0.17803945 -0.673692 -0.22553764 0.12028355 0.5687187 0.27954787 1.5287104 0.03837734 -1.3739567 -0.0783804 0.119135246 0.4390319 -0.6342642 0.37598616 -0.06681632 -0.6877195 0.6515215 0.1271319 -0.035019264 0.0675231 0.08172024 0.34567598 0.5529245 -0.11511843 -0.5815233 0.060299587 -0.25269315 0.18242076 0.13033268 0.4595194 0.41201705 -0.15635537 0.33114827 -0.59246063 0.14626215 -0.111364126 -0.62991124 0.18187809 -0.2598521 1.3047144
2671 0.21820161 0.72991043 0.9169212 0.124042116 -0.67457986 0.4192741 -0.75769037 -0.6068243 0.49085635 0.01501482 0.61642134 0.16575012 0.37644184 -0.91367036 0.16216107 -0.22493728 -0.33209282 -0.00094905565 -0.12766016 0.2662404 0.96261746 0.37770927 1.7622944 -0.3320683 0.6298335 1.3123747 -0.577716 -0.25372472 -1.5605845 0.06711316 -0.114315644 -1.0656 -0.50862426 -0.18215732 0.22775778 -0.30754432 0.3269626 0.016142963 0.045357864 0.13579988 0.65573657 0.7963726 -1.3582448 -0.4644291 -0.2520788 0.076511994 0.2544018 -0.0806693 0.12302176 -0.57749206 -0.0978392 -0.08855108 -0.28655264 0.3595642 0.55326754 0.99415386 0.6577721 0.68670875 -0.05995305 0.5974479 -0.80736506 -1.3618996 -0.27727857 0.6611898
2248 0.23716567 0.9803714 0.7278053 -0.3176404 -0.8918362 0.16586207 -0.5034943 0.5296685 0.30132383 -0.66674554 0.5792841 0.058971677 0.47637907 -0.81400144 0.045510046 0.17223278 -1.043368 0.898866 0.44516993 0.73831636 0.5790625 0.71242887 1.6886919 -0.30794162 1.0575228 0.49509293 -1.0057062 -1.2197454 -0.26887795 0.081490695 0.016967013 0.108959235 -0.5572885 -0.33378455 0.45892516 -0.101499595 0.82541275 -0.4926383 -0.120035574 1.0384188 0.8554875 0.21067028 -0.69567114 -0.9714092 0.64506036 0.14580156 0.36320654 -0.10478979 0.94541407 -1.0554781 0.22526541 0.37747255 0.32680866 0.59493107 1.1339384 0.27338693 1.1498016 0.46320862 -1.2004434 1.0582482 -1.0204657 -0.5032885 -0.99617106 0.7001971
2492 0.43687364 -1.2468582 0.40175363 -0.29077587 -0.2770225 -0.882636 -0.21182702 -0.46209496 0.9003841 -0.51052505 -0.031074466 0.34901288 -0.8362963 0.12507726 0.3784951 0.58013767 -0.31691885 -0.9890164 0.47271007 1.2413988 -0.76442724 2.1298358 0.9555935 0.5833103 0.9472085 0.26228315 0.6534331 -0.94595164 -0.6225339 -0.4321962 0.5128103 -0.05436024 0.7757601 0.019454831 -0.061500326 0.33234823 -0.014930634 -0.033284947 0.033473816 0.29111362 1.6416843 0.4203999 0.5878764 -1.6960398 -0.6269022 -1.4475534 1.7868533 -0.17008246 0.6424235 0.48877373 0.7512361 0.35043347 -0.33052978 -0.8350883 -0.596332 -0.06623015 0.69864386 -0.48799828 0.30541688 1.6066185 -0.22113954 -0.68726933 0.90330404 0.99013275
1441 -0.8097438 -0.555729 -0.06151921 -0.64289844 -0.4637614 0.33591366 -1.3340207 -0.47414392 0.3508546 0.29791686 0.044847786 1.2154227 0.7028539 0.025338316 -0.8220209 1.6428881 0.62750185 -0.095045105 -0.05457509 0.39050838 0.8504946 -0.52983826 -0.022966592 0.30439702 0.9512792 -0.96458733 0.7689616 -0.4334712 -0.42469227 -0.23266299 0.85446 -0.112531684 -0.77925295 -0.5573802 -0.16223961 -1.3968198 -0.38582534 0.06561617 -0.6260525 0.6204489 1.0874863 -0.41227663 0.3881195 -0.759957 0.22290812 -0.27133688 0.5751857 1.4451635 -0.5690957 -0.493791 -0.21616967 0.9206067 0.50060207 0.6466976 -0.7939524 0.14964575 -0.78465086 -0.22948617 -0.029873462 0.5715319 -0.99488693 -0.40178785 0.18640895 1.4182518
2168 0.7209135 -1.1176805 1.100839 -0.6466166 -0.34992632 -0.47965047 0.33339748 -0.087379836 1.1170722 -0.95445234 0.38075522 -0.5570713 -0.38231993 1.1852261 -0.88736314 0.4982332 -1.1156301 -1.0768489 -0.31225404 1.4224309 0.2347639 0.81408125 -0.57797956 -0.38800853 0.5337036 0.7398074 -0.4982357 -1.3640443 -0.8030092 -1.0386708 -0.059689384 -0.9309849 0.43109834 -0.6040292 -0.44667673 -0.68190897 0.14499062 -0.060985085 -0.35880655 -0.034143932 0.87388825 0.62346363 0.2192893 -0.16339307 0.009768431 0.34504986 0.08475923 -0.26576036 -0.13359669 -0.17427686 -0.27161768 -0.4188329 0.15763424 -0.71886444 0.37431762 0.10992043 -0.41403115 -0.44695657 0.78526795 1.4104017 -0.74152035 0.7158886 0.16687365 0.7912568
2291 -1.4776886 -1.0019997 -0.41107517 0.41931295 -1.1162318 -0.11556904 -0.085660875 -0.39793602 -0.010613359 -0.25402802 1.2499298 -0.27284223 0.23920801 0.024756454 1.0306454 0.12833914 0.11019516 0.07991999 0.65543324 1.6238177 0.39589947 0.65255797 0.14170597 -0.65296215 1.1303006 0.44839153 0.5094903 -0.31347048 0.43884733 -0.55318654 -0.11745539 -1.4293724 0.22308259 0.38698322 -0.1942673 -0.15563357 0.24190144 0.33099064 0.023606036 0.074785955 0.9482497 0.11375783 0.74758154 -0.008742918 -0.13815968 -0.44039643 0.7676897 -0.80519223 0.58468366 -0.8610938 0.6278194 -0.2555977 1.1479659 0.3393504 1.135204 0.4843696 0.08161845 -0.12425234 0.013215519 -0.037806664 0.059123315 0.76180583 -0.7406285 0.24129307
1902 1.1508789 -0.6428172 -0.45499474 -0.17118412 0.039464947 0.14185968 0.8615093 0.12069414 -1.0991113 0.60622346 0.14138477 0.62024933 0.46777886 -0.34362423 -0.7529852 -0.042438086 -0.6173819 0.5933076 -0.33383125 -0.1294907 -0.11082698 -0.18579698 0.35792273 -0.22419833 1.1290323 0.19813427 -0.4038884 0.2093048 -0.6879926 -0.55076015 0.16744748 -1.1908298 -0.43481162 0.27794078 0.37153205 -1.1728238 -0.45391122 -0.33787212 1.1814549 0.1386228 -0.19119525 -1.0463179 1.0087149 0.061183825 -0.69723094 -1.2032629 0.7383477 0.5695708 0.95495117 0.11875157 0.26132786 -0.11663634 1.3205549 0.47596142 0.17086095 0.07683451 -0.018802235 -0.2541639 0.21962972 1.4699725 -0.7704572 -0.3029943 0.2880729 1.2484548
1950 -0.25864798 0.3802973 1.1557897 -0.12048245 -0.35979643 0.18208678 1.0189631 -0.01830497 0.15726358 0.5206507 0.35670727 0.40924215 -0.25491783 -0.93057114 0.7843643 -0.5606794 0.72638816 -0.71435463 0.62848437 -0.09887738 0.07599143 -0.023209417 1.0835572 0.4145003 0.50434893 -0.18290362 -0.8420882 -0.5801836 -0.6774101 -1.7180707 -1.2053928 -0.50528985 -1.6182208 -0.7787559 0.97880435 0.3012197 -0.103399284 -0.19995593 0.038594294 0.4832485 1.5773052 0.55900866 0.65183526 0.9089597 1.098977 -0.13562986 0.0030051577 -0.3156528 0.54169816 -0.3104359 0.88933533 0.48627284 -0.25075448 1.4850733 -0.34502298 0.34904164 1.2444743 -0.9308373 1.2278808 1.2621546 -0.21071711 0.44782108 0.5310325 -0.20511232
2367 -0.7627282 -0.40909052 0.6795219 -0.08528875 -0.19192189 0.4030765 0.975656 -0.5670918 -0.45579058 -0.58719426 0.3825744 0.21397108 1.8997723 -0.45877424 -0.06899141 0.65498465 0.008359283 0.83828074 -0.25394192 -0.22865227 1.9111521 0.83604515 0.5225378 0.37403834 0.421429 -0.40353286 -0.46058887 -0.32695097 -0.16974406 -0.2991336 1.7212694 -0.2422243 0.5975091 0.82454824 -0.03561969 -0.43320832 1.096843 -0.1629794 -0.62659776 0.93237954 1.2338024 0.6149471 0.39891878 0.40548238 1.2624954 -0.86083573 1.355507 0.6114853 1.7282704 0.47338825 -0.28258002 1.2809522 0.31911787 -0.4189988 0.24179955 0.74952555 0.3689684 0.013741123 0.6855841 0.43771324 -0.053494886 -0.084088504 -1.1929482 0.69659483
2452 0.7712665 -2.5015013 0.052209724 -0.5129547 -0.92580885 0.44227844 -0.28190604 0.39937684 0.3027893 -0.1877884 0.97200495 -0.49147105 0.12123969 0.6124898 -0.6378759 -0.24366102 0.44777977 -1.3090744 0.0033012154 0.100598805 0.86086357 0.16371968 -0.49752957 -0.43142524 0.6409451 -0.035131194 -0.7471646 -0.4827081 0.04336337 0.05229252 0.603321 -1.6838142 0.64128256 0.7461691 0.64737403 0.37302184 0.036378846 -0.106057 -0.42191648 -0.24353454 1.0506055 -0.6420888 -0.52590877 -0.0019628943 1.0098267 -1.1972051 0.17113955 -0.56537133 1.2394851 0.7792789 -0.5572758 0.1392599 -0.502567 0.23049611 0.33710954 0.2543879 1.0175083 -1.0518233 -0.5765315 1.5055177 -1.561665 0.04160448 0.19787118 0.98158586
2359 0.8636176 -2.09282 -0.3012119 -0.040631715 1.505055 0.6333614 -0.51525235 0.30891952 1.3109481 -0.57094455 -0.21693406 0.094930686 0.45397764 -0.41378444 -0.13916788 -0.0053770393 0.14768 0.7493339 0.45392987 -0.08242038 0.038167898 1.9579203 0.5070317 0.02512121 0.17145385 0.77417004 -0.5124348 -0.48278475 -0.901694 0.30426553 -0.11066956 -0.6029383 -1.0829754 0.1341008 -0.18458803 -0.60473436 -0.5149991 -0.15707701 -0.4612249 0.07685338 0.1742411 0.3846396 -0.480986 0.053565312 -0.05412848 -0.61895037 0.73795503 0.9892818 0.39042252 0.47504932 -0.09818832 -0.07278845 0.109055996 0.57162935 -0.5353162 0.59091204 0.55399853 -1.6302567 0.8635252 0.27939883 -0.5365838 1.3091433 0.077013224 0.077387065
2122 0.99342996 -0.5463577 0.9589792 1.1070747 0.20542088 -1.0965556 -0.09967262 0.03464043 0.6001106 -0.4613005 0.17087966 -0.084957205 0.37447605 -0.3253886 0.45953685 0.09774061 0.26857072 0.03458174 -1.0437381 0.9422782 0.5137986 -0.5762702 0.56398886 -0.37840673 -0.20201223 -0.37227532 -0.5004853 -0.21631438 0.010363313 -1.0749766 0.63397545 -0.7483576 -0.21612789 -0.15982527 0.06988069 -0.65975565 0.73827416 -1.261335 0.85362864 0.6525757 0.4551952 0.7457694 0.0639668 0.04533205 0.5959493 0.7914564 0.2948382 0.08411871 -0.3850407 0.21931463 1.0851241 0.109306 -0.30380744 0.7834348 -1.3631239 1.3925344 0.41716304 -1.4470809 -0.9570065 0.84266466 -0.3952668 -0.13915882 -0.13410889 0.64941025
2169 0.5143667 -1.6800857 1.6914816 -0.3050493 -0.2451863 -0.41688138 0.08648757 0.18438563 0.6566167 -0.2768506 0.326565 -0.6944175 -0.30868867 0.6175853 -0.22806373 0.13352744 -1.1381838 -1.5636071 -0.5350852 1.6861001 0.93826026 1.2536107 -0.35860655 -0.20771274 0.710525 0.9829792 -0.31746468 -1.3595885 -0.6395971 -1.0326144 -0.21916954 -0.4544189 -0.3784852 -0.8252961 -0.023614667 -0.9333451 0.09679346 0.077026345 -1.2494142 0.37290758 1.0632623 0.03651845 -0.27774173 -0.012097156 0.9594741 -0.35160187 0.28510705 0.04435527 -0.08707156 -0.7733541 -0.82892257 -0.53681237 0.24945281 -1.3684478 1.0007095 -0.23155034 -0.22046229 -0.0895896 1.1702812 1.397917 -1.0545716 1.1328377 0.13481748 0.6277951
1894 -0.24248575 -0.20417425 0.06703025 0.72747225 -0.8997596 -0.8884946 -0.83554846 0.98178416 -0.011342323 0.95776016 0.30955252 -0.35320023 0.555158 0.9117222 -0.5129132 -0.5487283 -0.25182506 -0.2234699 -0.28310904 0.20364234 0.29162696 1.24753 -0.03652782 0.16746648 0.024299975 -0.29613066 0.06912978 -0.17936003 -1.176435 -0.2942741 -0.084748745 -0.565895 -0.9857758 -0.83309895 -0.7414806 0.41963714 -0.77517766 0.14131 0.60608643 -0.1666373 1.9701483 -0.31112045 -0.33210865 -0.641787 0.75781816 0.17972463 -0.17257622 -1.1241565 0.6564963 -0.24428307 0.82997 -1.1970272 -0.37885168 0.74789953 -0.46575153 1.0924282 0.34810212 -0.51300836 -0.27206317 0.6068276 -0.351644 -0.9394294 0.40283108 -0.047333688
2685 1.3903383 -1.3713307 0.19151704 -0.029312415 -0.9195057 0.7484287 -0.6022577 -0.027994514 -0.17064732 -0.80789626 1.0411239 -0.30926242 -0.090507194 1.0342174 -0.7533034 -0.6220006 1.5692637 -0.8551403 -0.81962734 0.7680898 -0.10481685 0.06901581 0.5792115 0.3421983 0.9681335 -0.26828608 -0.6020718 -0.8074259 -0.06714048 0.50824136 0.7516504 -0.6582728 0.4662231 0.17540985 0.27601454 0.5522898 -0.13949256 0.10875006 -1.6495959 0.19332184 1.834899 -0.9798345 0.114530124 -0.17488697 0.66027683 -1.0288738 0.31916305 0.15388118 0.5172692 0.8399511 0.3839545 0.29650003 0.11741379 0.47220907 -0.22662635 -0.42786908 0.8104941 -0.40264568 -0.5765033 1.1139495 -0.7817239 -0.6167121 0.7720599 0.48943698
2123 0.6998525 -0.33681902 0.52538925 0.98482066 0.0193974 -0.97726786 0.5320063 0.14088383 0.3041542 -0.22780178 0.3084085 0.0070936615 0.49928707 -0.48381332 -0.17750262 0.4104637 0.6341512 -0.25319758 -0.8320948 0.8608059 0.42461005 -0.15962917 0.2114726 -0.5039033 0.5302243 -0.4006933 0.115949735 -0.21025173 0.19401921 -1.3597932 0.35029972 -0.25111565 0.16869776 0.08542289 -0.33769122 -1.027217 0.26639313 -1.0699437 0.7863738 0.07669878 0.81821626 0.3173615 0.39100292 0.29967913 1.0916018 0.70212245 0.33651882 -0.103265315 -0.37742195 0.07946039 1.0809952 -0.8215697 -0.7155624 0.5650185 -1.0412893 0.738149 0.597981 -1.4515713 -0.49243298 0.45555824 -0.4298594 -0.51346886 0.018279076 0.4425232
2133 -0.5794111 -0.82514083 0.55459994 0.8516995 -0.0020202745 -0.41591382 -0.35908425 -0.5263059 -0.42492867 0.27368987 0.628373 0.37854487 0.10860936 -0.4680933 0.5107081 -0.77174896 -0.47608304 0.50847465 0.6989688 0.61616576 -0.23543443 0.064196974 -0.56288123 -1.6693174 -0.27527398 -0.17610142 0.13913748 -0.38256887 0.24148108 0.4204979 1.20861 -1.2774719 0.08112663 -0.4306164 0.8082538 -0.30850142 -0.6690042 0.4922017 -0.4546105 0.23411383 1.4339632 0.68219 -0.08778794 -0.7773301 1.0490174 0.07987104 0.80967295 -0.24218984 0.6693052 -0.18144007 0.16291487 -0.5439337 1.3683971 0.74972945 1.1453296 0.73585033 0.6114049 -0.40817684 -0.061544884 0.92531294 0.37023777 0.65100515 -0.32466242 1.0458268
973 0.34487104 -0.35189816 0.16594921 -0.3047113 -0.7074276 0.17366786 -0.17849864 -1.421914 0.81366944 -0.051093277 0.2990522 -0.1872341 -0.8245968 -0.59294325 -0.70295686 0.36212626 0.17179576 -0.2510215 -0.53028715 0.3450121 1.0386003 1.1900427 0.23462108 0.2315576 1.0708545 -0.5683193 -0.53841865 0.8151896 0.21106268 0.30287683 -0.030580765 -0.37313455 -0.47277886 -0.4859153 -0.09089653 -0.31984398 -0.7065898 -0.18861467 -0.36524925 0.12974456 0.4348654 -1.3185991 0.26080683 1.0913446 0.25488168 0.0274046 0.4628772 -0.41559735 0.14778934 0.7463825 0.32575956 -1.0161395 0.7063857 0.86459905 0.19630848 0.3934588 0.46524498 0.21901846 1.133515 0.052858908 0.36616105 -0.049734857 -0.23589608 0.6226875
2450 1.0439076 -0.248865 1.2366697 -1.168954 -0.24633464 1.012258 -0.5725451 -1.1862068 0.2489718 -0.9638093 0.45536605 -0.03982308 0.85746044 -0.07836035 -0.15742673 -0.46266398 -0.00554721 -1.0342385 -0.49509856 1.525222 -0.49167997 0.3373761 -0.4967253 0.83561295 0.68465376 0.680005 -0.9263774 0.7368277 -0.43719345 0.9693649 0.8000605 -0.70481783 1.0456278 -0.39608744 0.5500369 1.3197 -0.93061006 -0.26920155 0.534687 0.11291399 1.7466023 -0.52424365 -0.1793091 -0.42699164 0.083778776 0.21947666 0.6688365 -0.45425543 0.117465 -0.055038758 0.72473985 0.38046497 0.0321727 -1.0069536 -0.3508086 0.7305081 -0.28161508 0.093388766 0.38377655 1.1464204 0.5574859 0.1716642 0.17843689 1.1435423
1927 1.3031554 -0.19160107 0.5728594 -0.8731621 -1.0266129 -0.39967167 -0.6550953 0.41233587 0.3328313 -0.23343341 -1.3115125 -0.38697776 -1.1026725 0.10333605 -0.26671892 -0.49646428 -0.103359975 1.1168451 -0.23454499 1.7197313 1.1097692 0.31380597 0.67977196 -0.09245079 -0.0918069 0.34503388 0.55748385 0.86658275 -0.7158653 -0.7327043 0.6568089 -1.5960093 -1.4724497 0.07955248 0.24819984 0.17245157 -0.7986351 0.73900455 -0.3806333 0.6402321 1.076662 0.26776385 0.26908317 0.30177453 0.12383594 0.2761991 0.056613903 -0.039876413 -0.024484647 -0.7363144 -0.04198701 0.1058407 0.45360118 0.17015377 -0.29321533 1.2561952 -0.1656349 0.8546637 0.31562188 0.627941 0.19915728 -0.672265 0.7789155 0.56183654
2270 0.3475984 -0.21867287 -0.7417944 -0.92155594 0.34253475 -0.6529606 -0.42717186 -0.29222295 0.09938962 -0.5395321 -0.23967896 0.2788448 0.24187942 -0.4160898 0.2173172 -0.03639653 0.5224936 0.58163595 -0.2487841 -0.15981354 0.15118581 -0.3886668 -0.06380871 0.90960026 2.104532 -0.89481515 -0.38120303 -0.49405643 0.017954385 0.17270526 0.5014079 -1.1960737 -1.620948 -0.9369946 -0.51125294 -1.155811 -0.6129575 -0.47397137 0.3817081 0.39622697 0.6389208 -0.08667529 0.46399587 0.28904226 -0.8643679 -0.73931193 0.24899036 0.5336335 -0.25986764 -0.73002917 -0.6592131 0.643743 1.3809575 -0.22445242 0.56845814 0.27247554 0.28759807 -0.77545667 -0.27719453 2.4907572 -0.89995754 -0.5711802 0.7859469 0.29920053
1542 -0.100609235 -0.71131897 -1.3319906 1.2214726 0.1266941 0.020880723 -0.64787114 0.31193078 -0.1414052 -0.7105341 0.57226 -0.4521089 0.03809954 -1.0589813 0.6186362 -1.0693022 0.17458583 -0.346939 0.40616366 0.03721298 -0.15595753 -0.10268994 0.7048063 0.8044013 1.5024811 -0.05185917 -1.3299448 -0.859108 -0.3095451 -1.1071969 0.0751572 -0.8277605 0.21361953 -0.091602184 0.37920317 -0.18127544 -0.44133174 0.006051216 0.76514214 -0.6639164 0.8301674 0.011799546 0.16074963 0.6321702 0.89459056 0.94194126 -0.19774327 -0.028318908 0.23625028 0.017018585 0.25959274 -0.025183024 -0.9295539 1.3334563 -0.88883036 0.58192337 -0.84769255 -0.51549166 0.39722434 0.6404903 0.07254504 -0.19391187 0.4526679 0.6797109
1903 1.1530561 -0.29508454 -0.41081813 -0.36064726 0.21054615 0.08898355 0.46920395 0.27644902 -0.8185472 -0.15498222 -0.1718632 0.5072751 0.15595876 0.09684623 0.02235501 0.3637124 -0.1383361 0.6579035 -0.61164194 -0.29073864 0.28951323 -0.33859456 0.03299678 0.009709559 1.7722914 -0.02441531 -0.7013479 0.019395914 -0.366833 -0.91515744 0.02388202 -0.519075 -0.32461804 -0.1116133 -0.3128282 -1.4177108 -0.39323583 0.034347784 1.1752052 -0.18224916 0.019033076 -0.94560623 0.9134578 -0.19967675 -0.5649528 -1.3189594 0.7548646 0.76560646 0.19403546 -0.058913857 1.055926 -0.23532394 1.0314473 -0.2957455 0.3203097 1.1042076 0.6327672 -0.10674003 -0.3536773 1.3286662 -0.86277443 -0.915918 0.053003624 1.3466204
1740 -0.20612781 -1.3573128 -0.29687428 -0.7135974 0.6749508 0.5880991 -0.1496373 0.07533177 0.3530577 0.08721667 0.111588806 0.023376893 -0.57675177 0.09900894 -0.32509276 -0.40359253 0.51487005 -1.4387091 -0.21423621 0.15006618 0.8322989 0.41843742 -0.03216932 -0.79789287 0.71823484 0.5681729 -0.17365235 -0.0140521685 0.12868185 0.30747303 0.13039288 -1.3481357 0.6712547 0.77622736 -0.6342438 -0.31675914 -0.15218948 -0.6295321 -0.0026337085 -0.6139114 0.975593 -0.9076619 -0.12880424 0.2797453 0.5519874 -0.95722157 0.30227095 -0.077825375 0.77042603 0.39520293 -0.53962815 0.46161488 -0.4116388 -0.0018018356 -0.034971565 0.02976728 0.6481916 -0.9430463 0.14013705 0.9464696 -1.0707049 0.15547355 -0.0696686 0.8561374
2025 -0.5590406 -0.13078079 -0.16202764 -1.149531 -0.18666103 0.17033589 0.003646587 -0.5034484 -0.13152127 -0.022853715 -0.33839655 0.4285973 0.3124732 -0.49661842 -0.95538044 -0.02469666 -0.10581857 0.025825083 -0.3360865 0.5792604 0.35070142 1.1594461 0.36866662 -0.7556282 1.3054504 -1.0225124 -0.9014449 0.21384904 0.41965425 0.10488051 0.93204105 -0.97529143 -1.0554628 -0.50428945 0.04266518 0.17991522 0.25835523 -0.31066012 0.37464973 -0.8712822 1.2361362 -0.9599965 0.67148143 0.17223704 0.014034956 0.63459533 0.85382724 0.29691526 -0.59111726 -0.08710583 -0.049329214 -0.71194714 0.048394367 0.55916417 -0.53076494 0.22097324 0.12632927 -0.6560443 0.62232196 -0.26522112 0.19330719 0.13525632 -0.5282641 0.06049687
2292 -1.849143 -1.2158904 -0.09342239 0.60659504 -0.9682736 -0.29431176 -0.7833202 -0.29468763 -0.18046145 -0.67349017 1.3328679 -0.055744022 0.6163371 -0.32280028 0.69569683 -0.1724152 -0.012833804 0.3501034 1.6075944 2.2130892 0.30743 0.52153206 -0.41848707 -0.22212902 1.1545517 0.58327436 -0.3136155 0.52065843 1.0043752 -0.43311808 -0.29073706 -1.7587672 -0.39932665 0.12815918 -1.1501335 0.19673629 -0.050903726 0.47880745 -0.20108074 0.079538025 0.8027328 0.11015273 0.2804919 -0.4976219 -0.2943253 -0.42577696 1.1291522 -1.4366435 0.5685814 0.11791393 1.1909558 -0.68436986 1.8569814 0.50582457 0.88797534 0.8381493 0.3294802 -0.22750759 -0.28943095 0.3755303 0.2095085 0.9553683 -0.06174802 0.5732392
1692 1.2112703 -0.8032072 -0.0043288963 -0.30439585 0.77404267 0.06609999 -0.16840278 0.073212355 -0.036371678 0.068599336 -0.009786938 0.42640257 -0.3086964 0.5726085 0.42102703 1.0436995 0.57901305 0.72226304 0.24922174 0.46229345 1.1459527 0.28135642 -0.9023532 -0.83835614 1.1033438 0.07940936 -1.1550051 -0.7397577 1.0777004 0.6422523 0.31934425 0.38450438 0.52662975 0.014374882 0.85952413 -1.4637681 0.44921836 -0.041910682 0.37576464 0.83668464 0.94378155 0.41728768 0.66857415 -0.5580559 0.66191626 -0.23973721 2.143609 0.34007803 -0.22029492 -0.48885027 0.9120229 0.056453303 0.475494 0.878693 -0.0906092 1.0478597 0.08021841 -0.44146085 0.2690546 1.0252844 -0.4098316 -0.20733072 0.21199268 0.36268067
2155 0.2840317 -0.22007737 0.19691963 0.35104394 0.075780526 -0.56018263 -0.8464978 -0.5354542 -0.0386922 -0.263177 -0.2524278 -1.0306661 -0.59899986 -0.45876768 0.67529494 0.91944563 -0.75790393 0.27567855 -0.28557292 1.6332623 0.064382166 0.4699124 -0.63382286 0.18030915 0.36402217 -0.6702958 -0.73012424 -0.39370218 -0.733988 -0.21121375 0.37903294 -1.0676858 -1.475546 -0.31839842 -0.18473567 -1.0607271 -1.3815598 0.31692666 0.08731165 0.7693361 1.4667653 -1.3277696 -0.10565283 1.0285429 0.657283 0.092173144 -0.022053119 0.47397572 0.4679942 0.5263023 -0.05141586 -0.6071379 0.49090028 -0.68518585 -0.44165903 0.7152122 0.7173089 -0.21156913 -0.31819397 -0.53316563 0.36472034 -0.14143743 0.12613824 -0.02030534
2241 0.054609504 -1.2708094 0.38550612 0.7597341 -0.68300813 0.2950453 0.53468484 -0.3300744 0.030232906 0.12020855 0.09629177 1.1578009 0.133513 -0.41287786 0.2311776 0.5319565 1.134312 0.32404 0.4083692 -0.08314325 -0.092051305 0.48583907 -0.24783967 -0.22942038 0.6602164 0.35428527 0.016116379 1.2970244 0.25941497 -0.6241826 0.11602569 0.2520675 -0.92034227 -0.035148364 -0.01605434 -0.039939944 0.3034442 -1.3633348 -0.75153756 0.3380365 1.5968293 -1.2800218 0.1509114 -0.73846734 -0.012730648 0.22922331 -0.71566147 0.4618566 0.2327771 -0.92662907 0.30435237 0.24454947 0.74080104 0.20820457 -1.1138349 0.88220334 0.25021046 -0.10206359 0.67627996 0.9200534 -1.5835592 -1.2392557 -0.2587714 1.1352992
2518 0.601065 0.4945301 0.56737655 -0.5620028 -0.7335597 -0.16656558 -0.3316894 0.23699185 0.26421154 -0.27476025 0.72061926 -0.36049828 0.6704828 -1.1511935 -0.0014589446 -0.016551452 -0.7320543 0.33720115 0.84158665 0.5956687 0.35132602 1.0523354 1.322036 -0.17952861 -0.006943253 1.076467 -1.1753014 -0.8003913 -1.3478459 -0.1376481 0.24678044 -0.67812175 -0.59444666 0.16032211 0.11458587 -0.047977835 0.19102992 -0.211597 0.5166663 0.44163308 0.38655776 0.5906894 -0.6258564 -1.2050751 0.3392461 0.65033334 0.4672999 -0.38161853 -0.2769364 -0.39615804 0.51557505 0.72247016 -0.16203582 1.0373119 0.5100149 0.84724057 0.8024165 -0.18366334 -0.8368672 0.887625 -1.0276127 -0.16546431 -0.26188758 0.3445824
2464 0.33290687 -0.57726043 -0.033564992 -0.30096698 0.5637407 -0.199328 0.06420223 0.71438384 0.35682753 -0.9564289 0.7422542 -0.119995594 -0.018623192 -0.8147821 -0.60901034 -0.5063493 -2.5540655 0.21827534 0.66803855 0.33112675 0.9758828 0.57978636 0.025686864 0.6259338 0.74390554 -0.41016725 0.79845536 -1.3757398 -1.1080621 0.09520892 1.4691007 0.7692579 -0.4473323 0.4466684 -0.93321735 -0.25435838 0.10840213 -0.68707633 -0.51150924 -0.10912467 1.9873899 -0.07628224 0.47100365 1.367097 0.5062245 -0.97485226 -0.78617495 -0.52637947 0.06541636 -0.2101814 0.8585542 0.8635791 0.24716184 0.81933004 0.22137047 0.006174097 -0.5869028 0.7903755 -0.5031765 0.13924891 -0.7572129 -1.0369006 0.25638372 0.45637995
2160 1.7505132 0.83807844 0.08925687 1.5919241 -0.04811984 0.40307742 -0.015759466 1.0262928 1.2646248 -0.5031525 0.41280755 -0.089701034 1.2457529 -0.8931091 0.7926276 0.9900776 0.06907323 -0.7399396 0.079797156 -0.41266948 0.63349897 0.28687814 0.36620116 -0.23049247 1.1142179 0.3139448 -0.6974006 -0.5492034 -1.2968229 1.4104235 0.022484621 -0.38431737 -1.237672 -0.034459326 -1.1584873 -0.9119884 -0.72583896 -1.3427907 -0.75756514 0.11462005 0.8769485 -0.6483482 -0.005679811 0.6638828 0.7943748 -1.0669637 -0.3683407 -0.24763557 -0.48764125 -0.8533206 0.60297924 0.8304363 0.5820807 1.1332412 0.19784711 0.009261251 0.5839414 -0.48069355 0.83029366 0.15246242 0.25793856 -0.8325677 0.23486829 1.3165969
1776 0.34215757 -1.1993649 -0.03474567 0.6495128 0.36626956 0.51500684 0.6967623 0.4237317 0.00889025 0.49545717 0.8528649 -0.14273237 0.5389161 0.42330688 -0.7601411 0.076980844 0.5035436 0.5323523 0.07726904 2.2508523 0.97762036 -0.1969648 0.13747129 0.72139823 0.2546652 -0.043531973 -0.893068 -0.6646408 -0.38376042 -0.12117396 0.65235436 -0.35949978 0.3878598 -0.36979458 1.0237414 0.62319595 -0.115269534 -0.24117392 0.6528426 0.23814498 0.90793 0.1965203 -0.69141394 0.030504605 -0.055616062 -0.2846672 0.80955774 0.19508559 0.08501941 -0.10538123 0.09530821 0.2635155 -0.23340961 -0.66632074 0.2837186 -0.5231008 -0.8435373 -0.2908589 0.63456017 0.26332936 -0.39655513 -0.92007774 0.20439366 1.1033386
1973 0.2440354 0.5670749 -0.40201625 0.48575085 -0.27045172 -0.3774311 -0.28922132 -0.008436038 0.5737831 -0.61650234 0.48734456 0.37151992 0.33630228 0.08496577 0.8973607 -0.58925223 -0.10525964 -0.28239524 0.308668 0.4153861 0.08309279 1.1931722 -0.05418505 0.321445 0.7160993 0.080362126 0.37734818 0.360172 -0.06501655 0.20045942 0.73722976 -0.51666045 -0.20731553 0.10367053 0.16494209 -1.3278269 -1.5541269 -0.43921763 -1.0383682 1.6390215 0.6587401 -0.6228673 -0.12924884 1.1685199 1.2487859 0.15728307 1.2585603 0.39947584 1.5203359 0.099385664 -0.13877986 -0.090780415 -1.7247838 -0.54070324 -0.5199538 0.02166889 -0.30264884 0.20770055 -0.06840219 0.7060179 -0.5479985 -0.6183257 0.2478589 0.4238192
2269 0.66206396 -0.3692994 -0.55348784 -1.3456349 0.25869814 0.15349941 -0.42628512 -0.48907053 0.042503368 -0.77630115 -0.042145826 0.60590917 0.11997808 -0.14618196 0.073284574 0.06647744 0.04827577 0.73110956 -0.6233611 -0.115236014 0.60555565 -0.7698006 0.5828598 0.6243139 1.8174889 -0.45335698 -0.2459388 -0.79789406 -0.08163302 0.0032443434 0.35482448 -0.6814462 -1.3077825 -0.8382996 -0.3117508 -1.0950887 -0.6448181 -0.17794643 0.7096178 0.031569734 0.37747484 -0.63741153 0.5646711 0.42507592 -0.5184841 -1.0361959 0.4368942 1.0029598 -0.3978765 -0.7872933 -0.50400555 0.65137166 0.96310085 -0.05783669 0.7534562 0.12554944 0.24191903 -0.48001015 0.20149726 1.7563827 -0.6070426 -1.0548806 0.19106053 0.7469129
2238 0.19046378 0.12663795 0.4424749 1.0351015 -0.12524875 -1.1919606 0.3602116 1.5168945 1.1196779 0.3930874 -0.42740786 -0.48051104 -0.3327857 -1.1458919 -0.09191724 -0.32252073 -1.3849508 0.13845947 0.6313803 -0.1809634 0.21758059 0.2658176 0.33920607 0.8042961 1.420272 -0.20898743 0.13834992 -0.2831615 -0.40861076 1.0715243 1.3084854 -0.4367448 -1.235096 -0.019261507 0.4308904 -0.611066 -0.31905755 0.1288027 0.20436287 0.20860365 0.79807246 -0.24373177 0.32772815 -0.18894294 0.18028226 -0.5303136 0.17633283 1.4569944 0.014978313 0.3177561 1.2879686 0.08688359 0.50677764 -0.17760772 0.64156437 0.47977403 -0.8428185 -0.35809156 -0.5353456 0.8928728 -0.85478985 0.31642896 -0.79525226 0.2873815
2048 0.51498866 -0.4479936 1.056351 0.9479291 0.45384637 0.36346516 -0.13682686 0.5491235 -0.15485096 0.6612893 0.35648727 0.40669554 0.71003145 0.4329386 -0.49209255 0.28034693 -0.21473469 0.22130962 0.31684834 1.7178185 1.1648614 1.5302879 -0.07397385 0.05300845 0.48333916 -0.2703625 -0.70141447 0.5751167 -0.9551492 -0.5343202 0.71241474 -0.010504321 -0.46032733 -1.2762836 0.12679654 0.33105794 0.63347995 -0.63224036 0.9753215 -0.513343 0.78194463 -1.3450587 -1.1195182 1.1052957 0.63884014 -0.038107444 1.1721578 0.30520943 0.31074756 0.94519424 0.858138 0.2924759 1.0289139 -0.050221935 0.53512555 0.32643735 0.03049594 -1.0906612 1.5849164 -0.7176202 -0.6250611 -0.77064294 0.41129664 0.6283093
2394 0.710955 1.1322118 -0.6719909 -0.46249816 0.7613787 -0.032384515 0.2493953 -0.28163356 0.4112288 -0.5194424 -0.2979946 -0.33750513 0.5698524 -0.7815245 -0.40586206 -0.42263466 -0.12085053 -0.309581 1.63315 1.0636379 0.63652444 0.00677256 0.626372 0.6527507 0.6154372 0.9184144 0.52903175 0.41210726 0.23133194 -0.6315959 -0.11661617 0.3789674 0.119804814 -0.24648012 0.6996957 0.15912198 -0.9162274 -0.24312152 0.04559682 0.2650408 0.817006 0.52174187 0.2133532 1.2007488 0.8504594 -0.07101155 1.0962174 -0.55708826 1.3291457 -0.55536014 1.1399193 -0.19285761 0.43468225 0.04929989 0.06150193 0.52725047 -1.0123954 0.24813944 -0.18619132 0.8027596 -0.9213393 0.29052317 1.157853 1.7642586
2309 -0.0353081 -0.27049622 1.0930003 0.077200025 0.705361 0.2727893 0.2710551 0.8287163 0.20974517 0.41950354 -1.0053903 -1.8466288 -0.13415739 0.222633 0.9542125 0.050362084 0.467236 -0.6805102 1.8762916 -0.5923927 1.7227894 -0.07498978 1.1241791 0.18114673 1.5012734 0.29550388 -0.31862286 -0.06507409 -0.6720667 0.3560522 -0.71371335 -0.82950205 -0.07298144 -1.1831628 0.0020314911 -0.35370702 -0.54339665 -0.28140214 -0.41494042 0.38083875 0.37696654 0.8263195 -0.0057530487 1.097129 0.452205 -0.43138748 0.8846842 -1.0806952 0.39058718 -0.12531392 1.6234758 -0.4944547 0.03301788 0.09802071 -1.6242944 0.84327155 0.35486358 -0.35882765 0.6328359 0.030424954 -0.5996772 -1.0857059 0.9622994 -0.051768616
2383 1.4624441 -0.30267665 -0.35091263 0.43328166 1.18202 0.05731242 0.60773104 0.10666692 1.1912528 0.1489262 1.7271396 -0.21136558 -0.13702013 -0.79476863 -0.014340859 -0.66319185 0.81845576 -0.305969 -0.858674 0.45294383 -0.26676542 -0.6060039 0.8546811 -1.4997481 0.43095204 -1.4155748 -0.54639673 0.79418474 0.068992 1.1011825 0.103151195 0.049939096 -1.2025951 0.714511 -0.77098775 -0.016203094 -0.5924623 0.24915534 -0.34443727 0.0485161 1.2202927 1.6914263 0.90954816 0.06623862 0.5983709 0.76542395 0.9688449 1.0253882 0.19791712 0.59694326 0.43750194 0.6935413 0.5817446 0.06311022 -0.12102824 0.6144107 -0.13617086 -0.43244568 -0.24210191 0.7489103 -0.80312675 -0.031315368 1.0382736 1.72732
2335 0.05416773 -0.41724277 -0.7043748 0.72608465 -0.05395246 -0.6627989 0.91044724 1.0890292 1.5339204 -0.19105825 1.1406864 -0.74064386 -1.2471855 -0.68276435 0.6787035 1.2777183 -0.8407072 0.018655254 -0.8586845 0.45324284 0.04425642 0.7283835 0.25676298 -0.30708554 0.2579688 -0.00034679717 -1.2625413 0.23025212 -0.2922321 -0.16501069 1.395476 -0.6372388 -0.70163745 -0.81863284 -0.38524556 -1.1587373 0.009458622 -0.7819029 -0.36179966 -0.57373077 0.705861 0.7031727 -0.1421516 0.35666162 0.014340236 -0.54908097 0.97040415 0.64406705 0.46883282 -0.75028914 -0.48536235 -0.10486266 0.059696354 0.6563545 -0.5447103 0.256621 -0.56067383 -0.31844673 -0.8783937 1.0706762 -0.31981722 0.41872644 -1.040379 0.6892352
2083 1.0131437 -1.0188031 1.0896013 -0.55836993 -0.41297105 -0.7625122 0.34874412 -0.7045422 0.38889864 -0.4623306 0.7331784 -0.090681575 -0.52967715 0.71486896 -0.71045643 0.6672714 -0.16535401 -0.97009 0.11824298 1.7814422 -0.00439032 0.22757131 -1.001181 0.057482183 0.6006947 0.9868996 -0.39669046 -1.0445987 -0.4266203 -0.8846999 0.7680875 -1.2444673 0.3485392 -0.8363539 0.11327607 0.8269895 0.15238656 0.13446847 -0.53358334 -0.6393913 0.9473184 0.43524083 -0.30320913 -0.1492647 0.045556214 0.4433935 0.1540902 -0.37652585 0.23843656 0.004030722 -0.69332397 0.22151001 0.6918991 -0.09081568 -0.06269406 0.10997787 -0.34381035 0.041944984 0.339073 1.3821247 -0.60826004 0.644056 0.18184264 1.300041
1966 0.5602658 -0.5012177 1.3292414 0.13071366 -0.39680842 -1.855895 0.96407264 0.5534854 -0.07273558 -0.27137974 0.015848976 -0.12740666 0.014811623 -1.6492195 0.27301493 -0.777442 0.34198728 -0.051583305 0.6450507 -0.6812723 0.29683378 1.0618763 0.83303094 0.39410567 0.9342748 -0.14513804 0.52276033 0.18974967 -0.37329876 0.6359387 0.90056217 -0.56355584 -1.3690037 0.22176063 0.6765923 -0.9895512 -0.64743257 0.24049361 -0.49414092 -0.64741576 -0.10041543 0.22574021 0.7423231 -0.76702935 1.3182752 -0.8667221 -0.05794858 -0.87034696 0.054489776 0.2390132 -0.9603522 0.6445283 -0.07287435 0.22969194 0.04749754 0.6502481 -0.62192196 0.2091851 -0.74449766 1.0451802 -0.79577184 0.24082369 -1.3219122 1.3695397
1013 -0.062284775 -0.40597612 -0.9676109 0.8606187 0.4088433 0.45913878 -0.58372575 -1.1137635 0.45275208 -0.47646132 -0.31226525 -0.079748735 0.5550063 -0.056803722 -0.07442168 -0.42096207 0.61474836 0.40211347 -0.41559702 0.77679497 -0.0035721106 0.49187642 -0.6021746 0.038027987 1.0305628 -0.13306423 -0.54216087 -1.0315523 0.70855695 0.33149818 0.85603535 -0.627926 -1.2346798 0.17805342 -0.30038515 0.041547306 -0.26645303 -0.5082533 -0.46812412 0.20683916 -0.5068872 -0.374358 0.3189409 -0.10209082 0.32696554 0.12535597 1.4452406 -0.47888714 1.4240237 -0.102086656 0.109868504 -0.8690505 -0.32034153 0.43162394 0.04726001 0.99497724 -0.16185983 0.79625946 1.3803267 0.02325906 -0.47489962 0.2565125 0.35661823 0.8023907
2117 -0.060982715 -0.36599728 -0.3610297 0.3209113 -0.90296984 -0.14734639 -1.2364888 0.5826856 -0.13242705 0.7553134 0.4304622 -0.28392836 0.5569336 0.3326683 -0.103137866 -0.75616086 0.549722 -0.5602662 -0.06586472 0.68386924 -0.8601591 0.5796228 0.9375983 -0.08357165 0.10505892 0.09226463 0.016423896 -1.6386887 -0.80860627 0.506299 0.22643484 0.3230194 -1.4042776 -0.7380737 -0.62708545 0.45025918 -0.23624076 -0.7754077 0.17919233 -0.44706935 1.7951087 -0.3544897 -0.14963956 0.03016247 0.6587325 -0.45769575 0.6881564 -1.4137096 0.7074498 0.13874207 0.78482383 -1.3931733 0.15429671 0.68171656 -0.28320637 1.2197342 -0.13980322 -0.49927723 0.3103604 0.676149 -0.08877779 -0.10475838 0.30294004 -0.026006619
2176 -0.12672298 -0.3935596 1.7600237 0.556353 -0.3695243 0.14308779 0.34526035 0.88908976 -0.002340381 0.6245279 -1.1287528 0.0040581813 0.6007484 -1.3428123 0.6459575 0.8881407 -0.2348538 0.031521097 -0.058014367 0.56429917 0.061535217 1.0330371 -0.3546338 0.034245167 -0.03675957 0.5341713 -1.1057929 -0.44077563 0.25364703 -1.2225342 0.22746298 -0.6130164 0.23031344 0.17271005 -1.1175954 1.0725585 -0.67734647 -0.9149137 -0.7204142 -1.3605702 0.81305355 0.46280748 -0.3083226 -0.019104032 -1.0722277 -0.3757842 -0.43987274 0.16601412 1.6088731 0.14846493 0.3574271 -0.287704 -0.2411448 0.8521652 -0.24710712 0.6989705 -0.76864237 -0.8905235 -0.35077018 1.9173163 -1.1266345 0.34249192 0.5222356 1.3811774
2216 -0.4625155 -0.6959351 -0.5831547 0.69582427 -0.102489725 0.09299998 -0.10106766 0.030270794 0.40211198 -0.027572786 0.60022783 0.6207456 0.7331019 -0.20092036 -0.040843293 0.2229698 -0.33410197 -0.79734355 0.7225096 1.2884532 -0.11759035 0.95815754 -1.4593315 0.1632857 0.78101784 0.7275333 -1.2236782 -0.7655378 -1.6677858 0.84813493 -0.28520522 -0.2763436 1.0447367 0.16560106 -0.7173102 -0.22522253 -1.3533411 -0.94140434 -1.2822006 0.33906713 1.0492533 0.21392097 -0.21307176 -0.61674064 0.08020012 -0.970106 -0.48647493 0.11738933 -0.15400285 -0.3823764 0.43456608 -0.639541 0.605907 0.33609736 -0.7036034 -0.14116608 0.18012339 0.2134475 1.9506108 1.6922895 -0.66312605 -0.5011376 0.03793862 0.43100423
2118 -0.13594554 -0.5679745 -0.11698543 0.46944687 -0.9378329 -0.57442343 -0.76397854 0.51474077 -0.08882341 0.8055934 0.46534625 -0.42287475 0.96521175 0.68832976 -0.095383 -0.7004611 0.28294402 -0.3490862 0.34338635 0.46399692 -0.29872918 0.83783185 0.8919775 -0.0030207734 -0.11001298 -0.5679693 0.17078738 -1.4151547 -1.0807651 0.6258001 -0.2050023 -0.12010287 -1.1388539 -0.9554071 -0.7499651 0.47720495 -0.20569004 -1.4586837 0.17630212 -0.3780462 2.450374 -0.122034825 -0.29049632 -0.45063025 0.86920327 -0.20609221 0.5427857 -1.4438276 0.6016326 -0.12295766 1.3110582 -1.6312813 -0.20697668 1.0479425 -0.39400104 1.2621346 0.27646002 -0.8844562 -0.088388406 0.5807504 -0.010950487 -0.3417347 0.094724976 0.08262792
2071 -0.030794978 -0.425219 -0.3036163 -0.41980314 -0.38853064 -0.5460177 1.0347366 -0.13846782 -0.10234614 -1.835935 -0.20893413 -0.5585069 0.2461794 -1.9896175 -0.049041282 0.5036284 -1.3418294 -0.6790239 -0.96900624 1.8779426 0.7221879 -0.07198967 0.7705722 -0.63909954 0.5559321 -0.1312874 -0.59510255 0.1551976 1.3541505 0.99269575 -0.6122839 -0.9138223 -1.2824236 0.44310358 -0.3454307 0.53670967 -0.28013524 -0.25946727 -1.4034407 1.5920138 0.964952 -0.3000929 1.3179154 0.20357254 0.06538771 0.5679147 0.16905248 -0.501649 0.44372973 -0.13742991 0.25491706 -0.38917154 1.08712 0.54558986 -0.34396255 -0.5360471 0.3388561 0.2091159 0.7511254 -0.92268157 -0.9924692 0.61565816 0.17505789 1.4834794
2375 0.82665527 -1.0599275 -1.001288 -0.3507159 0.6319692 -0.50860626 -0.02923656 -0.18656865 0.60105836 -0.49349365 -0.31868333 0.85352415 0.30602223 -0.17913242 0.44931787 -0.22385858 0.739638 0.5333313 0.11245303 -0.31416368 0.35388702 0.07214065 -0.23101944 0.94225526 2.4334016 -1.5637562 0.17008147 -0.47957253 0.2314707 0.34225652 0.58580244 -0.9933994 -1.242525 -0.76659524 -0.8661725 -0.96019644 -0.6802447 -0.610227 0.41339877 0.44369143 1.3480662 0.3614655 0.37667254 0.6292942 -0.8906366 -0.7074453 -0.06095236 0.7064931 -0.16191013 -0.7327159 -0.4864493 1.0728091 1.6734445 -0.14157522 0.78404295 0.44616294 0.43231407 -0.47625336 -0.11138945 2.718494 -0.8723432 -0.18233106 1.1150637 0.3769272
1869 -0.18726733 -0.19724172 0.5999385 0.73971164 0.18693194 1.1632757 -0.2403149 0.64133424 -0.21495989 0.95927006 -0.95294356 -0.8255119 -0.66702443 -0.13950339 0.24075267 -0.036482196 0.5274176 -0.8402084 1.5822748 0.15656585 0.40059587 -0.0013076644 1.3690174 -0.6123935 0.76572835 -0.17360087 -0.66025424 -0.2155037 -0.6605933 0.3039629 0.0753337 -0.23377457 -0.060801174 -0.9269351 -0.18447241 -0.84978634 -0.7168227 -0.28290573 -0.28632712 0.15319279 0.6400582 0.7759693 0.9475933 0.97049147 0.5763724 0.056675117 0.9942465 -0.44808108 0.06634458 -0.16110797 1.7932569 0.7251359 -0.33239573 0.24664336 -0.9638269 0.58330834 0.83523345 -0.26428387 0.94046134 -0.5658887 0.20281741 -0.1501064 0.5347194 0.5904404
2372 0.9547073 -2.046621 -0.09801022 -0.22248997 1.6532137 0.7345157 -0.40325233 0.29444328 1.7675965 -1.1714495 -0.39472237 -0.050088238 0.77896565 0.10233993 -0.46905786 -0.18872188 0.2694612 0.6774987 0.41645443 0.1524526 -0.29593852 1.9143965 0.11001538 -0.19833636 0.40560788 0.5829129 -0.61471146 -0.38888204 -1.4151123 -0.442586 -0.2970916 -0.984694 -1.3536233 0.49181405 -0.30336583 -0.7206685 -0.46374452 -0.33875266 -1.0165554 0.2722916 0.38091138 0.44105747 -0.4189952 -0.027288252 0.41561282 -0.725367 1.0982653 0.95367664 0.57298124 0.68275666 -0.0014261657 0.2601678 0.41316855 0.45947403 -0.5754909 0.53481615 -0.029200807 -2.0853436 0.63921344 0.41770294 -1.0955743 1.4868135 -0.21920255 -0.070678666
1169 -0.46201652 -1.0690657 -0.17766243 0.24725904 0.12597235 -0.53486186 -0.5541121 0.45418105 0.31633052 -0.0066437423 0.57458884 -0.5649737 -0.5910242 -0.7549087 -0.42412397 0.20949382 -0.41362384 -0.06459081 0.06460119 1.1849313 -0.16376075 0.9784883 0.11252541 0.388925 0.6378263 1.2532135 0.33135948 -0.70369345 -0.25283223 -0.2134957 0.25559688 -1.3683417 0.2648761 -0.87662685 0.24067579 0.9629632 -0.8751041 -0.19969623 -0.3255959 0.19907469 1.167938 -1.0375024 0.77269965 -0.4757647 -0.8273947 -0.1251323 1.2305996 0.5889435 0.48786107 1.2060364 0.29784575 0.78528434 -0.04528504 -0.2209705 -0.35534823 -0.2057728 0.7620286 0.8526988 0.23637271 1.6696818 -0.16175984 -0.56582355 0.8757839 0.11031341
2240 0.111038774 0.37917608 0.44316164 0.5904701 -0.08474552 -1.2266262 -0.04679491 0.7566429 0.958563 0.3144513 -0.28690758 -0.13738596 -0.677071 -1.3069046 -0.013453085 -0.03208866 -1.4684868 -0.08370791 0.88262963 -0.007977322 0.390058 -0.20927188 -0.19038273 0.83558327 1.3591912 -0.1019044 0.58692086 -0.15237105 -0.79921746 0.7440525 1.2943958 -0.722928 -0.87945396 0.30055693 -0.6910998 -0.28158373 -0.03895625 -0.019928925 0.29338202 0.105891995 0.771464 -0.023230692 0.5957529 0.7081322 -0.09481989 -0.57544696 0.3033989 1.0124947 -0.08388903 0.24367625 1.6030648 -0.017073803 0.25801426 0.051857695 0.7836042 0.12062891 -0.082905516 -0.5129947 -0.832571 0.4686282 -0.84646684 -0.5996553 -0.4505259 0.7140564
2227 0.15075554 0.57646173 -0.041244995 -0.8666882 0.28669548 0.5468351 0.72261244 -0.6539935 0.7049539 -0.113160044 -0.15564713 -0.34770724 0.5019393 -1.385697 -1.0181495 0.31907943 0.2783883 0.68088007 1.5140609 0.8299833 0.10376546 0.5401466 0.8642055 0.05325381 1.3559341 1.2757401 0.006118465 1.0644437 0.3829044 -0.31759587 0.17011563 -0.14540304 -0.5068887 0.7070159 -0.15481709 -0.43954048 -0.48743433 -0.20427369 1.1155735 0.040081453 0.16910854 0.15380353 0.10007186 0.27364823 0.26477036 -0.11349884 0.0920837 -1.6478126 0.9283735 -0.17862488 0.67064476 0.538221 -0.7505665 -0.3540847 -0.5243963 0.68631667 -0.7209543 0.18039928 0.25128946 1.6152945 -0.49054623 -0.28334138 0.5553288 1.738107
2538 1.006163 0.5106169 0.6780836 -0.34127226 -0.48210692 -1.0966709 0.17905512 -0.11112984 0.34578827 -0.6331666 0.5236923 1.0001895 0.89372945 -1.2529726 0.37480825 0.07565712 0.3398176 0.04761612 1.1332053 0.3150596 0.2258321 1.9102169 1.2783496 0.3337961 0.29490927 1.9893951 -0.16636032 -1.9324085 -1.6350694 -0.16025726 0.3086077 -0.8640777 -0.3080233 0.4066294 0.55752826 -0.74685097 -0.39583907 -0.102339976 0.20484625 -0.33177266 0.84229994 0.48428378 -0.6659095 -1.1389357 0.8242753 0.55679375 -0.05007024 -1.1383729 -0.18682833 -0.5846044 0.25760815 0.7816904 -0.14660735 0.70736676 0.17951451 0.55073196 1.2195321 -0.5713065 -0.73198795 0.41492113 -0.87614644 -0.35101986 -0.5338451 1.0558383
2503 1.1269697 -0.17814714 -0.47080183 0.22705148 -0.3989061 -0.06843922 -0.678514 0.67440903 0.9801538 0.3172263 -0.24684231 0.015258852 0.023463108 -0.019360734 -0.6045633 -0.09536908 -1.9875637 -0.57992446 0.4353355 0.6681418 -0.02712613 0.70759726 -0.27303287 -0.70948637 1.0830829 0.46510166 0.36474705 -0.31079787 0.018079124 -0.16745694 -0.30369425 -0.41052997 0.7410777 0.73491806 -0.6419751 -0.099556625 -1.1603503 0.37211424 0.21101621 0.30168894 1.7181137 0.04385337 0.46970555 0.9754733 -0.3936264 -1.0825784 0.13882506 -0.32966495 -0.34187564 -0.51076627 -0.8962673 1.245571 0.51321065 -0.3058138 -0.802416 0.31142223 0.9916652 -1.8425506 1.038397 0.29968113 -1.7010783 0.17914988 0.7554105 1.2868944
2446 0.5650912 -0.2844406 0.44516355 0.458802 -0.3957031 0.16073146 0.06298479 -0.26931605 0.24626517 -0.4936257 0.039845817 -0.034532283 -0.42719728 -0.15699264 -0.52780557 -0.3403913 -0.6774476 0.7863353 -0.51308554 0.59472424 0.7101941 -0.021638924 0.21765722 -1.5134513 1.6623313 0.22116558 -0.10497522 -0.64055854 -0.08063576 0.5421957 -1.3689108 -0.9558316 1.2125403 0.11765519 -0.16415003 1.0566581 -0.34522995 -0.85503095 -0.1035358 0.4486987 1.5788646 -0.0513464 -0.97758865 0.21774988 0.05840214 -1.088372 -0.4081532 0.37862775 0.07027045 -0.91178733 -0.3812113 0.2195232 -0.058110956 -0.5307852 -0.4844978 0.54929733 -0.48558912 -0.64442647 1.3163434 0.7410349 -1.2790997 -0.19525598 0.29621643 0.86811507
2306 0.6687704 -0.6233851 0.04056835 1.3630631 1.1352491 0.56751686 -0.61402965 -0.58492196 0.99048537 -1.0030402 0.53770745 0.24762203 0.17478596 -1.0717227 0.030969668 -0.13105991 1.3945132 0.3855332 0.6605481 0.9140735 0.64749265 0.13471869 0.97830576 0.115154974 1.2013037 0.24114946 0.01210263 0.22084694 -0.09911312 -1.1182925 0.4728149 -1.3456109 -1.2068969 0.64044136 -0.12658991 -0.05571024 0.5737016 1.0330831 -0.24266937 0.41657367 0.7347564 0.1724789 1.1007522 0.08673943 0.26500276 -0.6977022 -0.23325437 -0.0070488923 0.47997418 -0.74258846 0.5265643 -1.2934123 -0.24302168 -0.049760193 -0.92322034 0.22377117 0.8582942 0.38606024 0.2981946 -0.591009 -1.4810421 0.534411 -0.6060412 0.28503168
2380 1.229749 -0.7307301 0.66273415 1.119998 -0.39124492 -1.2493382 0.43012765 0.19077535 0.64460266 -0.09998648 0.44647014 -0.13835678 0.5522579 -0.48453233 0.0012167685 1.3706176 0.7330239 -0.56915694 -1.1371496 0.88297653 0.1211541 -0.13852082 0.15645826 -0.43591076 1.1349553 -0.77615565 -0.12616855 -0.19586487 0.3824948 -1.5294861 0.18071845 -0.21740143 -0.04556943 0.11181298 -0.46685156 -0.96903145 0.24682352 -1.2370245 0.28552416 0.32590884 1.4484899 0.5509325 0.27040166 0.17856078 1.4385027 1.0983715 0.9859025 -0.37054104 -0.59126335 0.14785315 0.952726 -0.9840236 -0.934049 1.1398402 -1.2905332 0.89349 0.7353449 -1.9450068 0.11386078 0.32584643 -0.40261567 -0.6482013 -0.64577836 1.3139807
2228 0.29924563 0.6183069 -0.2563628 -1.3064437 0.6108024 0.48809606 0.17143987 -0.28765574 1.1289515 -0.08274159 0.22206046 0.040762264 0.27662405 -0.8205068 -0.4463838 -0.06572567 -0.21609019 0.04077673 1.7117705 1.2139827 0.5676547 0.37617075 0.89178914 0.42487964 1.1516205 1.3719915 -0.07180755 0.49605733 0.64322156 -0.6095796 -0.2537414 0.4522984 -0.9384027 0.5017542 -0.16370873 -0.52034926 -0.541963 -0.28235587 0.74082917 -0.114594355 -0.12944773 0.32487375 0.47054958 0.40942094 0.44874278 0.16540693 0.45071864 -0.9940575 1.5816154 -0.58672863 0.63724756 0.26737335 -0.62151045 -0.107025236 -0.44159377 0.69688934 -0.791122 0.090007156 0.13865164 1.5479871 -0.07374882 0.06871907 0.14766519 2.3279629
2242 0.048476633 -1.6143774 0.37636134 0.69869274 -0.49040306 0.5432093 0.67416704 -0.31145206 0.29401124 0.031247916 -0.21419078 1.352606 -0.1705326 -0.33563775 0.3029702 0.42887366 1.0431367 0.19728711 0.6926461 -0.2558925 -0.03808648 0.53691953 -0.28258735 -0.28859052 0.7146715 0.4190654 -0.12794292 1.0984741 0.0641311 -0.76677656 -0.08489021 0.19654062 -0.7446433 0.101287365 -0.013749042 0.037397467 0.14363159 -1.2336942 -0.6663007 0.28488654 1.8188365 -1.5429921 0.06375577 -0.6877899 0.2304887 -0.0044776727 -0.87807477 0.087414905 -0.075661816 -0.76454467 0.41942704 0.39110008 0.86821663 0.4239172 -0.8688548 1.072514 0.4290341 -0.022291688 0.63678646 1.0035874 -1.5018567 -1.3821745 -0.5676281 1.3334941
1960 0.98165476 -0.603256 -0.2942013 0.28990754 -0.03334983 0.08504584 0.28761166 0.1337297 -1.513935 -0.15119639 -0.03277098 0.9421296 0.4794133 0.3384838 -0.21986735 0.17225519 -0.7393974 0.53476524 -0.40705815 0.0024777707 -0.20263161 -0.33388743 0.68996584 -0.39910614 1.5973325 0.8496778 -0.63256466 0.07393418 -0.5636771 -0.8915236 -0.1595672 -1.0832798 -0.31014696 0.16643454 0.6343111 -1.5047348 -0.4187537 -0.0010156103 1.1946864 -0.007396408 0.1589155 -0.8705427 1.1805279 -0.5116348 -0.34610495 -1.169143 1.1693599 0.54914284 0.3758615 -0.20532238 0.86550933 -0.06306984 1.4393194 -0.14496234 0.21326867 0.37972063 0.21633597 -0.45608726 0.19776572 1.0868338 -0.8286875 -1.0598177 -0.00095403293 1.2149053
1873 0.099454634 -0.528029 0.7630383 0.5634692 -0.8246689 0.39125526 -0.6921581 0.29995826 0.6057869 0.47719064 0.3603225 0.7538368 0.096587576 -0.59803605 0.29450515 -0.06381768 0.2875296 -0.43968394 0.38577548 0.4924802 0.3101484 -0.13112363 1.2997025 -0.62477434 1.1346526 -0.45697933 -0.52274483 0.15348598 0.38313895 -0.5549178 1.1731384 0.10224838 -0.4673355 -0.9397809 -0.14895694 -0.671285 0.09933318 -0.26134795 0.387196 -0.56079423 0.50642127 -0.05508198 0.4813118 0.42377105 0.4463858 -0.2003386 0.060654 -0.97224754 0.21709257 0.27298176 1.5771558 -0.5729428 0.28336746 -0.081134126 -0.37636277 -0.39148447 0.068995975 -0.4225904 0.42490694 -0.37507838 0.21427748 0.009664326 0.36992952 0.010318673
1829 0.93608284 -1.0964804 0.13637903 -0.3233796 0.08605912 0.459447 0.58154476 0.1593677 -0.9402581 0.4105819 -0.9608951 0.28792155 -0.1711433 -0.19472763 -0.20873927 -0.5276478 -0.32601714 0.9981698 -0.93838644 0.20804815 0.23400408 -0.42007667 0.07037697 -0.3097168 1.3009486 0.19138755 -0.35618183 -0.02985775 -0.13074712 -1.2469033 0.3934212 -1.4476497 -0.27987856 -0.26354277 0.009004417 -0.5907322 0.20727603 0.14907221 0.60748243 0.49378642 0.64615095 -0.39495733 1.2654288 -0.49564806 -0.7540963 -1.7850614 0.005132952 0.5979769 1.2025852 0.12660432 0.48441282 0.4281179 1.9069276 1.4391915 -0.1579447 -0.3899723 -0.049728762 -0.55110896 0.5045546 1.5292758 -1.0280906 -0.4832703 0.081971616 1.2647467
1413 -0.34171528 -0.49301213 -0.7866404 0.6439682 0.3857219 -0.060271107 -0.67920643 0.5952775 -0.04394181 -1.3955508 0.4462114 -0.3842046 -0.6279342 -1.3894012 0.24413052 -0.5329521 0.2729006 0.17973001 -0.317118 1.0097041 0.100327715 0.06487246 0.07789986 0.8892882 1.3678328 -0.099262245 -1.2232414 -0.45108962 0.0073824613 0.1531918 0.45535332 -0.8381163 0.77526045 0.45976973 0.16543639 -0.27803355 -1.7026184 -0.050948005 0.6413004 -1.5762547 1.1585774 0.12280851 -0.1507067 0.50454813 0.8630006 0.174515 -0.45980516 0.15940021 0.23293294 0.08477059 0.26628217 0.5720067 0.18598996 1.3247771 -1.3561969 1.2153962 -1.1665435 -0.5823692 0.019306974 0.92375034 0.47010085 0.86975056 0.503149 0.9287099
2305 0.3036121 -0.26377448 -0.13168147 1.4402797 1.1052346 0.34660956 -0.5911434 -0.6020229 0.8505753 -1.0245762 0.36132157 0.33653063 0.24719957 -1.2347947 0.095949136 -0.047791656 1.2379338 0.5514114 0.61667323 0.75342345 0.547815 0.26950482 0.68551356 0.29142162 1.1710209 0.40257832 0.07499348 0.51931226 -0.28500167 -1.0137132 0.5079176 -0.99620396 -1.3590456 0.8556826 -0.044658046 0.1381094 0.55339223 0.59463066 -0.20441826 0.53070235 0.54859614 0.098373845 0.83385175 -0.13125515 0.2999823 -0.6149027 -0.16725704 -0.48785558 0.3646117 -0.47409606 0.526848 -1.1947254 -0.060604345 -0.1140329 -0.7854385 0.08485348 0.9751302 -0.02103362 0.5683591 -0.3644122 -1.3976591 0.51278096 -0.8085235 0.35268715
2247 0.97833055 -0.9986113 0.5793572 0.7908219 -0.084626526 0.7012328 -0.35100064 0.18553859 -1.3050665 -0.70531803 0.5908814 1.0840927 -0.85820085 -0.3091727 -0.39152673 0.12288922 -1.0407999 0.34109092 1.0129628 0.18494363 0.36096933 0.3892416 0.068046786 0.45505914 0.7292974 0.29793814 -0.21793859 0.57797784 -1.2810752 -1.0514 1.3700628 -0.10308018 -0.8936292 0.6510624 0.6558388 0.2579497 0.33113876 0.30317476 -0.9983873 -0.69839525 0.49997932 0.7434218 0.73392254 0.3030916 -0.7550438 -0.5263767 -0.85241085 -0.1278044 1.2077513 -0.83201206 0.6651441 -0.5308114 -0.76130116 1.1027055 -0.28238815 0.54073155 0.22088607 -0.79919845 0.9255069 1.5017782 -0.20664085 0.391846 -0.6775807 0.5716584
1483 0.09254007 -0.6748252 1.3350172 -0.60805166 -0.11282635 0.9436669 0.36777082 -0.43047902 0.17198558 0.008980959 0.37367833 -0.66986793 0.67316 -0.36167082 -1.0301431 0.012026982 0.21597803 -1.5327556 -0.32001424 1.5072789 0.1981668 0.031445965 -0.937595 0.930539 0.5629745 0.23842084 -0.42747432 0.030992636 -0.6046469 0.070710786 0.055629287 -0.6197197 0.4370796 -0.76010334 0.08850996 0.050299507 -0.57334423 -0.63458097 0.3557451 0.428246 1.4587086 0.06907584 0.08976755 -0.104210585 -0.15441328 0.18913177 0.14600874 -0.37089396 -0.3017229 -0.14392889 0.49241072 -0.07925767 -0.49854538 -0.7852466 0.047268175 0.11040976 -0.082837656 -0.05541821 0.17025322 1.1082754 0.2415543 0.2782466 0.05118658 1.0825496
2385 0.56527257 -0.27590492 -0.021703329 0.227827 0.46057397 0.9343033 0.5934756 -0.2507283 -0.38680378 -0.5358432 -0.11780733 -1.4283341 -0.32036534 -0.6027585 0.11512714 -0.76546216 -0.79675263 -0.71258783 1.5556303 1.3745915 0.083492115 -0.22882096 0.66520613 -0.7326957 0.7372383 -0.494934 -0.22927065 0.3808349 -0.4867454 -0.12665096 0.9857339 -1.0187 -0.34487498 -0.90192413 -1.0269392 -1.0222415 0.34860718 0.76737016 -1.6779095 0.59030014 1.5452894 0.49300686 -0.460573 -0.14333598 1.5639322 -0.36230975 0.7510467 0.611506 -0.43818474 -0.78383714 0.022828197 -1.405818 -0.7728419 -0.38348034 0.22226816 1.6923118 0.95136166 0.6230562 0.89020884 -0.43165103 -0.13538203 -0.09106743 -0.27323976 0.49053136
1721 -0.07333366 -0.5612676 1.0080186 1.0114739 -0.015643477 0.058663677 0.14447622 0.96563745 0.31449437 -0.009564424 -1.0062175 -0.6622742 0.46689424 -0.75041276 -0.87011963 -0.34541476 -0.6576148 0.25498378 -0.44307992 0.66823405 0.16999848 1.1813903 -0.34269583 -0.3168946 1.6485065 0.21219239 0.09379967 -0.63302785 0.15556139 -0.7223047 -0.024484014 -0.85635114 0.7570425 0.49885374 -0.6176816 1.0816048 0.05000725 -0.64638126 -0.32128307 -0.5265948 1.2189028 0.092842214 0.13013841 -0.3596033 -0.76825243 -0.628584 1.1976979 0.32850355 0.96507835 -0.5520437 -0.32121316 0.21974193 -0.07954707 -0.015085528 -0.4674711 -0.07610353 -0.75514793 -0.7160667 0.045018323 0.68711597 0.22439726 0.8709132 0.13851917 0.71857685
1224 0.5272126 0.6305987 0.43050766 0.3929143 -0.083753645 -0.6371776 0.12730783 -1.1226432 -0.21058527 -0.45357576 -0.5281951 0.25058553 0.0030983028 -1.2224497 0.3167333 -0.32552767 -0.43521956 -0.45297855 -0.05432163 0.79347235 -0.1127727 0.44323146 -0.2655951 -0.4420356 0.7268165 -1.2185607 -0.4295265 -0.04136452 -0.9503003 0.87622803 0.47263306 -0.69107616 -0.89503884 0.15708484 -0.24952948 -0.78223026 -0.7626845 0.8658592 -1.0749637 0.40615067 0.45692927 -1.1889489 -0.584172 0.6312209 1.2181172 0.28341836 0.006872724 0.57155263 1.814443 -0.42271513 -0.15303573 -0.5740256 0.13424678 0.24195908 -1.4981761 0.078821324 1.0927399 -0.11807653 0.3413835 0.57549775 -0.35247788 -0.025303882 -0.8009862 0.596202
2147 1.2090333 -0.17053568 -0.4520982 0.3260162 -0.04650205 -0.2036775 -0.25424615 -0.89625555 1.6792486 -0.18286708 -0.60643697 0.21991125 0.54222924 -0.0023085698 -2.1481006 -0.25526494 -0.6273563 0.280598 -0.15538882 1.9275395 0.7398975 1.1125196 -0.53012943 0.11100423 1.8524028 1.2566242 0.10463706 0.3929172 -0.76978636 0.4435625 2.2482574 -0.8758461 0.2797643 -0.25370535 0.05837429 -1.7130738 0.06163665 0.155572 -0.3983893 0.16017182 0.38723868 0.47507492 0.087314144 0.09587979 0.7289399 -0.69342184 -0.1939083 -0.3467427 -0.4015368 0.6801263 0.17503113 1.1282225 0.32184744 1.4908384 -0.47249067 -0.5624789 0.3204071 0.58547854 -0.6928818 1.084446 -0.19671503 0.15103576 -0.27076072 -0.03937909
1971 0.24752201 -0.45724437 1.3384194 0.21442564 -0.9647431 -1.8829663 0.62241066 0.7171782 -0.37915546 -0.16652712 -0.07162927 -0.64076126 0.331865 -1.9193614 0.2269533 -0.844221 0.23749009 -0.011723504 1.1218594 -0.6390391 -0.26472658 1.1704218 1.0412711 0.28008986 1.3155338 -0.4434314 0.52629113 -0.2505104 -0.48240188 0.7763313 1.3934842 -0.26122785 -0.9989619 0.20622279 0.8720903 -0.85076326 -0.3895774 0.70747995 -0.01827645 -0.63460857 -0.19368085 0.094038114 0.9233026 -0.9051206 1.4472152 -0.6725598 0.2168705 -0.19356886 0.357041 -0.06847935 -0.90292376 0.072033435 0.14073436 0.17021729 0.23582041 0.5167487 -0.7882081 0.07235664 -0.66888946 1.2829429 -1.134694 0.1807532 -1.0297282 1.7815892
2465 0.3783184 -1.0095974 -0.13075182 -0.6282973 0.24605295 -0.24672408 -0.15911636 0.8246638 0.5393711 -0.81767756 0.46479705 -0.104298644 -0.12501688 -0.85467297 -0.51173156 -0.2623263 -2.475524 0.42453468 1.5891873 0.13281702 1.0363076 0.6260595 0.27748957 0.70581 0.532891 -0.7859505 0.70456254 -1.729576 -0.9140381 0.073070526 1.8102034 0.64538115 0.17285548 0.038776707 -0.7030763 -0.4455461 -0.035831407 -0.26896462 -0.1628421 0.29717925 2.1390622 -0.41078964 0.8422496 0.97498393 0.41467467 -1.1609744 -1.013421 -0.26011017 0.7860431 -0.6417371 1.0770864 1.0956393 0.2628996 1.4563136 0.4260818 0.11422218 -0.36864188 0.6442406 -0.17002621 0.54437333 -0.865132 -1.0979719 0.7675642 0.5536409
2161 1.9697385 0.5536761 0.39271075 1.3239614 -0.23023579 0.69729596 -0.1407095 0.99917203 1.532295 -0.6569152 0.35947284 -0.1014041 1.4233978 -1.0950311 0.66748685 0.94155085 0.25431898 -0.112091936 0.15697537 -0.62037516 0.010493103 -0.20204742 0.7757335 -0.4819233 1.3096032 -0.016656565 -0.8681948 -0.21389411 -1.6373396 1.8059564 0.74508214 -0.544446 -1.0806347 -0.09954063 -1.3876282 -1.008978 -0.8615072 -1.3747947 -0.53180623 0.10484943 0.8275182 -0.9564869 -0.0012618756 0.7271687 1.1119015 -0.54096466 -0.18358038 -0.7655531 -0.77771133 -1.0278554 0.5076774 0.6155887 0.7178434 1.0421001 0.09474778 0.16884653 0.9133507 -0.5671566 1.1602643 0.34458366 -0.23122525 -0.98634386 0.29109484 1.3659538
2336 -0.23594065 -0.13946187 0.22010069 0.47310933 0.051977325 -0.49397606 0.61220396 0.753325 1.8524837 -0.14977339 0.81660205 -0.6386092 -1.4501044 -0.31502897 0.8263876 1.2410271 -0.82866335 -0.24777217 -1.0979604 0.5892165 0.09902659 1.0587099 0.24007928 0.028497797 0.538469 -0.05464971 -1.4107759 0.4453541 -0.27495164 -0.17459507 1.674515 -0.74602395 -0.85226756 -0.46972287 -0.20273979 -1.7646068 -0.24760935 -0.7866888 0.18565449 -0.6875829 1.0107185 1.0500456 -0.12867585 0.20319839 -0.066273645 -0.19338895 0.84888047 1.0875463 0.36087385 -0.70538384 -0.9745976 -0.3659968 0.14988843 0.57743865 -0.48389047 0.08946791 -0.32257628 -0.42584524 -0.6422625 0.61493903 -0.58008933 0.7556267 -1.0307974 1.0417072
2163 1.2156469 -1.3540981 -0.46469942 0.06971851 -1.1390141 -0.41971594 -0.6200628 1.0463368 -0.2805445 0.6073449 -1.422936 1.3732481 -0.60386455 -0.40620142 0.2770118 -0.21422498 -0.68417096 1.012861 0.23752575 0.7678791 1.1613426 0.3901236 0.89850235 -0.75187004 0.024010606 1.3690283 -0.08198643 1.5463927 0.18490137 -0.611531 0.8243472 -0.6528905 -0.46327817 -0.18455929 0.7919677 0.404057 1.2055961 -0.8417732 -0.84045345 -0.36642054 1.2687777 -0.38105685 0.13109496 0.5398867 0.5437742 0.14872019 -0.028379535 -0.013156922 1.41751 -1.0352376 0.18172705 -0.68793386 -0.91473836 0.07903961 0.32314584 -1.0234052 -0.024065606 0.53667116 0.27893582 0.81066835 -1.4096962 -0.39899984 0.6666442 0.49933645
1072 -0.17827126 -0.93168116 0.9184975 0.17101598 0.46721658 -0.053081505 0.96881026 -1.0626452 0.46422312 0.63418007 -0.105828434 0.03420818 -0.5000376 0.30390325 -0.6319206 0.02753867 0.11673731 -0.62936866 -0.13190822 0.3206692 0.5473902 0.7732812 0.25171375 0.38342375 0.54430395 -0.7361257 -0.8288728 0.26246363 -0.008965196 0.4630137 -0.0018321672 -0.8886073 0.12424848 0.2593176 -0.3400619 0.1647147 -1.2083834 -0.3128954 0.28441867 0.57524437 0.45362923 -1.0640801 -0.08595422 1.3126748 -0.38123244 -0.6471143 0.16190657 -0.70538116 -0.20417191 0.5979652 0.013800682 -0.34508643 0.623525 0.23752525 0.8056903 0.03742458 0.11721487 -0.1388045 -0.21498136 0.9814764 -0.19236599 -0.079782374 -0.3230725 0.8616298
1761 0.46915886 -0.27936208 1.2364986 0.95277745 -0.71585685 0.44634593 -0.11647241 0.72459686 0.19421966 0.24335138 -0.20237538 -0.25184906 0.23020573 -1.074516 -0.13889326 0.35005787 -0.17526107 0.025908232 -0.16249295 0.6095286 0.02426695 0.40007284 -0.28177983 -0.053664062 0.9360117 0.19426888 -0.3102054 -0.7023168 0.27030963 -0.45322603 -0.26376873 -0.61167854 0.48435068 -0.11881637 -1.057785 1.3469982 -0.54459184 -1.0766387 -0.2801065 -0.4597211 0.88970566 0.17959486 -0.30487335 -0.6859894 -1.1193404 -0.72599876 0.71047235 0.009131481 1.4416134 0.3789342 -0.33303577 0.14137994 -0.32416862 0.08569648 -0.10242655 0.17196615 -0.84590364 -0.6355387 -0.3542482 1.2157669 -0.25818974 1.0071343 0.59790856 0.8447251
2399 0.31634018 0.22016934 0.33209154 0.463491 -0.1855926 -1.4182012 -0.10145347 0.87579334 0.8323891 0.06205773 -0.17644465 -0.2519288 -1.0092605 -1.5406085 -0.2469301 -0.20864569 -1.4236462 -0.08484204 0.9892311 0.17506003 0.51824003 -0.11485473 0.07137686 1.0352805 1.482141 0.0056606065 0.5081447 0.037567686 -0.9828378 0.8210619 1.4900929 -0.82168347 -1.105922 0.36507812 -1.028687 -0.22197029 0.1143088 -0.05129838 0.33257955 0.12456723 0.89807373 0.086934954 0.7165256 0.7023096 -0.2223954 -0.33034274 0.55350006 1.1653035 0.110943116 0.6372315 1.6657168 -0.12451482 0.3597697 -0.029397136 1.080482 0.11122511 -0.01877956 -0.4902437 -0.9873444 0.14789854 -1.0106367 -0.5492735 -0.01927001 0.77737147
2596 -0.8049477 -1.0112554 0.2820958 0.028952716 0.54918116 -0.34164363 0.17329623 0.34478286 1.0975462 -0.11366018 -0.1643605 -0.015134759 -0.05862803 0.38553187 -1.1668687 -0.95251197 -0.8192674 0.7395702 -0.79555875 1.0508752 0.28218448 -0.049486935 -0.20823306 -0.30421808 1.7317812 0.7148225 -0.18717052 -0.5869823 -0.4035333 0.22349654 0.526899 -1.032104 0.43501592 0.21365887 0.963144 1.1193503 -1.152066 -0.22356379 0.09481857 1.1863548 0.9600303 -0.08210852 -0.42156008 0.3199178 0.4397697 -1.397463 -0.305463 -0.011477802 0.96186584 0.12310183 0.58078605 0.28173208 -0.99533856 -0.52616525 0.16502723 0.13504732 1.0670716 -0.41901618 1.1118704 0.54418725 -0.69387805 1.2062652 -0.56468076 0.7102982
2080 -0.40520582 0.052327685 1.481781 1.1616715 -0.21776877 -0.88272876 0.06551315 0.9799117 0.078209 -0.83237493 0.8731386 -0.093059555 0.2883655 1.1098489 -0.051239196 0.06730007 -0.14393193 0.38497335 0.32283893 1.7612637 0.30853286 -0.13207036 0.61645854 -0.44617826 0.17816557 -0.4420961 -2.0981214 0.75947 -0.36780515 1.184471 0.13512425 -0.10062591 -1.4237243 -0.46079743 0.689261 0.42129898 -1.1433215 -0.05742003 0.39931548 0.3855638 -0.5535707 0.68145955 -0.10437904 0.80918306 -0.024150865 0.37750682 0.95963764 -0.66691655 -0.22036467 -0.45320335 -0.54544383 0.5125268 0.896363 -0.52962554 0.5852178 0.29059136 0.07638116 -0.73546827 0.26185885 1.0234816 -0.6719766 -0.33002022 -0.06436973 2.2305264
2539 -0.009954677 -2.3105986 0.6967061 1.0864427 -0.41597405 0.425402 0.5716873 -0.43488014 0.41345155 -0.2517896 -0.006638246 1.66368 -0.5630418 -0.47669855 -0.11806938 0.5058941 0.68697894 0.5054319 1.0704204 -0.5705629 -0.106597036 0.17719626 -0.03528517 -0.41529742 0.7149229 0.6249814 -0.4152871 1.2187735 0.43127978 -0.41298354 -0.38362604 0.22131048 -0.71239835 -0.23325568 0.13010374 0.003339148 -0.06500549 -1.9783585 -0.35551605 -0.00797329 1.7503647 -1.5870167 -0.042332817 -0.85644555 0.753669 0.062972665 -0.83450043 -0.4271518 -0.25451046 -0.7196193 0.5544484 0.19249131 0.63898253 0.94950426 -0.50014585 0.5710058 0.5868234 -0.42864627 0.6779377 0.90904725 -1.3815703 -1.4368043 -0.5440275 1.7201245
1627 0.08232428 -1.2635343 -0.8284105 -0.7724219 0.35058567 0.7051317 0.24985144 0.16398084 0.1635652 -0.76597446 -0.28457174 -0.24620527 0.2934622 0.1637336 -0.063019186 -0.37181586 0.34974644 -1.132301 -0.0132115735 0.64597076 1.0459678 0.28718844 0.92725456 -0.90168285 1.0688717 1.0027212 -0.5550232 -0.3928366 0.32177228 0.6060048 0.06299355 -1.6660622 1.126928 0.7910151 -1.0333397 -0.7132316 0.09670667 -0.51844144 -0.30576226 -0.64495987 0.86735475 -0.6294969 -0.5885778 0.45238292 0.23696306 -0.9555086 0.30419406 -0.7261149 0.8568751 0.2027349 -0.52320594 0.8459444 0.3170861 0.4162769 -0.033400256 0.4138173 0.32342172 -0.96223336 -0.020234479 0.90124846 -1.3538046 -0.65474486 -0.56491286 0.7153361
2268 -1.7759336 -0.36456305 0.2253207 1.078406 -0.50468534 -0.83320135 0.1866481 0.055107694 0.48860854 -0.82622075 0.8486041 0.9275192 0.033630397 0.034778673 0.9796444 -0.4421648 -0.5298024 0.055173066 0.6369353 1.5206412 1.0159323 0.3591859 1.057224 -0.2302052 1.9952173 0.10684162 0.51207995 -0.16926946 0.2626742 -0.75700045 -0.60734785 -2.1943264 0.07412862 0.44633216 0.26543915 0.35305327 -0.51331466 0.7067018 -0.1993084 0.41876242 0.89009744 -0.57003605 0.7053858 -0.5110029 0.17698152 -0.56928897 0.32708564 -0.6270947 0.42993474 -1.0966289 1.0086677 -0.4735173 0.44180182 -0.37367004 -0.03562242 0.25800955 0.4315405 -0.13938682 -0.3083126 0.25331956 -0.27567548 0.16796207 -1.2666346 0.12718412
2681 -0.6246913 0.98449457 0.07476764 0.25937063 0.6048988 -0.4613187 0.041790396 -0.9542977 1.002362 0.58248097 -0.4005755 -0.44245556 2.0516398 0.43961865 0.41661632 0.1865194 -1.5685903 1.1221944 1.2307093 0.74705964 -0.3481487 0.6579149 0.36722258 -0.08354439 1.7787786 -0.6013183 -1.5787885 -0.22890092 -1.0898714 1.0800134 -0.31133163 -0.68017626 -0.44146326 0.99000865 -1.4943088 -1.2085913 -0.4148531 -1.2490827 -0.34371766 -0.0007526524 1.2904378 0.18258528 0.36929303 -0.3573341 1.0276116 0.2681445 1.2599858 -0.82227933 0.5957386 -0.5332399 0.13994554 1.3275602 1.0524659 0.19302125 0.9414253 0.851476 -0.0072926795 -0.64509296 -0.8668093 1.5782318 -0.09673865 -0.86140734 0.012060096 0.13397571
598 0.29438254 -0.6317508 0.63171685 0.279381 0.16018265 0.10927411 -0.07131817 0.9007602 0.013762972 -0.08368711 0.26610824 0.09946345 0.7123528 -0.06494006 -0.11857454 -1.0318224 -0.5448894 0.74165237 1.0462544 0.09792127 0.7894045 0.44687122 0.18771727 -0.41965055 1.4246923 -0.5217837 -1.016071 -0.17286852 -0.37832114 -0.6467057 -0.6754404 0.07881438 -0.29498708 -0.32484615 0.089850664 -0.46001333 -0.44546786 -0.33412036 -0.75471866 -2.0635574 1.4391015 -0.14138122 0.88190204 0.40518042 0.056966662 0.9500427 0.48354572 0.2231664 0.5641967 -0.02587005 0.5661167 -0.09906346 -0.05105372 0.13455844 0.47529736 0.3756973 0.62529284 0.24137056 -0.16848888 -0.8110628 -0.682001 0.64448076 -0.44250083 -0.5196526
933 0.05612509 -0.8169769 1.118221 -0.069135025 -0.79296994 1.1593115 -0.95875514 0.021902705 -0.12390562 -0.4060873 -0.4612003 -0.10574342 0.1937612 0.4472671 -0.77352613 0.17783149 -1.0418849 -0.99154025 -0.29331833 0.46600047 -0.024877597 0.24984927 -0.06650856 0.4515926 1.414824 1.3875104 -0.061164483 -0.035804063 -0.21408227 0.3032639 0.30205518 -0.23889765 -0.70316213 -0.3347839 -0.99408823 0.28700748 -0.69366294 0.23904331 0.26925012 -0.33406907 1.2595019 -0.051991325 0.23828557 -0.7958556 -0.33932233 -1.4518178 -0.24469419 0.42868316 0.34486 0.78214777 -0.22574848 0.7502294 0.7296263 -0.27634907 -0.79236144 -0.4633565 0.087315954 -1.6702448 0.5608047 0.41300792 -1.870883 -0.45239574 0.6883462 1.2802061
2485 1.0426271 0.08478551 -0.15837818 -0.21749651 -0.9001376 -0.23999518 -0.29562482 -0.84287447 -0.40590686 -0.85466224 0.9265711 -0.3745527 0.38160264 -1.0269467 -0.261272 -0.10523373 -0.103858456 -0.50335455 0.011337294 1.5636805 0.61127055 0.8732987 0.62994385 0.5924195 -0.32914275 -0.6867952 -0.62554413 -0.5720993 0.12651286 -0.09705953 1.147012 -0.3830666 -0.9432134 0.1169758 -1.7691569 -0.18620968 -1.5298979 0.9714805 -1.6277459 0.5907496 0.15370636 -0.42536613 1.5329578 0.9761689 -0.046768077 0.18634507 0.8383087 1.4977764 0.7021092 0.20412256 0.6064829 -0.0061697992 -0.96611094 0.7357467 -0.88668084 0.5441097 -0.25197294 0.0070756413 1.4584873 0.03505382 0.27781358 0.15892808 -0.37061796 0.6123647
1538 0.3774909 -0.38067898 0.020578418 0.9232225 0.14088875 0.5997295 -1.1474482 -0.2742054 -1.1741416 -0.47012693 -0.15263046 -0.2036302 1.2952156 -0.24210799 0.47177237 0.74545294 -0.856315 -0.39235085 1.0897499 0.56222564 0.30748874 0.1828263 -0.71509534 0.32536146 1.5088483 -0.053360686 0.94031036 -0.10965284 -0.21399967 -0.044991486 0.7704703 -0.2356884 -0.97981495 -0.3528057 0.69136703 -0.42610747 -0.78196144 0.81551164 0.026188219 -0.08330219 1.9279666 -0.6254827 -0.5346495 -0.69656354 -0.45897794 0.10331345 1.609993 -0.25749698 -0.2767733 0.25424206 -1.0752512 -1.2583828 0.045799118 0.14845592 -0.48836005 0.4239514 0.16781184 0.647936 0.11676583 0.99255043 -0.73474884 0.5533694 0.9886004 0.5822171
1042 0.041938785 0.2923631 0.53517437 -1.1480589 0.5598162 0.13853854 0.004123979 -0.09973395 -0.3013611 -0.07722526 0.07610373 -1.2014741 -0.0011731937 -0.2494845 0.42302653 0.695199 -0.6642257 1.4598666 0.015199995 1.1451516 -0.27685532 0.0024754887 -0.8588095 -1.301351 0.19500695 0.5772819 -0.627572 0.32676715 0.15152043 -0.8277498 0.83816516 -0.76424044 -0.71519506 0.94676 0.53358775 0.10863787 -0.7921248 -0.052634396 0.31685328 0.12073744 2.100001 0.007018275 0.5002117 0.49894154 0.5700186 -0.7126453 0.107287474 0.83032435 0.4729879 0.67294264 0.16941293 -0.4687899 0.14157762 1.1513686 0.5833014 0.70495206 -0.026485195 -0.5416183 -0.5580368 1.3532159 0.53845745 -0.028334431 -0.42517895 0.45151523
1778 -0.8365226 0.20115009 1.3376614 -0.16519903 -0.031630978 -0.28635228 0.0015746005 0.8539879 -0.2657402 -0.5611767 1.0898525 -0.18776552 0.33104077 0.30173013 1.0448587 -0.35303158 0.7303284 0.7353789 -0.35799474 0.6544697 1.1011935 -0.07116622 -0.1006115 0.51456434 -0.11907642 0.3944874 0.26344445 0.08405778 0.2713383 0.734865 1.3147092 -0.1415551 -1.4248543 0.07096079 -0.3057584 0.8738954 0.040793654 -0.67024916 -0.4419602 -0.2904489 0.8974531 0.4616052 -0.6247214 0.88475835 0.3739067 -0.3791909 1.344979 -0.89806306 -0.41487563 -0.15085946 -0.033059277 -0.29491618 0.30951947 0.9896244 0.08360597 -0.21323796 0.054596774 -0.1359561 1.261804 0.7421869 -1.1355454 -0.13650532 0.13238889 1.6013349
2233 -0.6464783 -1.037173 0.14911903 0.7176116 -0.8867397 -0.01117199 -0.787384 -0.7963983 -0.4480232 -0.35860795 1.3478534 0.53087205 -0.22356139 0.13730152 1.1907393 -0.4150519 -0.31705043 0.06728412 0.62924075 0.7379423 0.36275458 0.77286726 -0.1353053 -0.5920008 0.28566793 0.77107435 -0.07468931 0.24746229 0.6385632 -0.6156223 1.143977 -1.8071204 0.2690032 -0.15129521 0.37652212 -0.6037104 -0.37573093 0.71547836 -0.124793805 0.3912414 1.2676958 0.5117057 0.019273978 -0.40574217 0.53459364 -0.4525216 1.180545 -0.36678755 0.7100376 0.3967283 0.7080447 -0.23199855 2.4869425 0.52333665 0.7612767 0.14045188 -0.3014608 0.15542144 0.44393826 0.22360425 0.6546945 0.44921577 -0.38149768 1.0987773
1703 0.19685213 0.27626917 0.86261284 0.5578742 -0.7443671 -1.6079588 0.11722953 0.8055112 0.21606816 -0.04732227 0.12183735 -0.8781445 0.28694224 -0.37842798 -0.22423473 -0.85174656 0.2429158 0.35664284 1.1971133 -1.1853936 -0.015633728 1.1892838 -0.013217075 0.27740374 1.4066199 -0.090393886 0.9195682 -0.44562173 -0.9961033 0.9141702 0.63258946 -0.66844773 -0.33684346 0.48698 -0.029695183 -0.11675249 -0.15289612 0.095992915 -0.40780392 -0.5063849 0.5385157 0.37907794 1.2102152 -0.34514242 0.7062459 -0.5527114 -0.6779564 0.5742056 0.21031673 0.3846427 0.6717606 0.31759626 0.40099573 -0.0071759447 0.4511371 1.1137058 -0.11942237 -0.5993075 -0.024847925 0.94144976 -0.8982568 -0.5413957 -0.57771236 0.45508593
2054 -0.26862708 -0.7244885 -0.027190559 0.19195136 -0.13227227 0.25248232 -0.6007046 -0.22064549 0.1811391 0.16418749 0.57014424 -0.06606523 -0.32019383 -0.4527775 0.09764822 -0.019871201 -0.50649405 0.95941025 0.4600315 0.3205709 0.10692604 -0.33829972 -1.0165415 -1.6322038 -0.4219573 -0.21505374 -0.15263294 -0.044808723 -0.70885766 -0.07542151 0.88460827 -0.8502067 0.07420879 0.27809474 0.12351724 0.000676763 -0.71429753 0.9078281 -0.13519035 0.52186996 1.2673885 0.30674657 0.1185695 -0.5178542 0.6443706 -0.22803617 0.6743611 0.33715403 0.48404646 0.76893467 0.7332718 -0.47356293 1.4795167 0.9437555 0.398849 0.96040636 0.3003797 -0.49553543 0.23400599 1.1967945 0.6796619 0.6724472 -0.5055706 1.4752339
2175 0.2314275 -0.11497092 1.4457366 0.77203286 -0.6400255 0.3849558 -0.19017544 0.78555346 0.06546816 0.3886425 -0.4780099 -0.06155633 0.22006619 -1.15879 0.053473163 0.54921067 -0.22342584 0.10014046 0.07608964 0.46820515 0.5194689 0.3741834 -0.1052031 -0.1777053 0.9068445 0.10527065 -0.41088212 -0.5794963 0.15170535 -0.19085868 -0.03123456 -0.93611795 0.6123925 -0.2857651 -1.210173 1.2613285 -0.45571125 -1.2516912 -0.33830056 -0.69292027 0.8102308 0.1754338 -0.48159543 -0.46723035 -1.2663705 -0.76360655 0.22852316 -0.06369795 1.3949084 0.53823423 0.0073732333 -0.0066280332 -0.48894462 0.35251048 -0.51843345 0.24136482 -0.69623655 -0.77893096 -0.35871252 1.1959656 -0.22724771 0.9886164 0.7003496 0.8762938
2246 1.1930207 -1.0696315 0.7754641 1.2024697 -0.29447728 0.34048688 -0.38755912 0.5258589 -1.4610422 -0.39094162 1.4807597 0.21704914 -0.38565093 -0.7007209 -0.31887645 -0.33736357 -0.13307226 -0.050083388 0.76285315 0.13260503 0.24648936 0.7151608 0.30414787 0.19843385 0.71260834 0.32187974 -0.28259686 0.7409527 -0.7458619 -0.6996105 1.3777343 -0.07141501 -1.0345607 0.24678382 0.42487046 0.07780954 -0.1607343 -0.7004956 -1.5929006 -0.17690612 0.6146687 0.9339877 1.0336467 0.3197622 -1.080931 -0.8336532 -1.0986526 0.324138 0.7929953 -0.3756979 0.94335335 -0.1722526 -1.0998423 1.1243715 -0.5652745 1.0002241 0.014227278 -0.3000526 0.48093712 1.822585 -0.70005137 -0.008529137 -0.5515694 0.3993608
2199 0.7536612 -0.5570277 -0.46891853 -0.29984382 0.32971877 0.023958001 0.080383904 -0.27558765 -0.5570057 0.6219657 0.884154 0.33073506 -0.046152253 -0.19991782 -0.87493443 0.070331186 0.63493 1.1456872 0.27379683 0.20345435 1.1360415 0.34335074 -0.8210706 -0.98651296 -0.1404671 0.5930667 -1.3142734 -1.0948551 0.5828631 0.026789797 1.0382643 0.58140486 -0.2407069 -0.54488575 0.52330434 -1.3236827 -0.4817915 0.9807872 0.20468591 -0.53942937 1.1715214 0.48428473 0.7022838 -1.2416053 0.74906904 -0.7471854 1.3927977 0.02130404 0.13354938 0.40181142 0.6988955 -0.60377735 -0.3658683 -0.025678655 0.57588357 2.0070426 -0.60835296 0.110425025 -0.27845716 1.6561632 -0.790475 0.31396678 -0.68117535 0.94294804
2434 -0.23803179 -0.8017312 0.2609798 -0.28272846 -0.4821355 -0.23528597 0.60493267 0.76331246 0.48791325 0.025629165 0.21386117 0.17838028 -1.2408634 -1.9827496 0.41030505 0.44012251 -0.8496548 -0.28678834 1.3225682 0.54596 0.33680665 -0.089294985 0.58077985 0.64300454 1.1738008 -0.61914766 0.37998486 0.03998627 -0.7080241 1.1931596 0.47128636 -1.3958511 -1.047648 0.44677255 -1.1997988 0.5988669 0.41351873 -0.24131717 -0.7959822 -0.41896468 0.2619318 0.3209343 0.59654725 0.86122143 -0.118724585 -0.20504962 1.1646568 0.9276076 -0.17442644 0.762325 1.7847234 0.28014678 -0.082351595 -0.4843517 0.79456544 0.54964703 -0.56084114 -0.43572953 -1.2143756 0.5758167 -1.5284883 -0.9224127 -0.1680352 0.5773592
1317 -0.21783943 -1.0123792 0.056820378 0.87316597 0.15059711 -1.1957166 -0.3116539 -0.18965 0.15521763 -0.2665607 -0.07979036 -0.29027826 0.78853315 -0.5611564 0.046501175 0.11273321 0.2777082 -0.26722464 -0.07591668 1.0603268 -0.015477988 0.81283456 0.5794678 1.210602 0.55720156 0.2603123 -0.2889062 0.37617007 -0.523563 -0.73985237 0.13820396 -0.44732022 0.18593855 0.44162095 0.041105542 0.73547757 0.19462788 -0.32229266 -1.0256875 0.094369054 1.3452256 0.32596976 0.27336282 -1.1438899 -0.5616128 -0.39423847 0.10404738 0.7657666 0.7153691 1.2553144 1.3604293 0.8883302 0.746523 0.5919742 -0.328827 -0.5035362 1.6218477 -0.4564389 -0.12463126 1.0425986 -0.6128982 -0.9583742 0.98013395 0.98107773
2425 -0.37950176 -1.5774343 -0.30617082 -0.22577676 0.1086361 -0.72554487 -0.47094825 -1.0877758 -0.8549924 -1.0317131 -0.016073931 0.49810407 -1.460671 0.575813 0.7217672 -0.83466643 -1.1783445 -0.13487889 -0.21201801 0.6484586 0.5251458 1.0613606 -0.06496742 0.82613605 1.090184 0.6672774 -0.7094826 0.42580414 -0.5886154 0.0013835558 1.2757578 -0.2860091 -0.05891267 0.0321378 0.45514104 -1.3835794 0.5558176 -0.14876704 0.92273104 0.5752561 1.0386084 -0.7799302 -1.2200835 0.61421484 1.1095828 0.52742064 -1.5053213 -0.93433464 0.861668 0.20462994 0.24242032 -0.9927947 -0.13133515 -0.31955793 -0.8650623 0.12645817 0.7141552 -0.49130037 0.03960347 0.28073293 -1.0534261 0.34176722 -0.26277456 2.0903492
2046 0.3021011 -0.31661373 0.508682 0.64793634 0.39024493 0.1563566 0.0697995 0.50260425 0.12928395 0.6498282 0.28242284 0.31105644 0.76255673 0.16640072 -0.29230848 0.20837487 0.019008467 0.5001763 0.33590424 1.3302286 1.03556 1.1278495 0.002073579 0.23717758 0.36056602 -0.74947095 -0.25408065 0.5216034 -0.67779315 0.19058175 0.32143885 -0.022254867 -0.14921293 -1.1434977 0.08089067 0.5092325 0.6598431 -0.34352288 1.1489711 -0.3558427 0.5710628 -0.90040183 -0.47450328 0.68423873 0.6386978 0.3047259 0.90773934 -0.23817486 0.06282162 0.31312644 0.7986507 0.5695535 0.6369958 -0.22407946 0.40675727 0.2007236 -0.16675648 -0.99297273 1.570616 -0.18774465 -0.6903268 -0.42335793 0.39954358 0.49704957
883 -0.0065360717 -0.8852482 1.2869648 -0.11218191 -0.8519062 0.9381917 -0.6465367 0.15165374 -0.18384996 -0.3994866 -0.7632585 -0.10603204 0.05729945 0.20924747 -0.6617116 0.062078837 -1.2718507 -0.8731396 0.4206418 0.45346272 0.0468133 0.21691492 -0.12814204 0.6115553 1.4076422 1.1677614 -0.22167318 -0.21911795 -0.34949005 0.4163748 0.35635322 -0.38176078 -0.67400795 -0.087330945 -0.93496275 0.54681844 -0.39377058 0.44962773 0.42631057 -0.5496864 1.3682159 0.15001234 0.08770835 -1.0886122 0.18086402 -1.8884752 -0.15557843 0.55943024 0.440031 0.7406634 -0.26183677 0.88564396 0.73862225 -0.48008946 -0.9045144 -0.50411254 -0.15785182 -1.6822908 1.0234486 0.63660574 -2.341753 -0.65055823 0.7798847 1.2380478
1583 -0.48662028 -0.13762301 -0.6844449 -0.74940795 0.023878999 -0.54967093 0.011911699 -1.1807446 0.7704987 0.051288754 0.029510923 0.27873102 -0.46068257 -0.0639174 -0.94187516 -0.17282243 -0.23790298 -0.40128008 -0.624899 -0.0789607 0.07577644 1.7398587 0.44813338 -0.5439334 1.653014 -0.7247722 -0.37603116 0.05124778 0.936327 0.61540973 0.723331 -0.80663663 -0.9265264 -0.35222587 -0.28500327 0.03400983 0.2942221 0.2881149 -0.42604682 0.072269216 0.87982357 -1.1178424 0.54116344 0.9726838 -0.19018991 0.11893541 0.7848589 0.18700173 0.3633335 -0.13629285 0.11636142 -1.1506089 0.15807317 0.6978354 -0.54947793 1.0666411 0.028022045 -0.7265601 0.8223185 0.034474812 0.1908167 -0.119844206 -0.36707973 0.5365326
1958 0.36561635 0.030115442 0.092703566 0.19163406 0.67867726 0.16162015 -0.8423508 -0.7609448 0.63897043 -0.62165606 0.16781397 0.84757084 0.8922845 -0.23226678 -1.1917803 1.8634913 0.18104042 -0.7597723 0.85538286 -0.58568704 1.040878 -0.5948296 0.13238513 1.0339438 0.70939034 -1.1593157 0.64964026 0.8895163 -0.87384534 -0.4411916 1.1335992 0.07971675 -0.06017147 -0.030484298 -0.7147369 -0.43927124 0.74057305 -1.4733504 -0.96196157 0.28493062 1.7932215 -0.6147265 1.4155148 -0.07634012 0.38599196 0.07303962 0.44710067 -0.26636422 -0.10764654 -0.39680895 0.31113696 -0.24015185 1.6283134 1.4526811 -1.3636124 1.0519613 -0.53021973 0.74626863 -0.3584653 0.49174726 -0.84098345 0.54089075 -0.16005145 1.087775
2476 -0.19195381 -0.9317915 0.7763047 1.2421392 -0.3071445 -0.7076843 -0.07835694 0.9541996 -0.0485881 -0.33797708 -1.5380278 -0.94615716 0.26596087 -0.6213079 -1.1612589 -0.03348658 -0.48399505 -0.04725257 0.12348492 0.21080224 0.45700997 1.49358 -0.24763088 -0.10652624 1.5669452 0.77612555 0.67149895 -0.865509 0.4339041 -0.4671841 0.68787897 -1.1693053 0.46186745 0.37357235 -0.61992204 0.9422346 -0.17847931 -0.95953447 0.64417374 -1.0179957 1.0020221 -0.9466826 0.027702682 0.24010205 -0.94645786 -0.2300788 1.4231558 0.5599578 0.9439579 -0.49524266 -0.17713247 -0.22990097 0.20321508 -0.38974664 -0.7532781 -0.19122949 -0.14547959 0.45152858 0.27742344 0.7922527 0.81082237 0.49904191 0.6111484 1.2012509
1849 0.5170446 -0.41330078 0.6121102 -0.7737235 -0.32969654 -0.06799187 -0.9069638 -0.6968028 0.53170335 -0.68824685 -0.6427669 -0.58590806 0.03599243 -0.553263 0.64316946 -0.9928835 -0.2601977 -0.206171 0.40476656 1.2725937 0.7324586 0.25272554 0.17523439 0.9062073 0.40430072 -0.9914871 -0.31729674 -1.3266813 0.545097 -0.8657121 0.62083375 -0.2928608 -0.24590644 0.7616712 -0.33812782 0.4256033 0.41636774 0.33325893 -0.3370766 0.6489322 0.34020087 -0.7028021 0.7537647 0.28557733 -0.30714446 -0.63380337 1.9387625 0.79544413 0.904073 0.80379194 0.7973965 -0.059602223 -1.3087846 1.2144322 -0.19047403 0.54244167 -0.06593565 0.18127818 0.47995362 0.5493832 -0.4861499 -0.62161016 -0.025832826 0.644945
2405 0.29262507 -1.3533019 0.104746826 0.11225637 -0.06179781 -0.4078378 -1.5644189 -0.15502383 -0.7492811 0.60469353 -0.6614591 -0.38698184 1.6531854 -0.50410014 0.1441456 0.25076824 -0.77953124 -0.087573916 -0.04510039 0.22398013 0.85159343 0.30447242 0.22932541 0.9265269 0.45677918 -0.7608223 -0.05621749 -0.37701404 -1.0353365 0.21814595 0.32098377 -0.31063262 -1.4600024 -0.17473894 0.3612064 -1.362195 -0.23232691 0.6297742 0.008744164 0.5540088 2.3138142 -0.84180266 -1.1685636 -0.5876023 0.29363605 -0.42068174 1.358229 -0.9307474 0.10387614 -0.82562184 0.09678983 -0.889728 -0.5696524 0.05871139 -0.52191395 0.37498385 -0.15578277 0.05058473 0.58828497 -0.13277215 -0.54542255 1.1842295 0.022056697 1.0763062
2237 0.24302655 0.33535233 0.24147968 0.34379557 -0.06645353 -0.4950059 -0.23418239 1.7290777 1.2478802 0.6146689 -0.27888763 -0.6538135 -1.1463966 -0.9627755 -0.4434121 -0.327897 -0.8562589 0.5843479 0.7184249 0.011492916 0.15859354 1.0783098 0.18844761 0.6913533 2.0544567 -0.6585957 0.11849533 -0.45986357 -0.27047178 1.2344455 1.5647594 -0.591328 -1.0511954 0.26536852 -0.2800325 0.15860486 -0.57955736 0.30035862 0.38101393 0.45749652 0.8745111 0.121722385 -0.007232326 0.83239967 -0.56800574 -0.4030245 0.4694366 1.4505111 -0.23407331 0.20164207 0.7840034 0.04408262 0.22148901 0.23285235 0.75640553 0.88884354 -1.160546 -0.5745392 0.11219123 0.8922314 -1.2841015 0.40635145 -0.57662845 0.233018
1952 0.5965177 -0.9925493 0.4495971 1.3964096 -1.5504681 -0.4265478 -0.386392 -0.16652963 -0.4728486 -0.2535961 -0.15558174 0.3539217 0.38506725 -0.74295133 0.51145464 -0.29304925 0.04231947 0.23999165 -0.5894864 0.821725 1.6269853 0.008688193 0.30182233 0.28620452 -0.38349113 0.4608453 -0.71428657 0.720597 -0.056624707 0.48196515 0.66608644 -1.0800111 -0.5553228 -0.35335943 0.741309 1.0286824 -0.27116254 -0.06722085 0.2501928 0.22612211 1.6681072 -1.1048914 -0.09281714 -0.09704432 0.84848386 0.07054828 0.4345941 -0.3663438 -0.59140587 -0.50706416 -0.009232961 1.1035198 -0.50885177 1.679358 0.5491759 1.2787936 0.074479885 0.008965568 -0.32825094 -0.49889463 -0.28263015 1.0937097 0.013316594 0.23056203
1725 -0.7961773 -0.7224986 0.8948973 0.20714547 0.5141946 -0.07197096 -0.4576567 -0.41322267 0.3765216 0.25414392 -0.48253888 -0.19713123 -0.5605426 0.31894782 -0.46140528 0.22980955 0.0017140777 -0.41464323 -0.26798606 0.38199514 0.12349452 0.5088652 -0.121085055 -0.18446355 1.1045842 0.16774109 0.36174503 -0.23829772 0.1919297 0.18512076 -0.32350874 -1.6733766 0.6370487 0.44467658 0.010992029 0.6839692 -0.8248778 -0.53179926 0.6141601 0.6285368 1.061994 -1.1198288 -0.3367859 0.6937209 0.6199827 -1.5577976 0.27007553 0.5256454 0.2840608 0.40674555 -0.53570473 0.4863296 -0.5848146 -0.098803006 -0.30251718 0.36702996 -0.03242841 -0.5204518 0.15136595 0.7586198 -0.9812704 0.6175306 -0.35556912 0.69958675
2198 -0.42254075 -0.6424512 0.21289513 0.54728854 0.029411675 0.49723864 -0.3512644 -1.0085177 0.32828096 -0.44392082 0.8292203 -0.23252356 0.68014085 -0.43443766 0.4181183 -0.24064063 0.3387394 1.1590989 0.16133045 0.77549624 -0.22000143 0.29970434 -0.13748315 -0.9452466 -0.17200768 0.5856613 0.105309315 -0.21256384 -0.18955709 -0.088913456 0.9162191 -0.972814 1.4194528 0.7312755 0.30857718 -0.13762973 -0.476041 0.40009853 0.8660665 0.3446151 1.7226988 0.23501302 -0.48808163 0.34402984 0.31049955 -0.45629993 0.6193418 -0.21591659 1.0508807 0.85836846 1.1224587 -1.4093982 1.3623556 1.5556519 0.49692643 1.4099526 -0.15991601 0.39426363 0.38842732 0.75566965 0.19443764 0.18330488 -0.38138628 0.010960635
2016 1.2842402 0.10651689 0.12971994 0.13425893 -0.7038364 -0.19281617 0.8392997 -0.87775236 0.23935772 -1.3825434 -0.257418 -1.1482099 -0.33769137 -1.7518976 -0.9751623 0.7088273 -0.20850632 -1.6288146 -0.23713627 0.6733436 1.0517491 0.65394634 0.7709682 -1.1475438 1.5679654 -0.44900233 -0.24535213 0.62399614 1.3856115 0.6846721 0.35661834 -1.1268477 -1.2128394 0.22396131 -0.1695588 -0.43407717 -1.0870574 -0.07185596 -0.2854108 0.59404486 0.99855137 -0.16864812 0.49089956 0.81756383 -0.043026537 0.7905652 0.7830997 -0.5087078 0.23853397 1.0352573 0.15498717 -1.0201676 0.41840944 0.2824926 -0.30619615 -0.5306 -0.21607931 0.35541284 0.5621851 0.15837573 -1.5453981 0.062171906 -0.24273567 -0.44560373
1531 0.57728726 -0.13065019 2.139461 -0.30748263 -0.78477156 -0.73339367 0.712516 -0.25173697 -0.8112071 -0.06365485 0.027218556 -0.3973635 1.799051 -0.09353027 -0.32698324 0.45120436 -0.57530034 0.21545924 -0.4288015 -0.63732684 0.9383969 1.2245604 -0.051634256 -1.14508 0.7708673 0.7809795 -0.7614815 0.6397446 -0.36736503 -0.48372048 0.882011 -0.5895706 -1.0164605 0.39088568 -0.31023452 -0.3888519 -0.60979503 0.64266396 0.28979045 0.6511205 0.11078298 0.0069385455 0.52602077 -0.08414504 0.8776263 0.873392 0.5088824 -0.47526768 -0.0016494747 0.14878467 -0.5000876 0.9052878 -0.68667156 0.5585963 -0.17638817 1.0500212 0.3736939 0.62017643 -0.04490527 0.6051294 -1.6916945 0.4811406 -0.1740584 1.5082159
2436 1.1897758 -0.09308104 0.9574463 0.40185675 0.4982384 -0.4250865 -1.1696509 -0.45792314 1.3415208 -2.0850947 0.10903343 0.7734306 1.6456293 -0.96454054 -0.123297155 0.22619286 0.17589918 -0.030606551 0.72218573 0.90683854 -0.17371465 0.92768914 0.341944 0.5278966 2.1279721 -0.23447211 1.0882431 0.27304518 0.27026471 -0.3169486 0.65099007 0.65282017 0.29635948 0.6896057 0.08396158 -0.8947812 -0.3296248 0.47433534 -0.14847319 0.39671972 0.8352083 -0.45290625 -0.7492408 0.30030668 0.12634866 1.34327 1.1331815 0.3999329 -0.9375627 0.7573113 0.0007143182 -0.2332381 -0.17576168 -0.45396423 0.60502994 1.6075257 -0.16852356 0.08925061 -0.00038113727 0.21248065 0.08726032 0.13736933 -0.9825495 2.326207
1558 -0.52905595 -1.2117313 1.2381085 0.8150267 -1.8971571 -0.2777724 0.3324675 0.45850584 0.295156 0.28947216 -0.09729844 1.278569 0.66531765 0.7380573 -0.44826847 0.6085677 -1.4225703 -0.76372886 0.6987354 0.0025783214 1.1006341 0.13678426 -0.6361761 0.086160995 1.7607138 -0.31767553 -0.38831702 -0.5945696 0.8223461 -0.35999814 -0.12973389 0.62470216 -0.17295867 -0.14548722 -0.82822084 -0.2133383 0.11594376 -0.47347915 -0.29210058 0.1148187 1.3218949 0.14724495 -0.1976481 -0.40114525 0.8167598 1.7265192 1.1640964 0.426828 0.35805348 0.30594075 0.49661165 -1.2719326 0.012590995 -0.15758732 -0.77419657 0.3056998 -0.07705036 -0.077639475 0.21958911 0.10086175 -1.2573233 -0.69656503 -0.7710004 0.50442284
1955 0.38481113 -0.8433243 -0.44763967 0.8472593 -0.6273955 -0.4788181 -0.80770975 -0.69238335 1.3086625 -0.66152453 1.8698438 1.8670497 0.65273386 -0.5315326 -0.0449289 1.029428 0.11141397 0.08200858 -0.070063554 0.9211073 0.7455425 0.45132023 0.11221121 -0.20692225 0.03224087 -0.0041784034 -0.47164616 1.3839972 -0.28704205 -0.67512244 0.662839 -0.7782269 -0.62286466 -0.36048377 -0.7139798 0.08846158 -1.257839 -0.037033238 -1.0291473 1.4153274 1.1952963 0.04488151 0.5282925 -1.1672715 -0.63427126 0.42674178 -0.10144106 -0.17853534 -0.24623227 -0.46927837 0.61495835 -0.25758564 0.25377104 0.28221586 0.14393009 -0.0033440252 -0.015191076 1.6740272 -0.7841103 -0.044599596 -1.4277705 -0.19748394 -0.01990963 1.1071651
2356 -0.037100174 -0.018393125 -0.1572635 0.60414505 -1.4717523 -0.66265804 0.5668945 0.13864218 -0.7594409 -0.39428717 0.020629533 0.80392116 0.119584985 0.5431827 -1.0000509 0.22278112 -0.10077453 -0.0875509 0.86930645 1.6424654 0.77558136 -0.9072324 0.82616824 0.5928127 0.8331338 0.4099782 0.15421121 -0.51949704 0.9086727 -0.7821228 1.3292108 -1.121025 -0.8600308 1.0373425 -0.65108067 -0.027587423 -0.65451664 -1.8077868 -0.20319566 1.0279188 1.546568 0.19960889 -0.7078704 0.3860962 0.4589283 0.8198517 -0.0903205 0.8378945 -0.5197737 -0.411945 -0.22689363 -1.1542434 -0.4427545 -0.20735571 0.81512 0.56865954 1.2791252 0.856363 0.7552378 2.1058204 -1.4305773 -0.20187397 -0.7127646 -0.089440025
2047 0.7516161 -0.38325265 0.9013187 0.888482 0.4792299 0.37875316 -0.17633256 0.13233063 0.042591102 0.49101382 0.33075106 0.14212884 0.7784561 0.24706405 -0.4979947 0.58421665 0.53621125 0.9091094 0.22097181 1.3884411 1.2297326 1.5207365 0.24660094 0.16202345 -0.039104585 -0.065367304 -0.5776171 0.52429384 -0.73761207 -0.41589922 0.7054188 0.15545282 -0.1825678 -1.448495 0.338456 0.24535285 0.46555448 -0.9097438 0.50902486 -0.35506055 0.7035899 -1.358885 -0.8378649 0.9964403 1.057831 -0.11249892 1.353161 0.12985371 0.34236112 0.7134342 0.42381334 0.19625239 0.8226518 -0.038531166 0.5808543 0.23440565 -0.23685174 -0.87314254 1.535674 -0.37165537 -0.3676154 -0.69035596 0.13859843 0.55629945
2326 0.5416502 -0.98741305 1.0901722 0.39802748 -0.75849456 0.12989762 0.56551284 -0.7383271 0.9319776 0.94518137 0.776734 0.2691187 0.35614857 0.2085159 0.5587859 0.75935674 0.08867222 0.25116202 0.22708224 0.98715085 1.1646454 0.010234155 -0.63686174 0.09019421 1.2972624 -1.2873772 -0.33089688 0.095504604 -0.29345143 -0.29388827 0.9762643 0.73180836 -0.40356627 -0.13937525 0.22995475 0.24148504 -1.2991711 -0.49481592 -0.24441405 -0.15146562 -0.15379553 -0.13286018 0.6577439 0.73591304 0.05327942 0.4566545 0.4446945 -0.06016474 0.24608353 -0.39496008 -0.28153273 -1.933408 0.26759353 0.7205953 1.4162585 0.7461511 0.04414839 -1.8072728 1.241614 -0.14438868 -0.007104031 0.19016448 0.18476355 0.72452563
2507 -0.8913482 -1.2707084 0.5495673 1.786227 0.76647085 -1.0578396 -0.704209 -0.3254726 0.2150595 -0.75021553 0.8548286 -0.4055521 0.19434322 0.36647788 0.048195742 0.65851796 -0.49953204 0.8663933 1.0290186 1.0705227 -0.12591903 1.0941926 0.5798549 0.0033792749 0.54915833 0.4985501 -0.28497994 0.36511117 -0.1818417 -0.78297573 0.19809772 -1.447245 -0.43484837 0.7154399 -0.97242993 0.6750268 0.20408086 -2.0022054 -0.07301106 0.20470607 1.2280642 -0.011688034 1.2286607 -0.7172408 -0.37009385 0.51295197 -0.07750669 0.52712363 1.0610346 1.6049972 0.76590866 0.53314364 -0.27251524 0.19819435 0.7596511 -0.6761562 0.3821188 -0.019066544 0.30101267 1.4697946 0.13918836 0.04996226 1.6087949 0.16549522
733 -0.6661025 0.4170936 0.0033293653 0.02416867 -0.3657101 -0.44685432 -0.049427874 0.21649307 -0.3033761 0.022517163 0.4887842 0.1810413 -0.03386193 -0.13228305 -0.11305915 0.29667178 0.6753085 0.39533257 1.2976637 1.7011268 1.5925379 0.07178632 0.036544107 0.28141892 1.8090171 0.0959962 0.46607652 -0.6176323 -0.098813556 -0.40734 -0.37722394 -1.4177845 -0.60993993 0.5574729 0.21101406 -0.16311973 0.0493741 0.52510023 -0.74794424 0.6542653 0.6758358 -0.16583794 1.9391851 0.018648895 0.059200983 -1.030975 -0.15780395 -0.02308589 -0.46450013 -0.014330506 0.8067953 -0.80391 0.044750642 -0.046968557 1.1509203 1.1903876 0.64720464 -0.29517898 -0.24213745 0.20813052 0.20874171 0.38935694 -0.32740206 0.1265346
2395 0.33648172 0.83266073 -0.12401136 -0.9875738 0.5417915 0.08413551 0.23974994 -0.5501911 1.093157 -0.09299659 -0.61299133 0.24072388 0.4928369 -0.540474 0.081984155 -0.7001295 -0.35409224 0.11760469 1.647446 0.7891223 0.62589437 0.084530495 0.7198161 0.8476805 0.4773154 1.5155213 -0.36622104 0.3135441 -0.055871066 -0.53882587 -0.1918348 0.7954307 0.12604347 -0.33979636 0.07351971 -0.12656954 -0.43655187 -0.21394937 0.045589074 0.51692975 0.46919784 0.46402618 0.5580074 0.865424 0.9357106 0.40369835 1.0855174 -0.10563557 1.8157495 -0.90730834 1.3072121 -0.10097351 0.35765582 -0.22856626 -0.41266134 0.24137145 -0.9558814 0.338877 -0.15415315 1.4391893 -0.8951187 0.30509615 1.268608 2.1098115
1957 -0.2614682 -0.97464013 -0.37382826 0.4553456 0.14731355 0.3947129 -0.45982522 -0.037498567 0.4846824 -0.0022518588 0.32023665 1.3940411 0.47772577 -0.09357299 -0.23354758 1.1069819 1.265594 -0.16285045 0.47813135 -0.08320219 0.32774317 -0.025590396 -0.013076044 -0.068251945 0.4258176 0.28236458 0.10255961 0.0799436 -0.16430129 -0.73829085 0.6005661 -0.21500504 -1.1366305 0.5116198 0.46775743 -0.70969665 -0.24385042 -0.86106616 -1.0701678 0.121275224 0.79189605 -1.3775395 -0.4467676 -0.60577804 -0.37761572 0.020846227 0.070142806 0.988477 -0.15920618 -0.2906799 0.3640126 0.5198329 0.42895925 0.56034166 -0.9941204 0.5384644 -0.18634921 -0.21466407 0.68232644 0.453929 -1.2222155 -0.8006293 0.2600134 1.3038924
1904 1.0938972 -0.44255438 0.0067327344 0.427368 -0.06430046 0.1429981 0.5068381 0.10519683 -1.8698809 0.3506485 0.12726143 0.7136459 0.41504568 -0.114759184 -0.6467043 -0.12259876 -1.013595 0.580132 -0.36071438 0.34574348 -0.13696253 -0.29434222 0.6187824 -0.31872517 1.182008 0.80263704 -0.45723143 -0.0074513587 -0.38337085 -0.27626058 0.37175763 -1.2822809 -0.4341665 0.3046802 0.29759657 -0.84155023 -0.45110613 -0.117458895 1.3173866 0.49044368 -0.28152677 -1.0011578 1.019139 -0.31046635 -0.31718892 -1.1543065 0.86729044 0.39518335 0.8862654 0.13521549 0.34062243 -0.28713703 1.5780041 0.14696606 -0.17841822 0.050101645 -0.30064443 -0.12671852 0.017320998 1.5224313 -0.6601596 -0.69801736 0.4282696 1.1582552
2597 -0.56184655 -0.8939207 0.19960369 0.016788784 0.51387197 -0.8678396 -0.50628096 0.41564533 0.11206411 0.3458619 -0.47398686 0.36361694 -0.35613224 -0.28447902 -1.1363266 -0.76374704 0.22770512 -0.33583137 -0.48084337 0.9041583 0.3988328 1.0757388 0.053477988 -0.73801786 1.3186464 -0.31116158 0.4313304 0.21141472 0.08266598 0.2184367 -0.45114133 -1.0632489 1.1042349 -0.038303766 -0.469861 0.1255786 -0.9586915 -0.810557 0.532766 0.25054717 1.0940535 -0.84210306 -0.23440094 0.005171232 0.33406073 -1.4871594 0.29848698 0.9163275 0.48350734 -0.23382872 -0.31870422 -0.46561545 -1.1539067 -0.52049786 -0.7965845 -0.4882091 0.6230056 -0.26784292 0.16253838 1.3728712 -0.7631078 0.5261041 0.15730298 0.8481667
