2707 128
1358 0.15521474 0.14921845 -0.24426308 0.5073931 -0.6228691 -0.33934796 -0.13072078 -0.6609398 0.27455994 0.56739426 0.33490986 -0.027468398 -0.10448606 -0.033794224 -0.17186168 -0.36590418 -0.00974492 0.6057885 -0.15164973 -0.7233484 0.16058 -0.25163165 -0.6238275 0.1289398 -0.27166983 -0.25011525 -0.31318817 0.16244388 0.04918503 -0.1861558 -0.57316905 -0.15520428 0.2089142 -0.072944336 -0.12160303 -0.31346944 0.27993047 -0.04447677 -0.23460157 -0.2067371 -0.0154586695 0.52222836 -0.2847763 0.51650083 0.7180601 -0.20484659 -0.24926835 0.12367054 0.21418796 0.09822936 0.23985927 0.39876735 0.26923406 -0.06637971 0.6356792 -0.5188915 -0.24499054 -0.5455529 0.15800479 -0.051841337 -0.0069348384 -0.45783636 -0.0538248 -0.07911193 0.1893395 -0.29189733 -0.006656696 -0.4317212 0.20785257 0.059652627 0.43781444 0.111630395 -0.27113214 -0.29587314 0.16870485 0.06557092 0.32848233 -0.011779204 -0.2942475 0.26618618 0.26841012 -0.032743767 0.35395434 -0.01342159 -0.23389837 0.08474496 0.25956458 -0.21842243 0.47861284 0.61307365 0.35238957 -0.31332076 0.23200947 0.12094849 0.42721757 0.07340212 -0.31270853 -0.45691842 -0.15852255 -0.4687569 0.07063079 0.06423744 0.059456974 0.54417604 0.18168533 -0.21168253 0.33086252 0.60824215 0.43025914 -0.6391592 0.28946996 -0.7118298 -0.3452218 -0.307246 0.057697672 0.2733241 -0.06525647 0.51052743 -0.10467059 -0.13377698 -0.064319566 -0.2507189 -0.35782745 -0.26392776 0.35420853 -0.043767717 -0.47428507 0.33520567
1701 -0.46698833 0.018736457 -0.15593208 0.12690492 0.12622465 -0.85416496 0.078668766 -0.15778562 -0.39345655 0.6195486 0.2694105 0.3467829 0.25032252 -0.76337445 -0.7598408 0.40088114 -0.008860199 0.16225685 0.071757734 -0.17398995 -0.2158077 -0.18878517 -0.2711052 -0.09141389 -0.1787679 0.29640812 0.13448955 0.49183127 0.4713366 -0.121116765 -0.07929836 -0.14925055 -0.22534762 0.17278269 -0.16123933 -0.7036048 -0.0067533823 -0.39093703 0.3551747 0.09113615 0.66964513 0.17512685 -0.32139644 -0.3613052 0.596355 0.3878086 0.36003485 -0.24891174 -0.32869256 -0.46962118 -0.04109776 0.00459794 0.33672816 0.2204037 0.28691882 0.01970968 0.091703445 -0.450556 -0.25886855 -0.1657447 -0.26917136 -0.46366817 0.26304737 -0.14946854 -0.02878694 -0.11477895 -0.36805367 -0.17447305 0.6747554 -0.7701998 0.55164754 -0.1538365 0.15197626 -0.42922118 0.35756448 -0.09619024 0.09315002 0.45997828 -0.42469382 -0.49440742 -0.34019366 0.58169675 -0.46812034 -0.09420367 0.67870605 -0.09907502 0.13505408 -0.22758538 0.08882582 0.019451177 -0.65191245 0.19277667 -0.0066123484 -0.81157994 -0.08327734 -0.3749899 -0.6217382 -0.3864432 0.11491431 -0.23708472 -0.693525 0.11799744 0.97322106 -0.7254013 -0.4798787 0.03958256 -0.30613157 0.17712678 -0.12504561 -0.24020918 -0.047961608 0.24039583 -0.25892895 -0.30680215 -0.13205345 -0.010845008 0.09377215 0.26125607 0.45175353 -1.1406009 0.051557694 0.31702572 -0.32595184 -0.2782695 -0.9011828 -0.59570175 -0.264516 0.029250324
1986 -0.6325626 -0.20651434 -0.13811222 -0.24712968 -0.12066606 -0.87814206 -0.05805876 -0.18450946 -0.5788533 0.37392256 -0.06706482 0.57768214 -0.17895806 -0.44831944 0.07560381 0.07642284 0.31406322 0.7050699 0.206638 0.56033796 -0.22143824 -0.5890398 0.36206543 0.16410886 0.12829347 -0.32809433 -0.6807002 0.13805462 -0.32565582 -0.21575914 0.11993998 -0.07825748 0.599052 0.1861447 -0.20673808 -0.31364098 0.2779766 -0.6029369 -0.015813086 0.072969094 -0.018181121 -0.18618514 -0.059247248 -0.004727995 0.3238512 0.13843334 0.5463082 0.22342548 -0.3314832 -0.46949083 -0.4731354 -0.3399757 -0.2650886 -0.3887278 -0.548879 -0.5472752 -0.01568648 -0.26597133 0.19137645 -0.14824949 -0.3535551 -0.42174265 0.18148646 0.06197947 1.847585e-05 -0.6132518 -0.6214887 0.4798396 0.41477117 -0.27898937 0.1321443 0.28665164 0.30193418 -0.39771867 0.22339652 -0.28351912 0.030300574 0.08624207 -0.39554226 0.37789756 0.32539156 -0.25623226 -0.4280907 -0.12719175 0.6071249 0.41364947 0.054120753 -0.36238036 -0.04583976 -0.06770939 -0.3654587 -0.1824626 0.052190423 -0.35708505 0.14115366 -0.05052202 0.0018673212 -0.4986123 -0.15164903 0.6529192 0.029256808 0.78918356 0.41118005 -0.2323358 -0.13600746 0.43214273 -0.1926071 0.0720054 0.18657762 -0.46476176 0.29213002 -0.17416602 -0.22231586 -0.4236046 0.6976755 0.031744752 -0.23301598 0.07292476 0.20389642 -0.2567795 -0.2409106 -0.036179695 -0.6904312 0.15059102 -0.98479253 -0.3024495 -0.069861956 -0.19506498
2034 0.04543037 -0.6217219 0.446863 0.3247323 0.5414462 -0.14977898 -0.47000268 -0.4851281 -0.4418687 -0.48768872 0.13604572 -0.53956634 -0.15266283 -0.23372214 0.15520492 0.19758981 0.15918057 0.42708668 -0.21652989 -0.07361602 0.13164793 -0.20244129 -0.81095505 0.102059804 -0.3309685 0.6513255 0.06525092 -0.05882147 -0.26176223 0.19370645 -0.21804775 -0.28891936 0.11939716 -0.09134432 -0.08278593 -0.773323 0.10594905 -0.02279304 0.6146757 -0.45401534 -0.113078885 -0.34124047 -0.1389909 0.033518102 0.2816507 -0.2628389 0.45379013 -0.39562413 -0.8111843 -0.71190923 0.44679365 -0.76202834 0.09514029 -0.14264351 0.28933585 -0.083584115 -0.18550982 -0.47935998 -0.3563572 -0.17869624 -0.08506175 -0.5192369 -0.043992016 -0.24145687 0.31745955 -0.12747185 -0.40840524 0.37531483 0.19607435 -0.5021134 0.31436887 -0.0821367 -0.53517455 -0.48214376 0.3727181 -0.4721037 -0.5605599 -0.0004271293 -0.18682957 -0.5441983 -0.37407175 0.1358715 0.30736026 -0.45589623 -0.027237168 0.42237324 -0.86567515 -0.023633055 -0.24139464 0.41940936 -0.37631288 0.09783049 0.016923076 0.23761101 0.35111895 -0.49908796 -0.31642473 0.42477062 -0.05381062 0.19820538 -0.23692681 -0.69881755 0.750556 0.14904836 -0.35371163 0.2670985 -0.23698187 0.0400523 0.13140437 -0.5307503 -0.40477103 -0.058214694 0.33589074 -0.12422375 0.63679785 0.06476728 -0.50952506 -0.18469062 0.17189197 -0.32813385 -0.31508142 -0.82240057 0.042341374 0.5686938 0.13511042 -1.1413074 -0.52984947 0.051570106
2045 -0.26605308 -0.41015026 -0.7389825 -0.06770236 -0.25480458 -0.4688934 -0.22634067 -0.37937582 -0.6724513 0.1972361 -0.3533375 0.07907715 -0.35561034 -1.0791476 -0.41894892 -0.20700297 0.102957666 0.033701807 0.21883722 -0.23064993 -0.5052279 -0.2754985 -0.57938826 -0.45240095 0.53352374 0.9164204 0.38069063 -0.34570923 -0.20772749 -0.02897609 -0.81992304 0.21194191 0.05406004 0.13788447 -0.61766994 -0.3336877 -0.059096448 -0.19098099 -0.2564269 0.14569743 0.6156688 0.19249845 -0.787658 0.36150402 0.6454648 -0.03943845 -0.5916119 -0.3670557 -0.11771444 0.5797909 0.27415696 -0.31434622 0.2186536 0.35455784 0.37521145 -0.05224037 0.005170049 -0.00392592 -0.06295401 0.5742289 0.3586574 0.18565017 0.17955744 0.017463632 -0.24004653 -0.058858175 -0.59654 0.36270243 0.8710311 -0.62464434 0.29966414 -0.0953525 -0.30694023 -0.53776526 -0.04432111 0.037686743 -0.52931815 0.533475 0.25618652 -0.28998935 -0.18794365 -0.68486154 -0.34511912 0.7330899 0.15089694 -0.13691327 -0.17371613 -0.8563236 0.17046537 0.4016197 0.14790632 0.07496922 0.2092118 -0.49274126 0.5768705 0.1568176 0.15434988 -0.2756497 -0.07836647 0.5069673 -0.3554061 0.35174948 0.32146952 -0.22368562 0.81539947 0.1275487 -0.16496977 0.039979372 0.19478996 -0.7279821 0.79694045 0.2118341 0.11931828 -0.1298838 0.07297662 0.11029506 -0.108409636 -0.32095388 0.5722041 -0.26071116 -0.20067097 -0.23100606 -0.21747574 -0.010719726 -0.328219 -0.7330177 -0.31813195 0.20839569
1810 -0.40699345 -0.9133173 0.49722046 -0.2843071 0.016585404 0.07816979 0.33414564 -0.20903572 -0.8348937 0.47695214 0.070233874 -0.34329492 -0.5033633 0.33817574 -0.03221894 0.3967046 -0.20616269 -0.02533062 -0.019244805 -0.3616526 -0.14406855 -0.50015724 -0.015842983 -0.40878728 -0.47977844 0.3169809 -0.17773792 -0.3194978 0.15775365 0.038390074 -0.05489139 -0.09952349 0.5871769 -0.02048631 0.032704696 -0.7981562 0.48144177 0.015063437 -0.3120034 0.6692875 0.54386985 0.0075478414 0.080273055 0.47629413 0.014311723 -0.354086 0.74655944 -0.1891871 -0.43618143 -0.21320021 0.2383943 0.30319822 0.07307636 0.31755513 -0.5141497 -0.1663792 0.22916593 -0.6023146 -0.32477602 0.27245662 0.15719822 -0.4564666 0.016413223 0.2897235 -0.14122152 -0.35048026 -0.20329462 0.41135085 -0.029641416 -0.6278842 0.2423805 0.1030542 0.15095073 -0.51953036 0.69334173 -0.17926534 0.2653893 0.2071023 -0.3460392 -0.8331225 -0.0086934855 -0.58589137 0.06207796 -0.26866394 0.10508551 0.71853685 -0.23024675 0.1353122 -0.4721721 0.4415763 -0.9003654 -0.24118854 0.83696973 -0.87884825 -0.100030266 -0.27765563 -0.29956168 -0.25934124 0.08665903 -0.07752094 0.20214364 0.51994514 0.689741 -0.11567087 0.3406903 0.06772741 -0.1586505 -0.92911464 0.6430198 -0.29561725 -0.3820482 0.1991127 0.5214621 -0.42473108 0.1910827 0.559723 0.122175775 0.27492577 -0.1732956 -0.09279632 0.29777038 0.003521938 -0.24393821 0.20728448 -0.102527246 0.060684808 -0.5271797 0.17734557
2249 0.2645458 -0.00637821 0.5670353 0.22010481 0.3865911 -0.0044529317 -0.49066955 0.26590723 0.022261716 -0.14330816 0.12630089 -0.15783757 -0.83939165 0.10554 0.2809975 0.12733038 0.41608077 -0.2154763 -0.061546985 0.3471031 0.25283498 -0.3309348 -0.45710623 0.47752663 -0.52270466 0.96797675 0.36331338 0.28774628 -0.11687736 -0.17322375 -0.3503437 -0.22049025 0.23802733 0.740289 -0.44412836 0.24810962 0.78375363 0.29299685 0.9201539 -0.051129304 -0.3379197 0.502791 0.28552926 -0.19055307 0.44659448 -0.24524611 0.6680869 -0.1134384 -0.15002236 -0.33446187 0.14840351 -0.70239604 0.82595944 0.64311785 0.43889 -0.6604353 0.31462374 -0.19656904 -0.7908792 -0.17207755 -0.23094441 -0.93230206 0.36109287 0.08934902 0.20040222 -0.5422424 0.1452273 -0.027602142 -0.24070461 -0.45620468 -0.061865557 -0.25335076 -0.90687424 0.49945003 0.26665482 0.33597982 -0.30835608 0.115438975 0.23235583 -0.21581705 -0.542824 -0.3862364 0.34611374 -0.8068942 -0.44122705 0.34887797 -0.06244969 -0.33378753 0.007948093 0.16565622 -0.16168165 -0.11786834 -0.043354232 -0.13924502 0.42411932 -0.9947034 -0.32341096 0.4948317 0.39315343 0.1484109 0.26176915 0.31634274 0.7458125 0.013580202 0.5282783 0.5683769 -0.078427 -0.3201044 0.14063692 -0.49886575 0.14453216 0.32675037 -0.34298393 0.07489101 0.28311157 0.47164708 -0.1940244 0.22165748 0.27593127 -0.6537506 0.66003335 -0.731171 -0.5469827 0.2684241 -0.077836275 -0.56019557 -0.24892911 0.8631142
1914 0.19118331 0.2471925 -0.31042662 -0.0037116013 -0.25659302 -0.08935407 -0.42456368 -0.0524778 -0.8744199 -0.3903588 -0.6430633 0.19462511 0.054042738 -0.019505613 0.30777183 0.5272679 0.51783967 0.47594747 0.31403062 -0.035611846 0.088557005 -0.070779264 -0.09020791 0.36452636 -0.19128571 1.375326 0.47125176 0.086892344 0.75913215 -0.3694054 -1.2191576 -0.027744208 0.27842334 0.25191838 0.24478588 0.020409586 0.0016797291 0.36124447 -0.4755048 -0.011460352 0.10788307 -0.06791359 -0.34005055 0.31366017 0.8167153 0.5079922 0.21487656 -0.45569372 -0.19554247 0.24626939 -0.17033927 0.25126395 0.006877383 0.04069119 0.54289174 0.34673443 0.49339336 0.31770444 0.4911017 -0.62714314 -1.0035033 -0.0141403675 0.50302786 -0.11456772 0.14129703 -0.51528734 0.8367496 0.03138025 -0.32281908 -0.39306852 -0.079964675 0.09217756 -0.23722772 -0.70576817 0.5188826 0.038098138 -0.5110317 -0.44030678 0.0764853 -0.5646035 -0.018468697 -0.23531155 -0.7414447 0.14599144 -0.3567338 0.22080132 0.0058245915 -0.04676545 0.30070415 0.41395795 -0.026688997 -0.10375081 0.58542585 0.7717109 -0.267311 0.2253096 0.42874834 0.19743104 -0.055028673 -0.3490483 0.03710554 -0.10971491 0.46376592 -0.434323 0.4221144 0.65151227 -0.18092383 0.12046446 -0.41763687 -0.5083672 0.062717564 0.32189274 -0.26670685 -0.49977267 -0.17886737 0.5185276 -0.24701622 0.13005659 0.6976234 0.89196545 0.22521043 -0.09232619 -0.44210967 0.089708656 0.18655533 -0.40286544 0.17054616 0.3456368
2182 -0.8478584 0.18109761 0.19480409 -0.32830998 0.72560716 -0.18399273 -0.9853221 -0.65535474 -0.5045914 0.32681054 0.9961978 0.68198 0.06598252 -0.648816 -0.025695853 -0.39177755 -0.25552636 0.50880665 -0.7451236 0.78392 0.2655369 -0.70935225 -0.826878 0.4993296 -0.44618902 0.6065683 -0.07709913 0.19105713 -0.6475156 0.6811496 0.08644538 -0.15468423 0.4993611 -0.040350687 -0.2625478 0.25907424 -0.2935591 0.115837336 0.45868915 0.1270926 -0.5796686 0.64469516 -0.26303685 0.023107471 0.58883506 -0.20668796 0.43227217 -0.04639659 0.21322785 0.24755241 0.66055435 0.70890087 0.38482615 -0.3245141 0.2219804 0.5004416 -0.116949186 0.49105293 0.80776155 0.36915907 -0.39469588 0.01614865 0.0731911 -0.2697769 0.5383218 0.6208387 0.13507743 -0.17394245 -0.6861864 -0.44150525 -0.48537 -0.021609556 -0.21313351 -0.42908034 0.6632095 0.12101694 0.40456635 -0.4871192 -0.11525037 -0.45384225 -0.3442956 -1.0261776 -0.25562066 0.0262959 -0.18967953 0.013551636 0.062205885 -0.20137304 -0.3823701 0.45198086 -0.34133318 -0.2913358 0.9315844 0.023088153 0.018408392 -0.5735209 -0.02840362 -0.3159912 -0.28384754 -0.47857618 -0.21998538 -0.23792101 -0.18504491 0.18197446 -0.20398608 -0.16802748 -0.5324655 -0.07224909 -0.070279196 -0.93975186 0.039219137 0.05673091 -0.13172445 0.08698247 -0.19173537 -0.5574118 -0.16981101 0.108617164 -0.14744513 0.5453867 0.2500907 0.035643414 0.0057278955 0.16259916 -0.16015244 -0.110752344 -0.3446835 0.55588865
2130 0.23883623 -0.018974308 0.007898282 0.16337198 0.41597977 -0.119106606 -0.2811633 0.1868913 -0.10622257 -0.34370592 -0.037695006 -0.29595482 -0.99572456 0.03426097 0.07121662 0.4730499 -0.069870554 -0.0063572875 0.25989118 0.77124774 -0.1426511 -0.46782395 -0.7209018 0.4604964 -0.6962106 0.8230489 0.43402782 0.10217251 -0.34830007 0.31679612 -0.8463844 -0.23853952 0.53822476 0.25422835 -0.5301762 -0.34874693 0.9035093 0.53145903 0.8527756 -0.51322347 0.036778755 0.21096152 0.14666574 -0.18715514 0.32836437 -0.6088093 0.44987088 -0.26501587 -0.10891032 -0.88259983 0.5313847 -1.1431376 0.4077307 0.25674915 0.25184822 -0.945345 0.49491525 -0.22385187 -0.18213639 0.13032772 -0.025622258 -0.9626804 -0.094431445 -0.53986835 0.1642808 -0.5286894 -0.6178307 0.0018705245 -0.18800314 -0.46356466 0.093253046 -0.24942155 -0.53650457 -0.16834679 0.26748934 0.44056496 -0.15614365 -0.07163945 0.027247563 0.09074243 -0.5120031 -0.18256626 0.4814642 -0.638551 -0.12898242 0.1918088 -0.223266 -0.24567513 -0.43407091 0.84947217 0.01734464 -0.10930334 0.101499416 0.087959684 0.17747806 -0.90917337 -0.602478 0.64054334 -0.009876643 0.17006646 0.053784885 -0.32002556 0.8551445 0.25904056 0.23654357 0.3270454 -0.242115 -0.20262593 0.540705 -0.6370913 -0.11768475 0.20586461 -0.03146538 -0.08785373 0.15152821 0.0065056533 -0.21964157 -0.027759373 0.025981357 -0.3623534 0.02346269 -0.67735523 -0.28615165 -0.11674505 0.16382389 -0.6730035 -0.37006408 0.91682225
1765 -0.18322395 0.63765913 0.70848954 0.6392367 -0.40844125 -0.48300305 0.061531827 -0.29898486 0.021357989 0.4312155 -0.088653624 -0.29687792 -0.53041273 -0.5180504 0.20321952 0.31393388 0.91135865 0.5730929 0.2991266 -0.020590518 -0.20246501 -0.13511212 -0.7087635 0.052809685 -0.21178138 -0.6980542 -0.80121773 -0.8060558 -0.50913364 -0.48217073 -0.5081924 0.34075215 -0.027578384 0.009770023 0.3845381 -0.30606174 0.5121734 0.09941671 0.19850667 -0.006514981 0.18695505 0.07553242 -0.57838774 0.8845655 1.6812404 0.47079408 -0.03446964 -0.1205669 0.6481698 -0.124104455 0.48902613 0.032718733 0.74176437 0.056595884 0.36611775 -0.38858414 -0.18675247 0.2824775 -0.3207272 0.5771362 -0.29770058 -0.66603 0.7967564 0.3871469 0.098210566 -0.46188802 -0.13349141 -0.13061671 -0.21074982 -0.14995715 0.57294255 0.033523034 -0.48387894 -0.16886805 -0.013407454 -0.049425874 0.8384902 0.14329344 -0.73305064 0.233112 0.16689113 0.44531068 0.21929093 -0.24387345 -0.41839275 0.5773128 0.06883921 0.04138561 0.54623425 0.6655376 0.02305006 -0.57437843 0.29246733 -0.08249621 0.45277843 0.35855174 0.14666781 0.3218527 0.07535976 -0.5798027 0.096031345 -0.33632088 0.5921378 0.65193164 -0.16092527 -0.13270503 0.2722946 -0.41911495 0.25743002 -0.7330901 0.51268774 -0.5880816 -0.37751406 -0.32229465 0.37542692 0.24801995 0.03935704 0.65942687 0.1056777 -0.026634548 -0.45809892 0.06503765 -0.26064184 -0.053437524 0.82854867 -0.07561336 -0.56035763 0.5889644
2451 0.26154432 0.05590057 0.14604208 -0.1246026 -0.12432489 -0.6532266 -0.96791464 -0.031480588 0.26492405 0.033922136 0.58185095 0.37767214 -0.14612833 -0.15407014 -0.5249454 0.5014537 0.0651343 0.30216023 0.20766576 -0.5439527 0.4140077 0.22546218 -0.48240787 0.17942078 -0.12272395 0.06883601 -0.8920749 -0.6464952 0.4009459 0.33763695 -0.94404644 0.27339515 0.2659899 -0.16998084 0.12857412 -0.2998014 0.5045401 -0.20247313 0.33159512 0.27882618 0.073379934 0.5560332 0.03414866 0.3076504 0.7974706 -0.4790903 -0.25731266 0.21958624 0.395256 0.1678865 0.39491805 -0.0031725797 -0.30360785 -0.5781623 -0.3812658 0.028020268 0.18990703 0.29490733 0.5222641 -0.62726223 -0.24229032 -0.10100344 0.056762386 0.16197841 0.48527068 -0.3186156 -0.37191305 -0.23916526 0.17268756 -0.62193644 1.0478084 -0.21327212 -0.7257354 -0.24220623 1.0463402 0.24813123 -0.35308966 0.4167934 -0.34147394 -0.23732702 -0.39344862 -0.16390452 0.17410892 -0.070429005 -0.58451486 0.39163423 -0.29944396 -0.43921608 -0.20129491 1.0804266 -0.11086326 0.7557673 0.24700423 -0.028561927 0.52587533 0.4984477 0.05292205 -0.3126296 0.38290086 -0.019144898 -0.210026 1.0030359 -0.61039495 -0.15180616 -0.32038233 -0.021402257 -0.3379109 0.08786617 0.3226726 -0.020585565 -0.21401 -0.61327416 -0.40356585 0.41603133 -0.5148329 0.24096236 -0.35546097 0.69451827 0.368709 -0.010376111 0.12262864 -0.3285992 -0.36257437 0.3130283 0.5440317 0.2730317 -0.92137766 0.6834576
1623 -0.46682262 0.17570199 -0.27996522 -0.06330125 0.3081855 0.034273155 -0.83322436 -0.7037178 -0.5911106 0.18929611 -0.5284238 0.059747454 -0.23861797 -0.9924475 0.17623547 0.02382462 0.7603718 0.64517295 0.49049652 -0.0856779 0.37146887 -0.06451354 -0.06572558 0.3472158 0.24483775 0.68758523 0.051389027 0.21523474 0.123738766 -0.14613546 -0.24469127 0.5144576 0.7749304 0.16650534 -0.15239324 -0.13647495 -0.14115888 -0.070610635 0.488618 0.61590385 0.2985301 -0.33788225 -0.045268446 0.2658525 -0.27986008 -0.31112084 -0.25433224 -0.27837482 -0.53944796 0.40091836 0.48773578 -0.0925902 1.0890399 0.11585653 -0.1537977 0.1535096 -0.5207844 0.19598643 0.20823681 0.6612197 0.7255057 -0.028872242 0.052593824 0.025786728 0.12525903 -0.8119069 0.53641355 0.10151374 0.6434236 -0.95767164 0.254747 -0.12523764 0.28793707 -0.19186427 -0.22718064 -0.61024636 -0.7049516 -0.015406429 -0.21395607 -0.50365245 -0.6424503 -0.74601823 0.19663545 0.22292691 0.48002547 0.31673664 -0.21975918 -0.65049845 0.53383297 -0.1824603 -0.46782878 0.051136605 0.30978805 -0.27422667 0.17746054 -0.13688654 0.343816 -0.35428134 0.7627478 -0.66615623 0.2656016 0.52711165 0.17864378 0.3168183 0.3060833 -0.4162001 -0.57292044 -0.29344028 0.92327064 -0.5570963 -0.15983552 0.21687587 0.01909105 -0.048192315 -0.09009788 -0.35780177 0.16426048 0.23562817 -0.00587441 0.19150849 -0.52577347 -0.49212146 -0.43170163 -0.044846565 0.1673567 -0.3423688 -0.20407312 0.15179756
2671 -0.37001273 0.16171646 -0.28210637 0.2866995 0.5295296 -0.05185206 -0.17616892 0.23935224 0.03947363 -0.27554703 0.04823076 -0.5138617 -0.37696877 -0.18605076 0.47063574 0.13022931 0.37019324 0.11168582 -0.33620897 0.30775827 0.50717515 -0.05578182 -0.54630214 0.37380064 -0.4877381 0.885334 0.21866548 0.22617272 -0.16618007 -0.12674035 -0.31397912 -0.12678972 -0.1475414 0.40563092 -0.42299277 0.47333005 0.8187347 -0.17012706 0.87592685 0.07334457 -0.152147 0.10192824 0.27818394 -0.20882216 0.5981742 -0.1728334 0.47720557 -0.12862246 -0.03184362 -0.21747647 0.30897564 -0.7620686 0.9236563 0.49942723 0.86530745 -0.008248178 0.4146534 -0.7123388 -0.53346443 -0.062141605 -1.144691 -0.9930315 -0.024195384 -0.10839193 -0.15991233 0.15755926 -0.078556724 -0.28418642 0.030264251 -0.3100572 1.1327887 0.16780248 -0.65981716 0.38176152 0.5575373 0.07322213 -0.019689584 0.40146607 -0.23434605 -0.33104905 -0.4361929 -0.9342877 -0.17352726 -0.9081366 -0.49328426 -0.097522885 -0.25487635 -0.06711663 0.071070425 0.61511195 0.022756727 -0.10905901 -0.046957012 -0.30632398 0.65119535 -0.82758415 -0.17463091 0.011157076 0.2313575 0.11569657 0.36962718 0.5263146 0.30524704 0.21731421 0.8605366 0.7137356 0.0791685 -0.44247034 0.41009918 0.33514026 0.44300362 0.33798063 -0.44770315 0.2511772 0.37349212 0.039966274 -0.5891574 0.45819828 0.4356253 -0.7448167 0.7783048 -0.36595204 -0.054973084 0.07444715 -0.2691583 -0.77407354 0.27267957 0.3435489
2248 0.18874395 -0.036994863 0.6947545 0.2579359 0.17209987 0.015450026 -0.22278932 -0.13088803 0.27400762 -0.47712567 0.090942346 -0.41135287 0.06866457 -0.51050436 0.35419777 0.64609003 0.1825178 -0.37366542 -0.4576716 0.3461457 0.62615865 0.205454 -0.5008371 0.14840083 -0.56199837 0.49702132 0.5207036 0.24359056 -0.11796737 -0.33290738 -0.2112477 -0.112264 -0.15585835 1.0006592 -0.51368594 0.47183457 0.76480687 0.09177867 0.6301312 0.3961424 0.029343385 0.5973788 0.2077057 0.4124909 0.05163259 -0.37602434 0.1512437 0.13799801 -0.083431296 0.47046334 -0.31199014 0.16459724 0.70084745 0.74196047 0.38995242 -0.6918547 0.23970388 -0.3881266 -0.8291346 -0.46979302 -0.60544634 -1.2500303 0.555644 0.86690974 0.09586902 -1.0583562 0.71275526 0.3565219 -0.021402385 -0.8024695 -0.29106364 -0.022643229 -0.7207349 0.6981285 0.5511462 0.10756184 0.019161748 0.2072825 -0.41274142 -0.13977896 -0.198975 -0.55347776 -0.20840912 -0.65526015 -0.693612 0.24765562 0.14411904 -0.66504914 0.2763207 0.061875608 -0.67356724 -0.2082164 0.062187567 -0.06943786 0.19676341 -0.7933132 0.025958963 -0.3749615 0.6825468 0.17705932 -0.06531155 0.5819161 0.5647638 -0.16056512 0.27803305 0.49499485 -0.3052507 -0.26686049 0.37696558 0.061400604 0.5214121 0.40106782 -0.82183397 0.58091885 0.3712432 0.5704752 -0.4504308 0.7566578 0.36048034 -0.8405519 0.95681053 -0.7492628 -0.51535755 0.11326621 -0.0011031099 -0.62872356 0.03391047 0.53584284
2168 -1.1476954 -0.15816863 -0.97516996 0.34063917 0.19156685 0.2351893 -0.58269036 -0.92602295 -0.09287799 -0.09012165 -0.15553804 -0.39223042 -0.25014794 0.058787826 -0.3957598 -0.2295497 0.028721374 0.63709855 0.22786827 0.25768346 0.07120773 0.47196838 -0.2034137 0.6019706 0.32586566 0.3373459 -1.0518069 -0.023618355 -0.11675755 -0.42273137 -0.8166609 0.41147614 0.06470387 -0.09464695 0.38238862 0.40191835 0.6364541 0.15842146 0.35769612 0.53118926 0.16402608 -0.22064659 -0.1920985 0.24215224 1.1460785 0.1596654 -0.2054364 0.13788284 0.3808214 -0.2186951 0.7181063 0.5165072 0.40449554 -0.6999524 0.027739653 -0.020302951 0.38255325 0.09194683 0.90088034 -0.028358176 -0.43966138 -0.98670846 0.026400452 0.10697049 0.46014264 -0.21021655 -0.41324243 0.31729072 -0.38138658 -0.2088868 0.64626986 -0.3627807 -1.0089557 0.08394605 -0.17552096 1.0282341 -0.14099611 0.04979801 -0.30417657 0.2443854 0.5618669 -0.1656574 0.14666174 0.527367 -0.094694 0.48980314 0.5982962 -0.73203987 0.8052475 0.7177237 0.38072234 -0.90624094 1.0032661 -0.54051954 0.35431764 -0.29025885 -0.38804466 -0.34935173 -0.111452095 -0.34899822 -0.77012175 0.010842409 0.36236078 0.0066434615 0.4594562 0.11586337 0.21142563 0.017138747 0.46499783 -0.1370105 -0.10556372 -0.6863196 -0.59302664 -0.021712054 -0.26426795 0.028660143 0.92397386 0.31078887 0.37267983 -0.6462041 -0.09459629 -0.5053739 -0.95554644 0.70465183 1.0170735 -0.061861034 -0.83213305 0.4175039
2492 0.19623496 1.4039882 1.0415795 0.78826725 -0.03692314 -0.48108992 -0.061558638 -0.21829477 -0.14749396 0.60729885 0.12963597 -0.29748043 -0.5935137 -0.008030526 0.29550946 0.053642135 0.6967564 1.2361189 0.53372115 -0.61847955 -0.523099 -0.38215643 -1.0394304 0.44908628 -0.30731246 -0.43984768 -1.3499173 -0.40758568 -0.26595098 -0.49322602 -0.7484528 0.579497 0.17202549 0.144125 0.51183575 -0.29434898 0.46885562 0.25289473 0.8613692 0.117379814 0.31578842 0.34373853 -0.6539881 0.8958233 1.641063 0.34891957 -7.075831e-05 0.3333939 0.8231851 0.028136972 0.2410315 0.04445196 1.1161675 0.09514955 0.5725348 -0.2558576 -0.2365491 0.878026 -0.11341339 0.6279258 -0.93730676 -0.64314514 0.7710023 0.37632686 -0.05751005 -0.6171801 -0.3226025 0.19126248 -0.17026915 -0.065995544 0.84745884 0.41086742 -0.39474505 -0.20096174 -0.077876374 -0.2824052 0.899221 0.20170274 -0.4556228 0.15615484 0.22336146 0.4371693 0.30905998 -0.27423254 -0.32032177 0.606875 0.28081107 -0.15449087 0.1856548 0.5989924 -0.08731927 -0.7632103 0.6460763 -0.44084504 0.4561944 0.36153966 0.28253856 0.18632907 0.121420756 -1.4237138 0.46573275 -0.10853937 0.48748502 1.1620891 -0.2666448 -0.20434514 0.33172137 -0.24887632 0.46031007 -1.1726575 0.47605374 -0.47038245 -0.56816614 -0.6315689 0.6700001 0.5015073 0.39965424 0.8954066 0.46699992 -0.4775254 -0.4908402 -0.180561 -0.31985822 -0.11179046 0.9759133 -0.47614852 -0.54121447 0.8555659
1902 -0.37318155 0.13752447 -0.079669915 0.66076505 0.26107717 -0.3465529 0.30062994 -0.087821685 -0.66305333 0.7793861 0.15254182 0.38500547 -0.15291943 -0.426747 0.20064855 0.45911023 0.4034194 -0.13682425 -0.38080016 -0.47463462 -0.25580975 0.2429195 -0.58974206 0.36318716 0.06784929 0.022244578 -0.10646398 0.5344365 0.12885764 -0.07738743 -0.19834043 0.7769989 -0.03746844 0.4330932 -0.13629085 -0.31223664 0.5289727 0.014869691 0.37859347 -0.1175559 0.23889352 0.4164386 -0.057949662 -0.12379544 0.6504752 -0.6197539 -0.079453915 0.57351464 0.71631974 0.23363365 -0.42899308 -0.024247386 0.22198524 -0.15576619 -0.9190145 -0.15133402 -0.3922822 0.7403902 -0.27130038 -0.10250443 -0.113536485 -0.5429368 0.4470895 0.88681203 -0.41629174 -0.90250444 -0.43155366 -0.6250838 0.79583466 -0.006663076 0.15650149 -0.5270005 0.041581947 -0.38118646 0.63597995 -0.38092795 -0.4581554 -0.40665236 -0.18547131 -0.49477303 -1.0768851 -0.14010164 -0.29149988 -0.17513096 -0.8172126 0.11172524 -0.49230123 -0.04902483 0.7476587 0.9453874 0.23859595 -0.49953076 0.11045704 -0.03556197 -0.42757392 -0.44045937 0.15322126 -0.2568501 -0.74730444 -0.69943696 0.5049437 0.083173946 0.48864383 -0.11991445 -0.27291682 0.1740711 -0.57373965 -0.5782961 0.18241677 0.05476196 0.8929242 -0.14158672 -0.2458096 0.106892 -0.41181818 0.07281124 -0.8520789 0.29866987 0.64101106 -0.13493472 -0.42046785 -0.57942045 -0.3750929 0.9127136 0.06529585 0.4425539 0.14994806 0.08365943
1441 -0.812913 -0.26945108 0.14332166 -0.05114351 -0.30827215 0.33232498 -1.0018638 -0.7538135 -0.26913494 -1.1141695 -0.12883906 0.69039035 -0.63717854 0.08973989 0.50079983 0.3194751 0.02439063 0.85175866 0.48472092 -0.2892605 -0.21729179 0.44897297 -0.07746757 0.2833178 0.06794828 0.151579 -0.017368244 -0.06969153 -0.38870242 -0.34090132 0.046317827 -0.17676738 0.5520444 0.56288326 -1.1111047 -0.3444829 0.718532 -0.21885245 0.3311717 -0.9880866 0.69981945 -0.12193136 -0.3624545 0.36237735 0.21916823 0.5723597 -0.12093644 0.45247322 0.4627212 -0.68264544 -0.051141858 0.3810099 0.023917783 0.45074457 0.11931712 -0.59745055 0.017640585 0.036461305 -0.0106092915 -0.13245623 -0.91888595 -0.22017935 0.74639255 -0.5511515 0.06299126 0.14029697 0.85515934 -0.610954 0.6758263 -0.8588774 -0.2615486 -0.039393976 -0.17404313 -0.6437535 0.40985903 0.71007454 0.09172755 -0.6316204 -0.29950613 -0.1839851 -0.055501755 0.17881729 -0.048075736 0.8916476 0.034064613 -0.1362012 -0.54739153 -1.2443851 -0.0051053427 0.5759637 -0.5120202 -0.6917325 0.38249633 -0.7217219 -0.58744925 -0.0349655 -0.48091254 -0.3048927 0.0808516 -0.9783994 -0.5845745 -0.23643957 -0.0819848 0.09538436 0.20212474 0.00989441 -0.380333 0.19564088 0.2005422 0.12709862 0.0143810855 0.3326371 -0.17785548 0.17100228 0.49695188 0.21269137 -0.8048905 0.720112 0.18928705 -0.47546598 -0.6350703 -0.83670235 -0.041594047 0.5846631 -0.1672581 -0.39118785 0.59783524 0.5447143
2291 -0.7995024 0.8176347 0.22889607 -1.0599798 0.5658635 -0.57088244 -0.33434257 -0.4001756 -0.6773219 0.45936033 0.9438408 0.7801529 0.6049698 -0.69017595 0.20215616 -0.187821 0.747407 0.12386887 0.32600942 0.439639 -0.2803101 -1.0737286 0.05702185 0.969943 -0.0070095514 0.62902313 0.21991055 0.3413091 0.03485476 0.46213222 -0.04523334 0.020148672 0.8827256 -0.15761308 0.40326333 0.27203813 -0.3472734 0.52419746 0.34050277 -0.039449673 -0.3396923 0.7425632 0.29170334 0.45454487 0.2810943 -0.12343921 -0.17909965 -0.17007223 0.095666476 -0.073097505 0.29761723 -0.16638032 0.054278355 -0.38722494 0.027111603 -0.28442746 0.82511884 0.14164521 0.5245395 0.019643808 -0.63447696 -0.16780257 0.4196745 -0.44869137 0.30676198 -0.14345063 0.15710911 -0.7651497 -0.42069736 -0.3914616 0.24393559 -0.3014643 0.1959697 0.026356148 -0.007253774 -0.22461797 0.12654743 0.4172437 -0.90618634 -0.20723695 -0.031869937 -0.63072 -0.59181964 -0.20380594 0.004533277 0.681411 -0.00822313 -0.1472977 -0.6258324 1.0461097 -0.5612432 -0.4889175 1.1010218 -0.14078781 -0.7354717 -0.42149252 -0.8335852 -0.20056526 0.15131983 -0.2029954 -0.5897744 -0.09373391 -0.20617044 0.2388188 0.04310404 -0.5265346 0.29378593 -0.2038543 0.3189903 -0.4616003 -0.21614698 -0.341897 -0.452284 -0.3584187 0.009243243 -0.009617341 0.101373985 -0.27765 -0.42576796 0.23701571 0.14358883 0.038719103 -0.033307195 0.12225694 0.3494885 -0.23407091 -0.5750022 -0.14894544
1950 -0.78606623 -0.53005683 -0.06533674 -0.08537798 0.900403 -0.53985965 -0.392008 -0.22223608 -1.6579782 0.12466686 0.31922057 0.11072569 -0.5601114 -0.08603018 0.17816086 0.4943319 -0.071621664 0.22472695 -0.08499139 0.011467432 -0.20400614 -0.67186797 -0.5613032 -0.57851624 -0.7954833 -0.20760153 -0.075775154 0.81962717 -0.12654774 -0.14502007 0.2044657 -0.21839796 0.60727113 0.44220275 -0.1611131 -0.10371237 0.34602347 -0.3666116 -0.063599706 0.042622346 0.0019117773 0.33359134 0.12653641 0.85998976 0.882328 0.5089537 0.19148706 -0.4439848 -0.17975979 0.38969392 -0.4723416 0.16084377 0.5188981 0.13059571 -0.55071443 -0.48901993 0.6333076 -0.7131886 -1.0777456 -0.39060816 -0.069876686 -0.8231066 0.6592545 0.51517123 0.30692726 -0.059125673 -0.8073502 -0.054807756 0.72163236 -0.3968951 0.21715945 -0.51261467 0.38842466 -0.64676625 0.7783421 0.16196892 -0.5076098 0.57159907 -0.73399776 -0.6778066 0.4081751 -0.44539762 0.1870508 0.35386333 -0.42059767 -0.70354515 -0.1280621 -0.51704127 0.09692925 0.74130267 -0.6076344 -0.0008860941 0.01723944 -0.17568707 -0.11296165 0.30396092 -1.4039775 -1.0464048 0.2742922 -0.03979449 0.57568544 -0.39303267 0.78282326 -0.35319042 0.057509247 -0.07979637 0.3944476 -1.1229354 0.16393083 0.11156608 -1.0279664 -0.26357272 -0.45261917 -0.22695276 0.09749792 -0.59386957 -0.3091966 -0.050191052 -0.23096032 0.4874634 0.34870136 0.06373162 -0.15090223 -0.05652444 -0.52945447 0.3395631 -1.0680628 -0.22723661
2452 0.40765634 0.31442764 0.18923882 -0.16893964 -0.31831673 -0.83669317 -1.1499299 -0.16994047 0.35563177 0.20503885 0.6701852 0.32944167 -0.3478925 -0.22961691 -0.83223784 0.5074187 0.061669603 0.4561419 0.346568 -0.6978884 0.3956529 0.14553572 -0.6058733 0.22620502 -0.2456889 -0.003995658 -1.0099528 -0.7778962 0.15452245 0.3020823 -1.2123674 0.4034712 0.34189314 0.022750724 0.14605525 -0.15960592 0.46618128 -0.26326153 0.24403277 0.4555075 -0.35778072 0.65743315 0.03824088 0.60414094 0.9029228 -0.55511224 -0.36910465 0.0054439288 0.29410487 0.056496754 0.45234603 -0.050004493 -0.14750102 -0.5161857 -0.41832417 -0.4880571 0.18417393 0.5982711 0.6866414 -0.89819634 -0.29815745 -0.5095058 0.02337294 0.034958422 0.6665846 -0.24704693 -0.44587338 -0.1243187 0.45671964 -0.5004961 1.2356591 -0.25060332 -0.971494 -0.28421718 1.2274694 0.100469165 -0.4205598 0.57642406 -0.4240138 -0.13624647 -0.30208445 -0.28256744 0.16388749 -0.23370792 -0.5805379 0.43550402 -0.45037314 -0.5394546 -0.20663701 1.1754522 -0.30514792 0.69068414 0.1367748 -0.045833465 0.6228098 0.3892217 0.40064058 -0.28691843 0.7244188 -0.025729025 -0.12423224 0.8743517 -0.46831623 -0.04221293 -0.3994657 -0.20343453 -0.19539423 -0.14321518 0.632866 0.36473215 -0.17191412 -0.9506161 -0.5619579 0.40657577 -0.6123525 0.65330756 -0.5123463 0.7755449 0.2941334 -0.09465337 0.13408384 -0.68548065 -0.51976216 0.117965214 0.47293696 0.20894574 -0.8234037 0.6564554
1894 0.85925573 -0.5578209 -0.8871806 0.26687843 0.3154228 -0.023074754 -0.14845745 -0.6413064 -0.25780836 0.108591236 0.5794596 0.03457404 -0.41523856 -0.35750306 0.53075445 0.040588874 0.5224526 0.13035831 -0.0694099 -0.53935724 0.22807337 0.42343998 -0.3278731 0.036573574 0.001653053 0.73998225 0.2511677 -0.3633012 0.5167739 0.10598212 0.077927135 0.06384813 -0.3302842 0.4046795 0.14293839 -0.5845604 -0.23736113 -0.26678923 0.7081617 -0.2601885 -0.6926817 0.20105115 -0.24024215 0.85961497 0.6189918 0.21237418 0.75428253 -0.35799778 -0.22057386 -0.30780745 -0.19496869 -0.3617905 -0.45139492 -0.5640999 0.7657509 -1.097887 -0.047901187 -0.09759324 0.19828106 -0.35764316 -0.34495115 -0.87775344 -0.10726277 0.29406747 0.26591262 -0.42522144 -0.84062934 -0.0032644344 0.49677005 -0.73273635 0.48252198 0.20682599 -0.32562658 -0.41869703 0.31998736 -0.05644717 -0.72261214 0.8044724 -0.2668906 -0.91574097 0.11738129 0.37150803 0.81925756 0.042219132 -0.8257567 0.39822835 -0.29188585 -0.58061767 -0.02956388 -0.5581375 -0.76337427 -0.04742962 -0.35515648 0.18711254 0.259531 -0.5006453 0.26513842 -0.18187392 0.15375437 -0.110401906 -0.13962956 -0.265585 0.35801715 -0.21348405 0.070720546 -0.12711377 -0.07865563 -0.16300766 1.1176665 -0.26179746 0.08442458 0.44511196 0.1851732 -0.30834994 1.3526064 0.26455542 -0.65661573 -0.2864228 -0.11963124 -0.59309965 -0.3939089 -0.45124432 -0.38235506 -0.08279823 -0.23384127 -0.63660693 0.2808762 0.27216423
2367 -0.55117786 0.41632318 -0.42219913 0.66141737 -0.12503152 0.0077530337 -0.11046486 -0.38064346 -0.3693811 0.41374144 -0.2418795 0.0237555 0.12461745 -0.62524056 -0.5276239 -0.26966843 0.3520652 -0.019625962 0.937226 -0.1856039 -0.33525667 -0.008201272 -0.7265282 -0.072902516 0.70604146 0.8226776 0.19990334 0.46566018 0.8084164 0.10497299 -0.14158957 0.270742 -0.32108948 1.0276496 -0.48709688 0.12886296 -0.056499995 0.5767182 0.5032747 0.61708534 0.4533482 -0.071923584 0.28592995 -0.27055687 0.9812213 0.79267204 -0.036235996 0.35323966 0.8189633 -0.5952652 -0.746258 0.10974733 -0.17839986 -0.52221316 0.34886956 -0.6840949 -0.53573936 -0.2353311 0.24939069 -0.12705922 -1.3979205 -0.70213705 -0.24217565 0.2933253 0.4098435 -0.020524366 -0.4759236 -0.9582258 0.2589854 -0.48944667 0.6492022 0.31474304 0.5850862 -0.6747079 0.99975836 -0.46793628 -0.06752597 -0.9208454 0.06614371 -0.9592056 -0.39662653 -0.8332643 -0.80976385 -0.030849347 -0.5138361 -0.21065576 0.6029738 -0.48150802 0.28984174 0.7093346 -0.468256 0.76812184 0.524668 0.4068556 0.60289 0.16890427 0.033446416 -0.9320049 -0.41531867 0.008248687 0.58427274 0.43062687 0.050875682 0.374825 -0.23463653 -0.1291921 -0.21207407 -1.0743105 0.8478817 -0.22456974 -0.0033239017 -0.024704898 -0.5088462 -0.30627385 0.21456285 -0.082890265 -0.048442386 0.24696133 -0.2737563 -0.7548199 -0.654015 0.08533377 -0.6571558 0.7065565 0.0022848037 -0.63043857 0.2640374 0.18787983
2359 -0.30799344 0.45033282 0.31515995 0.3641764 0.5665362 0.35719788 0.0074600875 -0.29804748 -0.014062739 0.38141307 0.64496255 0.042326406 0.030871006 -0.86675686 0.1785536 0.24731004 -0.03494958 -0.48429015 0.18166679 -0.015652793 0.16784523 -0.55794233 -0.30384246 -0.6429667 -0.48517895 0.23441811 -0.36749363 -0.5333898 0.1735006 -1.1241208 -0.21191826 1.145075 0.013496428 0.12730044 -0.57636344 0.47839192 0.5694937 -0.24633749 0.49984655 -0.15056413 -0.39867583 0.90845877 0.39976886 0.72779566 0.8443779 -0.24550557 -0.31837693 -0.5245395 0.5422366 -0.46355325 0.34154773 -0.58975065 0.7537561 -0.3400742 -0.19224088 -0.010988564 0.07855643 0.04244753 0.36815464 -0.055672165 0.07997496 -0.5736954 -0.2650555 -0.20597193 0.84889746 -0.5090628 0.14927197 -0.05903588 0.33327037 -0.04881916 0.032395378 -0.35089675 0.15461265 -0.10101413 -0.24175856 0.40574402 0.17118624 -0.13838124 0.23980413 -0.31280914 0.067699075 -0.48645106 -0.11005939 0.6121776 0.25926122 0.7210168 0.56537306 -0.79130584 0.6783234 1.1277947 -0.106295496 -0.5476099 0.23291092 -0.57988673 0.24613327 0.34644184 0.24871224 0.23256266 -0.79533273 -0.0019210473 -1.0535752 0.7396584 -0.20859928 -0.05366707 -0.26089793 -0.53234965 0.38455573 0.33624467 0.4453498 -0.5396024 -0.5208201 -0.48150706 0.13028258 -0.2661609 0.9726418 0.45304137 0.047334656 0.72086567 1.1482594 -0.023874396 0.1565798 -1.1549338 -0.96248704 -0.11281846 0.19133224 -0.8983091 0.013517767 -0.5454753
2685 -0.11311249 -0.3103812 0.41269633 -0.018815108 -0.36162174 -0.7517819 -1.0474817 0.47500443 0.6620484 -0.3622036 0.8272596 0.50596786 -0.045758426 0.015670152 -0.2808579 0.30066362 -0.050003365 0.8168093 -0.6624829 -0.31941938 0.5824008 0.30020452 -0.14032392 0.32230377 -0.5544758 0.43823564 -0.3948417 -0.080554105 0.80937666 0.055551104 -0.4202999 0.65375996 0.75047404 0.5103992 0.3912318 0.21218203 0.55598885 0.26958022 0.079512574 -0.094033815 0.48333985 0.13101704 0.0041034454 0.65093035 0.7026714 -0.32967883 -0.6663512 0.45603836 0.70097864 0.17773055 0.7297947 -0.034986086 -0.24430643 0.3046999 -0.18686743 -0.6864735 0.31011683 -0.19419348 0.6272606 0.116720825 -1.3710757 -0.19130233 0.016957125 -0.44112012 -0.18141423 -0.25877625 0.21896423 0.27016753 0.40393513 -0.49620458 0.31280813 -0.22642957 -0.8103921 -0.16543669 0.9151716 0.15569039 -0.45670334 -0.16984668 -0.48190844 0.07729942 0.2829655 -0.057496034 0.072809726 -0.1702596 -0.7482294 0.8990523 0.19179669 -0.43009272 -0.028809793 1.1681495 -0.72069716 0.2710448 0.1780305 0.5052551 0.14345501 -0.29907483 0.7505501 0.0019916655 0.22978996 -0.4422368 -0.31999546 0.5749689 0.09018431 -0.31251654 -0.7470373 -0.25096554 -0.19506139 -0.51859355 0.28435785 0.03762287 0.25452372 -0.6317955 -0.63775307 0.024705376 -0.315979 0.44913918 -0.4731336 0.7828663 0.5237179 -0.9841918 0.008283779 -0.7093167 -0.11566002 0.4892273 1.0236597 0.5476744 -1.211998 0.8775149
2123 -0.45005348 -0.32727548 0.3742105 -0.10243264 -0.33149666 -0.44359452 -0.35168916 0.14383438 -0.49598214 0.46752656 -0.0986951 -0.2774187 -0.26670876 -0.16856578 0.28482643 0.019683179 0.04382445 0.7228275 0.19221108 0.45960295 0.07056337 -0.115760036 -0.07473567 0.54746443 0.03169426 -0.29845443 0.014845311 0.5531063 0.3677666 0.10583046 -0.32206035 0.27230448 0.50000405 -0.12487471 -0.0626598 0.1795802 0.5461384 -0.78549564 -0.14538118 0.26722583 0.16708514 0.38582635 -0.37421066 0.054062705 -0.20604958 0.577565 1.078755 0.47490698 -0.23577107 -0.45790067 -0.21254699 -0.74218524 -0.07125888 -0.991373 -0.067151785 -0.9216051 0.2562061 -0.22097199 -0.77420115 0.36108753 -0.33830407 0.19619408 -0.19577312 0.099556476 0.4737543 0.04964977 -0.53624725 -0.24136956 0.177121 -0.5197858 0.30939132 0.6690194 -0.971028 0.5093572 0.5178004 -0.60507727 -0.19270168 -0.8422169 -0.5628298 -0.36313796 -0.30335298 -1.161018 -0.8952818 0.17278488 -0.08594169 0.7372616 -0.5183835 -0.22849262 -0.16748336 0.59355235 -0.523579 0.020782841 0.55257237 0.43586108 0.012000024 0.95305306 0.20241575 -0.6226753 0.29265425 -0.23099458 -0.48795155 -0.5048403 0.72863865 -0.38562742 0.12562105 0.60572815 -0.45290276 0.27879345 0.9899139 -0.2995848 -0.18912622 -0.4066842 0.012420483 -0.10401366 0.51199174 0.30703264 0.07042885 -0.15002629 -0.19339469 -0.78209376 -0.034918778 -0.11366114 -0.51601964 0.34665233 -0.5847147 -0.3185035 0.3926762 0.16388594
2122 -0.12219322 -0.6816042 0.5141671 -0.44404823 0.05042717 -0.14256018 -0.7517337 -0.082976066 -0.6025112 0.23835403 0.13873927 -0.8005347 -0.4119471 -0.22698979 0.22637936 -0.047997724 0.36024755 0.6390401 0.39725778 0.34857005 -0.07398136 0.26153514 -0.40259075 0.5120299 0.113572836 -0.19859248 0.17729363 0.65765214 0.43632174 0.3261805 -0.072448 0.41135335 0.37819263 -0.081718706 -0.13742642 -0.0142961405 0.4091315 -0.65243375 -0.124516316 -0.01167581 -0.08013924 0.18402183 -0.17692412 -0.13006213 -0.36608747 0.45046648 1.267526 0.19653325 0.03800032 -0.2552397 0.32190526 -0.7451456 0.2876491 -0.6610023 0.1952378 -1.0275201 0.09856909 -0.24352908 -0.8395131 0.25276747 -0.7284681 0.118330896 0.2565184 0.07611449 0.8930172 0.5284032 -0.2530273 -0.48801872 -0.10724604 -0.6046847 0.47895744 0.76361775 -0.7937977 -0.29518005 0.55455756 -0.3403227 -0.3657964 -0.861296 -0.31307223 -0.028221564 -0.26772845 -0.68700385 -0.36594623 0.2567502 -0.45604837 1.0108947 -1.092438 -0.10700259 -0.3348358 0.7510984 -0.45978042 -0.24631993 0.43669078 0.17845903 0.27607173 0.19933805 0.42332283 -0.2620022 0.2836594 -0.04867227 -0.11175793 -1.0810794 0.8355876 -0.7020605 0.15403144 0.4241316 -0.47464567 0.2607722 0.81829923 -0.06749978 -0.09197528 -0.652365 0.1319993 -0.007530411 0.6062863 0.3172026 0.5454244 -0.09849058 -0.26903304 -0.78022563 0.053988453 -0.15662992 -0.5308334 0.06715874 -0.1120737 -0.9452644 -0.17908013 0.02915903
2169 -0.9100351 -0.10293277 0.0017392336 0.041476615 0.59101516 0.14703059 -0.83808345 -0.80628514 -0.36127672 -0.051017463 -0.0302709 -0.17363042 -0.4348601 -0.37008634 0.09543304 -0.41272244 0.04981245 0.36228907 -0.061249077 0.36883596 0.11823921 0.5905688 -0.061135013 0.4624421 0.11636456 0.54020286 -0.87809587 -0.09313026 0.0067520686 -0.5762978 -0.99809986 0.19698568 0.21304215 -0.34233916 0.5547752 0.62813467 0.64030206 -0.16708349 0.37110722 0.61646116 0.39680812 0.09167113 -0.10465527 0.14741848 1.4577473 -0.031400777 -0.15995638 0.418261 0.13319483 -0.26569152 0.5928698 0.448202 0.18646896 -0.36564317 -0.06588135 0.017410008 0.5396682 -0.04151687 1.004231 -0.073394634 -0.087636136 -0.705291 0.598763 0.7418662 1.1666598 -0.25058317 -0.5340194 0.3052171 0.046044704 0.25077674 0.81276464 -0.7345527 -1.0228937 0.4428628 0.3725539 0.9162921 0.19372368 0.0894361 -0.6546523 0.055227753 0.102801755 -0.07353884 0.31000748 0.57225907 -0.2160699 0.9570786 0.8427513 -0.42888418 0.9560663 0.69118047 0.01598682 -0.49449316 1.272704 -0.80383444 0.4297362 -0.106300995 -0.21584447 -0.43328053 0.42596602 -0.20390016 -0.26061937 -0.23913501 0.17393944 -0.2585433 0.9387788 -0.026980469 0.36759254 -0.05641414 0.3582307 -0.46278122 -0.025003057 -0.8189719 -0.13689832 -0.03203727 0.046458647 -0.06961032 0.58520037 0.16821453 0.5179848 -0.91168994 0.2742454 -0.5973178 -1.3433892 0.74361986 0.5048043 -0.10421061 -0.87692934 0.50586915
2133 -0.82404965 0.032749057 0.19137482 -0.40991786 0.269695 -0.3219144 -0.69359934 -0.97223234 -0.40676308 0.19977394 0.8241231 0.6755062 -0.11555249 -0.59817255 0.1060364 -0.24802285 -0.11862459 0.27685842 -0.85350364 0.8056789 0.5871792 -1.0155724 -0.9381089 0.5868172 -0.7207832 0.70782954 -0.27290523 0.040616676 -0.30236068 0.12820359 0.026409332 0.3249463 0.7316792 0.13257317 0.2721781 -0.17947166 -0.36824262 0.35707462 0.2343252 0.4578717 -0.45464018 0.45310733 -0.18706416 0.19052324 0.9112078 -0.277281 0.2987548 -0.14825977 0.7085801 -0.024769576 0.13007602 0.24388011 0.2933274 0.78146344 -0.08347188 -0.21565008 0.13310152 0.63851327 0.12572236 0.37545857 -0.3266578 -0.29090235 -0.035947755 0.017157665 -0.24438462 0.46859363 -0.17629412 -0.055412225 -0.6322466 -0.6415517 -0.82156986 -0.07561098 -0.14052819 -0.23273906 1.2289 0.11579097 0.47166726 -0.712276 -0.06459785 -0.7218077 -0.7537658 -0.7805958 -0.005103446 -0.057510383 0.1839222 0.36262837 0.21095116 -0.42686263 -0.6382532 0.15442592 0.20993534 0.18008935 0.46978897 0.41330937 -0.52820957 -0.2298551 -0.16370599 -0.19105619 -0.11584052 -0.6283768 -0.70197636 -0.5281174 -0.2532911 0.063177526 -0.10976227 0.3765721 -0.4550352 -0.4655987 0.054569326 -1.0867732 0.06607306 -0.15394284 -0.49065354 0.14869873 0.014412653 -0.21710491 0.08153635 -0.16546464 -0.16826712 0.09330988 0.07815206 0.38798591 0.10288169 -0.05445602 -0.15024243 -0.021049641 -0.6111253 0.47252408
1927 -0.21066836 -0.0100660855 0.48883522 -0.3346825 -0.018105827 0.10318645 0.09165396 -0.6380301 -0.28921542 -0.7987365 0.6982006 -0.0981124 -0.1633882 -0.93958294 -0.2814325 -0.2558298 0.7254271 1.0715729 -0.25191143 -0.24683008 0.28659388 -1.3810596 -0.38268557 -0.31180298 -0.84001493 0.44547832 -0.50764185 -0.049759336 -0.026279915 0.39592713 -0.5918783 -0.6913004 0.431381 0.077898465 -0.67935085 -0.3153695 0.015771473 -0.11441026 0.31933066 0.25679785 -0.5248723 0.0056973435 -0.23593362 -0.14539465 0.5391418 -0.034231365 0.30014056 0.057225414 0.28918502 0.17243725 0.3420088 -0.55550575 -0.85342664 0.11455704 0.63187665 0.17015113 0.48720297 -0.4530552 -0.13657373 -0.09266389 -0.38899288 -0.10828761 0.39270696 -0.437282 -0.6778605 -0.17518699 -0.077158466 -0.2580501 -0.47479454 -0.3899521 0.4933684 0.22023013 -1.0645412 -0.67591834 1.2210969 0.69369584 -0.13022254 -0.35864782 0.3050955 -0.08494323 0.57467216 0.090366445 0.15072545 -0.19646081 -0.14922997 0.4444944 -0.8166838 -0.826251 -0.15397362 0.061607096 -1.2180682 -0.06322084 0.095905125 0.14017709 -0.6350884 0.23286624 0.14703125 -0.21236686 -0.31944326 -0.036399137 -0.4612942 -0.100207664 0.801745 -0.20341866 -0.4472165 -0.070015065 -0.232153 0.13477428 -0.12901147 -0.7648671 -0.21629861 0.39589077 0.8955679 -0.054605015 0.56452984 -0.4339518 -0.38714382 -0.23565039 0.42806047 0.09391235 0.1586986 -0.6155618 -0.708829 0.12945023 0.7683617 -0.6473786 -0.004952151 0.18511209
2450 0.22271371 0.7476877 -0.27619857 0.21109395 0.4499727 0.56155694 -0.7428236 -0.58954865 -0.36697617 0.6656798 0.23943324 0.006571258 0.33247718 0.90156657 -0.4726683 -0.9433995 -0.44575366 0.13125557 0.7279302 0.22576965 -0.3938237 -0.03454061 -0.6104991 0.80332077 -0.3587932 0.45750898 -0.16901286 0.37604016 0.117745705 0.17166923 -1.0055163 -0.008817369 -0.22598018 -0.7501363 -0.7378944 -0.13827568 0.19069637 -0.40364838 0.83306944 -0.38475516 -0.11964931 0.67892504 -0.31940502 1.3056494 0.8890736 -0.0053447112 0.5815211 0.7716147 0.30911428 -0.3442606 0.61997813 0.41764143 0.47222492 0.5456066 0.15547366 -0.39908037 0.64898485 -0.3392489 0.7812517 -0.2722205 0.14811814 -1.159508 0.24240486 0.44921103 -0.15221365 0.17241591 -0.059826072 -0.13522518 0.19628093 -0.49089852 0.72696376 0.22943586 -0.72869754 -0.07404644 0.32168433 0.30837843 0.55949265 -0.5986697 -0.34015435 -0.67824596 0.48598868 0.3550091 -0.12903547 0.6170807 -0.23373057 0.2570423 0.2860842 -0.054496966 -0.2423149 0.5105059 0.73302144 -0.4630985 0.3924677 -0.4652058 0.31415537 -0.019161148 -0.11579494 -0.22882603 0.30583414 -0.09809717 -0.14736675 0.1901356 0.38832796 0.30599108 0.17828059 0.27355266 -0.350677 0.5826201 -0.19479652 -0.47359687 0.2743015 0.6314278 -0.7973223 0.66319805 -0.40136123 0.04147917 1.1604549 1.4691373 0.41971502 0.17639057 -0.7638962 0.1643538 -0.02766943 0.24072073 0.6062665 -0.79306066 -0.38821405 0.70269877
1542 -0.35272178 -0.06561322 0.0028248408 -0.20983009 -0.05125506 -0.48845795 0.12887417 -0.024626791 -0.45347932 0.32972994 -0.69161814 -0.0050067357 -0.3508159 -0.19611242 -0.2412083 0.36643103 0.25260958 1.2781982 -0.35136014 -0.08114675 0.102052346 -0.2520028 -0.63733906 0.6540271 -0.28332093 0.22278275 -0.43966562 -0.008537218 -0.23532467 -0.6754672 0.31812242 -0.06363368 0.002591178 0.048305687 -0.21787667 0.37779814 -0.15223965 -0.27894786 0.15632735 0.15954955 0.3781884 0.38109452 0.40960217 0.2662481 0.57856894 0.32968193 0.72496635 -0.4238324 0.1870087 0.25377107 0.18721959 -0.046343386 0.38977656 0.126089 0.22892235 -0.46908605 0.20117381 0.16349033 -0.5290539 -0.13504887 0.1942361 -0.11771975 -1.2001871 0.17796692 0.3130861 0.057922762 -0.3399911 -0.66575676 0.10922584 0.4068314 0.34974155 0.4966987 0.117863655 -0.9088108 1.2261928 0.84187156 -0.629095 -0.3396947 -0.11436763 -1.0124807 0.724109 0.00090473547 -0.30972204 0.15399252 -0.07459009 -0.19845046 -0.5508297 -0.5666159 -0.17014612 0.47904232 -0.6693046 0.23443706 0.84443015 0.049810182 -0.037309293 0.280652 -0.17736807 -0.43684438 0.5927192 -0.13222307 -0.4185908 -0.59273 -0.31361985 -0.069104336 -0.23593542 -0.20502807 -0.6335139 -0.11962662 0.31603536 0.008466651 -0.2522351 0.5004317 -0.5854522 -0.14561327 1.0769922 0.14361237 -0.016364967 0.29868436 0.13420813 -0.34828475 1.3198586 0.43573597 -0.33050177 0.9097967 -0.53651565 -0.3061823 -0.14596489 -1.0931123
2270 -0.88970786 -0.643498 0.0423011 -0.19568495 0.20627195 -0.13585272 0.19246304 -0.33686218 -0.6302945 0.16405442 0.028358577 0.45112294 -0.98433125 0.03170563 -0.27467158 -0.11099583 -0.15613958 0.38036165 0.025753656 -0.9610668 0.17481413 0.16066834 -0.61972356 0.8789805 -0.12994742 0.46992 -0.20685776 0.40556228 -0.28764328 -0.32334515 -0.24373148 0.43853614 -0.054642767 0.1949869 0.24627922 -0.15509318 0.566923 0.46435726 1.0955245 0.038387015 0.56714946 0.5063926 -0.01375804 0.2135865 0.068796754 0.08431196 0.12904194 1.0233464 0.297017 -0.0017948861 -0.108423725 0.3172733 -0.26252517 0.10356076 -1.2499547 -0.8406669 0.23127952 0.29921958 -0.82239765 0.35260534 -0.55356115 -0.87182087 0.3330614 -0.38779637 0.2870578 -0.52166456 -0.16945612 -0.56484556 0.46500224 -0.40803522 -0.2947112 -0.9241823 -0.19732322 -0.9117383 0.1454013 0.7016216 -0.13119197 -0.66703814 0.057665166 -0.30685866 0.36353773 0.1489255 -0.3269497 0.16941206 -0.59284985 -0.06747976 -0.16226742 -0.18543494 0.17316353 0.7879787 0.42661306 -0.3293242 0.53874224 0.060626153 -0.57813025 -0.39082652 0.10691058 -0.34947386 0.32698625 -1.1914166 -0.98487025 -0.84392136 0.24877916 0.79753494 -0.115484655 -0.25995573 -0.92390025 -0.15857516 0.59525645 0.15917033 0.45303956 0.9008575 -0.25402862 -0.24742971 -0.83983386 0.4666112 -0.8446502 0.64392287 0.5089416 -0.30740893 -0.4368506 -0.3824376 0.1268012 0.766196 -0.28514835 -0.823813 0.46664932 -0.3322174
2292 -0.9327442 0.71520174 0.34894174 -0.99176615 0.5215759 -0.626352 -0.79159874 -0.35492498 -1.2005469 0.57527 1.2838483 0.7923641 0.4702076 -0.9180322 -0.069478005 0.13385817 0.6066081 0.36681893 -0.009536159 0.5869981 -0.3001961 -1.1796722 -0.036630366 0.67893815 -0.6060652 0.4672243 0.41572952 0.23841834 0.047591083 0.7186078 0.12773967 0.03427268 1.1575516 0.0723155 0.5188887 0.14107667 -0.1378962 0.050988566 0.648686 0.070771195 -0.60312784 1.1704484 0.12658401 0.4279807 0.2958373 0.04039521 -0.024716573 -0.35925475 0.20368215 0.072187856 0.3176035 -0.3882053 -0.27483162 -0.23145993 0.036870666 -0.2853838 0.8345654 0.28370216 0.86820894 0.11847244 -0.6953282 -0.2991114 0.6696171 -0.23736721 0.46455762 -0.010823117 0.4810163 -0.93176997 -0.24341588 -0.7458845 0.06873106 -0.27805752 -0.017649269 -0.64114636 0.10016961 -0.36769092 0.53528804 0.50259745 -1.337148 -0.53311193 -0.20840971 -0.99220246 -0.7621837 0.2740694 0.09001118 0.43238813 0.54299414 -0.47904614 -0.76533484 1.2204412 -0.6683667 -0.57284164 1.6006563 0.1293899 -0.79179966 -0.24893868 -1.0946356 -0.2442418 -0.021388398 -0.028670825 -0.52784556 0.17168182 -0.6481511 0.41516572 0.046478443 -0.39469507 0.021438494 -0.2907212 0.35808885 -0.31260708 -0.19407506 -0.40680635 -0.049284205 0.0152423745 0.29745847 0.044372562 -0.18182941 0.10385744 -0.54391944 0.46427578 0.3311109 -0.65356815 0.26822326 0.092563584 0.557664 -0.7379175 -0.9382399 -0.54437923
973 -0.28114066 -0.5718131 -0.13963829 0.58768 -0.81517667 -0.24200553 -0.31928638 -0.73021156 -0.31567046 -0.39113182 -0.18350753 0.42490923 -0.102290295 -0.6412515 -0.40332347 0.8020829 -0.20461802 -0.25349137 0.4631229 -0.9458619 0.43496618 0.15405215 -0.08489053 0.3796969 0.47874796 0.37042835 -0.31666195 0.46836567 0.69365895 -0.35670224 -0.17726813 0.067432694 0.7091551 -0.41748148 0.09718218 0.56975526 -0.37223038 -0.284197 0.70572466 0.12603404 0.18524444 0.28309298 -0.36303112 0.40499493 0.37849656 0.46825787 0.97866416 0.1931563 0.3246782 -0.18491283 0.028562926 -0.37684253 -0.07614919 0.30723363 0.30307165 0.1252051 0.55663407 0.029599758 0.49500808 0.49560988 -0.4255122 0.23821089 0.98550785 -0.9958093 0.2512551 -0.059831996 -0.37936032 0.9454106 0.46351835 -0.20181267 -0.24890077 -0.28659123 0.39148948 -0.43907145 0.8752018 0.08093781 0.6086356 0.24222542 -0.3017514 -0.307596 -0.18362951 -0.22211687 -0.16619927 -0.14720735 -0.54377204 -0.30167374 -0.349939 -0.59748673 -0.30959105 0.69265115 0.20031506 0.20982833 0.6554504 -0.3269926 0.13754258 -0.08014327 0.77094275 -0.54810464 -0.41665313 0.3356921 0.023252591 0.47779799 0.17747134 -0.27127346 0.1452197 -0.20051086 -0.6302987 0.3703041 0.48662543 -0.11981313 0.52072245 0.12031421 -0.48290476 0.26369515 0.15192707 -0.675053 -0.38926315 -0.16919184 0.11887672 0.10576971 -0.18834785 -0.20068517 -0.2267932 0.5373914 0.101642765 0.48321444 -0.50064874 0.09779645
1903 -0.45841497 -0.3121886 0.07500824 0.5181093 -0.019462667 -0.29685533 0.29672074 -0.83516645 -0.8568964 0.53430355 0.10002852 0.71695143 -0.30566856 -0.6617827 0.50344765 0.48607352 0.010791391 -0.0430305 -0.639109 -0.6277983 -0.28507558 0.5308867 -0.8838382 0.34208682 0.054074697 -0.053926613 -0.44598046 0.32830277 -0.27164194 -0.39734825 -0.3848739 0.71008337 -0.175784 0.2167691 -0.29442045 -0.50657076 0.36878094 0.46972075 0.55047756 -0.4208209 0.10760729 0.25358394 -0.46148616 -0.18755063 0.65063465 -0.4703121 0.090660006 0.5933038 0.4658538 0.6800925 -0.44303697 0.094492696 0.19492845 -0.29635212 -1.3985215 -0.2601995 -0.26930416 0.20079286 -0.60746753 0.2884434 -0.22958106 -0.73790896 0.44870567 -0.10871349 0.2994899 -0.7063259 -0.30305418 -0.71241796 0.6279237 0.1349179 0.24504697 -1.0852606 0.36690494 -0.44219655 0.7420773 -0.13941844 -0.5338185 -0.30970854 0.21238449 -0.4689677 -0.9248411 0.08712752 -0.14744666 0.0013101698 -1.0088303 0.58773774 -0.49552768 -0.116444856 0.28036058 0.8032997 0.35715285 0.011825158 0.42586166 -0.32854906 -0.28183812 -0.110142834 0.3943144 -0.048091915 -0.45933554 -0.63857 0.06362991 -0.2590687 0.44259167 -0.11197628 -0.1961196 -0.18167767 -0.18985938 -0.4905663 0.21172412 -0.023524392 0.7012289 0.39586818 0.020952402 -0.024719963 -0.5607157 -0.093484685 -0.43638188 0.05287238 0.8895986 -0.5716134 -0.1295003 -0.29289865 -0.42773995 0.8674961 -0.28941968 0.3762842 0.17652617 0.2942335
2241 -1.051027 -0.53697705 0.25139385 0.06725929 0.23404881 0.6375409 -0.0019857453 -1.3253531 -0.5280206 -0.6583794 -0.3563902 -0.19138692 -0.79473144 -0.06457313 0.89975536 -0.15872091 0.49775654 -0.05045455 0.29455224 -0.3004541 -0.086804606 -0.28949434 -0.26490417 -0.32870036 -0.22522476 0.021469181 0.2517019 0.63227475 0.029708385 -0.1930032 -0.16094491 -0.030382259 0.679025 0.31333187 -0.99862564 0.012419808 0.6446878 0.31598526 0.6201983 -1.0765477 -0.29790348 0.7827488 -0.54666156 0.21284005 0.4761635 -0.45056874 0.40249068 0.006118189 0.685291 -0.2901284 -0.2568486 0.9154874 0.6470098 0.06733991 -0.4236033 -0.24030493 0.07690663 -0.123034745 -0.095593914 -0.19711205 -0.27792707 -0.31714082 1.2108015 0.84118366 0.21146539 -0.68876725 0.13556676 -0.45686036 0.11862845 -0.48871884 0.13945751 -0.12905394 -0.31014788 -0.10250763 0.48146915 0.15889178 -0.093121745 -0.046417844 -0.11184352 0.19949928 -0.81841964 0.045591243 -0.53530526 -0.40337843 -0.026993398 0.004364573 0.041986518 -0.62455577 -0.25260532 0.26097697 -0.353321 -0.6556948 0.9988029 -0.059437364 -0.14051032 0.042239152 -0.39294496 -0.19202542 0.092678614 -0.10287151 -0.16861261 0.41545454 -0.26659718 -1.1020261 -0.3584283 -0.19442149 0.054818295 -0.18539734 -0.62311125 -0.14643419 0.106779635 -0.32076892 -0.35329795 0.26358044 1.1210537 -0.31331447 -0.8527507 0.77062327 -0.13783266 -0.3461939 0.17626001 -0.18901938 -0.39310548 -0.13653022 0.2554794 0.026278246 1.1163673 0.17441903
2155 0.01715038 0.03889974 0.38807434 0.7757174 0.24568304 -0.027119203 0.56838244 0.08599359 -0.26979688 0.0958635 -0.17336904 0.95869905 -0.51723605 -0.48949203 -0.24607264 -0.30440006 0.5476391 -0.52272236 -0.252774 -0.067229316 0.6859582 -0.39191106 -0.24796776 0.09813159 -0.20146978 0.62910026 -0.38824987 0.4712426 0.39596754 0.5286328 -0.6349143 -0.20490912 -0.43181893 -0.3060313 0.021579413 0.029448202 -0.10472956 -0.19009855 1.0125927 0.33959097 -0.043678824 0.50013065 -0.24083684 0.4871993 0.33731472 0.022499116 0.30855507 0.62568927 0.2699971 -0.6667421 0.31747183 -0.4434589 -0.48435333 -0.15107939 0.99068207 -0.13561638 0.20137106 -0.36476454 0.4862352 -0.31418887 -0.5616897 -0.22358611 0.062412325 -1.1104739 -0.4759307 -0.48320165 0.05968826 0.92967916 0.060358785 -0.6491824 -0.79273605 -0.13618554 -0.2323982 -1.1519715 0.6248327 0.15521972 0.13001639 -0.419274 -0.60962576 -0.18556932 0.5062992 -0.10672685 -0.6341755 -0.16389692 -0.33712018 0.72414315 0.21174417 -0.3097508 -0.2846048 0.36465278 -0.4354235 -0.24488737 0.3684318 -0.3382443 -0.49475142 -0.32607338 1.3872185 0.39507794 0.27484545 -0.31742045 1.10397 -0.31120265 0.049294166 -0.430808 -0.22029918 -0.41870725 0.3980768 0.13312817 0.08887281 -0.8644001 0.46937722 0.5517435 0.094551146 0.02244783 0.18770054 -0.19271111 -0.12413486 -0.24638924 -0.058283377 0.23237967 -0.33957002 -0.217583 -0.33885154 0.690953 0.014810186 0.031335942 0.94983816 0.43921617
1692 -0.92210597 -1.0074567 -0.3639864 -0.0586359 0.016242182 0.3726602 0.020389376 -0.6134532 0.3551725 0.39390862 0.19557011 0.11712322 0.06755823 -0.27096927 -0.292425 0.29806548 0.009860103 0.27073914 0.013466928 -0.10945652 -0.56923026 -0.97966135 -0.90756565 0.24016115 -0.14676088 0.33145612 -1.1332667 0.76655525 0.29280162 0.021175224 0.20294444 0.5076967 0.27742058 0.3377807 0.028409153 0.23506644 -0.090566024 1.0219879 0.037333652 0.26293102 0.25545797 -0.29073706 -0.051335745 0.3769082 -0.0058565536 0.37807152 1.5489305 -0.0316487 0.29680023 0.09646276 -0.3881128 0.07285499 0.21770343 0.14480945 0.064222015 -0.14732291 -0.05969584 -0.06848896 0.6338845 -0.24053204 -0.1750328 -0.31904486 0.8082938 0.45137513 -0.16135888 -0.1768893 0.09096989 -0.22317562 0.9082387 0.24534608 0.58774614 -1.052755 -0.4647265 0.36596677 0.41470048 0.32822382 0.16111302 -0.6039641 -0.5263033 -0.7664621 -0.43759924 -0.24136932 0.46559638 -0.80053794 -0.5608319 0.6310196 -0.3277028 -0.8362448 -0.13274223 0.9163077 -0.61188143 -0.018569574 0.118502736 0.095079206 -0.31111738 0.43084955 0.26737547 -0.14148636 0.35483155 -0.016203607 1.2854462 -0.25581443 0.025917154 -0.49585992 -0.057926793 0.6834321 -0.27222306 -0.18116254 1.2839673 -0.0897661 0.04369347 -0.42172876 0.46382394 -0.24527673 -0.06626758 -0.014043491 0.026691426 -0.44347838 0.475845 0.18841541 -0.15955737 -0.0056192204 -0.7788064 0.018070731 -0.07458225 -0.51663405 -0.39492863 0.35558414
2025 0.29482454 -0.49758133 -0.27709576 0.22707689 -0.29540044 -0.5683768 -0.09540463 -0.1285078 -0.5572102 0.17780796 0.06755851 0.57383794 0.017635588 -0.421852 0.34599185 0.70488197 -0.26890546 0.37777945 -0.09687316 -0.15360272 0.31667253 -0.17909715 -0.6342351 0.712022 0.55287015 0.6285281 0.16606095 0.30914629 -0.24562341 0.14365777 -0.2087708 -0.04499034 0.36073908 0.07925701 -0.59558666 0.36384186 -0.2448169 -0.17485794 0.85027534 0.5359717 0.2046465 0.18349469 -0.46288052 0.72987485 -0.5744752 0.5126214 -0.042275243 0.09983273 0.3713411 -0.5977887 -0.70742595 -0.4735976 -0.037414975 0.5656202 0.14006516 -0.47803244 -0.11927728 0.1395805 0.59481406 0.58521986 0.045834936 0.026460854 -0.18620612 0.4020188 -0.26373512 -0.1378452 -0.53803277 0.723012 0.30693483 -0.112549745 0.031801432 -0.51149744 -0.42770636 -0.67437524 1.3659236 0.6766659 0.009527983 -0.046631176 -0.16761434 -0.8526214 0.28201535 -0.31286827 -0.44045982 0.6926528 -0.22877671 0.16154668 -0.3126182 -0.4167123 0.05083789 0.32913515 -0.31878555 -0.37139326 0.20950726 -0.62639815 -0.31449792 -0.2572898 0.43120515 0.3496685 0.0123386625 0.056947377 -0.2344718 0.9166347 0.50145304 -0.39408377 0.15883738 0.38106534 -0.44389397 -0.3399588 0.5778485 -1.0273881 0.33570752 -0.45559165 -0.18416214 -0.86000425 0.49759173 -0.26131257 -0.22607704 -0.9279158 0.69044423 -0.12163403 -0.1885722 0.6885674 0.040051967 -0.058402818 -0.044328194 -0.044176117 -0.5495126 -0.39138636
2464 -0.31752968 -0.0025584146 0.2571838 0.16949542 -0.47150403 -0.30962384 0.26707214 -0.2926952 -1.0255905 0.12683116 0.1348374 0.3044856 0.4538034 -0.14979391 -0.40962374 0.48077235 0.5092743 -0.13892388 0.14549194 -0.025190344 -0.018291876 -0.16954494 -1.1937972 0.19277212 0.16240744 -0.045946382 -0.63567966 -0.19649746 -0.4683636 -0.19995359 -0.23971884 -0.12860863 -0.52708334 1.1712862 -0.7243445 -0.49798495 -0.06563315 0.21046889 -0.46545747 0.14054132 0.2826787 -0.34609598 -0.6735383 0.16772316 1.5751382 0.24879529 0.8637282 -0.18546759 0.7968198 0.23268718 0.54758 -0.66139567 0.8153953 -0.13675447 0.673443 -0.122886024 0.1297835 -0.4688881 0.7900421 0.054401137 -0.52200645 -0.2953755 0.0859728 0.28600103 -0.7046158 -0.060915068 0.022375602 0.25198933 -0.2552103 1.1320863 0.08237209 0.392737 0.116503455 -0.13660696 0.7864247 -0.26542485 -0.74786097 -0.11708714 -0.80261075 0.035875898 -1.068345 -0.5199483 -0.73268336 0.1034007 0.86547804 -0.032036748 -1.2179484 0.5095377 0.37130612 0.5210654 -0.70778495 -0.26290652 0.32346046 -1.0761056 0.7468682 -0.21741897 0.270243 0.3683991 0.33016163 0.4111497 0.82329214 -0.11236661 -0.9841513 0.36095542 -0.16334237 0.5305592 -1.0161105 -0.028921628 0.21486275 -0.86499953 0.77876896 -0.4087676 -0.23400238 0.29745027 -0.08915374 -0.4033766 -0.37668324 0.038699087 -0.08593023 0.31023157 0.09345381 0.39194387 -1.1601802 0.41751593 -0.27947477 -0.3450513 0.78498626 0.38818005
1740 0.61958206 -0.32494873 -0.16373801 -0.28296828 0.12334979 -0.09187125 -0.6209599 -0.24940185 0.38325477 0.33895648 0.5582002 0.3375017 0.26639572 0.2839469 -0.50862813 -0.45806116 0.20991352 0.16531646 0.3914492 -0.6933657 0.46706715 -0.279903 -0.39249635 0.3829495 -0.15233633 0.06339553 -0.6368056 -0.51738334 -0.07347203 -0.05718642 -0.5544727 -0.26325738 0.13329645 0.37238523 0.037873015 -0.16756344 0.44609585 -0.17139345 0.0930081 0.29081172 0.3631658 0.6345636 0.096529104 0.47295883 0.5051174 -0.04446183 -0.35781747 0.05238829 0.4840092 -0.06061803 0.30245137 -0.5172293 -0.2290077 0.22060995 0.38441277 -0.1748307 0.48116893 0.14205411 0.5218762 -0.686509 -0.66461104 -0.5664829 0.40506533 0.670322 0.22002351 -0.5939926 -0.34609702 -0.33745077 0.20749103 -0.3919521 0.9175827 -0.12495669 -0.20178506 -0.49029458 0.49109456 -0.009188832 -0.013118306 0.33007497 -0.15483072 -0.16859917 -0.35983706 -0.15975805 0.030605523 -0.06436666 -0.46317947 0.46816358 -0.56551284 -0.794732 -0.38761073 1.1219757 -0.16178627 0.57457787 0.034955516 -0.41268685 0.6284518 0.34100977 -0.32182428 -0.19268847 -0.005125543 0.022917701 0.09858651 0.70630395 -0.5746751 0.47371984 -0.6688505 -0.7780318 -0.2137393 0.24259114 0.50286037 -0.1993299 -0.030839987 -0.578659 0.15493453 -0.019479267 -0.34174404 0.014462086 -0.055465467 0.8058069 0.7149082 0.1953061 -0.44924635 -0.44834897 0.17767115 0.17891634 -0.029531376 0.59558237 -0.4793608 0.7352276
1973 -0.24461183 0.27511826 -0.31996232 0.95204026 -0.5278589 0.2802917 -0.6464653 -0.32968807 -0.29858792 -0.13981049 -0.27256975 -0.25790918 0.13878946 0.53429043 0.8311092 0.047778774 0.6734773 0.5677055 0.37033886 0.046433754 -0.25336272 -0.21638407 -0.07064242 0.26687983 -0.42910513 0.78274786 -0.44953555 -0.37326157 -0.07276667 -0.50277716 -0.27493274 -0.42052218 0.08347007 0.21519458 0.085730545 0.36844885 0.1872723 1.0293063 0.48003918 0.23265012 -0.0649 0.1247257 0.28770396 0.4041176 0.36134627 0.69464636 0.3025236 0.5682131 0.5443418 0.008889539 0.301311 -0.5283752 0.3519165 0.08575675 0.5240809 0.54543036 0.81077284 -0.00010769757 0.5995611 -0.2411423 -0.8494894 -0.80285376 -0.54007655 -0.3966494 -0.2320971 -1.3006878 0.32408118 0.19685858 0.25749424 -1.0505658 -0.6699413 -0.051437788 -0.39718464 -0.72505337 0.71264726 0.35577592 -0.07246772 -0.75682586 -0.96512955 -0.6190134 -0.4137182 -1.1939434 -0.3498788 0.17847766 -0.12203338 -0.62323093 0.50605744 0.11488132 -0.22479467 0.11290284 0.38804603 -0.45316678 0.34125715 -0.44675738 -0.027060416 0.15146491 0.5084857 0.30899185 -0.30776718 -0.8354932 0.4270102 -0.27756745 0.56687343 0.3858801 0.23190765 0.57351965 -0.11873919 0.16153103 -0.46416026 -0.16241382 0.13844107 0.25810328 -0.7787651 -0.06328194 -0.1046346 0.67898613 0.067905515 0.17985587 0.20548515 0.8120073 -0.50192803 -0.06000203 -0.7236968 -0.060563724 -0.27843025 0.059441097 0.43169934 -0.6209442
1776 0.582068 0.42173 -0.36821818 0.23304209 -0.25664985 -0.40813708 -0.50883764 -0.894602 -0.7582366 0.15300398 -0.09008927 0.0038804235 0.11716238 -0.42677867 -0.63840306 -0.8760655 0.87322354 -0.15310429 0.70951295 -0.46927825 -0.11105894 -0.2437011 -0.79986197 0.48982653 0.16557516 0.4217681 -0.11561826 -0.22749466 -0.08107157 -0.49895135 -0.16331062 -0.51357794 0.24396302 -0.5469005 -0.49495682 -0.17825474 0.051385067 -0.5739619 -0.48940393 -0.3308327 0.4729567 0.29599747 -0.33480844 0.59365976 0.48863804 0.45567268 0.23283476 -0.032161754 -0.61179143 0.6714779 1.2936771 0.10627239 0.6736618 0.2668313 0.03510247 -0.72470224 -0.5505519 -0.20384851 0.40385306 0.2775665 -0.22655976 -0.122548446 0.457344 0.22928147 -0.45011598 -0.9215905 -0.302451 0.126318 -0.029242123 -0.98565453 0.4868167 0.14183381 -0.08829049 -0.14272109 0.14953311 0.21116756 -0.22405154 0.20731623 0.048104238 -0.16767497 -0.30585498 -0.29676577 0.54687643 0.39018685 0.39456415 0.0018009203 0.15436964 -0.21947084 0.6184382 0.0006296993 0.3775498 0.30583546 -0.033811048 -0.8982935 0.23498455 0.16017944 0.47563604 0.18740684 -0.20311299 0.119239114 -0.2711871 -0.014369752 0.13493969 0.26005134 0.5888686 -0.19247063 -0.4615352 -0.6230841 0.6693417 -0.09949308 0.4656051 0.7350264 -0.21753356 -0.72327363 -0.61721295 -0.15309677 0.1436662 0.8515885 0.185887 -0.19771083 -0.800528 -0.37008163 -0.06941641 0.34226647 0.18904193 -0.15071814 -0.6777405 0.18083851
2269 -0.871938 -0.55856204 -0.14276667 0.04372319 -0.071071565 -0.14200132 -0.36188456 -0.5551166 -0.3827555 -0.1506164 0.025807153 0.48253682 -0.95457745 -0.12725878 -0.10202284 0.5219914 -0.12909934 0.31357798 -0.20974104 -0.81788486 -0.16878502 0.31289262 -0.52354443 0.937312 -0.051116653 -0.00063266954 -0.24557394 0.43215936 -0.65355724 -0.6212346 -0.025683599 0.6133738 -0.08932033 0.038674287 0.27592808 -0.39543638 1.0913371 0.3091828 1.1044997 -0.25589803 0.08875428 0.44606116 0.20331872 0.20580101 0.13953102 -0.21914457 -0.050499305 0.8625536 0.20552488 0.25778994 0.08187887 0.60956717 -0.14466159 -0.02024356 -1.0452383 -0.58202285 0.09949923 0.034558587 -0.7541834 0.52243626 -0.70984936 -0.44534463 0.48648995 -0.41020966 0.021387232 -0.49979687 -0.16001815 -0.7439948 0.7294708 -0.5631771 -0.29851818 -0.78282577 0.07944563 -0.7988496 0.3978147 0.52521056 -0.34349784 -0.3615805 -0.26710728 -0.1309329 0.21332231 0.096999794 -0.18326141 0.18479788 -0.5765637 -0.03865027 -0.6447979 -0.15166643 0.18572477 1.0615808 -0.023882382 -0.5207579 0.62133425 0.08297426 -0.6345209 -0.13879192 0.27864957 -0.23361845 0.3449888 -1.0068313 -0.9981893 -0.5017211 0.45410287 0.69541836 -0.22198552 -0.24766816 -0.6661152 -0.1535024 0.17962396 0.12289028 0.30418864 0.28872445 -0.32023716 0.05996655 -0.6537485 -0.09959443 -0.7365578 0.25622404 0.6959129 -0.18190658 -0.24625894 -0.6868069 -0.38851845 0.41697723 -0.39406258 -0.23931916 0.42517692 -0.13671851
2238 -0.18785617 -0.07499932 0.13143936 -0.7763178 -0.23626235 -0.1174619 -0.26672313 -0.6504446 -0.60376996 0.26804247 -0.48671082 0.07057775 -0.1668031 0.56918514 0.20918272 0.94841677 0.63393974 0.33572868 0.37686563 -0.05932763 -0.11120855 -0.12518294 -0.9638562 0.16359381 0.52779835 -0.33312035 0.36126697 0.72704977 -0.39248508 -0.09791103 -0.28984633 -0.069346465 -0.5084413 0.019609455 -0.07250853 0.6302722 0.21868557 -0.26920682 0.41167358 0.57236874 -0.19312803 0.5533692 -0.2212852 -0.08960162 0.10960425 -0.4572516 -0.15878847 -0.019767255 -0.36565885 0.16894731 0.07685202 -0.005121855 0.96842873 0.32701892 0.12740852 -1.0891647 0.060255706 -0.6779273 0.2583892 0.51138407 -1.5637381 -0.13841741 -0.024112295 0.37281567 -0.24864905 -0.6997268 0.11894612 -0.10366383 -0.47680506 -0.37865573 -0.0037481675 0.3730254 -0.32111263 -0.33074668 0.9577322 -0.8525832 -0.34514362 -0.5225355 -0.41551667 0.03787426 -0.19979893 -0.66045725 0.49539644 -0.10442056 -0.24353851 -0.14752395 0.50710475 -0.86243594 -0.3552101 0.55136824 -0.7806813 -0.46639574 0.02059094 0.12911591 1.0109633 0.6287151 -0.004547691 0.22751369 -0.3091944 0.074285746 0.3583422 0.03017164 0.5223205 -0.6099255 -0.45584455 0.63578415 -1.5347719 -0.21395373 0.27324405 -0.5678916 0.35040647 -0.5606603 -0.13658103 -0.5861011 0.007354567 0.6908787 -0.21011692 -0.7024322 -0.53520113 -0.02217249 0.7620309 0.49829662 -0.7359629 -0.7275191 -0.39534044 -0.44886085 0.14575373 0.43708357
1966 -0.31955546 0.19982463 -0.26826808 -0.4175469 -0.15759951 0.20425306 -0.32037705 0.36620256 -0.37596598 -0.40260908 1.0606493 -0.066248335 -0.13925295 0.45781377 -0.31972265 0.21334597 0.77240413 -0.71576744 0.93666303 -0.41531253 -0.6715452 -0.75098366 -1.2832503 -0.23706028 0.44107062 0.13020252 0.31767398 0.40097418 -0.5591867 0.19874074 -0.37483284 -0.66483176 -0.58776456 -0.19863339 0.28437558 1.0490867 0.3499532 -0.10054802 0.2507579 0.41439763 0.21927074 0.26544747 -0.6844818 0.2875605 0.39746812 -0.14390622 -0.2101007 0.63146627 -1.0294552 0.4527263 0.6823213 -0.40709424 0.63551915 0.29617125 -0.032093488 -1.1373465 -0.07337537 -0.6254119 0.15163991 0.31046173 -0.74395835 -0.46635672 0.51711047 -1.1555363 0.10702937 -0.86923444 -0.08446145 -0.08199997 -0.641096 -0.4999859 -0.097070724 -0.43067062 -0.025867406 -0.5886004 0.503513 -0.044010486 0.28676924 -0.021543076 -0.82162225 -0.05343411 -0.15619777 -0.6906651 0.38243783 -0.21694638 -0.075380005 0.0045705736 -0.048073575 -1.0003213 0.37393934 0.12860402 -0.65157115 -0.21213868 0.033991795 0.53509027 -0.016710063 -0.36717135 0.594964 0.18385525 -0.29663128 -0.2262712 -0.34414753 -0.27604675 -0.09616199 -0.16538952 -0.16909143 0.9581642 -0.6208102 0.11200588 0.41580513 -0.3501574 -0.14849597 0.16946943 0.0295322 -0.6862411 0.1911742 0.6379818 -0.44352484 0.05222446 0.32270554 0.1947769 1.1006814 -0.4060175 -0.8148991 0.4745168 -0.67238694 -0.67158824 -0.2327252 0.30123186
2518 -0.033107433 -0.22530682 0.55485946 0.4032966 0.17790261 -0.0037139843 -0.9315738 -0.038523752 -0.18495609 -0.28990147 0.23597513 -0.22955087 -0.40912023 0.16804816 0.25104687 0.61230534 0.056382477 -0.28619647 -0.09254987 0.7642213 0.13714653 -0.7402211 -0.48819676 -0.19670625 -0.68172276 0.8957415 0.77575827 0.34333336 0.08946644 0.12668023 -0.3662691 -0.051644936 -0.18338859 0.26024356 -0.7249883 0.5880732 0.9648234 -0.0766714 0.86676705 -0.0443531 -0.16151527 0.13467824 0.5987947 -0.032852292 0.51100385 -0.18223108 0.4837826 0.11918476 0.029521948 -0.2778841 -0.46304595 -0.8480566 0.89538383 0.9283697 0.29431045 -0.747396 0.60332555 -0.17082384 -0.8714114 -0.507494 -0.33153456 -0.95076054 -0.24028446 0.06320329 0.33870238 -0.971411 -0.14791997 0.6008276 -0.16084172 -0.10581956 -0.26450533 0.19983129 -0.74090797 0.27723458 0.30328888 0.20076883 -0.8872449 0.17427462 0.033830434 -0.37820208 -0.60101664 -0.69543445 -0.12986268 -0.5806378 -0.34125823 0.20178327 -0.20350648 -0.6461825 0.33030316 0.41701967 0.10146075 -0.4423906 -0.2639397 -0.56390435 0.3784608 -0.8366302 -0.08399441 0.024767142 0.11235626 0.098704614 0.007871215 -0.22397481 0.021256132 0.24840988 0.29595137 0.73658544 -0.024378803 -0.5979659 0.3966234 -0.44936213 0.08221957 0.34056878 -0.78984106 -0.23268759 0.55027306 0.39037082 0.020809343 0.44693106 0.3203995 -0.3692032 0.7786088 -0.44898072 -0.3622034 0.24486434 0.21548995 -0.53365916 -0.3433096 0.74697226
2160 -0.6508332 0.59316534 -0.5129152 0.3648372 0.9445409 0.02273517 -0.5112509 -0.75176597 -0.056727417 -0.4721056 0.53575075 -0.17121005 0.29758433 -0.6020629 1.1464807 0.50644594 0.6055224 -0.18118319 -0.14774688 0.059064604 0.3814446 -0.5026631 -0.3115495 -0.18258935 -1.3241516 0.46662617 0.11359865 0.72206366 0.08925286 0.04487364 -0.75680757 -0.58685595 -0.64295167 -0.34140265 0.25616854 -0.08005054 0.31039882 0.17449887 -0.24063963 0.41742098 0.5928795 -0.75334656 -0.60780436 0.5713477 1.2429792 0.22153276 0.7644542 -0.5250492 0.5886816 0.7767881 0.17863932 0.12415484 0.32903048 -0.64787865 0.087908566 -0.42774934 -0.34991074 -0.21192299 0.0034732472 0.099987574 -0.061885558 -0.8494885 -0.006552315 0.08698597 0.36149743 0.13032077 0.9028845 -0.31133518 -0.34312358 -0.9342964 -0.61458987 -0.28734016 -0.15020296 -0.11074988 0.9044774 -0.60502464 -0.40569517 -0.84528387 -0.54699254 -0.14803131 -0.6936705 0.28034198 -0.30644768 1.1784014 -0.43560937 -0.32770526 0.095521614 -0.9567509 0.76856226 0.19786389 -0.8546725 -0.68584394 -0.6223932 -1.1675147 0.6369435 0.16173354 -0.48286954 0.043499492 0.60832393 -0.12171591 0.50707495 -0.5400815 0.19068088 0.20119184 0.09922693 -0.1188019 -1.208508 0.45330536 0.9506903 -0.4241327 0.061871905 0.7782653 0.23699176 0.29777902 -0.57108176 0.9704999 -0.53434414 0.5061086 0.27918124 0.47744414 0.08442833 0.05896089 0.48734036 -0.4888405 0.16337028 0.16290662 -0.023845572 0.08426909
2394 -0.78404206 1.054242 0.031976476 0.37896588 0.17008027 -0.14909534 -0.17133904 -0.8270233 -0.13215306 -0.46358642 -1.0744476 0.26422393 0.30288553 0.04989987 0.7298595 -0.27960846 0.8175119 0.2464199 -0.21891639 -0.007226966 -0.01649305 0.12836882 -0.41807693 0.08785017 -0.64749265 0.38356704 -0.002855518 0.10881067 0.45838347 -0.4312691 0.13216618 0.3797108 0.33758804 -0.24907985 0.27923322 -0.5770201 -0.16073078 0.42873228 -0.03642255 0.17980585 -0.18949574 -0.14910606 -0.1390205 0.16297787 0.85242337 0.6286306 0.5241972 -0.61968875 0.21078579 -0.3265555 1.1356612 -1.1934711 0.1655084 -0.22785135 -0.18504322 -0.35632935 1.0413847 0.13209493 0.57476914 0.8169645 -0.3233978 -1.0573378 -0.03460654 -0.21723875 -0.08188098 0.053441763 0.11465712 0.72427404 0.28958273 -0.29214102 -0.19263938 -0.42474625 -0.57739675 -0.82698077 1.3231314 0.62363595 -1.0032755 0.12993994 -0.14519429 -0.20080096 -0.1990581 -0.0035156165 -0.72805303 0.20845895 -0.48859608 -0.022388222 0.5089498 -0.28293258 -0.31138033 -0.13783222 -1.035415 0.41951638 -0.3673064 -0.3166734 0.37935853 -0.48188782 0.61115104 -0.20237875 0.21602315 -0.1649984 -1.0386097 0.2554529 -0.20673494 0.13072093 -0.6463554 0.7397794 -0.5688413 0.68883246 -0.1803562 0.22052374 -0.12315684 -0.3334432 -0.36192122 -0.7013834 -0.29191655 0.33516395 0.5472356 0.49749443 -0.5952725 0.1304132 0.0059666634 0.16174212 -0.83217037 -0.96683645 0.22906728 -0.08924942 0.20186983 0.20415266
2309 -1.6960517 -0.78776956 -0.052053686 -0.35560644 0.6819439 -0.48096403 0.37215796 -0.094910905 0.48765722 -0.38016403 -0.091733955 -0.048834212 0.15758792 0.47855064 -0.1750721 -0.12329518 -0.8459526 0.4809856 0.21586211 -0.20409876 0.1312936 -0.53457063 -0.7110764 0.09709572 -0.9137956 0.76803035 0.10599822 0.49328986 0.21951881 -0.6587736 0.17304435 -0.8000992 0.34067047 -0.13101159 0.5646867 -0.23703872 0.11491044 -0.02464555 0.9887263 0.14924726 0.9318141 -0.041897163 -0.61079025 0.52280354 0.96123874 0.56852233 1.2077843 -0.7503846 -0.6488971 0.44816205 0.37487057 0.018410785 -0.28270516 -0.037901822 0.40476865 0.68663174 1.0330898 -0.09048741 -0.114896774 0.24269873 -0.34047547 -0.36484423 -0.4688221 0.7742376 -0.0051503326 -0.44136584 -0.73350894 0.41087142 0.97546464 -0.9656958 -0.503753 -0.43999127 -0.41048065 -0.3407481 0.33932573 0.13652568 -0.4676077 0.64976954 -0.7314338 -0.48327643 -0.004383682 1.2131462 0.58810467 -0.22400631 0.035686813 -0.41783872 0.14891075 0.29390764 -0.21775256 0.82045394 -0.3517064 0.020421084 -0.2438939 -0.8102346 -0.14109437 -0.41518593 0.013215712 -0.18460053 0.15169436 0.24247943 0.10772601 0.40246242 -0.23598751 -0.19587296 -0.03642968 0.056465533 -0.95163935 -0.07376645 0.2713882 -0.059813224 -0.29112494 0.48649827 0.6482835 -0.18200865 0.32420555 0.79312706 0.73907346 0.47726613 0.42700207 0.09727343 -0.117991395 -0.5879304 -0.43325254 -0.19662787 0.041460484 -0.44280532 0.36507758 0.6744099
2383 -0.715514 -0.17952031 -0.3080925 0.42135948 -0.38300383 0.043401036 -0.34926254 0.06112462 -0.635863 0.34228596 0.10286402 0.13046117 -0.7412048 -0.18827643 -0.3088798 -0.62961876 0.59703773 0.76258564 -0.37337643 0.042966515 0.96169907 -0.23350132 -0.028307732 0.8726925 0.0286061 0.094719835 -0.35903713 0.78650403 0.49352136 0.3677471 -0.5112485 0.5808982 -0.04524966 -0.4625862 1.0337859 0.003765827 0.24317178 -0.045190424 0.20554501 0.1953492 0.030899415 0.36596265 -0.35993013 -0.17900299 0.25788596 -0.26700383 1.1140407 0.2445691 0.041535873 0.25117567 1.3187027 -0.24238491 -0.04113151 -0.8795931 0.15391263 -0.63289565 -0.30749044 -0.8682776 0.7151933 1.0884364 -0.71176463 -0.6418746 0.5176433 -0.11560547 1.0293729 -0.07777946 0.36412212 -0.497675 -0.9145524 -0.060644697 -0.2546437 -0.3707956 0.2662179 -0.892613 0.6367173 -0.28924724 0.35457143 -1.6105353 -0.06900325 0.41138506 -0.052178435 -1.2675177 -0.37132534 0.5254677 0.13991728 0.3762889 -0.10479195 -0.7201409 0.090643935 0.53747064 -1.0530056 0.46771446 -0.8131555 -0.25357285 -0.34418076 0.2059557 0.35935977 -0.62486625 0.53320324 -0.7164655 0.97935855 -0.94204897 0.87383443 0.26993826 0.106080644 0.19355637 -0.5161059 0.48827288 0.9615173 0.14885114 0.51967895 0.41108853 0.44987425 0.46809134 0.20773861 0.3938612 -0.25552434 -0.48501164 -0.118412465 0.043785334 -0.22842816 0.15654263 0.061619483 -0.037582867 -0.56269586 -0.22392923 0.5672937 -0.5833615
2117 -0.16302568 -0.308487 -0.4137364 0.003702067 0.33497024 -0.7183144 -0.039685477 0.051760267 -0.2759026 0.004818744 0.014989242 0.1577593 0.02690095 -0.62557966 0.21376114 0.10004491 0.710835 0.2943445 0.60307145 0.034083158 0.38269144 0.16903521 0.19054355 -0.15735689 0.16833398 0.5730353 0.4566748 -0.37353984 0.66575944 -0.05665152 0.2655946 -0.40258148 -0.037282426 0.16023445 0.14068355 -0.50709593 -0.7413836 -0.23642415 0.5297425 -0.44877484 -0.2183468 0.8676109 -0.6662097 1.062765 1.1881652 0.22547306 0.7670475 -0.5807605 -0.2287896 -0.21755391 0.090377875 -0.12885337 -0.058546584 -0.2741788 0.2874672 -1.5717605 -0.06811906 -0.1355393 0.004282666 -0.030016586 -0.37876338 -0.5648766 0.5248839 0.69391096 0.035087474 0.14710815 -0.63715595 -0.32021123 0.41258103 -1.0936662 0.5731095 -0.07010411 -0.6143299 -0.58439314 -0.0017475565 -0.5386877 -0.85850453 0.87644863 -0.2271717 -1.0594672 -0.14660983 0.30185688 0.36254612 0.071243145 -0.16870336 0.3209676 0.70342743 -0.5125725 0.27027336 0.10017972 -0.474883 0.33186615 -0.5906319 0.32518247 0.068551846 -0.91663796 0.4501963 -0.5661437 -0.014643845 -0.16060889 -0.0940754 0.31849533 0.6129117 -0.5425294 -0.109795436 -0.17466292 -0.6200671 -0.29852673 0.36810446 -0.12153541 0.42061442 0.11688417 0.38527113 -0.30091137 1.2326007 0.2019403 -0.14261112 -0.4756069 0.69224596 -1.3971457 -0.25762936 -0.27152252 0.26082757 -0.022423448 -0.668466 -0.35835 0.13533576 -0.17837769
2048 -0.25784174 -0.42110538 -1.025579 0.12601992 0.106107056 -0.83909345 -0.1484643 -0.8003444 -0.7323138 0.36807752 -0.32509708 0.31632173 -0.7581463 -1.6153418 -0.5473508 -0.30414948 0.44989157 0.35751408 0.35224316 -0.12573698 -0.82513666 -0.24757442 -0.6425644 -0.340954 0.44159502 1.3000443 0.51155573 -0.48793578 -0.30694148 -0.463724 -1.0911914 0.25481942 0.06592729 0.32973766 -0.43293047 -0.0899974 0.15417925 -0.26148826 -0.52570236 0.048734896 0.84121346 0.5073445 -1.1573033 -0.096270196 0.5214866 -0.47735587 -0.6029557 -0.12624897 -0.117449716 0.38854453 0.8430448 -0.63858384 -0.26579356 0.5113759 0.7713878 -0.44206828 -0.16475515 0.25164157 -0.15910372 0.4232049 -0.2013338 0.15000224 0.07845105 0.082006805 -0.37456858 -0.1815883 -0.5219813 0.38030234 1.1087235 -0.70053047 0.33733642 -0.22024907 -0.1163197 -0.43343693 0.2323214 0.2163135 -0.5464121 0.5359316 -0.32284334 -0.24366866 -0.65254825 -0.97956216 -0.4262809 0.6787589 0.6078478 -0.20816778 -0.05558103 -0.90804106 -0.033406757 0.4792429 -0.025850577 -0.23519516 -0.09078884 -0.5278883 0.60251576 0.22028357 0.11268022 -0.34676155 0.06435609 0.8294464 -0.27020353 0.18068585 0.4822394 -0.36937535 1.0882744 -0.15255421 -0.60671604 -0.15101892 0.5048158 -0.78375363 0.64530396 -0.031011991 0.4341358 -0.18391883 0.30209607 -0.2311696 -0.41102386 0.17509264 0.84299177 0.10217846 -0.23529808 -0.22652708 -0.52932435 -0.014602735 -0.33632612 -1.1289423 -0.46562028 -0.068179935
2083 -0.72052115 0.52117836 -0.31690228 0.15295061 0.63496614 0.2678809 -0.6470562 -0.26501134 -0.4569813 -0.045215186 -0.26757613 0.03511283 -0.065254085 0.27460688 -0.1639548 0.040149935 -0.14586027 0.8816993 0.807354 0.06325342 -0.2803249 0.7691696 -0.39856413 0.5444484 0.5051564 0.44414353 -1.0139495 -0.13925558 0.03037632 0.11718149 -0.9191138 0.592239 0.13364431 -0.3649052 0.29245046 -0.25259498 0.52754086 -0.06133641 0.22070797 0.85691684 -0.1234356 -0.11973886 -0.18549559 0.41050318 0.79639494 -0.12441777 -0.14517877 0.6753468 0.094375424 -0.14138201 0.53216505 0.5329075 -0.28157684 -0.19637638 0.018890884 -0.6272879 -0.24483037 -0.44579878 1.0191759 0.20063357 -0.40721884 -1.1679468 0.03817566 -0.0948866 0.548953 -0.44392198 -0.19339469 0.37171388 -0.15555738 -0.32084364 0.55857474 0.0048079276 -0.6286144 -1.138261 0.6899883 0.8567878 -0.123175345 -0.26934966 -0.38496068 -0.29942873 0.23894514 0.19249757 0.010576563 0.88500476 -0.2619052 0.005363769 0.43982807 -0.20473927 0.44649848 0.74573576 0.27843896 -0.44865474 0.46220753 0.22906658 0.2809577 0.20648316 0.25926203 0.014936665 0.4923224 0.19040322 -0.6625172 -0.14792557 0.65581614 0.03297608 0.8589177 0.22855292 0.31055722 0.0053005763 0.36362755 -0.024387505 -0.24055359 -0.5096856 -0.6956008 0.03997872 -0.24345876 -0.291327 0.48722133 -0.20838334 -0.14030232 -0.66246516 -0.05312296 -0.59071445 -0.68145454 0.39261818 0.7886768 0.2721685 -1.3630037 0.6503196
2176 -0.47198454 -0.196318 -0.66977364 -0.02262075 0.033585582 -0.26386505 -0.12608375 -0.16286448 -0.5661898 0.4424107 1.1290654 0.59304476 -0.07839706 0.12136724 0.3487313 0.07281439 0.09191788 0.34130573 -0.19461983 -0.30720854 0.5236675 -0.055543426 -0.4875578 0.53494817 -0.63500345 -1.0152035 -0.49141416 0.6149311 0.36238253 -0.47540802 -0.6521034 1.19733 0.6025413 0.5106971 -0.18543945 0.37944824 0.053896938 -0.91919357 0.22058548 0.21151271 0.11444831 0.25683755 -0.2834726 0.5346348 1.8615828 0.049285833 0.32365003 1.1942738 0.2838179 0.5020006 0.14280371 0.41549212 -0.036618315 0.2574854 -0.14263375 -0.40764606 0.6371894 -1.0110899 0.18407087 0.14970368 -0.7585139 -0.9461758 0.25970683 0.44039214 -0.045643665 -0.9092333 0.8751244 -0.3969341 -0.09171735 0.021383073 0.58992636 1.0434937 -0.9334636 -1.3749892 0.2968163 0.3545091 0.46125352 0.4501091 -0.5495141 -0.013943532 -0.15011731 -0.022367865 -0.9459025 0.1141046 -0.64627856 0.06081649 0.3787666 0.8186392 0.49994192 0.76407933 -0.48096758 0.26596215 0.49759108 -0.39241025 0.05598151 -0.104780406 0.43705687 -0.5213938 -0.038022123 -0.41570795 0.2872931 0.10709087 0.021120608 -0.669266 -0.36245835 0.046592433 -0.7623764 0.6261728 -0.9154414 0.1851218 0.045098163 -0.16517702 -0.23787336 0.24070452 0.46120223 -0.20584784 -0.48453006 0.16098408 -0.73229975 -0.91753465 -0.12911755 -0.1037583 -0.16965224 0.15909216 0.87492293 0.45313329 0.27158743 -0.0861545
2216 -0.035903897 0.12959182 -0.5428184 -0.25085992 -0.8021812 -1.0171044 -0.13491568 -1.2785137 -0.19855154 -0.3088137 0.51263785 0.2613447 -0.8580809 -0.39053023 0.9125308 -0.3343275 1.5626643 0.2754152 -0.081250004 -0.19305398 0.41429418 -0.018246323 -1.1382357 0.49762383 -0.04694885 -0.11054177 0.41925266 0.73888934 -0.057384484 -0.00938317 -0.28145128 0.5978453 -0.12785341 0.6249607 -0.06635073 0.62430906 0.56004405 0.189922 -0.043948114 0.5718796 -0.4961188 0.43906352 -0.49536464 0.39828208 0.988544 0.13220163 0.17117134 0.17254747 0.6053146 0.69245726 0.35596174 0.28423765 0.6462225 0.2953149 -0.17154206 -0.44227338 -0.07893003 -1.1636096 0.57198 0.579374 0.17680044 -0.035697028 0.09839093 0.5625039 0.07837615 -0.6979642 -0.1821168 -0.052308317 -0.35172054 -0.24654277 1.1622277 -0.8644373 0.13964862 0.056874778 -0.14134362 -0.6624376 0.46037194 0.36259627 -0.94436085 0.10032405 0.12067429 0.5548583 -0.64373523 0.044984266 -0.7553984 0.9367494 -0.32732928 -0.55842924 0.3526271 -0.99513024 -0.17381248 -0.33148554 0.8996564 0.3909945 0.28113377 0.3029579 -0.5260232 -0.20411846 0.28169632 -0.2953671 -0.3812423 0.23306568 -0.3097638 0.45339194 0.08467672 0.24272685 -0.9888635 0.0588235 0.28490978 -0.3955084 0.66629845 0.12441283 -0.022142755 0.22679508 0.4992327 0.11336893 -0.8222249 1.2251347 0.008303247 0.007698223 -0.6789396 1.2087704 0.023327753 0.71866465 0.05381265 -0.13178374 -0.0047425665 -0.45553303
2118 -0.021393802 -0.6446273 -0.7023343 0.017386738 0.4647051 -0.49865925 0.16376683 -0.3015378 0.20816188 -0.030133003 -0.13381723 0.023507098 -0.22859402 -0.66541684 0.19012274 0.24274875 0.6292167 0.31917185 0.75895524 -0.25180385 0.49780247 0.326192 -0.2975324 -0.2871598 0.21051915 0.88430405 0.46732345 -0.2862017 0.72780484 -0.27570736 -0.14765328 -0.14818296 -0.036876827 0.21445622 -0.49901235 -0.609862 -0.78075385 -0.31948072 0.7367885 -0.32306874 -0.5703992 1.0904875 -0.7011729 1.0337965 1.2960262 0.3769809 0.8890566 -0.56376284 -0.45601293 -0.3920163 0.13762613 0.33037934 -0.015425029 -0.48512706 0.75486666 -1.6276466 0.16156664 -0.50491565 0.16321187 -0.066336125 -0.21878953 -0.6915378 -0.09105975 0.89187646 0.21043776 0.12566002 -0.7640445 -0.1749768 0.74084365 -1.1550105 1.1232908 -0.31667557 -0.4249949 -0.68032706 0.31864202 -0.36080986 -0.72360706 0.5380524 -0.6459236 -1.1013316 -0.096077845 0.21609432 0.68633753 0.14661708 -0.50736976 0.43969527 0.5383053 -0.7615554 0.27031678 -0.18887609 -0.75962794 0.29872838 -0.5791695 0.3418591 0.0898649 -0.9460341 0.3880025 -0.52894765 0.30769265 -0.33418992 -0.11221921 0.067857705 0.7062376 -0.34277377 0.2590195 -0.09112543 -0.5874779 -0.45785695 0.686967 0.122622915 0.4360476 0.13932392 0.37196878 -0.41947854 1.3888329 -0.018545274 -0.054739654 -0.8765702 0.53871185 -1.7268713 -0.61958957 -0.30874565 0.23598467 0.10218009 -0.3430359 -0.51894873 0.45535046 0.23195975
2335 -0.25173452 -0.3072908 0.23161684 -0.22957727 -0.5971949 -0.067445 -0.9135016 -0.7271907 -0.7626823 0.11721439 -0.14014758 0.102088034 -0.031580605 -0.5729393 -0.09418956 0.12772323 -0.53434944 0.3603353 -0.05262088 -0.032196533 0.10444726 -0.4175258 -0.36100644 -0.063466124 0.2835791 -0.5010678 -0.042471163 1.075325 -0.2224785 -0.214892 -0.4599205 -0.45581314 0.1334944 1.1266462 0.17709659 0.22309123 0.86513007 -0.421245 0.26609665 0.34883672 0.28643888 -0.3530699 -0.83034694 -0.7198473 0.70816827 -0.39720747 0.7834931 0.23087263 -0.20539917 0.011089575 -0.013382754 -0.47167903 0.7731492 -0.015284483 -0.2539387 -0.930406 0.18664815 0.11306377 0.6172086 -0.79146236 -0.6178467 0.22112517 0.32035533 0.7681877 -0.43737867 -0.19565746 -0.18522732 -0.23697461 -0.45909837 -0.17794637 -0.8291044 -0.37575355 -0.69110113 -0.13741091 0.36524168 -0.7985955 -0.34064314 0.27363008 -0.26679462 -0.13571079 -0.27148515 -0.91307867 -0.7421944 -0.5713865 0.09243242 -0.12024895 -0.6076246 -0.54689896 -0.64157575 0.31218708 -0.42777565 -0.5432972 -0.09547392 -0.15869166 -0.46340674 -0.20727868 0.43353266 -0.028360259 -0.49188033 0.516192 0.579778 -0.79603773 0.4220477 0.23393692 -0.783902 0.19505407 -1.4978694 0.26011044 -0.14280203 -0.6117588 -0.23947784 -0.43168014 -0.9633118 -0.8864849 0.74188066 0.42389145 0.17427604 -0.12615693 -0.14239162 -0.5984359 -0.07208203 0.43249133 -0.5469101 -0.41755515 -0.61565137 0.012214244 0.023457685 -0.1511995
1013 0.18845384 -0.59322804 -0.0055383677 0.08053009 -0.61968744 -0.59953547 0.03133141 0.17662704 -0.17278431 -0.4821963 -0.222202 0.47568715 0.052315 0.5307588 -0.18466829 0.1281817 0.4395179 0.29314855 0.632132 -0.41513345 1.0475187 0.2510839 0.38928115 -0.16769165 0.4097026 0.7935221 0.50042796 -0.50997126 0.6106204 0.06356688 -0.12992895 0.53359604 0.53698236 0.30892068 0.012251696 -0.5414267 -0.36329496 0.6431983 0.32048455 0.07720835 -0.40058348 0.52093995 -0.3526285 1.052094 0.58027416 -0.6133848 0.9361765 -0.4792937 0.17178935 0.3102365 0.28835642 -0.63137406 0.28886506 0.22669873 -0.00068116287 0.23215607 -0.48378754 -0.057268426 -0.011686351 -0.18952681 -0.7287626 -0.02143409 0.5398872 -0.44251648 0.04088003 -0.3035974 0.0016466824 0.4954806 0.28026327 -0.0063949325 -0.05305773 -0.18367356 0.18261048 -0.24992545 0.88047445 0.30511966 0.020304553 -0.14295289 -0.20524508 -0.40345606 0.31588173 -0.9268176 -0.55153775 0.26129615 0.087067395 -0.36026025 0.5510352 -1.3316671 -0.42853984 1.0949024 -0.10878068 0.16956007 0.2523137 -0.65010536 -0.12079933 -0.23200735 0.098170005 -0.30472106 -0.79003 0.3198538 -0.34850332 0.11462759 -0.07957565 -0.38155264 -0.068392605 0.2811303 -1.049542 0.6612411 0.42818454 0.15939455 0.12143813 -0.0135939075 -0.7334597 -0.027814494 0.2263483 0.91999656 -0.1484769 -0.60798055 0.57498646 0.48740414 -0.18088026 0.001277949 0.44208127 0.046481937 0.2587454 -0.8791725 0.3392685 -0.6522741
1169 0.0052836672 0.12368375 0.4731951 0.33541697 -0.22192287 -0.3389334 -0.102212384 -0.19606751 -0.058645293 0.9792072 0.6350541 -0.2944286 -0.30761436 -0.18492754 0.5303458 -0.52012604 -0.013533851 0.7949346 0.19947805 -0.6062452 -0.22793488 0.5057187 -0.7846792 0.7050838 -0.36153412 0.044222884 -0.80306387 -0.6076907 -0.075590275 0.34118617 -0.43204004 -0.012265842 1.024002 -0.15401375 -0.035026778 -0.32901987 0.28270906 -0.2587694 0.1846283 0.42405313 0.59180725 0.8225663 -0.78572476 0.255925 0.88132346 0.10646609 -0.13036063 0.68031824 0.043879315 0.51935095 0.49291462 -0.472084 0.5414948 0.032780714 0.51974094 -0.43692797 -0.19547503 -0.025743812 1.0427724 0.36553538 -1.1306908 -0.6347328 0.39080772 0.22447051 0.3902301 -0.27202162 -0.03227498 -0.010908434 -0.3528585 0.1685604 0.21188106 -0.0521608 -0.84330493 0.19162393 0.6047902 0.27350232 0.6633587 -0.6038055 -0.38902184 0.124828875 0.29730862 -0.18875593 -0.03562054 0.49269208 0.58702004 0.51122105 0.10837735 0.48498845 0.08298773 0.54395103 0.022896562 -0.53036284 0.42084515 0.73683524 0.5297313 0.23667786 0.04794127 0.030269453 0.28332737 -0.9525185 0.4423183 0.8771719 -0.21821555 0.9238932 0.06258637 -0.1313211 0.12748006 -0.44274265 0.18021911 -0.23140521 -0.046191875 -0.30203784 -0.300274 -0.7123313 0.47991273 -0.26543903 0.07531814 0.013908423 0.06174036 -0.5297058 0.39368674 -0.10468721 0.023351885 -0.25423712 0.24190481 -0.24174659 0.41339228 -0.055280894
2375 -1.0270157 -0.89674646 -0.5258025 -0.4019102 0.31534737 -0.6794174 0.69098765 -0.9130369 -0.45870796 -0.18390442 -0.35360178 0.69756067 -0.8837745 -0.42259577 -0.4915315 0.31524974 0.11240382 0.68386126 -0.07233404 -0.5506298 0.49656722 0.04866527 -0.6014436 1.1654465 0.44402984 0.29464373 -0.062144846 0.50039124 0.05136542 -0.27878577 -0.63619494 0.16559622 -0.20355421 0.15410638 0.04854014 -0.47604898 0.6099597 0.4209662 1.5730171 0.18195212 -0.081978284 0.6097778 0.15099257 0.11104355 -0.11558705 -0.19311547 -0.29363343 0.83571124 0.022487914 -0.4557208 0.42720196 0.31132442 -0.41600716 -0.21203193 -1.034917 -0.984881 0.63591415 0.14671263 -0.64450055 0.34967625 -0.66901624 -1.4832811 0.23480494 -0.13375658 0.06322431 -0.439616 -0.18123987 -0.8128738 0.5970631 -0.36037463 0.0039464654 -0.44494265 -0.22703645 -1.219865 0.6276741 0.9440064 -0.51593614 -0.43915674 0.037853427 0.07068195 0.17607151 0.07102724 -0.44886664 0.28370658 -0.15906155 -0.30253568 -0.3557776 -0.6141833 -0.07071356 0.77879846 -0.030897222 -0.25281614 0.4327438 0.18899019 -0.69482285 -0.41706753 0.45828816 -0.4919305 0.55281603 -1.4885081 -1.3921247 -0.5649692 0.6812548 0.6629192 0.17163965 -0.24757175 -1.3530738 0.5561383 0.5175343 0.30609414 0.417001 1.0110745 -0.06846852 -0.15311024 -0.8876241 0.23812997 -0.6922615 0.61798793 0.50122684 -0.08849319 -0.19519874 -0.29209098 0.36330578 0.6212963 0.17287703 -0.4070957 0.3664282 -0.30956924
2240 0.12948033 -0.59294266 0.06879697 -0.76355594 -0.26465085 0.34871426 -0.07910937 -0.14545949 -0.420369 0.6053073 -0.2707435 0.16022187 -0.087673254 0.5710696 0.4790629 0.33847123 0.55423516 0.21511967 0.7867965 -0.47383535 0.1329994 -0.13692719 -1.2062483 0.18873022 0.337867 0.22659017 0.044104632 0.2937344 -1.0778702 -0.1911213 -0.120600626 -0.09515673 -0.42434242 -0.06542556 -0.42533588 0.19915329 -0.2039113 0.2715731 0.21774508 0.21143997 -0.34325555 0.50341856 -0.21153586 0.18715057 0.4168444 -0.15626752 0.55620074 -0.35225344 -0.19123837 -0.0031295381 0.3906851 0.26417056 0.7912987 0.26357043 0.098052904 -1.0189562 0.52919674 -0.21181825 0.31236848 0.78998786 -1.281809 0.1800931 -0.3907334 0.33883396 -0.2229867 -0.64395684 -0.15872794 -0.15084806 -0.5731573 -0.115925476 -0.05918007 0.44774264 -0.100239 -0.6652337 1.0072663 -0.9270208 -0.6263179 -0.3660103 -0.42620176 0.17889646 -0.74928635 -0.34140855 0.048903883 -0.12950979 -0.056228377 -0.07048736 0.2584069 -0.15482798 0.06797508 0.6575863 -1.1569262 0.02154847 0.13480413 -0.008514998 0.8895411 0.4520088 0.07326197 -0.08463043 -0.08113378 0.1425218 0.049427338 0.39657387 0.03109289 -0.15953442 -0.6618084 0.62921625 -1.5125079 0.079720594 0.33309722 -0.48820218 0.49809563 -0.49126753 -0.06172161 -0.21512373 -0.45010033 0.22316027 -0.22262435 -0.33710304 -0.22971033 0.33939415 1.0489709 0.51487565 -0.85831636 -0.42291844 -0.30335686 -0.30192715 0.6156271 0.02859696
2227 -1.0082902 0.62860316 0.19870599 0.66532487 0.010702073 -0.027441014 -0.0023523706 -0.6886269 -0.35532445 0.065777145 -0.26210052 0.6881764 0.7819855 0.0385596 0.5356739 -0.16173537 0.021624018 -0.23078305 -0.22176573 -0.48380262 0.13052167 0.06183647 -0.9282012 -0.08400275 -0.55140996 0.09378145 0.518687 0.3458837 0.59160584 -0.6439966 -0.36668453 0.5181376 0.6233234 -0.44458267 0.09055647 -0.20519124 0.15164272 -0.13250822 -0.0753573 -0.24831875 -0.35454163 -0.015705358 0.34324577 0.7484538 0.07626394 -0.30896628 0.4037493 -0.77799904 -0.17401044 0.22284089 0.8541438 0.2372826 0.3910468 0.3679321 -0.34006065 -0.32195136 0.73528683 0.49306405 0.7904061 0.6616317 -0.37013653 -0.9066329 -0.04106396 0.17134082 -0.47592527 0.053202692 0.08156547 0.09065909 0.29192823 -0.31230268 -0.025694488 -0.6971813 -0.692624 -0.70417637 1.7914281 -0.020435113 -1.2657841 0.25331122 0.21669564 -0.7149599 -0.33893055 -0.02176713 0.40759873 0.43350065 -1.0114071 -0.010788512 -0.12846497 -0.086793564 -0.56997895 0.33185226 -1.0064595 -0.52761585 -0.4652248 -0.6645568 -0.039447322 -0.6514984 0.2194339 0.46712244 0.05088413 0.08589415 -0.64935374 0.06029527 -0.30975956 -0.5539938 -0.5949956 0.20901941 -0.38554826 0.48977458 -0.21875024 0.12798049 0.4123496 -0.43533093 0.5834434 -0.002144833 -0.12952612 0.5196618 0.37255958 0.14575173 -0.023117574 -0.10913825 0.31587863 -0.43936074 -1.0851496 -0.5252848 -0.14995138 -0.6188942 0.3359184 -0.25902364
2071 0.4110774 0.126071 -0.42328447 0.49691358 -0.005146602 -0.110174224 0.49373806 -1.3564738 0.18839355 -0.7894243 -0.28628615 0.23544975 -0.20804518 -0.89673066 -0.035980035 1.1003366 0.6682425 -0.014049091 0.37491223 -0.34467664 0.47226843 0.51562613 0.23198377 -0.28599828 -0.14369003 -0.016207473 -0.3542584 -0.20515051 0.5725587 0.40676773 0.38369903 -0.7292823 1.4227954 -0.26807398 -0.62769663 -0.40065643 -0.023061784 0.093492255 0.26634094 1.0921116 0.2593398 1.2282599 -0.7034502 -0.17976671 1.3813026 0.62655395 0.3159142 0.48662904 0.55354095 1.4066257 0.22462888 -0.08380456 -0.1467624 -0.26978838 0.81924903 -0.48617712 -0.41835153 0.43247336 0.60953546 -0.08302065 -0.44015756 0.5792777 0.40550157 0.037641745 -0.356139 -0.75047857 -0.19488753 0.934555 0.50446147 -0.70241976 0.47173968 0.24714385 0.18130313 -1.0429482 0.97723067 -0.077659644 0.08363222 -0.15717806 0.17609958 0.06483193 -0.020802451 -0.28610387 -0.3493833 -0.81510025 -0.14887352 -0.7016648 -0.63476735 -0.75821054 -0.2422143 0.6898658 -0.43411535 -0.0023972811 0.3567664 0.44614702 -0.93852407 -0.031642567 0.5696224 -0.32105476 -0.7639722 -0.058786582 0.12393133 -0.86586493 -0.39403474 -0.5556709 0.028477024 0.35190034 -0.4830393 -0.108388446 -0.8276232 -0.32299232 -0.36878735 -0.35080758 -0.7320527 -0.37379116 -0.4049011 -0.7266364 -0.2169535 0.030910179 -0.2808261 0.33254635 -0.599615 0.010467259 -0.46002188 0.114928015 0.037789427 -1.060347 -0.27613634 -0.33625698
2305 -0.07261934 -0.77008504 -0.08927212 -0.47690186 0.28738803 -0.3263337 0.60920954 -0.5928472 -0.61670774 -0.41971558 -0.30171376 0.55676734 -0.3681272 -0.19159466 0.11770491 0.3166501 0.1834929 -0.040880617 0.4373484 0.114771456 0.25951308 -0.30266237 0.3715339 0.63819927 0.10037297 1.1241245 -0.26185814 0.4526237 0.62282276 -0.5998869 0.34619468 -0.37638003 0.8312242 -1.4382926 0.5729181 -0.5794404 0.24016753 0.17776057 0.8404728 -0.069175504 -0.2978151 1.2695363 0.022759363 1.1906971 0.38492197 0.033157382 0.62806815 -0.70991385 -0.40625986 0.15542115 0.45623577 -0.47636315 0.015274131 0.07056591 -0.35618713 -0.43691313 -0.122660756 0.0032811179 0.0021381998 0.31700012 -0.4871744 -0.4991344 0.23086955 -0.14119844 -0.50076085 -0.01932591 -0.423077 0.7586502 -0.6224526 -0.35759926 0.27673483 0.0951199 0.58296436 -0.59678096 -0.2001737 0.38876346 -0.11631954 0.5285527 -0.41610405 -0.13918258 0.3480731 -1.0495912 0.14833033 0.1985512 -0.36580756 1.0859338 0.032886546 -0.48255843 -0.15433064 0.8677438 -0.4605812 -0.27915552 0.622766 -0.6070858 -0.3650451 -0.06119055 -0.64625716 -0.23724735 -0.054678336 -0.5286254 -0.122115344 -0.50314957 0.281068 0.29758817 -0.2134987 0.22162206 0.14163902 -0.0041736322 -0.113611996 -0.29290143 -0.24396302 0.05616325 0.35597253 -0.25159827 0.119521044 0.088125944 0.13977472 0.6042206 0.3971678 -0.057190396 0.4259624 -0.37367857 -0.90472806 0.071988426 -0.162114 -0.4170685 -0.015616946 -0.18400249
2372 -0.48109838 0.34752145 0.06732367 0.5019762 0.76850575 0.08476403 -0.07017824 -0.6464395 -0.044115137 0.16738877 0.7157844 0.013477554 0.28434283 -0.6900127 0.14956404 0.36605877 -0.07193229 -0.7003532 0.24026535 0.053181317 0.069525965 -0.22189467 -0.8535415 -0.8065691 -0.13497852 0.44831848 -0.6415014 -0.022999626 -0.012089642 -1.3679432 -0.3315821 1.2236707 -0.2375973 0.2502258 -1.265568 0.5702917 0.73959506 -0.3162825 0.52546763 -0.1445441 -0.6780908 1.0919455 0.6131502 0.67252135 0.7434928 -0.143404 -0.4827963 -0.8230066 0.34314564 -0.58602697 0.69762737 -0.6482491 0.796182 -0.46025467 -0.1055751 -0.42732707 -0.1437867 0.12883443 0.41296962 -0.2759109 0.14770037 -0.98199034 -0.08397566 -0.5772021 1.1484797 -0.3191685 0.35050678 -0.06429801 0.406237 -0.020985242 0.4196775 -0.3230356 0.063340455 -0.33063638 0.14812525 0.56443185 0.706553 -0.1982074 0.025461147 -0.43369496 0.2572953 -0.5361344 -0.28958765 0.45807877 0.08631264 0.81223947 0.3580107 -0.78470176 0.54767287 1.3511039 -0.13252735 -0.8663472 0.13048683 -0.76327187 0.39067075 0.36588997 0.33592492 -0.113770954 -0.9934232 0.09862087 -0.9738965 0.8506589 0.16940263 -0.05091442 -0.032709967 -0.47642767 0.47630003 0.19383976 0.4000966 -0.58584535 -0.58125335 -0.65271723 0.013253567 -0.40317062 0.89757234 0.31288043 0.22798654 0.66683567 1.2829705 -0.010772073 0.15579934 -1.4816908 -1.4768684 0.19900776 0.27288026 -0.6252904 0.035751767 -0.7171534
