2708 64
1358 -0.13639432 -0.07757135 0.17282864 0.24575536 -0.55495125 -0.78572243 0.17663017 -0.6679331 -0.5388557 -0.84729284 0.97972333 -0.1979663 -0.2389979 0.34619743 -0.6079123 0.6549879 -0.24386524 -0.88090014 0.43651402 0.06815439 0.55629814 0.034564637 0.15287896 -0.2945144 0.12283303 -0.14337921 -0.15587394 -0.39658308 -0.6805191 -0.255976 -0.42777243 0.020401841 -0.43317118 -0.31751472 0.1505685 0.26667544 -0.32761148 0.38935208 -0.25161245 0.48303753 0.23671977 0.41519812 -0.4288139 -0.3869996 0.020042585 0.15080918 0.22430299 -0.28817162 -0.07545641 0.03569765 -0.34973764 0.39175162 -0.35799435 -0.07728313 -0.11039482 -1.0286844 0.056275617 0.108717784 -0.49574912 -0.087107286 0.09031829 -0.47218367 0.54341304 -0.1691635
1986 -0.37774712 0.91465235 0.0407037 0.25734022 -0.24580865 -0.5070256 0.6159208 -0.015048083 -0.4430271 -0.599566 -1.2125518 -0.057323467 -0.1319828 0.21679588 -1.1574403 -0.78581184 0.0016870615 -0.085473806 0.9543518 0.23789148 0.20709996 0.2736671 0.032207757 0.169297 -0.23396324 0.41804188 0.7109273 0.21382028 0.004898601 0.5504012 -0.29754856 -0.14690411 -0.16951387 -0.8994065 -0.07549099 -0.043066617 -0.075558476 0.10511923 1.2180068 -0.11111761 0.24628934 -0.28439516 -0.97879577 0.06460456 -0.18450564 -0.35011542 -0.2564477 -0.7377142 -0.1250415 0.504099 0.03794359 0.4671394 -0.23118302 -0.1660241 -0.36162844 -0.7968298 0.15927692 -0.12981874 0.42348266 -0.84907424 -0.8000527 -0.0913715 0.33686298 0.32954636
1701 -0.17046809 0.6125778 -0.021245515 -0.50355 -0.763453 -0.86177206 0.2784368 0.39695355 0.23350707 -0.5175931 -0.24277459 0.038234513 0.88283277 -0.5055965 -0.29708794 -0.21000974 0.20173588 0.94151497 1.1123552 0.21054351 0.6705298 0.6763034 -0.0064949393 -0.5522428 -0.18047266 0.23006827 0.3988074 0.7256594 -0.72296244 0.11255478 -0.30218676 -0.5398988 -0.80182374 -0.6509078 -0.45670083 -0.3595475 -0.16141896 0.2538602 0.86638296 -1.0013831 0.17270148 0.41322446 -0.80621004 -0.5207642 0.15943205 -0.41505024 -0.3124286 -1.2090745 -0.4183813 -0.45241562 0.83959484 0.2401893 -0.075052254 0.1287691 -0.064491406 -0.37748235 0.41361284 -0.46262512 0.44592756 -0.33803695 -0.44444647 -0.1738799 -0.09244659 0.8008295
2034 0.91680866 -0.90751874 0.072030574 0.17955467 0.010154465 -0.16261889 -1.230692 -0.22100717 0.2952123 -0.2416053 -0.4191375 -0.5811367 0.3454348 -0.39760882 0.14761695 -0.0089105815 -0.5387269 0.5438965 0.14968927 -0.40048364 0.55540687 0.83541024 0.9311031 -0.48403087 -0.5208868 0.64417946 -0.03250792 -0.06612442 -0.53249097 -0.01915506 -0.28988647 -0.21621467 -0.83402437 -0.96435255 0.35888043 0.591956 0.0736714 -0.02012624 0.5008474 -0.82960814 -0.14723746 0.6714179 -0.8493466 0.1420378 -0.3664603 -0.3100727 -0.62051857 -0.42779294 0.47559437 0.5106526 -0.20453024 1.5742095 -0.13764103 0.45539635 -0.11504206 -0.6488238 -0.21971115 -0.071649246 -0.19913019 0.048731748 -0.2810579 0.8621388 -0.2469179 -0.23619401
2249 0.8749344 -0.3654197 -0.20207146 0.045828477 -0.17216899 -1.4840702 -0.4307789 0.5720736 -0.13873821 0.73485506 -0.44770157 -0.3100941 0.17303875 1.0219431 0.26946327 -0.12820731 -0.4718161 0.22263387 0.029516779 0.90908796 1.2243558 0.33639964 0.62919456 -0.31339443 -0.107160755 0.7591567 -0.53088754 0.19693226 0.035802107 -0.54079634 -0.9166467 -0.1530883 -0.544545 -0.9002717 0.3046937 1.6126881 0.80066 0.0038693182 0.7933632 0.29589096 0.56729704 1.0406469 -0.3687258 -0.13578133 -0.3784834 -0.13503113 -0.107989445 -0.8183575 0.3968125 0.870206 -0.7461376 0.854282 -0.43562314 0.0010632357 0.29328147 0.59635246 0.31428152 -0.035198674 0.72359055 -0.61296076 -0.28147224 0.12295342 -0.024679443 -0.099788226
2045 0.88222545 0.07067097 0.63328505 0.63824815 -1.196261 -0.5737552 0.3809173 -0.26962548 -0.31139636 -0.58920956 -0.0069553475 0.18132916 0.77890575 -0.8598957 -0.31552863 0.13269626 -0.32080886 -0.28227887 -0.31924734 -0.21812995 0.46782267 0.7998498 0.406414 -0.26655158 -0.010069335 -0.3116704 0.95760316 -0.16321084 -0.35022917 1.137165 -0.23963149 -1.0981413 -0.32891795 -0.60529613 -0.059518036 -0.37785375 0.52468586 0.53677833 1.4247702 -0.4481403 0.659243 0.5818167 0.12104733 -0.3075786 0.08196322 -0.35508865 0.5117703 0.4351742 -0.7233447 -0.75061506 0.6164598 0.7617631 -0.11572514 -0.41893435 0.44282457 -0.55136615 0.23172508 -0.13050982 -0.01882211 0.008123508 -0.87814134 0.053394433 0.1334454 0.16013473
2451 0.42372715 0.23866175 0.14888269 -0.3826646 0.06870591 -0.86502916 -1.5579634 -1.0891736 -1.003624 -0.63623476 0.66748524 0.1595972 -0.022482218 1.1299047 -0.9424339 0.1384472 -0.5874758 0.3459189 0.5663823 0.55211186 0.27465114 0.19297838 0.82557845 0.4337694 0.5403668 0.25166595 0.035597123 -0.45030892 -0.52919155 0.21431285 -1.3812237 -0.3079771 -0.53363985 0.25163624 1.0525278 -0.26480448 0.21023802 0.55471236 0.26841015 0.9612238 0.20661867 0.551132 0.04329253 0.19891478 -0.76560575 -0.3057079 0.8729852 0.07783759 -0.5797552 -0.85985446 0.16212341 -0.015665611 0.2639241 -0.18273422 -0.41661805 -0.7759718 0.39706287 0.07569581 -0.41447982 -0.38399765 0.64584726 -0.089807026 -0.037601657 0.56352824
1810 1.3448522 0.4671193 -0.26618484 0.52769727 0.8066413 0.025416398 0.026261594 0.4143941 0.103720404 0.16590911 -0.7360936 -0.4875936 -0.13091195 0.5443546 -0.4418743 0.24174549 -1.0024253 0.1802306 0.3800149 0.5155764 0.48032722 1.0815744 -0.021812191 -0.41259477 -0.11322628 -0.23090653 0.8085169 0.3521014 -0.733728 -0.024453618 -0.62724876 -0.5157082 -0.73169094 -0.3757297 0.068678215 0.26972607 -0.1367761 -0.2727538 0.9173772 -0.123403504 0.495328 0.24846196 -0.5694274 -0.53323424 -0.6140991 -0.17959256 0.68325084 -0.74772096 0.40343463 -0.18007429 0.83167195 -0.08974931 -0.74011755 0.58505434 -0.039047718 -0.53250736 -0.9259451 -0.7317814 0.46838048 0.44634768 -0.67611897 -0.1843246 -0.23516949 0.1553691
2182 -0.08802144 -0.2678894 0.4656152 -1.0966476 0.50029314 0.13216953 -0.7160764 -0.2382846 -0.7973235 0.59262705 0.40733263 0.7457748 -0.12618457 0.3018029 -0.7112309 0.12451486 -0.416329 0.55569637 -0.8585419 0.66735554 0.9308814 0.019452691 -0.2642802 -0.66843754 -0.70408714 -0.39910197 0.09300548 -0.66846544 -0.067984104 0.09391459 -0.33383882 -0.29979506 -0.26061332 -0.11170753 0.00015281035 0.5420431 -0.5702084 0.06989746 0.30207518 -0.034217414 0.39900485 1.4696461 -0.6596501 -0.45039544 1.3853668 -1.0699803 -0.35581124 -0.41730574 0.29035148 0.29128993 1.5324361 -0.3086981 0.2505627 -0.2791786 -0.2891542 0.03616079 0.4904215 0.53532624 -0.11922466 0.09328159 -1.2179585 0.28044677 -0.26985115 0.89006627
1765 -0.60034573 -0.3730552 -0.19548023 0.75327337 -0.14438926 -1.1227252 -0.37527236 -1.3622602 -1.1752552 -0.41258594 0.25905648 0.07306764 -0.3221856 0.28343233 -0.62896043 0.5056091 -0.92835623 -0.57230645 0.6945248 0.29717714 0.59074557 -0.2512647 0.33183342 -0.9567932 0.41667694 0.20873727 -0.47680172 -0.2906912 -0.52719676 -0.5502249 -0.6323483 -0.66485727 -1.6416553 0.28216982 0.296624 0.28870437 -0.64461774 1.3811105 -0.22352652 -0.056288872 1.0717882 0.27226642 -0.4507208 -0.5861719 0.056918267 -0.35546368 -0.17320183 -0.7908694 -0.27660453 0.12081696 0.014704554 0.31266162 -0.2580427 -0.01637458 0.6579219 -0.20462815 -0.32681984 0.6091947 -0.88500357 0.053190485 -0.4899444 -0.5293004 0.42574245 -1.0622997
2685 0.35392958 -0.37173626 0.3658753 0.27461952 0.07354996 -0.41643515 -0.4593149 -2.2112257 -1.0277236 -0.08870428 0.6838488 0.4518575 0.5420297 0.66434604 -1.7115216 -0.35281548 -1.2799681 -0.023206772 1.0464486 0.09962575 0.87616086 -0.19401862 0.87898135 0.06418132 0.41829032 0.1183588 -0.6518898 0.3680048 -1.1739937 -0.07390633 -1.1872187 -0.18578695 -0.036910146 0.065815896 1.1795117 -0.67884815 0.6060373 1.454353 0.19301055 0.78135145 1.326947 0.43634316 -0.5690383 0.34394103 -0.6206717 -0.4285109 0.59611183 -0.18244477 -1.2240632 -0.82255745 0.7601259 0.57879937 -0.13187352 -0.11836673 -1.3319803 -0.5995384 0.40838456 0.4044574 -0.5600826 -0.2802237 0.50987196 -0.12139046 0.05833805 0.84455574
2671 0.90549743 -0.542692 -0.33749533 0.61059666 -0.722043 -1.664931 -0.8144934 0.9526223 -0.32183495 0.5366347 -0.5390948 -0.051192302 0.4600201 0.37627247 -0.16871458 -0.16989094 -0.32597673 -0.32105064 0.09737737 0.62202966 0.68947935 -0.16518445 0.13189317 -0.0145277735 -0.16069531 0.61051416 -0.50503373 -0.06489442 -0.27763543 -0.41705075 -1.1252933 0.20637968 -0.36685976 -0.722544 -0.39695165 1.2601503 0.1970126 0.20552132 0.41715166 0.64027554 1.1344866 1.0412524 -0.25212583 0.024693545 -0.36622685 -0.11247681 -0.10310436 -1.2491491 0.35806212 0.34446827 -0.030187529 1.1300974 -0.98689336 -0.015209746 1.0179727 0.8426472 0.6484158 -0.6712175 0.31812677 -0.5499165 0.040808402 0.29016075 -0.3495248 0.1432705
1914 0.28216782 -0.84185934 -0.60834134 -0.15939575 0.6131984 -0.31267044 -0.9728297 0.12321835 -0.05838712 0.34101024 0.009342851 -1.0019125 -0.12581426 -0.42216894 -1.4664017 -0.5558594 -0.21308313 -0.010214223 -0.038530022 0.4883401 -0.2874175 0.5699217 -0.2989893 -0.44070956 -0.21936198 0.48374623 0.39165413 -0.6641633 -0.99430424 -0.92642295 0.11392131 0.14636938 0.26040557 0.8576038 0.33729547 0.26140496 0.18924236 1.2728013 1.0663127 -0.3465687 -0.20261693 0.2642861 0.45855406 -0.6208668 1.3704587 -0.1668427 0.7381205 0.090294994 -0.38838157 0.5053301 -0.14109343 0.7212288 -0.31933087 -0.20431651 0.08880972 0.024615144 1.0631635 0.70189184 0.5446023 0.5571653 -0.4189215 0.5176647 0.5713247 -0.7573414
2492 -0.68526495 -0.47797695 -0.26063994 1.2667599 -0.42885184 -1.2358577 -0.7191799 -0.9179435 -1.8334731 -0.7709088 0.1793387 -0.117678806 -0.5728229 0.17222774 -0.72783566 1.128131 -1.3353182 -0.48271924 0.6644939 0.08367935 0.23926716 -0.4540189 0.22897992 -0.8325228 0.6701016 0.25039706 -0.60782903 -0.19217607 -0.47331402 -0.73531955 -1.1008096 -0.7384697 -2.379223 0.18482108 0.5365259 0.92536217 -1.2960776 1.7583011 0.018315945 0.011846768 1.4214228 0.75629514 -0.33076546 -1.0414594 0.07980744 -0.85126454 -0.65742815 -0.87658703 -0.3688876 0.15542684 0.20743716 0.23786291 -0.041879512 0.106564894 0.72528946 -0.26565072 -0.14518113 0.25336796 -0.91760266 0.5496859 -0.41199073 -0.39167765 0.9114998 -0.9969123
2130 0.8417249 0.04350294 -0.16612656 0.1545314 0.048505656 -1.0351062 -1.1504016 0.7382248 -0.5276107 0.08546797 -0.32843918 -0.23571628 0.520306 -0.10631206 0.72947145 -0.5163451 -0.5559346 0.7942951 0.11960088 0.1722731 0.8957347 0.1344074 0.79657394 -0.3860251 -0.35200742 0.9218721 0.09515462 0.22673185 -0.1646624 -0.5917265 -0.13817114 -0.25837997 -1.0090673 -0.55305904 0.5010651 1.1297312 0.52830166 -0.009650097 0.3426763 0.04104169 0.40457833 1.4953213 -0.45012048 0.24446833 -0.43629932 -0.11405774 -0.21194886 -0.6795515 0.8420719 1.2887349 -0.49328494 1.3844897 -0.65788877 -0.025963549 0.18389094 -0.29587927 0.2211999 0.5154779 0.017263016 -0.4426124 -0.76973736 0.4541944 0.10589221 -0.2925072
2452 0.11701167 -0.033234484 0.18170197 -0.37433144 0.3427936 -1.257255 -1.9226965 -1.3027517 -1.0290337 -0.90059245 0.54721385 0.10873225 0.033106986 0.80628663 -0.92667735 0.24961202 -0.9361913 0.075139426 0.45861322 0.42783442 0.6674306 0.07586705 0.6557017 0.5091684 0.6114022 0.20124306 -0.17618062 -0.50234693 -0.47645622 0.32372147 -1.9079639 -0.17257817 -0.7249684 0.5298661 0.97394365 -0.5712483 0.20752013 1.0573876 0.69217646 1.0375232 0.088854924 0.3114149 -0.10301102 -0.1433072 -1.0167295 -0.30351797 0.64154565 0.13101588 -0.50444525 -0.8054615 0.39471737 -0.22861277 0.38795602 -0.39594907 -0.7787239 -0.9086057 0.8450799 0.054065976 -0.5322453 -0.5782974 0.4543221 -0.13971123 0.116048865 0.3152897
2292 0.29060653 -0.55477005 0.8680055 -0.8120425 0.23404881 0.33028963 -0.30973914 -0.16867825 -0.9370214 0.1583304 -0.06726014 1.1917264 0.037054397 1.3667411 -1.7395087 -0.1206897 -1.202954 0.016279414 -0.6495643 0.39302644 1.057168 -0.88456106 -0.7585733 -1.0238855 -0.21062872 -0.3673198 -0.38702103 -0.3924074 -0.94931257 0.5534492 -0.34413767 -0.83878875 0.15810068 -0.8601818 0.7688625 0.4905168 -0.21475725 -0.21894307 1.1848446 -0.97717446 1.3600091 2.184264 -0.9726559 -2.1000893 0.45113462 -0.595412 -0.17609683 -0.36100402 0.0051476983 0.44260886 2.0627012 -0.41753495 0.61981535 -0.7313355 -0.76211655 0.16592069 0.71051395 0.123561285 0.91587883 -0.14706463 -0.9168259 -0.03484981 -0.6161895 -1.1481373
2169 0.21201234 0.058858667 0.39005694 0.042520374 -0.958704 -1.1189114 -0.76411575 -1.6616644 0.21578768 0.14889193 1.6755265 -1.2323579 0.88389224 0.8654378 -1.893396 0.72650224 -0.5636257 0.27156362 -0.08354819 0.9530193 0.8006702 -0.25634223 1.100753 0.2158247 0.6664346 0.22500464 0.045803 -0.40904975 -1.7970263 -0.30811748 0.00547303 -0.21970907 -1.4472463 -0.91432625 -0.3625071 -1.3418285 -0.7413111 -0.41144726 0.47783327 0.70326805 1.2298205 1.5358404 -0.30353856 0.29801485 -0.7119291 0.21252115 0.06835569 0.5431546 0.1823938 -0.33575776 -0.78283244 -0.6237512 -0.5054835 0.39464384 0.4299134 -1.3049986 0.54034305 0.1080443 0.2599204 -0.65466857 -0.33083162 0.530657 0.47493172 -0.6151293
1623 0.58982986 0.084090896 0.031173933 0.5621145 -0.1668418 -0.054729484 0.010499195 -0.34062576 -0.1431549 -0.14324394 -0.24548759 -0.62264526 0.021097565 -0.07547538 -0.4029541 -0.053889167 -0.5519324 0.17453177 -0.42617816 -0.22160296 -0.096978314 0.7621967 -0.9725231 -0.33472556 -0.7422597 -0.23948646 0.61987877 0.02688479 -0.96582437 1.1662517 -0.8415823 -0.33396226 0.07441346 0.14894703 -0.23703514 -0.5462788 0.8737999 0.53934866 0.59623575 -0.4547757 -0.76079917 0.96811754 0.29802406 -0.36812928 0.30626982 -0.6558426 -0.75081766 -0.42454338 0.2210192 -0.8684627 0.082759574 0.019895485 -0.9658515 0.097443104 0.35763717 -0.86074567 0.7308364 0.6311806 -0.4526175 -0.8729963 -1.4245429 -0.69056654 -0.41997716 -0.4507551
2291 0.31497625 -0.71752644 0.64118415 -0.48361558 -0.096206486 0.41256988 -0.4965882 -0.032470148 -0.60179037 0.0010730693 0.18451676 1.047163 0.12659311 1.2213693 -1.8431879 0.3761079 -0.32235554 0.11953209 -0.77112824 0.40335053 0.5618533 -0.37385377 -0.6299872 -0.878153 0.027897084 0.050614532 -0.040865645 -0.44916284 -0.09569986 0.69171417 -0.2324513 -0.99876374 -0.0021262642 -0.724686 0.4889164 0.31064904 -0.41231358 -0.042958476 0.37045717 -0.75471663 0.5325676 1.7182983 -0.04855683 -1.3889891 0.6873997 -0.5081018 0.2570692 -0.41618404 -0.20752487 1.0052493 1.3042505 -0.30069417 -0.10725251 -0.17484461 -0.5137498 -0.02947123 -0.22409804 0.012762603 0.92469627 -0.51791275 -0.62544847 -0.5631345 -0.7834957 -0.49322388
1950 1.3168032 0.63530934 0.39201152 1.0536674 1.5519463 -0.6841804 0.41069305 -0.35495093 -0.30014566 -0.74131906 -0.18699567 -0.42090994 -0.05314913 0.8466588 -0.72223836 -0.19192173 -0.3517468 -0.31002733 -0.13788539 -0.41352707 0.3224245 0.55663544 -0.5055989 -1.2784721 -0.25802767 1.5622097 -0.54985887 0.29667014 -1.3616755 0.91012096 -0.5225441 -0.5468253 -1.2331376 -0.36117977 0.5003863 0.32189256 0.68707854 0.51668143 1.0415282 -0.4924712 1.544204 0.5462582 -0.6802678 0.101532586 0.46945906 0.8998619 -0.2907673 -0.5030757 0.75530046 -0.59310174 0.88071907 0.5460352 0.9083028 0.45577088 0.14569712 0.21382815 -0.91447335 0.86316574 -0.1480149 0.33687305 -1.1162677 -0.28254437 -0.68359596 0.77810925
2168 -0.022571392 -0.12422264 0.5706983 0.46793798 -0.30476922 -1.2443318 -0.18463418 -1.0463352 -0.44657186 -0.45731944 1.1644111 -0.5663501 0.4721868 0.980518 -1.7514285 0.5920532 0.3308528 0.1704808 -0.77300644 0.51677984 0.78965724 -0.10768295 0.95637065 0.07071416 0.0772628 -0.5931497 -0.12304954 -0.37352243 -1.4088305 -0.37468317 0.33435014 -0.10953243 -1.2125602 -0.5784358 0.13312362 -0.8384402 -0.5227419 -0.2812334 0.17967913 -0.108415365 1.0762326 1.5881963 0.19462022 0.19645779 -0.2604664 -0.23046252 0.37848577 0.579253 0.023567025 -0.087468065 -0.7887894 -0.24146555 -0.2612729 -0.36891064 0.1394815 -0.75888413 0.69703776 -0.09900248 0.3439505 -0.61885494 -0.2895314 0.23820141 0.4093219 0.04210753
2518 0.9782567 -0.022850543 -0.19580501 -0.50080156 -0.62492645 -1.3148859 -0.32064423 0.9398241 -0.3877953 0.56778604 -0.37111226 -0.5023599 0.3610028 1.1552496 0.08732939 -0.19384713 -0.25117138 -0.029682584 0.6645051 0.5967417 1.5897515 0.0090819895 0.95838064 -0.48019698 0.62842464 0.9337911 -0.8485954 -0.39342424 -0.4484593 -0.20319867 -0.6734871 0.091295145 -0.5070523 -0.8673701 0.097210415 1.4918319 0.849752 0.05935047 0.3298023 0.28976214 1.0563811 1.0117122 -0.10646705 -0.20239975 -0.15510215 -0.10361764 0.051551346 -1.2529233 0.6607418 0.902869 -0.08057294 0.5182348 -0.38745916 -0.28281286 0.0019875113 0.55718124 0.655918 -0.031615183 0.32364574 -1.2541639 -0.12558696 0.5644454 -0.6786485 -0.7811528
2248 1.3831505 -1.0958915 -0.054709926 -0.40647313 -0.42601678 -1.1047277 -0.120759554 0.79799473 -1.1810057 0.6114717 -0.086332455 -0.7287764 -0.011693742 0.63246435 -0.5643543 -0.12771799 0.3005317 -0.35384822 0.42094967 1.5394663 1.2203332 0.15924154 0.57229227 -0.20137805 0.19456601 0.46740386 -0.8031181 0.33689052 -0.23679487 -0.6638903 -0.94868904 0.37941882 -0.12757742 -0.75581884 0.08641362 1.5548247 0.7591156 0.911727 0.29907528 0.75844735 0.7369532 0.82588655 -0.26180917 -0.56468874 0.642825 0.56838304 0.29156592 -0.97675586 -0.76110536 0.09343423 -0.09750595 0.096537784 -0.5749829 0.36317223 0.3083401 1.3557161 0.3665372 -0.51035756 0.50443643 -0.30604368 -0.28879273 0.2757593 -0.4249938 0.74111027
2538 0.65347993 -0.2992863 -0.21385036 0.28909716 -0.72289497 -1.4648542 -0.44428042 0.89511466 -0.8981356 1.2613605 -0.5509665 -0.5658675 0.1462574 1.0843735 -0.17818767 -0.3765843 -0.41670445 -0.35413274 0.69009227 1.3124397 1.9009434 0.05105493 0.9437612 -0.12069926 0.78265435 1.201128 -1.3480852 -0.39361587 -1.5075202 -0.43500865 -0.6783825 -0.28477946 -0.17757638 -0.48319966 -0.28389665 0.94985485 0.47540882 -0.19549242 0.30482146 0.896626 1.2842584 1.6148918 0.04213796 -0.86832315 -0.21832296 0.41703892 0.054164954 -1.4255952 -0.0069140284 2.1460571 -0.51107836 1.3225441 0.12797119 -0.049833987 -0.97076356 0.9922066 1.0987562 -0.35344005 0.018616308 -0.854083 -0.58420956 0.21399729 -0.19811839 -0.39989075
2123 0.22776674 -0.61235845 0.3467773 -0.0021946635 0.35270908 -0.5671722 0.16713978 0.56473374 0.01776391 -0.76533335 -1.1548556 -0.9481173 -0.57278895 1.0217028 -1.0122366 -0.51591617 -1.2378956 0.3484826 -0.7206299 -0.3840367 0.93193996 0.51962405 0.62637484 -0.08646056 -0.36678705 0.83913255 0.173869 0.0046192235 -0.28508514 0.7223087 -0.6405331 -0.92050356 0.85515195 -1.121418 0.025798993 -0.39436543 -0.77276754 0.20758028 0.09854874 -0.4444294 -0.42830086 -0.06334054 -1.2704461 -0.19976752 0.3481049 -0.1890754 -0.37050852 -0.5130699 -0.599473 0.10481731 -0.36604846 0.34593883 0.42452312 0.06628391 -0.50577825 -0.62260556 0.5546447 -1.107822 -0.28724644 -0.80359435 -0.046838243 0.648175 0.6251327 0.36606726
1902 0.6229541 -0.20236051 0.22739588 0.7282668 0.23367321 -0.501771 0.38313335 -0.39380905 -0.52032626 -0.042421434 0.4036322 -1.2919525 -0.25358117 1.0414041 -0.84273833 -0.052053057 -1.3750197 0.4126283 -0.11913224 0.14813477 -0.37638366 0.22815236 0.16345537 -0.35010007 -0.20911735 -0.6177825 0.16039164 0.5997213 -0.46383753 -0.17248943 -1.5047057 0.31072423 -0.51972765 -0.15711838 0.3397362 -0.785201 -0.21107414 0.52274567 0.77328277 0.4489004 0.5949881 0.20663261 0.38616452 0.5522632 0.0032235591 0.22878194 -0.30919093 -0.56689185 0.3816653 1.7788825 0.7693718 -0.6755399 -0.19274645 -0.9579374 -0.14882667 0.18946372 0.81095487 0.10459967 0.10643402 -0.84517837 -0.18961066 0.539295 0.8072687 0.498464
2048 0.35468042 0.5017986 0.64959705 0.739806 -0.8775355 -0.71256316 0.227941 -0.10870609 -0.4843538 -0.6881442 0.15456584 0.022289732 0.32560813 -1.0949583 -0.5108828 0.37437606 -0.8191636 -0.32403353 -0.57768023 0.025661422 0.57799375 1.0855857 1.2563804 -0.76170313 -0.29363823 0.030820148 1.2435746 0.11351661 -0.9950737 1.320256 -0.015557437 -1.1745813 -0.47877786 -1.8188727 0.13100599 -0.5865728 0.92942685 0.8781076 1.7584149 -0.26502064 0.43799114 0.9216642 0.33290055 -0.85597277 0.5427296 -0.012907352 0.25424922 0.96583307 -0.61379826 -1.0772827 0.9430416 0.6832431 -0.5370768 -0.12139639 0.33107853 -0.605215 0.02709648 -0.10172973 -0.049624827 -0.027698027 -1.068051 0.3978303 0.5464729 0.5378191
2450 -0.82945275 0.25010008 -0.459161 0.29511538 -1.0709174 -0.7581657 0.20754166 -1.024454 -0.55707026 -0.57490844 0.80177146 -0.31127873 -0.7278926 0.1283609 -1.7649963 0.79127395 -0.09208078 -0.31936154 -0.17648847 0.46663976 1.059733 -0.8661542 0.29824176 -0.8548042 0.06897188 -0.89747757 0.9182379 -0.10211501 -0.6599689 -0.94645286 -0.885227 -0.43919945 -0.73380387 -0.24454768 -0.12331509 0.9108655 1.0379658 -0.20198692 -0.5696614 0.2290731 0.7201057 1.5419592 0.5021454 0.03855124 0.28872925 -0.2778362 -0.45615005 -0.12850569 -0.2299431 0.42849904 0.5476263 0.61962545 -0.34231773 -0.1284311 -0.3394481 0.11393697 2.7321324 -0.43139017 0.4452231 -0.27736294 0.35122606 -1.4162221 -0.025362367 0.5700151
2270 0.7088169 -0.27182505 0.6168003 0.057319008 -0.22760764 -0.5176526 -0.21913052 -0.1552186 -0.82188344 0.6472793 0.7862477 -1.6854415 -1.1536186 1.4350278 -0.23774077 -0.28591195 -0.9759279 0.8874549 -0.64283824 0.29327407 -0.9461852 0.5549954 -0.48049733 -0.35603854 -0.70927125 0.18630923 -0.77109116 0.385199 0.12722929 -0.58363473 -2.1234596 -0.73446923 -0.19800438 -1.495703 0.6968752 0.068473354 -0.16409664 0.97136843 0.8064934 0.25422326 1.0923663 0.028939744 0.21442543 0.0742319 0.29886973 1.0199137 -0.034407634 -0.23783168 -0.8762044 0.41893372 1.3466676 0.040646106 -0.22250149 -0.04029108 0.5644396 -0.7737616 1.3878249 -1.0092459 0.43698576 0.062092815 0.5549819 -0.40148664 0.042935103 -0.1768225
1740 0.68487334 0.45397374 -0.05995988 -0.53914225 0.11655953 -0.7679583 -0.88739884 -1.3955808 -0.52558583 -0.51116264 0.16993463 -0.31210953 -0.49177822 0.6510973 -1.0989116 0.13961275 -0.19401123 0.98547244 0.5719284 0.13385782 0.71918863 0.5105149 0.529266 0.061951347 0.4215737 0.07566268 0.14694282 -0.9156383 -0.41829005 -0.25196394 -1.4621718 -0.041267052 -0.539118 0.13766438 0.87906104 0.119076654 0.21019273 1.4540551 0.047579106 0.6781323 -0.22092813 0.14357954 -0.09461705 0.08298831 -0.52161473 0.15676531 0.32673043 -0.30020726 -0.6392027 -0.74677956 -0.1353518 -0.13885549 0.04805209 -0.5991487 0.019331917 -0.81297785 -0.33413166 0.51283664 -0.36382842 -0.25997508 -0.0070472476 -0.28579926 0.77031386 0.7679939
2375 0.8048505 -0.3932716 0.64508545 -0.0040301797 -0.3266301 -0.82232493 -0.0023592138 0.113358505 -1.3512683 0.7605733 0.63999426 -1.4247441 -2.259024 1.1605102 -0.5316773 -0.13862446 -0.7993536 1.3478861 0.36370027 0.4363952 -0.7417891 1.1131104 -0.1990727 -0.266143 -0.45058697 -0.089194745 -1.4784803 0.055283405 0.5609473 -0.7318709 -1.9951273 -0.7110716 -0.41886073 -1.4475595 0.7735714 0.12420685 0.7397824 1.2009705 1.3035117 0.7020329 1.5769147 0.059414674 0.31358743 0.10799645 0.09656312 0.7047904 -0.7801183 -0.7738643 -1.2821512 -0.29690352 1.5288968 -0.027096177 0.2375048 0.26605898 1.0683757 -0.84312534 1.693828 -1.3550787 0.36115655 0.065197185 0.14922716 -0.40086576 0.172928 -0.029290676
2380 1.2178789 -0.21442543 0.20256163 -0.084235005 0.32532787 -0.039210435 0.1353718 0.14084102 -0.4926318 -1.1657765 -1.6251503 -1.3200603 -1.1917069 1.5862523 -1.128543 -1.1981653 -1.5852104 -0.2169023 -0.27915576 -1.0231191 1.8350683 0.32073563 0.41862413 -1.0119681 -0.31685096 0.47212422 0.5615896 0.053921852 -0.2805201 1.1049323 -0.7536899 -0.73197466 0.45923942 -1.5614291 -0.18802786 -0.6050091 -0.8751201 0.94598764 0.28179643 -0.5644535 -0.44730872 0.0646392 -1.1302907 0.092705436 0.610147 0.3958504 -0.07372816 -1.3467205 0.2743856 -0.035555195 -0.513703 0.5907358 0.5931545 0.49142316 -0.86868215 -0.5206124 0.8602813 -1.0848235 -0.3524263 -0.7526398 -0.38291547 0.8769097 0.56015295 0.17674784
2359 0.5002031 0.11205623 0.38261467 0.64991033 0.54358166 -1.123635 -0.46013367 -0.22206137 -0.95272267 -1.6291331 -0.13075525 -0.34295636 0.031066217 0.9765903 -1.775262 0.03870344 -1.1637236 0.38612542 0.19654404 -0.3383677 0.9592877 -0.01499027 0.22468784 -0.44625548 -0.25710157 -0.4924647 -0.33626878 -0.6700813 0.3059718 0.17517594 0.28388813 -1.085832 -0.029773587 -0.2651627 0.36199957 -0.029127244 -0.6236684 0.85174644 1.1769339 1.2228373 -0.57953393 0.08596373 -0.1890571 0.022277959 0.48776537 -0.062493857 -0.18128963 -0.40881714 0.28363404 -1.3369532 -0.9469947 0.14882901 -0.807264 0.9320886 1.0709711 -0.25639448 0.81248724 -0.13411401 1.0597063 0.7640424 0.34813458 0.00294407 0.44239172 1.099747
2118 0.8792956 0.9018874 0.858343 -0.9172651 -1.0371535 -1.6088192 -0.6554349 0.2542279 0.19109876 -1.6738749 -0.22101495 -0.78000593 0.7015079 0.34544447 -0.20774855 -0.4026625 -0.6430164 -0.46860948 0.17616236 0.13276705 0.02007573 1.0855281 -0.18081172 -0.67090005 -0.7737988 0.750238 -0.43574166 -0.21793889 -1.3580735 0.24964415 -0.7754877 0.2921579 -0.86431164 -0.3588981 -1.0136145 0.9532953 -0.8884588 -0.20300874 0.6377771 0.015057574 0.60054886 0.80338275 -0.62092495 0.875458 0.4299271 -0.88342476 -0.5527256 -1.0197798 -0.80499697 0.13880265 0.54566824 2.0187683 -0.13876827 -0.3580705 -1.1109787 -0.07249848 -0.26178184 -0.044309717 -0.1412817 1.0234153 -0.824593 1.7800715 -0.5481232 -0.31121227
1441 0.30369484 0.1183891 -0.34018764 -0.54630613 -0.009908269 -0.8454972 -1.322911 0.13134336 -1.6710565 0.5106028 0.06287137 -0.6170808 -0.08732434 1.2122931 -1.1882272 0.036736432 -0.44727093 0.13827693 0.44192663 0.28098595 -0.32335243 0.96691626 -0.79786044 0.1538885 -0.39008623 -0.6121277 -0.7088986 0.600863 1.1968331 0.54570436 -0.38772273 0.23436685 -1.2235578 -0.97379637 -0.7463669 0.08527693 -0.45447552 1.1715566 0.7468064 0.6727728 0.17267925 0.013195119 -0.5123139 -0.60339975 0.19827884 1.1945584 0.47847754 -0.5317582 -0.34899396 -0.30291635 1.0307982 -0.20816219 0.08012643 -0.8418172 0.41552347 0.06701995 0.53397954 -0.047632225 0.6944705 0.18880063 -0.64412856 0.31998205 0.99820644 -0.9216303
2367 0.029802974 -0.1258955 -0.18283524 -0.118158646 -0.31097746 -0.3545745 0.11143162 0.18810211 -1.5690638 1.0426153 0.50452125 -0.35000095 -0.32098842 0.53671783 -0.16503581 0.33568987 0.8221887 0.5675889 0.04954285 0.20799115 -0.2654464 0.9486308 0.5928453 -0.5276231 0.5387928 -0.24244003 0.67339104 -0.07931516 -1.3225737 -0.77389646 -0.8527454 0.23766023 -0.067926206 -1.1931502 -1.2643359 -0.16563372 -0.15599483 1.2213528 -0.39597055 0.6304047 0.70169926 -0.09938518 -0.25998634 -0.82985854 -0.07760197 -0.76547694 -0.81743854 -0.42966408 0.16467988 -0.10466661 0.7197408 -0.3958505 0.008097499 1.0171337 -0.67455906 -0.77705485 1.0424696 -0.244246 0.6504016 0.3645459 -1.6259656 1.5140786 0.003117949 -0.8597131
1903 1.0996112 -0.08682503 0.22060698 0.124077655 0.503272 -0.7505418 0.39744964 -0.6097659 -0.20597982 0.016803496 0.5791725 -1.275646 -0.84068435 1.1507953 -0.41504276 -0.26905018 -1.2958195 0.9030784 -0.2796132 0.23175885 -0.8032987 1.1664268 0.26800925 -0.25898975 -0.059196316 -1.1441131 0.14555086 0.21830085 0.23060927 -0.7129197 -1.5472726 -0.13051511 -0.2565254 -0.4649615 0.67457056 -0.42461014 -0.7292306 0.81461775 0.95645714 -0.04615205 0.68715405 0.823551 0.13115944 1.0205088 0.10623411 0.06388904 -0.23209482 -0.5231059 0.30418617 1.673005 0.9566357 -0.19326669 -0.53786355 -0.14601596 0.2033163 -0.15041192 0.46873972 0.3641841 0.19025488 -0.55530745 0.011543275 0.35149395 0.2470016 0.27434427
2176 0.24841028 -0.5733273 0.47552973 -0.6845589 0.7444107 -1.8867302 0.16819052 -0.8203419 -1.116318 0.1437016 0.8716758 1.175375 -0.66266024 0.14798567 -0.57763755 0.07701575 1.2619927 0.032004498 0.046466075 1.4368324 0.81072384 -0.7976319 -0.4812161 -0.8842999 2.3792458 0.19651687 1.2872697 0.2800041 -0.49095342 0.0062376424 -0.81261194 -0.33471084 0.26811838 -0.48872414 -0.0020809004 -0.2890583 -0.25039116 1.0555708 0.2801004 -1.1159141 -0.25311655 1.3273712 -1.5308586 -0.46072745 -0.6990311 -0.744845 -0.36393902 -0.41976857 -0.1269556 0.52445596 0.87285286 0.73115087 -0.5674428 0.36899906 0.26964432 -1.4217969 0.83469445 0.094904765 -0.024063546 0.7643248 -0.78094316 -0.09495028 0.4809103 -0.74069494
2133 0.49158546 -0.3349019 1.4916695 -1.4683738 0.5165798 -0.22841582 -1.1017205 -0.7074339 -0.1491169 0.33281258 -0.039522924 0.68214613 -0.30107322 -0.017480494 -1.1748472 0.20416848 -0.13352537 0.008791237 -1.2673297 0.683341 1.6871749 0.34060088 -0.055218335 -0.7173314 -0.4725151 -0.879239 0.1750206 -0.5853018 -0.35777286 0.35647646 -0.70269203 -0.23312777 0.14585039 -0.16654517 0.48361722 0.07649022 -0.65162313 -0.40738285 0.28299218 0.5799343 0.6845784 1.1338499 -0.45660776 -0.83282304 1.7764465 -0.7631702 -0.6096099 -0.37458608 0.7251511 -0.032211408 0.76146877 -0.14725482 -0.1946128 -0.09461737 -0.6977158 -0.20176592 0.29785284 -0.07595022 0.37401074 0.007396058 -1.281671 -0.07564884 -0.08209683 0.4858971
2122 1.0040231 -0.44805896 0.2701619 0.14864483 0.30887994 -0.24653357 -0.18330091 0.7414105 -0.22875215 -0.57994604 -0.80285203 -1.2218302 -0.15413775 1.3484211 -0.826714 0.101485275 -1.0671439 0.08806567 -0.4703035 -0.2900992 0.78736275 0.78509945 0.6861136 -0.09626643 0.023754526 0.9409559 0.45048213 0.19813925 -0.3055151 0.6399395 -0.8900964 -0.39226037 0.57140446 -0.8508794 0.034875102 -0.08701431 -0.7275877 0.18899572 -0.31560612 -0.6891201 -0.12112588 0.40597883 -1.0116268 -0.22797628 0.44830725 -0.3478486 -0.3758006 -1.3047063 0.030522116 0.20969492 -0.7477091 0.5547792 0.42726618 0.38228104 -0.25116947 0.012075405 0.15529984 -0.62010705 -0.69797325 -0.72512823 0.31470203 0.59435314 0.1787237 -0.34971005
2309 0.022706345 -0.65424275 0.15547575 0.16874807 0.6721463 0.58982706 -0.18966687 0.23976336 0.43547285 1.1941756 0.3681413 -0.729967 -0.5709868 -0.5919105 -0.79528767 -0.13147771 0.35615212 -0.07292586 1.5754486 -0.020035077 0.8960069 0.797994 0.71756345 -0.6770074 -0.58170503 0.94917357 0.06975958 1.1572763 -1.1037071 0.5605419 -1.2130461 -0.30392802 -0.68091744 -0.5228064 -0.21261369 0.060066238 -0.77690995 -0.38172972 1.6141976 -0.5703662 0.8057824 0.80637544 -0.17258824 -1.2049955 -0.8793274 -0.29784927 -0.36803782 -1.1738521 -0.3169003 -0.39930472 0.10590225 -0.05452421 0.5725087 -0.34923097 -1.5643798 -0.6746308 0.7314612 0.36063617 -0.06538924 0.5167702 -0.41480064 1.1820945 -0.93369925 1.5714203
1894 1.2009791 0.20861395 0.5902269 -1.0857248 -1.1967145 -1.00137 -0.5441004 -0.42996743 0.15996005 -0.98963404 0.009337697 -0.50066537 0.02889112 0.17750736 0.21284087 -0.9159215 -0.88571024 -0.2608803 -0.122265026 0.02364984 0.7200507 0.8510239 0.5246993 -0.81600857 -0.8460076 0.46316436 -0.93735164 -0.5254221 -1.2679628 0.2927818 -0.04010942 0.6917597 -0.40406796 -0.3574696 -0.026706636 0.49346772 -0.66282 -0.4077237 0.45877734 0.30579323 -0.24650925 0.015553026 -0.6523298 -0.23674269 0.602367 -0.7030478 -0.30628544 -0.95345193 -0.48735514 0.352463 0.044999737 1.4120442 -0.112160474 -0.29273215 -1.1503364 -0.39900926 -0.77785766 -0.14324522 -0.02169048 0.28078967 -0.76912564 0.86766833 -0.1858881 0.43115416
2372 0.6937211 0.011689812 0.087319694 0.9504752 0.9892373 -1.2882738 -0.78289837 -0.21669336 -1.3564959 -1.8571377 0.015198838 -0.760614 -0.02847439 1.219615 -2.068946 -0.03498831 -1.4936836 0.68356794 0.08687994 -0.1637718 1.2163014 -0.00394701 0.20691517 -1.0312448 -0.2331349 -0.37240514 -0.4844976 -0.52696055 -0.025313342 0.40730298 0.66314924 -0.9029916 -0.011543858 -0.99817145 0.14358442 0.2910193 -0.38316813 1.039613 1.1788981 1.2271619 -0.7244093 -0.1477737 0.055757105 0.130466 0.96214396 0.11145416 -0.33996704 -0.5671688 -0.15317683 -1.83939 -1.0505596 0.21027645 -0.99561656 1.0016673 0.96241176 -1.1164646 0.5464948 -0.30877796 0.99848247 0.9617572 0.2972544 -0.38113022 0.58584756 1.3406096
2383 1.366856 -0.5985976 -0.33682308 0.15582842 0.6988528 -1.0759102 -0.8314781 0.8048002 -0.66504127 0.03444766 0.6881987 -1.2972288 -0.31712824 1.6619757 0.5589048 0.8477269 -0.6532942 0.04206989 -0.17798443 -0.48091927 0.26190293 0.6121842 -0.56814057 0.04330729 -0.08324119 0.057235096 0.26910806 -0.5211817 -0.486848 0.787226 -0.7433066 -1.067404 1.0100381 -0.53633124 -1.368157 1.3043947 -0.7207269 0.4577699 -0.09730977 0.2572052 0.35740107 0.66612476 -1.165985 -0.9740826 0.21863726 0.17968182 -1.1104754 -0.06839928 -1.4200794 -0.6036656 0.62636864 -0.70069945 0.56600153 1.3315352 -0.17130664 -0.55700934 1.526227 1.7829628 0.41181046 -0.0971485 -0.37946162 -0.76316476 -1.1061095 -0.14940333
2434 -0.6306674 0.18700157 0.25364065 0.41049027 -1.3367535 -1.1624264 -1.0945033 0.30061698 -0.8644886 0.13109128 1.109354 -0.1800382 0.3128175 1.1589193 -0.43662357 -1.4215509 0.17750739 0.28026813 0.69286805 0.17873676 -0.16803634 -0.11050214 0.24174638 -0.24879594 0.050916214 0.37012258 0.734082 -0.7361151 -0.8359289 0.19945116 -1.2739167 -1.446304 0.72992486 1.4306624 0.021782883 -0.21277551 0.66964525 0.44843924 0.43062556 1.4243119 1.3594414 1.0187212 -1.3115603 -0.49559024 -0.3311421 -0.48458844 -1.3678778 -0.5773011 1.1033407 -0.9408519 0.09925364 1.6928301 -1.6447204 -0.8942806 -1.3582985 -0.5969882 -0.25875664 -0.691986 -0.33652925 0.58890074 -0.9514079 1.7337763 -0.48422244 0.37334615
2503 0.040365268 -0.059256338 -0.8815788 0.521692 -0.5909023 -1.0392148 -0.22299354 -0.47424263 -1.0692556 -0.35967934 1.223004 -0.67227566 -0.0119202435 1.0136195 0.30756202 0.4351252 -0.6929694 -1.5032114 0.90987283 0.9447777 1.361748 0.3305023 0.11120515 0.8244569 0.109886445 -0.40435725 0.7436206 0.6961834 -1.0562669 -0.88752204 0.003175073 -0.6294035 -0.5362222 -0.45803452 0.025657345 0.617572 -1.125493 1.0464764 1.0908687 1.7212296 -0.35477868 0.6193057 0.36666694 -0.5472153 0.6352081 -0.25027487 -0.99028164 -0.41840404 -0.3145976 -0.12181543 -0.561677 0.03239895 0.45143142 -0.05034291 -0.33989653 -1.976519 0.6179295 0.59293723 1.1731833 0.15919356 -1.0444258 -0.039311465 0.2671611 0.5721714
2025 0.11930196 0.28388417 0.7885609 0.018059958 -0.2289528 -0.57869864 -0.019491091 -0.24990809 -0.95051026 -0.031039227 -0.5546557 -0.7433774 0.4299441 -1.1965426 -1.019044 -0.23273236 -0.7783568 -0.10951831 1.102257 0.7316184 0.45065644 -0.38218978 0.08441953 -0.72505486 -0.16987146 -0.038469672 0.9234635 -0.8286132 -0.2163641 0.8503537 -0.7753195 0.5655906 0.2318408 -1.0754771 0.22989728 -1.0135162 -0.296432 -0.620983 0.64188516 -0.01177506 0.6314522 0.4354817 -0.22398432 0.3394387 0.30138135 0.4762704 -0.68079454 0.120642416 -0.019909684 -0.25883734 0.023947863 0.51438665 -0.43639123 -0.7910035 0.24993174 0.044865612 0.23310427 -0.1674969 -0.14219181 0.55306935 -0.543522 0.1799727 0.08743365 -0.36793622
2071 0.2001629 -0.09971341 0.43218842 -0.6875599 -0.84352976 -1.2466631 -0.7850439 -0.36072713 -0.29302055 -0.38843796 -0.491568 -0.5863766 -0.03262127 0.16273415 -1.3514162 -0.34150687 0.36467534 0.7311349 0.0977402 2.1911087 0.0336509 0.897642 -0.62613547 -1.5591264 0.6496041 0.66697305 -0.19528246 -1.1933968 0.32002676 -0.85465413 0.8247304 1.4879371 0.20103355 -0.41448677 1.1270322 -2.3405662 0.5617975 0.97794265 0.94292665 0.48818567 -0.27355558 0.28058267 0.48585695 0.30898696 0.5592036 0.34222502 0.44570184 -1.5617918 0.20304666 -0.87156224 0.6964668 0.65835446 -0.21848974 -1.3064562 -0.06993707 0.78534174 -0.7489028 0.2263939 -0.35072273 -0.46231985 -0.68526024 0.69284636 0.0946864 -0.76870686
1542 0.50387824 -0.23170912 0.9794398 -0.22450937 0.020271923 -0.82053566 0.4811612 0.65514594 -0.13191982 0.30838636 0.5022195 -0.5576543 0.096327975 0.8697459 -0.6156908 0.50770193 -0.54125 -0.4049064 0.052457094 -0.2005057 0.83108264 1.1863495 -0.4312953 -0.33332852 1.3521158 1.2425439 0.4373824 0.78795624 -0.66725886 -0.7496952 -0.29380032 -0.97146714 0.2724848 -0.63293123 0.03489933 -1.5345328 0.7333369 -0.20050783 1.068676 -0.23797596 -0.529744 0.74012625 -0.45035803 1.605726 0.76794577 -0.3217432 -0.8634651 -0.47770697 -0.1537031 0.34456453 0.015847418 -0.27414158 -0.21950684 0.7606723 -0.48491013 -0.93221027 -0.024032747 -0.21663551 -0.32894784 0.75743073 -0.3700215 -0.09324289 -0.55913734 0.22302976
2216 1.40127 0.10994882 -0.5723426 0.047392055 -0.5243099 -0.69711745 -0.9563624 -0.28779298 -0.01283241 -1.5986539 0.32828957 -0.3458264 -0.2669319 0.56823957 -1.1302998 1.6620355 -0.22422758 0.12290611 -0.34465685 0.29893315 0.49120602 -0.25986373 -0.4727509 -1.1424649 0.80760616 -0.07894914 -0.3263928 0.6780447 0.23340915 -0.0945114 -0.17149541 -0.4111912 -0.71991724 -0.8771098 -0.567806 0.9543036 -0.47849435 0.13957988 0.9362031 0.7519084 -1.0647843 0.48228684 -0.071975105 0.07037134 1.6254925 -0.52110046 -0.29586476 -0.63900316 0.35348648 0.97874945 -0.39371872 0.59690464 -0.011633185 -0.07854194 0.28092885 -2.0458252 0.6488414 0.29176983 -0.52936083 -0.16196816 -0.095980376 -0.16787313 -0.27593106 1.2938519
1960 1.1749635 0.12709583 0.28143388 0.40378413 0.3608332 -0.72147596 0.51353335 -0.647706 -0.35881776 0.22596951 0.84255797 -1.5223869 0.20987293 1.3022388 -1.1478252 -0.38478026 -1.583063 0.67365724 -0.72168934 -0.004236293 -0.018590841 0.8802955 0.20495062 -0.85166615 -0.29868948 -0.28582275 0.031672582 0.5262873 0.18686342 -0.84118617 -1.5847392 0.12498768 -0.71219516 -0.9327575 0.55516833 -1.0504465 -0.64160025 0.70175034 0.5401901 0.31443912 0.98850197 0.9375187 -0.05503634 0.8766395 -0.5231339 0.6589476 -0.5103681 -0.319909 0.5186312 1.6385758 1.3937014 -0.7948539 -0.62415284 -0.33735505 -0.21737789 -0.049972218 0.77341306 -0.02757931 0.23362209 -1.6024157 -0.16045673 1.0205691 0.79023564 -0.072327435
2269 1.0090934 0.11987012 0.6157697 0.4200761 0.1001807 -0.49008518 -0.23505136 -0.0120637305 -0.67411846 0.40018553 0.2807106 -1.3274909 -1.1687577 0.9221277 -0.38485137 -0.032355092 -0.41908324 0.9508361 -0.6540095 0.6421622 -0.80666566 0.59959674 -0.45725533 -0.07249347 -0.6973684 -0.28811696 -0.6638348 0.32153046 0.016877163 -0.5743971 -1.7267574 -0.08769244 -0.56259793 -1.263101 0.72599155 0.23436746 -0.5298401 1.1586221 1.2579471 0.30445242 0.54878014 0.28235716 0.37265474 0.0915843 0.13073878 0.8852176 -0.4465134 -0.55503124 -0.51837885 0.37834796 1.242904 0.10477858 0.1437747 -0.05095603 0.6005363 -0.5245116 0.9177486 -0.7825082 0.27182892 -0.25294933 0.71519005 0.03032511 0.6945927 -0.24641502
1927 0.9210514 -0.8803629 -0.24202248 0.42505595 -0.17799641 -0.5207432 -0.44181398 0.6280664 -0.8708383 0.6347042 -0.8245 0.0057486836 -0.12706509 -0.24326046 -0.76449984 0.44709536 -0.5845129 0.46602634 0.19216841 -1.2931285 0.8524399 0.70360345 0.078402795 -1.0339502 0.008830558 1.320157 -0.75053036 -1.3836461 0.13501133 -0.3449432 -0.06509404 0.31666172 -0.046528663 -0.8418753 1.1324993 -0.72142726 0.6555314 0.055120315 0.69468355 0.25069708 0.18587036 0.41143075 -0.25434846 -0.03002878 0.6070987 -0.77573323 0.42511186 -1.0684187 1.3031547 0.062473617 0.14840263 0.550181 -0.79853374 0.029836813 -0.96053076 -0.2781084 -0.08782155 0.11425847 -0.632106 0.6154613 -0.72741884 0.3962377 0.7039097 0.06410918
2491 1.7420557 0.22701986 0.82741034 0.39558408 0.8861091 -0.9040279 -0.33357844 -0.88959074 -1.1383765 0.15228142 1.2015944 -2.3465934 0.3615015 1.1083696 -1.2924025 -0.6627327 -2.0131907 0.9267927 -0.46150354 0.512415 0.62807626 0.9685879 0.17332499 -0.31355277 0.25163588 -0.3783954 0.23256887 0.6218976 0.7271575 -0.43417063 -1.2531023 -0.111901276 -0.99613947 -0.8587481 1.123758 -0.8778283 -0.5351361 0.7330146 1.0977919 1.0811205 0.25747475 1.1359997 -0.20390715 0.6201423 -0.14504848 0.056549266 -0.7948662 0.4153981 0.27731255 1.8545964 1.7465166 -1.6984193 -0.20193426 -0.58493274 -0.11065588 -0.61974114 0.86048394 -0.256945 1.0398986 -1.5887161 -0.18466912 0.6383073 0.63077015 -0.13442227
2464 -0.21135019 -0.042748827 0.061519533 0.4491445 0.37138367 -0.4954067 0.054522086 -0.5775239 -0.54920864 0.66790897 0.7225893 -0.052390147 -0.16791196 1.1116269 -0.18569267 -1.1220409 -0.07689194 -0.05126335 -0.28113878 0.38899833 -0.45301968 1.264316 -1.2326645 -0.5340284 -0.6254765 0.9407042 0.39696792 0.06815349 -1.3315879 -0.42134747 0.47147936 -0.72997636 -0.08602465 -0.83996475 1.4059393 -0.35116592 0.160244 1.5861311 0.26056534 0.32984865 -0.2659437 2.000764 -1.0380374 0.2765838 -0.22823933 0.97389996 0.42689237 -0.99700207 0.49856701 -0.4020998 -0.058655333 0.25158265 -1.4363505 -0.6620678 -0.88338 0.61602205 0.63900393 -0.2554488 -1.2253451 0.0761872 -0.8232583 0.27035654 -0.109858 0.934713
2155 0.6018802 -1.3630954 -0.6156131 -0.45110342 0.20369454 -0.66308045 0.1910042 -0.33779374 -0.5789074 -0.11553255 -0.21283776 -0.32014015 0.60310805 -0.26182628 -0.34838516 0.46730566 -0.09046669 0.16766061 0.6789335 0.16147846 0.19788042 1.0496159 0.3239889 -1.6981262 -0.97401816 1.0594301 0.82001346 -0.86615396 0.33145177 -0.32217452 -0.4048649 -0.37437686 0.910669 -0.010495319 -0.56636894 -0.31154257 0.23061404 -0.22335047 0.41334623 0.8527143 1.0198678 1.0865244 1.0538685 -1.0346849 0.1673525 -0.97544616 -0.99456966 -0.06740631 -0.20907809 0.1839029 0.3994223 0.8217152 0.9401566 -0.5279175 -0.71181417 0.27627233 0.16536438 0.48965442 -0.23102652 0.28288645 -0.13267308 0.29399014 0.64901155 0.91115975
1776 -0.0110409735 -0.7200216 -0.3379737 0.044631533 -0.51462984 -0.5291904 0.10958374 0.07192949 -1.112933 -0.58866143 0.52115107 -0.110656455 -0.27787554 -0.32202187 -0.90689814 0.02248305 -0.16812551 -0.7895269 -0.35590208 -0.48942187 0.4216766 -0.027930459 0.41685236 0.13536699 -0.6627808 0.10451746 0.56309664 -0.1678287 -1.1171756 0.39090347 -0.39730772 -0.42374945 -0.63975227 -0.46746057 -0.38729227 -0.75558203 1.4089282 0.30945054 0.42541927 -0.11274939 0.24241534 1.0685475 -0.040369485 -0.30334735 0.672657 -0.03140059 0.681498 -0.044686694 -0.57047296 -0.9076329 0.48866728 0.11015366 -0.46641514 -0.37846768 0.73612857 -1.656434 0.92377096 -0.50163734 -0.5271739 -0.28983992 -0.23194052 -0.752338 0.24383357 -0.25800225
2238 -0.31853357 -0.13644187 -0.34817824 0.41854185 -0.969878 -0.605833 -1.1199317 -0.5987753 -0.7264617 0.23848918 -0.5558429 -0.5510424 0.18801028 1.0800377 -0.4145596 -0.6353294 0.16291077 0.78806055 -0.28976405 -0.045344893 0.20049551 0.11330921 -0.51211244 -0.5458383 0.5349524 0.18654121 0.19703682 -0.84406227 -0.19514278 -0.37208712 -0.72297573 -0.5557125 0.07419331 0.5338613 0.0170092 -0.693273 0.5310749 0.5301711 0.7070131 -0.21049671 0.20687369 0.5479237 -1.3412417 -0.83540374 -0.7333127 0.61041945 -1.4371175 -0.8200361 -0.23719943 -0.98076916 -0.3956189 1.1785338 -1.0424527 0.23541327 -1.6074508 0.2016724 -0.018485548 -0.14406824 0.26004538 0.110413484 -0.19595256 1.1370798 -0.15200727 -0.018850017
2394 0.50570506 -0.032683067 0.62494195 0.7356348 -0.83839846 -0.84823304 -1.6280433 -0.4040045 -0.0006041748 0.5328927 0.2617844 -0.699202 0.15753244 0.13939103 -0.797343 0.28138682 -0.7705726 0.61902547 0.92920136 -0.37426454 -0.15873699 -0.30824274 -0.052011378 -0.16116466 -0.073335566 0.91245735 -0.19780223 0.52652943 -1.2108127 0.99189764 0.78995246 -0.7627117 -0.18136394 0.41867986 1.3296769 0.10632595 -0.5346691 -0.63271195 -0.33508098 -0.37815028 0.5910252 0.34328282 0.21169788 -0.65659326 0.79066837 -0.686564 -1.3250558 -0.104837365 0.47561324 0.3680264 0.66427845 0.41945758 0.2760799 -0.095702566 -0.12418991 -1.1210572 1.4418598 0.6692079 1.0156702 0.0325097 -0.01427263 1.4775237 0.44171205 0.268313
2399 -0.6438334 -0.13988271 0.08679797 0.28837013 -0.6784295 -1.1711572 -0.96474385 -0.23751129 -0.86264545 0.33783984 0.666228 -0.40250677 0.021658733 1.0235691 -0.8265575 -0.84346795 -0.37384027 0.04130862 -0.36395204 -0.2848736 -0.22494587 0.24536984 0.03383479 0.17960677 0.47431493 0.43019032 0.25948998 -0.737393 -0.60347813 -0.36928543 -0.874519 -1.2813236 -0.5245028 1.1188256 0.31872928 -0.80961984 0.8260286 0.169561 0.9896106 0.12719925 0.55060023 0.14925285 -1.5782665 -0.7708927 -0.5264729 -0.36768153 -1.4021103 -0.29554886 0.6248574 -0.97375596 -0.6370201 1.1900923 -1.7150892 -0.32970694 -1.3624016 0.5185121 0.089698255 -0.18206584 -0.21454968 -0.032718584 -0.7686502 1.4612254 -0.35362935 -0.06272712
973 -0.19959143 0.78828037 0.48193336 -0.45189255 -0.15619457 -0.1985978 -0.14168978 -0.7929053 -0.46585903 -0.19315247 0.47847262 -0.9389215 0.04562169 -0.22727194 -0.20884123 -0.58047974 -0.57933927 0.7071782 1.0757762 1.2122194 0.30502447 0.62391186 -0.5378617 -1.138597 -0.26149142 0.9098509 0.59569615 -1.1078444 -0.5512923 0.6540188 -1.0270239 0.32488894 0.40654117 -0.4538208 -0.79591584 -1.0222661 0.26089042 0.3979816 1.0066218 1.0904161 0.02677844 0.28090268 0.45383772 -0.18648854 0.12780203 -0.50342584 -0.70671844 -0.43722227 0.20448364 0.19127175 -0.013947988 0.14943524 0.61166406 -0.8867544 0.4128486 0.23793472 0.012470374 0.006111795 -0.2145912 0.42290008 -0.2775744 0.21435161 0.061995137 0.10936061
2117 0.13440146 0.6200236 0.40306258 -0.7772148 -0.60505044 -1.2505691 -0.49508563 0.1848251 -0.011916559 -1.4232705 -0.5153674 -0.7334766 0.6462634 0.05874104 0.2873375 -0.13710783 -0.7742642 -0.2671022 0.4325258 0.12962803 0.4216483 0.82216054 0.043057907 -0.9176414 -0.5046368 0.6668595 -0.954141 0.44987777 -0.83755493 -0.005692371 -0.46003184 0.25743255 -0.7965399 -0.21713741 -0.7304601 0.4230531 -0.56573516 -0.092185475 0.38163528 -0.59132034 0.03027571 0.68318146 -0.46086508 0.418066 0.42239308 -0.82282007 -0.6412592 -0.7428121 -1.0163645 -0.05090039 1.0240462 0.80678636 -0.15845825 -0.39415413 -1.1147515 -0.24850893 0.032005876 -0.24925837 -0.6494794 0.59252596 -0.63534904 1.4235792 -0.2912674 -0.22216594
2675 0.67964303 -0.8058899 0.013136357 0.2688216 -1.1097549 -2.5607152 -1.814982 0.59773993 -0.5311961 0.64321053 -0.44005066 -0.5472189 0.4006865 -0.6210788 -0.36619925 -0.6399472 -0.7853928 -0.51847327 -0.09507026 1.2478318 1.1296207 -0.0656802 0.44228408 -0.38706726 -0.025034811 1.1198633 -0.80081135 -0.083250396 -0.144022 -0.5650573 -1.6955014 0.5974318 -0.7084506 -0.7880341 -0.47123525 1.1932108 0.04065358 0.23513627 1.0221385 1.3224276 1.2124276 1.3841932 -0.8027197 -0.1142841 -0.49522826 -0.122596815 0.0696888 -1.8245128 0.5074668 0.7989336 -0.09747002 0.9400588 -0.6505547 0.40172985 0.6973158 1.5196611 1.3399969 -1.015896 0.14029205 -0.7462754 -0.18075466 0.104403995 -0.41029987 0.34429196
2465 0.09765267 -0.13482092 0.30401483 0.20558316 0.9041891 -0.8227166 -0.0039521037 -0.9760298 -0.48481542 0.3824884 1.0446553 -0.39527917 -0.20641257 0.96799064 -0.44885004 -1.5611761 -0.6128697 -0.058410846 -0.3095385 -0.059186183 -0.22663441 1.6442387 -1.1409332 -1.1746668 -0.82762235 1.851953 0.24890687 0.009757743 -0.92002153 -0.6993432 1.0418698 -1.0612423 -0.59365314 -1.2633089 1.734457 -0.72334075 0.30275905 1.3033603 0.30787423 0.5333918 -0.21074964 2.3560061 -1.6462979 0.5220767 -0.61168045 0.9558433 -0.25890836 -0.9638711 0.3510709 -0.2695021 0.1681066 -0.3299626 -1.7841607 -0.71635365 -0.6852362 0.8277555 1.0678718 -0.54710805 -0.80598074 -0.6592458 -1.1103655 -0.27154523 -0.050030608 0.7026481
2241 -0.30967188 -0.80506516 0.13805178 -0.41525146 -0.29705343 -1.1093111 -1.0958008 -0.76445425 -1.5111899 0.16816649 0.3780401 -0.5695542 -0.42481637 1.4600712 -0.45339218 -0.37382245 -0.32922125 0.8376116 0.08944341 -0.29836035 -0.10763823 -0.29408446 -0.08395885 -0.4450748 1.1443759 -1.4518995 0.25675955 -0.313517 0.4888641 0.59910625 -0.60828406 -0.606825 0.023279257 -0.9326641 -0.3137455 0.28267428 -1.0381552 0.32789728 1.2386858 0.019302316 -0.053833637 -0.4928704 -0.37732828 0.7374827 0.846127 -0.26095283 0.38140285 -0.19455498 0.46157843 0.1927149 1.069689 1.0096169 -0.7608859 0.13279137 -0.612357 -0.3109894 -0.33763197 -0.28740287 0.9972549 -0.59913844 -0.71835935 -0.24279007 0.9907713 -0.4712966
1973 0.13958742 0.19867848 -1.1047826 0.29615194 -0.23102812 -0.573247 -1.2436782 -0.07160847 -1.0835174 0.41236848 0.2922346 -0.44746342 -0.12626071 -1.0501091 -0.95634836 0.39398682 -0.7734189 -1.268327 -0.32326117 0.31720057 0.3214188 -0.6265402 0.28159532 -1.3405296 -0.60022444 0.40828615 -0.6827764 -0.965917 -0.42827803 -0.393653 -0.85076886 -0.01325696 1.0861721 -0.08669212 -0.8329543 -0.4581268 -0.091901466 0.98373973 1.0369774 -0.9857694 0.6924309 0.81089187 0.4345242 -0.31745684 0.22060527 -1.0933703 -0.10861254 -0.74178785 -0.54056585 -0.1119076 0.3435901 0.33725134 1.0326064 0.17258619 -0.30427763 -0.26800916 0.7496376 0.71603805 1.1921597 0.33622897 0.3281039 0.76144975 0.5304257 0.18522508
1971 0.3748614 -0.88358563 -1.4812617 0.25144717 -0.5282648 -0.74461955 -0.7942853 -1.7444379 -0.84054285 -0.1391505 -0.63407695 -1.1313195 -0.27047646 1.2934009 -0.45480305 -0.68831897 0.7749246 0.90244734 0.047227986 0.16361316 0.530052 0.28549463 -0.5599667 -0.47700095 1.129698 1.737698 0.018098397 0.25055343 -0.40777206 -0.36293665 -0.8314046 -0.03836636 0.094117 -0.12294821 -0.3195689 -0.5332392 -0.5441636 -0.5896236 1.2527052 -0.54924697 1.1195972 1.3092158 -0.59996635 -0.31001702 0.40427706 0.53826624 -0.7805708 0.66903114 -0.99717015 -0.13527057 -0.48246187 0.8224927 -0.88002914 1.0719025 -1.6260498 0.669143 -0.23942217 -0.8250145 0.42587253 0.34922558 -0.8829437 -0.02145379 0.011214887 0.6633546
2306 0.8558663 0.03556476 -0.052095473 0.28339896 1.5948389 -0.576701 -0.5996776 0.5244679 -1.347988 -0.79483455 0.067584455 -0.33848172 0.27355453 1.0009692 -1.060576 -0.3147961 0.22472304 -0.5695658 0.53898627 -0.20032053 0.35356706 0.6143277 -0.44275048 -0.6065507 0.89690185 -0.9917973 -0.1652958 -0.9647114 -2.140365 0.2968067 0.1318379 0.13495718 0.7357613 -0.14762962 0.4468923 -0.16656134 -0.20716 -0.8983707 1.0495688 -0.30621615 0.12902902 0.99816006 0.10206835 -0.7526644 -0.5628799 -0.8542406 0.05972483 -0.5222803 -0.4226199 0.49429983 0.7771883 0.402744 0.15110847 0.17580445 0.2336294 -0.6338514 -0.29190403 -1.0669672 0.62377346 0.76898235 -1.0646377 0.55723774 -0.81643903 0.32130563
2539 -0.12913147 -0.8935985 0.16981564 -0.4067603 -0.7967954 -1.2600272 -1.1539687 -0.5985081 -1.4676614 0.5237551 0.20098385 -0.7210083 -0.53640914 1.1443963 -0.37246874 -0.65101266 -0.23770438 1.1846344 -0.0144477645 -0.045207713 -0.309176 -0.27805844 -0.55469877 -0.5230444 1.1796411 -1.361322 0.062065717 -0.60713327 0.6375894 0.46558902 -0.8394271 -0.8072702 0.10609742 -0.69708365 -0.5621451 -0.067706935 -0.8180335 0.15082838 1.049606 -0.059962504 -0.2983305 -0.045377977 -0.80070513 0.6612347 1.078106 -0.5796198 0.62168914 -0.02980492 0.77909267 0.22711675 0.9560686 2.1523225 -0.94730353 0.40797618 -1.0145245 -0.4611724 -0.1681593 -0.14504667 1.341821 -0.47919768 -0.783762 -0.010738185 0.39637998 -1.0157332
1966 0.5909899 -0.8499786 -1.2734208 0.009399304 -0.6464943 -0.7765312 -0.65709716 -1.0628079 -1.0770922 -0.2283956 -0.9845815 -0.54589796 -0.10682202 0.76724595 -0.17341436 -1.1180662 0.16974126 0.9142191 -0.27473807 0.072621115 0.3666326 0.36484692 -0.42749688 -0.24946532 1.3491783 1.0702069 0.046857774 0.32712853 -0.7930615 -0.7280108 -0.7654875 0.06652103 0.18146737 -0.30951655 -0.49792933 -0.111417666 -0.3818689 -0.67345226 1.0715127 -0.13806099 1.4897904 0.9835786 -0.1799878 -0.2927159 0.24255554 0.25056857 -0.4019835 0.82466894 -1.0365638 -0.0034491925 -0.70369756 0.7887526 -0.95231086 0.7878062 -1.7445638 0.52566737 0.036276605 -0.2343243 0.6548599 0.71587723 -0.837462 -0.27351537 -0.17333217 0.552288
2160 1.030809 -0.61908793 -0.57305104 1.2169333 0.5515171 0.35735577 -0.25696823 -0.3311598 -2.115669 0.067252204 0.3262031 -1.6695164 -0.022996051 0.17774712 -1.2312739 0.2662495 -0.941128 0.47812724 0.5741449 1.4068972 1.1425793 -0.06923225 0.21224017 -1.0598111 0.20393108 0.8001686 -0.3894727 -0.38027814 -0.079422645 -0.44316053 0.34735164 -1.5882839 1.3841234 -1.3537166 0.3347858 -1.1267308 -1.5260234 0.2298747 -0.09434279 -0.5234423 -0.6928738 0.039343566 -0.054186486 -0.031420786 0.86407053 0.55441594 0.019884428 0.91199994 -0.7364696 -0.05642142 0.36874384 0.22070463 -0.5554043 0.767387 -0.24189548 -1.2697462 0.82957643 -0.111406185 0.29391673 -0.54387945 -0.020529378 0.8259643 -0.5277323 0.74332863
2163 0.8050307 -0.5632771 -0.7594919 -1.2216109 0.31066072 0.66323584 0.28523988 -0.2718553 -0.3709687 0.18319236 0.7169967 -0.5887979 -0.6160043 0.20663658 -1.7359943 -0.11285984 -1.2488127 0.20851085 -0.18467143 -0.18485627 1.1890216 -0.5355032 0.4007481 -1.4073836 1.5534159 0.62626517 -0.073463514 -0.085723914 0.20378888 0.03668554 -0.8214208 0.42261183 0.73554856 -0.117033124 -0.71592134 0.4079974 -0.191115 -1.0305223 2.4189684 -0.2561514 0.66962117 -0.088310935 -0.44357297 0.40083468 0.23623227 -1.0762022 0.03427052 0.5636592 -0.32378265 0.62774885 1.795333 1.4563738 -1.4697313 0.10506817 -1.7832149 -0.63169515 -0.37456203 0.20138665 -0.67738146 -0.67863685 -0.83536667 -0.0061639673 0.69925636 -0.7949776
2161 0.9824939 -0.85349536 -0.7802982 0.585907 0.9656957 0.18150614 -0.24201088 -0.5791322 -2.1497512 -0.02026508 0.46614933 -2.1517694 0.13066442 0.20849635 -1.1409012 0.44061068 -1.0150377 0.41937417 0.6487655 1.3774209 1.5023568 -0.26944312 0.018056247 -1.1127784 0.43178815 1.409773 -0.008561975 -0.76643115 -0.2612275 -0.3189389 0.44189796 -2.0076814 1.8981535 -1.1029739 0.5700596 -1.6050484 -1.7455777 0.61607647 0.3503709 -0.35357133 -0.6963522 0.25826338 -0.36206168 0.3416232 1.285062 0.3356716 0.009032111 0.7590141 -0.8298605 -0.065480515 0.6811582 0.6668865 -0.065872714 1.2729999 -0.50861627 -1.2110498 1.1093888 -0.219724 -0.15160616 -0.5001223 -0.21880771 0.89821017 -0.6045166 0.2650602
2242 -0.16242425 -0.85402834 -0.0027482645 -0.59229034 -0.6422572 -1.1007586 -1.192383 -0.42749563 -1.7284355 0.44908217 0.25450915 -0.7144173 -0.5138058 1.3906645 -0.57194525 -0.49512926 -0.34336737 1.0417235 -0.048199125 -0.2222822 -0.20302594 -0.45443 -0.57881945 -0.14272398 1.1281198 -1.485036 0.25127512 -0.4040874 0.33291814 0.8290343 -0.71913224 -0.6101692 0.14556406 -0.7246063 -0.23495312 0.26658243 -0.9383664 0.43635884 1.2603159 0.19292378 0.09942976 -0.43828285 -0.56588817 0.84065205 0.83666754 -0.35185575 0.37470853 -0.20071091 0.52609605 0.26400563 1.3527652 1.3942434 -0.8421723 0.28413853 -0.8008084 -0.41993347 -0.23403712 -0.07350892 0.88385594 -0.41743043 -0.8174493 -0.42087165 0.88186973 -0.56508684
1627 0.6145703 0.15866771 -0.07308965 -0.80035436 0.22881496 -0.6024972 -1.0996152 -1.3015442 -0.82805026 -0.47997615 0.03174142 -0.5313971 -0.105816305 0.7867729 -0.9688091 -0.4154925 -0.6342488 0.8799681 0.43875778 -0.34264767 0.2799096 0.57400113 0.5574103 -0.35728016 0.42186955 0.04417804 0.2190385 -1.0253733 -0.54134196 -0.59887046 -1.6143105 -0.15896454 -0.04843537 0.09569449 0.9909112 0.4825444 0.6300933 1.3974143 0.13378975 -0.2068217 -0.40879467 0.19791536 -0.3814611 -0.15327218 0.11842201 0.47955254 -0.32585418 -0.34408006 -1.1719198 -1.1702701 0.90248436 -0.5934353 -0.296928 -0.93199426 0.19015338 -1.0086001 0.115665555 0.40523872 -0.8244449 -0.6355923 0.24442965 0.51930547 0.58045936 0.93234503
1692 1.0572659 -0.74510473 -0.3737789 -0.2772131 0.23021373 0.0037738397 -0.9251424 0.24809165 -0.96778244 -0.5290084 -0.9857234 -0.1256038 -0.02151421 0.5054487 -0.3437306 -0.588442 -0.1702674 -0.7950861 -0.25777414 1.2155373 -0.3372234 0.5541791 0.80621547 -0.7320392 0.957055 0.22400856 1.3247653 -1.1446792 -1.392813 0.59168905 -0.6367942 -1.2353892 -1.4128214 -0.46502304 0.07312945 0.24546668 -0.8217519 -0.16115019 0.03253557 0.13305871 0.07069312 0.28905344 0.25507286 -0.3161426 0.90977615 0.65204066 -0.89309317 0.041446917 -0.06575277 0.109479874 -0.36921617 -0.10208082 0.03296403 0.0972732 -0.6528963 0.5965682 0.20471048 0.6638367 -0.09566165 -0.9925145 -1.2752085 -0.24809782 1.0152295 -0.14535627
2335 0.3661599 0.21142687 0.44850755 0.09337766 -1.1080893 0.63130003 -0.8696913 1.1047416 -1.4256967 -0.06506872 -0.62470615 -0.9566489 -0.11101496 1.388206 -0.06131002 -0.25426072 -0.04221607 0.32581133 0.5623764 0.7763165 1.0779268 0.8335406 -0.17165945 -0.27093357 0.4640058 0.684062 0.99900234 -1.4688878 -0.19672284 0.1938785 0.21385206 -0.5489452 0.482582 -0.3911059 -0.59162897 0.2291497 1.7230824 0.3154016 0.42766714 -0.67343575 -0.28356856 0.7235357 -1.6220907 -0.4566199 0.15771262 0.52187234 -0.68666774 0.18133132 0.5356455 -0.29772687 0.7319521 0.46325487 0.06260447 0.35896406 -1.0350513 0.22790338 0.45197302 0.45230326 0.016755454 -0.6867547 -0.21166444 0.9037153 0.5920822 -0.5719021
2385 0.68224704 -0.47758102 1.3908008 0.15941168 -1.6662949 -0.117026106 -0.70355403 -0.3837898 -0.47247937 0.18892504 -0.6425363 0.1307871 -0.45995754 0.41703725 -0.85339874 -0.72393954 -0.039041918 -0.033771843 -0.32948536 -1.2413176 -0.41073462 0.9747356 -0.4023427 -0.99294436 -0.13556887 0.8273453 0.8883095 -0.5389216 -1.0781802 -0.05691497 0.30211782 -0.15784475 0.5059552 -0.7291612 0.27947423 -1.4120067 -1.3164569 0.97876436 0.033528928 0.63397014 1.559754 0.025723947 0.4168728 -0.36123064 -1.7549767 -0.20085701 -1.0821495 -0.8464654 -0.15391639 0.5260057 1.6297355 -0.30719283 -1.7015092 -0.15284193 -1.026683 0.3794646 0.80869 0.057723843 -0.19519053 -0.2605214 -0.3516234 -0.8060064 0.64721 0.969453
2198 -0.4152594 -0.53372216 0.9910281 -1.0299342 0.29873094 -0.47510085 -1.2741612 -0.26504555 -1.4330007 0.2173697 0.511867 0.9921402 -0.11711689 -0.5690531 -0.97740984 0.52054524 -0.1487608 0.013526079 -0.39076653 0.12222211 0.860684 1.1322689 -0.34557506 -0.27066514 -0.38981655 -0.7846977 -0.15981148 -0.16069669 -0.9714009 -0.65454274 0.5989226 -0.22390895 0.34830722 0.00903866 -0.11699903 0.93850726 -0.1252498 0.32929045 0.22745758 0.7634031 0.84013414 1.632153 -0.4495035 -0.055588167 1.7000893 -0.32291904 -0.38027832 -0.52213246 0.68162787 0.2480039 1.7329787 -0.8994858 -0.33986935 -0.2196649 -0.95647824 -0.1529381 0.022221934 1.3007782 -0.008703275 0.04810493 -1.4960397 0.67145777 -0.5179972 0.4449544
2175 -0.06193696 -0.7203931 0.506174 -0.26433557 0.86699134 -1.6945113 -0.36686274 -0.639006 -1.1382399 -0.37919334 0.36467135 1.3605074 -0.638915 0.023791712 -0.22874282 0.3158638 0.055543683 -0.4227903 -0.22330062 1.0867851 1.176952 -0.5171937 -0.57166487 -0.3832295 1.4176174 0.061312072 0.77849966 -0.40135017 -0.8362861 -0.24464877 -0.84552956 -0.83383876 -0.02333775 -0.25128826 -0.08021025 -0.06494043 -0.12439676 0.8740974 0.29234335 -0.43594 0.1032319 1.2884351 -0.7772987 -0.46793184 -0.52542734 0.53016394 0.010041288 -0.77284807 -0.2583025 0.7433297 -0.30178547 0.73667413 0.011130718 -0.29965913 0.033540346 -1.9208891 0.8587227 -0.24050215 -0.35798126 0.655325 -0.32155243 -0.25345093 0.10570624 0.06027545
2240 -0.5832365 -0.19424793 -0.20803024 0.23221178 -0.46169165 -0.8257873 -0.6851796 -0.46652582 -0.671153 0.17232935 0.1738029 -0.23030826 0.01959617 1.207258 -0.9002538 -0.7723826 -0.13192618 0.048424993 -0.10798866 -0.35795775 -0.265938 0.3650288 -0.1756019 0.33053765 0.27516952 0.24442023 0.32037756 -0.69731414 -0.37195915 -0.50555605 -0.6302913 -1.3093656 -0.1208245 0.727317 0.21729939 -0.49720597 0.6634589 0.12834051 0.7724401 0.019914066 0.80307716 0.393833 -1.2507501 -0.84306717 -0.37830186 0.08512685 -1.2602011 -0.3802686 0.3854066 -1.0501235 -0.50296676 1.1734867 -1.7016519 -0.40506002 -1.3178384 0.3659024 -0.04689677 -0.4277964 -0.027908204 -0.16228564 -0.36395586 1.365514 -0.32211637 -0.0017347321
2596 -0.5218025 0.28758413 0.5077738 0.96487457 -0.5944968 -0.84247494 -0.24287494 -0.79034364 -1.2414588 -0.2669819 0.42275393 -0.9335355 -0.85303247 -0.033363324 -1.2299981 0.37224197 -0.6724184 0.59310424 -0.2581803 1.0280719 1.1172649 0.78187776 0.6057523 -0.18234387 1.3713287 0.42452842 -0.307528 0.25249428 -0.6581314 -0.25936252 -0.9336298 -0.38560444 -0.10275191 0.16699962 0.059386425 -0.33973178 -0.0455554 0.59012026 1.0160838 0.9628676 -0.30039278 -0.004401778 -0.1780338 -0.9921212 0.097671285 -0.08832275 0.79028153 -0.96666664 0.22797297 0.042023145 -1.2891486 -0.07579793 -0.2800488 0.36943188 0.43436503 -0.8249623 0.17852464 -1.1205884 -0.1083955 -0.49418566 -0.057007477 -1.3185959 1.7263197 -0.2987592
2336 0.57811624 -0.2534727 0.6798429 0.14523198 -1.312838 0.6292182 -0.736966 1.0166036 -1.9504414 -0.3689872 -0.8365025 -1.2135528 -0.35665104 1.3347317 -0.27346075 -0.04491803 0.007406099 0.41363683 1.1511899 0.63925874 1.4103875 0.78615886 -0.02682133 -0.6426056 0.78371316 0.6641933 1.203972 -1.2726626 -0.28913894 0.16855954 0.056143563 -0.60059446 0.70620805 0.07579892 -0.56612504 0.4484874 1.4968123 -0.18823083 0.30899796 -0.43500248 -0.079452425 0.6689551 -1.297682 -0.19894795 0.34429622 0.74918926 -0.480568 0.48074615 0.3541465 -0.37352765 0.39675322 0.51599747 -0.09042407 0.32725286 -1.2623744 0.7402856 0.30580297 0.2930784 0.47955295 -0.6582737 -0.2785155 0.694082 0.29471502 -0.66805166
2370 0.37107217 -0.19121143 -0.027789697 -0.20743187 -0.16162062 -0.68939686 -0.27172247 -0.36938947 -1.7292771 1.024257 0.42700732 -0.36785263 -0.4221451 0.49296135 0.011298008 0.40205103 0.7291316 0.50691956 -0.089739315 0.120416015 0.18423577 1.0374343 0.26391897 -0.8396323 0.88383216 -0.41404802 0.9497527 0.117459536 -1.1654544 -0.8519648 -1.5099987 0.28009248 -0.022818 -0.97130555 -1.9068477 0.14339079 -0.15244843 1.406478 0.24900195 0.4946563 0.6284936 -0.07419283 -0.41208988 -1.4363385 0.065575235 -0.19688614 -0.8717848 -1.0405723 0.11260142 0.019970043 0.8891915 -0.6959298 0.13663505 0.9737751 -1.0645132 -0.86888397 1.5025631 -1.2999911 0.49662593 0.2674323 -1.9312137 2.0537817 0.64032435 -0.9711492
2405 1.6132377 0.8697306 -0.68320626 -0.07121402 -0.31459463 -1.204895 -1.5841349 0.4047396 -0.19326185 -1.0026212 0.40688887 0.21788652 0.68813056 0.49564007 -1.2231266 -1.4786708 0.05931918 -0.20804296 0.12095074 0.25778615 -0.727415 1.103506 -0.36983997 -1.8054975 0.34022382 -0.6349767 -0.10716052 0.8207827 0.21204911 0.12681822 -0.6407163 0.18363208 0.35664034 -0.5254956 0.83774906 -0.22222821 -0.9176392 0.7616347 -0.08636652 1.3800215 0.34153414 0.74273306 -0.3712055 -0.7324472 0.6760235 -0.2201261 -0.93868506 0.00022754377 0.14548738 -0.8768709 -0.11335236 0.5001709 -0.015035237 -0.25775483 -0.77464354 0.46712354 0.745475 -0.08255642 -0.119235285 0.1296729 -1.2797165 1.6881201 -0.08014558 0.76878166
2228 1.3501427 -0.033126112 -0.56754214 0.9492728 -0.8475365 -0.86967605 -1.9334023 -0.5151937 -0.582762 0.41990837 -0.38362405 -0.42258185 -0.12911932 0.029636903 -0.9179082 0.09796814 -1.0697895 -0.14259386 1.4750901 0.6174489 -0.034952436 -0.08009212 -0.3010796 -0.025019048 0.2998596 0.86070544 -0.19571513 0.62890005 -1.3863575 1.2495887 0.73706466 -0.64735454 -0.5474708 0.0024038777 1.5225505 -0.28700814 -0.21866222 0.25238147 -0.41202977 -0.75652003 0.49752033 0.4632848 0.40006626 -0.7572846 0.94121057 -0.26336238 -0.43497944 -0.08760171 0.10404807 0.050385002 0.035785157 -0.0410565 0.7181675 -0.4476345 -0.7422449 -0.7712592 1.5972481 0.5814982 0.49717414 0.06794898 0.09424178 1.3003355 -0.19355938 0.04384412
2485 0.27734032 -1.165388 -1.1723568 -0.07210011 0.2335736 -0.1199308 -0.85935646 0.5515717 -1.0104551 0.028213961 -0.07230842 -1.0792537 0.80574834 -0.34292874 -1.2511781 -0.3941873 -1.0829905 1.3660194 -0.54612696 0.35785207 0.53723043 0.3295971 -0.687721 -1.0896406 -0.38771358 0.09578378 1.1398113 -1.8033102 -1.0701683 -0.2277745 -0.2234096 0.14003626 1.0712804 0.30492762 0.0657953 0.6566383 0.092571765 1.4181203 0.53118396 0.9115621 1.2218258 0.6596036 0.20625585 -1.300746 0.5986757 0.04690339 0.87715137 -0.49410066 -0.5582436 -0.79257107 0.25620195 -0.7925892 -0.25208536 0.42886055 0.050347295 -0.3126218 0.40938732 0.16184224 -0.9002512 0.7040337 -0.45260963 -0.44546723 0.827827 -0.7839376
2552 0.93915254 0.10154068 -0.01942841 0.16004147 1.4212569 -0.6904562 -0.8992264 0.8340383 -1.2090061 -0.8940605 -0.014826961 0.65760726 0.28331864 1.4808234 -1.3364159 -0.84607506 -0.39187008 -0.86428183 1.3108186 0.07537027 -0.1339765 0.901499 -0.46449974 -0.28053448 1.2221056 -1.0173049 -0.19522484 -0.8065097 -2.4780388 0.5939113 -0.73063904 -0.6176899 1.0472674 -0.63772297 0.5215925 -0.12415654 -0.19569895 -0.6975527 1.0938692 -0.31317768 0.6162995 1.4798573 0.6616543 -0.53525627 -0.07211912 -0.67280406 0.048236735 -0.7319346 -0.53560686 1.0965192 1.0528994 1.1768157 -0.67098737 0.46218035 -0.07206855 -0.74044454 -0.32237458 -1.0913512 0.71752924 1.2346294 -1.4992405 0.046547662 -0.8599687 0.587932
2047 0.23200332 0.5246556 0.48878288 0.6681966 -0.66363037 -0.92014927 -0.12881328 0.46732017 -0.44671863 -0.7905629 0.35782418 0.2769935 0.5515038 -1.2969252 -0.16054393 0.12445305 -0.4387067 -0.5416443 -0.78584945 -0.055540796 0.47466326 1.0310259 1.4698662 -0.9235005 -0.62654877 0.19122966 1.0090425 0.23760474 -0.734506 1.4204334 -0.64186597 -1.3873954 -0.27710366 -1.6127251 0.060701326 -0.14800495 0.7061167 0.8796457 1.6087807 -0.2149635 0.558774 0.7957957 0.19864771 -0.13336484 0.6730575 -0.43614927 0.4040643 0.9956496 -0.87820536 -0.83434194 0.79095083 0.37108645 -0.80048096 -0.08990485 0.09132321 -0.6796775 0.16161703 -0.07391884 -0.16421309 -0.12121239 -0.8619841 0.031627458 0.4023221 0.53354716
2446 -0.18508154 0.017203348 0.25290883 0.47999567 -0.6330032 -1.556705 -0.20735364 0.07256994 -1.5653265 -0.9689693 1.116604 0.013044093 -0.21244949 0.21137208 0.057044186 0.7922088 -0.4975146 -1.0272877 0.34930992 0.9463654 0.27743265 0.32065707 -0.014664026 0.6714722 1.0838473 0.5148739 0.14578371 -0.12592883 -0.70372754 -0.32691127 -1.1643792 -0.12465147 -0.3256741 -0.42309466 0.47010043 0.256703 -0.31569383 0.7962787 0.36538368 0.55560076 -0.27121615 0.36156273 -0.20590003 0.059159257 0.63327414 -0.85505766 0.14455158 -0.58874965 -0.38534904 -0.91968936 -0.39676344 0.51412976 -0.45984674 -1.1680828 0.57622343 -1.4032809 0.8162887 0.5161227 -0.107054695 -1.0488565 0.20801955 -0.23182221 0.08498197 -0.10072309
2247 -0.009416945 0.27142906 0.12041473 0.37479085 0.583151 -1.3981804 -0.6322661 -1.0132188 -0.6087728 -0.2978014 -0.29757342 -0.96104807 0.40214399 0.20163512 -0.6303223 -0.057585064 -0.68481165 -0.790441 0.25224856 0.34008142 0.21307594 0.18870562 -0.08247088 -0.3743806 1.2299182 0.5286389 0.8398505 0.8133255 -0.65608686 -0.45753548 -0.5856487 -0.666231 0.7137692 -0.5596035 -0.6109549 0.06358677 0.36993822 0.53796273 0.25661054 0.098588936 -0.15379006 0.39974493 -0.32778648 -0.19185022 0.06601274 -1.3465432 0.33133787 -0.12033054 -0.31501874 0.7931017 1.7983127 -1.1312978 -1.1197854 0.026510034 -0.08039299 -0.32157582 -0.1567372 -1.5035905 1.0052353 -0.614211 0.19763975 0.3936209 1.0163404 -0.8355278
2326 -0.39661074 0.8465762 0.38304126 -0.078322865 -0.7039239 0.36001852 0.29210785 0.68104756 -0.6619996 -1.2974136 -0.5937707 -1.394303 0.23359327 0.3189705 -0.10177714 0.22040816 -0.22114052 0.20206189 0.6441906 0.35293332 -0.9059867 0.013861843 -1.3180857 -1.0960317 -0.3846525 0.26330182 1.4544276 -0.99562883 -0.6679357 0.57118666 -0.34768987 0.3613889 -0.467937 -0.888854 -0.8598597 -0.37494737 0.4097464 0.60085124 1.1439706 0.8118064 0.5483445 0.50306 -0.23532876 -0.54967517 -0.32128108 -1.6337482 -0.9233811 -0.09451978 0.68912816 0.13120684 -0.20925482 -0.011490201 -1.2739102 -0.0065262583 0.3716794 -0.7362687 -0.81018424 0.39302948 0.6974649 -1.0450915 -2.0114248 0.2106226 0.4841208 0.08643635
2524 0.64379346 -0.14087121 0.5129511 0.28504503 -1.142528 0.65705645 -0.16371223 1.1362394 -2.0539594 -0.061771177 -0.53838235 -1.6922786 -0.5173233 1.1436801 -0.32295033 0.54966426 0.19681266 1.1867445 0.96536684 0.8473254 1.7935358 0.63493663 0.08026456 -1.3170062 1.1713092 1.1376371 1.4785973 -1.5757753 -0.64585245 0.22786468 0.12042026 -0.7434413 1.1299485 0.27879488 -0.81289893 -0.26004648 1.2926246 -0.19533314 0.46746486 -0.0058631063 0.30855507 0.85296136 -1.7904948 -0.682386 0.7346845 0.4776621 0.002154586 0.18155974 0.28548467 -0.2989895 0.24251 1.0340683 -0.94734555 0.74315995 -1.8442789 0.37853587 0.40339282 0.53524077 1.033935 -0.8969534 -0.6628221 0.9695617 0.15792258 -0.4820778
2395 1.0136036 0.3317233 -0.1036454 1.1902608 -0.68925446 -0.89218235 -2.1228607 -0.3839629 -0.7117479 0.2707718 0.18039589 -0.23686524 0.32290247 0.45449564 -0.7951698 0.23623952 -0.56411564 0.17054845 1.2894585 -0.22235136 -0.25089595 -0.77419394 -0.14314766 -0.06902293 0.28159377 0.9886537 -0.36538255 0.72813576 -1.855678 1.2374808 0.30203223 -0.49644217 -0.5298873 0.39331615 1.4959172 0.23864554 0.26983595 0.29873407 -0.74536467 -0.5868521 0.54797137 0.07269015 0.070560716 -0.93459666 1.357669 -0.7161123 -1.2266612 -0.36739093 0.021804582 0.5073743 0.5706223 0.5907149 0.18911569 -0.07301303 -0.6058734 -0.73375493 1.9103605 0.7130595 1.4784826 0.47684184 -0.2095452 1.5286599 0.2986122 0.8838708
2507 0.70070595 -0.6302624 0.68128604 0.3476821 0.24499527 -0.6601953 -0.12826635 0.6014813 -0.64501256 -0.2853007 0.78249395 0.17198092 -0.9043482 1.5651538 -0.8086632 0.69396895 -0.07790201 -0.42685822 -0.21946488 1.3693805 -0.0058837454 -0.91905165 1.0636187 0.121813685 0.4250667 0.60817134 1.3434653 -0.3403099 -1.7201732 -0.57617617 -1.9354807 0.35272726 -1.865912 0.891593 -0.49358034 -1.1948216 -0.51402795 -0.1627899 -0.34013036 -0.41466278 1.2386241 -0.22703797 -0.788705 -0.6282946 0.89244276 -0.56424314 -0.25362542 -0.59242976 -0.4061832 0.48439008 0.37474948 1.4792997 -0.49877578 0.03143815 0.8973338 -0.36266625 0.20497079 0.41155165 -0.9199431 -0.11721459 -1.3967487 0.27560133 0.8518038 -0.8574635
1869 -0.10678447 0.14563099 0.49750257 0.21455707 0.91587925 -0.13603929 -0.07559835 0.18901199 -0.007761385 -0.29193377 -0.115430854 -1.0214239 -0.21285178 -0.29385328 -1.0310677 0.29300237 0.18590568 0.02242808 0.6112971 0.71269953 0.4497328 1.0580033 -0.279359 -0.0941093 -0.33315456 0.7367813 0.00081463123 1.0748804 -1.0246661 0.30176267 -1.2780874 -0.8565289 -0.580966 -0.4416298 -0.3519034 0.286412 -0.382603 -0.5512602 1.6533294 -0.5547031 0.59804684 0.2108021 -0.21904922 -0.56475234 -0.8786787 -0.11921168 0.12464477 -0.88925236 -0.43962175 -0.54560894 -0.018917138 -0.042706218 0.732827 -0.34157068 -0.72009784 -0.28394833 0.47977287 -0.5058689 -0.07084021 0.5459889 -0.5996885 0.19262245 -0.20416972 0.68192106
2436 -0.7309618 -0.98142326 -0.60801524 -0.21160421 -1.1439776 -0.5269817 -1.5206609 0.09548016 -0.8471717 0.858029 0.7415641 -0.92577356 -1.2940754 0.73772806 0.021593953 0.9019394 -1.4888138 0.83386725 -0.013224963 -0.4377534 -0.20774889 0.5812791 0.6547655 -0.22227162 0.8098267 -0.3897609 0.9418186 -0.66116977 -0.66658777 -0.26638633 -0.6487842 -0.9216326 -0.45556918 0.9268488 -0.32410717 -1.6006107 0.41643372 0.011516191 1.6011407 0.19233161 1.423567 0.46843684 -1.2637714 -0.5718489 1.2496358 -1.2975795 0.72328526 1.2357562 -0.5955207 0.4695448 0.6331685 0.28255436 0.41296312 0.52754354 -0.9959882 0.017387401 1.6823901 0.26540837 0.8079878 0.24184942 -0.66674197 -0.24201572 0.77415806 0.71549886
2046 0.2884418 0.10846265 0.5513363 0.29647002 -1.2908717 -0.36175984 0.26083335 -0.4850599 -0.4394283 -0.43323874 -0.0621805 0.24638884 0.5916606 -0.85504794 -0.53388304 0.040931273 -0.5164342 -0.5352033 -0.5817675 -0.19054751 0.5043101 0.87262356 0.70186555 -0.8643128 -0.08813119 -0.22927086 1.1098703 -0.093831144 -0.44142997 1.1373541 -0.08275415 -0.8280353 -0.36755386 -0.9254797 -0.26228422 -0.34437758 0.4255539 0.6193725 1.5588378 -0.3968248 0.7758374 0.51281506 0.47297144 -0.26979676 0.5325095 -0.22750558 0.18890987 0.41472128 -0.73913324 -1.0011395 0.6113759 0.3035496 -0.47739005 -0.10147627 0.51294905 -0.8610509 0.41229573 -0.25869533 -0.30529353 -0.14916529 -0.64106077 0.11130766 0.25732815 0.42070535
2083 0.010417855 -0.41812718 0.37027687 0.9343476 -0.36691675 -0.40975145 -0.07065846 -0.7439384 -0.49933153 -0.19036604 0.70148826 -0.98512393 0.49219358 0.7227446 -1.3405108 0.7050025 0.3540273 -0.20448844 -0.61498034 0.5172847 0.7886426 -0.9887965 0.73078287 -0.1021494 0.24347149 -0.786383 -0.11841363 0.08645468 -1.4301176 -0.6371826 -0.69014466 -0.3101833 -1.1015509 -0.79482585 0.018285748 -0.4837763 -0.5555653 -0.06138459 0.011876634 0.1967723 1.0661579 1.7745221 0.47187975 -0.10445829 -0.30319414 0.14432116 0.70028174 0.34112263 -0.18647145 -0.38337725 -0.35023773 0.4349472 -0.1182031 -0.63433254 -0.24948855 -0.633808 0.77839583 -0.7643169 -0.31215915 -0.9532149 -0.19515678 0.42146066 -0.18890126 0.2050643
1761 -0.17028652 -0.4187823 0.41587442 -0.0077203424 0.13956286 -1.394294 -0.4575384 -0.40228695 -0.83619165 -0.16054957 0.51861316 1.0160218 -0.33715355 0.23457225 -0.17981438 0.48088393 0.28558293 -0.19744807 -0.18901771 1.1148583 0.9166879 -0.5143947 -0.42881837 -0.38019776 1.2009245 0.07081664 1.0472975 -0.31497374 -0.58230346 -0.09588685 -0.7876259 -0.5874095 -0.2971964 -0.33495948 0.032803275 0.25406986 -0.3651655 0.74108905 -0.026978588 -0.24176058 0.20685741 0.9282108 -0.71457785 -0.15243065 -0.45925927 0.053521287 0.12364871 -0.8206083 -0.060224105 0.775936 -0.47976026 0.56877375 -0.21420245 -0.03639962 0.01701316 -1.8658471 0.60409415 -0.105887696 -0.53996634 0.9071629 -0.017891295 0.010641568 0.0983924 0.13134988
2305 0.47055155 0.093539216 -0.30310497 0.34694842 1.1739913 -0.44848415 -0.68887067 0.30954322 -1.2403188 -0.9533564 0.038503695 -0.30185792 0.32679132 0.8788492 -1.0144079 -0.25368962 0.38856214 -0.23443587 0.44494006 -0.24556541 -0.03279543 0.653437 -0.80730593 -0.41372615 0.79790807 -1.1370658 -0.12574601 -0.8089873 -1.7461346 0.35966733 0.109267876 0.072828226 0.5183971 -0.23819965 0.811166 0.03184256 -0.30978277 -0.80622864 1.0217564 0.207182 0.16095558 0.8559314 0.29343837 -0.5733855 -0.47556654 -0.9315689 0.2238323 -0.6413132 -0.54978323 0.49296665 0.72026896 0.37203166 -0.3655458 0.29723242 0.044538647 -0.55537856 -0.4959956 -0.69477844 0.5096708 0.7215095 -0.8509138 0.5434256 -0.9223136 0.5659277
2042 0.9752411 -1.3352433 -0.12210274 -0.5774692 -0.35398343 -0.96635276 -1.2764585 -0.31582862 -0.020805152 -0.51742435 -0.6006562 -0.90312445 0.95469815 -0.3545716 -0.30758566 0.46890822 -0.65756094 1.3321494 0.018382423 -0.42727038 0.42237252 0.57286584 0.97111535 -0.3874857 -0.63604015 0.6055479 0.6852908 -0.1494861 -0.713828 -0.08499307 -0.30605295 -0.33220375 -0.3873294 -0.7949277 0.87192 1.0953413 -0.6319509 -0.15739173 0.67592543 -0.82819647 0.07999454 0.91694695 -0.75636816 0.21522012 -0.50892204 -0.37755322 -1.0991096 -0.41291443 0.7276761 0.82675827 -0.14828593 1.7573572 -0.33785656 0.7709654 -0.58836454 -1.183694 -0.36628142 -0.43767238 -0.2387055 -0.43655077 -0.18011406 0.58466125 -0.21758385 -0.50812906
2486 0.1112331 0.009414642 -0.8142445 1.0197449 -0.09379893 -0.56804436 -0.29267123 1.1675496 -0.58840775 -0.6422732 1.1600424 0.6880053 0.27333313 0.98550874 -1.0949184 -1.8629324 -0.63535595 -1.1760368 0.75460124 0.70701206 0.71695656 0.5859904 0.166402 -1.0162326 1.4504492 0.3545086 0.69128704 0.9628523 -1.7817987 -0.08525606 -0.7263173 -1.177563 -0.17313825 -0.37050307 0.4030188 -0.08769438 0.87343657 0.13465288 0.44327584 0.6782592 0.40257394 1.0265399 0.6252586 -0.88041663 -1.1024668 -0.16689137 -1.1206975 0.12525696 1.4602721 1.4866552 0.73870003 1.6601992 -0.4190287 0.33184284 0.2838347 0.8653474 1.5023382 0.3800568 0.06098847 0.03490497 -0.14005603 1.5725555 0.41027603 -0.08577969
2597 -0.08742013 -0.011203979 0.97881377 0.559486 -0.22366026 -1.695375 -0.12347312 -0.2404227 -0.066254556 -1.0048274 0.6033314 -1.0581912 -0.8787096 0.52154857 -0.884191 0.9942864 -0.79491836 0.85821015 0.1965988 0.964523 0.29335037 -0.55249566 0.4166985 -0.030667763 0.55370796 0.2723446 -0.19234884 -0.5450016 -1.4330096 -0.35052514 -1.1184942 -0.9082624 -0.6826657 -0.18146217 0.072757035 0.4152988 0.081739604 0.9299082 -0.5016816 0.37140533 0.0593272 0.23167965 -0.46269166 -0.10901469 -0.6773838 -0.054792233 0.9471176 -0.30421218 -0.49887297 -0.1530464 -0.52862644 -0.071823925 -0.1773897 0.80335575 0.7263846 -1.3510576 0.33571163 -0.054535255 -1.0596888 0.11047362 -0.9702117 -0.047606874 1.1309823 -0.038032275
2110 -0.5796378 -0.12899041 -1.382996 -0.48843178 -0.08679415 -0.7299156 -1.6477786 -0.11140023 -1.7448148 0.5838998 0.76299757 -0.5132809 -0.41403928 -0.9589894 -1.9068229 -0.21763356 -0.88293153 -0.72775173 0.013133051 0.3399493 0.9204473 1.2543374 0.4145058 -0.72478086 0.3799949 0.6970564 0.48640108 -1.1882403 -1.1913717 0.62504894 -0.19152398 0.38878766 0.7132472 0.72734815 -0.041299716 0.3615166 -0.9188911 1.1915215 1.045871 -1.0940316 0.23801863 0.547492 1.3110926 -0.112912305 0.5631028 -0.43948388 -1.2640929 0.42832148 -0.5474341 0.035317097 0.51530045 0.136912 0.2872479 0.23403673 -0.6235939 -0.9179495 0.86006933 0.9631075 1.0034202 0.21913141 0.0193562 1.4870269 0.78564006 0.99518543
2080 0.93747306 -0.82909894 0.7653867 0.12582272 -0.13629097 -1.1032108 -0.68732005 -0.095016964 0.4261161 -0.33216664 0.6614257 -0.8776508 0.414508 0.5005703 -0.19572772 0.4464893 -1.0593415 -0.27085295 0.29407415 -0.6122182 0.51198137 -0.22334832 0.005993634 -0.845596 -0.47065103 -0.24559626 1.1706051 0.34783238 0.12094344 1.008733 -0.9414864 -0.36273703 -0.7563634 0.12959796 -1.1655694 -0.564489 0.23905687 1.4122938 0.72512597 0.48927388 -0.9527259 1.3242174 0.8745792 -0.17026596 -0.04230006 -0.62212324 -1.901534 -0.019573526 -0.3249841 -0.6151427 -1.2216095 -0.46923646 -1.0545764 0.8481121 -0.08271116 -0.7687816 1.4043652 0.011538389 -0.16565624 -0.85706276 -1.5310323 0.26438722 -0.32161498 -1.3443949
2519 -0.67301637 0.47426552 0.85326886 0.47823533 1.1486901 -1.4978344 -0.5067482 0.07218639 -0.332856 -1.9029477 -0.15130112 -1.7167222 0.082911834 1.0185918 -0.77321947 -0.5101851 -1.0548376 0.38453886 0.44907007 -0.66792977 0.04115067 0.33673277 0.12916388 -0.70043176 0.9787842 0.79473007 1.4439769 -0.44387117 -0.023873553 -0.87806356 -0.57572544 0.63737047 1.0750211 -1.132343 -1.3361077 0.7277706 0.06844185 0.14730978 0.28714606 -0.21288358 0.55949306 1.1543571 -0.77056605 -0.21194378 -0.2757402 -2.2712638 -0.032353587 -0.07361309 -1.0235567 -0.77502847 0.6394645 -0.033990026 -0.6784281 -0.32300988 -0.2392541 -0.6000224 -0.40358078 -0.7875382 0.22157948 -0.34954756 -0.5526766 1.2030907 1.0745859 -0.35226104
1958 1.5050776 -0.8546373 0.17584948 0.11940885 -0.26704717 -0.9605461 -1.3687209 -0.978227 -0.84887666 0.9043832 -0.47742295 -1.9930336 0.30067357 0.32922533 -1.5272645 -0.62158066 -0.014045015 0.22192799 0.2504759 -0.3085805 -0.53622913 0.862079 -0.52882046 0.09991208 1.2868377 0.06932656 0.2549445 0.705676 0.8825502 0.20923914 0.24850707 -0.6364035 -1.4621259 -1.0758153 -0.9754486 -0.15369552 -0.54358536 2.046874 -0.39745915 0.85964495 0.8141464 -0.8584385 1.3134967 -0.0348534 0.017182495 -0.10563025 -0.9955005 -0.15015075 0.25863108 -0.90479296 -0.20244499 0.343005 0.94394165 -1.5183499 -0.20313673 -0.6984441 0.37631205 -1.4505005 0.37065727 0.005780202 -1.2247179 0.2538916 1.4251194 -0.28906494
2358 1.3600966 -1.0022892 -0.22706555 -0.23969306 -0.6808931 -0.9944462 -0.9039792 1.0881579 -0.744552 -0.7169204 -0.30269498 -0.44782075 -0.08598199 0.10374454 -0.5747516 -0.75461715 0.151538 -0.654824 -0.5982835 2.3350527 0.6069272 -0.04626734 0.5274877 -0.4751158 0.14872472 1.2324145 0.49689177 -1.2342348 -0.3315011 0.5619253 -0.62387735 -1.5495577 -1.2132463 -0.38027328 0.61774105 0.81011796 -1.3101571 0.5182675 1.953833 0.7579579 -0.8119813 0.5910649 0.9573035 0.36773288 0.87798953 0.38506076 -2.0978713 0.065196685 -0.019178499 -0.54146487 -0.47920492 0.18072198 -0.35320374 -0.30512097 0.27124968 0.22089049 0.43659568 0.42352387 0.12861666 -0.6648857 0.29176387 -0.5256012 0.40941903 -0.26647693
2147 0.1493547 -0.095626466 -0.63136196 0.3278643 0.39992377 -0.7148713 -0.20314671 0.9561297 0.22207427 -0.49919814 0.78610086 0.7989362 -0.49663004 1.0310817 -0.8391266 -1.603192 -0.66788477 -0.5383988 0.5111829 0.29952028 0.37202996 0.45976558 0.3428455 -0.92322576 1.5060323 0.13627125 0.8948346 0.64860374 -1.4695886 -0.34204677 -0.8592939 -0.6572395 0.2548721 -0.65313673 0.6669232 -0.35444176 0.36554608 0.6256606 0.026657064 0.7110479 0.59884745 0.6629799 -0.07860939 -0.83707815 -0.7922524 -0.20182605 -0.60157865 0.517937 1.2413783 1.0160267 0.6935095 1.7734115 -0.862597 0.86659753 0.7257703 0.4636031 1.5444576 0.56496346 0.10551533 -0.021383934 -0.23528951 1.1079427 -0.16872045 -0.1305811
1013 -0.106647365 0.07317763 -0.100963876 -0.23776616 0.64501524 -0.86198634 -0.6513962 0.21155205 -0.84182894 -0.5223533 1.2060356 -0.8339878 1.5577384 -0.33440518 -1.4362683 -0.6251022 -0.53035283 -0.04428644 0.006557176 0.48596796 -0.47213584 -0.024362663 -0.49715748 -0.53082734 0.0206542 0.47941878 -0.57840836 -1.5419271 0.38649553 1.2533898 -0.34226337 0.16907877 -0.39691383 -0.4868045 0.38190627 -0.34625578 0.6387743 0.38998652 -0.07918133 -0.33230796 0.15536001 0.60010743 0.46437967 -0.9922362 0.69775385 0.15192644 -0.01317464 0.22792578 -0.65953356 0.26258993 0.5226898 0.3115542 0.63944644 0.51788735 -0.013793974 0.06171959 0.5592653 -0.15247484 -0.71055114 0.7385903 -1.0825143 1.1361806 -0.0056623537 0.005251516
1038 0.05911826 -1.1193526 -0.03161552 -0.121219136 -0.6022729 -0.5204521 -0.3310489 -0.6474065 -0.588534 -0.2193162 1.4521403 -0.06213522 0.15665294 0.45871508 -0.56448966 0.16857459 -0.84987366 -0.65762275 1.0485975 0.22361106 0.66946805 -0.24009293 0.64207953 -0.57091266 0.33736983 -0.037245598 -0.03152242 0.30469427 -0.7625332 -1.4113023 0.5709901 -0.23832583 -0.47196215 -0.29844287 0.42170116 0.5592337 0.3654734 0.22056256 0.48744604 1.3742899 -0.815287 0.7458112 -0.02524757 -0.96150565 0.06680901 -0.35206565 -0.18595739 -1.0867845 0.023009809 -0.14762574 -0.004475099 0.21578296 0.5579286 0.31465372 -0.27821875 -1.3236628 0.4975279 0.5907434 -0.06405416 0.09817331 -0.5882098 -0.35946733 -0.115987994 -0.4484237
1904 0.9488748 -0.25526738 0.41282523 0.74508685 0.06484966 -0.62581456 0.07247365 -0.5582048 -0.553826 0.12125491 0.6810719 -1.2973421 -0.109248765 1.0976392 -1.0829686 -0.23272797 -1.4174798 0.35349178 -0.4555765 -0.2911722 -0.47922045 0.67263407 0.32090327 -0.52470714 -0.028576845 -0.23607613 0.26319814 0.4944247 0.0015211373 -0.1890901 -1.2579509 0.43003288 -0.5965772 -0.21579824 0.1398414 -0.92378837 -0.010408336 0.29405883 0.59563315 0.20338671 0.53102124 0.3516616 -0.0029799126 0.34418088 0.08707652 0.25135335 -0.6093608 -0.3506124 0.7244385 1.9347402 0.6519743 -1.0281727 -0.11959418 -0.67824996 0.038474247 0.14606433 1.0756755 0.05095252 0.21305561 -1.321852 -0.07178004 0.49650693 0.58115673 0.684209
933 -0.14467654 -1.2661327 0.093179286 0.07144566 -0.6869626 -0.93984425 -0.40635478 -0.5736817 -0.6964115 -0.22034505 1.8337184 -0.3554947 0.25592124 0.37507832 -0.7301362 0.16525789 -0.75161785 -1.0026517 0.39103693 0.5844067 0.659406 -0.023191107 1.341783 -0.6251845 0.22604784 -0.3364125 0.17046586 0.54596823 -0.6366911 -1.3010411 0.48601466 -0.05086582 0.05869019 -0.23269658 0.90173477 0.89563465 0.12607941 0.32786196 0.7549308 1.5699878 -0.8442972 1.1976596 -0.14879285 -1.4298667 0.13139433 -0.44785985 -0.55001694 -1.2556173 0.19623734 -0.3679545 0.4847902 0.6560039 0.6255032 -0.015534751 -0.262143 -1.2761065 0.67996055 0.8304458 -0.47515014 -0.3323949 -0.6462645 -0.60593027 0.06086474 -0.4035206
2530 0.73129904 0.28547615 -0.6450957 -0.5681593 0.17992672 -0.05036447 -0.37564865 -0.40765113 -1.8664085 -0.16318801 0.7089064 0.20466675 -0.321754 0.6198638 -0.6481911 0.48020414 -0.4738124 -0.38258243 0.53380984 -0.8660837 1.5054924 -0.33549726 0.50777507 -1.0115978 1.2423525 -0.44863582 1.0039858 -0.6555318 -1.1782708 -1.0739838 -1.287199 0.0183638 -0.44246516 -1.1613934 0.682797 1.1849159 0.57333237 1.7685468 -0.8237257 -0.19255078 -0.39779904 -0.17607193 0.15886682 -1.0612774 -0.54254216 0.60356444 -1.36394 -0.42376754 -0.17198135 -1.0321996 0.3115425 0.54263854 -0.09598765 -0.22523387 0.00185402 -0.98515755 1.8823804 -0.075747035 -0.08419755 -0.27574372 0.014565699 2.0995486 0.658844 -0.2039185
2227 1.1312904 -0.105877005 0.061639816 1.2934922 -1.0503728 -1.0967381 -1.191527 -0.10763831 -0.51829964 0.63272077 -0.8234162 0.03948024 -0.15997338 0.14509977 -0.5991569 0.8142506 -0.9790486 0.17982863 1.2622461 0.80025667 -0.24708259 -0.05766136 -0.03777308 -0.3140041 0.2386838 0.9373036 -0.1947342 0.073346294 -1.2835174 1.1458297 0.46801066 -0.9894026 -0.12620988 -0.23802094 1.5548918 -0.3335118 -0.34021774 -0.39107904 -0.051451664 -0.5891364 0.9182025 0.6576173 -0.26835567 -0.7279202 0.8817796 -0.6042346 -0.52020186 0.2353018 0.35693318 -0.30584797 0.21113086 0.14124903 0.97791415 -0.47784036 -0.5574375 -0.7442028 1.6983258 0.53635377 0.17089352 0.10719154 0.08046112 1.0437982 -1.0493664 -0.15493333
1873 0.14239436 0.80647933 0.61551523 -0.06905591 0.26887625 -0.44848228 1.0995214 0.24354708 -0.022191638 -0.09552958 -0.8481179 -0.30464083 0.016560305 -0.11914429 -0.8651006 -0.76679415 0.2579561 0.28551623 1.1943886 0.36493716 0.7512949 0.6337836 0.7459908 -0.03043495 -0.10824405 0.15244888 0.97852135 0.26719245 -0.32489207 0.6686528 -1.0255696 0.099805966 -0.49845538 -0.46512902 0.22274344 -0.22810677 -0.0029852295 0.5793259 1.1753619 -0.030393159 0.24623883 0.23645124 -0.53460586 -0.17435205 -0.18692996 -0.22438805 0.07403203 -0.6599176 -0.3956803 0.11006006 0.57352227 0.3379943 0.09472047 -0.24949212 -0.35105163 -0.6572034 0.29005012 -0.24661574 0.44550627 0.005988185 -0.5942364 0.13252626 -0.19257852 0.7178311
2233 0.0528908 -0.02378206 0.67449725 -1.1607263 0.6724334 0.04327891 -0.82935894 -0.46099678 -0.6694631 0.5414819 0.52847034 0.94754 -0.57575756 0.42427933 -1.0337901 0.52673405 -0.56160986 0.40546408 -0.6721579 0.5601789 0.7648359 -0.30117476 -0.51218736 -0.46994406 -1.1441861 -0.38405445 -0.0030098185 -0.44988447 0.0079841195 -0.16947004 -0.40184778 -0.68057585 0.03985046 -0.5667539 -0.3567825 -0.031915937 -0.10103393 0.059022043 0.5305132 -0.69365263 0.7703225 1.8906169 -0.2591897 -1.1285728 1.8245034 -0.979757 0.07619654 -0.25938556 -0.07261003 0.3111837 1.3675613 -0.32746178 0.00564424 -0.06268953 -0.7339949 0.09197267 0.18564366 0.5507528 -0.18273434 -0.26635066 -1.4617271 0.47709933 -0.46371385 0.49811932
1828 1.1595944 -1.4014459 1.928914 1.351533 1.3881654 -0.4177683 0.0872325 0.2744109 -1.823916 0.73034596 -0.0074860468 -0.5609137 -0.03610296 1.813493 0.014597128 0.38917345 -0.7947252 1.1988978 0.2604138 -0.30562216 0.52245355 -0.053402923 -0.22524309 -2.0304875 0.25077522 -0.15644257 -0.049442053 -0.015092492 -0.8965685 -0.939301 -1.2456074 -0.6017642 -0.6960964 0.5765184 0.17042488 -0.11418536 -0.061071735 1.0897783 0.5537077 0.8332112 1.0900841 -0.7201951 -0.5946709 0.18053742 -0.9948627 0.71066946 -0.1155057 -0.671961 -0.3099757 1.76894 1.913047 0.5737647 -0.1476891 0.7045003 -0.071886055 -0.14749026 0.81208587 -0.8868049 -0.06018019 -1.1523293 -0.598993 0.5154264 0.5371781 0.265997
2327 -0.518551 -1.0474126 -0.71356815 0.49863192 -0.8131601 -0.98159 -1.0690163 0.3386166 0.19067326 -0.60556835 0.07573227 0.051870003 -0.059639018 0.68030506 -0.40221438 -0.6905332 -1.316192 0.078111894 -0.19774722 0.06585299 0.47762004 0.6251948 -0.6414146 -1.0073615 -0.42328683 -0.7320056 0.20845513 0.61169684 -1.3047796 1.3820443 -1.6430802 0.44164696 -0.5638036 -0.78518873 -0.73063064 -0.44183087 0.75782835 1.5400602 0.7638658 -0.4359213 -0.26310173 0.80019194 0.17100875 0.3624108 0.09654042 -0.50385034 -0.681176 -0.14125526 1.0523194 -1.0129817 -0.23045048 -0.06485373 0.088325545 -0.033954907 -0.039937932 -0.69805694 0.99846387 -0.757971 -0.75051033 -0.45610666 -1.2380022 -1.0618778 -0.52105975 -0.86938274
1308 0.6460764 0.24709198 -0.100243896 -0.7718302 -0.10733209 -0.36199093 -1.1854568 -1.1704404 -0.98460585 -0.22703056 0.011846787 -0.4839085 -0.15784734 1.0775226 -1.149241 -0.16225943 -0.4833911 1.1059847 0.51708174 -0.48904604 0.024714632 0.4083506 0.40490723 -0.39448088 0.34442383 0.15109232 0.26225665 -1.2058471 -0.5264605 -0.28126255 -1.5550988 -0.4171768 0.030455673 -0.0005505758 0.9486188 0.593086 0.5193958 1.2919276 0.14307639 -0.08307823 -0.66644377 0.32019487 -0.44411927 0.03268047 0.10547787 0.4147581 -0.16974637 -0.29539993 -1.0099543 -0.8723576 1.1304125 -0.44662914 -0.40634894 -0.6837072 0.07299123 -0.99939847 -0.03491538 0.5132946 -0.6680288 -0.8847207 0.5391912 0.5231702 0.470118 0.91055924
1829 1.1315622 -0.2595507 0.086430244 0.51935446 0.7970043 -0.044515487 0.5458116 -0.51022834 -0.6169822 0.43158698 0.3150295 -1.465583 0.2565296 1.2939562 -0.7561027 -0.14101009 -1.2766129 1.0594131 0.6496341 -0.27235508 -0.39838713 -0.19347014 0.24342138 -1.1017826 0.47829276 -0.1268829 -0.21577865 0.5238536 -1.0542032 -0.35494846 -1.0001734 0.046270266 -0.6839152 -0.09620847 0.3177699 -0.34882456 0.08027581 0.964475 0.8306987 0.8748189 0.8578199 -0.5045466 0.3421956 0.3224515 0.2656764 0.18091306 -0.1744886 -0.6908004 -0.082333185 1.9689409 0.9440755 -0.54085606 -0.32758617 -0.1759326 0.4483028 -0.15850124 1.1313245 0.040670358 0.13163264 -0.79648525 -0.729444 0.027002439 0.70160496 0.6626848
2360 0.17955308 -0.08183631 0.4828029 0.64028156 -0.74434227 -0.9334844 -0.67529404 -0.07228888 -1.3192049 -0.004521983 -0.5779336 -1.4555792 0.3852895 -0.60270053 -0.8139059 -0.6446477 -0.8437886 -0.052641716 -0.0016523951 1.0399634 0.05554212 -0.62970906 0.72570306 -0.81802016 0.72340256 0.36812806 1.3001364 -0.98975366 0.19972408 0.43662924 -1.3016685 0.17597994 -0.24067941 -1.6513617 -0.5679892 -1.4379349 -0.50575167 -0.66746837 0.17382568 0.401529 0.63855416 0.1370042 -0.7911027 0.31308138 1.4561225 0.14499265 -0.541275 -0.52479947 0.103552416 1.2028773 0.24128784 0.15974717 -0.45945725 -0.23448004 0.8527423 -0.46884423 -0.57754564 -0.8679271 -0.23361611 0.9893848 -0.88767153 0.23844166 -0.19841097 -0.41033444
1721 0.22209299 -0.43550304 -0.21509174 -0.74338394 -0.31777093 -1.433315 -0.40940812 -0.079774186 -0.5349565 -0.6927567 -0.09685063 0.639435 -1.1274323 0.3010712 -0.6692367 1.0571467 -0.1451314 -0.22713113 -0.21720812 1.462512 0.9230135 -0.34074077 -0.23512731 -0.12163729 0.899472 -0.50529534 0.77985436 -0.37739182 -0.21765827 -0.5311782 -0.5849967 -0.8929559 -0.11478922 -0.84688 -0.1392438 0.14451037 0.117754884 0.33013707 0.03750124 0.68256277 1.009518 0.26883602 -0.14139847 -0.17836191 -0.37929857 -0.47531202 0.17499034 -1.0178242 -0.35703087 0.5522174 -0.66353995 0.43071887 -0.61650765 -0.031802297 0.31349152 -1.7482861 0.16691922 0.48127055 -0.5192317 0.7540484 -0.26934415 0.11282584 0.09779188 0.2435238
2199 1.3338389 -0.48450446 0.0874353 -0.8745212 -0.89052206 -0.829715 -1.2089049 -0.04973946 -1.2175678 -0.45259234 -1.6094023 -0.15178023 -0.41166642 0.37631255 -0.9296809 0.3849902 0.40188378 -0.505681 -0.018586023 1.535218 -0.00017040003 0.2582153 0.0832194 -0.053041764 -0.26605558 -0.33226648 1.0573229 -0.5758105 -0.382677 -0.07086009 -1.1408154 -0.6688844 -1.6825004 -0.3894736 0.6388997 -0.84128326 -0.05400692 -0.6679679 -0.06968665 -0.5478255 -0.039933328 0.3322663 -0.28244996 -0.8343595 0.9309291 1.2080454 -1.2037463 0.5443215 0.96296567 -0.5182612 0.7627822 -0.22977452 0.6234956 -0.22741456 -0.92049736 -0.019610284 0.608279 1.5943774 -0.47980836 -0.95100963 -1.1981986 -0.09513978 0.71278644 0.34874862
1483 -0.38871807 -0.17352138 -0.2062372 0.24057531 -0.4547791 -0.79974264 -0.26718277 -0.76975584 -0.61308765 -1.0753081 0.46452597 -0.57648903 -0.121904366 -0.007922377 -1.3699667 0.6487975 0.18049538 -0.108254895 -0.31986144 0.21288344 0.58495516 -0.14340158 0.80835146 -0.55294853 0.06607801 -0.68116874 -0.012827335 0.007843255 -1.0864829 -0.71888393 -0.92359114 -0.38129926 -0.7178227 -0.5627195 -0.70005447 -0.0803707 0.9738146 -0.29549357 -0.24479967 0.4263452 0.41563 1.4230138 0.3001292 0.1220403 0.1238055 -0.1347112 0.13499124 0.5446777 0.29149982 0.36802262 0.19265667 0.502786 -0.052687775 -0.9415048 0.14001098 -0.68439883 1.0297945 -0.2361958 0.0024694344 0.5100504 0.05987105 -0.8936769 0.46986222 0.13757257
2651 0.018183166 -0.94221675 0.11668594 -0.4249937 -0.96747965 -0.7036185 -0.6806257 -0.7530756 -0.9590447 -0.98496634 0.064700216 1.0819297 -1.5908568 0.20261163 -1.3089614 0.043453943 0.15929727 0.4417654 -0.45257032 2.4354088 0.2337652 1.0714902 0.68437004 -0.5772933 0.8309791 -0.21912031 0.52410877 -0.4807876 0.35937852 -0.7300011 -1.0275643 -0.9019359 -0.42806536 -1.0233283 -0.21455178 -0.62634975 0.48016894 1.390031 0.276874 -0.036261067 0.9739561 0.23912911 0.38250595 -0.50260174 -0.5881995 -0.14860381 -0.15164204 -1.693393 -0.42339155 -0.23360218 -0.68661743 0.18085006 -0.46513313 0.23603788 -0.27721226 -1.9053733 0.88468933 -0.34377375 -0.9217593 0.92673695 -0.18247342 -0.54927534 0.044035375 -0.46011758
2578 0.67869484 -0.14599305 0.84657425 0.8722134 -0.79501987 -0.80386055 -0.61524373 0.11384112 -1.6325735 0.14661509 -0.6422395 -1.1367149 -0.31842232 -0.25372517 -0.5446875 -0.80663496 -0.78369486 -0.42715043 -0.27489972 0.7643325 -0.23325935 0.04287932 0.4607351 -0.98853564 0.9375436 0.24509826 2.0795553 -1.1019446 0.5473881 0.34571585 -1.8101693 -0.28071564 -0.27481022 -2.1546032 -0.80749667 -1.3905804 -0.38428915 -0.23020233 0.68429536 -0.3592564 1.1434644 -0.084566005 -1.0973023 -0.3612733 1.3950268 0.066920616 0.08648143 -0.7569564 -0.23904298 0.8753524 -0.16358104 0.03380028 -0.44454643 0.10384054 0.9929275 -1.4913688 0.1672959 -0.8685007 -0.15008278 1.39793 -1.1407429 0.010278279 -0.32480842 -0.07374478
1169 -1.0018638 0.077823356 0.34713927 0.43909034 -0.16627006 -0.7565506 -1.0020313 -0.86818576 -0.49815834 -0.6654043 -0.19895561 0.1523849 -1.0123923 1.3530012 -0.8882095 0.9739906 -0.4808283 -0.37914646 0.6785131 0.37119362 0.31468293 0.22564527 0.36255708 -0.8223965 0.22531767 0.16004536 0.14104646 -0.5832153 0.35122335 -0.42891297 -0.060996704 0.17356376 -0.682738 -0.1962524 -0.029525066 -0.0028698617 -0.0069952453 0.58798516 0.120812155 -0.26772743 0.54997265 0.5709161 0.24480148 -0.7816112 0.039339263 -0.96035105 0.63529205 -0.6545466 0.057445418 0.08987925 0.8679481 0.52023685 0.25257474 1.212681 0.16312878 -0.31274077 0.60410875 0.33691517 -1.8939545 0.4052455 -0.28732583 -0.2991178 0.60583 -0.78178364
2126 0.57595533 0.48983973 0.15230015 0.38695973 0.38998064 -0.7429973 -1.6834416 0.078246854 -1.616205 1.0177186 -1.3816216 0.44316924 0.106375985 -0.10540308 -0.19056934 0.4674896 -0.65195215 1.1260402 1.4629742 1.2149744 0.50868005 0.8140218 0.29751363 -0.88980323 -0.2622855 -0.32063574 -0.29888633 -0.9277087 -0.022967003 0.044322405 0.9097571 -0.22536059 -0.29630655 -0.23120832 0.4538735 0.32532334 0.69294316 0.27442443 -0.32303736 0.14766386 1.3008628 1.8195418 -1.3645198 1.1025721 -0.20870005 -0.31968254 0.76429904 -0.88125587 -0.46684498 1.4197063 -0.47003117 0.6371816 0.6344243 -0.24572901 -0.403564 -0.53042793 2.0985932 -0.48207125 -0.017246712 -0.73478746 -0.28247407 -0.028438754 0.4021919 0.2300624
2016 -0.1991044 -0.59814 -0.014432185 -0.12229087 -0.43785864 -1.4887255 -0.12080148 0.0037092764 -1.4378287 -0.41414472 0.59601384 -0.8720718 -0.48239455 0.12214024 -0.61733186 -0.38823608 -1.0153115 0.76699096 1.3293879 1.4765234 0.31309915 1.3540574 -0.27583864 -1.130131 -0.053698793 0.8104137 0.06226534 -0.38148555 -0.57837796 0.2023602 0.6885156 1.2988529 0.6294559 -0.69982713 0.1025775 -1.6264695 0.33639574 -0.17802143 0.9959875 1.2983431 0.2749213 0.6103394 -0.12914594 0.4764431 0.6450294 -0.6163926 -0.2714011 -0.3242532 0.8515644 0.092254646 -0.035772353 0.3403445 0.8247589 -2.0131679 -0.037555847 -0.106717 -0.5259399 -0.32222158 0.38645253 0.3635774 -0.3066224 -0.08548044 -0.75353473 -0.45162854
2466 0.23400545 -0.35551432 -0.20645246 0.68694055 -0.93678516 -1.0818975 -0.16221756 -1.0624661 -1.4995825 -0.3107718 0.74818015 0.12514095 0.09923448 0.24830188 -0.12503968 0.8640794 -0.1269004 -1.4303976 1.7461914 1.1089809 0.9072989 0.04603555 0.5984482 -0.78002363 0.70045996 -0.17443533 -0.13961281 -1.1109189 0.68012667 -0.29137418 -0.776594 -0.37713894 -0.11687806 0.29331705 0.37744653 1.1748044 0.54682124 -0.12242781 -0.028117156 0.28264228 0.5520198 0.45841917 0.25077647 -0.16669214 0.3755891 -0.35146865 -0.7016326 -0.8879667 0.054545205 -0.3840187 -0.18770427 -0.8140732 -0.050383545 -0.007560644 0.9154111 -1.9248472 1.3601 -0.6218985 0.77609473 -0.5833332 -0.975945 0.012327841 0.5497634 0.239403
2476 0.4356528 -0.028419008 -0.28335744 -0.6702665 -0.9613457 -0.16348122 -0.6175303 -0.73523206 -1.1305124 -0.4709626 -0.20030634 0.9659623 -1.0694909 0.24382034 -1.3032115 0.18013656 0.058733195 0.27187973 -0.12510441 1.8243042 0.03761205 0.45959678 0.52625 -0.5490891 0.5896567 -0.5740796 0.37577748 -0.20289402 0.019344179 -0.50375247 -0.47116005 -1.0600265 -0.47330752 -0.4782152 -0.52053666 -0.44222263 0.62848777 0.9603878 -0.035288543 0.13321508 1.2020574 0.17420267 0.5649332 -0.7198016 -0.4413297 -0.6981039 0.48019382 -1.1711742 -0.18019553 0.50104314 -0.5914116 0.35103527 0.15986417 0.052216887 -0.19589747 -1.928009 0.70923376 -0.0013923037 -1.1683536 0.9597912 -0.42712256 -0.40125236 -0.34399015 -0.24113527
1072 0.6243147 0.6171038 0.42937133 0.5278741 -0.7843314 -0.30770513 0.28460127 -1.4016547 -0.26160893 -0.65285516 0.27525607 -0.45550984 0.5165882 0.39301348 -0.31310323 -0.21175599 -0.82026565 0.6466379 0.31033114 1.0912234 -0.30841696 0.6458428 0.27810177 -0.93455124 -0.11020938 0.10254514 0.5094658 -0.51104426 -0.8845125 -0.4546894 -1.1496499 0.7961346 0.00934281 0.18961358 -0.9613908 -0.3660683 0.7981183 0.326277 0.57368547 1.0458323 0.15402974 0.46062458 0.5168472 -0.03338658 0.48454198 -0.56658036 -0.39187327 0.5409045 -0.25701603 -0.36920065 0.117214434 -0.18224674 -0.05070321 0.40119213 0.16239516 0.10508727 0.024414781 -0.35708785 -0.64480305 0.5655 -0.1683746 -0.604346 -0.01705453 1.1862139
1798 0.7283699 0.47338396 0.6598061 0.16263151 -0.8924044 -0.6488122 0.30663654 -0.7065663 -0.07570399 -0.4633245 -0.19911265 -1.392731 -0.33240485 0.010029573 -0.028163292 -0.099308886 -0.67141545 0.5040551 0.38385195 0.51405454 -0.53526545 0.53476423 -0.3401141 -1.5443135 -0.40270147 -0.18859799 1.4016697 -0.18299739 0.47169158 0.31586623 -0.82047653 -0.171455 -0.47673255 0.16603212 -1.4079379 -0.43833447 1.3459004 0.5461074 0.20719376 1.1300958 0.052525584 2.3175733 1.1446649 -1.7432806 0.73720974 -0.48754194 0.592594 0.910927 0.20956658 -0.23900315 -0.26011157 -0.21556708 -0.9641084 0.13786261 -0.15381683 -1.077644 0.6474397 -0.459433 0.3510104 -0.5783838 -0.7783962 -0.090201445 -0.28512028 -0.84560966
2357 -0.23479831 -0.22288918 -0.5724699 0.17113823 -1.0141884 -1.6779172 -1.4083704 -0.7423087 -0.08580662 -1.0852947 0.92528975 -0.38158303 0.7665092 -0.91816074 -1.1286817 -0.023452003 -0.40386978 0.5334789 0.9496296 0.9612588 0.13489966 0.1468169 -0.75460833 -0.91828114 -0.72520703 0.58409196 -0.35201997 -1.194741 -1.1843339 -0.113335215 -0.5628689 -0.7780184 -0.5453074 0.2645149 0.505878 -0.13534117 -0.28676063 -0.9859399 1.3546842 -0.84717673 -0.15695246 0.97784555 -0.085307665 0.68671304 -0.731595 -1.2983298 0.8595103 -0.16640176 -0.28879932 -0.65843815 1.2325643 -1.1327605 -0.568831 -0.40825468 -1.2130972 1.3736748 0.5509104 -1.2250471 -0.08106007 -0.6470486 -0.99686474 0.8653314 -1.4740576 0.23998284
2324 0.3072586 -0.84848 -0.11680182 -0.37623534 -1.1341705 -1.0028614 -0.3572869 -0.27758852 -1.3179275 -0.9202629 0.89063233 0.26776025 -0.09495257 0.074466065 -1.5579956 0.23380783 0.23064971 -0.67021596 -0.4767146 -0.72901285 -0.29545972 0.19564281 0.6142556 0.6179954 -0.6175805 0.2959528 0.82149523 -0.09526209 -1.915913 -0.13040309 -0.787284 -0.66876525 -0.7420892 -0.9867594 -0.33256623 -0.80560267 1.2135259 0.3073532 0.03219842 -0.0627204 0.76432526 1.0032219 0.52115893 -0.24456267 0.67007333 -0.30381742 0.51648736 0.4968113 0.021139368 -0.37581843 0.8245424 0.7591368 -0.10726167 -0.51373637 0.58042043 -1.4886367 0.8715885 -0.8435613 -0.03212089 -0.06866893 -0.2780874 -1.4108807 0.37097496 0.05944344
2425 0.8473338 -0.6324112 -0.46376497 0.3831726 -0.63537556 -0.9534251 -1.2339 -0.18444905 -0.1954562 0.13417815 -0.63347405 0.56349 0.14695965 0.80630773 -0.79836893 0.59745455 -1.5258515 0.3683256 -0.23133357 -0.7876024 1.1312311 0.44867137 0.05554156 -2.0406682 -0.9605536 0.7026403 0.9543298 -0.82613844 -0.25170666 0.022038726 -0.25311282 0.8074405 0.75964123 -0.75159585 -1.0003774 -0.4803799 -0.3895411 1.2872248 1.0018992 -0.014405884 0.40858728 0.98096985 -0.10007912 0.12793493 -0.21011557 -0.060537815 -0.10807593 0.07353562 -0.03473218 -0.17332008 0.48060447 -1.3739271 0.6518856 -0.048461236 1.3102269 -0.6657964 0.86205137 -0.64140564 0.3154085 0.4945225 -0.3962414 1.1158624 0.8196774 0.141126
