2707 64
1358 0.76137453 -0.23156771 0.23803857 0.36044237 -0.53640884 -0.37999848 0.3107707 0.3391139 -0.7674952 -0.5080214 0.82493234 0.59563816 -0.16969295 -0.7170175 0.45495677 0.40894192 -0.002121337 0.20300284 -0.070270725 -0.306787 0.24914266 0.562488 0.15163249 0.063787885 0.47044194 0.27606952 0.048104946 0.62903 -0.14551362 -0.19006807 -0.29663083 0.6951987 0.09605488 -0.11824874 0.8634617 0.3061505 0.64460415 -0.35614643 0.3995611 -0.2700748 -0.08025954 0.6469676 0.4345756 -0.25932977 0.52927977 -0.11690991 -0.47757363 -0.08584693 0.74233073 -0.07644181 0.3408997 -0.30511576 0.8567722 -0.621126 0.75630707 -0.039708685 0.26116487 -0.29567406 -0.014242879 0.16332571 -0.44186327 0.006984212 -0.08652678 -0.2811126
1986 0.36183518 0.010091354 0.06629087 0.05133538 -0.7342795 -0.43066967 1.0337111 1.0703117 -0.6151486 -0.04234738 0.68605983 0.85704565 0.79375726 0.36466 0.4867567 -0.19189684 0.34275156 0.29161435 -0.13545445 -0.123802334 -0.08469287 0.55330545 0.1428802 -0.51970667 -0.5922393 0.12006591 -0.43773925 -0.5243947 -0.097372904 0.63331085 -0.3249342 0.3611574 -0.75666183 -1.1487142 0.08571964 0.41138452 -0.813306 -0.3438762 -0.4610599 -0.44910675 0.69295 0.029592862 0.32961503 1.046332 0.36812663 -0.5700797 0.1499012 -0.21079695 -0.7678962 0.38778368 0.33106732 0.11669209 -0.023407914 0.68079674 -0.17772213 0.27711466 -0.014244821 -0.10812947 -0.32420087 0.029270636 0.19506 0.22681375 0.05420368 -0.16982089
1701 0.7642746 0.24636404 0.61830264 -0.00397347 -0.0031589188 -0.38811293 0.77658075 0.17497396 -0.97413915 0.85136586 0.22627726 0.36572123 0.9729791 -0.5538155 -0.5234713 0.25363794 0.17606914 0.37776598 -0.43352678 -0.2678658 -0.08189796 0.13043728 0.3759891 -0.5582921 -0.69427454 0.2347444 -0.7484036 0.12453333 -0.16440451 0.122159116 -0.5988749 0.63105583 -0.91097116 -0.92433625 -0.25851038 -0.8514777 -0.622869 0.3340277 0.098654 -0.6980415 0.97976017 0.34580332 0.5881015 0.74374795 0.5118711 0.46501043 -0.51871234 0.095268056 -0.45614588 0.7486372 0.79439384 0.14469022 -0.42592365 0.49547648 0.4663684 -0.03517033 -0.50793666 -0.061689544 -0.22225408 0.5318593 -0.12288095 -0.51835454 -0.32253635 -0.31512427
2034 0.27076685 -0.20150115 -0.66758645 0.9064624 0.13128342 0.4042151 0.20789461 -0.04828326 -0.8294628 0.2933924 0.23244454 0.5931356 -0.05148178 -0.4260224 0.16733709 0.2326788 -0.21341713 0.049064748 -1.206431 -0.17251968 0.044720646 0.18339024 0.579874 -0.506988 0.36934754 1.0224696 -0.8106795 -0.40626374 -0.4402239 0.3251976 -0.3475653 -0.8432159 0.11664166 -0.31610847 -0.046900265 0.29669222 -0.7457355 0.18774964 -0.238042 -0.54927105 0.4896318 -0.7603575 -0.26427948 -0.5158074 -0.16706322 -1.0374675 0.0022371009 0.14541069 0.1823577 -0.28489098 0.41540608 0.79862976 -0.53302884 0.7643603 0.94361204 -0.010437137 0.043855336 -0.24003482 1.1382182 0.30344522 -0.3289055 -1.032123 -0.42058 0.17372574
2249 0.2535865 0.16031784 -0.6965925 0.49405542 -0.07984057 -0.22164601 0.19430108 0.16538776 0.0077019567 0.40338385 0.508996 0.110011466 -0.20473681 0.35098407 0.260665 0.7020397 -0.09846885 0.40536976 -0.95605135 -0.7221242 0.41919976 0.5348195 -0.15141936 0.38439834 -0.32104257 -0.20205563 0.08727983 -0.6091603 -0.49085265 0.14499028 -0.07167166 -1.0506979 -0.049520243 -0.59161144 -0.8345764 1.627623 -0.39891964 0.005710997 0.21171115 -0.798447 1.4593604 -1.2908202 0.7019457 -0.86676425 -0.36519748 0.11800761 -0.31702644 -0.7763475 0.89690876 -0.27520245 1.2222464 0.7429892 0.27944937 0.019721305 0.57698274 -0.22684297 0.07453958 -0.889686 0.49072853 0.39737022 0.21753359 -0.63848764 -0.20461234 0.6327955
2045 0.3601971 -0.13821077 0.9453204 0.39583996 -0.3527444 0.22022153 0.47927293 0.86005956 -0.552851 0.7978274 -0.0072740032 -0.4623675 -0.340317 0.09187975 0.5804652 1.1218404 0.20134205 -0.5236038 0.054238737 -0.21438317 0.087782376 0.442113 0.5738707 -0.17918184 0.1150054 0.85286707 -0.37676483 0.0077666678 -0.5386534 0.20902349 -0.31849247 -0.18814018 -0.6307993 -1.7808462 -0.9822174 0.08473244 0.13720949 0.23336357 -0.06921778 -0.660269 0.52800536 0.584249 -0.08438903 0.69090927 -0.61044 0.12739795 0.07861632 0.37309268 -0.3828014 -0.68873584 0.35911515 -0.0040977965 0.7203584 -0.00024037788 0.48956865 -0.2745756 -0.85672206 0.62994295 -0.11085067 0.018113011 -0.6838589 0.38802102 -0.81740713 -0.3163669
1810 0.11111034 -0.10762287 0.06257829 0.7662296 -0.47469753 -0.56015396 -0.4160247 0.044395283 -0.08107267 0.73412985 -0.2349063 0.52878374 0.23187895 -0.32331678 0.7965857 0.19114201 -0.30864477 0.28516388 -0.8778529 -0.23087752 -0.0834707 1.0072628 0.51436675 -0.28690225 -0.4055528 0.088163145 -0.8553432 -0.4392889 -0.12846342 0.27251464 -0.5894277 -0.7487153 -0.961922 -0.45949882 0.22586384 0.27474415 0.2527599 -0.40423676 0.27486554 0.3485295 0.467055 -0.1311574 0.79949087 0.9658787 -0.4387989 0.1384379 0.75094455 1.2207025 0.23127297 -0.34054336 0.10249082 -0.0022931132 0.060063664 0.59016067 0.021270053 -0.4584411 -0.22495262 -0.93982065 -0.26928303 1.6395386 0.37863037 -0.9684253 -0.4466791 -0.21535699
2182 0.0836677 -0.51062596 0.42325088 0.5734655 0.8527279 -0.51851803 0.1085817 0.19585826 -0.8941395 0.44110608 0.7662494 0.40716967 -0.38413763 -1.1262076 0.48524556 0.41402858 -0.49476713 -0.37604097 -0.44120508 1.6797229 -0.019753102 0.6053056 1.089662 0.3589497 -0.16958004 -0.31510514 -0.8700395 0.73111486 -0.2076861 -0.24427322 0.6230413 -0.2698784 -0.7226361 -0.2592893 0.057426017 0.18261851 -0.28714985 -0.89394265 0.040696178 0.17713194 -0.0835441 -0.49329212 1.001771 -0.9979921 -0.52650654 -0.12662923 0.35734248 -1.5147923 -0.07580579 0.78733486 0.8612705 0.03585735 0.38860342 0.26056 -0.6132625 0.16061886 -0.85704637 0.1154475 0.6777472 0.3071881 -1.1402712 -0.47620806 -0.5391685 0.31982306
1765 0.28451663 -1.5632261 -0.23790015 -0.6542886 -0.5066503 -0.45131457 0.28614202 0.18418126 -1.0223371 -0.711494 1.0947636 0.6971199 -0.64442414 -1.0335394 0.8989743 0.1818201 -0.29154998 0.7461063 0.08032374 -0.09891537 -0.5133428 0.64688516 0.45193985 0.7035418 0.8065211 0.7870477 0.30592528 0.21406102 0.33042675 -0.10885323 -0.9310586 0.035518333 -0.29168755 -0.65640086 -0.003984111 0.60980004 0.5197234 -0.8924438 -0.17304415 -0.32325822 0.34477106 0.47597075 0.63683933 -0.186548 1.1981162 -0.7774533 -0.34619045 -0.008022166 -0.022945387 -0.41395777 0.87224627 -0.5638128 0.91022366 -0.14660865 0.8522905 -0.29912543 -0.1228166 0.02462206 0.12794843 -0.09622974 -0.3649482 -0.044161115 -0.19087914 0.14418928
2451 -0.5071305 -0.2835847 0.38163182 -0.1745524 0.25012296 -0.71260566 0.13093771 -0.12619618 -0.8688899 -0.56353223 -0.13739757 0.6624769 -0.36880904 -0.5937496 1.3919767 0.5542407 -0.42040497 -0.32085687 0.3747326 -0.12361971 0.545015 1.0184996 0.99604326 -0.68865997 0.25312048 -0.14050068 -1.1776973 0.2213311 -0.5147964 0.30109546 -0.19052234 0.41901127 -0.08587026 -0.22328815 0.35535038 0.94385856 0.3376606 0.3544753 -0.31836078 -0.3246044 0.74699754 0.50768656 0.99594223 -0.59880227 -0.3403557 0.3943969 -0.70979714 0.7692992 -0.40180126 -0.63496315 0.39438385 -0.23120917 0.49880794 -1.1104176 0.96743715 0.76150966 0.27595487 0.12434966 0.2093438 -0.9373719 -1.042763 -0.59924865 -0.18793845 -0.5713962
1914 -0.07164728 -0.14947993 0.6668561 -0.57934743 -0.40508607 0.80912626 0.40540332 0.3806284 0.4351757 0.48716348 0.14179993 0.35475406 -0.6539807 -0.48393413 0.30354893 -0.26309124 -0.17943862 -0.16244316 -1.6150051 0.15385514 0.09019252 0.17747587 0.3342958 0.114712514 0.459564 -0.29880843 -1.4340498 0.47000518 -0.350762 0.8155636 -0.7111389 -0.07262752 0.91501516 -0.59781396 -0.4557081 -0.79106134 1.0024481 -0.12178155 -0.3471991 0.46818632 1.3370221 0.21576105 0.32341602 -0.86642474 -0.25958017 -0.49900886 0.5164293 -1.1296915 -0.61405885 -0.13148938 0.39930776 0.43395585 0.14865513 -0.5377411 0.7916083 0.046124585 0.016497722 -0.24006023 -0.3804534 0.79314667 0.28679377 -0.01175925 0.81761986 0.34015116
2671 -0.17077953 0.064368285 -0.21066701 -0.35902905 -0.4056631 -0.13846235 0.5490016 0.0835773 -0.660845 0.7198462 0.26166698 0.6400582 -0.56305367 0.039711043 0.19067448 -0.05068006 -0.1431492 0.45758015 -0.6030516 -0.8440244 -0.3332557 0.8035779 -0.1664001 0.28915682 -0.33810788 0.088111214 -0.21695054 -0.78339094 -0.042915016 -0.1837575 0.3867383 -1.2971852 -0.061719682 -1.1552671 -0.7513263 1.2991812 -0.15073088 0.026077773 0.75191975 -0.34792104 1.7202792 -1.472333 0.4681631 -0.87331444 -0.8879325 0.0728065 -0.5784218 -1.2784592 0.9975877 -0.5756191 0.91990966 0.1520618 -0.026088893 0.21833234 0.66480255 -0.56530523 0.50025225 -0.75772035 0.36180612 -0.036200583 -0.287433 0.03991203 0.15652202 0.62262064
2492 -0.04586501 -1.6675837 -0.007847794 -1.0052929 -0.21128152 -0.5897191 0.33099693 0.9538168 -1.1274108 -1.169138 1.3388922 0.6596519 -1.1229473 -1.7438512 0.69675595 0.14790554 -0.4723497 0.22656311 -0.07496816 0.26268914 -0.47283238 0.9132712 0.4754107 0.49214557 0.90012336 1.0999372 -0.14776969 -0.15183042 0.30367094 -0.057647172 -1.7356772 0.27572075 -0.29011917 -0.29029772 -0.28481787 0.371454 0.9161051 -1.1875287 -0.026448654 0.05564543 0.6584214 0.54029304 1.057196 -0.7211172 1.3943231 -1.1887504 -0.86250705 -0.08502597 0.17849284 -0.39001673 0.7277596 -1.1805061 1.105572 0.35766903 1.558418 -0.11074984 0.30836073 -0.63354677 -0.56435525 0.28591025 -0.3515636 0.017062256 0.20612718 0.04853006
2130 0.7273496 -0.06248832 -0.4889052 0.8267106 -0.7670725 0.29705703 -0.15573435 0.11482864 -0.23411499 0.59478414 0.5895973 0.030815938 -0.21730997 0.4779001 0.21196896 -0.04509923 -0.45064437 -0.009656414 -1.2012836 -0.39886624 0.29831263 0.6368102 0.5742888 0.27199367 -0.11409903 0.0025661397 -0.4937191 -0.87295943 -0.021956455 0.02756132 0.1535049 -0.74729556 0.1548207 0.042382196 -0.7414596 0.8011428 -0.75020444 -0.010980292 0.09537087 -1.0795995 1.4172629 -1.3785025 0.0660012 -0.9590372 -0.7923128 -0.5089607 0.22526485 -0.13308309 0.1551812 -0.29045305 1.0552799 0.59364736 0.11659181 0.08211137 0.96256983 -0.85592353 -0.17429213 -0.58983845 0.45510116 0.15267158 -0.14033824 -0.5412475 -0.49160245 0.8379649
2685 -0.62745917 -0.0818917 1.0635575 0.14067839 -1.164046 -0.8325308 -0.35755527 0.25540423 -0.9937704 -1.7362183 0.40742007 0.23910135 0.064002745 -0.4039183 1.3157146 0.6444435 -0.16898175 0.463851 0.1418103 0.4088097 0.99722266 0.5341968 1.1307585 -0.47903237 0.13581103 -0.017680675 -1.4854387 -0.83415633 0.087492764 0.2925704 -0.60051817 0.52809656 0.40841466 0.048528723 0.8708114 0.54889214 0.196105 0.41125485 -0.84989285 -0.7157566 1.2650902 -0.11626492 0.80732596 -0.9212661 0.20523907 0.19682872 -0.11260767 0.49875566 -1.0517043 -1.1737657 -0.027393535 -0.3795371 0.48890868 -1.0161163 1.7945637 0.3464287 0.41856274 -0.40958104 1.0884553 -0.14129314 -1.6026423 -0.61380124 0.30954704 -0.43295768
2452 -0.9856663 -0.7110255 0.88692784 -0.24565245 0.17494509 -0.7726853 0.3442757 -0.12356946 -0.84859717 -0.66385114 -0.025355266 0.7765567 -0.39556727 -0.60345656 1.2644626 0.6176781 -0.3205427 -0.26256102 0.40441227 -0.066257134 0.5041524 0.93466246 1.0956881 -0.38396674 0.32554838 -0.22245081 -1.5338148 0.32663473 -0.2941017 0.52161944 -0.2722364 0.31406853 -0.16510355 -0.15916328 0.33733112 1.1017697 0.2056501 0.052497715 0.094483644 -0.09834752 0.92035425 0.36794943 1.1254625 -0.8235134 -0.12257723 0.42469716 -0.9781652 0.8438769 -0.36417633 -0.7941574 0.53941035 -0.5078492 0.82579905 -1.0337385 1.2060726 0.77871764 0.3025849 -0.051915187 0.17611833 -1.2172791 -1.3310488 -0.58009505 -0.11767593 -0.70039076
2292 -0.48081517 -1.2893034 0.66812265 0.05322944 0.62523717 0.037944045 -0.03766769 -0.70677197 -0.89415723 0.84519595 1.2424883 1.0204583 1.577366 -0.9769409 -0.1700501 1.5759822 -0.011080534 -0.27418566 -0.6742218 1.6587136 -1.0733474 1.0650103 1.1025764 0.60232246 -0.4055857 -0.03546843 -1.777235 0.83326405 -0.43489933 0.97178006 0.9814774 1.3677396 -0.9518412 -0.19144902 0.40850136 -0.05936049 0.18246534 -1.328823 -0.39316785 -0.047520913 -0.41205174 -0.43889987 0.6371355 -0.7125512 -0.5683664 -0.06506119 0.9640747 -1.1055582 0.08476589 0.2773023 0.4769465 -0.6779452 0.794619 0.22582461 0.046320107 0.3419129 0.37253293 -0.8072809 0.67926896 1.3035487 -2.139734 -0.09143358 -0.38314214 -0.26686296
1623 0.6694375 -0.55777305 1.0865235 0.6368617 -0.044730112 0.4276741 0.49418393 0.86519736 0.060762044 -0.25070778 0.33182383 -0.11213213 0.045298163 0.3259259 0.52458996 0.5624712 0.34112614 0.24193832 -1.0241885 -0.11456821 -0.51773703 0.10150712 0.36527315 -0.112335786 -0.27293032 -0.31969818 -0.5668522 -0.58862317 -0.42242622 -1.0295708 0.056349255 -1.6599798 -0.37569478 -1.1580461 -1.3805 -0.32827944 -0.5523933 -0.49994335 -0.5112517 0.23833986 0.69419134 -0.4804805 0.42074567 0.07711533 0.11259572 0.065444954 -0.2356381 0.06312999 -0.43160242 -0.29375395 -0.30054423 -0.8499919 0.5074416 -0.40428004 0.7054583 0.7103232 0.36227056 0.21798699 -0.029612692 0.21223421 -0.9051321 0.043446433 -0.5424005 -0.48701182
2169 0.64440596 -0.25600532 -0.14391851 1.3077614 -0.12955916 0.006960138 0.75094295 0.5275504 -0.17892073 -0.26431116 0.3471902 -0.023112906 -0.70377743 -0.82132065 0.6526499 0.81541926 0.19933392 1.4647593 -0.7353117 1.1771404 -0.62058693 1.9260556 0.7048398 -0.068318844 -0.7217798 0.23784904 -0.898972 0.7662323 -1.560551 1.1046801 -1.1058825 -0.17707303 0.39038855 -0.68948996 0.33147246 0.4329296 1.7308257 0.299587 0.04991516 -1.1073993 -0.16239683 -0.044258896 1.7829669 -0.09344461 0.5462589 0.26647255 -1.2737035 -0.31912363 0.05337995 -0.06874059 -0.11536885 -0.4862183 0.59896743 -0.568894 1.3063078 0.6638865 0.9385181 0.85103285 -0.6131478 -0.86740154 -1.2263705 -0.3426546 -0.34479702 -0.42263687
1950 -0.33675236 -0.87611717 -0.0038871926 0.90972275 -1.0105394 -0.08225152 0.63462156 -0.35818315 -0.2849555 -0.32982874 -0.030300954 0.75681585 -0.08385418 0.44489828 -0.8422801 0.3177344 -1.0268189 0.51512724 -1.1424329 0.3190604 -0.52643484 0.34700495 0.5147903 -0.10174974 0.026976421 -0.14889069 -2.155344 -0.2794823 -0.08604352 -0.83566636 -0.6679846 0.08341888 -1.7028686 -0.26075783 0.17389801 -0.27349102 1.1630634 -1.1156795 0.31746307 -0.89676327 1.0548851 -0.12491776 0.9824805 -0.35495105 -0.58482105 0.54848856 -0.2896796 0.6484456 -1.0092881 -0.8541242 0.29991177 -0.51713693 0.33908847 1.0330215 -0.8730913 0.9437814 -0.66661316 -0.98663473 -0.49928364 0.9983397 0.7184793 -1.3489164 -1.3740395 -0.90959936
2168 0.43245506 0.260056 0.18865612 0.33090973 -0.6004536 0.4000447 0.54196304 0.5221512 -0.60224205 -0.62822354 0.22882038 -0.37584642 -0.33128753 -1.1213725 0.8001637 1.0208873 0.31044 0.59102505 -0.4969541 1.3296711 -0.9693387 0.78783965 0.6622894 -0.106183074 -0.28861848 0.27006835 -0.69230497 0.55241203 -1.3495916 0.85570467 -0.8756025 -0.1437556 -0.29875523 -0.40963838 0.7925594 0.92876333 1.4559021 0.33277467 0.13531435 -0.5941405 -0.43978494 -0.03528315 1.5128043 -0.29593387 0.2031609 0.345879 -1.3617591 -0.64088005 0.27080318 -0.53067076 0.16399698 -0.15291725 1.0988806 -0.28519464 0.990182 0.525831 0.5756746 0.45395055 -0.8508898 -0.33434096 -0.7346184 -0.1849422 -0.066866554 -0.07327097
2291 -0.8404038 -1.0973554 0.3348181 -0.2858515 -0.09690778 -0.11399213 -0.30431083 -0.7528124 -1.2068877 0.7144467 0.86083764 0.70758927 1.2163329 -0.7276249 -0.14247757 0.68888724 -0.37790874 -0.018224983 -0.49887377 1.2101935 -0.7994478 0.9056586 1.0929832 0.30186749 -0.5334859 -0.70498276 -0.614039 0.043146707 -0.52820873 0.52292997 1.0549014 0.7146886 -0.31390584 -0.71479505 0.6918464 -0.545212 0.29174012 -0.19003987 -0.102693446 -0.26354164 -0.1116777 -0.5091709 0.5802665 -0.102560684 -0.4184957 -0.08893842 1.1126391 -0.9414769 0.10312495 0.2750213 0.5989353 -0.95110285 1.2167342 -0.38069755 -0.049688537 0.5207075 0.14263663 -0.9965881 0.74444383 0.6399284 -1.4854447 -0.26505756 -0.25755593 0.058918197
2123 0.56288224 -1.5771426 0.14240366 -0.10320067 -0.1954869 -0.2576526 0.7886753 1.0188802 -0.6874311 0.22003219 0.45490482 0.15270846 0.42774272 0.19863042 -0.062984005 0.10766583 0.058816798 0.017720005 -0.7465416 0.02993424 0.98109746 0.7455058 -0.177389 -0.6345464 -0.74643147 0.30476376 -1.3410279 -0.80706245 0.4664357 0.44875506 0.6511383 -0.09473146 0.33660266 -0.5466315 0.6116551 0.45427164 0.052116904 0.012643132 -0.20786358 -0.2640065 -0.01585701 -0.93504024 -0.012238438 0.64645314 0.18814854 -0.53588086 -0.05049524 -0.7775579 -0.2985746 0.35627684 0.42504898 0.686761 0.17376937 0.1826645 0.15751809 0.0011731932 -0.07261008 -0.93070585 0.22195837 -0.11524364 -0.061092176 -0.19294724 -2.1230118 -1.095574
2048 0.5498416 0.010976557 1.5644442 0.06674737 -0.20234963 0.51077354 0.24178912 1.1812239 -0.6853513 1.4309462 -0.497521 -0.61470497 -0.54213417 0.0887366 0.73108745 1.3001337 0.35374847 -0.41874856 -0.61782295 -0.2652153 0.7101734 0.48490664 1.4204428 -0.067207575 0.19476467 0.47589022 -0.8493266 -0.19577895 -0.67254287 -0.46618134 -0.34576488 0.2493964 -1.0647248 -2.3777933 -1.1764508 0.43139163 0.3688486 0.02497555 0.066004366 -0.6069177 0.47333094 0.7570783 -0.6634416 0.8119969 0.2325338 0.1357185 0.13008869 0.44758415 -0.20730416 -0.52893865 0.8230413 -0.3011913 0.76977086 -0.37192088 0.9340485 -0.51549244 -1.3280466 0.1407727 0.20359704 0.06632992 -1.089581 0.23690435 -1.0405185 -0.5928539
2450 1.0753856 -0.5355947 0.09259258 0.81528187 -0.42435306 0.83097917 0.27640948 1.0875117 0.07681214 0.044156253 0.6635028 -1.0243251 0.6830186 -2.356259 0.44966772 1.3633373 0.33081794 0.37394875 0.15816195 0.7274419 0.26647577 0.6843429 1.4460357 0.55764014 -0.03997597 0.21653473 -1.0079693 0.84262216 -0.6655891 -0.38717604 -0.578909 0.840067 0.9724075 0.12826139 -0.027601952 0.9108491 0.22954965 -0.9334733 -0.9180362 0.3899787 0.4845493 -0.14150588 0.31958154 -0.8405811 -0.19237289 0.46327615 -1.161521 0.275358 -0.33316898 0.17274745 0.75808126 -0.35802358 0.92682415 -0.36621365 0.61320174 0.2849845 0.003499359 -1.0111555 0.41761166 0.34372523 0.02774703 -0.33563313 0.5852625 0.0023827667
2518 0.086984396 -0.12560827 -0.73817873 0.9491698 0.1248479 0.12884504 0.7630656 0.25874665 0.066568054 0.569281 0.57643354 0.047969773 -0.27460867 0.033236697 -0.2888836 0.7191934 0.23548077 0.108946815 -1.0197524 -0.7861915 0.8845574 0.5502165 0.5804932 0.29658166 -0.13022022 -0.6109506 0.36966527 -0.48309284 -0.6548797 0.32157326 0.41797873 -0.83307624 -0.09725589 -0.8146957 -0.74006104 1.1167858 -0.76152843 -0.41881534 0.30157313 -0.89514655 1.3595613 -1.6098287 0.6337619 -0.55054283 -0.69098425 -0.0074027968 -0.59044605 -0.772819 0.9694392 0.118503734 1.1131085 -0.0712318 0.23421346 0.035449058 0.40983102 -0.57231206 0.15473342 -1.4975138 0.34052017 0.0181937 0.13936722 -0.37595615 -0.38553232 0.4524097
2248 0.43064657 -0.15347509 -0.6998253 -0.38440138 0.49874005 0.28429896 0.49826306 0.17646375 -0.33874434 0.48598462 -0.17205603 0.41197774 -0.7059622 -0.70939934 0.16118252 0.2470396 -0.31826544 0.12998614 -1.2876471 -0.77680624 -0.2917955 0.37191382 -0.48252487 0.5042435 -0.25466844 -0.59235966 0.2880936 -0.41210988 -0.033124883 0.94120926 0.38619664 -0.9625628 0.061356176 -1.3052845 -1.5058143 1.8404285 -0.018297028 -0.6129596 -0.12692308 -0.7024749 0.8788387 -0.45722094 1.4332496 -0.4666267 -0.6587822 0.3554027 -1.0944364 -1.3454455 0.64013 -0.20153548 0.69380474 0.19015317 0.8114097 0.018618273 0.6807939 -0.20106164 0.2044936 -0.7936514 -0.09049742 0.8696896 0.47588205 0.027005726 -0.1807552 0.20603317
2538 -0.58655864 0.0007125787 -0.5373652 1.1459554 0.48305517 0.057875242 0.7212279 -0.056479316 -0.505359 0.5044965 1.3695018 0.48355615 0.18667252 -0.53671926 0.57462794 0.66942984 0.31307822 -0.6612758 -0.7572162 -1.3062788 0.4894409 0.8200037 1.1317047 0.11287964 0.03149499 -0.81416845 0.39089397 0.11127856 -0.11233206 0.79813087 0.19861417 -1.2240431 -0.30583948 -1.1729647 -1.6000601 0.65138966 -0.50524944 -0.46392003 0.8124492 -0.6839508 2.0459867 -2.0673008 1.3468647 -0.7951772 -0.7636056 0.44792554 -0.62518954 -1.2848506 1.1809283 -0.7539079 1.2044125 0.21052435 0.31221136 0.30395567 0.96672803 -0.6610491 0.9420575 -1.6953232 0.7373413 -0.3136008 0.6328248 0.18748808 -0.30585814 0.21315965
1902 0.61171454 -0.73867655 0.74970376 0.26356 -0.20151238 0.2984346 1.126731 -0.9034508 -0.5596553 -0.034935594 -0.12741207 -0.035380207 0.3678379 -0.5400736 0.54262847 1.7609328 -1.1176925 -0.44429207 -0.39198646 0.13988228 0.43299496 1.5425473 0.5293195 -0.31660262 0.32056156 1.2240776 -0.13608374 1.2304374 0.8600092 -0.5400108 -0.040130023 -0.58176905 -0.23361301 -0.7178819 -0.8148689 0.018525772 0.24644086 0.5861686 -0.24598297 0.43307933 0.5892629 -0.54600096 0.08833528 -0.2785352 0.2586801 0.27945903 0.031092158 -0.7004475 -0.07139168 -0.41338396 0.8448826 0.03965885 0.45091563 0.7218893 0.2579738 0.15900871 1.0625204 -0.9133969 0.5235561 -0.5529188 0.46399954 -0.07827482 0.24294049 -0.25137648
2380 0.5957446 -1.8673966 0.18609564 0.51281285 0.008501135 0.084274076 0.72810954 1.1105994 -0.7689671 0.7074898 1.2943943 0.31174302 0.8371283 0.17575073 0.68208003 0.10907687 0.44369623 0.25906914 -1.219096 -0.10736929 0.7162117 1.0958601 -0.694256 -1.3712239 -1.3807213 0.53898525 -2.0004659 -0.3674322 0.703877 0.80644506 0.6114994 -0.14345053 0.48057476 -0.8223209 1.2207137 0.47395557 0.05895807 -0.3671613 -0.5179395 -0.26880017 -0.024920719 -1.3244774 -0.20255972 0.08109994 0.43616685 -0.53364754 -0.09291819 -0.557427 -0.8829693 0.56376654 0.66699517 -0.35028723 0.27629033 0.34484154 0.7157619 0.3445457 -0.08329641 -1.1631473 0.028664337 0.22144352 -0.12505406 0.14455071 -2.7225292 -1.2371597
2270 0.6589873 0.062028937 0.10062287 -0.025894914 -0.35523295 -0.6256346 0.3616881 -0.23964742 -0.098511405 1.10752 0.5446903 -0.02835349 -0.31373665 -1.3259416 0.14409399 1.1000774 -1.087661 -0.63002783 -0.87287253 -0.25336188 1.1265697 1.2420375 0.22693011 0.5419693 0.12372239 0.5471221 -0.5484652 -0.024555821 1.673418 0.8039627 -1.0308979 -0.5763079 -0.1326306 -1.2512935 -0.9307658 0.5010055 -0.50765496 0.91161215 -1.2474365 0.2523719 -0.11385415 -0.8270272 0.32546744 0.2749358 1.2066141 0.46465248 -0.29580832 -0.6184935 0.7891665 0.07759955 0.72475994 -0.26766092 1.4482112 0.77522135 0.05315402 0.16972992 1.0599186 0.7542013 -0.4126683 0.031371616 -0.565591 -0.13469893 0.07602949 -0.41991353
2375 0.84349024 -0.2437326 -0.017843958 -0.29863858 -0.76687014 -0.869139 0.17275642 -0.26934412 -0.17541093 1.0953462 -0.042717922 -0.37550464 -0.774909 -1.3430732 0.85922074 0.6380768 -1.2289249 -1.0700599 -0.9088703 -0.2709355 1.678209 1.8962775 0.5654678 0.52358776 0.04947489 0.35126522 -0.6057412 0.17606755 1.3561587 1.0388093 -1.4220598 0.0013318276 -0.75954574 -1.6624278 -0.75712353 0.836414 -0.76438636 1.4195895 -1.6566635 0.19422501 -0.045947462 -0.66645765 0.7018269 0.16853316 1.276158 0.18292463 -0.15632963 -1.7940173 1.1500611 0.45570973 1.05497 -0.65934604 0.8823237 0.60512435 0.2876528 -0.17303392 0.55432624 0.36018366 -0.2900981 -0.6173946 -0.6192037 -0.74073863 0.13144116 -0.6176591
2359 0.19920422 -0.12236013 0.42158455 -0.21420926 -0.595898 -1.2861786 0.4246131 0.5923759 -0.908066 0.42340812 0.48547617 -0.57517105 0.40089893 0.31971034 0.78181964 -0.42096108 -1.5300628 -0.28998876 -0.35694087 1.5502719 1.2865466 0.2523246 1.7770184 -0.71441954 -0.2902237 0.3048943 -0.47744656 1.1050528 -1.0315194 0.16849385 -1.6475797 0.1543832 -1.0322738 -0.29204518 -0.13845544 1.2315334 -0.8613619 -0.069349855 0.382924 0.48877054 0.45248142 0.692036 0.16326798 -0.28788534 0.054338112 0.11288999 -0.8972733 -0.47121826 0.27293262 -0.7840137 1.0097885 -0.3694592 0.7457491 0.04966193 0.9764599 -0.12465018 -0.53405315 0.15427533 0.30930096 0.30966663 -0.4275669 -0.9893711 0.034861036 0.89382577
1441 1.1024983 -0.36720327 -0.45614398 -0.18672307 -0.8168927 -0.6193156 0.46905681 0.32079098 0.18523699 1.2890396 -0.32665724 -0.20225792 -1.4485781 -0.2186685 0.4067585 0.59955645 -1.1131642 0.84280133 -0.8267266 0.8154244 -0.27657112 0.13881436 -0.46815947 0.16637596 -0.5842023 -0.21378383 -0.78304374 -0.21251157 0.8156238 0.21005893 0.038378917 0.006422228 -0.700919 -0.3010144 -0.96800214 0.18190536 -0.86705387 0.33903566 -0.3086967 -0.21225867 0.40536776 0.6506226 0.2218471 -0.16335307 0.24932438 0.3071346 -0.35834295 -0.48012134 0.7214508 0.4957132 1.1601712 -0.18478121 1.1119108 1.3706207 1.6787667 0.12651493 1.4049515 -0.19236635 0.13947064 0.15415087 -0.41070876 -0.14548606 -0.28861678 0.50991124
2176 1.8427161 -0.3577458 0.19564652 0.677983 -0.7455316 -1.6156894 0.7321531 -0.40399012 -0.930307 -1.3932734 0.35001233 -0.38673648 -0.1393882 0.4713642 1.2093724 -0.48588932 -0.331237 -0.7539761 -0.9742773 -0.17120548 0.17245062 1.5073354 1.0706426 -0.37089595 -0.48015425 -0.044877175 0.2207408 -1.2224755 -0.20111252 0.59195733 -0.4830081 1.4659933 0.16306059 -1.5678723 -0.34154335 0.08414132 1.8674848 -0.2992604 -0.8215338 -0.17413634 -0.43599755 -0.4064625 0.30433294 0.27983335 -0.30624205 -0.46172997 -0.21254246 -0.3321488 0.22398128 0.37645337 0.16285998 -1.0157081 0.7987151 -0.42774168 -0.99317676 -0.8038432 -0.077017985 -1.6738236 0.36647695 0.65496844 -1.0787084 -0.77071595 -1.1555698 0.5167138
2309 0.92334217 0.71569055 -0.028311843 0.18601872 -0.47859293 -0.7399099 -0.23981623 -0.22896911 -0.41893098 -0.3108082 -0.48038977 -0.5816798 0.3488563 -0.29408962 0.8652195 1.1210151 0.05144407 -0.120991625 -0.3689694 0.55259246 -0.35354176 -0.5889881 0.12898304 -1.5624146 0.33246177 0.06447364 -0.6820962 -0.87288815 0.39972082 0.57160085 -1.0731013 0.43998423 -0.93692446 -1.4470794 -0.4341861 0.038358487 -1.2584248 -0.78908324 -1.2381766 -0.5311745 1.2545696 0.598091 1.2069424 -0.08845268 -0.4249704 -1.1870265 1.2953837 -0.09757003 -0.32614815 -0.027796125 0.3836124 0.40515324 -0.99545807 -0.1564493 -0.11162447 -1.3538809 -0.38778374 -0.18398164 -0.2561718 1.4853944 -0.29657495 -1.6439818 0.30230677 -0.36138234
2118 -0.7308369 0.0033740841 -0.5318169 -0.011090384 0.30933613 -0.31613153 0.7076205 -0.08564647 -1.3387586 0.6344542 0.81497806 1.4920359 0.8257772 -0.5763292 0.5725666 0.61303174 -0.84988815 -0.36349586 -1.0994755 -0.18808566 0.2910813 0.48793906 -0.62051153 -0.27027014 0.29315478 -0.6311825 -1.3067971 -0.35118666 -0.7403924 -0.714426 -0.94331056 0.34752336 0.45514596 -0.96092284 -0.6089429 0.17889827 -0.3752449 -0.38333476 0.13980548 -1.5397067 1.1637912 0.006872379 -1.2265124 0.45344156 0.6595263 -0.2881748 -1.026903 -0.47571936 -0.086947076 -0.29621425 0.3311957 0.0010297011 0.17926341 0.8189228 1.5348855 -0.7097585 -1.9048182 -0.1966043 -0.9808793 0.8280132 -1.6131548 -1.5462809 -0.21144517 -0.8761004
2367 1.1131083 -0.93901145 -0.20405218 0.9315079 -0.18752873 0.13446109 1.0637103 -0.43095174 0.43222374 -0.08150201 0.06582237 0.1342746 -0.9860383 0.1654914 0.7610985 1.0799811 -1.0942868 -0.17187461 -1.1073067 0.49973854 0.13536748 0.44554654 0.62964684 -1.1345327 -0.059999224 -0.4675994 -0.3880793 0.008429985 0.88017553 0.52138126 0.22638147 1.9921923 -0.5953495 -1.2226071 0.16337538 0.14875033 0.061022915 0.0776751 -0.24757041 -0.18879227 1.3830405 -0.15443714 0.8469433 -0.0099284975 -1.1034148 1.1673973 -0.097028986 -0.09760959 -0.18174112 0.45172262 0.7491887 -1.0356514 -0.8904576 -0.18642874 -0.09963219 1.1946508 -0.40700376 -0.81032556 -0.0791896 0.09776875 -0.46793383 -0.13996373 -0.07698889 0.56432915
1903 0.7774174 -0.08844727 0.15004337 -0.15287659 -0.2410217 -0.19759318 0.9981812 -1.0953492 -0.43401417 0.54987365 -0.100049004 -0.3369033 0.29676792 -0.46163508 0.38340136 1.743209 -0.93602085 -0.006133567 -0.73222375 0.044288315 0.7148988 1.5724823 0.4523548 -0.6621329 0.5778492 1.0785114 0.22775134 0.93252426 0.41808084 -0.24910566 -0.331544 -0.7726113 0.6445891 -0.9387605 -0.59344447 -0.32989937 -0.15912157 0.326134 -0.36339408 0.14641969 0.70239323 -0.96811295 0.7175248 -0.062492233 0.88878745 0.5037842 0.0026130052 -1.1874359 0.11935141 -0.00029730707 0.8900763 0.3553864 1.210588 0.66801375 0.15387963 0.31565726 0.8322326 -0.41050628 -0.25496325 -0.59068334 -0.0034578145 -0.07037882 0.47818375 -0.6605299
2122 1.2390078 -1.4907413 -0.24156444 0.026902827 -0.06589997 0.08175748 0.45326778 0.27853054 -0.87813056 0.6372105 -0.06219205 0.32431707 0.2771966 0.10897614 -0.23589301 0.2744833 -0.14682564 -0.2931863 -1.6089696 0.011035205 0.9730471 0.4072293 -0.2453413 -0.8182615 -0.26084512 -0.054067213 -1.0001775 -0.17926064 0.16038315 0.41366953 0.26315138 -0.3112362 0.52842444 -0.349518 1.0573039 0.40344277 -0.12555392 -0.2377493 0.14219125 -0.02311478 0.378628 -0.80236256 0.18278624 -0.09855402 0.23938489 -0.5778843 0.3124856 -0.18032447 -0.42079112 -0.09700655 0.31167313 0.5928701 0.27908072 -0.011304388 0.10412701 -0.100637734 -0.1167852 -0.40248707 0.79894805 0.13657463 -0.39394572 -0.3057974 -2.0026302 -1.3053473
2383 0.21574847 -1.3879876 0.45154846 1.7528725 0.12828544 1.2062695 1.2297659 -1.4197342 -0.31201532 -0.0074545112 0.8177312 1.5971322 -0.5527182 0.56512034 -0.55155003 -0.97809815 -0.26737064 0.33114 -0.68222123 0.4356122 0.026854888 0.8155757 0.17829457 -0.02035759 -0.72779715 -1.042139 -1.0713186 0.2954937 -0.016344583 -0.10179777 -0.42972842 -0.5071131 0.30143055 -0.41879895 -0.064756386 1.9058996 0.8452401 -0.032953463 0.07930955 0.09770478 0.24395612 -0.5000432 1.9206603 0.680551 -0.08236923 -0.21574897 1.4708624 0.24882741 -1.1298724 -0.06913275 1.2674447 0.3803108 0.78369325 -0.8182135 -0.27928334 -1.186151 -0.36945793 0.21895444 0.24580327 0.95957583 -0.94928086 0.28234094 -0.5427822 -0.76405907
2434 -0.4466488 -0.108128004 0.85513973 0.170985 0.057167415 -0.54159606 1.9649217 0.25896502 0.58338684 0.42103374 0.11841153 1.7710004 -0.5577202 -0.5644944 0.6546414 -0.19236131 0.87398046 0.15178272 -0.9164594 -0.28369564 -0.027627898 0.17356107 1.2756983 -0.7772782 0.9678937 0.217106 -1.870935 -0.6145711 0.3417244 0.033642042 -0.08232877 1.2343979 1.0690261 0.25623244 -1.8847936 0.8144928 1.4387218 -0.48923394 -0.6838173 0.8471973 0.4841861 -0.5208653 1.5591085 0.4071724 0.13779071 0.16159111 0.35502148 -0.30520037 0.5815897 -1.0670861 0.73472244 -0.119318664 1.2727559 0.87007797 -0.08050959 0.7022918 -0.84694177 -0.55624294 -0.24478683 -0.7506149 -0.43432656 -1.5032077 -0.7506921 0.8669279
2133 0.050732117 -0.77430445 0.10769093 0.15759523 0.5994234 -0.4740865 0.78383756 -0.31502908 -0.83384186 0.23489857 1.1607304 0.0691361 0.3838314 -0.4013342 0.39450252 0.022928348 -0.056638684 0.071046345 -0.48550293 1.5236053 0.14483939 1.2301738 0.6814409 0.10995623 -0.28674176 -0.1582239 -1.2409235 0.35815 -0.38010177 -1.3144886 -0.05705937 -0.5326333 -1.134685 0.12842992 0.20249903 -0.43803334 -0.48720837 -0.5368281 -0.008709457 -0.12595315 -0.047700062 -0.18646155 1.0197146 -1.6991584 -0.25581124 -0.2745079 0.6793509 -1.5906059 -0.29330957 0.21828257 0.5563926 -0.20833191 0.24200332 -0.13132522 -0.45074677 -0.63761145 -0.628572 0.002662901 1.038607 0.08150163 -0.90105027 -0.9196423 -0.17780514 0.1415774
2216 0.21935037 0.9335038 1.1817542 0.17986108 -0.6410677 1.0334693 0.6257234 -0.018481044 -0.40211895 -0.437195 0.66337407 -0.2376069 -0.74397933 -0.99213403 1.0722003 0.64269215 -1.5723337 -1.0997266 -0.94635594 0.15743183 -0.4646124 0.61419207 -0.80009323 0.49414214 -0.16009885 0.20380907 -1.2112993 0.94813406 -0.5644749 -0.13358437 -1.5819324 1.2977862 -0.9692894 -1.69507 0.4611578 -0.26824722 0.33709517 -0.43185547 0.4341701 0.11695076 0.6002105 0.7383226 0.5428517 -0.0667892 0.535714 -0.4924134 -1.5135729 -0.038590774 -0.03941501 0.5208025 -0.34386507 -0.7080278 -0.23942322 -0.30508712 0.974367 -0.292876 0.7566475 -0.56127113 -0.4278416 1.0996802 -1.2021116 0.6152936 -0.39516705 1.2593173
2025 -0.3393045 -0.4128834 0.35193142 -0.039860778 0.60701215 -0.19292477 0.8220736 1.0066549 -0.5467466 0.44936618 -0.07925567 0.16065319 0.67042315 -0.21607918 1.3783382 0.77412903 0.51220703 0.11062309 -0.747454 -0.5165977 0.3507424 0.2509472 -0.27126026 -0.7661742 0.22930086 0.12737899 -0.517365 -0.035321712 0.03280024 0.19707347 0.020483129 0.48089308 -1.1558057 -0.62980056 -0.87097585 0.809394 -0.1493325 -0.2710414 -0.44613513 -1.0461158 -0.100065 0.16766988 0.318169 0.94247854 -0.20919172 -0.84823865 -0.11582034 -0.75373966 -0.25727665 0.5899035 -0.39445084 -0.16574752 1.5759305 0.5862946 0.027862001 -0.78058803 0.73615533 0.026697442 0.03155451 0.36424142 -0.40112466 -0.15381545 0.1174771 0.3280225
1894 -0.4377384 -0.033063967 -1.6227334 0.47426268 0.6134229 -0.021634053 0.9547379 0.2613418 -0.87531126 0.5838409 0.05783117 0.7225349 0.48507857 -0.19373593 0.15996563 0.58389056 -0.19151391 -0.28001267 -1.0442718 -0.31942537 0.11410863 0.54712737 0.12740786 -0.541582 0.5860077 -0.3467606 -0.6118437 -0.20371057 -0.40935278 -0.093422994 -0.5049514 0.55604136 0.3506677 -0.47453117 -0.123662844 0.2738694 0.30056715 0.08250122 -0.46468422 -1.1796514 1.4452997 0.009159897 -0.9449084 -0.439677 0.6192268 -0.44791886 -0.7919664 -0.092090294 -0.26442948 -0.22036703 0.0019628776 0.4404086 -0.13824634 0.7730258 1.1962408 -0.36888713 -1.0742807 -0.6500649 0.38132712 0.83622026 -1.3776289 -0.49425662 0.26134756 -0.88256747
2372 0.53615856 0.51978165 0.25703058 -0.41697153 -0.29595962 -1.7150539 0.910075 0.5952114 -1.2246438 0.7401899 0.7761239 -0.77221024 0.22295453 0.34183094 1.017823 -0.063004635 -1.6293464 -0.27100292 -0.34442818 1.979165 1.9650131 0.60216767 2.0704055 -1.1453302 0.037494555 0.45371765 -0.757971 0.9199147 -1.0108869 -0.2007016 -1.7623134 0.093025275 -1.6111877 -0.7873267 -0.224905 1.4393705 -0.7869614 0.08351355 0.02582387 0.5717073 0.3840767 1.0754732 0.040557507 -0.06353623 -0.44366652 0.068559855 -1.152342 -0.39546457 0.5410969 -0.7519666 1.5770344 -0.4562177 0.7987451 -0.37189505 0.8993498 -0.20883119 -0.2833463 -0.021665849 0.24449335 0.8585671 -0.40661094 -0.81377405 0.26123458 1.4351511
1542 0.9899074 1.153937 0.65081096 -0.48200315 0.44263965 -1.5335205 1.3557794 -0.45500016 0.11757185 -0.42715123 0.50653744 -0.2913265 -0.5721463 -0.25724345 -0.3473699 -0.24838978 -1.2612842 0.5073606 -1.0620191 -1.046429 -0.12522267 1.1527609 0.4432384 -0.57134 -0.6100097 -0.8970559 -1.7845616 0.10937119 0.24788706 0.9138607 0.22979087 -0.10462043 0.2511322 -0.5712413 -0.2977492 0.39458185 0.014665884 -0.07824087 -0.03797793 -0.37776005 0.23583868 -0.15247087 0.13338974 0.4704899 -0.07962789 -0.4597777 -0.13124423 -0.48206595 -0.039718654 -0.76815844 -0.30518368 -0.5837649 0.703783 0.100939944 0.22374979 0.27218547 -0.28820106 -0.790055 0.9364231 0.15574847 0.68058157 -0.08161306 -0.4799505 -1.3435512
2464 -0.08289114 0.5190236 0.6680094 0.3705047 -0.5544646 -0.2154117 0.9533078 -0.5001634 -1.2894827 0.4975551 1.2007036 1.1684223 -0.90920025 -0.10079085 0.6438534 0.21409814 1.1490433 -0.76216096 -0.5420172 -0.3726147 0.47813234 -0.25308624 1.0210165 -1.1260365 0.060184408 -1.225121 -1.2533247 0.03355468 -1.4896663 -0.24583116 0.68988895 -0.019072872 -0.5712168 -0.010417148 -0.96576023 -0.21667637 0.850446 -1.1041731 -0.83351266 0.09849475 1.7545456 0.6826398 0.38433793 -0.6564669 0.35318053 0.30546284 0.33135247 0.2334102 1.2213362 -0.7925266 0.81276226 -0.37948906 -0.17834978 -0.08690313 -0.17486745 0.94937104 0.23305528 -0.35360783 -0.49044922 0.5424473 0.53064317 -0.22915173 0.1314156 1.2338198
2399 -0.4388168 -0.014991374 0.19619939 0.20882192 -0.27631414 0.0129787605 1.9327513 0.16966301 0.09537104 0.06380749 0.8074967 1.3182249 -0.48493358 -1.2045853 0.7706764 0.082222775 0.94703066 -0.8542693 -0.27976754 0.5864279 -0.33950615 -0.13147563 1.3940187 -0.5655139 0.44453108 0.21189116 -1.544285 -0.8719008 0.6431396 0.02424842 0.09889422 1.4248043 1.1046405 -0.31489512 -1.3315444 -0.0038457327 0.4366396 -0.38367084 -1.046918 0.7980061 0.56537825 -0.5899275 1.548135 0.30667806 0.030366976 0.5182358 0.055989526 0.469049 0.87510735 -1.4895226 0.5352774 0.7611144 0.84448254 1.2220092 -0.20683491 0.5916048 -0.41966718 -0.8406162 -0.9060966 0.010725028 -0.36584547 -0.3961071 -0.1581318 0.020866772
2503 0.3690575 -0.28300723 -0.1976524 -0.6646987 -0.54726565 -0.36918184 0.54308057 0.5381803 0.5308347 -1.7793635 1.4547294 0.09793559 -1.1268033 -0.6793279 0.3453655 2.070767 -1.8464566 0.107514046 -0.83797866 0.7486383 -0.44310394 0.7311015 0.85224485 -0.6776741 -0.049255013 0.039389983 -0.46386606 1.0230762 -0.20101123 -0.46384043 0.5991372 0.60496444 -0.5962175 -0.10927184 0.89631677 0.58672637 -0.39503536 -0.5303413 0.40191588 0.6762349 0.71073455 0.3424727 0.20221029 -0.48823807 0.06442685 -1.0107383 -1.8730164 0.05264008 0.7540013 0.13950439 0.9637244 -0.28722954 1.5338744 -0.45113808 1.014014 -1.3407894 -0.5003023 -0.30969086 -0.86185133 0.15612695 -0.19111991 -1.0112267 -0.41422576 0.17805934
2071 -1.4007691 -0.68179995 0.7833715 0.39478076 -0.0036285608 -0.31931612 0.46655953 0.33164704 -0.6054142 -0.17418358 1.15818 -0.8592413 -1.209105 -0.9073447 1.1233103 0.69047606 0.06489717 -0.13723151 -1.3787805 0.34967962 0.2609352 -0.99519193 -0.121116474 -0.6100961 -0.21118517 0.7522413 -1.9458069 -0.25825232 0.4332803 -0.8526198 0.1061475 0.2432638 -0.1070675 -1.3990142 0.04387012 0.07686746 -0.5220472 -0.9321219 -0.6785374 -0.34461036 0.06438557 -0.6897497 1.7746121 0.1134725 -0.2695081 -1.189086 -0.79597753 -0.92280847 -0.14212735 0.40688998 -0.75986326 0.6480898 0.34514853 -0.76203537 0.8163457 0.23778 0.27667105 -0.52795136 -0.87234455 0.56792855 1.9562641 -0.45488337 1.2534128 -0.39510906
1776 1.1066445 -0.31256932 0.7261529 -0.22885028 -0.5591718 0.2366414 -0.058773298 0.79310876 0.39933535 0.08049078 0.006531705 -0.6344898 -0.02455473 -0.39124396 0.2247697 1.342319 -0.027591452 0.40412995 -0.7408562 0.037516132 0.22835572 0.5786268 1.3886758 0.07500034 1.0071654 0.06349699 -0.6070535 0.12137959 -0.85136163 -0.5371095 -0.46758583 -0.14538236 0.3314688 -1.1667354 -0.53445774 -0.10942467 0.41370267 -0.37980816 0.47192094 -0.454478 -0.12180327 0.5813505 0.48809525 0.48477554 -0.2730138 -0.11423822 -0.5371142 -0.3281255 -0.59030306 -0.20332956 0.5923486 -0.24434206 0.68131256 -0.39925617 0.09610838 -0.09359501 0.46165657 -0.04392186 0.14080626 0.38244393 -1.116885 0.20602657 -0.8463656 -0.5361338
1960 0.7031044 -0.70703435 0.057568565 0.08791947 -0.32385883 -0.13447532 1.2947487 -0.8177559 -0.7499957 0.03972788 -0.13268124 -0.16072439 0.5559712 -0.23013158 0.59179586 1.9638575 -1.2951514 -0.6218902 -0.71884644 -0.048248418 0.90855056 1.8938305 0.35783294 -0.1518979 0.0645017 0.7358608 -0.57937187 0.9512539 0.26370305 -0.3602413 -0.4594276 -0.5282931 0.64299613 -0.8539083 -0.97030616 -0.54150206 0.15305246 0.122057974 -0.22779313 0.25707626 0.34472921 -1.2863715 0.7551503 -0.15445678 0.8114467 0.6837876 0.4210782 -0.57681495 0.48089686 -0.06249772 1.2851578 0.3495147 0.220156 0.6284549 0.18833278 0.2859223 1.0965981 -0.66487104 0.070704795 -1.0812765 0.42381945 -0.4463731 0.655767 -0.43234858
1740 -0.2280668 -0.032687508 0.6795419 0.01172279 0.22062248 -0.09193938 -0.13083059 -0.07091628 -0.70735997 -0.2649715 0.010552903 0.5275395 -0.71120507 -0.029990267 1.0516878 0.05381139 -0.5287573 -0.09450805 0.597637 0.0105573 0.3893918 1.4537452 0.7981617 -0.08705506 -0.012076329 -0.08288671 -1.2592424 0.1659253 0.13120586 -0.17718992 -0.5859758 0.7297442 0.41903374 -0.12701662 0.15909767 0.5875555 -0.20475332 0.343705 -0.24718481 0.5663218 0.2519313 0.08009349 0.9449731 -0.34521466 -0.23930746 -0.28174517 -0.8500539 0.26117232 0.5686479 -0.11463059 0.46802455 -0.090123795 0.8777162 -1.5021548 0.8964913 0.3118749 0.065847754 -0.47482395 0.32929373 -0.5691268 -1.0950133 -0.8128928 0.05321605 -0.21214938
2155 -0.13745761 0.45866346 -0.03247453 -0.030252557 0.11001574 0.9061237 1.5014617 1.0064354 -0.13720848 1.3796275 0.603763 0.35165885 -0.15165688 -1.5475552 0.3914192 0.1905011 0.5385053 0.8130315 -0.41764274 -0.3521286 -0.17559364 0.4645418 -0.36184174 -1.3210949 -0.29629984 -0.86869663 -0.61525875 -0.39891192 0.945555 -0.7130986 0.3225389 -0.33447778 -0.8213154 -0.28020197 0.046330262 0.9216052 0.7677315 -0.11839345 -0.46830484 0.5150603 -0.16783562 0.24019594 -0.027472425 -0.4673487 0.24063252 -0.56709415 -0.5176581 -0.5637662 -1.6017374 -0.78057295 0.966418 0.10908491 0.40743905 0.14351894 0.1887406 -0.34773922 -0.008294631 -0.5821764 -0.013204148 -0.20842326 -0.31439075 -0.98026234 1.2735306 0.5062834
2238 -0.1957965 0.32666755 -0.21904066 -0.26544935 0.101075076 0.7127228 0.96629316 0.45089126 0.044038188 0.13366018 0.011592726 0.76757956 -0.31811255 -0.30158392 0.24993023 0.151752 0.44874704 0.08317865 -0.57541925 0.68671423 0.067911394 0.27920616 0.7657584 -0.43291178 0.5584861 0.321674 -1.2527783 -1.1269664 0.26708674 0.94495344 0.49619094 1.5990934 0.7980527 -0.55666065 -0.8910433 -0.16107911 0.24129836 -1.2375675 -0.8087201 0.47953156 -0.027424444 -0.970284 1.2864609 0.43643355 0.5081519 0.27248722 -0.6539814 0.57576215 0.15731457 -0.8882168 1.8181901 0.5490469 0.70364773 0.737629 -0.20930299 0.4912256 -0.7060338 -0.1980446 0.26809233 0.09219822 -0.047189 -0.52294284 -0.5196303 -0.23966034
1927 0.18375547 0.35088232 -0.054427166 0.8026295 -0.7450662 -0.14802094 1.7800425 0.38949987 -0.12493207 0.6800529 0.12865998 -0.47619447 -0.6607917 -0.8804745 -0.64379966 0.070330694 0.46019903 -0.419778 -1.0433972 1.0010921 -0.31060714 0.12435568 -0.0669578 0.24242933 -0.24441542 0.50183874 -0.83430856 -0.4726314 1.3704678 0.6160911 0.18931659 0.0133727295 0.14190286 -1.5668812 0.4441506 0.6957713 0.84934956 -0.4543007 -0.6781167 -0.101289004 -0.24146985 -0.9910777 0.27932554 -0.020176064 -0.4013013 -0.5927381 0.362887 -0.7492141 -0.03606133 0.20230854 0.3217829 -0.04676591 -0.5891147 0.24714027 0.9411987 -0.31706583 -0.16936211 -0.46766427 1.2579261 -0.019903703 -0.95832366 -1.013765 0.09934174 -0.31409115
2117 -0.5758029 -0.45415553 -0.1419334 0.097317256 0.6700144 -0.47052577 0.9833585 -0.06864592 -1.015586 0.13690759 0.44431096 0.7517878 0.6620914 -0.41741437 -0.1473596 0.2178073 -0.4551144 -0.23359756 -1.4541513 0.03464761 0.43593097 0.14889863 -0.28971896 -0.23628624 0.53951246 -0.2771185 -0.86557823 -0.42725235 -0.34584466 -0.749606 -0.42066494 0.78067833 0.1793863 -0.9035919 -0.39182973 -0.43696907 -0.6250651 -0.1002587 -0.14962862 -1.2222939 0.8662554 0.4349528 -0.86948115 0.4534153 0.27233025 0.50975966 -0.8993948 -0.19782196 -0.29856083 -0.08418135 0.23290673 -0.11405266 -0.32255825 0.8520893 1.439134 -0.68691695 -1.2480084 -0.59616697 -0.7149964 1.2508353 -1.5795964 -1.0352077 -0.18909608 -0.5435681
2269 0.94433504 0.03611047 0.27043498 0.26325527 -0.48295584 -0.016519997 0.4950495 -0.7019602 0.49141863 0.8569396 0.1561383 -0.12790267 -0.23246032 -0.9287798 -0.22199734 0.9368027 -1.0185109 -0.117525786 -0.9599634 0.10150475 0.97467804 1.5605723 0.0035857116 0.35344955 -0.32618684 0.7659147 -0.4919582 -0.16879666 1.2092001 0.2594605 -1.206333 -0.6674919 -0.46286434 -1.0355833 -0.206563 0.18351305 -0.54453975 0.80034965 -0.9891475 -0.20114571 0.16127434 -0.6826052 0.56466216 -0.02324884 0.8130731 0.7531541 -0.5089171 -0.99650824 0.824719 0.49193683 0.57356906 0.033650715 1.2599273 0.72844374 0.6152116 1.1321718 1.1280445 0.05070912 -0.34613287 -0.11221724 -0.4430461 0.10046414 0.3813745 -0.46087033
2160 0.89645255 0.5836894 0.7059001 -1.1390209 0.06288104 -0.77110726 1.3777274 -0.79748994 -0.31288764 0.3037225 1.1461848 0.22823462 -0.86430615 -0.44361475 0.8841733 0.87415 -0.26717812 1.1941047 0.06190694 -0.27136347 -0.15643199 -0.86945623 -0.1984954 0.98181033 0.22294225 -0.18753609 -1.1636059 -0.29655173 -0.10780595 0.37322843 -0.90320855 0.5161593 0.3443513 -0.36949483 -0.35887098 0.7345896 0.6043132 0.9930858 0.26090103 -0.11106606 1.4072163 -0.5452481 0.79985803 -0.3590398 0.33489218 -0.5764329 0.588179 -1.5134023 -0.13815008 -0.9726967 1.900009 -1.5495698 0.68118846 0.62170875 -0.13584438 0.28568184 -1.0746813 0.19449185 -1.5529293 0.50181544 -1.5481519 0.14563866 -0.27304578 -0.11462391
2394 -1.3776411 -0.63515025 -0.82862616 0.033560056 -1.7022625 0.35313785 0.186501 0.18213974 -0.5993092 -0.044447098 0.4360853 -0.69251794 0.15992445 -1.570787 1.4286455 0.14903614 0.24336235 -0.2653533 -0.95585567 0.053183243 -0.13315019 0.5648723 -1.0635284 -0.69978637 -0.039738122 -0.6544761 -1.5589948 0.4070024 0.2652935 0.5480101 0.2976548 1.293508 0.16853367 -0.5433693 -0.03912764 0.6746189 -0.54663867 0.10307647 -0.382835 0.6841672 1.4235435 -0.44173265 -0.09438482 -0.4075909 -0.724898 -0.19594382 -0.4832622 0.20134605 0.83537847 -0.019571342 0.93301344 -0.4483829 -0.23669423 -0.37615708 0.062879115 -1.5854487 0.4206011 -0.22386539 -0.25214416 0.2477359 -0.07022833 0.1359742 -0.6358391 -0.40163127
1973 -0.042916197 -0.29866406 0.51410705 0.02768693 -0.4061484 0.30697504 1.1447867 1.0842913 1.1519649 0.058558878 -0.29092452 -0.22541621 -0.7201327 -1.104331 0.3827459 0.9578974 0.5063174 -0.10449288 0.5527002 0.40349168 1.0579727 0.7045775 0.4984975 -0.32536554 -0.722834 -0.75190014 -1.2898388 0.71024173 0.70768636 0.12503989 -0.89447814 0.34297466 -0.029658208 -0.7314084 0.041565184 -0.20883563 0.18053761 -0.39079052 -0.7464868 0.37226704 1.165861 -0.21384315 -0.3287344 -0.8203304 -0.33265334 -0.26076192 0.9534669 -1.2080919 -0.20102762 0.3421741 1.3914115 0.4477606 0.75433034 -0.4438707 0.13168085 -1.4580699 0.92899585 0.25563788 -0.5910212 -0.10067769 -0.33420783 -0.7277604 -0.08755452 0.07790173
2491 1.1676376 -0.8812729 0.055193383 0.00045217786 -0.10066556 0.052548707 0.81846553 -0.60344446 -0.69338435 -0.27773184 -0.37938178 -0.31703833 0.3393269 -0.74704176 -0.09125073 1.9912684 -0.48815846 -1.0076934 -1.2918038 0.11503524 1.6039575 2.251914 0.37125367 -0.98872745 -0.35484618 1.0733994 -1.3010598 1.7399313 0.7329622 -0.23568144 -0.36538875 -0.61692995 0.9319419 -1.1679585 -1.5385668 -0.18153486 0.17620803 0.2011937 -0.38621506 0.57843107 1.2228378 -0.109361045 1.131808 -0.28962544 0.2286501 0.93024683 0.30179304 -0.921216 0.086635634 -0.47657815 1.2525818 -0.09120587 0.4813037 0.6615139 0.2923886 0.6107542 1.6206032 -0.22652712 -0.4065419 -0.4421025 0.39538932 -0.6662107 -0.0043707276 -1.0860647
973 -0.15773508 -0.42500407 0.09931609 0.1838635 0.7439776 0.82036746 0.18824719 0.18856122 -0.44628516 0.07861658 0.5165976 -0.30137905 0.64596254 -0.72770756 0.9145333 1.3072067 0.6803942 0.37548363 -0.72518533 -0.7535509 0.4482705 0.8284805 -0.6867658 -0.73027074 0.17909992 0.19233397 -1.6130731 -0.24979693 0.590446 -0.6688594 0.4979316 0.10350071 -0.93096274 -1.0631207 -0.41663116 0.19514887 0.12684204 0.023181466 -0.44338375 -0.3343942 -0.3360364 0.5789584 0.16647407 0.37007603 0.055002395 -0.0670866 -0.20547172 -0.46269444 -0.3828348 0.23328082 0.5770903 0.06295988 1.1321807 -0.048542332 0.37348172 -0.37716147 -0.31626672 -0.38931814 -0.31817856 -0.7754089 0.78773826 -0.13670969 0.68364877 0.52735585
2465 0.09584547 -0.020688161 1.1077639 0.4527954 -0.54770523 -0.1526901 0.86795783 -0.7354227 -1.7562864 0.7885435 1.6342299 1.0273652 -1.1405741 -0.07179903 0.42822915 -0.09518803 1.3933746 -0.7495437 -0.68973833 -0.0881203 0.87295717 0.4161386 1.0646607 -1.1230448 0.008895018 -1.4285355 -1.5353289 0.05964349 -1.242571 -0.3568935 0.61256313 0.19850183 -0.31489983 -0.0972725 -1.3133745 -0.12761478 0.69587606 -1.5915812 -0.44226703 0.19091398 2.413634 1.3874117 0.49187273 -0.43280703 -0.0008589383 0.76924115 0.6088084 0.2107325 1.3049947 -1.1923299 0.88149965 -0.4389701 -0.13434921 -0.15770519 0.21145917 0.89604133 0.5142706 -0.56597286 -0.2716165 0.17500924 0.7684167 -0.83805424 0.32267419 1.0107887
2161 1.0458755 0.54458165 0.9102583 -1.0200568 -0.021202821 -1.0871848 1.7716072 -0.90801895 -0.6956057 0.6358794 1.2459313 0.43662506 -0.47753832 -0.68569434 1.159748 0.9339825 -0.061071485 1.416288 -0.024191985 -0.15162367 -0.43580735 -0.7169138 -0.20773804 1.3695517 0.49350807 -0.41757458 -1.1753197 -0.22438863 -0.14403056 -0.12464204 -1.4783999 0.49655396 0.7433767 -0.69932556 -0.42615384 0.8289342 0.66236097 0.9923005 -0.046899036 -0.19250739 1.4104931 -0.7955113 1.0224723 -0.48084956 0.34711704 -0.54648906 0.850596 -1.4710108 -0.05443465 -1.3991753 2.4074368 -1.6872905 0.711723 0.6286017 0.42961133 0.36436072 -1.3892744 0.2887789 -1.4419422 0.13886632 -1.6970695 0.21425456 -0.31204492 -0.5477477
2385 -0.13507973 -1.3471947 -1.2421532 0.86072177 -0.9250658 -0.3218994 -0.21125358 -0.46669757 0.5824624 0.7414512 1.5153224 0.20524454 -0.60422885 -0.9376758 0.6790733 1.1464717 -0.16151525 0.6737227 -2.133398 1.742668 0.50089586 0.59656197 0.49162403 -0.579544 -1.5332606 0.32442984 0.62231714 0.5758385 0.9474912 0.06792608 -0.3641974 0.85436416 -0.5074346 -0.6222931 -0.71545255 -0.1732548 0.4529537 -0.66156816 -0.39074838 0.4516531 1.1726837 0.067328334 0.42994413 1.1258485 0.7437113 -0.9930376 0.057222325 -0.24435872 -0.5758926 0.4210642 -0.26526713 -0.41237253 0.15527993 -0.4227279 -0.26383358 -0.67380494 -0.56516063 -1.3363808 -0.008815479 -0.2780542 -0.869139 0.3087644 1.2135893 0.120866194
2240 -0.18809493 -0.23898296 0.21007212 0.27064592 -0.36511746 -0.007969679 1.521011 0.22189754 -0.1585484 0.22582367 0.4070789 1.1520078 -0.73427075 -0.8421647 0.3009139 -0.24875608 0.9030487 -0.5457369 -0.20334792 0.612494 -0.06370738 -0.03460536 0.6377388 -0.33325836 0.20586935 0.20576476 -1.2719923 -0.7105038 0.6472401 0.32417685 0.27743286 1.2882122 1.3435413 -0.25130126 -1.517546 0.14486833 0.3084769 -0.55749637 -0.70140994 0.70524174 0.24720493 -0.39864922 1.1565363 0.56788504 0.07270913 0.6061537 -0.04477728 0.45794743 0.5811016 -1.0759374 0.6230275 0.36483744 0.7795165 0.7928714 -0.27112803 0.37622425 -0.32375255 -0.5895844 -0.4293789 0.21442358 -0.20630877 -0.5649967 -0.14815588 -0.06787209
2241 0.11730905 0.40997174 -0.16967213 -0.078758515 -1.2055904 -0.042709026 0.40312874 -0.14818451 -0.084483095 -0.2131921 -0.8259257 1.440127 -0.5102934 -0.4392995 0.01328631 0.42635298 -0.7552414 0.45321533 -0.07372595 0.019841136 -0.22498769 0.20440331 0.3728369 -1.5044783 -0.61180705 -0.8417459 -1.112184 -0.4042889 0.31267127 0.12985393 0.041429482 -0.5798375 -0.19101399 0.3827708 -1.0561018 0.22335114 -0.4115671 0.25406596 -0.1502857 -0.55208683 0.2562606 0.28813526 -0.061107215 0.37471926 0.78078854 -0.1862877 0.49763474 -0.57745767 0.417014 -0.7866559 0.21541928 -0.51799214 2.1995425 0.004950093 1.654756 0.99506325 -0.16260032 -0.3166543 0.78826976 1.0902935 -0.76550746 -1.0205611 -0.37823305 0.6280986
2306 -0.42740747 -0.47975075 -0.70071024 -0.009056322 -0.35469267 0.4914418 -0.06488261 0.5677669 -0.49967024 1.4954906 0.118855275 0.84210783 -0.2646141 0.58037865 1.7248242 0.5922015 -0.6061447 0.45618856 -0.6557771 0.32523903 -0.14236161 1.0070474 0.4194478 -0.2546581 -0.35318857 -0.108191654 -0.8502749 0.43655178 0.23502769 0.023601955 -0.1527235 -0.80097854 -0.21986412 -0.31974566 0.24041983 -0.11235437 0.51622915 -0.08712562 0.18108737 0.06825915 -0.058279816 -0.5998368 2.2260587 1.1215779 -0.39533028 -0.52176064 1.308148 1.0084851 0.7138547 0.7665108 0.35127845 -0.5698573 0.95189893 0.3735493 0.52982885 -0.029681018 0.082183965 -1.2448168 0.009313671 1.6934823 -0.9664055 0.52898633 0.5601252 0.07573402
2675 -0.40877247 0.056323905 0.48758212 -0.1779239 -0.40819433 -0.08657305 1.4896125 -0.47072116 -0.797836 0.89530873 0.11227922 0.48636806 -0.36649185 -0.28968734 0.314845 -0.39682588 -0.2493438 0.48084313 -0.98257583 -0.5860813 -0.4556046 1.5370746 0.012977428 0.64895606 0.2733006 0.31993398 -0.33517238 -0.06546827 0.121654436 -0.10408459 0.16586836 -0.9412188 0.043877266 -1.7076294 -1.2398014 1.528961 -0.023725763 -0.43768156 0.8038851 -0.5285432 2.2060614 -1.63387 0.49225184 -1.3389053 -0.99193186 0.0151064545 -0.8356463 -1.5044628 1.360619 -0.8821378 0.9204309 -0.1839023 0.1642987 0.14013281 0.5100626 -1.2121993 -0.43416557 -1.1963147 0.01605244 -0.59474826 -0.12813027 -0.0708454 0.6746019 0.4331543
1692 -0.28749648 -0.30297482 -0.38028142 -1.2045456 -0.046390202 -0.038627017 0.8628226 0.099893756 -0.5687593 -0.4852905 0.7659381 0.10057231 0.6186316 0.610688 -0.8620462 0.2851179 0.069370486 -0.49341643 -1.4105182 0.051477935 -0.33209187 0.025784163 0.8484889 -0.11103593 -0.9064063 -0.008519679 -2.0538824 -0.44899952 -0.41523775 0.54406095 0.17665406 0.15915385 -0.56098783 -0.90528333 0.70574826 0.60857356 0.077463314 -0.74289846 -0.07581859 0.35877758 0.031994566 -1.5342541 0.8499421 -1.1367809 0.6063389 0.6817279 1.1483374 0.30944684 0.43020537 0.16737366 0.17826486 0.0065454314 0.3980803 -0.1308663 0.5981396 -0.5647032 1.2934692 -0.5167783 -0.42680055 -0.6431136 -0.7708681 -0.48677263 0.106369376 -0.6982566
2163 -0.4821037 0.4725187 -0.8756571 -0.45424312 -1.4029013 -0.86073256 0.91058856 -0.2524594 -0.20463416 0.027094692 0.08140374 0.5726289 -1.0126569 -0.70084596 0.09408338 1.0719442 1.0257674 -1.7002332 0.12971015 -1.335837 -0.0037339425 0.1356063 -0.22001421 -0.5334586 -0.2430336 0.609958 -0.8581554 -0.90296084 0.36287624 2.1022165 0.31834602 0.27811718 -0.9528554 0.34796035 0.10108885 -0.12601705 0.13647373 -0.24713935 -0.6690646 -0.36027887 -0.6345435 -0.44466102 0.56846035 0.17035396 0.7414351 -1.0663066 -0.57576245 -0.7640004 -0.14154662 -0.6207681 0.47557664 0.3070817 0.7331668 -0.27011254 1.9058005 -0.08894036 0.32558638 -1.1863863 1.5785931 1.787207 -1.6399182 -0.16860634 -0.69212854 -0.8722885
2405 -1.0707867 -1.0949808 -0.6972889 -0.12665762 0.9039005 0.23875135 1.4144914 0.76446307 -1.1845956 1.1443529 0.2745151 0.68700325 -1.0171496 0.21233295 1.1834459 0.57510954 0.4881933 -0.7373027 -1.8705797 0.008764309 -0.19258432 0.80474925 0.053976394 -0.09386376 -0.9660731 -0.19552962 -0.28469363 0.03183883 0.21362495 0.6869379 -0.435782 0.47667974 -1.0015558 0.21856052 -0.29043072 -0.2652678 0.27059472 -0.6291991 0.26298696 -1.0030853 0.18121754 -0.07632946 -0.4718512 -1.4409624 0.31200168 -0.45059797 -0.31993714 -0.031364575 0.19482954 -0.7710957 2.0121577 0.008818973 0.36970583 -0.29554304 0.44083276 -1.6183192 -0.4442446 -0.65796673 -0.76228756 0.07195788 0.12295363 -0.6604326 0.071872555 -1.3917283
2596 1.4126809 -0.5801008 -0.22979547 -0.47801846 -0.28983986 -1.4895232 -0.0576076 -0.5682838 -0.39239457 -0.34146503 0.8799726 0.32352933 -0.46115395 -0.19503213 0.4636231 -0.54881597 -1.1303154 -0.34005108 -0.101268925 0.30723011 0.14712796 1.6844003 -0.12961912 0.24724579 1.1848447 0.2188928 -1.621197 0.35467398 0.3156641 -0.54129046 -0.86923045 0.6544734 0.12717141 -0.4583875 -0.33176562 0.83321816 0.46805066 0.33609098 0.2829824 -0.09458559 -0.076138064 0.17282641 0.50023645 0.29932627 0.2149333 -0.49835396 -1.1820374 -0.29059106 0.2374853 -0.7641844 1.1807611 -0.52966046 1.5112611 -1.5382833 1.1237833 -0.49240538 -0.3999943 0.5056444 -0.51417214 0.018811181 0.32842496 0.5292364 -1.2671577 0.51951796
1971 0.3934414 0.93208665 -0.63196474 -0.274955 -0.14024013 0.74481 -0.94796693 -0.70721155 0.30247173 1.3415318 0.84632134 1.8993492 -0.7247025 -0.9223318 0.907373 0.061264396 0.8215588 -1.2256776 -0.35512647 1.0736585 0.2586311 0.8009678 2.0203538 -0.36519504 -0.26844206 0.28963816 -0.9516329 -0.5591443 0.61002606 0.3174088 0.5849457 1.0236926 -0.2839784 -0.88018966 -1.079966 0.27104393 -0.8282656 0.10251699 -0.32501805 -0.6427451 1.1587576 -0.6648629 1.1723206 0.35216916 0.6084716 0.2671301 -0.93859076 -0.34589392 -0.43695346 -1.7827996 1.4806165 0.11326824 0.5565386 -1.0033183 -0.28879344 0.42501125 0.45969018 -0.45388216 0.5143358 -0.18254675 -0.07649293 -1.1690874 -0.7096443 0.62568474
2175 1.0848994 -0.7889431 0.19529791 0.7594551 -0.329342 -0.97655994 0.46641693 -0.24597801 -1.5375139 -1.1069881 0.21024393 -0.040493205 -0.21099228 0.27877006 0.5905101 -0.6716176 -0.72820866 0.10219934 -0.7893086 0.12984152 0.45432872 1.3742715 0.59899175 -0.27400404 -0.3067211 -0.76366365 0.26001462 -0.24222268 0.11371758 0.016381942 -0.72453314 1.016392 -0.32901725 -0.8634704 0.31753397 0.4576454 1.161196 -0.17443644 -0.8477271 0.08950283 -0.07679439 0.48954582 -0.06799613 -0.16827147 -0.2281277 -0.66473836 -0.7196586 -0.095553614 0.09135333 -0.122508876 0.59436524 -0.6419437 0.6310754 -0.72948056 -0.040049147 -0.6887 0.46637014 -1.8335365 0.39848572 0.109603986 -0.8663753 0.5430447 -0.89810103 0.53314376
2370 1.4073628 -1.1215003 -0.62821925 1.5902139 0.16926518 0.0778307 0.8029416 -0.37636364 0.013109195 -0.165404 0.036264285 0.018391037 -0.76609534 0.3493965 0.52057445 1.3325729 -0.8441401 -0.09956981 -1.3859386 0.6123143 0.37258667 0.8984322 0.5476033 -0.86660147 -0.1594886 -0.6372081 -0.9238992 -0.5817227 0.9817003 0.73211473 0.04023143 2.364279 -1.2292917 -0.9524818 0.30232736 0.30849665 0.022897553 -0.025335306 -0.57887006 0.21132028 1.644766 -0.21494165 1.1559486 0.50680834 -1.4403418 1.3833729 0.09821809 -0.3759395 -0.2083272 -0.054526094 0.9203172 -0.9763373 -1.0439649 -0.12507476 0.24313343 1.2851733 0.41582286 -1.45095 -0.53529406 0.33088768 -0.45144716 -0.281597 -0.5969697 0.51016897
2198 -0.34867647 -0.29811755 1.0447979 0.7647704 0.8102302 -0.46758306 0.6790381 -0.16160084 -1.4966037 0.39689273 1.1144106 0.6074718 -0.22704822 -1.1689795 0.48954645 1.5437183 -0.51320773 0.70542586 -1.2802007 1.9214678 0.14815275 0.1293443 0.8897838 0.92417365 -0.20237625 0.033450164 -1.3432163 -0.11110831 0.53157413 0.05654989 0.32932514 -0.7354052 0.36262968 1.0900465 0.1892191 0.57697827 -0.36987028 -0.90712774 0.6081729 -0.11595433 -0.05559187 -0.6820679 0.8680979 -0.5431011 -0.6898741 0.079830885 -0.19349201 -1.8748189 -0.18428217 0.64581376 0.19407758 -0.9369027 0.8566121 -0.14671193 -0.502341 0.6143595 -1.0800968 0.26010448 1.264625 0.05102139 -1.1660316 -0.24980195 -0.48261455 0.6190843
2046 0.54354894 0.068698235 1.2942595 0.65716386 -0.36306572 0.30510673 0.3314786 1.0844896 -0.31012693 1.006692 -0.23748492 -0.15628582 -0.33788958 0.30539188 0.5461773 1.4412482 0.34223783 -0.2707012 -0.08657963 -0.02403203 0.5683551 0.38642612 0.5764679 0.34359565 0.18261531 0.8089619 -0.6955254 -0.29968324 -0.66188127 0.28666884 -0.07720586 -0.025140194 -0.832601 -1.9317045 -1.1457982 0.07869718 0.3028422 0.14582108 0.026924448 -0.014508745 0.45133683 0.59508455 -0.20506056 0.6443542 0.006151119 -0.27275214 0.07724485 0.069604985 -0.60609144 -0.6044234 0.5612048 -0.49421418 0.5261474 -0.14245144 0.78947204 -0.51024735 -0.7233551 0.22172278 -0.09840468 -0.101443924 -0.50144696 0.5824134 -1.0210984 -0.5325409
1966 0.099126875 1.0901117 -0.34389493 0.10020875 -0.11965295 0.42376405 -0.9094669 -0.5031551 0.5482143 0.7289638 0.89593506 1.7241179 -0.5440436 -0.6774334 0.39900097 0.34760937 0.8078787 -1.1702375 -0.61210495 1.1768577 -0.24606672 0.8740039 1.4321054 0.034263458 -0.4944891 0.5806741 -0.885798 -0.33961216 0.82675844 0.31299606 0.21816142 0.68704796 -0.15375273 -0.20684062 -0.969581 0.14005901 -0.8435153 -0.0030989975 -0.44305035 -0.21290687 1.3999221 -0.83337724 0.80383325 0.10125841 0.6061582 0.41981933 -1.0898246 0.037886873 -0.64887184 -1.2896792 1.0965827 0.31125152 0.5117608 -1.0886452 -0.18211147 0.19046882 0.38877758 -0.2458939 0.5644131 0.035583075 0.3194334 -0.6549105 -0.615987 0.5418179
2539 0.32943898 0.2902489 0.1075405 -0.23153095 -1.4244527 -0.24049199 0.82723933 -0.3155736 0.2092625 0.2610953 -0.55530167 1.4271387 -0.25379676 -0.090049155 0.3429727 0.68184763 -0.52811265 0.22953428 -0.23378181 -0.060355328 -0.6354487 0.08124146 0.7812701 -1.7191076 -0.40711278 -1.000691 -1.3654789 -0.2172374 0.46482447 0.021759346 -0.40759632 -0.7464562 -0.6490802 0.16975078 -1.6583794 -0.48722032 -0.27834493 0.09434789 0.31864256 -1.0892669 -0.22261868 -0.06682042 -0.18613212 -0.53065366 1.1458591 -0.5752625 0.64167833 -0.8681331 0.10520987 -0.83865225 -0.012034473 -0.46157935 1.5949539 -0.004778358 1.6328287 0.96443397 0.5799658 -0.87950444 0.731966 1.636974 -1.1032385 -0.9665024 -0.51713765 0.9374556
2047 0.16297774 -0.05135549 1.3367085 0.2984068 -0.35783044 -0.1163117 0.28717673 1.3586353 -0.83396477 0.8727368 -0.3911836 -0.7309711 -0.6808351 0.4710351 0.5141713 1.5880044 0.2086738 -0.53871274 -0.8620159 -0.10824598 0.69184715 0.48332092 1.0319129 0.40408778 0.7347029 0.74782425 -0.9363574 0.05184566 -0.2320203 -0.2709459 -0.1540238 0.4575417 -0.94536793 -2.0821073 -1.2220191 0.36607018 0.32849112 -0.12268076 -0.2907359 -0.5767376 0.6800399 0.671364 -0.7589517 0.8160013 0.1311151 0.33144382 0.38147137 0.531792 -0.050450344 -0.31162676 0.18725495 -0.0873937 0.5888884 -0.07426238 0.9311874 -0.28898248 -1.2635605 0.22195406 0.17038515 0.19431752 -1.0849694 0.31464702 -0.9107302 -0.59819984
2083 0.7556784 0.3322183 -0.0069117574 0.0034922836 -0.7100395 0.5209693 0.43010804 0.55357194 -0.7605378 -0.41370097 0.25182563 0.004421703 0.13255972 -0.9855691 1.1658745 1.1772102 0.13031633 1.1338334 -0.82690954 0.12499332 -0.41891924 -0.19749092 0.70375365 -0.038990777 -0.30591512 0.09404447 -0.42153272 0.6409253 -0.7992581 0.99025714 -0.780633 0.2841264 -0.13527647 -0.045784596 0.3121002 0.5865288 0.88452655 -0.16634957 0.07306777 -0.3270254 -0.14166844 -0.5385656 1.5231677 -0.28623924 -0.2894263 -0.084668234 -1.3740731 0.31349123 -0.5232096 -0.8575543 0.55311793 -0.5695077 0.8415936 -0.28310266 0.5542686 0.3396406 0.7835428 0.24573767 -0.21537876 -1.2455182 -0.7811513 -0.09192316 0.24175996 0.034876864
2446 0.85859346 -0.62733597 1.38632 -0.043073438 0.055987738 0.017777242 0.37909856 0.2690136 -0.13040622 -0.46267796 1.2241775 0.51257443 -0.93578285 -0.018333029 -0.27532116 0.21620543 -0.89169914 0.1137285 -0.06381147 0.4898244 -0.38001955 0.65701854 0.8471369 -0.5588447 0.51347476 0.68423605 -0.7475296 0.04967394 -0.12089119 -0.33304211 0.18854304 1.0337394 0.50749964 -0.24133043 0.5976185 -0.01736674 -0.5439932 -0.59852695 -0.6718894 -0.35716227 0.30644995 0.71732163 0.5891034 -0.34617534 0.0027487385 -0.6960939 -1.2956988 -0.29133922 1.0743794 0.09449964 0.09140196 0.37979433 1.9435644 0.030894583 0.6574329 -0.7904059 0.37444794 -0.6348096 -0.58668905 0.56010586 -0.9320632 -0.31115532 -0.3441573 -0.21186332
2242 0.2253149 0.46785513 0.078182444 0.04619243 -1.3486377 -0.25440988 0.50647986 -0.1196464 0.06189323 0.09104857 -0.7953729 1.5297674 -0.6660859 -0.04643386 0.19022447 0.2299643 -0.87927645 0.3252526 -0.058894806 -0.3988072 -0.26509732 0.080593966 0.7972449 -1.4004818 -0.66844696 -0.8798313 -1.2904513 -0.1288895 0.34888735 0.1257349 -0.18674465 -0.62810373 -0.32463762 0.048642762 -1.4926939 -0.11799349 -0.2198912 0.18964387 -0.0848553 -0.93434626 0.18965632 0.25216484 -0.00972436 0.06937693 0.9719221 -0.41513154 0.45331994 -0.3690201 0.1681892 -1.020845 0.26434958 -0.6896661 2.067043 -0.008652658 1.5130819 0.8709872 0.13183972 -0.74751496 1.0336716 1.1964098 -1.0759097 -1.2511257 -0.083248205 0.70930064
2485 -0.62944835 -0.26529366 0.22457172 -0.26073238 1.0264277 0.19140223 1.441334 0.60577124 0.30885836 2.0507996 -0.068803996 0.10313079 -0.79315966 -0.5232513 0.1693217 1.0570965 -0.30579007 0.3150237 -1.1488392 0.003033086 0.17260522 0.8343153 0.32286638 -0.8405715 0.29366317 -1.0948478 -1.7961185 -0.19107045 -0.20417675 -0.007401216 -1.2675045 -0.79717535 0.38564736 -0.32173616 -1.5944967 0.07864534 1.2497343 -0.7508978 -0.20765617 0.848497 -0.12776387 -0.3004129 -0.45537862 0.4923634 -0.6083472 0.36039883 0.39557892 -1.4891558 -0.22131887 0.14275338 0.6003294 0.7218304 0.698362 -1.0865563 0.9227375 -0.28462312 0.48465526 -0.087480046 -1.3260809 0.9010565 0.51555866 0.12597209 0.035571102 -0.36573565
2335 0.28801012 -0.37897223 0.39583558 -0.24163072 -0.66247755 0.27748588 -0.2602647 0.03740324 -0.46228656 0.71046907 -0.040156133 0.34405693 -0.52846473 0.39755428 1.306544 0.49545693 -0.2094458 -0.6628633 -0.22728097 0.6771823 0.18736234 -0.025415884 0.39951348 -1.0397296 -0.0017897834 -0.62335354 -1.1136261 -0.0018352619 -0.21052782 0.6976363 0.6442819 -0.07707491 -0.8746603 -0.33693087 0.33312652 0.505906 0.7226475 -1.1413273 -0.39573783 -0.05101191 -0.005665404 -2.0005035 0.999999 0.85635275 0.7787279 0.5051187 -1.489663 -0.6472677 -0.93018353 0.40443242 0.852555 0.61409086 0.44034874 0.31025368 -0.34474957 -1.3789783 -0.113528386 -0.38767985 0.5153607 0.75376123 -0.088455826 0.61436206 -0.31223708 -0.9161129
2228 -0.39553878 -1.1380562 -0.4302009 -0.17660002 -1.026386 0.46037257 1.0481673 0.306004 -0.5270969 -0.22492507 -0.79227185 0.49420282 0.20022936 -1.0183489 1.6276249 0.06597547 -0.68673646 0.42512998 -0.7806828 0.33567047 -0.32333413 0.20634015 -1.1187752 -0.76691383 0.8340323 -1.8645362 -1.7420278 0.2660212 0.05671706 0.14421181 0.23548318 1.8640122 0.13293506 -1.0136586 0.036444668 0.5657243 -0.5799042 -0.16470739 -0.14711401 0.12753613 1.3846428 -0.46130422 1.3154972 -0.3243474 -0.6812125 0.014850736 -0.5054717 0.2624771 0.75742126 -0.28763565 0.53560936 -0.12815431 -0.26257998 0.01459478 0.26448458 -1.5341476 0.88676035 -0.48916468 0.002181607 0.1731276 -0.019839568 0.7441383 0.18772131 -0.8299639
2395 -0.9899562 -1.1926064 -0.8037665 -0.5502017 -1.8603908 1.0613941 0.07975132 0.3576502 -0.42160645 0.4796073 0.100052334 -0.4756695 -0.16322824 -1.625221 1.7727232 0.6686146 -0.27116424 -0.38432166 -0.8658464 0.47788128 0.082715414 0.5646997 -1.6408345 -0.117077515 0.25212908 -1.1822115 -2.2187407 0.20413625 0.15828317 -0.037197717 0.05627981 1.5608455 0.27065146 -1.0737281 0.16247277 0.7100208 -0.5141668 -0.3765961 -0.23208793 0.25550577 1.3998815 -0.9732622 0.51438296 -0.65846735 -0.21286818 -0.06277873 -0.8033819 0.35155073 1.3780888 -0.42193115 1.159413 -0.62419045 0.1196414 -0.50074935 0.0068987957 -1.456124 0.6555065 -0.31345472 0.26505822 0.066665635 0.3339391 0.4443544 -0.29544383 -0.6965974
1869 0.64950305 -0.20432885 0.14041702 0.32534444 0.025622798 -0.31492558 -0.2832448 0.0749431 -0.80310786 0.2566229 -0.7822378 -0.11848929 0.27074254 -0.36055654 0.5029183 0.51453185 -0.45083082 -0.13638476 -0.49541873 0.32117644 0.5203076 -0.07364004 0.35776818 -1.9123619 0.015274213 0.16034785 -0.5958073 -0.95908767 0.036774233 0.19699563 -0.38289434 0.18459663 -1.7282372 -1.1842709 -0.31227377 -0.101300426 -0.6204084 -0.88972443 -0.49812594 -0.14032577 0.69588405 0.6179452 1.1644057 0.69276124 0.046405133 -0.05809015 0.6606446 0.45906758 0.082134075 -0.16427685 0.5689709 -0.2382732 -0.7981806 -0.1358015 -0.07599481 -0.5194657 -0.8158996 -0.34475324 -0.7661828 1.3147256 -0.30182144 -1.0285776 0.62553847 -0.6881882
1958 0.81759936 0.0035110232 -0.29124337 0.1547093 -0.5647061 -0.46387443 -0.2295209 0.2218169 -1.2405329 0.6195336 0.042250775 -0.60256493 -1.2164443 0.38443115 1.1801229 0.9244509 -0.2884126 0.7849676 -0.27350488 0.26139635 0.23650466 0.094249345 0.28060663 -0.12962966 -1.9280615 -1.4333193 -0.99444 -0.5806216 1.1635677 0.20526731 -0.1664567 -0.17301154 -1.1774881 -0.34057307 -2.0700521 0.3399218 -1.5408374 0.17680326 -0.03037796 -0.4587238 -0.63866794 1.3959265 0.5215162 -1.281419 -0.29923353 -0.7836843 0.31865427 0.03871848 0.51416385 -0.11963342 0.39743668 -0.34146634 0.91758525 0.5064407 0.72068477 0.051849317 0.84546876 -1.7593511 0.08746319 -0.0025435896 -0.8974363 -0.46846786 0.41116613 0.37620032
2326 -0.72495997 -0.5469509 0.18057644 -0.55332285 -0.10643035 0.47340372 0.5359921 0.6204676 0.049076594 -0.4097188 1.5556324 0.3778142 1.1740376 0.6789837 2.083016 0.9615282 0.60369915 0.22876428 -0.9754737 -0.107086286 -0.1587604 -0.107523836 0.16707958 -0.70942837 -0.85948926 -0.00945633 -0.7520631 -1.0949974 -0.087280795 -0.55511254 0.13725622 -0.5225358 -1.5766876 -1.3120413 -0.38415837 -0.47199902 0.10350614 -0.60084045 -0.8751991 -0.72720635 0.6386899 -0.067468904 -0.8312819 0.502888 -0.38672814 -0.4643807 -0.6594427 -0.9734426 -0.15743889 0.04386648 1.0946906 -0.29792774 0.37708545 -0.022102727 1.9051853 0.60529965 -0.32512534 1.0046377 -0.12575805 -0.37663758 0.047430795 0.83781457 -0.41417006 -0.053983167
2336 0.18514293 -0.50650054 0.5842031 -0.03399509 -1.2096727 0.3796759 -0.700864 -0.07473663 -0.33683503 0.5723798 0.031373132 0.28875342 -0.56704885 0.65570796 1.2054702 0.58853745 -0.09412552 -0.008296236 -0.3241499 0.66255015 -0.00033881937 -0.025527537 0.5179402 -1.1772547 -0.20367303 -0.39784694 -1.1141373 0.93306375 0.34969285 0.68895227 0.46843743 -0.2129973 -0.45903847 -0.3244007 0.3455854 0.69402647 -0.013161012 -1.2843885 0.10665046 0.2847997 0.27007553 -2.1997328 0.9000293 0.856377 0.35568324 0.90372473 -1.670655 -0.41728255 -1.0437497 0.1299721 0.7838467 0.3558746 0.98690176 0.54932755 -0.1971455 -1.5333648 0.0008756592 -0.55005217 0.44074562 0.5626219 -0.6842345 0.081953704 -0.19992116 -1.1699778
2110 -1.4248834 -0.5966953 -0.9023888 0.56097823 -0.54914117 -0.5328744 1.5108408 0.6931507 1.26214 0.15981466 -0.68743265 -0.38844395 -0.87444943 -1.2128279 0.8082108 1.8399636 0.040049385 -0.30168757 -0.33532196 0.596469 0.37874508 0.57841486 -0.711544 -0.8086404 -0.49918613 -1.4509404 -2.0120294 0.5861461 0.049392633 1.0097358 -1.5996392 0.48209715 -0.33276436 -0.35719168 -0.15933579 -0.20947318 0.6391194 0.09654465 -0.40393522 0.38938448 1.4277847 -0.22568008 0.019941757 -0.726158 0.18693869 -1.2869129 0.075815305 -0.87885064 0.018919993 0.37797546 1.3649946 -0.4443138 1.0016009 -1.0563985 0.9291906 -1.4001999 -0.089004934 0.4050977 -1.5627205 0.40994793 -0.063817576 0.12975477 0.32631633 0.39701197
2486 0.45963508 -1.0556587 -0.22962095 -0.17862351 -0.9691584 -0.7182349 1.648712 -1.1170282 -0.88205254 -0.104749456 0.20909092 1.1489899 -1.3875382 -0.42507282 0.89237756 -0.20201288 1.0557616 0.7955019 -0.424077 0.6546147 -0.79787326 1.4388123 1.0876471 -0.07315398 -0.37334278 1.171103 -1.9729698 0.14708939 -0.23227157 1.1906425 -0.5954737 0.39078754 0.27303842 -0.01592892 -0.07210569 -0.004170974 0.7421455 -1.4728125 -1.3725234 -1.0249166 -0.11275132 -1.2724385 0.37990054 -1.0782968 1.6985865 0.00014947017 0.534053 -0.90091217 -0.02980803 -0.5503093 -1.3275919 0.16226384 0.33749422 0.16068384 0.05437829 -1.171708 -0.12274892 -0.8989585 -0.40684906 1.3463422 -0.21449134 0.17084418 -2.0776207 1.0274117
2080 1.1070144 -0.33654118 1.337203 0.87985617 -0.10780565 1.3647166 0.4264761 0.2864024 -0.5583741 0.463131 -0.46768147 -0.19156264 0.5736488 1.3632025 1.3311926 0.61265385 0.34254017 0.45618305 -1.9960085 0.21993707 0.08513634 1.4752772 0.39493224 0.6069461 -0.36414734 -0.72616154 -1.4322864 -0.5917005 -0.5842604 -1.5346285 0.39024138 -0.43565848 -0.40871057 -0.3752866 -0.59187037 -1.5156863 0.17693141 -0.010783979 0.28355 0.6537134 0.91497976 -0.66792166 0.4752747 0.09465646 0.99514365 -0.0703458 -1.0201051 -0.7050286 0.69095033 -0.080923796 -0.09528673 -0.57399803 0.75135475 0.13011521 0.28087014 0.64631474 -0.124553405 0.3092602 0.94860995 -0.054594442 -1.1695514 -0.07607868 -0.53382653 -1.1725242
2507 -0.40596342 -0.20357187 -0.1377248 -1.8537691 -0.5726337 -0.021877654 -0.041944753 0.19816762 -0.8149521 -0.31399477 0.63498265 1.1057608 0.13933001 -1.1608557 1.7540951 -0.01946426 -0.38611656 0.013950882 -0.8397393 0.8796476 -0.1206289 0.7958912 2.7109637 0.51876426 -0.93204844 0.87315387 -0.030885344 0.4787221 -0.3554683 0.6743169 -0.82402766 -0.11945817 0.24270488 -0.08387081 0.16471216 0.2670546 1.0164819 -0.8122751 0.15480332 -1.0400966 0.8157745 0.897228 0.8001527 -0.08053093 0.47415736 0.89695096 -0.118223086 -0.30780378 -0.010991562 -0.8079391 0.20546378 -1.2349366 1.2586148 -0.3792167 0.6399918 -1.0628325 0.4226349 -2.015785 0.40574625 -0.14214551 0.7383473 0.34536466 -0.6626642 -0.74684143
2147 0.20674394 -0.73175126 -0.48647895 -0.3720576 -0.9218865 -0.7164843 1.5285684 -0.9010535 -0.7248048 -0.17517096 0.43943965 0.45403004 -1.514927 -0.023523387 1.0843221 -0.44409716 1.2497023 0.74285716 0.05264342 0.56086606 -0.5076448 1.3653808 1.1550413 0.6227788 -0.31618005 0.3682171 -2.0891318 -0.0061933794 -0.40449277 1.5659198 -0.7990497 0.5420686 0.15857588 0.15927833 -0.06430345 0.13012403 0.988718 -1.0526597 -1.4013901 -0.81001073 0.07938285 -1.0938804 0.55035895 -0.9233128 1.4395274 -0.022529678 0.021626692 -0.87067926 -0.20219691 -0.24010387 -0.77050287 -0.14307892 0.01097211 0.10296189 -0.6288346 -1.0627862 -0.6594922 -0.8213737 -0.31494108 1.2156726 -0.3633262 0.12725554 -1.9193645 0.69283307
1761 0.98295796 -0.44615585 0.15008833 0.59495586 -0.45294473 -0.68200517 0.4440206 -0.19732842 -1.6323932 -1.167642 0.2283455 -0.08734602 -0.009865118 -0.23392923 0.54870445 -0.5704801 -0.6157364 -0.034319527 -0.7924418 -0.06884343 0.14644647 1.2755026 0.7221904 -0.0066995863 -0.4128797 -0.6621577 0.24798086 -0.05770109 -0.47084248 0.119885445 -0.62790155 1.0119545 -0.13453281 -0.7173451 0.25404295 0.5796447 0.96781427 0.019746678 -0.97563416 0.08879056 -0.06385824 0.67181337 -0.2549351 -0.22129327 -0.19984487 -0.82109874 -0.8651842 0.020930486 0.13118291 0.19320452 0.9071425 -0.565317 0.5009798 -0.71360606 0.056189597 -0.35949814 0.05190577 -1.2030783 0.21231598 -0.109602354 -0.6631141 0.6127374 -0.55075204 0.15726556
2597 0.94117033 -0.45261133 -0.018553382 0.21486096 1.106639 0.3844208 0.23469152 0.055370912 -1.0799991 -0.8134992 0.523718 1.2795403 -0.05808324 -1.2000371 0.32370186 -0.13734193 -0.4472361 -0.5508667 0.8199674 -0.12117365 0.53478646 1.6637533 1.4317336 -0.7237572 0.29507133 -0.1203809 -0.5009838 0.010316784 0.43536893 -0.14209017 -1.6303604 0.8098108 0.4147358 -0.27438128 1.0178859 1.0244863 0.21561575 -0.5320074 0.28897786 0.18914701 0.13596128 0.8340935 0.5311402 -0.13277905 -0.20799759 0.22907217 -0.4487728 -0.3662541 0.109962285 -0.24958503 1.2517563 -0.5422835 1.4729306 -1.4949309 0.9282447 -0.2429305 0.5453777 -0.5750171 -0.38683188 0.3655351 -0.6604468 0.502244 -0.4759525 0.28889874
2552 -0.3898123 -0.7319653 -1.1987097 -0.46549886 -1.3585303 -0.017313095 0.5916418 0.6995545 -0.73219556 1.4430157 0.45933118 1.0932373 -0.35755605 0.67930853 2.0236182 0.95754 -0.90313303 0.5424166 -0.566024 0.1810658 -0.5307355 0.85569495 0.6200872 -0.21735844 -0.5980551 -0.32664782 -1.9996433 0.09762801 -0.006408407 0.12991153 -0.26325226 -1.4006275 -0.55425113 -0.23223165 0.46105587 0.012707852 0.44867834 0.16543804 -0.2568691 0.37422442 0.12101664 -0.8933093 2.014394 1.0873888 0.57421094 -0.32359657 1.408694 1.1629215 0.19605199 0.8385895 0.35401753 -0.9931213 0.8055768 -0.037780643 0.70710015 0.2416224 -0.1332698 -1.3218875 0.19599843 1.2905223 -1.8648556 0.39066857 1.052307 0.008500321
2524 -0.08756708 -0.18862341 1.0025519 0.36330914 -2.225502 0.18263867 -0.5517552 -0.11592281 -0.83750045 0.16291443 -0.48394713 0.3206851 0.20274864 -0.11623968 1.191558 0.5532385 0.122629166 -0.28587395 -0.8299687 0.6856168 0.19118586 0.20219359 0.87575126 -1.9025605 -0.14830993 -0.4093435 -1.73865 0.68940765 -0.5276013 0.40363577 0.86409634 -0.29765117 0.040103786 -0.22834173 0.1875064 1.1006086 0.08998148 -1.4421765 -0.08251055 0.29706797 0.38808405 -1.8970726 0.49368963 0.553489 0.708997 1.0463579 -1.2879725 -0.60235286 -1.3002064 -0.045963414 0.7841101 0.24335396 1.7005643 0.29665768 -0.6368401 -1.8681725 -0.16782883 -0.7746292 0.274916 0.08321264 -0.74885297 -0.42532682 -0.015992513 -1.6690868
2436 0.0005772177 -0.8456649 -0.23573309 0.12781619 0.33614507 -0.2932799 0.4623145 0.39487454 -0.50689226 0.2695004 0.9829278 -0.021904197 -1.4816682 -1.1304655 1.0914091 1.1145524 0.45926642 -0.25828353 -0.068937585 0.36258876 0.88463646 0.4411006 1.6561339 -1.44007 -1.0987934 -2.1272824 -1.5420518 1.0393424 -0.6510425 0.04872698 0.47181076 0.43272159 0.91823894 -0.6539369 -0.8999144 -0.12488752 -0.47414657 -0.81878823 1.1409254 0.06089884 -0.121715836 -0.07788337 0.25664338 1.1296805 0.34127346 -0.17699964 -0.5924378 -0.44051585 -0.016061293 0.18133274 1.548345 0.2576604 0.48926628 1.527647 0.5114298 0.9451397 0.11593497 -1.2260278 0.1864288 0.4119483 -0.08113644 1.9363695 0.19524543 0.1316449
2247 0.6111026 -0.47939616 -0.9939062 -0.6282763 -0.8114624 -0.5233322 1.1215632 -1.5185488 0.1565332 -0.04924794 0.39407212 1.2909793 -0.5475406 0.7782383 0.74207425 0.7349519 0.4497595 -1.4679731 -0.85030997 -0.09254614 0.2113821 1.1088977 0.43418953 -0.41595364 -0.930217 0.23038198 -0.9833158 -0.2853732 -0.32341427 0.11824911 0.030010175 0.17064258 0.02955006 -0.049051363 0.116124384 1.0650419 0.20448524 -1.1870644 -0.8048904 0.39774293 0.2733909 0.66140276 0.7355216 1.4056982 0.44957837 0.122509405 0.23153009 -0.79079944 0.26615414 0.4589396 0.5123699 -0.9469819 0.044981115 0.27288252 0.6834929 0.686859 -0.7011353 0.18701762 -0.23234995 0.557234 -0.74124426 -0.448781 -1.0441061 -0.28165716
2305 -0.8584232 -0.14033929 -0.24888095 -0.08000376 -0.093684934 0.44181633 0.3140265 0.7371002 -0.45562366 1.1653442 -0.16325141 0.7308308 -0.08578521 0.28700465 1.4090734 0.74486285 -0.845274 0.27038056 -0.6002928 0.31416696 -0.6283884 0.92682797 0.34931493 -0.27717277 -0.5134943 0.13522257 -0.9185439 0.49829665 0.20879714 -0.08232345 -0.24042457 -1.041218 -0.030372374 -0.49554566 0.16580774 0.0015118147 0.35888243 0.1377326 -0.01448004 -0.06855668 -0.0077280574 -0.36385536 1.9126705 0.9488396 -0.30617797 -0.62548804 1.057397 1.0087779 0.4944065 1.0080211 0.20956634 -0.3858703 0.8091749 0.22927149 0.4349502 -0.1094463 -0.24098292 -0.8008383 0.044017892 1.3303032 -0.9117316 0.63355696 0.63177466 0.32104495
2358 -0.117186636 -0.7244184 -0.19957939 -1.1112382 0.67219615 -0.98121554 1.5098491 0.5836592 0.24297296 -0.57552534 1.1106834 0.47665897 -0.3675881 0.93035215 -0.47803214 0.5593963 0.63795483 -0.9947053 -0.4658157 0.324981 -0.18880847 0.108509816 1.5749203 -0.38069767 0.13152124 0.7648334 -1.9804275 -0.5956348 -0.7377627 -0.12026645 0.7402603 -1.1728711 -1.2276441 -1.8721503 -0.28265822 0.8003723 0.22284418 -0.4053185 -0.2542524 -0.20984676 -0.18431161 -0.484797 0.8660207 -2.0958953 1.1858057 -0.6474216 0.6037362 -0.18154642 0.6010688 0.022462662 -0.004523979 0.87583655 0.4844486 1.31951 0.50542355 -0.06099654 0.008023665 -1.3491449 -0.63534445 0.37916842 -1.2001016 -0.70997024 0.2576022 0.084912255
2519 0.3459326 0.07976595 -1.3720148 -0.55250657 -0.67999 -0.42695042 1.7071062 -0.3907151 -0.7382825 0.9621765 0.98465276 1.2522582 -0.49815264 0.81521666 1.2580836 0.7084543 0.37069994 0.19061214 -0.7162569 0.423947 -0.04750147 1.1307524 0.2844673 -0.0024583207 -0.5657293 0.2768133 -1.1641186 -0.20019542 0.19558403 -0.9712599 -0.43964395 1.5659844 0.04720978 -0.4835587 -0.24173148 1.0015664 -0.560778 -1.0131037 -1.5735419 0.3074854 -0.37643188 0.12307343 -0.35463527 1.8518344 0.4725695 0.92806745 -0.11986574 -1.7599117 0.08904296 -0.10232269 0.4178656 -0.84043807 -0.31623244 1.2208211 0.1990505 -0.39111602 -0.27804098 0.07047743 -0.84968984 1.3408645 0.009144468 -0.7370047 -1.2581348 -0.28721917
1013 -0.057782814 -0.3277582 1.4447498 -0.84249836 -0.18543588 0.74262047 1.2001811 0.9037435 -0.03391535 0.80220795 -0.251401 0.1998009 0.2770062 -0.64734364 1.9510821 1.1173295 0.16070524 -0.63316745 -1.0272715 0.30146763 0.96584517 -0.3839459 -0.81978375 -0.199763 -0.31113592 0.106801495 -1.253483 0.66961074 0.3696351 0.30495378 -0.31452224 -0.19019686 -0.55205965 0.3119858 -0.6021391 0.64134395 -0.48131317 0.20168695 -0.10645983 -0.17411168 0.36185628 0.6963772 0.41546234 -0.24563436 0.23045592 0.5048427 0.14769349 -0.40320787 0.29026133 -0.6510943 -0.33468038 0.38801163 -0.28785917 -0.9827032 0.24291322 -0.859946 0.26813477 -0.5943132 -0.81745005 0.7185472 0.44769353 -0.55937105 0.2272338 -0.26828492
2530 0.5252351 -0.3486887 -0.00819826 1.0826663 0.58665985 -0.43350384 0.97855985 1.250871 -1.6861275 0.71368474 0.5897526 0.33535984 0.56055003 -0.059549995 0.15005027 -0.785751 -0.8135295 0.68508726 -0.32241184 -0.14919095 -0.77274597 1.3368051 1.5599664 0.88911426 -0.7318267 -0.070481285 -0.6813169 -0.24077557 -0.0021494266 1.0863148 -0.8257509 1.2508633 -0.88416946 -0.16709232 -1.1144989 -0.3529666 0.10577788 -0.96670747 -1.8103036 0.5693431 -0.1156215 -0.24737163 0.8155388 -1.7576802 -0.22508103 0.69624835 -0.15855844 0.6444514 0.07919658 -1.1974825 -0.57128274 0.102927655 0.91566 -1.8256259 1.3501282 0.019925063 0.26330096 -0.54603016 0.1908876 -0.09812499 -0.35542312 -1.1060363 0.11097264 0.3684242
2042 0.89115006 -0.3079793 -0.7262727 1.2760191 0.24089038 -0.21969092 -0.3699185 -0.34928915 -0.6654994 0.91532487 0.8014388 0.17929645 -0.15607516 -0.39380828 0.4641643 0.031487823 -0.2633377 0.5310073 -1.4678886 -0.07120387 0.53089446 0.50271624 1.071437 -1.1268412 0.21729535 0.9052418 -0.785356 -0.7480363 -0.2763125 0.2825789 -0.5388499 -0.7378814 0.32480538 -0.9416596 0.30579588 0.08882861 -0.9104083 0.18099022 -0.04114332 -1.3205909 0.8273066 -0.64993715 0.21490718 -1.0634307 -0.09497998 -0.9642842 0.7735036 -0.42093685 0.07481334 -1.0520171 0.35147768 1.2669317 -0.17765869 0.63586193 1.211041 0.0052588894 -0.18089354 -0.33255097 1.2089741 0.29552618 -0.30720064 -1.3748101 -0.35923454 0.44351634
2327 0.74859947 0.25117588 0.3076498 0.60742587 0.6201368 0.5092298 0.9482716 0.99344337 -0.03826062 -0.34370953 -0.082693495 0.024027899 0.27005088 -0.21548095 -0.56705755 0.5955432 0.5660792 0.43355078 -1.0160614 0.2696261 -0.85172987 0.34326646 0.68068147 -0.16076365 0.42281374 -1.0300034 -0.609104 0.08174682 0.0010659533 0.6126599 -0.946954 -0.9271951 -1.1440734 -0.93286026 -1.3454169 -0.6767348 -0.18688092 -0.27897894 0.3290927 1.8187497 1.2016051 -0.39138988 0.4613918 0.68741703 0.36126035 1.0014038 -0.5177073 -0.8325388 0.67160076 -0.14983296 0.5662595 -1.4371599 0.33897954 -0.475758 0.94297224 0.8593004 -0.8649618 -0.6260702 0.008519925 0.1323184 -0.66019636 -0.097155705 -1.214742 -0.2462299
2476 0.95492554 -0.37257493 0.044639 0.34706366 0.48405433 -0.68723273 0.311569 -0.48007253 -0.74478805 -0.353022 0.36554295 -0.12594081 0.40785465 -1.4448893 0.70753634 -0.84210074 -0.18464784 0.65630394 0.1725765 -0.5296731 -0.76205856 1.3351663 -0.18802482 0.38688296 0.14864865 -0.23764528 -0.347549 -0.014067185 -1.2555047 0.5231932 -0.677289 1.0384291 -0.4472593 -0.30533123 -0.9046523 0.9202193 0.8694614 0.12171033 -1.1473265 -0.49145702 0.19004092 0.5246792 0.55314666 0.096892454 -0.7887243 -0.18348515 -0.27126256 0.005839961 0.5029545 -0.6357207 1.1191518 -1.0066009 1.3511424 0.5918288 0.8677514 -1.0659164 0.8055661 -1.3808227 0.25366685 -0.7576289 -0.5346411 -0.012941748 -0.7149701 -0.16910401
2233 0.18324961 -0.75305885 0.5673365 -0.11541281 1.0319164 0.023187296 0.35678416 0.3710158 -1.4457403 0.37830245 1.1472846 0.4016168 0.29347485 -1.0168796 0.64285433 0.792343 -0.02637914 -0.74046016 -0.40905434 1.7231016 -0.5603239 1.0111455 0.78612244 0.086538516 -0.30211684 0.055613004 -0.8378665 0.37071237 -0.15119176 0.028748631 0.6288181 0.27905524 -0.60327405 -0.03944442 0.026470318 -0.13506155 -0.54028255 -0.5869829 0.42434606 -0.6153609 -0.12552057 -0.893101 1.0279212 -1.2880446 -0.7417799 -0.032488585 0.3386593 -1.050598 -0.089092374 0.4715283 0.76006347 -0.72266555 -0.023093574 0.099800885 -0.5107707 0.39505017 -0.5711088 -0.3927646 1.2040932 -0.024171475 -1.452845 -0.06932682 -0.64147174 0.750553
2357 0.1025794 0.21025409 1.0571601 -0.55646515 0.53993857 0.08509996 -0.2370482 0.07774384 -0.86790484 0.16975006 0.051003184 1.1607893 -0.21582094 -1.1203274 0.496964 0.32656908 -0.3645886 -0.009545786 -1.0979092 0.4666559 0.27374437 0.47308633 -0.57241243 0.31806186 -0.79755425 0.32909012 -1.5156809 -1.5778424 0.65545 0.94958985 -1.8589872 -0.6763834 -1.0549766 -1.5735979 -0.5069143 -0.723677 -0.74079984 -0.12172724 0.30195427 1.0957788 1.0644759 0.27786922 -1.082279 0.6346024 0.6302661 0.800768 -0.74934447 0.16105434 0.4112928 -0.17491405 0.2909465 0.9305889 -0.5797625 -0.103516996 0.69758296 0.3506732 -0.45482638 -1.1633513 -1.6941358 1.2953016 -1.2018638 -0.34770688 0.5029614 -0.61313355
1483 1.0773237 0.38298976 0.58882046 0.8883393 -0.23774758 -0.15974067 0.21926376 0.8474379 -0.71200526 0.2066514 0.770524 -1.0333589 0.4195585 -1.7070727 0.6900874 1.4601921 -0.1464863 0.87500346 -0.2512232 -0.19405162 -0.057984594 0.44201177 0.8347841 0.6403576 0.5701536 0.13580053 -0.66871965 0.28483012 -0.7909526 -0.35752922 -0.87706876 -0.12893245 0.4489855 -0.22667578 0.129731 0.6614496 1.0606961 0.07972332 -0.33840606 -0.022575485 -0.14083336 0.46038234 1.2794784 -0.11099642 -0.3041373 0.60191303 -0.65354747 0.008768526 -0.19934197 0.16960926 0.12289359 -0.22192745 0.6112573 -0.40267667 0.24167784 -0.22005408 0.5442653 -0.7080539 -0.00017080756 -0.23021337 -0.56849605 -0.73608375 0.3726626 -0.42357898
2651 0.81045866 -0.2126767 0.68928725 0.3719786 0.26938432 -1.6610818 0.3807619 -0.38356695 -1.1270825 -0.4780284 0.5880801 -0.39558125 -0.13373071 -1.6125059 0.5250456 -0.62345064 -0.56388193 0.44365352 -0.0025266 -0.62055844 -0.10186845 1.3458236 -0.06475492 0.55549526 -0.009998746 -0.13301447 -0.12862344 0.20744956 -1.3398252 0.96633357 -0.5111277 1.222098 -0.4224504 -0.6734237 -1.1382656 0.57853884 1.2479568 -0.09461137 -1.1048318 -0.07030292 0.4302286 0.3918718 0.6636876 -0.18012935 -1.0765721 -0.15140958 -0.17546284 -0.26655468 0.5049504 -0.8503818 1.2748554 -1.1907567 1.7492516 0.45449987 0.99205387 -1.9536493 1.0219083 -1.3421524 0.23936552 -0.3503667 -0.7624467 0.11405483 -0.9692425 0.20378087
1873 0.6441362 -0.3038447 0.45757553 0.2824273 -0.17446014 0.07167529 0.15733388 0.6525423 -0.5904835 -0.09838344 0.6817717 0.3002062 0.7065289 -0.09024363 0.8993589 -0.0050215214 -0.57884365 0.87670785 -0.5760123 -0.3166866 0.4134916 0.47939283 0.19911557 -0.7448682 -0.73513156 -0.1221311 -0.40855092 -0.33673087 -0.026766531 0.33917826 -0.5264538 0.1327159 -1.7920986 -0.907996 -0.7794796 0.12642886 -0.2595669 -0.5169535 -0.3759552 -0.880947 0.6089997 -0.098140895 0.4542911 1.1296521 -0.08972898 -0.12083036 0.054979198 0.42847368 -1.3766187 0.6647704 0.4705288 0.25512075 0.047760997 0.5078934 -0.16105889 0.39467835 -0.42226246 -0.4019788 -0.25317788 0.88881683 0.65380055 -0.29511625 -0.028381564 -0.3649646
2199 0.34582287 -0.22129287 -0.45249882 -0.4587312 -0.059280824 0.49513784 0.45591387 0.7471065 -0.35264727 -0.45927855 0.7150056 -0.28341195 0.358206 0.5039018 -0.112577304 1.1777781 -0.8306221 -0.34515795 -0.7351235 -0.19803655 -1.2906966 0.61283576 0.20662172 -1.7107748 -0.33378884 0.07475643 -1.7897577 -0.68412334 -0.084214196 0.40627867 0.37088183 -0.122709244 0.034964256 0.18246073 -0.2692999 0.06388045 -0.104505494 -1.2329856 -0.19895884 0.72327685 -0.10913783 -0.3577823 1.514346 -1.643656 0.48117754 1.1192372 0.8658592 -0.7364255 -0.3835869 -0.019550003 0.37401935 0.84908324 0.29560703 -0.7312774 0.6962604 0.04468346 0.3805745 -0.11164922 -0.70759344 -0.19238828 -1.2525553 0.636633 -0.9160417 0.18825723
2227 -0.84516585 -0.32437202 -0.43314052 0.5411892 -0.6967175 0.6529733 1.0432285 0.31366155 -0.5317909 -0.3972789 -0.6428504 0.549851 0.25350922 -1.0681348 1.2348446 0.75676554 -0.50237167 0.4071955 -1.2515662 0.21258314 -0.5889948 0.37943092 -0.8207978 -0.37821618 0.5303228 -1.7144191 -1.8054767 0.65972507 0.29433683 0.42061254 0.34598753 1.7826124 -0.023604626 -0.7219072 0.2004156 1.0629057 -0.63450265 -0.17897193 -0.03913949 0.06433339 1.2636079 -0.32959628 0.86466396 0.008536739 -0.456192 0.15179786 -0.48496258 0.36839268 0.534237 -0.43941706 0.053686444 -0.13975656 0.02701876 0.00488473 -0.75113577 -1.3897645 0.30040854 -0.5140504 0.5894644 0.36012942 -0.6356837 0.7313018 -0.26558897 -1.0772213
2425 1.5776508 -0.65291256 -0.8301339 0.052440275 0.12855342 0.5119628 1.8493873 0.6623201 0.012314748 -0.24009877 0.060770795 -0.30080292 -0.10408496 0.0022336766 0.84890485 1.0449839 -0.36701205 0.36185497 -1.3157808 -0.51913637 0.39515397 2.089673 -0.058797367 -0.35390565 1.157406 -0.8217758 -0.82729983 -0.06846668 -0.66381276 0.255466 -0.53847015 -0.7066448 -0.6824169 0.435165 -0.14569812 -1.1137556 0.9719744 -0.6030093 -0.5247106 0.7968179 0.026339583 -0.5880265 0.2559482 0.47956228 -0.22431263 -0.015003324 0.14785366 -0.8241842 0.16036451 -0.3889497 0.8034166 1.0295099 -0.7286746 0.6511868 0.64199466 0.10846523 1.0155582 -1.7010727 -0.9004895 0.26290393 -0.2804596 -0.34864247 0.55024153 0.96190125
1904 0.6118319 -0.7130568 0.5137018 -0.14339313 -0.108218096 0.16258511 1.2126216 -0.73632294 -0.5507528 -0.056578007 -0.52104825 -0.2752122 0.3386672 -0.35899362 0.45801523 1.631801 -1.1046845 -0.31076962 -0.2730355 -0.0008181245 0.8361035 1.8037053 0.608645 -0.095377095 0.341703 0.9408843 -0.5424134 1.1275097 0.47683942 -0.34070858 -0.023828223 -0.35976943 -0.13334066 -0.55318856 -0.9919781 -0.2471031 -0.028537605 0.11114869 0.14078975 0.60277534 1.091742 -0.7364615 0.22022168 -0.22515234 0.6564985 0.54021275 0.6654326 -0.606356 0.23687398 -0.20231245 1.2390469 0.0722264 0.45272058 0.29318917 0.18303686 0.021981908 1.1230943 -0.8025342 0.6276371 -0.7547072 0.6701153 -0.3934049 0.835984 -0.3652673
1721 0.5471073 -0.53043604 -0.020425677 0.44354042 -0.026853522 -0.7108492 0.6838906 -0.85601115 -0.8976924 -0.65801257 0.83145565 0.21821152 0.1680062 -0.72300327 0.7415098 -0.64926124 -0.554188 0.634241 -0.55551505 0.033026766 -0.5668131 1.5885354 0.81358314 0.075467594 -0.19391073 -0.0122512365 0.2592299 0.36294302 -0.6716548 0.007868356 -0.7656353 1.0125573 -0.5516556 -0.4874355 -0.12136577 0.37270728 0.5572788 0.1482602 -1.1729606 -0.24342543 -0.6763244 -0.01659931 -0.1256611 -0.24492627 -0.66528004 -0.62063736 -0.9835117 0.08882445 0.012840627 -0.1797053 0.7489044 -0.26082942 1.1492857 0.17314832 0.72321135 -0.39206642 0.32478765 -0.94643116 0.3994939 -0.09576086 -0.49281365 0.7115616 -0.6443272 -0.022502132
2466 1.2158513 -1.5659555 0.6976188 -0.62252575 -0.41756228 0.39427444 0.17142582 0.029931974 0.1178063 -1.571174 1.622935 0.21667118 -0.8317756 -1.0942951 -0.7807923 0.52192336 -1.6294554 -0.111751474 -1.240809 -0.051863674 0.38554922 1.071435 0.89031285 -0.90759265 -0.7932634 0.7264122 0.030749315 -0.11116388 -0.9098119 -0.16139661 -0.7389222 0.38824818 -0.7094784 0.12222287 -0.24897736 0.58167887 0.44164896 -0.6085176 -0.8198057 1.43141 -0.015501099 -0.16110899 0.9760526 -0.25158447 -0.51673275 -0.11392901 -0.9319702 -0.09763411 0.47088763 0.31333894 0.35000142 -0.45869228 0.37225276 -1.1471127 1.4023407 -0.46759188 0.68300354 -1.0024205 -0.2517939 -0.14843565 0.42413402 -1.2439018 -0.42726746 0.4371159
1538 -0.37324715 -0.47482395 -1.0623131 0.08211104 0.4650908 0.5545012 0.4244971 0.92720395 -0.38850316 1.3115418 0.132369 0.12956804 -0.6843721 -0.13343148 1.4093931 -0.56723845 -0.12966105 -0.14896391 -1.5722502 -0.39168796 -0.10497342 0.42629135 1.1940589 -0.15761237 -1.2165924 -0.3067134 -0.16711664 0.11127808 0.32567918 -0.052367724 -0.38141555 0.21574602 -0.65318555 0.06359102 -0.85597575 -0.8525721 0.8910338 0.44918254 -0.092502646 -0.45499486 0.60814303 -0.08190887 -0.3051762 -0.5624435 0.549066 -0.4252335 -0.22058333 0.24092779 0.9057885 0.4197077 2.0801432 -0.3970317 1.2288764 -0.3144907 0.08095653 -1.1630149 0.68122894 -0.2546605 -0.8726339 0.35002798 -0.9172296 -0.78765 0.01009224 -1.1365297
2360 -0.37479067 -0.9750618 0.2846242 0.51849705 0.5288626 -0.0015926383 0.526156 1.2195731 -0.96828026 -0.34438133 -0.8805636 -0.57626617 0.15278126 0.16479826 0.3450431 0.45577323 0.08105651 -0.5034054 -1.7276921 -0.6069548 0.43657383 0.489627 -0.18398783 -1.4366647 0.14480504 0.19778685 -0.57907045 0.02400059 -0.3896789 -0.23915611 -0.38517067 0.28697598 -0.71697396 -0.39126673 -0.8986599 1.331077 -0.50586325 -0.47318408 -0.42239285 -0.7850803 0.8561036 0.14564458 0.80633575 1.0265551 0.92031187 -0.018322375 0.17745464 -1.5386088 -0.04385353 0.84499615 -0.28892693 -0.43983626 1.8339714 0.46713695 0.18435283 -1.1055347 0.67423004 -0.025118247 -0.99292606 0.88881457 -0.1932649 -0.38732272 0.34250623 0.22086295
1828 0.5380063 -0.4942974 0.9405317 0.3551476 -0.9625842 0.94158566 1.1688466 -0.5387149 -0.023761114 -0.89223725 1.158925 -0.22490734 -1.6681696 -1.3768567 0.511307 1.7013382 -0.58344764 -0.93783325 -1.5214403 0.19022654 0.22478011 0.72883844 1.4755833 -1.114685 -0.5114127 0.33990878 0.6874746 -0.45197305 0.5516362 0.0957337 -0.49945167 -0.7800707 -1.0780565 -0.85115266 -1.1313267 0.61150813 1.3400156 0.7588457 -0.4148797 0.46219018 1.0499377 -0.6317985 0.4546722 0.03646072 1.9147975 0.24819148 -0.2612573 -0.12128022 0.72716576 -0.35488147 1.357931 0.0018360673 0.2454436 1.3117412 -0.26462832 0.39679483 1.1167903 -0.92720646 0.45291507 -0.3450904 -0.016405376 -0.018124873 0.451386 -0.6908481
1829 0.9896335 -0.871758 0.69644725 0.17490163 -0.700677 0.2617704 0.81568706 -0.19731307 -0.62806946 -0.024149787 0.17971268 -0.13430691 -0.77204406 -0.8709991 0.16367462 1.2638271 -0.8014262 -0.6232926 -0.09831817 0.20053178 0.8895598 1.1932185 0.39399227 -0.84749436 0.7677589 0.93639 0.37806097 0.3493946 1.1478271 -0.76812446 -0.0807267 -0.23824176 -0.36784235 -0.2748808 -0.7345346 0.2817653 0.6432754 0.571696 -0.81180197 0.4464699 1.0032935 -0.99972355 0.69966054 0.11430519 0.85363346 0.5249313 -0.14743744 -0.706813 -0.15121064 -0.62784123 1.0080338 0.73729503 0.7037118 0.07712476 -0.08415815 -0.23338781 1.3719091 -0.8984196 0.5337264 -0.25620103 -0.10234693 -0.031991288 -0.14671989 -0.17658332
2195 0.072663136 0.0021880758 0.3174616 -0.19477504 -0.47234812 -0.4609723 0.96278167 -0.34921718 -0.11814435 -0.035034753 0.29728648 -0.16663875 -1.2685713 -0.65256137 1.5478469 1.2069752 1.2046654 0.17297418 0.48348305 1.5343405 1.2698945 -0.1919489 -0.13049619 -1.260617 -0.65503305 -0.85968447 -1.3742337 0.55853266 -0.14864054 -0.6514749 0.7150256 0.29215676 -1.2592533 -1.1564611 -0.83748734 0.8257082 -0.6516144 1.4836844 -0.55030054 -0.7662872 0.530628 -1.1562836 0.66527843 0.3683358 0.819215 0.1862537 1.1004536 -0.25951338 -0.31961957 0.47953385 1.2239751 0.31652766 1.3810506 -0.4002749 0.14744261 -0.5459016 -0.5175734 -0.21645503 0.28404713 -1.4793344 0.27091175 -1.8431076 0.2066335 -1.2126018
1413 0.38584465 1.5776268 -0.62725645 -0.5613794 -0.20748268 -0.62909645 0.92805505 0.29096717 0.26087183 -0.48857966 0.5752537 -0.269046 -0.6119638 -0.2982757 -0.35182512 0.052082695 -1.419053 -0.20178905 -1.6173549 -0.33035833 -0.6314103 1.0258825 0.1491656 -0.10023985 -0.5385657 -1.8092464 -1.4206071 1.0393009 0.6538206 0.8168448 -0.4861329 0.36895123 -0.40634006 -0.5236175 -1.0814224 1.221917 -0.398093 0.16840993 0.2683786 -0.2280024 -0.067221634 -0.007987502 0.3827483 0.44883373 0.21219122 -0.026962837 -0.09916644 -0.5404227 -0.12900136 -0.16772951 0.50935525 -0.9867151 0.76931304 0.45689607 0.51375675 -0.0013266152 -0.4423603 -1.302443 0.76690215 0.23795174 0.5182469 0.03431834 -0.088945635 -1.127762
2328 1.0667012 0.23504029 -0.11340516 1.394718 0.23065014 0.41176364 1.0168846 0.9086308 -0.13745439 -0.30866545 0.32686067 0.6063675 0.9782628 -0.34696642 -0.1491499 1.4566174 0.27152368 0.25480443 -1.3376952 0.051441915 -1.2679348 0.705571 0.18333833 -0.05839954 0.31373188 -0.6695949 -0.6729281 -0.033805147 0.07398828 1.3414476 -1.0379591 -1.0102873 -1.1032635 -0.8934365 -1.1103903 -1.1000324 -0.21261054 -0.4459388 0.08662022 1.8312808 1.3698869 -0.48963127 1.1146796 1.182679 -0.6069788 1.2277972 -0.35535488 -0.96416324 0.664204 -0.4000673 0.681527 -2.2024627 0.59115356 -0.094917394 1.204049 0.59266114 -0.6651746 0.0286833 0.076809965 -0.018576693 -0.8262341 0.31887025 -1.1658776 0.03556855
2126 -0.42316923 -0.17099503 0.08985687 0.5368851 0.6672522 0.7531361 1.7540207 -0.17972706 -0.9157256 1.8829027 1.8621662 0.022278566 -0.40202639 -0.074163646 0.7824958 0.2996998 0.31441882 0.6587968 -1.3374733 -0.29071176 -0.50118697 -0.46428722 0.3796522 -0.41683492 -0.56565285 -0.14221568 -0.39248884 -1.5519025 0.5281798 0.16597457 -0.31764165 0.23883182 0.55913574 0.30649555 -0.1342499 0.6049377 -0.21049847 -0.79475236 -1.0161543 0.25389323 2.2579756 -0.83223796 -0.7776535 0.007402313 -0.7274186 0.45244318 -0.062379107 0.46905476 0.9951442 -0.067823924 0.7089758 0.25594816 1.2403203 -0.5872422 0.6057508 0.010288496 -0.35796222 -1.2279112 0.059327047 -0.018256351 -0.02918484 0.9553044 -1.3834192 -0.23347232
2509 0.8023876 0.29543617 -1.2526417 -0.7917187 -0.827852 -0.24728246 1.0947438 -0.32029355 -0.694308 0.34074625 0.84181106 1.3283005 -0.009345684 0.42748398 1.1689448 1.1784374 0.8716317 -0.46644038 -0.38536128 -0.14229748 -0.25096717 1.0893975 0.7450611 -0.7018901 -1.1793432 0.5371498 -1.1157787 0.50424737 -0.012877993 -0.16051936 0.29471278 0.5865293 0.10103568 -0.32412532 -0.02018268 0.6979794 -0.360457 -0.92739874 -1.4480128 -0.13648859 -0.24294002 0.59446394 0.16912074 1.4006265 0.3339184 0.21638486 -0.36182088 -0.94865775 0.14492863 0.34280333 -0.11298206 -0.44330406 -0.45797846 1.2450892 0.36976734 -0.16382265 0.28268117 0.40786242 -0.007550177 1.0897534 -0.20197101 -0.17538124 -0.9990186 0.17120944
1072 0.037399277 -0.01273137 0.84315103 0.09959094 0.64622283 -0.4970098 -0.38939214 -0.33109018 0.045243658 0.31946787 0.5024155 0.33712575 0.7163612 -0.4705085 0.78445625 1.2453895 0.35957572 0.41931066 0.34752685 -0.69853336 0.4692527 1.0735892 0.04979561 -0.20092928 0.5933861 -0.20705292 -0.76629126 0.005466846 0.49195766 -0.49880758 -0.16336437 0.07006229 -0.9451881 -1.4141583 -0.22697432 0.20898831 0.6916949 0.5652883 -0.070877366 0.9297099 0.04895353 0.46454683 0.83740354 -0.22497909 -0.000102716454 0.6168305 -0.56345755 -0.33308935 0.02701992 -0.028958058 -0.023794195 0.24081405 0.8901028 -0.106587164 0.918271 -0.40703282 -0.28357297 -0.39551294 -0.32004794 -0.9440281 0.16237922 -0.30753186 -0.0824575 0.2939561
2475 0.91340965 -0.3890306 -0.46656287 0.5517397 -0.871921 0.3477115 1.7278264 -0.70919883 0.7805728 -0.81122863 -0.5064239 -0.0025878898 -0.5972821 -1.3980745 0.2034839 0.25907445 -0.098844916 -1.3371992 -1.5325748 0.3836657 -0.3012843 0.049836338 0.024792504 -0.9482052 -0.64437175 0.7081169 -0.92048764 0.30477822 1.4937001 0.6671491 -0.2741382 -0.40046918 0.6253803 -1.1296409 -0.27452257 0.56059694 0.6414229 -1.3142202 0.09850176 -0.29129297 -0.3324365 -0.47494486 -1.0182297 0.78062594 -0.057596926 -0.49556518 0.49899969 -0.8935842 0.09228246 0.3517112 0.91887206 0.37850305 0.14467458 0.13453087 1.6122029 -0.7440893 -0.066518344 -0.7801022 0.12874466 0.17706423 -1.4079827 -0.5143809 -1.3803728 0.14267126
1038 0.50372297 0.39465195 -0.23346227 0.54153305 -0.36359745 -0.7004632 0.17041907 0.5095421 -0.061574236 -0.7956534 0.7080652 0.23960502 -0.7801537 -0.5899586 0.06581177 0.78077006 0.44412413 -0.2285627 -0.12686488 -0.08953785 0.48474917 1.206134 0.031689472 -0.20717572 -0.18257491 1.0874729 -0.42200214 0.31060323 -0.123714685 -1.0297854 0.3013467 1.0738875 -0.83694327 -0.73415905 0.49385914 -0.06399986 0.055239126 -0.27554783 0.35737935 0.34709814 0.7855369 1.1706256 0.92434555 -0.42028195 0.769704 -0.63829154 -1.0006734 -0.5764441 0.27727515 -0.31322074 0.09961107 -0.47086313 1.1872703 -0.48268571 0.82989144 -0.31262374 -0.2543214 -0.57570636 -0.12635824 -0.23350349 0.010047893 -0.60318017 -0.4604463 -0.10652125
1975 -0.24420884 -0.5421944 -0.470716 -0.05080819 -0.6574677 -0.37028974 1.3649085 0.31916603 1.186781 0.01879865 -0.2360111 -0.32649964 -0.9221901 -1.1467797 0.8596066 1.2206603 0.19516174 -0.163026 -0.18730058 0.46530786 0.39700416 0.2786321 -0.88079596 -0.83600277 -0.59120995 -1.3248152 -1.2822275 0.22154397 0.24631484 1.1160098 -1.0695862 0.15534072 0.08659639 -0.19678244 0.33142605 -0.71072906 0.56642354 0.3369007 -0.53738797 0.031268764 1.2480077 -0.2541008 -0.28203452 -0.860696 -0.35809052 -0.21209057 0.26549202 -0.98926896 -0.4191373 0.15296513 1.2106965 -0.037857614 1.1024425 -0.69669735 0.6304478 -1.5708371 0.3808167 0.33158806 -0.63567436 0.05281646 0.29688266 -0.3220636 0.13052577 0.30782038
2578 0.27439755 -0.80096555 0.28915527 1.220462 0.058330335 0.014514243 0.37414125 1.2230093 -1.5151973 -0.4799639 -0.6585318 -0.619876 0.0906494 0.03601734 0.87500423 0.15804718 -0.28893426 -0.49380496 -2.0748186 -0.8305907 0.1893162 0.7019316 -0.6250914 -0.9013156 -0.03597158 0.353912 -1.0051844 0.7623907 -0.81733286 0.04548772 0.1422687 -0.1334722 -0.7307179 -1.0854518 -1.5205716 0.19608791 -0.36701867 0.5710722 -0.3974044 -0.87991154 1.1384045 -0.0658183 0.96652824 1.3329135 0.6844987 0.5541841 -0.3033114 -1.7665329 -0.43784115 -0.42949516 -0.05199708 -0.333018 1.8070604 0.9752748 0.40895778 -1.7945815 1.2238219 -0.08147539 -0.92768717 1.2062014 0.21565643 -0.37417385 0.5186367 -0.33865216
