2707 64
1358 0.19944552 0.4830063 0.9784643 0.83001655 -0.4737046 -0.1726288 0.7726242 -0.27827203 -0.6656331 0.104789354 -0.8870167 -0.061599918 0.71483576 -0.35685655 -1.4322816 -0.12206317 0.38305125 -0.59489614 -0.09838997 0.38422117 0.22958994 -0.22162965 0.23978382 -0.5665804 -0.1323354 -0.37279248 -1.3197371 1.2002559 0.053689424 -0.5442465 -0.117313124 -0.4873312 -0.11922439 -0.88062954 -0.9276195 0.65855294 0.44625488 -0.08885599 0.04313081 -0.27993774 0.18044192 0.42127925 -0.56219923 -0.50659025 -0.15018933 -0.6324574 -0.106781654 -0.047545675 0.55517566 -0.6944844 0.47471333 0.42629272 -0.618842 0.44631982 0.61007744 0.34824738 0.20532423 -0.13839337 -0.8500084 0.8814073 -1.5391794 0.1346738 -0.4349854 0.3888277
1986 0.59129477 0.5850811 -0.2148456 -1.0870569 -0.28417197 0.5680677 -0.54127324 -0.095096685 -1.5984282 -0.82215554 0.95159155 0.76599336 0.97950387 -0.41340476 -1.3990902 -0.08961891 -0.71799636 -0.46588045 0.20264201 0.24466506 -0.7896264 0.33449924 0.6876051 -0.6876163 -0.023688277 0.3143415 -0.73581094 0.99516433 0.64241695 0.5235535 -0.4928904 0.40766838 -0.4626445 0.34097883 -0.44427976 1.5467738 -0.06674731 -0.7420017 -0.35045156 0.5971738 0.37626997 -0.28993234 -0.7778631 -1.0085573 0.8113108 -0.82649446 0.6316349 -0.61578196 -0.965212 0.60113215 0.23419268 -0.03640828 0.28342807 1.526475 0.14003015 -1.3188833 -0.45121512 -1.0904214 -0.1395841 -0.18047236 -0.17710918 0.028943233 0.048202507 0.041829154
1701 0.06691454 -0.2721123 0.36330533 -1.134642 0.5194591 0.24342066 0.62559605 -0.585753 -0.11108842 -0.6253753 1.3107376 0.9809885 2.0495296 -0.14092413 -0.76723146 0.7839995 -0.8776167 -0.10833012 1.1170324 0.71366924 -0.102718994 0.24533689 0.66132516 -0.78668743 -0.14169447 2.2343729 -1.2319757 -0.17289038 0.6365768 0.3758496 -1.0154295 0.7904622 -0.44605276 -0.29638204 -0.8488071 0.6071234 0.060373545 0.19494377 0.27562478 0.23150828 1.3301271 -0.38963836 -0.1673739 -0.19831823 0.5700327 0.50003684 0.3276031 -0.68731326 -0.4060469 0.060470928 0.4410179 -0.7429693 0.11199146 -0.120933875 0.39257488 -1.4119842 0.49324816 -0.421786 0.14990802 -0.0014757712 0.09909191 -0.5958201 -0.5865399 -1.5164671
2034 0.67776966 -0.28157797 -0.42205334 -0.3463287 -1.0340594 -0.7199891 -0.66167706 0.44272846 -0.08824851 -0.61017054 0.16661443 -0.3411784 0.51007956 -0.20728746 0.5154401 0.69886726 -1.6808178 0.20127837 -0.6239575 0.9537521 1.6384276 -0.3487707 0.61054486 -0.22615896 0.30116782 0.43154144 -1.7620044 0.017012645 0.7834985 0.07276847 -0.73300105 -0.8077989 0.14688598 -0.41745746 0.046915807 0.07024433 -0.48705673 0.8119008 -1.165632 0.47445032 0.18615912 0.47287205 -0.2626177 -0.9737231 0.6681066 1.8137375 0.5679858 0.24349299 0.05843486 -0.42634127 0.29711646 -0.3634137 0.5821552 0.6467104 0.19200914 -0.16120146 -0.12395146 0.0118283145 0.056033324 -0.4890517 -0.110438645 -0.85859984 -0.6474967 0.31426084
2249 1.3023213 0.32026076 -0.7574002 -1.5367503 -0.46145236 -1.1089176 -0.62324995 -0.15192252 -0.4192413 0.56720686 -0.2921626 -0.22463556 -0.10436714 -0.8419091 1.0414833 -0.06414575 -0.67525953 -0.41369534 0.38393167 2.133821 1.6864216 -0.8918018 -0.19604445 -0.34927902 -0.06830943 -0.5084469 -1.3185741 0.16464214 1.7558063 0.17493697 0.15361562 -0.10374733 -0.49663424 -0.1592404 -0.7534301 1.016754 0.9091792 0.5214718 -0.35997564 0.32147065 0.4913515 0.03883874 -0.23908141 -0.73362505 -0.52169824 0.87877464 0.09489065 -1.2178031 1.0760053 0.15362121 0.46989474 0.6587871 0.84701675 0.26896214 1.1392999 0.81751287 -0.2411781 0.12731586 -0.39747107 -0.48703802 -0.42910644 -0.7261526 -0.5171483 0.038915094
1765 0.14306544 0.13921094 0.8855555 1.1840937 -1.2623502 0.026360206 -0.37059608 0.46072784 -0.24072854 -0.20000868 -0.25224546 -0.26965904 0.6293592 -1.1605499 -1.1422105 0.5665133 -0.018344983 -1.035694 -1.6788964 1.0682538 0.60149217 0.28146333 0.70399773 -0.7494316 -0.093690105 0.37301895 -0.93855363 0.8961587 0.76838624 0.2601009 -0.6192696 -0.15248258 -0.66115487 -0.7166649 -1.5672718 -0.2507142 0.21791989 0.42666695 0.6612654 -0.22874372 0.54177994 -0.2424213 -1.251594 -0.4040057 1.4423121 -0.16165993 -0.3546699 -0.507524 0.18062232 -1.2140888 -0.09147755 -0.11019035 -0.72425586 1.4845284 0.12835732 0.016780734 -0.31845662 0.06544258 -1.2036872 1.0659016 -1.4689627 0.52675706 0.37987134 -0.091474906
2045 0.58046156 -0.15964049 -0.30181998 -0.33164948 -0.51735497 0.07258604 -1.1907971 -0.7526836 0.34844983 -0.18614249 1.5162601 -0.636201 1.1903629 -0.5102335 0.04251665 0.018789977 -1.0765013 -0.37069887 -0.8596675 0.59800816 -0.57235855 1.3332559 0.15782878 -0.8106405 -0.6028276 0.9511692 -1.028515 0.30069113 -0.017048532 0.6030795 -1.2687887 -0.17592104 -0.6959561 0.9348126 -0.6418119 0.45209733 0.28429013 -0.23298614 1.0127004 0.082508795 0.13065724 -0.107910484 -0.21639386 -0.11390461 -0.35305902 0.006690546 0.5167768 -0.6288664 1.0088575 -0.23774835 1.6936421 -1.229777 0.8299077 0.2760523 -0.14665416 0.17598358 0.9155776 -0.5675374 -0.7682111 -0.47916436 -0.0071161375 -0.8477668 0.14642403 -0.6679557
2451 1.1472604 0.56487066 0.83060145 0.7842011 -0.50787956 -0.9605591 -0.9575044 -1.7109562 -0.7890534 -0.2972931 0.0243065 -0.3205864 0.24676886 -1.2777818 -0.22410531 0.008370185 -0.93124235 -0.46938768 0.21229051 1.5429801 0.1620403 0.20375007 -0.25370628 0.3606236 -0.54974824 0.3624323 -0.8550883 0.6715481 0.30937994 -0.022999557 0.06477607 -0.986212 -1.2180611 -0.8975732 0.01624318 -0.4254713 -1.9289392 -0.24936332 0.90703785 -0.4979013 0.5889129 -0.3057332 -0.5135882 -0.21122535 0.33088014 -0.84709835 0.011968453 -1.0607572 0.068571426 -0.8460314 1.3373023 0.42468637 0.63663894 0.39081556 0.44562343 -0.3308768 -0.8057172 0.33944166 -0.33196837 0.46384394 -1.3729198 -0.65642136 -0.61534053 -0.08110274
2182 -0.40184295 -0.20378698 0.47955707 -0.5527082 -1.6477873 -1.0754144 -1.0081487 -0.56674665 -0.12040798 -0.95741594 0.5684942 -0.16456135 0.24059895 -0.8549637 0.6342105 -0.4654066 -0.21481834 0.28540635 -0.1438916 0.23158003 -0.8462034 -0.45976478 0.14455053 -0.86305285 0.80915004 -0.108648345 -1.0282313 -0.28588185 1.2902979 -0.14769039 -0.45729226 -0.58289564 -1.0640876 0.6908556 -1.6094786 0.07404741 1.0740794 -0.018153613 0.50919545 -0.2914187 0.50061935 1.8787416 -0.30453032 0.7824732 0.9615619 -0.6110853 -0.3701327 -0.33427027 0.2836202 0.5964971 0.3746631 -0.41269705 0.7690394 0.9413775 -0.03775937 0.5647185 -0.66623116 -0.39201105 -1.0338438 0.3825676 -0.8406493 0.5784372 -1.3734647 0.40012193
2671 0.49868453 0.44191056 -0.12853537 -1.3438643 -0.39447948 -1.2482016 -0.8534671 -0.46654657 -0.10573916 0.35670203 -0.47982037 -0.17364863 -0.08967772 -0.93363637 1.4101481 -0.22949335 -0.9571191 -0.1992203 0.6642863 1.97273 1.2714021 -0.9245363 -0.3119269 -0.9460819 0.15700205 -0.35273403 -1.6887076 0.00095594756 1.7580162 0.31624916 0.5166737 -0.0021098217 -0.14678548 -0.090651244 -0.55208176 0.9672901 0.86243176 0.9989312 0.020619746 -0.2810181 1.1308235 -0.09655317 -0.29011574 -0.88589126 -0.18790436 0.7700907 -0.14671087 -1.0143439 1.1477536 0.5232855 1.0940137 0.24082316 0.5435422 0.17942673 0.66376525 1.2933667 -0.7915323 -0.05457029 -0.6615433 -0.5552525 -0.42961672 -1.08436 -0.23328543 -0.49956486
1810 2.2809367 -1.0658606 0.7749715 -1.5768198 -1.0388398 0.37402323 -1.1565787 -0.52800876 -1.1125734 -0.8083761 0.574296 -0.50845855 0.13794658 -0.21391755 -0.48044935 -0.7830802 -0.6624443 0.62460047 -0.5311025 0.32549557 -0.16950826 0.34567133 -0.08798624 -0.8931006 -0.18190756 0.16260073 -1.8296386 -1.1615219 -0.36559108 -0.7179046 -0.73347807 0.2841493 -1.2071104 -0.2206085 0.32294214 -0.47292668 3.2140684e-05 0.30178258 -0.19517297 0.18182658 1.1092743 -0.6002554 -0.25844127 -0.5038937 -0.38319516 0.04417183 -0.40379378 -0.9229998 -1.0816334 0.106301405 -0.72814655 0.1790512 0.6077791 0.4220601 1.4608915 0.1685208 0.0075486875 -0.98147666 -1.4411402 -0.13754125 0.7721807 -0.9861289 -0.37838405 0.36099187
2492 -0.25513864 -0.31239608 1.2826793 0.72965556 -1.5655005 -0.21727288 -0.15813825 0.49032095 -0.3289826 -0.35569453 0.13259928 -0.09009587 0.5462425 -0.79725933 -1.0224277 0.7270792 -0.052381728 -0.7815605 -1.1642417 1.0235603 0.27523276 0.6760397 0.5303334 -0.90308875 0.10153678 0.3473472 -0.6328362 0.84639776 0.8869808 0.22903967 -0.36775815 -0.20069325 -0.5623053 -0.7925278 -1.1740046 -0.34455746 -0.06679179 0.19046596 0.6570863 -0.26031148 0.81421995 -0.3955949 -1.2489815 -0.61005384 1.4325651 -0.123883195 -0.21112585 -0.86032903 0.24394493 -1.4068305 -0.25291407 0.04598592 -0.82252085 0.9457037 0.2939693 0.3974852 0.28588083 0.26529378 -1.0711266 0.9274928 -1.4686345 0.53351164 0.024289923 -0.20846361
1914 0.67498684 -0.5855403 -0.17584771 0.41685858 0.7021629 -0.028950011 -0.8585747 -0.35658416 0.98767257 -0.2643435 0.5705737 -1.4558285 -0.8256077 -0.54517645 -0.81697404 0.41789636 0.47845277 -0.15023445 0.51753 0.75821835 0.83132154 -0.035755567 -0.1450481 -0.74236596 -1.2115995 0.40842113 -1.044833 0.74515325 0.8781438 1.3714702 0.3286267 0.5342833 -0.71633893 1.0202756 -0.6922579 0.5980819 0.9916292 -0.29164696 -0.319374 -1.166777 0.25606596 -0.29726642 -0.04658049 0.14085305 1.3743007 -0.37562314 1.5313439 -1.2597475 1.3713546 0.09129655 -0.6370899 0.34633815 0.5057459 0.90666455 0.4029606 -1.0348712 0.8642442 0.8586932 -0.8583498 0.11387158 -0.683337 -0.97976005 0.42616487 -0.5383636
2685 1.2424335 0.7503514 1.1394334 0.8797837 0.0071825655 -0.7138259 -0.24001919 -1.5799714 -0.7490617 -0.5280003 0.00053346175 -0.013971204 0.87037235 -1.5184218 0.3560532 0.04239908 -0.65448827 -0.483544 0.46655792 1.1439302 0.5943198 0.33872584 -0.35278997 -0.43362305 -0.4109724 0.14821075 -0.40312174 1.0685811 0.085672624 0.5556683 -0.11237208 -0.8602398 -0.85515887 -1.1263705 0.23278573 0.09667202 -1.5994277 -0.29910055 0.41005155 -0.77865326 1.0398754 0.006943695 -0.5370386 -0.5168219 0.58743805 -1.0209461 -0.2740287 -1.0041441 -0.010752709 -0.6200749 1.4808111 0.39956504 0.8244006 0.41219702 0.5898037 -0.6920398 -1.0480382 0.27388048 -0.236024 0.09963268 -0.91452163 -0.74303377 -0.51588565 0.13536559
2130 1.1613173 0.19728602 -0.37381443 -1.2201947 -0.64055496 -1.3009484 -0.8387289 0.015656512 -0.6449744 0.53106207 -0.48190445 -0.029632604 0.015154521 -0.7573215 1.1008489 -0.5878488 -0.8250199 -0.638872 0.15818955 2.1262884 1.1801118 -0.89310306 0.04878977 -0.23448338 0.11389574 -0.49002448 -1.162735 -0.12479352 1.695445 -0.2044116 -0.14066169 -0.4141334 -0.031131798 -0.66117907 -0.50824493 0.66785467 1.220438 0.8508367 -1.0434699 0.32297274 0.11271903 0.14899111 -0.64352083 -0.51816666 -0.19320378 0.8731149 0.3270323 -0.96411157 0.108329736 -0.41345352 0.54388976 0.551865 0.8493825 0.39079693 0.78634816 0.7685059 -0.5601271 0.24752277 0.1813184 -0.30287525 -0.88665247 -0.8060764 -0.39226103 0.034708813
2452 1.0054219 0.9452812 1.1279068 0.76441854 -0.3820287 -1.0946733 -0.9994792 -1.6981288 -0.76368797 -0.26089826 0.29502815 -0.3169245 0.0931206 -1.1262943 0.07158336 -0.1420445 -0.8088158 -0.3533072 0.4245969 1.6610458 0.37472358 0.1349691 -0.38707253 0.18748409 -0.8018955 0.20758432 -1.0178189 0.89184755 0.31953153 0.08161581 -0.15559508 -0.85873413 -1.0622813 -0.66384244 0.064785846 -0.44610164 -1.9772826 0.0634489 0.97145355 -0.47787336 1.0116771 -0.22445667 -0.5898275 -0.43724185 0.54832244 -1.100158 0.18815319 -0.9216374 -0.09298046 -0.9057682 1.5688909 0.44550103 0.9173202 0.5049227 0.57760525 -0.27542138 -0.7232751 0.1291281 -0.18869485 0.43770376 -1.2575028 -0.6859057 -0.66259295 -0.14338738
2292 -0.5202185 -0.61651963 0.29291415 -0.40021363 -0.9956025 -0.46017298 -0.39631134 -0.15493597 -0.38585696 -0.8826949 0.73807263 0.55767506 0.5390389 -1.3312949 0.6668999 -0.31019205 0.5929324 -0.09191461 -0.5487337 0.5292599 -1.655665 -0.5476237 -0.015266741 -1.0808141 -0.0008174039 0.012235781 -0.9511615 -0.5016717 1.1521611 0.14420821 -0.7947051 -0.71666896 -1.0859296 0.45026043 -1.6766093 0.71018314 1.6220345 -0.631612 -0.049955443 -0.3451921 0.89779276 1.5270599 -0.5534668 0.50125957 1.3965402 -0.07006032 -0.28477797 -0.8592073 0.6342483 1.2974063 0.04554439 -0.63138443 0.8073642 0.1833798 0.5636936 0.82599413 -0.22970685 -0.052883234 -0.61191654 0.47830343 -0.51785576 0.34339812 -0.698406 0.07894365
2169 0.74571484 0.9395733 1.266656 0.005565101 -0.92116404 -0.33115733 -0.39070114 -1.1363866 -0.83646065 -1.0274892 -0.5166207 1.0507019 2.0903873 -1.0094008 0.5532124 0.57550335 -0.32885858 -0.28506 -0.7370776 0.9958625 -0.47560567 -0.7850295 1.018382 0.09904444 0.5281107 -0.04241108 -0.8474252 -0.5104145 -0.4763551 -0.0169531 -0.44042736 -1.3791711 -0.68368846 0.3061795 -0.15222082 -0.36233798 -0.5157573 -0.24679494 -0.51454663 -0.14271359 0.61555654 0.90648496 0.02147854 -0.2975696 -0.38205484 -0.47753632 0.83789474 -0.63658965 0.16530812 -0.27527 0.9908922 -0.040729035 -0.56435233 0.58846295 0.623775 0.18664224 -0.026417797 -0.015010906 0.6103483 0.4464668 -0.7884551 -0.97078556 -1.0636202 -0.21997376
1623 1.8092812 -0.44358218 -0.17024001 -0.17102443 -0.3420019 0.38708782 -0.4924089 0.06577782 -0.4963666 0.47152025 0.018022636 -0.7815487 -0.037846528 0.15670626 0.8161324 0.2299163 0.033607557 0.37240398 -0.4018625 0.9025823 0.084985375 0.3314309 -0.37392467 0.28061622 -0.81298107 0.8174172 -1.874309 0.9908947 -0.7908265 0.9531395 -1.1035388 -0.6767472 0.84224963 1.3380139 -0.7756813 -1.5437603 1.4856517 -0.07270482 0.41198653 0.14604086 0.95048 0.23283719 -0.12099781 -1.2496283 -0.11766491 -0.32101703 0.23782767 -1.2809284 -0.098426335 -1.1444863 0.36512303 -0.5911042 0.37254128 -0.1729756 0.31083933 -0.3683537 0.61504436 -0.83227026 -0.61462176 -0.94114846 -0.6533825 -0.44066808 -0.9904721 0.4704118
2168 0.7744212 0.9153212 1.3110588 -0.055498328 -1.2145418 -0.8979377 -0.30472496 -1.5206928 -0.57589334 -0.72352964 -0.47336403 0.7529998 1.5378436 -0.85887116 0.42687142 0.7502618 -0.47267222 0.04796788 -0.45861664 0.7213516 -0.5607071 -0.677984 1.1576145 -0.09414012 0.7219537 0.06518086 -0.85409695 -0.21426234 -0.58431417 -0.22303087 -0.3796977 -1.9372991 -0.67040104 0.45669782 -0.28177515 -0.54422694 -0.13294218 -0.24059239 -0.13258673 -0.26218513 1.1805774 1.097751 -0.17820446 -0.30475557 -0.72334254 -0.33861014 0.78936625 -0.6182725 0.19308072 -0.16869715 1.2092068 0.18840596 -0.83898014 0.9211088 0.8005556 0.019284364 0.20547667 -0.44303632 0.35774988 0.4866708 -0.9184777 -1.270257 -1.1284429 0.017222395
2291 -0.43384033 -0.47825024 0.39127532 -0.18487254 -0.46284732 -1.0350405 -0.43502966 0.21685272 -0.20845298 -0.37817174 0.16858383 0.48441532 0.6849169 -1.7708997 0.3449945 -0.2134449 0.052698813 -0.20100406 -0.49050838 0.49592325 -1.5692006 -0.5822271 -0.43225896 -0.86869586 -0.18915112 -0.36309582 -1.53618 -0.2925196 1.015366 0.35301667 -0.29458117 -0.6871497 -1.0229294 0.24545535 -1.1125083 0.053861123 1.7998184 -0.7098586 -0.20041254 -0.12885524 1.2667446 1.4975821 -0.57495296 0.5612037 1.8452712 0.17567505 -0.6678585 -1.3292874 -0.07942457 1.2110254 0.14024727 -0.8241561 0.70160747 -0.045021903 0.65625423 0.92169684 -1.1875914 0.2782768 -0.37572926 0.21466921 -0.44691622 -0.055193793 -0.352059 0.7922049
1950 0.2590826 -1.3357927 0.6354624 -0.6348161 -0.40189573 -0.034637902 -1.2664651 -0.37976244 -0.69555587 0.0096384445 1.2243075 0.6677035 1.0766292 -0.02566832 -1.1032627 0.7291799 0.0100249 0.20902447 -0.9036879 1.5070584 0.15852472 -0.3695786 0.70997196 -1.4814641 0.70902306 0.24564613 -0.6049577 -0.71587914 0.10236239 -0.123591356 0.34612823 0.61990005 -1.501738 1.0139865 0.17385896 0.14303246 -0.14334571 0.2732293 0.23719968 0.3056733 1.1590446 0.085778534 1.2447325 -0.79722 -0.14299454 -0.23975857 0.08672417 -0.05262484 -0.30273482 -0.43570095 -0.8091201 0.66489273 1.0797284 0.27064922 0.25334692 0.55739564 1.2610554 0.3971686 0.17697309 -0.052507214 -0.09451916 0.2913726 -1.3769248 -0.2064838
1902 0.92541486 -1.1657217 1.500938 -0.23757134 0.19404317 -0.593883 -0.009040561 -1.1069756 0.88564026 -0.71649426 -0.8795216 0.6246585 0.7857864 -0.39574814 0.87804735 0.4590013 -0.5207601 0.08274426 -1.7089309 1.3320711 -0.22288582 0.1363026 -0.1895607 -0.8348323 -0.29383534 -0.34423274 -0.42031425 -0.10437173 1.724772 0.12244819 0.07394064 0.08885315 -0.5917184 -0.6006522 -0.84116995 0.42359698 0.11545181 -0.6323182 -0.5256064 0.37463084 -0.4627021 0.6654915 0.23968627 0.23048784 1.0301692 -0.80887 -0.27390155 -1.6682262 0.6339555 0.958196 -0.8145252 0.78734064 0.8092822 0.19398735 0.5863105 1.0484825 0.31420496 -0.25576693 -0.82739866 -0.36557293 -1.1558883 -0.3046401 -0.2522281 -0.7061808
2450 -0.29675028 1.4120162 0.6427286 -0.20015603 -1.1238877 -0.47716254 0.07469053 0.33235762 -0.20195657 -0.28944275 0.23741059 0.07061341 1.6200852 -1.1917865 -0.19443792 0.18197313 0.2117213 -0.8151898 0.15790991 0.75392956 -0.12294707 0.80841213 0.7867037 -1.0826787 0.67285085 -0.30088097 -1.5439771 0.46069828 -0.7026224 0.6211876 -0.20041455 -0.21567406 -0.03783309 -0.5788878 -0.51911885 0.15878601 0.5828598 0.02007337 0.24903862 -0.38023046 0.4947065 0.5519907 -0.5003626 -0.35208902 -0.2452397 0.35656038 0.37704927 -0.0005675775 0.10804445 0.64156324 -0.25539023 -0.0015140314 0.17759927 0.40160608 0.6857947 0.4078083 0.32157215 -0.2544292 -1.2571901 -0.65714884 -0.8727487 -0.6680898 -0.67201656 0.8815537
2248 1.1858561 -0.21311073 -0.6287679 -0.6233473 -0.43707758 -1.0635048 -0.23231998 0.051243357 -0.045082547 0.64572597 -0.22023205 -0.14875755 -0.051116426 -1.0945545 0.8735069 0.6286154 -0.07363092 -0.1404105 0.46338576 2.0645702 1.4200586 -0.9830591 -0.28520477 -0.47298563 0.36256924 -0.26817712 -1.3850704 0.28992352 1.9816797 0.42884955 0.036395375 0.12671842 -0.96046937 0.06557036 -0.7741489 1.1844773 1.5865519 0.38539058 -0.15523516 0.22631654 1.2391073 -0.0473762 0.15525506 -0.91865075 -0.18757568 0.32969853 -0.2979213 -1.2736356 1.4163051 0.70583206 0.18522635 0.29650107 0.35939437 0.29348534 0.6332552 0.64100987 -0.1143035 -0.058395132 -0.24100177 -0.012167838 0.22791281 -1.14733 -0.54664695 -0.47080383
2123 1.1985625 -0.07596347 0.06696371 -1.0558807 -0.6201116 -0.6198625 -0.09184932 0.520875 -1.3977596 -0.08429544 0.53785163 -0.021371778 0.29676747 -0.93914735 0.60890853 0.8195449 -0.7050192 -1.118066 -0.80526084 0.8973697 0.97047645 0.015862321 0.65895605 0.1934896 0.49384883 0.6071771 0.076945186 0.09019497 0.650134 0.7451469 -1.3264376 -0.7856216 -0.08076418 -0.60858846 -0.8084302 0.7130827 1.1973803 -0.5345674 -1.2848012 0.26067904 1.0776068 -0.7213456 -1.2792565 0.0062873 1.5833304 0.4981263 0.57129484 -1.256884 0.93500423 0.02578521 0.21757317 -0.50185704 -0.54474765 1.4941895 0.6699158 -0.046250485 -0.47994915 -0.89989907 -0.13870856 0.1143743 -0.54948676 -0.19103862 0.37096772 -0.098093264
2518 0.8906939 0.49238646 -0.49720564 -1.3254403 -0.7262354 -1.0031428 -0.7672158 0.30509397 -0.47242284 0.052470814 -0.39071605 -0.52801865 0.0015245358 -1.0682377 1.0643831 0.03399611 -0.475608 -0.5383884 0.11271673 2.08951 1.1476066 -0.84362334 -0.22390401 -0.47477153 -0.00042737406 -0.69183314 -1.2665194 0.37566215 1.940213 0.31192574 -0.16334784 0.02337339 -0.68186194 -0.039507367 -0.87412447 0.96779937 0.88021094 0.47751293 -0.22071911 0.52380854 0.8355578 0.26737285 -0.04711418 -0.6648485 -1.1229395 0.80558944 -0.27270845 -1.3186171 1.0075327 -0.33112532 0.4431889 0.28540897 0.5355871 0.4538751 0.43440777 0.7064587 -0.08894014 0.083225735 -0.4177335 -0.3987731 -0.0038553765 -0.5844984 -0.74285084 -0.13525257
2380 1.1905437 -0.03589464 -0.11611142 -0.91407263 -0.62336975 -0.74184126 0.06643531 -0.1008322 -1.4495691 -0.11101796 0.63358015 0.28619978 0.6952945 -0.9853916 0.7165049 0.8404503 -0.374913 -0.9816891 -1.0007797 0.75952005 0.86552924 0.077850275 0.43395787 0.3763285 0.27299762 0.46776134 0.078774914 0.24449517 0.9704633 0.89473104 -0.8635446 -0.670041 -0.01934522 -0.6658895 -1.1033591 0.64205766 1.2560215 -0.56087065 -1.1350496 0.20893948 0.9672017 -0.7048466 -1.1380271 0.12581365 1.5170692 0.5326696 0.55490774 -0.8411634 0.7551994 0.2824557 0.47830755 -0.0879548 -0.29311693 1.2134587 0.4242923 -0.13460477 -0.2155035 -0.54802036 -0.105532944 0.25956523 -0.5140485 -0.3634212 0.5442638 -0.13200615
2270 0.91001207 -0.6162839 0.7125891 -0.012469317 0.44716713 -0.80858505 0.5900125 -0.88757825 0.87325084 -1.0551512 -1.257998 0.42771307 0.860405 0.038654897 0.17673114 0.58602977 -0.74160177 0.4910862 -1.5435526 1.3080769 -0.5169368 0.5223603 1.16882 -1.1679755 -0.2688907 0.9205446 -0.7991541 0.438283 1.3314302 -1.1232324 -1.2427188 -0.2832643 -0.44515854 0.9362432 -0.89057016 0.84834576 0.12675954 -0.45556763 -0.2657794 1.2308122 -0.58174026 0.68218714 -0.58396727 -0.03580066 0.41939312 -0.12146504 0.8857143 -2.2172177 0.3260321 0.04472281 -0.12088803 0.58496445 0.64174974 0.8546184 -0.03318925 -0.040452328 0.019450504 -0.33872557 0.21687257 0.1251776 -0.70511425 -0.57810485 0.21494342 0.32922152
2359 0.5508208 -0.44802877 1.8182856 0.007927683 -0.24506652 -1.1381125 0.5493434 0.4892263 -0.64022297 0.010357191 -0.029930748 -0.39194742 -0.021600092 -0.008046775 -0.32513204 -0.3897116 0.074858025 -0.45683676 0.078596234 1.6326795 1.0250679 0.6720517 -0.26341966 -1.8397573 -1.3688673 0.27195254 -1.5221847 1.0663477 0.05465333 0.39344695 -0.024454666 -0.7912222 0.592959 0.06738587 0.17837618 -0.25938404 -1.0351337 0.0031952034 -0.8903646 -0.42001677 1.3451246 -0.51761883 -0.8354932 0.2731839 1.2061071 0.565863 0.7303795 -0.50181645 -0.29699993 -0.21788889 0.26777562 -0.16779783 0.40117562 0.97244173 1.351964 -0.5094387 0.69082826 0.61192393 0.10884574 1.0614772 1.2916343 -0.88400733 -0.7347606 0.21528278
2048 0.25585294 -0.080537654 0.028596515 -0.16523612 -1.0496916 -0.11060122 -1.0358744 -0.8485854 -0.11898715 -0.26867113 1.1194768 -0.54049677 0.98976725 -0.14677241 0.044329453 0.34647214 -0.8249118 -0.13049269 -0.37017712 0.5628409 -0.7689096 1.4147657 0.01628859 -0.58596694 -0.4989236 0.83674675 -0.9784038 0.4434627 0.100299545 0.5593172 -0.8927846 -0.54146177 -0.8577475 0.9763872 -0.5674608 0.34915775 0.6202503 -0.15916781 0.8847108 -0.15054542 0.24492228 0.00037908807 -0.3322536 -0.3842475 0.042094268 -0.03286948 0.5398688 -1.0262402 1.0531965 -0.56692237 1.3302374 -0.81852686 0.5194007 0.099264346 -0.54038733 0.371004 0.8978328 -0.307462 -0.62777877 -0.1091998 -0.49599022 -0.4651785 -0.5060044 -0.50209945
2538 0.6103822 0.24588256 -0.03463628 -1.3567084 -0.4163783 -1.1073089 -0.47147095 0.027212929 -0.7806969 0.0844178 -0.27747765 -0.45250046 0.03543272 -1.0472243 0.9086626 0.10811059 -0.39794058 -0.29750082 0.010025528 1.9360102 1.0563457 -0.55193657 -0.37410402 -0.47501203 0.0522049 -0.60340494 -1.5279354 0.17150287 1.5038201 0.5708098 0.05929227 0.13633436 -0.14422484 0.06707676 -1.1281894 1.2380911 0.92127085 0.055119533 -0.73212826 0.41724965 0.65607333 0.10395649 -0.32199073 -0.76989675 -0.9227129 0.8911213 -0.4296849 -1.0705706 0.7024602 0.39224193 0.34868288 0.42785236 0.65292525 0.3682071 0.3969311 0.65951425 -0.2191633 0.5619763 -0.6399013 -0.15287475 0.25882742 -0.5345627 -0.6060362 -0.11939242
2176 -0.11536392 0.7075428 0.59374535 0.1008836 -0.32495114 -0.022037188 -1.6411533 -0.07844613 -0.6226368 -0.3625109 0.010657777 -0.33717972 0.47749114 -1.310379 -0.65885836 -0.47670493 0.07136535 -1.0160193 -1.0220199 0.6700997 0.1763462 0.16554905 0.10711141 -0.6273432 -0.9198869 -0.21088198 -0.53705573 1.8270892 0.08016947 1.2868949 -0.12418359 -0.8736857 -0.46198857 0.16564336 -0.66662776 -1.3712113 -1.2038549 0.0882924 0.2861144 0.23592716 0.3682064 1.0964272 -0.13238096 -0.18275851 0.85394675 -0.3277269 0.55188954 -0.74156946 0.5722534 -1.0745213 0.16515525 -0.4239403 0.43723455 0.14520726 0.5058689 1.087424 0.21250851 0.8645325 0.02691713 0.5482283 -0.6696842 0.19021653 -0.51625943 0.1114722
1441 0.21687427 -1.1140844 0.47921547 -0.52198654 0.40985718 -0.40505517 -0.9079701 0.4604817 -0.20899647 -2.0342484 0.5847612 0.8335244 1.6284133 -0.39874345 -0.7891048 -0.75645477 0.082480766 0.39612967 -1.3387167 1.8533684 0.10369296 -0.086520195 0.744172 -0.7684373 -0.70570254 -0.6333832 -0.3660444 -0.011937821 -0.22098681 0.5123033 -0.31446442 0.79489756 -0.09640955 0.59064823 -0.055034198 -1.0084167 -0.3015671 -1.465281 0.88830763 1.0057677 -0.27986446 1.0216328 -0.7188972 -1.0219367 0.5148111 -0.16793826 0.03670621 -1.3223764 -0.41764003 -0.26747555 -0.58800036 0.66630965 0.3660559 0.31562185 -0.26031464 0.38751698 0.5374794 1.0327375 0.5394362 0.6137296 -0.84992 -0.23204757 0.08085367 -0.14616297
2133 -0.0057094474 0.031117553 0.8815285 -0.37829283 -1.5477039 -0.98251814 -1.0156293 -0.9100259 -0.18219365 -0.8534909 0.71392566 -0.14691152 0.091024786 -0.6979941 0.5061045 -0.5761909 -0.18094783 0.22885115 -0.16716288 -0.0990789 -0.80216646 -0.2923685 -0.012087241 -0.9716109 0.15099208 -0.10616939 -1.4728311 -0.23405431 1.1278868 0.10593933 -0.66656995 -0.9403472 -1.1083646 0.7116773 -1.3832532 -0.13489828 1.2493246 -0.24985261 0.6521386 -0.08306078 0.79725856 1.5967546 -0.14731345 0.4234623 0.7910323 -0.5553936 -0.40543613 -0.48344573 -0.073275454 0.499589 0.36343938 -0.0654402 1.0737253 0.9558593 -0.18239169 0.32062566 -0.7050636 -0.6437986 -0.7573131 0.92506444 -0.33041623 0.54642886 -1.4207308 1.0517795
2367 -0.25084162 -1.224159 -1.3932776 -1.864368 -0.77189946 -0.603196 0.10375677 -0.6352534 -0.46113348 -0.33266914 0.0994123 0.24988149 -0.5115961 -0.05346957 0.2739099 0.59049046 -0.3221548 -1.0568047 -0.3745708 1.8797868 -0.25185987 -0.58530295 0.72217256 -0.513587 -0.48094806 -0.25998583 -1.6914947 -1.1914452 -0.10370019 0.8207811 -0.7095827 -0.23258536 -0.64574176 1.4056295 -1.4850743 -0.46699747 -0.6105845 -0.13471813 -0.12449642 1.0617137 0.578689 0.67390823 -0.7304349 -0.30916637 0.29314393 0.28701606 0.26026008 -0.2954313 0.83788604 0.4411868 -0.061561756 0.08918804 -0.40979064 0.5833523 0.6974981 -0.34205908 1.239533 0.1965523 -0.015295646 1.9869686 -0.9419434 -0.48335594 -0.20057854 -0.7914256
2025 -0.7654356 -0.04407817 0.0628514 -0.9841889 -0.059685126 0.44418165 -0.93685615 -0.92144096 -0.514432 -0.41231793 0.8597489 -0.023160057 0.65316445 -0.9763647 0.16841188 0.27052486 -0.08644188 -0.8919729 -0.016334383 0.04830269 -1.1970631 1.3032017 0.0652579 -1.1012375 -0.13721804 0.53975505 0.25439468 1.1345748 -0.4192149 -0.3411231 -0.32038257 -1.2476206 -0.32244834 0.83227307 -0.85697144 1.4068252 0.30770242 -0.38962665 0.37775648 0.0080497945 0.68620145 -0.48153612 -0.14794493 0.02910951 0.07014234 0.78500825 0.4635003 -1.4879462 0.36270657 -0.17664103 -0.2221553 -0.6642381 1.1474378 1.4453295 0.856391 -0.65939426 0.39528435 0.04344669 -0.5908677 -0.12997939 -0.6879722 -0.51115614 -0.22901215 -0.2728581
2375 0.6500358 -0.6003588 0.8518767 0.04352596 0.52544236 -0.54202646 0.68572706 -0.82738435 0.7613178 -0.87920594 -1.064097 0.05326202 0.11992553 -0.03989802 -0.19238542 0.22771345 -0.7459336 0.57387656 -1.427348 1.3312745 -0.37273338 0.5731409 0.5372424 -1.3385426 -0.33504558 0.6909476 -1.2247012 0.34889987 0.9333225 -0.7454263 -1.1148031 -0.0031640693 0.01065579 0.95398635 -0.595831 0.5693702 -0.0051547457 -0.4339978 -0.45946848 1.0587584 -0.17974621 0.3613727 -0.33330682 -0.08502708 0.4234028 -0.19262315 0.48306492 -1.9990337 0.28858206 0.019987717 -0.12551348 0.31618586 0.41489762 0.93668073 -0.1429111 0.014811511 -0.47209543 -0.54651374 0.04719765 -0.0033518514 -0.5272227 -0.3554034 0.45306808 0.38884026
2434 -0.3008076 1.0256475 0.4307898 -0.5106894 0.11384415 -0.5402324 -1.1558763 -1.0954561 0.563315 0.16667473 0.83411556 0.03553139 0.037124142 -1.5641576 0.22477345 0.13590407 0.079285726 0.32014638 0.6026765 0.6442327 -0.8782433 -1.6704712 0.4758019 -0.5339437 0.00512007 -0.15845431 -0.7988567 -0.2302905 0.8537637 0.18186745 -0.22226396 -0.29072696 -0.54035985 0.7638426 -0.61140066 -1.1040616 -0.932665 -0.5259368 0.120262414 -0.64410025 1.5015893 0.63914853 -0.28094506 0.26622733 0.7726715 -0.610263 -0.23449028 0.20131429 0.60889673 -0.2245867 0.17655566 0.98064256 0.78465456 -0.08781173 0.88528496 -0.3046545 0.018614776 0.39142802 -0.19787702 -0.22889236 -1.4514477 0.3311809 -0.7265332 -0.59341544
2155 -0.51629204 -0.38124812 -0.41366696 -0.67490256 0.9471225 -0.15441594 -0.2881376 -1.6686811 -0.52483743 0.36526075 0.7172131 0.00923765 -0.5625587 -0.514929 -0.38689604 0.07084905 -0.3332467 -0.57866967 -0.57428026 0.11405794 0.34436724 0.16528092 -0.359812 -0.96209115 -0.98126644 0.2699786 -1.5932243 -0.6869346 0.83796763 0.1204181 -0.39468396 -0.6507853 0.24572775 0.6208781 -0.96154344 0.16290373 0.5217553 -0.056369092 -0.6310936 -0.42291895 0.9465505 0.6806767 -0.24805406 -0.8615883 1.601462 0.3756144 0.55073655 -0.72777444 -0.15377271 -0.57305866 -0.2234444 -0.06747381 -0.13864204 0.0864124 -0.33364442 -0.1841045 -1.7218417 -0.33357638 -0.11302087 -1.6350015 -0.8587045 0.94321346 -0.25805315 0.20074715
1903 0.6690291 -0.81564844 1.5473385 0.24381164 -0.23301686 -0.41032803 0.40109727 -1.3666931 0.7764049 -1.2295691 -1.2577354 0.599814 0.9022582 -0.49627504 0.92989427 0.71000886 -0.53535527 -0.3842886 -1.8880463 1.4755937 -0.18229756 0.5061443 0.39337215 -0.55952895 -0.032794356 -0.26414052 -0.66482025 0.3327764 1.4068224 0.18841916 0.110242344 -0.23743717 -0.39892212 -0.5003262 -0.734023 0.27223638 -0.5050193 0.1065582 -0.38275972 0.87725824 -0.3156948 0.5733637 0.69240975 0.13169935 1.0353056 -0.72452796 -0.08296267 -1.7181362 0.30049455 0.69272655 -1.1653832 0.39744696 0.2642069 0.60168576 0.67068255 0.9038975 0.572638 -0.29816538 -0.3528813 -0.5182588 -0.7442091 -0.76364285 -0.083956875 -0.38705504
2309 0.5367119 -0.37662458 0.1568341 0.07820459 0.021303663 0.6477297 -0.038208902 -0.72838116 -0.0014592084 -0.2856983 0.075162016 0.7898958 0.21662857 -0.32923877 -0.4298214 0.26119396 -0.20082258 0.46520934 -0.31173688 1.3752816 0.06047497 -0.68134 0.26828247 -0.8225866 -0.3023614 0.04111072 -0.85071677 -0.29859644 0.6104414 0.05136611 -0.09002809 0.7441616 0.55105644 -0.3273992 -0.33616382 0.14943276 -0.46057686 0.048801996 -1.4504359 -0.32576755 0.18978477 -0.54209495 -0.3245844 -0.16719729 0.5594638 -0.16360185 0.6816098 -0.08902074 -0.28375393 -0.25797883 -0.17567162 -0.7414294 1.1585637 0.4460954 0.91918385 -0.035120383 0.14368844 -0.046591513 0.47754973 -0.6931221 0.22039379 -1.0825266 -0.7368507 -0.20382847
2118 0.70458406 0.19373143 -0.6953601 -0.2748227 -0.9440617 -1.7273011 -1.037066 -0.16284864 -0.2110841 0.37887722 -0.056276724 -0.39638183 0.99670565 -0.21328141 0.21973585 0.69578075 -0.79321706 -0.48014876 0.7139827 1.207807 0.9157753 -0.5231632 0.6732628 -1.019265 -0.20952725 0.94727784 -0.73892695 0.4429906 0.64512026 -0.40040192 -0.1904197 -0.4809791 -0.21913277 0.4341868 0.22759946 0.15048099 -0.6343695 0.5466859 -0.6298752 -0.46775678 0.9593958 1.0800502 -0.87642854 0.30828238 0.40227878 0.4450044 0.35365477 -0.17285915 -0.44694027 0.2380546 0.54378676 0.44423118 0.5499234 0.4077487 -0.26279762 -0.8761951 -0.3403632 0.12582788 -1.0673289 -0.11180672 -0.27482787 -0.1976665 -0.7312329 -0.6355428
2372 0.51547813 -0.29021472 1.6305408 -0.23143876 -0.4481532 -0.93464583 0.47359204 0.25087097 -0.2644159 -0.4866845 0.17050329 -0.6055718 -0.13250129 0.081356004 -0.45616704 -0.30890495 -0.1029482 -0.38882837 0.04157108 1.6285836 0.8236099 0.38137335 -0.2246414 -1.3961593 -1.1637616 0.16713396 -1.5100042 0.81171906 0.06804347 0.55602336 -0.096196204 -0.3034251 0.4332129 0.3864921 0.022438612 -0.13956986 -0.99658287 -0.116789214 -0.7427391 -0.17226106 1.2097168 -0.42126527 -0.2357668 0.062224697 0.823412 0.40644234 0.7887408 -0.6158617 0.18426682 -0.52965826 -0.012575967 -0.1516543 0.15431625 0.8737473 1.1320012 -0.36930004 0.561011 0.5047419 0.03502384 0.76957005 0.90010345 -0.6958645 -0.4071846 0.2493084
2464 1.5936601 0.41707036 -0.13679914 -1.1333407 0.08409421 -0.31288218 -1.1255238 0.005705327 0.8148933 -0.34777725 -0.15154144 0.4680852 -1.1416727 -1.6031009 1.1785227 -0.18744723 0.6861369 -0.2781302 0.07968142 0.87206346 0.68917674 -1.5906289 0.32456407 -0.35438406 -0.65437764 0.46422037 -0.49442273 0.571057 1.0276886 -0.4379763 -0.8442456 -0.68427765 -0.39753717 -0.12906866 -0.65083987 -0.4994903 -0.6272762 -0.15674831 0.46763432 0.3565691 1.2143712 -0.041614514 -0.69846994 0.56646943 0.36737332 -0.8992274 -0.1516928 0.15743221 0.11704716 -0.50928026 -0.23473325 -0.6461349 2.0273561 0.7064608 0.3427008 -0.16821274 0.10501353 0.25535285 -0.08760453 -1.1939117 -0.56095487 0.6375779 -1.1084527 0.19444212
2216 0.91315705 0.26511025 -0.2605597 0.26673836 -0.11134326 -0.7467238 -0.17737843 -1.2775571 0.28972462 -0.7109524 -0.45444962 0.54344904 0.3459611 -0.8677801 -0.8873666 0.629418 0.18664782 -0.6493736 0.041261215 0.8938178 2.5043154 -1.025131 0.7396591 -1.1809392 -0.034563858 -0.4528039 -0.7502636 0.2094785 0.054557994 0.4131295 -0.47411475 0.36209062 -0.29291716 0.09364138 0.4975777 0.35808438 -0.3558605 0.011611665 -0.9378284 0.35599825 0.6335647 -0.22564048 -0.5177322 -1.030231 -0.42557666 0.1348305 -0.08468949 0.1461037 0.27427968 0.3918904 -0.3800217 1.2405764 -0.119264305 0.554224 -0.058782376 -0.3596368 0.32627365 -0.28198555 -0.7323858 -0.028838515 -0.6664914 -0.6499458 0.4107471 -0.48163733
1894 0.82558596 -0.5769479 -1.0219287 -0.05914032 -1.2414557 -1.9299955 -0.7769189 0.26044452 -0.21700105 0.09714496 -0.12962906 -0.3444494 0.99233186 -0.090104036 0.14958552 0.6537801 -1.016254 -0.5490928 0.28325865 1.4080062 1.0864304 -0.52778256 0.68351865 -0.7969531 -0.19925646 0.9214459 -0.49647492 0.675195 0.8312729 -0.7211614 -0.3528458 -0.9757092 -0.14626808 0.47147888 0.1446015 0.056258034 -0.68592 0.40844092 -0.9087206 -0.24169712 0.7023166 1.1643623 -0.9222568 -0.033125598 0.75891614 1.0463136 0.5894375 0.30713493 -0.5946476 0.081021175 0.07874998 0.28730065 0.21407524 0.16908824 -0.2579781 -0.9625467 -0.8391954 -0.053461436 -0.6329321 -0.081579514 -0.22848745 -0.14646628 -0.42169854 -0.4500228
2238 0.06254024 0.7869495 -0.14883655 -0.23694853 -0.33237836 -0.40156987 -1.4862661 -0.7724486 0.50634176 -0.114088915 0.354075 0.92792785 0.7979607 -1.6873039 0.04255938 0.07574861 1.0021993 -0.3449799 -0.36562422 0.24215357 -0.44610286 -1.6819462 0.4875118 -1.0474532 -0.33986947 -0.13293652 -0.2681412 -0.26322496 1.0180155 0.3725383 -0.5983758 -0.55435586 -0.62314296 0.03818205 -0.47474375 -1.1508256 -0.9289637 -1.0122802 0.6812633 -0.40586105 1.1282187 0.30840474 -1.07829 0.51689154 1.2053378 -0.36574468 -0.30567217 -0.44098887 0.2762489 -0.41935694 0.38775444 0.58203214 1.0345441 -0.15900382 0.73735565 0.38186386 0.15973282 0.37916178 -0.5503404 0.42355388 -1.9056426 0.20286041 -1.0074602 0.28013808
2394 0.638722 -0.33716816 0.3992154 0.21541874 -0.9916312 -0.28175732 0.9706689 -1.5168543 -0.63691 -0.34864274 -0.15302818 0.12131918 -0.30869707 -1.9714926 0.8179377 0.35080868 0.9659886 -0.5841502 0.51762164 1.1223109 0.532582 -0.0062937555 0.57705986 -0.87666374 -0.9960143 -0.4523313 -0.94005156 0.17804098 1.0284278 0.14304234 0.28137085 0.5361159 -0.24278153 -0.16507356 -0.8821126 -0.49938595 -0.399075 -0.30235505 -0.2976249 -0.40470114 0.20475934 0.91187525 0.19334422 -0.46342716 -0.3903268 -0.6734914 0.055981938 0.3879874 0.28386986 1.0104175 0.5604433 -1.5246087 1.7220743 -0.5821426 0.69231266 0.055827502 0.73078334 0.62669015 -1.0166913 -0.17150289 0.076026656 -0.53256714 -0.96415144 0.57009625
1960 0.93509614 -0.71115005 1.4813445 0.55218136 0.06096149 -0.49672213 0.11813727 -1.1902944 0.7002413 -1.0517331 -0.63091034 0.62511754 0.9068576 -0.7800308 0.7394431 0.84763086 -0.43597323 -0.27322516 -1.8009996 1.185504 0.16958897 -0.030417033 0.31884181 -0.4519655 0.07067224 -0.009145813 -0.36531582 0.07803815 1.6061466 0.20218205 -0.12753631 -0.07291333 -0.7143776 -0.9184482 -0.9623068 0.4749597 0.17129427 -0.07118475 -0.4067987 0.24055542 -0.40287632 0.38968873 0.60700977 0.30592346 1.2697108 -0.74575967 -0.18047638 -1.7924429 0.6029354 0.9982218 -0.99109215 0.161214 0.5318441 0.44331023 0.7714977 0.9190656 0.10561388 -0.29401252 -0.65722734 -0.44288698 -0.9778763 -0.3600943 -0.1835794 -0.9343173
2383 0.72988874 -0.6494054 0.57836723 0.03190422 -0.3652512 -0.14455521 -0.39821973 0.03790725 0.4499935 -1.5395458 0.7531044 0.8254127 0.4404547 -0.8666318 0.7475455 0.88027185 -0.1339111 0.18174502 -0.2694088 0.32935914 0.90425557 -0.30292565 0.7166987 -0.6419101 0.66986436 0.5328708 -0.05162909 0.05299006 0.03784075 -0.42287996 -1.1614238 -1.0450369 -0.6957858 -0.24509698 0.21660753 0.5401027 0.38386947 0.39289224 0.23666906 -0.4235188 -0.1804787 -1.0114968 -1.0538948 -1.1236738 -0.10415339 -1.0396596 0.10800138 0.03158059 -0.07290326 0.26846835 0.5597462 -0.09962006 0.35717514 0.115386054 0.37697166 0.7938198 0.41448835 0.49056014 -0.3010413 0.3114341 -0.9189867 -0.24239938 -0.7543319 0.22053699
2071 -0.70753056 -0.10325449 0.03374804 -0.47947958 -0.62623656 0.7083122 -0.12076158 -0.18157811 -0.0508017 -0.44692463 0.5010202 0.4107766 0.20332304 -1.6175119 -0.023469945 0.57225466 0.06908992 -0.0754472 -0.47754183 0.49670267 0.36910257 -0.5638947 -0.27798477 -0.7250424 -0.20114936 0.62980086 -0.74978405 0.35052752 0.2298534 -0.21818253 -0.38216728 -0.75496525 -0.61852545 -0.0059277588 -0.040437408 0.82946044 0.45819286 0.2316672 -1.0313345 -1.1120864 0.3680984 -1.0539975 -1.3898044 0.34515232 0.35019985 0.21202347 0.35020444 -1.3912286 0.31358936 0.2633583 -0.13989829 -0.10884533 -0.083599776 -0.114271425 0.3779034 0.518156 -1.0086609 0.52313703 -0.7459687 0.19714336 -0.6356866 0.78321964 0.6312552 0.03349612
1740 0.83761394 0.47765854 1.1335429 0.7260643 -0.37886235 -0.9084033 -0.54453826 -1.1653808 -0.23869589 -0.57585 0.045353863 -0.46418735 -0.08150939 -0.7914527 -0.31670317 0.24886256 -0.41624528 -0.45856917 0.05930192 1.4189174 0.71014726 0.8180255 -0.29559413 0.2480925 -0.56690395 0.2864028 -0.4739331 0.71870106 0.60808474 -0.5726283 0.06273217 -0.48097777 -0.8326959 -0.9149621 -0.37742245 0.028152274 -1.2480401 -0.1262873 1.0744991 -0.26081055 -0.091017194 0.040751163 -0.40811867 -0.39948538 -0.1589129 -0.78671956 0.24234988 -0.8825867 -0.09726681 -0.71130586 1.1917101 0.24293923 0.7997245 0.3475313 0.38679543 -0.055835918 -0.451351 0.3897995 -0.96689445 0.32556388 -1.4679395 -0.80899906 -0.19652767 0.1038455
1542 1.0136424 -1.4330236 -0.062288225 -0.19725275 0.5235979 -0.44752792 0.39814645 -0.6027524 -1.0161597 -0.2941935 0.44588733 0.33343276 -0.46771735 -0.8778286 -0.7858265 1.0612255 -0.76091653 -0.71410877 -0.8517386 0.485689 0.7069552 0.51262605 0.5989162 -0.04490812 0.02622579 0.46134838 0.071740285 0.17052013 0.10898518 -0.39053813 -1.7375667 -0.14919642 -0.2912382 -0.96290976 -0.37104258 0.20151484 0.6009922 -0.5654504 -1.080815 0.20213321 -0.13463469 0.18301103 -0.9350129 -0.7094948 0.40044525 -0.86597234 0.3315939 0.33635464 0.3949544 0.88699895 -0.042345606 -1.099732 0.78038055 -0.041562885 -0.04229291 -0.107067056 0.7423664 -0.15408729 -0.43036878 -1.5607901 -0.68013626 -0.46003407 -0.72347933 -0.78431505
2122 1.1309857 -0.22142838 0.59737533 -0.9970399 -0.83285964 -0.6206691 -0.37658533 0.5606251 -1.2962683 -0.122615166 0.43627915 -0.33420557 0.03146643 -0.29399997 0.73850024 0.6712198 -0.75497836 -0.7944058 -1.1347983 1.041878 1.141878 -0.005742997 0.315645 0.41335586 0.4311688 0.5326792 -0.22324784 0.23900667 0.9648585 0.35637164 -0.5204107 -0.85823077 0.17733425 -0.51888126 -0.78968173 0.23595187 1.2024995 0.19576456 -1.250096 0.2565848 0.9111611 -0.43252528 -1.0574614 -0.019295912 1.7554834 0.5047313 0.9392032 -0.68345106 0.74329144 0.14862646 0.1652835 -0.52912015 -0.536434 1.0563489 0.7702733 0.074305505 0.15353423 -0.37817547 0.28528276 0.19192544 -0.6700012 0.037665024 0.29643676 0.13363588
2491 0.7050742 -0.43039158 1.5564536 0.39471564 -0.23061222 -0.37426564 0.30059883 -0.9214576 0.55284166 -0.82486427 -0.025706092 0.49410874 0.84056115 -0.7510235 0.81581867 0.5296613 -0.1880836 -0.15588023 -0.9561993 0.8889085 -0.0031900178 0.10971504 0.37381914 -1.0696434 0.050470207 0.029814899 -0.33612478 -0.067668475 1.6320612 0.2102456 -0.057243343 0.11421461 -0.73899215 -0.84315306 -0.5943146 0.6302113 0.3796493 0.09569212 -0.50582093 0.05905495 -0.28032643 0.7809019 0.7306577 -0.009115046 0.8308724 -0.72306675 -0.1586094 -1.4473368 0.55250794 0.7769698 -0.82330453 0.31592304 0.87412757 0.3066997 0.89750725 0.8501151 0.3791519 -0.26274803 -0.78853637 -0.38167122 -0.5001036 -0.19996534 -0.5650362 -0.3410537
2269 1.0067335 -1.001987 1.1615196 -0.44637847 0.18822336 -0.38621557 0.47583872 -0.7341541 0.89946413 -1.2796841 -1.2885776 0.27970415 0.9198489 0.074951954 0.21702394 0.28010634 -0.5684107 0.537699 -1.582624 1.3535323 -0.680552 0.6099732 0.80242383 -1.0688034 -0.30892769 0.6526702 -0.6400707 0.34231246 1.2833221 -0.5794675 -1.0442917 -0.19913116 -0.4616121 0.6208919 -0.7046561 0.43776384 -0.12953311 -0.49237058 -0.27762982 1.4194903 -0.3916631 0.48771617 -0.4630244 0.22679907 0.6634638 -0.44970503 0.46406916 -2.033946 0.34958756 -0.045506354 -0.3167988 0.5802012 0.46314308 0.9196382 -0.08912483 0.14940062 -0.10952907 -0.2167113 0.09694611 0.24644159 -0.7948349 -0.7259643 0.45196885 0.38377985
1927 0.7604458 -0.8084141 -0.4487063 0.638341 -0.44088072 -0.67773473 0.16962095 -0.89223117 0.17133194 0.17630354 -1.2400966 0.33403876 -0.06027151 0.04029464 -0.2406915 0.71397793 -0.35926884 -0.68593323 -1.1943882 1.7925599 1.4581344 -0.72705525 1.3073595 -0.41929257 -0.23036867 0.59163684 -0.32568714 -0.3406222 0.91718227 -0.8396975 0.41295934 -0.8853921 0.39256608 0.7798227 -0.41708088 0.13373792 -0.13444561 -0.02418628 -1.2292677 0.20299189 0.20997448 0.13813925 -0.23881184 -0.018451938 0.13953179 0.85728264 1.4814131 -0.99521834 0.22367099 1.1610658 -0.90874845 -0.37449175 0.85995096 0.13534057 0.502115 -0.7932547 -0.00017130749 -0.62612545 0.13793522 0.03044527 -1.1353627 -0.34399438 -1.1580247 -0.453399
2503 -0.12608692 0.82685584 0.57328814 0.80849934 -0.26937 -0.14943704 -0.66981685 -0.79271585 -0.2655429 -0.20615414 -0.55910325 0.34856233 0.74380004 -0.6341821 -1.0045459 -0.40557417 0.28133035 -0.22235465 -0.697516 0.5538634 1.0787183 -0.0903431 -0.2993944 -0.64779156 0.6470793 -0.9174973 -1.476955 0.5322895 0.021758325 0.19933212 -0.44092944 0.3090634 0.064629875 -0.3739303 -0.5107084 -0.40714476 0.85743463 0.09368946 0.6233592 0.27913213 0.754204 0.21292023 0.5982054 -0.76853 -0.20824012 0.0402198 1.0894234 -0.91024035 0.4141685 -0.57457805 -0.27361518 0.3389697 0.53933597 0.7673868 -0.25762174 -0.2527944 -0.093063846 -1.0760591 0.061004475 0.25872284 -1.1504514 -0.61698294 -0.3718802 0.070483394
2175 -0.38890457 0.9866553 0.5541962 0.21748102 -0.26825577 -0.14398329 -1.3921952 0.0134287905 -0.66110945 -0.4345426 0.24508426 -0.65154517 0.16818452 -1.2709576 -1.1690183 -0.49275097 0.0028119422 -1.3326854 -1.028593 0.5994342 -0.040939208 0.56616855 -0.123510554 -0.8052556 -0.73338085 -0.35035127 -0.7680005 1.6946833 0.21746641 1.1581033 -0.15835463 -0.6257355 -0.58905846 -0.041083146 -1.280822 -1.041126 -1.0169525 -0.20504446 0.40702578 0.3100994 0.4102298 1.0922283 0.15001874 -0.061678957 1.1286601 -0.33894745 0.4109852 -0.9254243 0.74170667 -1.186195 0.024686798 -0.30638131 0.25108048 0.39823243 0.48059627 1.0104812 0.033059347 0.5757504 -0.32548752 0.19397055 -0.8899392 0.25767368 -0.39012143 0.08916626
1692 -0.026817523 -0.1266422 -0.13905792 -0.21099302 -1.2271228 -0.9949917 0.43165618 -1.1918693 0.3994798 0.9663854 0.20635507 1.0364228 0.50870335 -0.80628914 -0.076766826 0.0822897 -0.0052399384 -0.7008993 0.007618324 1.2486349 0.730339 0.029165708 0.2014628 0.020213282 -1.0234625 -0.91482955 0.50455964 1.6291463 0.40436035 1.5781703 0.15379046 -0.57023287 -1.1900978 0.6665179 -0.8939394 -1.267398 0.43298304 0.65280616 -0.4341772 0.8857679 0.8722016 -0.16701134 0.37059036 -0.31330997 1.1015518 0.4565331 1.3813906 -0.63109124 0.27999702 -0.46206316 -1.2013505 -0.6729436 0.8228946 0.3265522 -0.40723526 0.397549 0.046299286 -0.4589671 -0.30177656 0.47744283 -0.33212647 -0.26798773 -0.39659995 -0.10940478
2385 -0.44879544 -0.28934023 0.6528217 -0.89673674 -0.35598692 -0.18236355 0.30026552 -0.17643079 -1.2638704 -0.64394706 0.8322716 -0.6479284 -0.83142686 -1.1664692 0.9993788 1.2836978 -0.18946852 -0.020725803 0.7691952 0.75810724 -0.32436922 -0.44530803 0.29330397 -0.5887964 0.2054851 -0.14091308 -1.3709767 0.20379445 0.2459078 0.2543307 -0.22398913 -0.19223598 -0.07550355 -0.31369755 -0.5016706 0.17461671 -0.056417413 -0.09504235 -0.834836 -0.41201538 0.6172679 1.2109625 -1.1032474 -0.012420116 0.417792 0.42666405 -0.18801855 0.2594263 0.057170972 0.8173347 0.4639633 0.11427203 -0.18579 -0.018420476 0.7309903 -0.45262972 0.08967592 0.72603965 -1.1501368 0.43485144 0.1631822 -0.1759474 -0.56350017 -0.16831946
2399 0.040837113 0.58279145 0.4127661 -0.110757895 -0.30285814 -0.7299349 -0.82385623 -0.6599775 0.84688956 -0.3932646 0.30913514 0.47648755 0.3071003 -1.5097462 0.3749669 0.44304776 0.52511686 0.36744186 0.22729267 0.651754 -1.1227962 -1.189118 0.4284512 -0.72798437 -0.23460771 -0.010698049 -0.7964721 0.07867396 0.7615681 -0.13020016 -0.56697214 -0.7239701 -1.0806869 -0.1484581 -0.52594227 -1.2088915 -0.78188324 -1.0099612 0.6247766 -0.5259272 1.5024457 0.6393756 -0.9970716 0.80974 1.3976574 -0.72616976 0.02372236 -0.010220206 -0.036173947 -0.54289997 0.15626563 0.66182554 0.98263794 -0.08612574 1.0155008 -0.0448302 -0.19861029 0.31497505 -0.4755953 -0.16855912 -1.2856166 0.27041003 -1.1812564 -0.13512486
2160 0.26167998 0.44764662 1.123839 0.3988675 0.43171477 -0.38728428 -0.34946233 -0.7430185 -0.24659583 1.0075344 0.53776765 -0.90184563 -0.42922905 -1.4024534 -0.55898875 -0.3956311 -0.9672299 -0.19606753 0.047107883 0.637647 0.619268 0.50536126 0.24404596 -0.44581243 -0.6213661 -0.4906125 -1.6835529 1.0543679 -0.3969879 0.48090985 -0.9616892 -0.6852985 0.36969995 0.610475 -1.1825829 -0.7811596 -0.62750745 0.54997337 0.009552345 0.0051832898 1.585489 -1.0510868 -0.022182276 -2.0195377 0.94097996 -0.5056799 1.0973444 -0.8274677 0.42135876 0.7648814 -0.011604934 0.72114694 0.48036042 -0.93492055 0.8422175 0.7007513 0.071589425 -0.1859298 0.1942769 -0.24628551 -0.44422072 -0.2633719 0.32082352 -0.31998894
2675 0.7396411 0.43601 -0.19282727 -0.76341325 -0.32675287 -0.6731592 -0.7134144 -0.5615062 -0.0034139466 0.34662247 -0.09336737 -0.3555254 0.056024816 -1.1871778 1.1755538 -0.059635334 -0.6806661 0.025624992 0.48926097 1.5847921 1.1907619 -0.70350915 0.008402709 -1.0506572 -0.31255376 -0.40616682 -1.4171441 -0.078245126 1.5472579 0.6998263 0.48836753 0.24188073 0.12291645 0.2643358 -0.5328283 -0.086751424 1.1764787 1.0423875 -0.4219853 0.26918256 0.6964618 0.30709788 -0.16840614 -0.6536452 -0.17430975 0.47159916 -0.44543865 -0.6967107 0.6130067 0.8332393 0.33816412 0.48870525 0.60150295 0.30323496 0.43539125 0.9771433 -0.21233988 -0.3776447 -0.8157204 -0.23816362 -0.015560804 -0.47373548 -0.47289506 -0.17043468
2161 0.28857166 0.28912506 0.92553383 0.0045446428 0.18826811 -0.4409544 -0.3342015 -0.99783987 -0.2748518 1.1242603 0.53344434 -0.6595962 -0.59778666 -1.1187229 -0.3710975 -0.30323398 -0.94078684 0.05458028 0.2730957 0.9460982 0.69986945 0.23232011 0.039840985 -0.3029022 -0.33218685 -0.34525603 -1.5088464 0.9161269 -0.21887602 0.55943996 -0.37203562 -0.52532387 0.02103752 0.81734246 -1.0155828 -0.7065108 -0.63547015 0.89891595 0.11969307 -0.2691832 1.5795363 -1.2430634 0.0015446456 -1.7360728 0.46770006 -0.48781487 0.89844686 -0.8195182 0.5036977 0.46550447 0.114451796 0.57597154 0.31672084 -0.71972847 0.5261637 0.50369245 0.014356119 -0.24506016 0.2314836 0.0075885397 -0.50212777 -0.25047323 0.32902753 -0.3627299
1776 0.42305118 0.03105988 0.6460465 -0.09679085 -0.113395594 -0.37273398 -1.038026 -0.4020107 -0.0764486 -0.31503734 0.7753539 -0.7820893 -0.22320394 -0.49333164 0.18516932 -0.6113347 -0.8587348 0.24214835 -0.28362998 0.4345603 -0.63978076 1.2934567 -0.31871924 -0.2934417 -0.8560487 0.36867306 -1.7463211 1.322501 0.13826326 0.4070632 -0.5566067 -0.5180973 -0.46172097 -0.031560674 -0.30075976 -1.324473 0.26678446 -0.49323004 0.66140956 -0.033046093 0.90648293 0.3970265 0.29317772 -1.0560395 -0.13637678 -0.49463186 0.083419204 -0.78048056 0.08397132 -0.9456355 0.21616372 -0.71812785 -0.3160918 0.086524285 0.08413297 0.50025064 1.8822441 -0.32306957 -0.63638145 0.4536304 -1.0275775 -0.91768825 -0.22933823 -1.2223818
1761 -0.28133032 0.48746404 0.55127347 0.1438565 -0.34980407 -0.13194264 -0.7013326 -0.034036756 -0.6806827 -0.6093751 -0.3464383 -0.609387 -0.11605027 -1.0641109 -1.1943644 -0.4388328 0.118010156 -1.1380943 -1.3069193 0.3969012 0.15525845 0.8147621 0.03470294 -1.1277046 -0.7434935 -0.28937066 -0.8776625 1.8444713 0.08831088 0.98688555 0.14174385 -0.51580054 -0.4834516 -0.26320827 -1.0959994 -0.6551911 -0.97463053 -0.5072966 0.22225171 0.20826314 0.36756277 1.1421324 -0.22291762 0.34212267 0.65308464 -0.15680306 0.32033825 -0.77695334 0.69282955 -0.80342394 -0.05007956 -0.13123725 0.09826128 0.4256247 0.31199571 0.9427269 0.0655753 0.5617552 -0.5696766 0.34502468 -0.5031586 0.37218595 -0.2825294 0.387599
1973 -0.44420427 -0.5007252 0.8083372 -0.016572962 0.63362277 -0.12038208 -0.06555723 -0.28623676 0.15340425 -1.2119763 -0.1004162 -0.1679012 -0.529467 -1.1343324 -0.17787068 0.055737153 0.37497824 -0.34672666 -0.4636082 0.048546184 -0.1904241 -0.18342541 -0.62260646 -1.4829397 -0.33889288 -0.5347349 -2.0896528 0.81599617 0.07574071 0.9475366 0.11617373 0.0057256734 -0.24842274 2.294925 -0.4151115 0.18436772 0.12337164 -0.7556989 -0.5539204 -0.024360428 0.17637913 1.0769141 0.8042621 -0.72356915 0.5240702 0.1278614 0.7271324 -1.0247356 0.29173458 0.19299227 -0.09158168 0.7116417 0.2166368 0.23261738 0.665459 0.1551245 -0.009874353 0.9584943 -0.036256444 0.8640731 0.17745346 -0.5625681 -0.88911366 0.78929
2596 0.2065249 -0.55605006 0.52012604 0.78475904 -0.37633914 0.22701386 -0.4701698 -0.5420132 0.08371767 0.024755294 -0.5671411 0.08350285 -1.0340319 -0.8106592 -1.4443014 0.1519488 0.5280491 -0.12737086 -1.6117159 0.8026955 1.005327 -0.01811551 -0.5509146 -0.85345715 -0.20003688 0.49704468 -0.9325596 0.87556905 0.1331548 -0.19353738 -0.28114188 -0.7603132 -0.20598999 -0.42075875 -0.9994105 -0.5519366 0.04409452 -0.8140756 0.22150567 -0.58345294 0.18450865 -0.8339801 -0.10614419 0.32402667 0.6978106 -0.048524242 0.24730606 0.094320506 0.4118121 -0.3267781 -0.4238454 0.2565481 0.8563565 0.5596124 -0.07838875 0.2065893 0.09312426 -0.48380154 -0.64968216 0.21580692 -0.49552482 -0.40674764 -0.5422717 -0.3955879
2306 0.2630872 -0.71521914 1.3064153 0.19518739 -0.4008652 0.37135294 -0.40835053 -1.1053264 -0.032676656 -0.5112154 -0.22288613 0.5167055 0.54163647 -0.08404398 0.14566214 -0.1055303 -0.2679766 0.42974865 -1.1092194 -0.15075645 0.20072648 -0.28655708 -0.42271903 -1.195456 0.39259183 -0.62346613 -1.474579 0.13963482 0.40860096 0.57448184 -0.6486802 -0.90970695 -0.13579446 1.4863803 -0.25743058 -0.4646018 1.0784271 0.20338212 -0.82610637 -0.317982 0.718888 -0.08552333 0.42257744 -0.48589012 0.6976317 -0.47917986 0.046199303 -0.7602971 -0.14596742 1.6216542 -0.3349556 -1.1885189 0.7222978 0.5465623 0.66845745 0.9185948 0.14972316 -0.39113295 -1.2095968 1.0924336 -0.4798259 0.06977991 0.019911839 -0.3965654
2117 0.5727042 0.05877795 -1.0714842 -0.17586319 -0.81089455 -1.5950122 -0.85979664 -0.20721027 -0.6886417 0.18135875 0.17183727 -0.3435529 1.2460604 -0.0045563206 0.2367847 0.58609474 -0.957833 -0.36929828 0.6711474 1.3604699 0.7216637 -0.28091928 0.75602376 -0.8209321 -0.42889658 1.0846174 -0.42604 0.22782664 0.5216757 -0.2830462 -0.14734875 -0.4734259 -0.43159384 0.38552487 0.22636724 -0.012376353 -0.80786866 0.6122368 -0.45242697 -0.5493612 1.1095017 1.0896231 -0.8554427 0.5047082 0.5710286 0.4158137 0.6608442 -0.25264585 -0.3703866 0.07447498 0.7278686 0.43793428 0.55765396 0.1416834 -0.25451237 -1.0224563 -0.010537884 -0.09289277 -0.7809162 0.2879008 -0.38400468 -0.12809104 -0.7595416 -0.8935727
973 -0.14172123 0.59352285 0.04090526 -0.84900576 0.41347712 1.1264073 0.05311155 -1.8164889 -0.21341926 -0.8585339 0.39640367 -0.072339885 0.048359722 -0.9887197 -0.075496845 0.018692499 0.045576837 -0.64977753 -0.8414741 0.29103014 -0.13719545 0.9153119 -0.45678452 -0.74688935 -1.3066299 -0.3208096 -0.50281894 0.84336305 0.7751937 -0.6419161 0.3196173 -0.83142823 0.21442941 0.294746 -1.1211851 1.1214734 -0.2118743 0.04096452 0.7376975 0.40375602 0.14050527 -0.64647955 -0.77035975 0.079272225 0.12056394 0.9198383 0.5763181 -1.7602506 -0.10713082 0.08199084 -0.37115332 -0.0045855334 0.8846282 0.93404126 0.07511813 0.37711203 -0.82126445 -0.059650995 -1.5188777 -0.56237584 -0.38469794 0.7372673 0.09490146 0.6303737
2465 1.3438997 0.62284935 0.06319364 -0.7591264 -0.2163482 -0.61558795 -0.85384333 -0.11707673 0.7085772 -0.33803743 0.15966664 0.18488161 -1.0815966 -1.2414542 0.90351 -0.054739583 0.2494668 -0.27137938 0.25601727 0.9646536 0.6878277 -1.1697783 0.30063868 -0.49492434 -0.5618218 0.26473695 -0.64206284 0.3797155 0.95448864 -0.18527022 -0.5842786 -0.4765447 -0.44531307 -0.2034199 -0.02713712 -0.35917413 -0.6725626 -0.014211368 0.67704016 0.20622604 1.0050429 0.21171257 -0.28390253 0.17487635 0.4905915 -0.8815606 0.155001 0.04671899 0.3129704 -0.34423503 0.34694454 -0.45365524 1.9055915 0.7956803 0.40473387 0.11236219 0.2749562 -0.52331585 -0.20206313 -0.62670714 -0.44103494 0.201103 -0.91418016 0.37468573
1971 0.019468883 0.11241445 0.27500883 -0.21203293 0.43849665 -0.68201846 -1.0395018 -0.69986796 0.24999669 -0.30977628 -0.75614107 0.14424446 -0.10367522 -1.0089172 0.620336 0.3271067 -0.71460956 0.10882974 -0.48940602 0.19587997 0.569747 -1.3085469 -0.23383829 -0.75047666 -0.13049284 0.35930726 -0.7093253 0.4700173 0.69540936 -0.54139227 -0.51635873 -0.4589739 -0.6129658 -0.11232777 0.38983858 0.32641366 -0.9800064 0.14965385 -0.66809225 -0.17549996 0.6254815 -0.13428599 -1.2864704 -0.1634019 0.36173868 -0.05797161 0.07877229 -1.0228437 -0.77014893 0.099811494 0.52867144 0.012783114 0.645471 0.22114162 0.54647 0.039553083 -1.272891 1.1322992 -0.40497273 -0.5720423 -1.3012507 0.3426446 -0.7352001 0.0046712225
1966 0.0074040517 0.23670764 0.3062904 -0.39410767 0.67829025 -0.8500372 -1.0677485 -0.49961343 0.29748884 -0.3025173 -0.80995333 0.34850374 -0.13446786 -0.9759035 0.7641011 0.106885456 -0.58797354 0.057604827 -0.6098302 0.045542136 0.7280509 -1.5505581 -0.16923967 -1.0429573 -0.33508512 0.4471367 -0.83154976 0.7674417 0.61846125 -0.7938977 -0.7461303 -0.29298416 -0.46000808 0.13322295 0.4150444 0.3975558 -0.93026036 0.2626626 -0.8195134 0.10196049 0.51520276 -0.16970885 -1.2115028 -0.31142262 0.20165965 0.23009844 0.35814157 -0.9908361 -0.9395232 0.093878776 0.3801442 -0.03913687 0.661235 0.26919174 0.84109706 -0.07872389 -1.247152 1.2001108 -0.61107874 -0.8880587 -1.2694287 0.34383705 -0.7682499 0.1779208
2539 0.95702964 0.07922861 -0.04342383 -1.5775937 -0.78485376 -0.2989316 -1.097039 -0.26727498 -0.33607182 0.021955756 0.8577977 0.038035426 0.64767057 -0.62749165 -0.32883087 -1.0700763 -0.8732379 -0.71186155 0.26774126 1.8606641 -0.3573016 -0.052479457 0.35679534 -0.39853954 -1.1528757 -0.59866124 -0.6074792 0.11410279 0.3836222 0.56842995 -0.1129762 -0.5115244 0.1823831 0.93220687 -0.6390699 -1.6398177 -0.011805097 -0.23657879 0.48806742 0.33020693 0.38004303 -0.042781744 -1.5038674 0.15549402 0.4574041 -1.1457528 1.0441087 0.50591445 -0.8431293 0.3379916 1.49633 -0.4943906 1.2923987 0.14120914 -0.37307596 -0.49478763 0.24389255 0.66681916 -0.57285756 1.1295966 -1.647601 -0.1650247 -0.34631723 -0.5044871
2519 1.1322871 -0.2398155 -0.14389583 -0.6304749 -0.58041877 -0.18735957 -1.4381343 -1.2115136 -1.215942 -0.17704715 0.00695775 -0.3319075 0.5892899 -0.5360399 0.46337834 0.39759746 -1.0267838 -0.43427724 -0.01901231 0.43792206 0.99456877 -0.29953393 0.6297237 0.34267363 -0.16265425 0.09709877 -0.38252345 0.699345 0.11561412 0.15023881 -0.012122275 -0.5934813 0.020491853 0.36651245 -0.11793291 -0.44382215 -0.20359546 0.5163242 -0.16753997 -0.5590899 0.10671805 0.37100706 -0.76799643 -0.22281814 0.22610745 -0.400287 0.32177362 -0.031968776 -0.6031027 0.26791495 1.0062382 -0.104686014 0.26388758 1.0612954 0.12331423 -1.7482136 -0.14596747 -0.06981576 0.035000112 1.0438265 -1.3410536 -0.57030296 0.015714573 -0.6723789
2335 0.23051587 -0.37488428 0.10758258 -0.16206641 -1.3691684 0.18007141 -0.9910237 -0.33027002 -0.7206577 -0.56485105 -0.021588512 0.114860855 0.93153167 -2.7189915 0.5197622 1.1377326 -0.24153885 0.37761068 0.39489543 0.38498747 -0.48973402 0.27758333 0.68067074 -0.38784435 0.046122946 -1.3275698 -0.74114966 1.0486763 0.29869556 0.9284483 -0.51068836 -0.5741765 0.065351635 -0.3534199 -0.4510256 -0.34583998 -0.47943345 -0.63037145 -0.64487326 0.28183332 1.6922615 -0.3252372 -0.96868056 -0.27241176 0.5119114 -0.14238049 0.12458673 0.6040642 -0.4015956 -0.41505602 0.54545003 0.82826227 -0.6815104 0.2196629 -0.3510748 -0.66893286 0.49538797 0.08224127 -0.6213274 -0.27623197 -0.7626561 -0.22671354 0.2986441 -0.1962272
2083 0.48818684 0.9029069 0.84207827 -0.14944611 -0.89637846 -0.1875173 -0.4175257 -1.3311495 -0.3475076 -1.1052467 -0.332435 0.88189524 1.092736 -1.1388766 0.5418969 0.6004706 -0.320929 -0.050484203 -0.49466863 0.42645895 -0.42802155 -0.4821661 0.9679962 -0.19295579 0.974724 0.3369215 -1.2646085 0.06003958 -0.9485269 -0.4457742 -0.680936 -1.7314452 -0.914796 0.25557506 0.19525182 -0.5268879 -0.60784346 0.049783647 0.12770365 -0.32500467 0.71856636 0.8117268 -0.07788513 -0.52038497 -0.6176278 -0.31834987 0.7468974 -0.7030242 0.30595416 -0.34178713 0.5819183 -0.21166529 -0.7771327 0.57044756 0.5477095 0.28363705 0.4402055 0.13181564 0.31151557 -0.06563202 -0.97053516 -0.6724731 -1.5289084 -0.4745311
2198 0.10242139 -0.17998153 0.4049297 -0.19841018 -0.60156614 -0.5108965 -0.82771313 -0.739861 0.16978237 -0.5440728 -0.11047072 -0.55605084 -0.055518266 -0.419811 0.22960581 -0.6269843 -0.2161876 0.23445165 -0.04977382 0.26517704 -0.24919681 -0.23336937 0.0628346 -0.82963705 -0.08387162 0.067483276 -0.720582 -0.2979245 0.48988885 -0.03370601 -0.55811244 -0.45638168 -0.51764446 0.73360515 -0.8976126 0.2798873 0.91194314 0.005084597 0.19053105 0.6732768 0.6185531 1.6471922 0.4689672 0.51955163 0.46379715 -0.21162441 -0.30135864 -0.5363278 0.5203932 0.7633829 0.03633107 0.4881673 1.1477742 0.81918555 -0.34487626 0.06975657 -0.4626158 -0.5655399 -0.44831604 0.31416923 -0.15862203 0.1650656 -1.1584728 0.6902497
2240 -0.046995386 0.9262382 0.32302752 0.043238424 -0.3161982 -0.911973 -1.0978297 -0.8874322 0.8806064 -0.07664777 0.67124957 0.72586876 0.1683401 -1.4711871 0.40887585 0.32295096 0.3356594 -0.07008928 0.40237704 0.6776068 -0.75007254 -1.3852179 0.44998366 -0.97233486 -0.21781716 -0.13858868 -0.86836034 0.22054657 0.92403215 -0.022912951 -0.5100493 -0.7825458 -0.8074106 -0.20441261 -0.616268 -1.2286143 -0.9055727 -0.6871692 0.7007407 -0.6148943 1.508244 0.28688905 -0.9969193 0.48422092 1.418896 -0.65229523 -0.45191368 -0.031177316 -0.15726396 -0.35629764 -0.10166391 0.6167134 0.78833 -0.10312137 1.0222896 0.45601165 -0.08939496 0.22258523 -0.54430366 -0.11226634 -1.205893 0.4504821 -0.99370414 -0.2447728
2163 0.5157973 -0.02429043 0.36744067 -0.39469177 -0.6808811 -0.67161936 -0.25211626 -0.8833946 -0.31483945 -1.0042552 -0.5923449 0.26777765 -0.16802794 -0.96259916 -0.15261129 0.12067833 -0.87343436 -0.5035253 -0.57002985 0.53841877 0.69579345 -0.47337732 0.04736365 0.26951802 -0.20569055 -1.0258616 -0.92764276 -1.0426732 0.46013582 0.6951389 0.8105289 0.046616912 0.05574747 -0.7220767 -0.5351015 -0.37608576 -0.45326883 -1.1407335 -0.028893055 0.011690818 0.022092827 -0.058300834 -0.68877697 0.31303978 0.4098879 -0.34410977 0.061510786 -0.49790904 0.26242682 1.1003983 0.0151321385 -0.47974536 -0.2898866 0.3860471 0.47031048 -0.25100404 -0.2963629 -0.19647898 -0.30227664 0.55953544 -0.5914354 -0.11490275 -0.7810863 -0.28890195
2446 0.1235132 0.018789878 1.6872715 1.0524974 -1.0839636 -0.9149694 -0.7803549 -0.53707683 0.46928513 0.48677954 -0.651322 -0.45742458 1.0900401 -0.47687447 -0.80085325 0.14961559 0.19115798 -1.1652346 -0.3338112 0.91512764 1.1393445 0.5845864 0.13288343 -1.0793567 0.16385196 0.022148428 -0.3258372 0.66266626 0.02717403 -0.46352857 -0.19328158 -0.598926 -0.64326125 -0.40375048 -0.33950782 -0.23265369 -0.19122207 -0.3278785 0.6155395 0.18163154 0.39643854 0.3668976 -0.5093903 0.15184261 -0.5368841 -0.6662011 1.5482807 -0.5496563 -0.46955103 -0.55420953 -0.70061475 0.036860548 -0.178757 0.4875703 0.424822 -0.29250532 0.38821724 0.39607763 -0.50009793 0.6312585 -0.80405116 -0.89603764 -0.5258603 0.11910345
2336 0.48293632 -0.3635679 0.097472936 -0.12754291 -1.1965808 0.026404845 -0.93158776 -0.7038643 -0.53192765 -0.40692633 -0.16229665 0.23932654 1.1055586 -2.4830034 0.49300286 1.4650017 -0.12956807 0.5599862 0.32842213 0.3842359 -0.41975796 0.32822588 0.727837 -0.44564652 -0.041377302 -1.1046903 -0.559203 1.2693759 0.048376683 0.98563135 -0.31220818 -0.6507711 -0.1393076 -0.040263925 -0.50333875 -0.40079957 -0.20101656 -0.31703883 -1.0267335 0.31757933 1.7091439 -0.007724113 -0.72882694 -0.20783694 0.4916208 -0.10725094 0.5228347 0.65907115 -0.4011817 -0.5796823 0.48692533 0.8091168 -0.68317723 0.28522363 -0.48055658 -0.9969717 0.42367417 0.1375471 -0.5370224 -0.54455763 -0.8066669 -0.8257632 0.043299567 0.028607363
2242 1.1587874 0.29069516 0.06431835 -1.3101704 -0.35192716 0.052221067 -0.9866589 -0.06990663 -0.3543481 -0.17627542 0.47146913 0.14575571 1.0320805 -0.93180424 -0.31215227 -1.0965971 -0.884622 -0.48745638 -0.53461653 2.032637 -0.21330158 -0.27124512 0.42024833 -0.19033833 -0.9904585 -0.34644008 -0.7892981 0.11878908 0.22359037 0.4583954 -0.198667 -0.1965102 0.5089361 0.76282316 -0.2098742 -1.5734506 0.21209544 -0.21424852 0.1115138 0.7370034 -0.045287803 0.04711133 -1.277419 0.0692521 0.20907669 -0.92264533 1.0650173 0.19744512 -0.28231624 0.5471798 1.3405768 -0.17683314 1.3108892 0.21045393 -0.38944477 -0.26897162 0.11724332 0.9633462 -0.30771855 1.3750454 -1.3544658 -0.05726119 -0.039141223 -0.5476828
2047 0.23988774 -0.0353965 0.22381616 -0.25563613 -0.5550381 -0.0010372596 -0.8222246 -0.41683376 -0.13815868 -0.32351103 0.92974913 -0.39595369 0.54467565 -0.18709743 0.020487513 0.11459347 -0.8385141 -0.38562235 -0.25990704 0.48359728 -0.57838666 1.0635768 -0.023798903 -0.6291475 -0.46537 0.5784484 -0.8673267 0.5634022 -0.019429043 0.2985643 -0.52774775 -0.6521384 -0.5205131 0.9122036 -0.42260227 0.4942319 0.46423283 -0.33809695 1.1174881 -0.0859999 0.29573607 -0.5687009 -0.5451568 -0.29442394 0.092802264 0.1799446 0.47578242 -1.1257507 0.82503027 -0.3347538 1.0882255 -0.7821898 0.22223818 0.16747385 -0.11455934 0.39294857 0.8043787 -0.3174762 -0.07396104 -0.22115307 -0.26749367 -0.53132814 -0.33274782 -0.1801805
2241 1.2413841 0.0059112837 0.13311836 -0.9760917 -0.34980404 -0.066259064 -0.7201225 0.028827148 -0.7327848 -0.34391105 0.45788935 0.34118187 1.0531281 -0.7968864 -0.4785343 -0.97664964 -0.75385326 -0.52688193 -0.41109243 2.1507432 0.16604427 -0.2607331 0.61027944 -0.19744886 -1.0459982 -0.5149996 -0.6267608 0.104751095 0.099481836 0.3813554 -0.1898102 -0.09323621 0.478638 0.47494173 -0.1058129 -1.4699657 0.124601565 -0.3510096 0.3173667 0.9557055 0.113158636 0.21060416 -1.3156315 -0.18925455 0.21241657 -0.9042473 1.0104517 0.22846213 -0.6822595 0.6683022 1.1653256 -0.25301006 1.1139874 0.26136097 -0.4905736 -0.46964344 0.1567778 0.9531594 -0.3409687 1.2099206 -1.3464488 -0.18021329 0.013079915 -0.45232162
2485 0.8533777 -0.20313744 0.48917863 -0.9457624 -0.55672556 0.4559294 -0.351508 0.01556843 0.19834019 -0.11201759 0.18068814 -1.0310177 0.37209132 -0.37592316 -0.21963836 -0.6076588 0.649843 -0.9828844 -0.2840626 0.8685547 0.603482 0.063075066 -0.15203947 -0.965093 -0.63409454 0.19762073 -0.21266426 0.1774728 0.4285117 0.71918577 -0.2903464 -0.028225658 -0.3930771 0.9873396 -0.37687764 -0.30592924 0.47296226 -0.46066836 -0.28203157 -0.929693 0.3877903 -0.5936184 -0.09499562 0.23404422 0.036320552 -0.010885629 0.840988 -1.2989947 1.6938685 0.099321134 0.40292415 -0.13101801 -0.06338297 -0.08765694 -0.009525659 0.15888143 0.15465522 0.3594737 -0.7195228 -0.10177804 -0.5207271 -0.57886595 0.5294236 -0.55214256
2524 0.3048074 -0.3562859 0.45038837 -0.073957816 -1.048513 0.061144404 -0.6063828 -0.8773761 -0.4712513 -0.40503046 -0.25689712 0.08554416 1.183597 -2.3222775 0.14659344 1.0533013 -0.23118088 0.49869767 0.26231706 0.36063847 -0.5437453 0.4842736 0.64356387 -0.110316545 -0.0391112 -1.029247 -0.6829091 1.0505143 0.21419843 0.6860438 0.05426837 -0.19957162 -0.06881913 -0.27659547 -0.6680245 -0.5334198 -0.27637324 -0.39051515 -0.5876803 0.24082352 1.7403178 -0.058443617 -0.5558768 -0.14483291 0.43675113 -0.18271157 0.5818385 0.2508039 -0.33575165 -0.38183686 0.12589909 0.6380191 -0.31113642 0.27859777 -0.06483605 -1.1544862 0.100516275 0.34972382 -0.6538821 -0.47847638 -0.86932087 -0.55323935 0.1000998 -0.15621653
2370 -0.03603161 -0.79828763 -0.93228656 -1.2698829 -0.79344434 -0.7234124 0.26508668 -0.22345224 -0.49436274 -0.48394775 -0.17171279 0.15628393 -0.34694916 0.06043703 0.2408665 0.44718024 -0.07170814 -1.2073516 -0.41581786 1.6218854 -0.117800325 -0.30429626 0.24001911 -0.68884456 -0.45986003 -0.43764856 -1.1945195 -0.92519313 -0.058434464 0.63169444 -0.27735016 -0.35090417 -0.2987076 1.2153951 -1.2056615 -0.11652331 -0.33075532 -0.552897 -0.3867278 0.9501941 0.6586725 0.44804257 -0.3622566 -0.056843698 0.26108846 0.44311103 0.18802875 -0.31691924 0.5870067 0.35010603 -0.13176145 -0.03664998 -0.39352182 0.40413934 0.5859638 -0.13094996 1.0352746 0.1326558 -0.21446192 1.1321034 -0.4094492 -0.6519405 -0.44961622 -0.29780424
2080 0.41878596 0.40184146 -0.07911052 -0.502473 0.525348 -0.2885757 0.20243333 -0.7369833 -0.41924176 0.18811229 -0.259014 -0.06263525 -0.1337757 -0.18651335 0.93284696 0.857017 -0.50919694 0.28392205 -0.60650265 -0.45001927 -0.4109734 0.3050944 0.20911306 -0.63653153 -0.35572112 0.589627 -1.1153748 0.025563598 -0.63493246 0.37643123 -1.270934 -0.42502794 0.53391486 0.7191367 -0.35061276 -0.512727 0.9067945 -0.99601895 -0.4290705 -0.025639746 0.5633592 0.3520861 -0.6401168 -0.17222397 -0.016367806 0.0349583 0.13810399 -0.9306111 0.34337667 -0.3743426 0.44939977 0.14564027 -0.20960036 0.15419234 0.5568551 -0.49498746 0.1827048 -0.50257725 -0.29191133 -0.4803965 -0.5700213 -0.2655572 -0.3663628 -0.28146318
2147 -0.21108255 -1.1911085 -0.5153198 -0.67528695 0.5285134 0.50720996 -0.124056146 -0.5412851 -0.8913751 0.5164532 -0.1205462 0.58297426 -0.022916602 -0.4279981 -0.062739775 -0.15184748 0.12299107 0.2992268 -0.26184937 1.0536323 -0.9462607 -0.5137165 0.49348232 -1.3479806 0.18088901 -0.4241501 -0.54276305 0.20227084 0.014584485 0.21638721 -0.7581154 -0.913873 0.42023218 1.8674386 -1.0561947 0.19887464 0.5327505 0.25702527 -1.0773015 -0.19751051 1.0220962 0.22641763 0.19085877 -0.3260328 1.0426891 -0.39234102 0.9805759 -0.74870956 0.24424809 0.79872817 -0.16466293 -1.0219173 1.8046842 0.21823944 0.30075425 -0.57212406 0.66877896 -0.72139 0.21657842 0.48671573 -0.97500175 0.5254516 -1.0455822 -1.2563863
2507 0.10283074 0.37119904 1.4733418 0.26613015 -1.1139481 -0.14149764 -0.37536606 -1.148383 0.56034905 -0.039835412 0.082099766 -0.14441437 -0.20902622 0.14989509 -0.29005545 0.32270512 -0.25107774 0.17047496 -0.45548075 0.30621505 0.25008002 -0.1324906 0.029859029 -0.5722565 0.1162686 0.12563187 -1.0153849 1.0709195 0.9132749 0.4785361 -0.0439267 -0.30012745 -0.521754 -0.01956853 -1.4521453 -0.5532714 -0.1573153 0.46288857 -0.5211196 -0.8715581 0.43455532 -0.116075926 -0.38699576 -0.544995 1.1429306 -0.5182215 0.27179033 -0.6189262 0.24194035 -0.06646699 -0.587593 0.0575698 -0.83226126 0.4369122 -0.1763881 -0.25882605 -0.23509513 0.76301306 -0.72169966 0.24548747 -0.9603985 0.50457186 0.9112377 -0.6965
2405 -0.2832278 0.25977248 0.3196988 0.25770998 0.015224783 -0.5901992 -0.8953199 -0.65272737 -0.90474474 -0.19101807 1.2992237 -0.119996876 -0.3544562 0.5482349 -0.038801987 0.70675313 0.012907115 -0.576911 -0.92211497 1.3573639 0.7164887 0.018041598 -0.6089728 -0.76095533 -0.03493667 -0.28031078 -0.5156191 1.1696352 0.14983712 -0.20524594 -1.0085856 -0.594195 0.018995974 1.1374649 -0.41514105 0.17983812 -0.52277946 -0.28555587 -0.3086533 -0.14740658 0.5381326 0.4027854 1.0122765 -0.9284988 -0.29882628 0.23151265 0.26619247 -0.39082307 0.4490814 -0.78145605 0.11464584 0.15481748 0.28743094 0.5729018 -0.009653359 -0.5747626 0.5189608 -0.21440049 0.23091172 -0.15859823 -0.49701595 0.15937229 -0.15053986 -1.1410964
1013 0.99304605 -0.8031599 0.026314432 -0.2858881 -0.36232722 0.43376818 -0.70051634 0.18585579 0.09176395 -0.24242425 0.92935973 -0.6579441 0.2319291 0.34786528 0.19447769 0.09431329 -0.2868421 0.014734529 -0.3454973 0.34216484 0.149044 0.53551674 -0.67486715 -0.8554515 -0.7061373 -0.20056385 0.1583384 0.59793633 -0.25604644 -0.5122819 0.043047 -0.66075104 -0.0820394 1.3654513 -0.68592256 -0.2639102 0.19240694 -0.3992325 0.30657956 -0.7335395 0.48979092 0.06823098 0.27686843 -0.40308443 0.24966283 0.45826474 0.41144228 -0.6834343 0.7702659 0.6185995 -0.22109157 0.39464518 0.36768302 0.74785066 0.7631052 -1.0812246 0.5631876 0.26763308 -0.98715335 -0.21147448 -0.5025308 -0.18532258 0.51338273 -0.37645745
2360 -0.27394095 -0.35170376 0.37442994 -0.3060549 -0.9740009 0.53381765 -0.66605556 -1.262473 0.17203191 -0.30888173 0.01255549 0.8452139 0.5134536 0.105183914 0.26924053 0.7561338 0.5325201 0.2653211 0.017480679 0.75476044 -1.1192509 0.21001463 0.58654946 -1.2240936 -0.3185655 0.5856327 -0.11778891 1.1485201 0.08059093 -0.68806636 -0.75364286 -1.4526699 -0.34316936 1.3059134 -1.0793971 1.0249429 0.44711265 -0.68822074 -0.495269 -0.3799357 0.74068993 -0.11470379 -0.036581278 0.018861424 -0.24731329 0.42053905 0.65318745 -0.43711442 -0.061530992 -0.24233468 -0.45275262 -0.13608359 1.2326012 1.194966 0.5121829 -1.2888194 0.5170862 -0.38464406 -0.6760716 0.48173898 -1.037825 -0.7810994 0.13948846 -0.4154417
2247 1.6227129 0.025286274 -0.020662205 -1.1648397 -0.15641487 0.6874892 -1.2798795 -0.9462426 -0.9929061 -0.5125218 -0.22195573 -0.4439678 0.06682096 -0.041117817 1.3238229 -0.19718616 -0.83411217 -0.6622741 -0.44529828 1.4475411 1.5819762 -0.012892082 0.38367084 -0.46409765 -0.110742986 0.086621426 -0.21207541 0.6957904 0.6365009 0.1891062 -0.20810279 -0.6645181 0.44220367 0.10507977 -0.2946405 -0.5784577 0.16911049 0.9212272 -0.3397278 0.034241617 -0.08702378 0.17901474 -0.60489315 -0.01259862 0.24683374 -0.77897614 0.2481506 -0.5796845 0.15718846 -0.26101896 0.71859914 -0.3899596 -0.108201176 0.9535477 -0.19575675 -1.3334761 0.46561363 -0.18118481 0.71682024 0.23761609 -1.8270421 -0.09859434 0.008717842 -1.0599679
2509 1.3976805 -0.031155787 0.008422046 -0.6045092 -0.0608721 0.41648623 -1.3960857 -0.9552829 -1.2663864 -0.5544953 -0.008549586 -0.28699073 0.7879288 -0.5628289 0.92075396 0.3647147 -1.252859 -0.7080882 -0.34066558 0.7320138 0.8171229 -0.15223095 0.27560255 0.0940164 -0.1770153 0.0226323 -0.030561192 0.84684825 0.17321515 0.5388492 0.13638642 -0.63207966 0.028887363 0.23259261 -0.0015146292 -0.032656077 -0.17458798 0.042882472 -0.24767993 -0.39420587 0.10200307 0.21820001 -0.54733264 -0.15955234 0.008530869 -0.54096335 -0.05184071 -0.93935746 -0.4404697 0.1861637 1.0454314 -0.77874184 -0.55018836 0.7911282 0.21639554 -1.5825045 0.035099875 -0.09114797 0.46824777 0.55499643 -1.2184104 -0.73821694 0.04563597 -0.9831395
1958 0.11003624 0.24719612 -0.023449268 -0.56964624 0.46555585 -0.1631979 0.038043693 0.051885042 -0.1351883 -0.756429 1.0259979 0.8032476 0.636219 -0.3903068 -0.4674089 -0.0468042 0.69117975 -0.16657059 -0.49068135 0.96168727 -0.0050064204 -0.6682814 0.059508447 -0.9438115 -0.6293271 -0.5746559 -0.92054456 -0.15447187 0.5714987 0.2475016 -0.02830628 0.38637853 -0.88892543 0.006333898 -0.51647156 0.3582317 0.482768 -1.0797374 -0.048605822 0.2808181 0.4195443 0.46193206 -0.15784518 -0.9443775 0.055930153 1.1863841 0.008258559 -1.1380063 0.5134813 0.09901415 -0.68985564 0.2794207 -0.007468861 -0.33102974 0.49589497 0.42092943 0.72887915 -0.05171293 -0.084869005 -0.16538747 0.23802055 0.46570787 -0.26999927 -0.44359133
2110 -0.38958445 -0.46273044 0.71021986 0.19074214 0.20496735 -0.10022431 -0.053659573 -0.41190276 -0.16430292 -0.6733711 0.31926632 -0.42883 -0.415899 -1.6211071 -0.607948 0.65764076 0.053402696 -0.21443786 0.00030375633 0.4130422 -0.7516207 0.19888169 -0.4418141 -1.0483538 -0.36432934 -0.38709155 -1.641891 1.3119112 -0.3097131 0.6229553 -0.3305536 -0.19112596 -0.6911919 1.2808682 -0.57972056 0.18213108 -0.69857466 -1.0078033 -0.31057137 -0.24399775 0.5704402 0.39427152 0.37444553 -0.02432338 0.8941251 0.007598889 0.45934728 -0.9521159 0.546704 -0.23428564 -0.08671404 -0.30047533 0.09823453 0.11261354 0.7639055 -0.04952692 -0.28276223 0.8282169 -0.16207719 0.31834683 -0.15184616 -0.483965 0.28983116 0.518735
1583 -0.22757296 0.07286364 1.0148561 -0.90271115 0.28767574 0.7770676 -0.5860203 -0.85615027 -0.57855207 -0.4961211 1.1586486 -0.15597983 0.26031518 -0.3587706 0.38509378 0.36825585 -0.2767507 -0.53365505 -0.4517306 0.5251441 -0.74936116 1.2015744 -0.17611882 -1.1877855 -0.54837537 -0.017298538 0.26165113 1.0610474 0.22856586 -0.78989345 -0.016578903 -0.8914233 0.26346198 0.6299725 -1.3512708 1.2674744 0.6008682 -0.8467505 0.015167115 0.097992636 0.19726057 0.13562527 0.08685111 0.12531042 -0.1939433 0.38467962 0.9397807 -1.3879752 0.03890956 -0.16308358 -0.34209377 -0.46320853 0.8823271 1.3544362 0.8011739 -0.52260846 0.031995703 0.33708993 -0.8991431 -0.50690246 -0.53492874 0.13599358 0.057639115 0.28858837
2042 0.8967884 -0.5471387 -0.0137445945 -0.5921322 -0.45411786 -0.2935848 -0.8901202 0.00225442 0.11733382 -0.38667676 -0.17434539 -0.17769462 0.016007513 -0.5660276 0.66311914 0.40803045 -1.3085669 0.6309316 -0.44199818 0.92074984 0.95216894 -0.4439273 0.5593054 0.12582545 0.38863713 -0.056442335 -1.6578766 0.1128145 0.8778 -0.09796337 -0.59821147 -0.86581457 0.19441204 -0.13672057 0.037112333 0.03189322 -0.27823 0.6752849 -0.83860785 0.17121357 0.20013103 0.35226357 -0.23093069 -0.65271 0.34121707 0.927542 0.6231154 -0.055970192 -0.121430315 -0.31081206 0.26948607 -0.14838539 0.3131377 0.6675951 0.42414173 -0.32774365 -0.066836074 -0.3274008 0.14856665 -0.4543378 -0.34681138 -0.80517006 -0.44104737 -0.020163165
2552 0.1372722 -0.31340218 1.3126705 0.3978424 -0.11266492 0.19581702 -0.79899424 -1.3191462 0.1934901 -0.28115106 -0.29858512 0.07090803 0.73645633 -0.4803906 -0.29556113 0.045171615 -0.66760564 0.26071173 -0.88275886 -0.0768764 0.49864578 -0.19265132 -0.03917116 -1.0396847 0.2999416 -0.5312602 -1.5153316 0.16194792 0.20085035 0.68633354 -0.24825722 -0.73073894 -0.11751383 1.329435 -0.53874326 -0.5669818 0.85506153 0.51043606 -0.66856575 -0.23275143 0.338536 -0.059090354 0.38185892 -0.78984535 0.44036072 -0.68105865 -0.17435507 -0.74772286 -0.23236406 1.4724466 -0.38106468 -0.5561894 0.5873451 0.46144545 0.25811273 0.7139803 -0.17673965 -0.1804201 -0.9801025 0.6021371 -0.4356059 0.0066523408 -0.13746504 -0.18040222
1904 0.940952 -0.6705166 1.4969758 0.32235232 0.038680345 -0.63227654 -0.03786586 -1.1462032 0.598994 -0.44707477 -0.391391 0.10115564 0.57682544 -0.6463744 0.9445804 0.64327985 -0.7527138 -0.3192431 -1.4557732 1.1683451 0.21551181 0.046478964 0.14943129 -0.5507923 -0.22594984 -0.05761716 -0.18210617 -0.05787284 1.7316215 0.22942227 0.13556345 0.08782772 -0.5478035 -0.9174535 -0.80351037 0.33743432 0.21369104 -0.06413409 -0.63169533 0.19013241 -0.36197764 0.48291376 0.55942947 0.24179977 1.0051203 -0.80332386 -0.46085766 -1.3470298 0.5984358 1.2079192 -0.7835458 0.39411968 0.79655766 0.30794808 0.70585567 0.747862 0.27021787 -0.22888915 -0.8852126 -0.22583063 -0.9056714 -0.14148013 -0.15564972 -1.0340722
2395 0.274294 -0.423766 0.29306012 0.15298577 -0.58157897 -0.5082699 0.729534 -1.2213113 -0.4294597 -0.24217919 0.073229805 0.10730042 -0.15563442 -1.4247383 0.8206389 0.60296124 0.8151145 -0.4948062 0.27375296 1.0957254 0.5061544 -0.0807848 0.16694193 -0.74092066 -0.54608333 -0.627704 -0.76243 -0.21583077 0.92609775 0.40821195 0.4588409 0.5570891 -0.06445018 -0.015283494 -0.7376957 0.0039587338 0.17463364 -0.41223785 -0.7379328 -0.18329386 0.40475422 0.56946146 0.46885496 -0.12757283 -0.02496226 -0.37409148 0.15490277 0.20742884 0.43504924 0.91955405 0.15866795 -0.61748844 1.2991489 -0.13034065 0.52560055 -0.057192165 0.78913826 0.23954137 -0.7150882 0.03499768 0.058322202 -0.6368535 -0.40647143 0.15285265
2475 -0.03266961 0.009331785 0.113677114 0.100952595 0.34811258 -0.46490923 -0.0147436615 -1.5876967 0.29334396 -0.14936572 -0.7784979 0.51995397 -0.5590974 -0.54564124 -0.574208 0.76037663 -0.8727381 -0.78507584 -0.8648781 1.1333551 1.1347014 -0.4692174 0.24857666 0.1598125 -0.83908904 -0.12057628 -0.9498635 -0.27632365 0.54772884 -0.27538693 0.66951704 -0.59820807 0.21387818 1.068065 -0.4368735 -0.68545485 -0.5768226 -0.95615095 -0.43393034 0.49463502 -0.3070647 -0.06529659 -0.380547 -0.54370904 -0.21102536 0.0006042383 0.5490953 -0.82992506 -0.112447396 0.6295136 -0.3758858 -0.060258314 -0.0070475116 0.037732944 -0.11239418 0.009688171 -0.5570819 0.21455176 -0.46992317 0.50987965 -1.3130414 -0.21549146 -0.34488133 -0.26571614
2486 -0.3891948 -0.7215861 -0.13019146 -1.0983013 0.32520702 0.29527336 -0.33734924 -0.29220954 -0.65317583 0.54946554 0.1948338 0.10563191 -0.43423966 -0.5850096 0.012592108 -0.10687642 -0.11763617 0.6277469 -0.09488474 0.95480996 -0.96229064 -0.591039 0.6148204 -0.6117266 0.31466308 -0.23210813 -0.70580584 0.5626156 0.1487637 0.23692156 -0.58696526 -0.7280643 0.24520718 1.3202001 -0.7935194 -0.067449756 0.24971059 0.69512224 -0.7379524 -0.44133815 1.0191326 0.43310884 0.025628015 0.15411054 0.954694 -0.18309298 1.0404208 -0.7572166 0.33348027 0.30452552 -0.0024365983 -0.8834111 1.3266857 0.6918022 0.52322465 -0.7432596 0.3230155 -0.54666233 0.3099242 0.5434241 -0.90333146 0.33094412 -0.2596896 -0.85853916
1869 0.6608265 -0.59778434 0.55623466 -0.09376804 -0.4474173 0.8567859 -0.95099646 -0.6572392 -0.5391246 -0.16140515 0.15873174 0.56629187 0.103499904 -0.025213305 -0.69604367 0.27291924 -0.66375095 0.704162 0.1166238 1.2423488 -0.24819309 -0.42946482 -0.1597008 -1.0804876 -0.43876556 -0.109489344 -0.5633639 -0.32927513 0.32445735 -0.03935272 0.030298784 0.27795875 -0.31128523 -0.7101669 -0.3270807 0.5464762 -0.9755282 0.43074942 -0.8289999 -0.6560667 0.7544337 -0.8081576 -0.48750865 0.014257861 0.34144425 -0.050168384 0.46224275 -0.45994198 -0.51249564 -0.6609248 0.122687325 -0.31630778 1.3255761 1.103489 1.529681 -0.24122733 0.9056973 -0.7740018 -0.07299859 -0.2633315 0.27920923 -0.54332066 -0.79195017 -0.33710834
2578 -0.016230142 -0.25510794 0.23330398 -0.853736 -1.0172987 0.37364 -0.6211713 -0.8583187 -0.035332236 -0.17170721 0.4330749 0.703417 0.6444089 -0.21430492 0.7311431 0.8590854 0.40662572 0.11730472 0.018059704 0.37313852 -0.9177806 0.013678152 0.7255578 -1.0107747 -0.01952539 0.43270534 -0.21328287 1.1582173 0.17235005 -0.56044763 -0.83879864 -1.5479504 -0.34780687 1.3849623 -0.8365014 0.5576287 0.33420894 -0.46561533 -0.37611082 -0.6804652 0.64064515 0.28518614 -0.3335384 0.13100696 -0.23756894 0.36162928 0.55060804 -0.39848724 -0.20147516 -0.5263046 -0.12738335 -0.25750867 0.5117286 1.0832987 0.51932025 -1.2952069 0.44932425 -0.16938575 -0.5384893 0.46869466 -1.0917182 -0.53259945 0.22742881 -0.22789526
2436 0.63314426 -0.6800029 0.5838838 0.58694714 -1.1413047 0.011710638 -0.20311637 -0.19914877 0.17391555 0.13116352 0.87422687 0.03927334 0.28376412 -0.93809944 -0.18990657 0.36449027 0.1662199 0.029361263 0.29753247 0.62388635 0.6498733 0.5948399 0.35639572 -1.8251265 -0.21556659 0.08229314 -0.38964018 0.38112968 0.9712393 0.13120978 0.36366367 0.6114616 -0.31700394 -0.11927834 0.27839682 -0.025426503 0.26683122 0.47451085 -1.128187 -0.48304194 0.114158615 0.29846618 -0.41573521 -0.45434636 0.5522952 -0.53028995 0.3381587 0.35384142 -0.16483554 0.9699211 -0.5355558 0.28334028 0.7526974 0.3688201 0.33342674 0.06126475 0.5180058 0.34878698 -1.6473193 -0.33332133 0.32468554 0.70852774 -0.2098752 -0.34686637
1873 0.6412506 0.19440426 -0.5758379 -1.1238933 0.23634969 0.086399116 -0.09136806 -0.5599576 -1.0043463 -0.7734282 0.88266325 0.7743265 1.0672183 -0.7867324 -0.9376613 -0.31903768 -0.6833528 -0.23897058 0.2242909 0.09913418 -0.49161345 0.5473284 0.65701354 -0.5443791 -0.19607306 0.44087076 -1.0785022 0.47775128 0.48618808 0.41738683 -0.7052906 0.42245302 -0.36181083 0.23056246 -0.33523855 0.9852316 -0.07286567 -0.108723424 -0.2501959 0.54718846 0.33831602 0.24960124 -0.36034137 -0.86016446 0.5558602 0.11046498 0.41087252 -0.94757247 -0.72288215 0.5484788 -0.030464897 -0.6882347 0.4194034 0.9993252 0.2474344 -0.8249011 -0.2567253 -0.72277915 -0.44825146 -0.06512114 -0.21521476 -0.59005696 0.21467309 0.0069284616
2027 -0.12781073 -0.20834142 0.4237197 -0.7474144 -0.85983455 0.662625 -0.750533 -1.1111417 -0.17082258 -0.24268673 0.0010918905 0.33992055 0.5930569 -0.09360329 0.50348055 0.48768973 0.2428955 0.046099458 -0.10805167 0.7464379 -1.289742 0.4041671 0.4075309 -1.1811416 -0.46031067 0.5018451 0.14610715 1.0396773 0.16123395 -0.5780183 -0.28546384 -1.5780721 -0.35756874 1.2979354 -0.9809317 0.9965386 0.3422279 -0.65578765 -0.1931397 -0.39212316 0.8142077 0.013041841 -0.023501983 0.44531074 -0.23294166 0.28399023 0.56583345 -0.91056204 0.21416502 -0.34434786 0.07894229 -0.39895317 1.0917172 1.3370908 0.48502517 -1.2690266 0.3809027 -0.64243907 -0.55634326 0.5392872 -1.0605059 -0.7770529 0.24020591 -0.03336072
2358 -0.16805732 -0.058395863 0.04906291 0.020939844 -0.5570041 -0.67979693 -0.8620449 -1.0912855 0.46563888 0.719897 0.27770796 0.5748146 0.9599237 -0.7278418 -0.23399445 0.26718888 -0.13172145 -0.3841819 0.07547916 0.8692776 0.28002352 -0.2767678 -0.2529069 -0.12563911 -0.18917209 -1.0094242 -0.5742294 1.0781908 0.26596597 1.1521989 0.7828617 -0.406589 -0.7704487 1.274577 -0.9945574 -0.6478052 -0.26229724 0.87761635 -0.24789105 -0.64182967 0.52096164 -0.44523695 0.31041545 -0.6181118 0.0522906 0.25253022 0.57320577 -0.3822549 -0.13240989 0.013679238 -0.59143496 0.044928446 0.80335385 -0.26022056 0.3017032 0.37392288 0.41141626 0.4318326 -0.37514147 0.03863775 -0.3666389 -0.43183392 -0.5849646 -0.4935399
2597 0.39740476 0.58608073 0.8653698 0.47105178 -0.7236009 -0.4772111 -0.38744497 -0.713764 -0.17358682 -0.2587609 -0.03176023 -0.3201182 -0.19504674 -0.21093683 -0.92247504 0.81557083 0.82452065 -0.75953525 -0.10166644 0.03137888 0.18897255 0.19808812 -0.21868773 -0.53400075 0.3582457 0.49948236 -0.689474 1.0605801 0.1895009 -0.117529385 -0.43954846 -0.38143924 -0.3662502 0.10155215 -0.026292864 -0.48295006 -0.2869567 -0.52489287 -0.19670336 -0.24474935 0.43062428 0.5763339 -0.10163169 0.19642043 -0.21713683 -0.27742207 0.3131192 -0.547171 0.46552432 -1.1163408 -0.014052042 -0.39003372 0.03467938 -0.40876725 0.11703624 -0.09077185 0.12168856 -0.072642885 -0.749608 -0.35490024 -1.6766719 -0.7314078 -0.45373496 0.15137355
2016 -0.179879 0.19985485 -0.028308686 -0.6168784 -0.33463618 1.1024468 -0.4207087 -0.19470996 -0.15333572 -0.89743537 0.47088763 0.8588716 0.29624695 -1.331449 -0.055067938 0.7565068 0.20586452 0.19843365 -1.0038201 0.40412548 0.86127305 -0.6291768 -0.40601093 -0.80900764 -0.1753331 0.9395645 -1.1886386 0.7722235 0.14062244 -0.8543537 -1.0149584 -1.38038 -0.92828244 0.12594834 -0.04213282 0.65198034 0.982201 0.3624737 -0.36344174 -0.7872987 0.16559757 -0.8576994 -1.1923407 0.09677933 0.51751167 0.5611817 0.5946895 -1.5440391 0.45834583 -0.3085841 -0.006098214 0.07035168 0.08867651 0.4742948 -0.2180587 0.5462466 -0.98501825 0.08946534 -0.9000235 -0.05101165 -0.8057968 0.9523498 -0.04808018 0.4151278
2237 0.13594738 0.61098206 0.030493397 -0.25458735 -0.87659925 -0.31784177 -1.2195888 -0.7992374 0.34936 -0.2895766 0.6119309 0.9049068 0.7572519 -0.9536438 -0.51139796 0.13459557 0.7752029 -0.22739674 -0.19926125 0.23184516 -0.54347277 -1.3535228 0.9586782 -1.5833367 -0.56509626 -0.13128814 -0.6268215 -0.45516458 0.9444885 0.6124175 -0.14652447 -0.59788907 -0.42041758 0.27999803 -0.38400778 -1.3356777 -0.9096105 -0.8816124 0.4231209 -0.61600053 1.3957492 0.6839266 -0.67483366 0.5656747 1.1877495 -0.17368515 -0.19290636 0.051689725 -0.033978764 0.07029214 0.17011645 0.8366111 0.93010414 0.1048364 0.57100856 0.08779381 0.7625132 -0.23888402 -0.62061465 0.6935036 -1.2830983 0.2840506 -1.1443807 0.39147827
933 0.051214784 0.81133676 0.75193065 0.5956501 -0.52305585 -0.28903043 -1.0706307 -0.6095399 -0.6562174 -0.35592863 -0.3061109 0.022619598 0.87387866 -0.6424433 -1.0918771 0.4391602 0.0893248 -0.96978337 -0.8616603 0.8206504 1.1439425 0.36150947 0.1786277 -0.5829006 0.84339 -0.46090335 -0.5598235 0.5106668 0.41827086 0.68307656 0.19881111 0.25491866 -0.07449919 -0.927268 -1.2172859 0.040222056 1.437779 0.2222231 0.21120736 0.6325678 0.64308137 0.810788 0.89100754 -0.31822205 0.21751937 -0.012677331 0.26943395 -0.5718482 0.83954626 -0.466099 -0.19482017 0.44976386 -0.07497906 0.95586985 -0.35825312 -0.13717644 0.34407195 -0.8217566 -0.4561787 -0.37026355 -1.5050553 -0.7395514 -0.39540297 0.25258282
2305 0.07268528 -0.62561166 1.136502 -0.090493016 -0.14353663 0.36482817 -0.19754414 -1.0278018 0.16406626 -0.3374629 -0.08712955 0.6325564 0.5869166 -0.2568002 0.095463805 -0.039392114 -0.25407493 0.24933825 -0.79339576 -0.22484595 0.40957022 -0.25783256 -0.2849198 -1.1984438 0.51572907 -0.6629807 -1.243589 -0.022610022 0.23354238 0.6231062 -0.8604951 -1.0052696 -0.05033954 1.361508 -0.18672551 -0.5396823 0.8677742 0.11299931 -0.830712 -0.43612325 0.70617104 -0.32355106 0.1266848 -0.66820717 0.6732344 -0.3491784 -0.27033573 -0.6125628 -0.1758684 1.4870479 -0.20043422 -0.93603677 0.26040155 0.55710423 0.587191 0.9232725 -0.019517042 -0.48758623 -1.2853974 0.9581818 -0.59773886 0.0757467 0.32767454 -0.3583831
2054 -0.09522568 -0.2098679 0.55169225 -0.1255635 -1.4916373 -0.6701235 -1.2884501 -0.7423872 -0.053753175 -0.42287812 0.24484372 -0.2756558 -0.066975676 -1.0390753 0.53547734 -0.47947538 -0.40253803 0.31675875 -0.23315522 0.2537269 -0.28467265 -0.42696023 0.17682023 -0.41590682 0.3256676 -0.0061501916 -0.9902245 -0.3925824 1.1202044 0.15825808 -0.41018808 -0.6174022 -0.9188233 0.7236382 -1.3445027 -0.47679898 1.0528603 -0.028514894 0.81065327 0.38281772 0.7138017 1.1536182 0.09881546 0.07426524 0.4293121 -0.57732946 -0.27964887 -0.56777114 0.2882875 0.27392805 0.13342798 -0.20565158 1.1428385 0.8033422 -0.4459798 0.6413981 -0.46949834 -0.68249357 -1.0371469 0.40495715 -0.5437168 0.9651208 -1.6544378 0.8370173
2530 0.45661494 0.33878756 -0.1324281 1.1484565 -0.7731968 -0.707026 -0.7991842 -0.69352216 -0.6088901 -0.6848334 0.55502826 0.12268984 1.4179146 -0.16751574 -0.39683613 0.33869827 0.22539866 -1.1060162 -0.36169505 0.41753116 0.38373584 0.30406946 0.10763521 -0.903412 -0.042026397 -0.32543436 -0.6331606 0.52797985 -0.05200631 0.14784586 -0.19894141 -0.5735708 -0.6996937 0.6300689 -0.2630277 0.08860717 -0.48445588 0.16385908 -0.4993793 -0.62044865 0.112578645 0.31068966 0.22337043 -0.5297771 -0.17592745 -0.18614121 0.34433863 -0.027116511 -0.07051476 -0.13745634 0.29692522 0.4018327 -0.30702436 -0.2547768 0.15807241 -0.54796976 1.164602 0.5084459 -0.029088633 0.7169595 0.031061083 -0.12643604 -0.537162 -0.69595265
2046 0.50387263 -0.21911635 -0.002538563 -0.1512194 -0.7914446 -0.17142713 -1.0363404 -0.5459257 0.26274633 -0.4543011 0.9284238 -0.7800974 0.7230386 -0.52924633 0.100526564 0.119035274 -1.1042721 -0.18867591 -0.24621895 0.6450026 -0.40630537 1.2157612 0.022361003 -0.64407444 -0.60197204 0.63886195 -0.7884102 0.5434685 0.064931884 0.5560089 -0.7964088 -0.35130987 -0.7662027 0.8789521 -0.3437477 0.26189914 0.5418827 -0.16444914 0.7593629 0.124006 0.20329736 0.09278873 -0.11936275 -0.36339903 -0.20921916 -0.043822266 0.5620524 -0.9908335 1.1152256 -0.72966367 1.1015271 -0.6347774 0.22616223 0.119490124 -0.35962176 0.39813736 0.9959528 -0.38224855 -0.4382472 -0.3766051 -0.25086915 -0.7616781 -0.26471502 -0.37513936
2126 0.5161491 -1.4458836 0.1093147 -0.12018561 0.08871498 -0.5075443 -0.100815244 -0.23475051 -0.46330747 -0.59335315 -0.0825915 0.07502801 1.0521543 -1.059268 0.15079954 0.59091926 -0.589373 0.4317298 0.47005805 1.1636807 1.0670043 0.38936174 0.97431266 -0.1543929 0.5344239 -0.7210854 0.050316602 0.13901329 0.61293274 -0.09425712 0.55558133 0.025280254 -0.36006483 -0.24500765 -0.36206666 0.122681476 0.04721693 0.11747513 -0.083399795 -0.21133827 0.25318363 -0.33843943 -0.06053016 -0.66879547 -0.19795728 -0.38227612 0.99742055 -0.45800635 -0.66998816 -0.14031151 -0.32925066 0.68228704 1.1763756 0.0122218365 -0.10766709 -0.53585464 0.6630754 0.7636953 0.2005749 -0.47153786 -0.9218908 -0.23663972 -0.7850398 0.013742554
2228 0.56079143 -0.5865204 0.13313861 -0.07666133 -0.66450024 -0.5368432 0.7202775 -1.2584928 -0.52809304 -0.4851262 0.29466406 0.2484786 -0.09595127 -1.5902098 0.8096905 0.5594129 0.8561992 -0.66894686 0.1556836 1.2443554 0.26358408 -0.12021639 0.1244564 -0.62576073 -0.41799432 -0.45603555 -0.7854669 -0.8330652 0.90153575 0.30770686 0.5543458 0.4250189 -0.6101932 0.06526262 -0.82926005 0.11960638 -0.09495632 -0.6560659 -0.35091925 -0.3780182 0.18012261 0.49503684 0.38187072 -0.11346647 -0.11926332 -0.82510215 0.0068602273 0.2008724 0.6360343 0.93751615 0.5470618 -0.8609394 1.7255733 -0.32538828 1.0111239 0.0426909 0.97692055 0.22335164 -0.686917 -0.07701285 -0.21513456 -0.80178297 -1.1396037 0.32604325
2227 0.5696306 -0.7386253 -0.003512887 -0.029122401 -0.66373247 -0.6232246 0.6793528 -1.5963569 -0.45878217 -0.52937794 0.26158422 0.33971217 0.0048229396 -1.3924807 0.57522124 0.5203032 0.95869774 -0.84594434 -0.11675123 1.2388704 0.63267034 -0.2687604 0.19874409 -1.1483961 -0.23460051 -0.6013906 -0.71492016 -0.85713476 1.1895987 -0.25170258 0.5042113 0.27340487 -0.7505165 0.26553646 -1.0190437 0.26607466 -0.06508012 -0.31032854 -0.09660849 -0.38184693 0.23045833 0.8200373 0.5590473 -0.21374616 -0.43069255 -0.9254129 0.065856636 0.20014863 0.6239605 1.1282194 0.47019887 -0.6701294 1.75937 -0.29611006 0.9498746 0.09916285 0.89466304 0.013616487 -0.9895594 -0.37733158 -0.46917653 -0.37470675 -1.4021598 -0.016920913
1538 0.03697057 -0.1408561 0.48790458 0.5256415 -0.03315634 -0.62420285 -1.2618065 -0.3659672 -0.76074874 0.91088057 1.5262909 -0.06840022 0.035977706 -0.03865028 -0.41851935 1.0237098 0.2085224 -0.29969835 -0.157714 1.1123437 0.19723308 0.21318944 0.10023549 -1.428137 -0.29695365 -0.52749115 -0.13279629 2.0998824 0.67976695 -0.2199689 -0.5485562 -0.6904581 -0.25401855 1.3474873 -0.8008766 -0.26823422 -0.044010792 -0.48987728 -0.4990893 -0.2911298 0.6639216 1.0238495 0.7557693 -1.0369513 -0.041987196 -0.0173026 0.23528503 -0.23184673 -0.54475415 -0.8033753 -0.9135441 0.25127238 0.4945601 0.2251987 0.63544506 -0.88484937 0.8049896 0.2954694 -0.42864355 -0.30935967 -0.24181536 0.7400382 -0.111112595 -1.177819
2199 0.6810253 -0.3246694 0.9242228 -0.16507898 -0.64005435 -0.48424578 -0.20477206 -0.4857588 -0.10837049 0.14794551 -0.43884572 0.7489762 1.2353001 -0.84331495 -0.55867475 0.49005353 -0.46011668 -0.71432406 -0.61135685 0.4473018 1.4581857 -0.7628385 0.33224747 0.18179609 -0.4740555 -0.30548945 0.5078978 0.49483916 0.40684173 1.3373339 0.7370619 -0.4793253 -1.1215014 -0.72440934 -0.17861113 -0.368105 0.23806544 -0.81101054 -1.3471245 -0.26623076 0.31699115 -0.8202147 -0.17497128 0.10691633 0.58808434 0.08134006 1.3212614 -0.40791264 0.5166945 0.17705551 -0.09964835 0.3115364 0.80501515 0.34034517 -0.121114925 -0.81073385 0.4997567 0.6953494 -0.40156752 1.2167813 -0.5469658 -0.13242318 -0.6109127 -0.02342215
2326 0.73949176 0.07721623 -0.8644079 -0.9573498 -0.037860207 -0.023823377 0.05579128 -0.66147643 -0.5682753 -0.12520675 0.3959518 -0.3047906 -0.51008654 -0.5298305 0.111565456 -0.18952075 -0.41714373 0.24667804 0.4313864 0.5084066 -0.6869164 0.656684 0.0015425656 -0.14210717 -0.75242245 0.2789057 -0.7883747 0.54949516 0.20854548 0.21217184 -0.5551963 -0.29647064 -0.040322416 0.7317286 -0.6562586 0.61660403 0.6041193 0.037655555 0.63396305 0.22679946 0.90501434 -0.24271189 -0.6582012 -0.29208004 -0.53780633 0.20594493 0.5511003 -1.3284533 -0.21001257 0.23170531 0.96780473 -0.6235384 0.53489345 0.7899549 0.27951342 -0.7061966 -0.2512588 -0.38796428 -0.63171774 -0.11424437 -0.009879723 -0.25845072 -0.18499011 -0.20838445
1072 0.07576415 0.3606093 0.3335731 -0.24176925 0.27590796 -0.5378753 -0.2504025 -0.7891515 -0.43454245 -0.0895479 0.1437543 -0.11573893 0.25417843 -0.022702266 -0.1711453 0.059700124 0.11720651 -0.63440484 -0.7344042 0.6857791 -0.029858964 0.71949136 -0.5507449 0.0017391974 -0.29295832 -0.4248628 -0.80450827 0.1499368 0.1661419 -0.20262611 -0.15221302 -0.4127653 -0.034919072 -0.26628116 -0.2337423 0.7585957 -0.7193098 0.038108405 0.3549899 -0.27895007 -0.09118459 0.26314738 -0.49310812 0.32150352 -0.32015416 -0.5146513 0.2873003 -1.3154957 0.11684247 -0.073856674 0.31720552 0.33794633 0.25745764 0.14045143 -0.14617103 0.6461041 0.04626034 0.29027855 -0.5439413 -0.33397838 -0.24320921 0.35638088 -0.5887172 0.39312187
2425 -0.17860226 -0.96645033 -0.11179369 -0.86192083 -0.7667247 0.6451454 -0.20390782 -0.3229327 -1.3921088 -0.48974937 1.5588695 0.99886256 1.1116458 -0.46463788 0.28515333 1.636247 0.15290767 0.49047753 -0.77341 1.2137843 0.26556122 -0.10525037 0.236854 -0.015199137 0.91960204 -0.39453447 -1.1197326 -0.006533878 0.7877184 0.24227288 -0.4150573 0.40634885 -0.52752733 1.3238786 -1.0623164 0.5995586 0.6008648 0.58969975 -0.41794118 -0.1409501 0.3119939 0.67310226 0.26611808 0.027531609 -0.012819301 0.6156673 1.0640494 -0.7459027 0.54410905 -1.169674 0.436569 0.5390177 -0.19380386 0.38115957 -0.20220254 -0.12697378 0.20433041 0.05066067 -0.42026278 -0.86305517 -0.4600557 0.45468095 -0.5819683 -0.18949452
2495 0.6793759 0.23912792 0.28414196 -0.35537001 -0.5581161 0.0379595 0.14295019 -0.8722918 -0.4202839 -0.031574946 1.0445313 0.08772491 0.39948863 -0.44690192 0.4123833 0.23970956 -0.6551488 -0.3591696 0.6154831 0.3771492 0.8765465 0.0019855034 0.3135253 -0.9166195 -0.09083254 -0.6805333 -0.37894368 0.012222415 0.7140925 1.1545024 0.46567583 0.08580678 0.06436304 0.12116989 -0.67383593 -0.013563787 0.76224345 0.16329631 -1.0793496 -0.35980862 0.49880293 0.5196533 0.25911862 -0.46717462 0.39124933 -0.60753846 -0.1486261 0.31771278 0.40133855 1.4413823 -0.06556322 0.75672925 -0.03633148 -0.3402581 0.20807554 0.104716554 0.9588265 0.25024316 -1.2324032 -0.52688575 -0.81256884 -0.009754499 0.004382235 -0.63042146
1828 0.21865244 -0.5123318 0.7742084 -0.32303482 0.2031711 -0.2967062 0.030946735 -0.43586853 0.36864635 -0.4953718 0.1386873 0.5975183 0.7795829 -0.022320975 0.71442354 1.5118046 -0.33522785 -0.013402452 -0.46090853 1.1239647 0.773685 -0.548018 0.26392666 -0.39470047 0.2769551 0.116693884 -0.19288135 -0.041895054 1.0778136 0.22866973 -0.6097908 0.009264284 -0.69073856 -0.23623411 -1.1346011 0.781742 0.5062687 -0.3480689 -0.5242459 0.34610575 -0.3604844 -0.08091039 -0.093736246 0.84865093 0.3662138 0.06312322 -0.677594 -1.0148392 0.3170002 -0.40611196 -0.55504835 0.67331415 0.71635866 0.6792415 -0.2039036 0.39200473 -0.6446766 0.049113557 -0.6318154 -0.36170697 -0.8378299 0.22220504 -0.14475681 -0.50844336
2466 0.5580979 0.42197275 0.62403595 -0.098039724 -0.7182991 -0.19783416 -0.24943836 -1.1633916 0.13432436 -0.6812065 0.27542537 0.3806389 0.94699544 -0.60087466 -0.96118087 -0.22867066 0.4002824 -0.7399994 -0.030541359 0.15309225 0.6520049 0.010773399 0.099857405 -0.91103387 0.49988145 -1.0621866 -0.4891498 0.26684177 0.44550118 0.5350572 -0.045234296 -0.16258451 0.14067763 -0.55911195 -0.18484105 -0.16729055 -0.36736992 -1.2738726 0.36179322 -0.31973606 0.972807 -0.58628327 -0.43433157 0.2148837 -0.09704912 -0.5100137 -0.07101652 -0.36244476 -0.008432846 -0.7369501 -0.32278708 0.271484 0.24968578 0.650414 -0.3307284 -0.6952487 -0.071996816 -0.28248182 -0.10957953 0.32947588 -0.67066395 0.37151456 -0.076455645 0.21458837
1829 0.5222792 -0.5933012 1.4704372 -0.093316 -0.024733115 -0.7477614 -0.19908002 -1.113184 0.96781105 -0.4040781 -0.72616816 0.3578517 0.6916291 0.08204465 0.7206686 0.67973065 -0.30178374 0.001883908 -1.3259132 1.0767426 -0.08740419 -0.16901447 0.08015401 -0.98502207 -0.27006948 0.14569293 -0.5829102 -0.38532087 1.6590585 -0.2222775 -0.31319466 0.01465699 -0.51351196 -0.20815967 -0.97892183 0.42246002 0.30843458 -0.27701578 -1.0608298 0.18297566 -0.37829316 0.66430813 0.09834805 0.067593046 0.98579377 -0.49329823 -0.52539253 -1.0932776 0.745642 0.6242879 -0.7032346 1.1152488 0.49010354 0.42764765 0.45322782 0.9758255 -0.0048429943 -0.11140575 -1.0955629 -0.2642269 -0.79453284 -0.13278562 -0.26349965 -0.6320939
2357 0.80423146 -0.30298534 0.15900214 0.0029691674 0.550371 -0.2215757 -0.37781605 0.22081728 -0.15101352 -0.24296007 0.4341405 0.16429389 0.3934811 -0.6723588 1.033113 0.3468607 -0.8182182 0.05979197 0.70447075 1.2266861 0.45563704 -0.36170048 0.12502573 -0.973418 0.09618454 0.3495481 -0.17807461 0.021229915 0.7240441 0.42973343 0.38966814 0.34163877 -0.8377696 -0.8227206 0.22768325 0.29531467 0.6814356 0.70190346 -0.63109547 -0.011036875 0.42279333 0.8548238 0.110807896 -0.14634988 0.48115215 -0.124024 -0.65287465 -1.0289702 0.037270144 0.3923597 -0.2553091 0.50641036 1.0382295 0.41471356 0.708812 -0.005640427 0.24534489 -0.090692095 -0.29578397 0.232247 -0.032733843 -0.35271206 -0.9371017 -0.82424027
2233 -0.10256812 -0.5953508 0.124672376 -0.6671004 -1.0509272 -0.5247268 -0.55140346 -0.20643464 -0.2968982 -0.7116331 0.68165416 0.3891927 0.2615941 -0.9853286 0.43576944 -0.40029967 0.08135947 0.057303663 -0.313505 0.22679704 -1.4495255 -0.33359382 0.029795023 -1.0620975 0.07874067 -0.11999656 -1.0692763 -0.37257153 1.1244735 -0.03693702 -0.2913402 -0.53532124 -0.8136707 0.5470077 -1.2051326 0.49465448 1.0158625 -0.5302309 0.28522816 -0.30229786 0.6457246 1.6809051 -0.08600177 0.6316033 1.2087173 -0.16292103 -0.23086846 -0.42315224 0.30338052 1.1272689 0.3037909 -0.597135 1.3227658 0.6507095 0.5058006 0.20609753 -0.34171665 -0.35230458 -0.70222163 0.17102212 -0.34727362 0.103630826 -1.012935 0.49827746
1413 1.4069313 -0.9390905 0.15669982 0.6583589 0.48522344 0.2978618 0.5997983 -0.8201717 -1.1481925 -0.49290657 0.37007007 0.0086849835 -0.10756573 -1.267114 -0.45852616 0.43083987 -0.1387161 -0.4353037 -0.7507744 0.58268446 0.59857464 0.6637175 0.22728199 -0.41171676 -0.22621703 0.46415064 -0.15936235 0.6029455 -0.020098541 -0.02394647 -1.8161654 -0.13252328 -0.016398564 -0.5482112 0.041557774 0.39522746 0.33024466 -0.22431158 -1.0552061 0.44946003 0.43176436 -0.2474573 -0.27624753 -0.8512621 0.718629 -0.49521676 0.47740707 -0.28763255 0.8212998 1.1230296 -0.03582183 -0.973628 0.3705872 0.06326836 -0.21889572 -0.37673038 -0.019436432 -0.057287723 -0.58821523 -1.2303194 -0.013929865 0.2639062 -0.26437834 -0.87205255
2324 0.03870675 0.80463684 0.37323987 0.27017227 -0.039740518 -0.4358462 -0.96239316 -0.5950983 -0.17879327 0.09980657 0.58943164 -0.51434875 0.0832408 -0.79221344 0.07471436 0.0023766013 -0.86846685 -0.07919069 -0.12524416 0.4513671 -0.22685672 0.78695697 0.050950505 -0.16090274 -0.45477733 -0.03588059 -1.6045192 1.200694 -0.3585595 0.31320482 -0.5240953 -0.72456795 -0.12515947 0.24851397 -0.41779673 -1.1856421 0.027088024 -0.16323388 0.3844029 0.19675022 0.48102397 0.34546357 0.13594857 -0.85919166 0.015973492 -0.20812637 0.008644227 -0.28343266 0.15378056 -0.55447304 0.12196375 -0.24346283 -0.42584255 0.030322827 0.21150057 0.6783656 0.9179865 -0.24382584 -0.40509152 0.121022284 -0.659887 -0.5980329 -0.15545423 -0.6965613
2476 -0.1275847 0.110078 -0.0141946925 -0.20357041 -0.014250417 -0.31983522 -0.16385336 0.20711274 -1.075953 -0.71995324 0.7120974 -0.39609897 -0.5197288 -0.7789192 -0.5433825 -0.43829173 0.7893395 -0.990573 -0.94128305 0.9893687 -0.17619394 0.9235102 -0.3549762 -1.3819337 -0.5636807 -0.011709526 -0.83232427 1.1162957 0.12565978 0.15413497 -0.2040874 -0.27451882 -0.028373867 0.064987145 -1.0186553 -0.4997545 -0.14045294 -1.323649 0.7337315 0.8393678 0.9932029 1.081307 0.027355278 0.12493278 0.5440853 0.16395664 -0.011361235 -0.2877577 0.64704216 -0.46848583 -0.02327015 -0.5749915 0.6646154 0.32214433 0.1594601 0.7241044 0.3962292 0.3461178 -0.30327064 -0.21949765 -0.258329 0.31356493 -0.4918511 0.4756177
