2707 64
1358 0.4550997 0.656957 0.269997 0.20339866 -0.68372446 -0.09420863 0.45170254 -0.020547347 -0.28674814 0.44811392 -0.74818593 -0.8193534 0.08683377 -0.78395826 -0.25973937 -0.22106662 -0.35714456 0.35338417 0.41164666 -1.0607967 -0.7417102 0.71843106 -1.0212628 -0.384563 -0.016127607 0.7750565 -1.1864161 0.08545423 -0.32660803 -0.25651288 -1.1207048 0.3601137 0.5378351 0.04812952 0.31373942 -0.31286445 -0.67981404 0.07656397 0.11414716 -0.12254199 -0.25162145 -1.1237231 -1.0683774 0.20311019 -0.13269442 -0.8632838 -0.79308003 -0.85153806 -0.24620882 0.01706929 0.40311593 1.097311 -0.614357 0.78685397 -0.9044942 -1.2436162 0.5687923 0.31218612 0.7406818 1.2048312 -0.024903135 -0.89950454 -0.31840673 0.26908153
1701 0.45597032 -0.23201 -0.0028664852 -0.44819668 0.47899467 -0.7329021 0.49448764 1.3539793 -0.5960846 -0.631346 0.5608017 -0.90786034 1.0168576 -0.41548765 -0.16285983 -0.5426775 -1.8879387 0.24436592 0.19697575 0.4037987 0.71490717 0.4867789 0.6376872 0.20125683 0.007979245 1.8973078 -0.50267696 -0.022279572 -0.14199066 -0.16321112 0.27155122 0.07280287 -0.35362586 -1.453405 -0.5000796 0.7623968 -0.44683087 0.19525513 0.3294937 -0.5080123 0.6519166 -0.33705065 1.1103271 0.113826364 0.27330533 0.49376985 0.50368047 -0.24697027 0.6974375 0.76554924 0.70377445 0.63240075 0.38579005 1.10843 0.26585692 -1.3451658 1.5371696 -0.56321245 -0.09093728 -0.26577044 1.2184881 0.9331807 0.046164162 1.4837481
1986 0.5140505 1.1473682 0.77132946 -1.0675611 -0.3607347 -1.2299668 0.95898736 0.16694109 -0.4429304 0.8858794 0.4740571 -0.107181214 -0.2409418 -0.033552587 -1.3703564 0.17075254 -0.973678 1.0185462 1.2188603 0.08696036 0.5753366 0.27075726 0.6548919 -1.076287 -0.22100104 0.9686641 -0.48954338 0.020896256 0.8141236 0.4989653 0.6701305 0.4637195 0.24925013 -1.160864 -0.30826074 1.0809277 1.0807115 -0.00908116 0.6637922 -0.89443266 0.9472933 0.72292227 0.08517851 -0.2750074 -0.12394524 0.46148494 0.2862723 -0.25577554 -0.10029233 0.5831752 1.2480733 0.36842018 -0.5567359 -0.2211674 0.1358801 -1.0717617 0.91480076 0.43463418 -0.041908417 0.645341 0.4715962 0.6471924 0.64791155 0.5256183
2034 0.14201319 0.76160055 -0.42962104 0.5037056 0.6660743 -0.55908996 0.31513348 -0.13095197 0.78088063 0.47441268 0.15876298 0.7825463 0.67801046 -0.070421256 -0.010008266 -0.34392443 -1.8085736 0.14331648 -0.52968115 0.96779203 -0.15877998 0.53655535 0.39006993 -1.2187055 0.26408198 0.17470683 -1.8735123 0.65135515 -0.37248 0.53147507 -0.0076979036 -0.9731777 0.08900445 -0.9310594 0.40941995 0.93486816 0.22140881 -0.79345506 -0.025836797 0.26958692 -1.0006173 0.31468362 -0.0042261607 1.4064643 1.1880176 0.52123433 0.46427786 0.87459904 0.45407617 -0.19631253 -0.025228633 1.0973114 -0.604845 0.36336812 -0.63161325 -0.99489176 -0.46149892 -0.5022016 -0.93499166 -0.53229755 -0.47575188 0.3016896 -1.1500791 0.15395764
1810 -0.31087765 0.47390428 -0.23142049 -0.11091091 0.15586644 -0.065813825 1.3456296 -0.11541109 -1.7499214 0.9591204 0.28281528 -0.9261737 0.35880366 0.25409067 -0.3131161 0.7193546 0.597369 -0.67731804 -0.16153994 2.1658447 0.3081881 1.4373648 -0.49407104 -0.23260409 -0.1687504 -0.55292535 -1.5196439 0.5761186 0.36666074 -0.5006888 0.056171216 -0.6395775 0.7449123 -1.7515042 0.3753536 0.9665227 -0.13050562 0.01625941 0.8167141 0.90723175 0.31518367 0.06521789 -0.4389558 0.47808927 0.46056613 1.453684 0.13949107 0.006573428 -0.80464214 -0.31632093 -0.019113788 0.9316332 0.37961203 -0.28447118 0.5502795 0.55578995 1.1194994 -0.25092945 -1.0267235 -0.23413806 0.61226237 0.5455731 -0.2515835 0.57928973
2045 0.29770523 -0.29957 1.3172352 -0.14624773 -0.32160228 -0.70751417 0.4331677 0.80506533 -0.10205086 -0.2529265 0.32806048 -1.1299382 -0.5277677 -0.45105842 1.1969944 -0.42210263 0.00031453258 -0.22880271 -0.5108887 0.3154583 0.22713843 1.7365135 -1.1330564 -0.7449601 1.0832772 1.2585949 0.028267862 -0.17248636 0.12620756 0.073280156 0.7943134 0.3672994 -0.2341985 -1.3703456 -0.48127216 1.0062261 -0.435019 0.9970797 -0.21668565 -0.8602085 0.30038437 0.1304797 -0.050997883 0.21871871 1.051014 0.2568145 -0.41477886 0.3695367 0.77920187 0.5557713 0.41038927 0.45007306 -1.0328792 0.022950541 -0.1767793 -1.2478912 0.003869036 0.017203465 -0.99397594 0.3613907 -0.16488211 0.87530035 0.4198062 0.64616305
2249 0.031216415 0.9683388 0.45974383 0.7417989 0.31032303 -0.82685596 0.39800778 -0.9444059 0.29172918 -0.22568147 0.09408631 0.99365956 0.20939234 -1.2209282 -0.882391 -0.28120002 -1.6904657 -0.4349111 -0.17239846 -0.43822032 -0.14636886 1.3135822 -0.09697367 -0.4510923 0.27221334 0.47369033 -1.2093084 0.39295653 -0.27032757 0.12723136 0.57640857 0.28937754 0.32144827 -0.051269066 1.1904143 1.213182 -1.093605 0.17736933 0.3330607 1.1365248 0.19665563 0.57598567 -0.5384458 1.6588392 -0.15500896 0.21584603 -0.94680387 1.0856746 -0.5937585 0.22508608 0.19105378 1.2393656 0.8154181 0.5644918 0.13946275 -0.16918017 0.24993716 0.11215855 -1.5522988 0.44460186 0.5169398 -1.2444363 0.077757575 0.9649253
1623 0.4946085 -0.9382414 0.17396691 -0.6581029 0.78246695 -0.63089794 0.18750915 -0.9075452 -0.3304909 0.48733798 0.06374609 0.12942189 0.6862998 -0.6463485 0.50886655 -0.039423212 -0.14162843 -1.5759432 0.4732647 0.49290153 -1.004323 1.5393244 -1.4998057 -0.4490928 0.20742999 0.73810506 -0.47391626 0.6326766 0.785099 0.6864693 1.3980248 -0.25636283 -0.40152463 -0.8006611 1.020811 0.83826315 -0.29831347 -0.07706815 0.69659954 0.18606624 1.0945376 -0.33204997 -0.13638417 0.6667707 1.0630902 -0.5118529 1.1861798 -0.43839642 0.051193457 1.7316222 0.9251318 0.15558393 -0.04550109 -0.6432799 0.026935454 -0.13514824 -0.8465919 -1.2418505 0.09275203 0.36453825 0.23895387 0.26012242 -0.4452417 0.79358894
1914 0.07657006 -0.68131304 -1.5022991 -1.494695 -0.6121098 -0.65484565 0.54903495 -0.08352404 -0.4024279 -0.02429337 0.1551878 0.52249473 -0.4008674 -1.1822256 -0.2501204 -0.14465009 -1.1119089 -0.28288728 -0.31635854 0.21491094 -0.9305428 0.07064151 -0.73905265 -0.64498967 -0.6999317 0.41623804 0.25331044 -1.0962563 -1.0763398 -0.53983456 -0.6865796 0.60417247 0.8390674 -0.6931219 0.50726813 0.82539827 -0.99644005 -1.11389 0.5045756 0.17160948 0.6012443 0.37736323 -0.69787896 -0.054736592 2.2604504 -0.75046194 -0.49022916 -0.0731587 0.71113795 0.6043345 1.1904886 -0.21313305 -0.5812454 -0.08829487 0.22315468 1.2480794 0.05805537 -1.4418623 -0.76990145 0.16629761 -0.21034528 0.5710707 -0.80254245 -0.40042406
2130 0.0899447 0.862584 0.31479555 0.68724114 0.7281948 -0.7575675 0.121902816 -0.76657623 0.5031768 -0.2747861 -0.47494906 0.9282814 0.161509 -1.2490175 -0.023453917 -0.60593176 -2.0696263 -0.18821847 -0.4194836 0.10164612 0.45809898 1.5268893 -0.08693693 -0.570003 0.44196504 1.2805141 -1.6060128 0.8076381 -0.10975547 0.16125733 0.22692889 0.21615905 0.03260651 -0.3110298 1.1205654 1.2351137 -0.50668174 0.3277868 0.5981972 0.9681897 -0.07101962 0.49112692 -0.45095912 1.6577476 0.15058632 0.61931944 -0.6037297 1.0492095 0.66844106 -0.16554163 0.31210592 1.0950878 0.46495813 0.17501299 -0.15651743 0.34709784 0.024965955 0.009658275 -1.6671933 0.11499969 0.049477246 -0.7375977 -0.40475214 0.5264146
1765 0.74852693 -0.18288988 0.4434072 -0.3932423 0.4070516 0.2243668 0.10255451 -1.5341562 0.3198345 1.7796667 -0.41753274 -0.895517 -0.82349885 -0.71150184 -1.2671069 -0.352859 -0.17607589 -0.8410441 -0.6084386 -1.3964758 0.017768076 1.1944777 -0.47624093 -0.27704355 -0.5715656 0.31279248 -1.692422 -0.19567285 -1.2962459 -0.121140614 -0.5931828 1.110266 0.26267415 -0.62809926 0.44565615 -0.14363186 -0.53382826 0.14445864 1.0329235 0.07362734 0.65081584 0.36646432 -0.54908705 0.19637534 0.3545739 -0.9772039 0.3372104 -1.309592 -0.293792 0.81912726 -0.45897672 1.0469682 0.17484029 0.29555142 -0.8956818 -0.6984547 0.9037527 0.67715865 0.28406626 1.1128724 -0.31161335 -1.1045704 -0.5873045 0.4420767
2451 -0.059569698 0.94107205 -0.77971804 -0.72908086 0.1946829 -1.6529065 0.37022895 -0.71648914 0.65294105 0.34310192 -0.97175807 0.060040936 0.22387347 -0.108384684 -0.7006062 -0.6460679 0.2015591 0.074626744 1.07489 0.16251387 0.17775258 1.1310031 -0.71262467 0.36065972 -0.3030501 1.3232603 -0.5784621 0.15539597 -0.095035315 -0.8644682 -1.270513 0.78722095 0.3806492 0.6481 -0.8435544 0.48861918 0.44969162 -0.124531426 -0.23430751 1.0695575 -0.43279052 -1.0956206 -0.5881204 0.49304587 0.7206569 -0.68544525 -0.62742025 0.57409763 0.2281517 1.0006206 0.37912887 1.4953415 0.5230169 -0.010871877 -0.037564423 0.1282768 0.039146055 -0.93309677 0.11370467 1.8317233 -0.37971684 1.3056988 0.29643217 1.2502701
2182 0.041593187 -0.4293932 1.1770529 0.12248529 0.5974825 -0.24003804 0.516257 0.036110207 -1.1928337 -0.52064085 0.9417917 -0.9297952 -0.5713327 0.47113022 -0.8895804 -0.5483511 0.5637557 0.58179975 -0.0010980188 -1.1273562 0.095709436 2.9034317 -0.04845358 -0.12875636 -0.4684374 1.2950934 -0.3196189 -0.32313398 -0.92219895 -0.2151942 0.017366402 0.3397293 0.221376 -0.8826585 0.49777406 0.7325626 0.412773 -0.24335504 0.19976203 -1.0043765 -0.65854394 -0.25280812 0.4729645 1.2034453 1.462271 -0.61945814 -0.35938507 0.08085408 -0.7747044 0.07694382 -0.2417268 0.222539 0.52325445 0.6737399 0.23973262 0.9913177 0.035937633 -0.97185045 -0.07357544 0.26037693 -0.3428991 -0.2438824 -0.13724232 0.8096277
2248 -0.295591 0.77392983 1.0831256 0.5072945 -0.2794343 -1.3896272 0.6824226 -1.4568253 -0.18506905 0.0106141465 0.63782495 0.5725335 0.24774739 -1.3965001 -1.2819139 -0.24082455 -1.0382614 -0.57395315 -0.0023151354 -0.8022545 -0.6011196 1.2286072 -0.2816528 0.14458378 0.4750335 0.0055693127 -0.43559045 -0.15902698 -0.57566833 -0.36980796 0.6232806 0.7323628 0.84864783 0.27768964 0.7136368 1.2446437 -1.4906687 0.14933048 -0.064868 1.4274008 0.25248435 0.35168418 -0.7952142 1.4804965 0.030368378 -0.0654724 -1.298681 0.57870805 -1.533254 0.71089906 0.39518234 1.0911735 0.8085943 1.1342252 0.15612242 -0.40552852 0.43918934 0.040259045 -0.79833 0.65369487 0.3983566 -0.80136657 -0.21467365 0.6139276
2168 1.0508592 0.5199526 -0.09951185 -1.1623998 -0.10828275 -0.9897711 -0.23474808 0.18115003 -0.86283374 0.17972393 -0.7897296 0.40936437 1.0779667 -0.7696497 -0.501041 0.0510763 -0.1608969 0.44817987 0.8012567 -0.7577226 -0.72773534 0.638359 -0.61709666 -0.5045308 -0.5636189 0.7356734 -0.45787913 0.55353576 1.3026624 -0.9164548 -0.54187226 0.31585413 0.60615456 -0.82348377 0.54053044 0.32878911 -0.7852116 1.4072217 0.11816888 0.5305043 0.3448129 -0.4620947 -0.0841047 1.4289069 1.0128424 -0.5829411 -1.0504682 0.45720714 -1.0639265 0.9172325 -0.4926308 1.5557308 0.36587733 0.10659684 -0.14175276 0.36189026 1.3211304 -0.13515416 0.03183181 -0.058273546 -0.31805864 -1.1439675 -0.37047833 0.2088405
2671 0.43278506 1.0748281 0.54469824 -0.33606085 0.32288212 -0.47234112 0.89442486 -1.5906919 0.21871321 -0.021490406 0.5839272 0.22652642 0.07396752 -1.0556364 -0.9664918 -0.063782215 -1.1256813 0.0037517645 -0.23197383 0.3385662 0.5029918 1.2944852 -0.37307423 0.056995615 0.49694616 0.7269124 -1.0396192 -0.16956554 0.34888932 0.10362094 0.2421392 0.5056738 0.50773966 0.10474382 1.4308162 0.5189574 -1.0272081 0.73611736 1.2342944 1.3399351 0.48967373 -0.2083824 -1.1584516 1.5370561 -0.70729774 -0.19846985 -1.1649507 1.289308 -0.5208878 0.35710987 0.20641989 0.30622104 0.6226089 0.8929909 -0.130713 -0.26449692 0.49033946 -0.5105795 -1.3346466 0.7570069 1.0017368 -0.41782898 -0.21759234 0.39681664
1902 -0.5999421 -0.6663811 0.34145036 -0.5331223 0.17732696 -0.8587232 0.8533582 0.01424588 -0.47628137 0.00012452799 0.7697786 -0.17199583 0.5695851 -0.1438428 -0.29036814 -0.19356138 -0.27462244 -0.39077976 0.19777203 -0.54854006 0.7736142 1.581232 0.5015847 -1.0840338 -0.75844204 0.36049265 -0.15762234 -0.1959894 -0.9658791 0.09924065 -0.31570607 1.8081692 1.3695941 0.14504029 -0.004717019 0.34229067 0.09715806 -0.53962684 -1.742168 0.3735951 -0.6385184 -0.084449664 -0.49587655 0.42364565 1.057145 0.90196574 1.3133761 1.2663112 0.37310833 -0.10771589 -0.050573442 1.3263859 0.07773261 -0.34419104 -0.10732924 -0.7646109 0.63047165 -0.1915464 0.010271488 1.216371 -1.3813951 0.8933469 0.99321115 1.1571873
2367 1.0482391 -0.90740645 -0.07521272 -0.9470474 -1.407732 0.1521783 1.5950105 0.47795215 -0.77547824 0.6790849 -1.1681355 -0.51101154 0.837129 -0.14749436 -0.81876475 -0.23924248 -0.26494554 -0.4185822 0.5194826 0.6691723 -0.79955167 0.69014186 0.6234434 -1.1644062 -1.2870183 -0.08747995 -1.2537789 -0.08359166 -0.12663102 -0.059134398 -0.31610954 0.49321833 0.6227812 -0.78556067 -1.2248727 -0.08018395 -0.36749464 0.5435503 0.8210658 -0.72629035 0.65425676 -0.2892599 -0.50643 -0.3171612 1.2609782 -0.7574728 1.4780064 0.9903116 0.57924134 0.34014294 0.09743928 0.6046001 0.30090612 0.1697087 -1.1890681 0.51997817 0.6060852 -2.0497794 0.80625963 0.7169014 -0.7697497 0.5079752 0.9293159 1.3296516
2492 0.8314007 0.018517548 0.06628406 -1.0439548 0.37411287 0.350958 -0.17792836 -0.92055315 0.13447215 1.4351544 -0.08313695 -1.0345371 -0.72164756 -0.65645546 -0.6897037 -0.49727455 -0.46255416 -0.62012196 -0.8134377 -1.0019033 0.1686576 1.2574914 -0.34261945 -0.16221608 -0.77659 0.7198117 -1.5391648 -0.4538888 -1.2167794 0.43321404 -0.9431251 0.8567709 0.39802498 -0.028235864 -0.09281499 0.014432865 -0.29537186 0.1879921 0.23280212 -0.18621269 0.37021706 0.35896823 -0.55703735 0.30816782 0.45387572 -0.3069011 0.22801019 -1.2513041 0.02668743 0.6808475 -0.21072279 0.6085488 0.24282871 0.2510012 -0.6069525 -0.7063552 1.0268531 0.59321666 -0.031115271 0.91240984 -0.5580296 -0.83473647 -1.0618339 0.46543127
1441 0.5954194 0.8857139 -1.1655301 -0.70348084 0.3024838 -0.5585337 0.1958949 -1.0781907 0.72051936 0.38513994 -0.9577041 1.419423 1.5154535 0.59035605 0.15439957 0.57104117 -0.030276949 -2.5540738 -0.3890038 -1.1906327 1.8920637 1.0320214 -1.386723 -1.0006324 -0.91349894 -0.37749448 -1.063702 0.016333321 0.3188502 0.48471302 -0.025047002 0.9230845 0.1547181 -0.09594654 -0.27758262 0.22370635 -0.16224547 0.2650155 0.47759208 0.13353804 0.4688468 1.1030824 0.5448576 2.1312485 0.4000307 0.07398413 0.23239526 0.17092556 0.6463243 0.038686622 1.0291804 0.3352342 -0.49710694 0.024889108 -0.020653583 -0.44753423 0.60514534 -0.23681688 0.21154402 0.42792177 0.27705216 1.0414276 -0.21137986 0.1320157
2291 0.16619165 0.6727003 -0.36393422 0.94592756 0.805532 -0.488062 0.99235535 -0.4995198 -0.23088223 0.24298185 0.55794007 -0.6116395 -0.543073 0.4105899 -1.1283106 -0.8274992 -0.23305699 0.0025630875 -0.28609157 0.36172768 -0.9971687 2.8135557 -0.043936614 0.12611364 -0.55072016 1.0286409 -0.011611282 0.13122976 -1.9464312 -0.74421096 -0.5221388 0.8750156 -0.6437782 -0.5865939 0.6378535 0.45641574 -0.107789375 -1.1041274 -0.4951864 -0.22607952 0.5024997 0.0010586247 0.22684683 0.086987 1.0499212 -0.17058969 -0.29890946 0.63268065 -0.6603015 0.15347879 1.1374407 1.020791 0.80023086 0.26767138 0.6466974 -0.7758482 -0.25208685 0.5881903 -0.14916076 -0.14093734 -0.9273569 0.12957473 -0.4166057 0.7643818
1950 -0.18322563 0.61615914 -0.6681247 -1.0188923 0.0107896235 -0.72689444 0.48265636 0.55111545 -0.50470066 -0.0037513704 0.17425549 -0.9534821 1.1318957 -0.36176693 -0.7032619 0.16109806 0.4184407 1.1382437 -0.12826684 0.48692936 0.6819665 1.0194603 -0.09422923 0.12587588 0.21572666 -0.329112 -0.34463757 0.5667478 -1.1364617 -0.5935371 0.39858273 1.0485967 1.3019594 -0.8588947 1.000719 0.6216476 0.37702197 -0.21557026 0.18540438 0.47594005 1.1820413 -1.2139072 -0.54608345 1.0424283 0.106592365 0.3419163 0.3569065 -0.03729706 0.00051855075 0.22336747 0.073364966 0.3816515 0.09209587 0.45491084 0.5502624 0.1580663 1.487832 -1.1498036 -0.79656094 0.034331296 0.5072696 -0.76440114 0.10527117 0.97044325
2123 0.59558487 0.1588215 0.9117814 -0.81647265 -0.14355984 0.19716357 1.7669066 0.68114465 0.30289745 1.4840885 1.1426585 0.3049506 -0.3366855 -0.24220708 -0.19535892 -0.037721682 -0.5216661 0.750053 0.8784926 0.72771937 0.27735665 0.57920116 0.09231418 -0.7984719 -0.59720314 -0.1682203 -0.76464045 -0.21523044 0.45185518 -0.14402552 -0.2917436 -0.07504434 0.37595817 -0.7601045 -0.13564031 0.26845738 -0.1747735 0.47932187 0.82114327 -0.2728231 -0.29177868 0.085436665 0.5445127 1.4739319 1.8344069 -0.2758409 0.25557157 0.20331345 0.19889471 1.1421201 0.33341092 -0.011149038 -0.44015768 -0.09195443 -1.1258563 -0.22630815 0.99390465 -0.25011235 -0.3417211 -0.29578054 0.96267337 -0.47749618 0.23918961 -0.015896121
2450 1.4104713 0.5757737 -0.1898236 -0.88965994 -0.36250246 0.08396354 -0.59060174 -0.7182497 -0.48360023 0.43856582 0.27937454 -0.5435568 0.7728554 0.43440986 -0.63348067 -0.43843478 -0.28745958 0.050591763 0.7077242 -0.12546693 -0.9257161 0.5074572 -1.4352938 -0.42415404 0.19699846 1.1226636 -0.95046276 0.7323268 -0.3078685 -0.45620832 -0.56192446 0.44609085 0.7120275 -0.45077947 0.8129012 -0.46815342 -0.73838365 0.5915606 0.29951897 -0.5334532 1.1653022 -0.09410966 -0.54030704 1.286006 -0.76906085 0.10061948 -0.6986795 0.61466926 0.33422256 0.18150122 -0.68503225 0.7215782 -1.1635878 0.58553684 -0.3728819 0.9952895 0.12674357 -0.9030914 -0.2981332 0.7609145 -0.43845993 0.047627643 0.40094793 0.59506136
2452 -0.32017684 0.9483764 -0.50570136 -0.7128122 0.09424091 -1.7405733 0.29961115 -0.46628162 0.46230686 0.26851827 -0.89087534 -0.09900685 0.24302524 0.009595809 -0.9725276 -0.77434754 0.21553448 -0.052781127 0.99616927 0.44766343 0.12737988 1.3307956 -0.930891 0.27602795 -0.27647358 1.8453616 -0.5003584 0.30633113 -0.039481647 -1.0233259 -1.1850036 0.6858889 0.40188086 0.5508871 -0.8146902 0.6950734 0.30563968 -0.43128702 0.28934854 1.1259071 -0.3012628 -0.7606944 -0.6706077 0.5218236 0.4105089 -0.48754695 -0.4591756 0.7020709 0.18615986 1.3612652 0.27529985 1.5458982 1.0789889 -0.028496051 -0.24000351 0.032957565 0.07104804 -1.113795 0.11844047 1.5750053 -0.31133458 1.5161049 0.38234693 1.0806184
2685 -0.23962627 0.7863486 -1.0693792 -0.17103992 -0.0698413 -1.7160448 0.0076356027 0.06472213 1.1153406 0.8308922 -0.44574314 -0.33605927 0.55262864 -0.17954114 -0.30751315 -0.24667151 0.66953826 -0.6500436 0.27621913 -0.18170367 -0.13578455 1.0477983 -0.7761182 0.2039584 -0.114112526 1.2126583 -1.3235458 -0.07615845 0.1557486 -0.5882158 -1.402112 0.51475406 0.21839738 0.034947094 -0.728132 0.41728112 0.24673739 -0.090171844 0.3152494 0.90150607 -0.40490925 -1.1646663 -0.3396786 0.7916161 0.43530318 -0.08196424 -0.7567539 -0.035522223 0.5702534 0.6352065 -0.2370201 0.82537156 0.72857887 0.40810046 0.029816333 -0.30043122 0.08983111 -0.73347527 0.36035982 1.2017941 0.21997924 1.0132363 0.28356424 1.104466
2269 -0.55656385 -0.6198391 0.0029832774 -1.7452344 0.6165023 -1.1288259 0.27265993 1.0250154 0.12653485 -0.31446353 0.15510733 -0.07822872 0.76678175 0.080207564 -0.039572172 0.1394277 -0.20931275 -1.4511602 0.031235112 -0.47978035 0.4177595 1.022693 -0.31545794 -1.0740741 -0.16708753 0.4911721 -1.2786497 0.21888627 -0.7489127 0.24017495 0.73995394 1.4709936 1.1313145 0.5025496 -0.8570072 0.9028038 0.24599607 0.6491518 -0.7225965 -0.090412326 0.2607703 0.32176724 -0.9896584 1.3104482 1.2926817 0.35558182 -0.083720095 0.6378043 0.94783634 -0.35314155 0.14648299 0.9878143 0.23377517 -0.40437156 0.30388087 -0.75359166 1.0933914 0.2385892 0.7984088 0.34742668 -0.8655748 1.3160471 0.59916097 0.62896144
1927 0.7423768 0.9946922 -0.2601633 0.58728105 -0.46454528 -0.6723558 1.1449146 0.059366345 -0.38787088 -0.15561907 0.10959693 0.119665235 1.319319 -2.0518627 0.32652342 0.50399923 -1.0642755 -0.061265856 -0.50694853 -0.14551888 0.5172692 1.2837917 0.7017201 -0.61827886 -0.23514457 0.09067561 0.0043930914 -0.5708992 -0.56177926 0.086265594 0.47581625 0.33593062 0.1331291 -0.6716442 -0.1740095 1.3712207 -0.45053512 0.27479523 -0.017241199 0.65881604 0.75869226 -0.08054735 0.22908197 0.19485912 2.1021078 0.29065335 -0.24163122 0.64680564 0.48061293 0.1341236 -1.4777366 1.404017 -0.124673866 -0.07549969 -0.7894769 -0.72525436 0.07942235 -1.2155095 0.4400543 -0.99236673 0.15742348 0.11074685 -0.1827924 0.84841883
2359 0.3191717 0.19426277 -0.034202166 -0.39393696 0.25343361 -1.2911208 1.7575282 -0.12942572 0.8362944 -1.0369687 -0.83724797 1.1959842 0.31755167 -0.35795802 -0.39889276 0.2338381 -0.21722068 0.24589022 1.5395095 -0.40245458 -0.57643425 1.5964293 0.33253017 0.5045907 -0.1777431 0.41037878 -0.3607532 -0.76522267 0.36051652 0.1186454 -0.6973733 0.61948514 0.057601854 -0.83528733 0.35216758 0.5560176 -0.99316955 -0.05910678 1.135935 0.08991244 -0.51235074 -0.21993774 -0.38333076 1.2676537 0.814546 -0.5952606 -0.9482256 -0.98980343 -1.1563146 1.2077792 -0.5016284 1.1371523 0.1479106 -0.23887981 -1.8122216 0.23853952 0.077498965 0.013559137 0.0929855 -0.2048063 -0.034662675 -0.11457634 0.0035669876 0.181175
2122 0.078999974 0.5134258 0.46616712 -0.41659102 -0.11571369 0.5200727 1.7984171 0.9392429 0.22069436 1.6212451 0.60995334 0.26310837 0.13227126 -0.106366195 -0.5542646 -0.009188471 -0.3512471 0.67550844 0.71836823 0.93723947 0.8101057 0.8965016 -0.21522391 -1.1665703 -0.14604835 -0.14811613 -0.70107496 -0.150299 0.2078134 -0.18202032 -0.36935547 -0.056819856 0.06471188 -0.6776658 -0.13779762 0.46996582 -0.2450879 0.8254043 0.64500225 -0.10358526 -1.1264429 0.18276513 0.63348603 1.5494461 1.9638525 0.07142308 0.046919722 0.59342366 0.26243132 0.8070904 0.00067503116 0.12545627 0.40104175 0.42054978 -1.2863635 -0.30870253 0.8386152 -0.7322079 -0.40960157 -0.072903946 0.95514286 -0.60235274 -0.19133891 -0.22732966
1894 -0.014814503 0.29050675 -0.9834012 -1.012599 0.38668752 -0.31063107 0.3033195 0.31868 0.16899362 0.6841599 -0.0053173383 -0.8236743 0.78843135 0.19278297 -1.1826785 -0.4056759 -1.0807211 -0.013482284 -0.11081194 0.32311496 0.4510993 0.8550329 -0.034710836 -0.45641515 -0.36149296 0.45698583 -0.70405865 0.26130557 0.3217392 0.81159467 -0.9593421 0.20183398 -0.29424635 -1.2937902 -0.4781799 -0.16078162 -0.22410765 -0.5636532 0.5797801 0.5654377 -1.3313807 -0.64720315 0.2540032 1.0289938 1.3719085 0.067891486 0.10075486 0.21949163 1.9128473 -0.5995946 -0.5619278 1.3472928 -0.01671574 0.68059826 -0.7582263 -0.7545622 0.6318903 0.09523923 0.19577704 -0.991538 -1.4245763 0.12620434 -0.55139935 -0.17307961
1542 1.3576392 0.6149753 -0.14795944 -0.99922 -0.3583602 -1.0275452 1.1454598 0.45805264 0.028615681 -0.04224807 -0.7964267 -0.28587332 0.35891715 -1.482292 -0.38384086 1.5222971 -1.239229 -0.19915333 1.0084711 0.67734724 0.2943468 1.1771528 -0.117784664 0.13270137 -0.43966672 0.19819653 -0.75656617 -0.036049467 0.25861317 0.2516169 0.19180062 -0.17736493 -1.0963895 -1.9830995 -1.2467147 0.16778772 -0.15141793 -0.549876 0.22823153 -0.6839991 -0.30952775 -0.33028942 -0.9121164 1.0450693 0.50586 -0.44948468 0.115344055 0.039164823 0.23588233 0.46453324 -0.12508541 -0.50906986 1.0946147 0.7681288 0.044544477 0.05021108 1.0135176 -0.07902163 -0.20726357 -0.5383426 0.21957172 -0.7737399 0.6089903 -0.4413588
2270 -0.5039376 -0.59342027 0.4843524 -1.9696966 0.8064278 -0.8639547 0.2681021 0.93594617 0.22974682 -0.31283054 -0.0077978023 0.26632822 0.3394499 -0.37300238 -0.1466222 -0.018903159 -0.49595052 -1.3527876 0.2912922 -0.9060157 0.23747487 1.1928604 -0.31732363 -1.084721 0.08851065 0.34931868 -0.9835736 0.5326877 -0.62781113 0.38405782 0.5922029 1.2979777 1.2198066 0.37176588 -1.1139917 0.698528 0.5759645 0.35325828 -0.3994798 0.15150547 0.09500026 0.94778764 -0.8695572 1.0649287 1.0943732 -0.1944482 -0.17073087 0.37545404 0.43314755 0.14668731 0.014070324 1.1188812 0.31012893 -0.6058972 0.073703356 -1.0470622 1.1959628 0.10641334 0.79034436 0.24704388 -0.9214345 0.9893222 0.15738061 0.7618573
2169 1.0948584 0.8588625 -0.31692496 -0.8647429 -0.37545717 -1.1924205 -0.18634968 0.1264133 -0.8590525 0.19148219 -0.48858437 0.557892 0.84183836 -0.41913268 -0.1593196 0.017893188 0.18258914 0.28581995 0.6893487 -1.0000799 0.14368764 0.7818599 -0.18673587 -0.55686766 -0.21003935 0.6991952 -0.42215973 0.4129283 0.7160851 -0.66695535 -0.40885532 0.42006394 0.42233318 -0.761049 0.8142274 0.69349915 -0.8301969 0.8632332 0.048188385 0.74152565 -0.08763903 -0.01991137 0.13853809 1.1497141 1.1847118 -0.6375758 -0.9852328 0.25205177 -1.0837481 0.61852765 -0.42348275 1.4357908 0.015639227 -0.4419951 0.63940394 0.041257747 0.8918252 -0.64175236 0.2908146 -0.05831594 -0.3209506 -1.17776 -0.2383178 1.0007892
2133 -0.53965324 -0.1763278 1.2808312 0.36853918 0.49788925 -0.52592933 0.2825625 -0.38729817 -0.9808442 -0.33875233 0.9438879 -1.1452752 -0.81317204 0.06943215 -0.99640834 0.12792446 0.24304047 -0.31530094 0.22612019 -0.7276515 -0.5481832 2.6033373 -0.4161345 0.019370599 0.15191689 0.63806057 -0.45445597 -0.4304966 -1.1394696 -0.28629303 0.23142274 0.32058746 0.14055954 -0.7641717 0.28249246 1.1981956 -0.028569145 -0.14685382 0.4544381 -0.77779657 -0.82257986 -0.14121641 0.4013666 1.4481031 2.0767546 0.115796804 -0.47030073 0.272848 -0.89171284 -0.121465094 -0.72601557 0.13815393 0.81966484 0.33472082 0.3318274 0.3952334 0.14701241 -0.38839814 0.13601533 0.41945484 0.2629958 -0.4141125 -0.06005854 1.0054101
2025 0.7203135 -0.30975017 -0.92280143 -0.23932113 -1.3212049 -1.6190196 0.20360525 -0.42147368 0.2819412 -0.45744398 0.26720712 -0.48197153 -0.35912803 0.20593421 0.44857657 0.23289488 -0.13692063 0.5778005 -0.18501367 -1.0877907 0.6325342 0.84367734 0.35774118 -1.1916996 -0.2731343 0.28741997 0.1711394 -0.070555545 0.34988773 0.99196976 0.9834207 0.8104948 0.5903118 -0.8307969 -0.18868308 0.76569444 -0.25141525 -0.56962585 -0.20694396 -0.2250056 0.5112659 -0.05618261 -1.0904913 0.7374007 0.43487749 0.1548307 -0.7965794 0.7372996 -0.10650267 -0.6445826 0.17407829 -0.03891216 -0.35529885 0.6263937 0.021961266 -1.24352 1.7247468 -0.6775358 -0.58117104 0.2798696 -1.0400244 1.866837 0.06866046 -0.32628083
2464 -0.7455353 0.33034262 -1.6418642 -0.37745708 -1.5252206 -0.908863 0.39894712 -1.6777372 -0.61189294 0.20160678 0.5310104 0.50165474 -0.27438545 -0.40762576 0.30107707 -0.25993714 -0.41884938 -0.27764052 1.0297624 0.79519844 -0.62313247 1.9019002 1.0939142 0.23720978 -0.2991984 0.49529907 1.2165873 -0.7092184 -0.8699208 0.29647684 -0.17327796 0.5513742 0.8724934 -0.667318 0.015606797 0.28222865 -1.3537165 0.2569889 -0.23749836 0.24509692 1.4121724 0.3043677 -0.75318503 1.1643728 1.1423182 -0.5929324 0.81307197 0.37581483 -0.66725904 0.4308854 -0.23511897 -0.15074348 0.36969778 1.135621 0.059727434 -0.49477547 0.75300324 -0.02946844 0.8795535 0.30274865 -0.17069161 0.23644587 0.9043203 -0.18506815
2335 -0.50987667 1.6096425 -0.05680957 -0.3354394 -0.64789367 0.5976051 0.2819018 -0.8357703 -0.49501574 -0.007555886 0.6169167 -0.07826277 -0.49121773 0.07038504 0.31235063 -0.44393584 -0.15446088 -0.6474192 0.39531922 0.4706479 -0.65994483 1.992943 0.22935691 -1.9912395 -0.74809575 -0.9460823 -0.66846776 1.2312899 0.062390134 -0.06708074 0.61475945 -0.23836227 -0.13145553 -0.29940405 0.50120467 -0.05755281 -0.41396478 -1.2674298 -1.0111082 -0.08980205 0.35785094 0.0850988 1.1233108 1.1467452 1.4961119 -0.27969307 0.5356859 -0.17566298 -0.5166889 0.18364264 0.9411028 -0.22302872 -0.49350107 0.3720554 -1.3768387 0.17319207 1.1213732 0.20502862 0.13597578 0.28237396 -0.3294611 0.55230314 1.059549 0.3972311
1903 -0.30855983 -1.198443 0.26714757 -1.2731515 0.6921809 -0.97123986 0.6560773 0.58006734 -0.7702808 -0.74717844 0.35042486 0.008257317 0.65800416 0.13641317 -0.14085265 0.24774194 -0.3405755 -0.104775384 0.39726657 -0.587371 0.4023973 1.4208574 0.34008867 -1.2206695 -0.24704081 0.61426914 -0.4414126 0.1685659 -0.67977107 -0.5584008 0.41280985 1.6888883 1.1789511 0.16407228 0.09390488 0.80574447 0.056709733 -0.14619352 -1.4927347 0.055231474 -0.119532704 -0.03933708 -0.35233414 0.23431447 1.272584 0.4449523 0.99312764 1.0161077 0.45738313 -0.6432105 0.21797009 1.5199603 0.77063465 -0.60241026 -0.15924613 0.02834912 1.0352188 0.048074108 -0.24920341 0.6299193 -0.6569121 1.1344705 0.79995793 1.4914104
2292 0.1796892 0.3670712 0.017242236 1.1744887 0.7377209 -0.5355381 0.85868466 -0.5075677 -0.26929143 0.13776663 0.529882 -0.07262777 -0.6680178 0.4690817 -0.59692836 -0.5415388 0.14007382 -0.06908053 -0.009477994 -0.2090495 -0.54984534 2.8856184 -0.013103108 0.20603953 -0.34241444 1.2102007 -0.27500054 -0.1778876 -1.4758915 -0.6654567 -0.91542864 0.6117938 -0.28963187 -0.28142336 0.78461725 0.41116536 -0.54093313 -0.61843926 0.30849418 0.10126629 0.4965928 -0.02402388 0.3674676 0.4442274 1.2849845 -0.1373386 -0.18908507 0.19065486 -0.6610873 -0.19750349 0.47971275 0.8539011 0.700558 0.4500532 0.66699684 -0.060243342 -0.044900395 0.53124446 0.36054477 -0.12678431 -0.6933093 0.025399746 -0.031956088 1.0920317
2083 1.4435582 0.84334946 0.22629452 -0.4807943 -0.3675476 -1.3083279 -0.5780978 -0.41148663 -0.8760225 0.36131063 -0.53249204 0.14521629 0.62705433 -0.57076854 -0.20157218 -0.5687284 -0.4472903 0.698647 0.8397561 -0.22378154 -0.8975489 0.5561145 -0.044821978 -0.55240697 -0.62298656 1.0626217 -0.3141277 0.8184431 0.8313879 -1.4698936 -0.2240299 0.29405037 0.27144927 -0.31810537 0.3024504 0.27824318 -0.64220023 0.8610884 -0.4639123 0.10889365 0.27152565 -0.61190045 0.000934846 1.7327508 0.9261522 -0.70842505 -0.73783684 0.31898743 -1.0905336 1.054635 -0.3216184 1.7535994 -0.17946929 -0.087379195 -0.056456096 0.75619584 0.6172345 -0.32550085 -0.45604026 0.0996658 -0.18613568 -0.8717755 0.25409058 0.7109185
2518 0.11927837 0.66613597 0.31188333 0.3152668 0.0936222 -0.23380782 0.68933696 -0.7774119 0.019879183 0.15084606 -0.040954027 1.0809898 0.16254735 -1.2780495 -0.90015465 0.11466493 -1.7052791 -0.14586665 0.1132712 -0.5368419 -0.14201832 1.3447267 -0.10303923 -0.66497487 0.2914942 0.49665487 -0.806798 0.332401 0.10336689 0.053608436 0.6902782 0.3658491 0.57458 0.17135668 0.94571865 1.0889808 -0.9694149 0.080683 0.3446206 0.6498466 -0.13633998 0.44334736 -0.594027 1.732104 0.19643272 0.09243078 -1.2686728 1.3549575 -0.6403089 0.19082549 0.3275346 0.5460161 1.1051245 0.5958315 0.20603047 0.35526037 0.49854454 0.13385159 -1.2453563 0.5135456 0.19524382 -1.3380976 0.32842067 1.1212825
2241 -0.17109992 0.4684578 0.12595297 -0.60425633 -0.12154106 -0.9851388 -0.35962895 -1.264214 -0.19478442 -0.028961072 -0.51639503 0.5016094 0.50827247 0.38265896 -0.014512721 0.021452561 -0.40851557 -0.9226125 0.07336802 0.5495055 1.0201379 1.0869013 1.2242506 -0.41391864 -0.89484274 1.0182025 -0.7067974 -1.4506879 0.14831841 -1.1763614 -0.05435887 2.3922372 0.032867335 -0.7853563 0.38455305 0.95481586 -0.62119174 -0.044462875 -0.79646295 -0.03227504 -0.9294342 -0.1600756 -0.0020409669 1.3929807 0.86128926 0.03315787 0.3538747 -1.2720959 -0.2227284 0.9609592 0.8079497 0.66727793 0.533349 -0.3351959 -1.2905884 -0.3535477 0.28149757 0.46992114 -0.47665334 0.95110893 0.14338909 0.21249361 -0.35568252 0.57443136
973 0.5541142 -0.1380627 -0.5961562 -1.3597045 0.52372587 -0.67417055 -0.90313303 -0.6096245 -0.56439704 -0.59060645 -0.19462997 -0.1819044 -1.1345599 -0.40302 0.58340055 0.22594593 0.2065068 0.8244561 0.2434694 -0.42532766 0.68950343 0.90889 0.8850953 -0.8633704 -1.3256111 -0.017954646 -0.308426 -1.8774391 -0.2409794 0.48971477 1.4039407 0.0092449635 0.9468477 -0.6828144 -0.03816675 0.23897386 0.0647052 -0.2978846 0.49318585 0.7142757 1.1414375 -0.45935947 -0.26623723 0.08996254 0.9384888 0.82403105 -0.37500814 0.20430425 0.18479188 0.035424437 -0.098816335 0.6350888 -0.81634843 0.8261597 -0.7129383 -0.3209149 0.37135386 0.4370707 -0.6261555 1.6397922 0.138283 0.21727423 0.64312184 0.5081947
1761 -0.049537227 0.3290361 -0.5545703 -0.3516883 -0.3667371 -0.051664755 1.0730065 -0.408451 -0.43688625 0.22614637 -0.5450793 -0.26710626 -0.096684754 -0.17037979 -0.09463112 -0.13286696 0.2667509 -0.9705017 0.8548822 -0.17044099 -0.61293703 0.67867893 -0.10639755 -0.42751276 -0.25234985 1.3142252 -1.1344385 -1.3156333 -0.100575656 -0.6949605 -0.25415692 -0.360206 1.0703621 -0.023476055 -0.7760169 0.18921755 -1.8810401 0.3391091 -0.13560121 -0.8411697 -0.40072462 -0.8820606 -0.47421548 1.3030419 0.52073944 -0.3268413 -0.4474675 0.51930577 -1.1937331 0.43909475 0.31630874 0.458485 0.7832157 0.34916154 -0.7586834 -1.1503936 0.24225469 0.13491891 0.33811176 0.8422127 -1.313082 -0.6075655 -0.15399562 0.6519984
2160 1.0798581 -1.6323377 0.88671035 -0.20207699 -0.35059074 -0.4708656 0.90458906 -0.7847422 0.28998795 1.0322032 -0.26444286 0.20837311 -1.0627463 -0.5924803 -0.5812498 0.05862672 -1.3105038 -0.78766495 1.654476 0.113915704 -0.73046356 0.07410882 -0.69652426 0.16936253 -0.8283476 -0.28653222 -0.679393 0.09690025 -1.2651536 0.67869854 -0.35845914 -0.00499789 0.47021657 -0.19765157 -0.99159527 -0.19960721 -1.2648319 0.2310378 0.2079516 -0.59485686 0.92865384 0.012248406 0.11553369 -0.6358001 0.88327736 0.7907631 0.44210255 1.4118136 0.3827389 0.95225984 0.13206278 1.1625152 -0.33090195 0.5731533 -0.37440664 -0.4207532 0.6329587 -0.40253717 0.035786964 1.4844347 -0.8905197 0.22481905 0.48164004 1.3448756
1740 -0.44195667 0.9681259 -0.032875817 0.06542144 0.017395647 -0.65337825 0.38784137 -0.6250533 0.86106014 0.29776177 -1.5520965 -0.5186692 0.21388495 0.42563558 -1.0645906 -0.10860175 0.0903149 -0.40301636 1.2164397 0.026648445 -0.80709285 0.6670938 -1.1092904 -0.12991154 -0.11940373 0.54575557 -0.23868659 0.6231545 -0.34858328 -0.9594155 -0.6863006 0.07770531 0.25070882 0.12163768 -0.7472233 0.8210873 -0.026288401 0.06636206 -0.4483326 0.5608749 0.09301698 -0.52436465 -0.707856 0.35805225 1.0328304 -0.7583259 -0.19675682 -0.2485547 -0.16557604 0.4564655 0.25552383 1.0477058 0.34009847 0.13231413 -0.5326861 -0.2105446 0.026270103 -0.5112879 0.17760916 1.634589 0.00042805006 1.2447952 -0.0574048 1.5870992
2155 1.0919883 0.1654436 0.00313711 -0.34229672 0.13894275 -0.2349624 -0.7355929 -0.7333066 0.5071389 0.105623074 0.4150174 -0.15763669 0.087994024 0.5664731 0.7589136 0.4077278 -1.1449021 0.08218559 0.1586039 -0.14647989 0.8757365 0.23649956 -0.043187585 -0.82951653 0.11984333 -0.5230267 -0.6983331 -2.127732 -0.2820696 0.4919991 -0.7293414 0.29216033 -0.18786104 -0.7881939 -0.1151741 0.8010087 -0.6477787 -0.6575632 0.8853824 0.35764328 0.6332486 -0.45336986 -0.9364113 -0.3903816 1.4338706 0.9263936 -0.7579392 0.8541533 0.9389923 -0.4224651 -0.60880786 0.76566976 -0.20503344 -0.06863991 -0.98944265 0.98991346 0.8422318 -0.73487043 0.0022661109 1.1102171 0.37373412 0.91637903 -0.09659863 1.1280358
2383 0.3479928 0.19956078 0.4235808 -0.8850816 0.011117843 1.0188265 0.60962987 -0.20580247 -0.8980521 0.06825624 0.08385546 -0.32155842 -0.326492 -0.9160455 0.14144921 -0.5524626 -0.060739722 -0.023006197 -0.39918107 0.16975936 0.2739465 0.5886675 -0.7334741 -0.35649627 0.1700692 -0.74895656 -0.5939229 -0.30172297 0.7079966 0.6474535 0.89041615 0.14655112 -0.2742244 0.15443313 -0.27574366 0.52647597 -1.1556752 -0.08538256 0.5566683 0.056675784 0.0626872 -0.357026 0.55078703 1.2520752 0.7721948 1.387226 -1.2796711 0.7001783 0.5452978 0.26370353 -0.23852658 0.0051305857 0.31651348 0.69302726 -2.093058 -0.071365066 0.19176309 -0.20061386 -1.0792748 0.2926843 0.18800041 0.7089859 -0.14491698 0.21851136
2394 0.24710377 0.59163904 0.17758913 -0.99108756 -0.8770309 -0.74652606 0.5068613 0.8366541 0.21920471 0.6344418 -0.10633158 0.15360175 0.8115222 -1.0700489 -0.1589201 0.019411672 -0.80921483 -0.91270155 0.47110012 0.09158257 0.46857676 1.403008 -0.10725614 -0.9003239 -1.0577505 -0.35268533 -1.159675 0.61492807 0.20566495 0.4857819 0.40717742 0.38571644 -0.9654861 0.29500365 -0.28801587 0.6526371 -1.7008313 0.5410053 0.89079815 1.0622859 0.07533207 -0.24744897 0.7740016 -0.28770468 1.6559993 1.314037 -1.4628793 0.10347186 -0.8162892 0.2731368 0.04818001 -0.96382445 -0.25058284 0.555064 0.27833638 -1.0502884 0.34633994 -0.5648515 -0.71193033 0.2920974 -0.54581285 0.08528444 -0.4506435 -0.7881679
1966 0.4906933 -0.031710636 -0.83265454 -1.1337926 0.47872972 0.7377357 1.0302967 -0.36152387 0.266222 0.0013597008 0.8759749 0.5071962 -1.0855652 -0.454004 0.04546061 -0.91350406 -0.5483011 -0.6140734 -0.53620714 0.15622105 -0.26866361 1.5644497 0.76707625 -0.9467079 0.037238263 0.06481964 -0.024794139 1.0665214 -0.6285058 0.8917169 -0.01857187 0.59417945 0.004800952 -0.85435605 1.2717912 0.5348265 -0.6209758 0.24055326 0.40546685 1.1814812 -0.21574149 0.6246205 0.5111426 0.57827294 2.274465 1.069243 0.41564795 -0.8758497 0.04663133 0.8778268 0.30948177 -0.31238332 -0.07793451 0.46106732 -0.3438584 -0.120476685 1.0827208 0.7424237 -0.063016355 -0.24643147 0.29830068 0.121049434 -0.8270356 0.20962049
1776 0.64478755 0.26630545 0.9040206 -0.10818552 0.9035314 -0.3181245 0.5196153 0.3587661 -0.40169197 -0.2334335 0.87193435 -0.3331506 -0.611264 -0.25440183 0.5543052 -0.607865 0.5107582 -0.31211782 0.2460299 0.33097544 0.3859425 1.6630905 -2.0210385 -1.1998651 0.5420081 1.3553816 -0.64820236 -0.10183484 0.76293427 -0.6161196 0.50515807 0.25401175 0.6578548 -0.34302542 0.102586575 -0.113603204 -0.6306637 0.4102377 0.054570723 0.048093926 0.68745303 -0.5217866 -0.20422378 0.25888568 0.4459363 -0.41439608 -0.9071008 0.36579546 -0.58129567 1.0529797 0.39540985 1.6732328 -0.5577418 -0.3258399 -0.6717308 -0.9370925 -1.0052053 -0.20453104 -0.48471034 0.052769415 0.14530382 0.61121213 0.57139945 0.3015713
2176 -0.34116045 0.5758896 -0.8957868 -0.88772595 -0.4592312 -0.10806181 0.9534573 0.02220557 -0.39041004 0.7691468 0.1789522 0.38443035 0.090420604 -0.28421062 0.16737646 0.4462509 0.16257498 -1.1847792 0.87352216 -0.14352317 -0.4346232 0.6229235 -0.091299504 -0.6091544 0.15144299 0.71287507 -0.21189833 -0.8019696 -0.33366624 -0.9834465 0.15216336 -0.22296768 1.3272817 -0.6823166 -0.9405142 0.23990719 -1.7702951 0.45644343 0.31590506 -0.6317664 -0.42546725 -0.65868694 0.09295222 1.1018735 0.36406654 0.1460559 -0.35711938 0.95559174 -1.3604624 0.084705874 0.45789585 0.3573275 0.6276843 0.2966945 -0.5458746 -1.6397101 0.27803037 -0.44691306 -0.1644413 0.9087342 -0.94061565 -0.085477255 0.44095582 0.53540456
1692 -0.13405553 -0.28632817 -1.0725296 -1.5004467 -0.44012976 -0.7601046 0.37928328 -1.263453 -0.44947672 -0.6228946 0.016777556 0.023495559 -0.8519992 0.042815104 -1.2699777 0.9571295 -0.16172566 -1.0654179 0.7254135 -0.80053973 -0.029711405 0.9727214 1.0844264 -0.47326392 -1.063049 1.5828363 -0.27937767 1.1846424 -0.16399805 0.32496816 0.11584158 0.33488595 -0.26772097 -0.51976895 0.31669167 -0.12552744 -0.7589987 0.3360889 -0.02317983 -0.72602797 0.87134606 -0.004234613 -0.9325644 0.49825016 0.9062679 1.0307513 0.49504337 0.9414829 0.5939241 0.51129055 -0.11453517 -0.7592467 0.6103724 0.4895818 -1.1955136 1.8743489 0.67105454 0.056233134 -0.05127888 -0.34162053 -1.1569698 0.12535116 -0.34320867 0.053313877
1973 1.6237904 -0.76786447 -0.22168674 -0.7005059 -0.11854012 -0.33505374 0.56696326 -1.0967711 -0.56479686 -0.2282063 -0.23190834 -0.39026013 -1.5268927 -0.4852319 0.12269854 0.05404193 -1.5831689 -0.87062055 0.36463386 -0.49026185 -0.41054448 1.8376147 -0.6249554 0.39810824 0.44802383 0.73895943 -0.3630085 -0.7436763 0.29275748 0.35738257 0.014945851 0.13295454 0.11421686 -1.6917968 0.25312734 0.10960105 -0.021309936 -0.59442526 -0.38874564 -0.6741486 0.10333556 0.75716454 -0.63686997 0.34991166 1.4220476 -1.3920382 0.11157282 0.51034755 -0.74815387 0.28181836 0.3795673 -0.97171193 -0.7163843 -0.32834804 0.121075116 1.0448934 0.25203332 -0.16702929 -0.5301587 0.012443389 -0.08459479 -0.099122815 -0.96389747 0.27094868
2048 0.59465784 -0.057033233 1.0286373 -0.29958713 -0.28698552 -0.89449346 0.7379067 0.07486697 0.18438046 -0.14010316 0.26761216 -0.50520176 -0.24037285 -0.10088066 0.7532223 0.044403814 0.3096543 -0.54122484 -0.40810955 0.4608751 0.7278637 1.6322563 -0.90282845 -0.34910676 0.903447 1.2561312 -0.2754549 -0.053977408 -0.074002065 -0.3249243 0.47158235 0.4168947 0.11618443 -0.88665694 -0.48233318 0.6103655 -0.30974174 0.76710516 -0.20661737 -0.43721774 -0.14436558 -0.23309717 -0.079217196 0.07092199 1.1110173 0.045242548 -0.7013948 -0.1914489 0.42794758 0.89646626 0.43842283 0.4298544 -0.26691115 0.29702824 -0.17715606 -0.73483366 -0.031833004 -0.18314187 -0.5682491 0.67516434 -0.37054545 1.2505641 0.17643867 0.47831902
2375 -0.14185002 -0.8805739 0.37445924 -1.486551 0.72049516 -0.8805821 -0.33830324 0.6238295 0.33897024 -0.06735232 -0.3477466 0.40874097 0.22411694 -0.4310614 -0.36325714 -0.26153353 -0.7462687 -0.92398643 -0.030496927 -1.0032645 0.3229728 1.2521985 0.068407856 -1.4413882 0.19756004 0.7104601 -0.8401229 0.6657457 -0.3672682 0.07900922 0.49057683 0.8560733 0.6362525 0.13642976 -0.85739344 0.65236205 0.76356256 0.579259 -0.2838919 0.114858896 0.13897383 0.7019084 -0.6290895 0.70792025 1.2207307 -0.12466606 -0.023975855 0.42169064 0.56135535 -0.100173526 0.13026173 1.0612371 0.2583113 -0.19548178 0.016353574 -0.82204103 1.2497221 0.18673974 0.8061899 0.27363744 -0.93133014 0.60619134 -0.060159817 0.19786355
2238 -0.051770203 0.30373096 -0.55376273 0.25042585 0.047671586 -0.6866124 1.033554 -1.1368052 -0.6339176 -0.013466496 1.1710887 -0.16060622 -0.21161312 -0.08582245 -0.52622056 -0.8572481 0.15876937 -0.2845221 0.24054648 0.2171917 -0.21000162 1.8204912 -0.24602567 -0.6985829 -0.5652547 0.4743209 -0.07527394 1.2862979 -0.33965477 1.2577946 0.32350302 0.6102165 0.5233161 -1.0979455 0.40384686 -0.87998104 0.6078911 -0.054613255 -0.07956395 0.933814 -0.13415493 -0.27723667 1.0440351 1.0702981 1.9266893 0.23256561 0.14794001 0.2843133 0.8444263 0.59692335 -1.0660809 -0.4317286 -0.30065975 0.6882081 -0.3015553 0.11491426 0.59089917 -0.2346531 0.31547284 0.065938026 0.4146421 1.217719 -0.100388095 -0.17556514
2309 -0.101257704 0.8753739 -0.6985981 -1.1450092 0.50637627 -0.10330691 1.0664017 0.11755166 0.009684387 0.05802165 0.56180066 0.2763269 -0.059691057 0.1018591 0.09938082 -0.57001066 -0.053353745 0.4274582 -0.47953787 0.7410591 0.5316395 0.5309649 0.07620554 -0.4752897 0.06722965 -0.18519995 -0.78663945 -0.5823979 -0.069101825 -0.38136905 0.16140893 -1.026588 0.46424958 -0.52540225 -0.035941966 0.8642794 -1.1726651 0.060686935 0.87314534 0.9562796 -0.07490696 0.029655356 -0.8499506 0.20219956 0.41154546 0.13524653 -0.15071496 0.3275792 -0.49623132 -0.39194936 -0.28990677 0.38046154 0.25374106 0.27505323 -1.1772478 0.24625416 1.0970398 -0.67001975 -0.7973212 0.25872347 1.017741 0.60778797 -0.23457746 0.27426213
2216 1.9008421 0.32400867 -0.7156177 0.5991537 -0.40473324 0.3347634 0.19703405 -0.27056882 -0.6350505 0.7301223 0.84388804 -0.70000213 0.16756563 -0.6815672 -0.05665248 -0.45269382 -0.53098285 -0.37288567 0.12202797 -0.51697934 -0.4520584 0.9187121 -0.24690792 -2.2069788 -0.34373635 -0.04054534 -0.47347745 0.66229767 0.13033633 0.39455846 -0.9798312 -0.026177801 -0.27767828 -0.3202545 0.2048953 -0.38124663 0.42220944 0.77052027 0.52404577 0.29805848 0.5563221 0.2559486 0.6203097 0.5616733 0.65502304 -0.44970748 -0.3567126 0.6045162 0.37085065 -0.6311565 0.099105686 0.56604314 -0.68547696 0.35810468 0.5680436 -0.44132048 0.17262341 -1.1242405 0.420488 0.24791121 0.50307643 0.4809165 0.5559258 1.1484362
2227 0.006081488 1.2248738 0.39519754 -1.781766 -0.94747657 -0.17884156 0.5033366 -0.4311406 0.29924953 0.8876097 0.407608 0.32182622 0.50239277 -0.63341624 -1.0107453 -0.5890084 -0.38763854 -0.5533105 0.76403254 0.31287813 -1.0003994 1.293534 -0.13895577 -0.5304725 -0.7883064 0.37322024 -0.8444307 0.6233545 -0.26526886 1.3806764 0.030177359 0.46213904 -1.5534283 0.176783 -0.5759859 0.24072377 -1.1776803 0.30644122 1.0997074 1.5510232 0.050752696 -0.52853775 0.52930576 -0.12767048 1.5958706 0.84491235 -0.69018376 0.279903 -0.14507835 1.1490782 0.5385788 -0.4207988 -0.7866862 0.59803 -0.4814391 -0.8466797 0.37489235 -0.7031991 -0.39100453 0.29309276 -0.18430337 0.39415592 -0.6128594 -0.42008844
933 0.7666246 0.8198293 -0.22512174 -0.82733124 -0.4310096 -0.37432447 0.50381964 -0.88886154 0.09322735 0.9979167 -0.28627 0.05504582 -0.78741074 -0.16036819 -0.097816594 -0.5044988 -0.3123609 0.27817154 1.0242141 0.12563299 -1.3636831 0.9241601 -0.6382356 -0.60549057 -0.33306026 0.44062054 -1.5589089 -0.46572018 0.35147664 0.014335922 -0.63803786 0.11774138 -0.57363033 -1.0966617 -0.016377132 -0.9037569 -1.4565389 1.1885228 1.245012 0.5699405 0.23712625 -0.8598399 0.35046297 0.5835085 0.4260529 0.25726894 -0.28917673 -0.79069114 -0.28035045 -0.02361721 0.8964013 0.21891879 -1.7454283 1.5071832 -0.6884247 -1.2538507 0.64464664 -0.046900652 -0.6921012 0.8401447 0.11659427 -0.024117215 0.0763222 0.43218353
2336 -0.15468636 1.3284925 -0.31784278 -0.45305443 -0.69298077 0.3019458 0.244222 -0.6358917 -0.5986797 0.0944436 0.74387187 -0.41282108 -0.7141319 -0.23647185 0.26165992 -0.22510527 0.088253796 -0.36362958 0.34074992 0.47780266 -0.56617737 1.565408 0.02307675 -1.7154268 -0.95542806 -0.7854032 -0.2946795 1.0566707 -0.21573006 -0.15339455 0.3438378 -0.24013409 -0.10799975 -0.48373866 0.44202346 0.103572175 -0.65691584 -1.1496359 -1.35221 -0.20357578 0.18724729 -0.20119143 1.0678223 0.7741183 1.2397621 -0.07237253 0.6279099 -0.27268678 -0.6865775 -0.14208095 1.1111517 0.23175135 -0.8208472 0.318411 -1.0354584 -0.21701375 1.2877847 0.51783913 0.06614331 0.5449692 -0.60106766 0.7820606 1.0274477 0.24424948
2305 0.081311 0.49210134 -0.38924778 0.27272302 0.667365 -0.2790594 1.1738976 -0.49643362 -0.6062531 0.12703118 -0.9202025 -0.77312773 -0.69793874 -0.0037248922 -0.939508 -1.1165848 -0.38642505 0.08483597 -0.20173831 0.78070074 -0.035191745 1.7114227 0.45448816 0.6889337 -0.21414736 0.193754 -1.6373125 0.79453534 -0.5952951 -0.47336167 0.4446785 -0.20972951 -0.887383 0.12729827 -0.41899827 -0.11718452 -0.64960986 0.77041143 -0.15313363 0.26793295 1.2224052 0.24530065 -1.1218874 0.80001134 1.0617977 0.3907982 -0.43880862 0.62053263 -0.6348633 -0.5750499 -1.0987284 0.66733587 -0.2632897 0.60575235 -0.21305683 -0.17478728 0.64732224 -0.86588734 0.4763359 -0.10869285 -0.191141 0.19957624 -0.45524386 0.62790996
2596 1.2106618 0.15109627 -0.36126584 -0.1670743 -0.2478543 -0.17454779 0.66343635 -0.104489096 0.72212136 -0.012920526 -0.85608524 -0.45354307 0.13826276 0.24362384 -0.8612288 -0.9657723 -0.052777827 0.056651484 0.16526085 -0.12190527 -0.14296886 0.7793221 -1.5165364 -0.6657174 0.27558842 0.39385775 -0.5336401 0.47986397 -0.095733866 -0.55762386 -0.61443895 -0.56407803 -0.6183703 -1.0496188 0.8624716 0.059621383 -0.4422411 0.73749894 0.5436082 0.53848636 -0.083432525 0.1241377 -0.7052001 0.61973274 1.1003652 -0.09481804 -0.7709962 -0.088082366 -0.4408444 0.27755904 0.7705557 0.64961386 -0.9404992 0.52677333 -0.14406392 -0.82903194 -0.1929884 -0.512339 -0.5155533 -0.09572532 0.23564784 0.6222932 -0.8148117 0.096653804
2246 0.5498217 0.14490117 -0.6580294 -0.41977847 0.40941915 -0.5733709 0.33713707 -0.73652923 -0.75686216 0.59147453 -0.3569538 -0.3732813 -0.053264935 1.0008262 -1.5547618 0.2422642 -0.44125453 -0.10193046 0.6060759 1.017428 0.34735578 0.95483786 -0.4866802 -0.35696557 -1.3190639 1.1003968 -0.6110368 0.56970865 -0.21234298 0.7027638 -0.7488828 0.67476827 0.080630146 -0.84800684 -0.7943639 -0.9932777 -0.59862995 -0.7564892 0.7378153 0.68961376 -0.341469 -0.64487445 0.50000036 0.9025044 0.65385425 1.4286146 -0.3232114 0.22398785 0.4462146 0.03622593 0.25963458 0.50117534 -0.09358498 0.47589803 -1.0534874 -0.78825563 0.15320072 -1.0317844 -0.42452657 0.975848 0.018962685 -0.20988424 2.6070597 -0.19984764
1483 1.4714653 1.0799456 -0.17423318 -0.87337583 -0.25072473 -0.0086829765 -0.70748276 -0.17734396 -0.9127262 -0.031794418 -0.08433741 -0.33146802 0.4293824 0.048254296 0.06692798 -0.52109396 0.01950323 0.072767146 1.2742885 0.076943554 -0.7073938 0.69618595 -1.0717176 -0.5788101 -0.30211633 1.3418715 -0.89375824 0.45815346 0.35692117 -0.46255666 -0.48301995 0.055229235 0.65201193 -0.36975092 0.60424286 -0.45691794 -0.4682767 0.6886454 -0.0034046164 -0.18448806 1.2305225 -0.9698958 -0.33390474 1.3898779 -0.2090371 0.21204726 -1.1330134 0.5043 -0.5490212 -0.19685316 -0.3915487 1.0693238 -0.8804644 0.9661212 -0.34010434 0.9025861 -0.33987767 -0.77230775 -0.02508298 0.6213049 -0.34536937 0.16786869 0.9091939 0.24284942
2240 -0.3949532 0.50321877 -0.28095278 0.8997716 -0.5595024 -0.6317177 0.8292788 -1.6433523 -0.7535586 -0.5106815 0.8523486 -0.61023396 -0.32023722 0.21943635 -1.040468 -0.9322533 -0.20229587 -0.41263783 0.75494975 0.059759073 -0.22585644 1.4098406 -0.12196248 -0.5211638 -0.35985488 0.560655 0.770525 1.0391527 -0.72601557 1.3168734 0.118445896 0.8362146 0.1263168 -0.84170514 0.28471637 -0.8476144 0.103748165 -0.3796951 -0.21797635 0.76696736 0.059128467 -0.079946876 0.70399 1.1451753 1.9092747 -0.003217505 -0.16604781 0.679999 0.5369539 0.2742618 0.11885064 -0.16143613 -0.25358889 1.147625 0.32506084 0.35241345 0.255872 -0.40592438 -0.19568303 0.6105351 0.013333654 0.5490597 0.51744163 0.26837623
2538 0.5758603 0.85012966 -0.05481057 -0.087299995 -0.0074579525 0.02878298 0.27959514 -0.9239286 -0.046932787 0.15251908 -0.19914836 0.6852084 -0.062733024 -0.53377247 -0.5370374 -0.016292311 -1.0054363 0.0027415436 -0.12798841 -0.2646437 0.08695168 1.3475237 -0.11435817 -0.5851212 0.19951738 0.09557331 -0.77626395 0.23902605 -0.106896654 -0.11939973 0.38550648 0.34694174 0.54323804 0.6062446 0.8980465 1.0614773 -1.2822107 -0.35183206 0.08369693 0.37176692 -0.019523116 0.3365893 -0.29195115 1.7563006 -0.049923062 0.04173464 -1.3110992 0.7560619 -1.1939826 0.49497685 0.5105775 0.7237395 1.2190194 0.23205693 0.20705739 0.31961712 0.5909187 0.5567336 -1.1899546 0.7337104 -0.17601979 -1.2806358 -0.08279791 0.496049
2147 1.2317743 -0.9372108 0.29591548 -2.2117074 -0.04309765 0.6972392 -0.2329162 0.8859401 0.42618474 -0.11162861 0.10411557 -0.343616 -0.10178097 -0.104934946 -0.40493196 0.5545882 -0.91636735 -0.3458072 -0.28973052 -0.28297278 -0.022391684 0.908779 0.037350077 -1.5636547 -0.13274835 -0.06558162 -0.87426 1.110901 0.2136316 -0.061579306 -0.40031388 -0.62961435 0.26498646 -0.888372 -0.53283155 0.58327615 -0.15868269 -0.13079727 0.8950279 0.39634222 -0.2806082 -1.0074568 -0.1361855 1.1787969 1.0757456 1.1368898 -0.49559334 1.3062125 0.37769473 0.9367605 -0.93695414 0.40521875 0.6901663 0.2082099 -0.06268587 0.7734682 1.4125253 -0.14396343 -0.7181109 0.31029746 -0.4292257 0.29758203 -0.12579753 0.6083562
2118 0.12608507 -0.06318322 -0.5083681 -0.934917 0.7969412 -0.49816248 0.6631029 0.20206387 -0.22372845 0.71089727 0.022010855 -0.81968415 -0.108074114 0.016805435 -0.7410019 -0.21153596 -1.3166898 0.19841109 0.40810686 0.32692838 0.3209844 0.64472824 0.18972003 -0.19982459 -0.2014339 0.59435856 -0.70092666 -0.03322635 0.06812604 0.67051363 -0.6486706 -0.012536919 0.011875725 -1.1673506 -1.0753913 -0.22153337 -0.5219241 -0.39775014 0.21965909 0.019107254 -0.87384754 -0.5538614 0.6140005 0.5206205 1.336594 0.22488439 0.13143864 0.46947315 1.3524194 -0.45182708 -0.29910356 0.9560875 -0.33472198 0.3295356 -0.79888695 -0.4594182 0.5589295 0.20637113 0.14518712 -0.22396582 -1.2624985 0.14135145 -0.3056659 -0.3661164
2175 -0.30672288 0.61445814 -0.70101076 -0.33821338 -0.2134801 0.040496543 0.5158655 -0.20129396 -0.34542292 0.3027563 -0.14836936 -0.048248008 -0.014424987 -0.5035759 0.05343084 0.046727758 0.22773235 -1.0545157 1.1281726 -0.27658415 -0.5211089 0.8158978 -0.27579114 -0.6722972 -0.25938994 1.1401594 -0.7845508 -1.1103141 -0.072175406 -0.84312004 -0.10801273 -0.3319583 1.1314864 -0.03173963 -0.8170276 0.22772135 -1.6804875 0.15635091 0.040265474 -1.0042412 -0.027743114 -0.74963635 0.03574297 1.0228457 0.40962312 -0.38909304 -0.5306601 0.7887986 -1.2198478 0.46253747 0.2438121 0.45057034 1.1051168 0.10651325 -0.87093455 -1.5242974 0.13787588 -0.18598203 0.26293743 0.8782795 -1.2108728 -0.42610276 -0.001179065 0.80087584
1869 -0.30814868 0.8517764 -0.5005358 -0.71996397 0.77837 -0.7164676 0.8240167 0.48446846 -0.37545872 0.29534543 0.39589912 -0.37199464 -0.12477012 0.3029857 -0.62856215 -0.24748437 0.23469685 -0.46296546 -0.116442434 1.4169123 0.21410453 1.1127436 -0.40540323 -0.5618695 0.21434179 -0.00338614 -1.3172195 0.016046755 0.16320528 -0.31530082 0.013876189 -1.192852 0.5066305 -1.0290235 -0.33129704 0.88968474 -0.62525284 0.22738853 0.63787204 0.40702713 0.059217628 0.023930589 -0.7498428 0.66506135 0.29103592 0.18735702 -0.17403397 0.31292814 -0.50193596 -0.19891861 -0.05077058 0.14656766 0.88434947 0.37233242 -0.57285833 0.4658253 1.0925405 -0.2480082 -0.6785012 0.053187143 1.8677922 0.68136775 0.6686996 0.20813024
1072 0.61835605 0.4658855 -0.5203882 -0.66941804 0.49496442 -0.15157175 -0.65624976 -0.27496603 -0.39994857 -0.00894384 0.82453054 0.38647527 -0.083487235 -0.75657475 0.16913155 -0.46677312 0.89718246 0.24796495 0.1967034 -0.36322713 0.5494426 0.22258894 0.5927728 -0.51232773 -0.10285763 0.25878474 -0.15173697 -0.6604182 -0.70656854 -0.25872338 0.4098732 -0.28642154 0.724552 0.83114964 -0.91445535 0.73410755 -0.3511279 0.44246796 -0.018592833 -0.15803963 0.24918656 -1.1663107 -0.18953614 0.73242 1.1982894 -0.4640842 -0.009739 0.5372993 0.11543968 -0.048633542 1.2642219 1.1409216 -1.2119676 0.62955236 0.99371856 -0.49935147 -0.059585106 -0.15365629 -0.30116126 0.9797328 -0.56388956 0.580432 0.60646653 1.5498213
598 -0.82339066 0.48980063 -0.5994436 -1.4225929 0.16557965 0.3524517 0.56757116 0.47867918 -0.7549786 -0.3768078 0.3413301 0.37097374 0.16095439 -0.7969753 -0.04379217 -0.5763137 -0.45526814 -0.3348144 1.1474655 0.8576364 0.7538545 0.49205667 0.79428446 -0.59878725 0.6206676 0.7313377 -0.8989634 -0.016222935 0.75691676 -0.34340504 -0.51480407 -0.10845865 0.15683542 -0.88378507 -0.34037417 0.37935427 -0.9316934 -0.39879423 0.60644716 -0.6396636 0.24348961 -0.6027456 0.28393015 0.94967216 -0.21286991 -0.025278721 0.16541679 -0.9186794 0.06067403 1.075137 1.3106619 0.46499515 -0.019780906 0.85556924 -0.63920295 -0.22896719 0.80435866 0.020467611 0.030200344 -0.24148184 -0.08165668 0.6317688 0.65448314 -0.11714854
2446 0.90283954 0.5240807 -0.50761473 -0.54604375 -0.40397483 0.17006953 0.15905595 -1.124108 0.89510334 -0.1408367 -1.3256904 -0.580002 -0.009323085 0.5602167 -0.5464712 -0.21301706 -0.4351717 -0.3107075 1.3245294 -0.27706304 -1.8021804 0.23763728 -0.0736871 -0.72044295 -0.6018477 -0.16453902 -1.2849994 -0.28688318 -0.44297042 0.10872037 -1.0308859 0.035552092 1.2200636 -0.54600537 -0.070776805 -0.4416529 -1.1854812 1.0513875 1.048831 0.09036964 0.5951666 0.10571659 0.10282191 0.9288542 0.84045 0.2569863 0.1701522 -0.4102872 -0.31799722 0.8276536 0.119837135 0.54960704 -0.7636929 0.09141719 -1.1730034 -0.26668733 -0.50876015 -0.40569836 -0.062265757 0.40285444 -0.00380612 -0.1986065 -0.626259 1.4970646
2485 0.83826864 0.3639832 -0.61364025 -1.3707347 -0.109740615 -0.66044724 0.065793455 -0.642264 0.80311006 -0.8189174 -0.19179231 0.47965258 -0.814328 -1.0137149 -0.12933812 -0.23730479 -0.058051486 -0.060212065 0.7313763 0.44430843 -0.689377 1.0390908 -0.29778513 -0.9483623 0.05782733 0.6786494 -0.9475491 -0.7411388 -0.32128766 0.41375113 -0.58237165 0.42282555 0.062479172 0.0339397 0.50515544 0.123415664 0.1287657 -0.16554691 0.6245014 -0.048483808 1.7777708 0.78085923 -0.9107094 -0.7156428 0.41963702 -0.5011673 0.011591905 0.33507755 0.5270528 0.8054958 0.5481977 -0.8152445 -0.31292868 0.24890895 -0.6826609 -0.64420795 0.11139681 -0.5259093 0.012912224 -0.07984521 0.039944265 -0.029950937 -0.56549114 0.084875956
2071 0.031489573 0.45271617 -0.85375154 0.08603143 0.08102284 -0.5629589 0.28309238 -0.9761342 -0.53174335 0.24062495 -0.7521844 -0.6655599 -0.38693887 -0.5548111 -0.036672585 -0.21279384 -0.007283653 0.15787184 0.3430074 -0.023479762 0.5913375 0.19039571 0.4402826 -0.5745044 -1.3937622 -0.47457743 -0.60920393 -1.2823299 0.19650953 -0.62735283 0.24230072 0.57336617 0.89084995 -0.72583634 -0.15513605 0.1717216 -0.07297645 -0.44922835 -0.4691867 0.8337676 0.36806408 0.3949315 0.474135 0.20334262 1.3142686 0.25034526 -0.5845322 -0.15780674 0.38762975 0.54157865 -0.004246849 0.8443264 -0.45885354 0.5837276 -0.8095364 -0.37461114 -0.0166454 -0.59553635 -0.08446703 0.44430238 0.025031965 -0.8157537 -0.7992933 -0.0075535704
883 0.55177784 0.8142862 -0.07026583 -0.8187925 -0.52706474 -0.38614073 0.2608561 -0.9710854 -0.1046579 0.7851845 -0.11648594 0.36732274 -0.7532738 -0.08389353 -0.1376127 -0.574828 -0.4275879 0.3111279 1.0699208 0.27598947 -1.3292778 0.7741469 -0.5279096 -0.6415648 -0.21115592 0.5962039 -1.5830541 -0.40509406 0.34230277 0.103430465 -0.46158952 -0.11858501 -0.5025683 -1.1020218 -0.000673197 -0.90003455 -1.6645135 1.0992161 1.2421987 0.36780223 0.16009015 -0.7305252 -0.005544598 0.57919055 0.42142403 0.44090062 -0.28708774 -0.76872915 -0.30816346 0.14768091 0.4592994 0.21062672 -1.8077898 1.5608417 -0.4671059 -1.0781507 0.63026744 -0.21823126 -0.4662698 0.6114558 0.26020768 0.13465829 0.1585702 0.6439146
2372 0.20071408 -0.032964576 -0.09442967 -0.21860921 0.21552937 -1.3072497 1.5822645 -0.03689608 0.39827546 -0.47519752 -0.7875449 0.82574207 0.4833296 -0.53880143 -0.37247825 -0.10551232 -0.64973557 0.38548613 0.9805732 -0.17765075 -0.40914515 1.3397458 0.5253935 0.487312 0.006555931 0.18532649 -0.36341968 -0.61615235 0.31197068 0.26627648 -0.23667283 0.23183326 0.60802585 -0.6445489 0.19853893 0.36047935 -1.1068854 -0.32087925 1.0534467 0.18203144 0.023589555 0.052361727 -0.31193027 1.2372428 1.0681237 -0.30517066 -0.6901327 -0.354985 -0.77844775 1.1639887 -0.26493537 0.77415615 0.22509511 0.009610966 -1.3103225 0.24750748 -0.048532866 -0.36956018 0.3746638 -0.50785947 0.09392112 -0.269311 -0.20756279 0.10614204
1971 0.44647136 0.026951205 -0.8965535 -0.8220005 0.48515102 0.48565087 0.50010705 -0.731224 0.12702085 -0.09768254 0.48946127 0.12217106 -1.1035581 -0.6483157 0.2083806 -0.74738216 -0.24104083 -0.63313615 -0.54819995 0.2072547 -0.059551686 1.5477984 0.20794499 -0.7994752 -0.26052514 0.21530455 -0.1840922 0.93541586 -0.39776507 1.0758328 -0.104055285 0.20544934 0.014687324 -0.6532001 0.849051 0.07593175 -0.5249124 -0.01210223 0.3949939 1.1289864 0.3408985 0.4718967 0.3252317 0.09900375 1.806915 0.92310625 0.025772728 -0.59555334 0.32866767 0.8934635 -0.032086644 -0.16896453 0.04573621 0.56311005 -0.1132936 -0.11767225 0.79545367 0.6283176 0.08844954 0.15324438 0.32036394 0.16624296 -0.7787918 0.1492328
2242 -0.12181994 0.3990821 0.18001987 -0.5637977 -0.39133465 -0.7169998 -0.5170737 -1.2789183 0.03935741 -0.15707672 -0.16187873 0.4191818 0.47724056 0.48117045 0.029478744 -0.018226113 -0.6958736 -0.61333704 0.22071211 0.75479096 0.972469 0.8850583 1.067072 -0.320731 -0.7511494 1.059977 -0.6086745 -1.3007635 -0.18588409 -1.0717908 -0.040590163 2.0972142 0.016549077 -0.65696174 0.31888577 1.082354 -0.8535262 -0.013206148 -0.77410024 -0.26383266 -0.7075759 -0.4739973 -0.057607543 1.1274793 0.9946605 0.077152416 0.14552633 -1.0412639 0.0076251 0.9613943 0.8104413 0.6783185 0.42613885 -0.05705956 -1.1523961 -0.12175554 0.48175183 0.43670687 -0.4892746 1.0643476 0.18533118 0.2713015 -0.4583651 0.41539118
1013 0.076795176 0.42008877 -0.9292862 -0.8156852 0.22819023 -1.0191227 0.6156519 0.0423913 0.18265212 -0.26774094 -0.3520219 0.13554807 -1.3766109 -0.029679792 0.57145643 -0.30897662 -0.24103376 0.6306208 0.046558753 0.14386256 0.58786017 0.3905915 -0.6439626 -0.6562364 0.10176775 0.36809492 -0.09642925 -1.0233463 -0.08222248 0.369604 -0.56903595 1.0934577 0.37374067 -0.691724 -0.39179295 -0.23824161 -0.9580685 0.23914933 -0.6190839 -0.36812577 0.17525098 -0.8001956 -0.32052973 0.25869438 1.1224923 -0.3589063 -0.29034057 -0.2421831 0.62683254 0.35282406 0.16232878 -1.1954093 -0.41030028 0.09419989 -0.57911366 0.16597717 0.89741206 -1.0620543 -0.12418788 0.60188913 0.6106659 0.95473504 0.027773043 -0.25964805
2380 0.592166 -0.08843527 0.5779626 -0.85649353 -0.44674188 -0.42540067 1.6781204 0.49114266 0.09268654 1.3079606 0.6596124 0.39210197 -0.02567616 -0.29370183 -0.2670809 -0.230095 -0.18580121 0.7088997 0.8062762 0.099139616 0.014339633 1.0415714 0.12340522 -1.1253431 -0.37207317 -0.15162969 -0.730488 -0.15305099 0.7490447 -0.6054749 -0.40688914 -0.12033574 0.32958117 -0.79889095 0.00861577 0.07041793 -0.40282077 0.3098058 1.2819237 0.12830818 -0.062244657 0.041319154 0.79242885 1.0165497 1.3863753 -0.05480664 0.16003297 0.30003378 -0.31393957 0.8387199 0.45742095 0.022906825 -0.412115 0.09474547 -1.0646204 -0.3344917 0.46698174 -0.17963712 -0.27107853 -0.1726156 0.8321619 -0.28525463 0.13506745 -0.08874094
1169 0.591551 -0.17135932 0.3864591 -0.9352946 0.12183569 -0.1888844 0.4217521 -0.18919732 0.0630383 1.0884082 -0.050391193 -0.76294 0.24631076 -1.0567967 -0.077958494 -0.12907317 -0.59165746 0.66507286 -0.53936106 -0.6896318 0.27093396 0.80338705 -0.58292186 0.4997767 -0.19296806 0.7135876 -1.5147867 -0.49092788 -0.71141315 0.06275515 -0.87667286 1.2224503 0.7620187 0.5398609 -0.32903925 0.66168314 -0.05765267 -0.6373996 0.0659436 -0.752582 -0.46769455 0.014289287 0.048468474 1.3682718 -0.14195764 -0.89578676 -0.13333286 -1.1502059 0.30165124 0.3149005 0.32636622 -0.12881444 -0.029929884 -0.0109756915 -0.43446234 -0.58040863 1.4533167 0.24078195 -0.26792875 1.1028059 0.15048476 -0.75386065 -0.77251536 1.2113577
2268 0.7176295 1.0807694 -1.0820081 0.47380054 0.713346 -0.47888142 0.73121345 -1.129093 0.042242933 0.018775111 0.16354378 0.22152282 -0.54030234 -0.27269343 -1.1586998 -0.38235417 -0.32737648 -0.36215323 -0.2616137 1.1733032 -0.99990267 2.0376465 0.0652065 -0.60830885 -0.9840593 1.3641241 -0.73454255 0.7083136 -1.6898472 -0.51500434 -0.7612371 0.7973286 -0.786735 -0.40583265 0.7244199 0.04400432 -0.3627751 -0.27827966 -0.5784343 0.31884363 0.668375 0.6421017 0.18300693 -0.13107157 0.8401782 -0.24517997 -0.024870187 0.051676504 -1.0680912 -0.45988634 0.79867 0.8203764 0.059973184 0.2315884 0.4067353 -0.99882936 0.009579731 0.8142718 0.08942656 -0.39085993 -0.94170284 -0.0011800422 -0.14712939 0.3743824
2228 0.10610253 0.7066766 0.33874235 -2.083357 -0.73780954 -0.16221166 0.49180707 -0.46087494 0.49977225 0.5842813 0.47912169 0.33976328 0.16837756 -1.0855088 -0.67289263 -0.59167504 -0.52436495 -0.08234286 0.3242531 0.067309655 -0.7237284 1.3725549 -0.06991566 -0.45010495 -0.7979459 0.1472645 -0.9736965 0.6476871 -0.22871974 0.8735388 0.12000264 0.11730445 -0.9956779 0.37121686 -0.55349827 0.29526174 -1.0243331 0.37070528 1.5154331 1.6075495 0.05360772 -0.46985576 0.22253923 -0.2464905 1.677915 0.9501977 -0.62850726 -0.0568632 -0.31383932 0.83841985 0.28764457 -0.47169438 -0.837398 0.44393513 -0.03996545 -0.4588961 0.5580332 -0.45270395 -0.16650942 -0.05810093 -0.0819949 0.109902255 -0.44362858 -0.5886785
2163 -0.6106925 0.24800742 -1.1608477 -0.15417814 -0.43431315 -1.0859878 1.0107942 -1.2489597 -0.45255607 0.27417517 0.4164732 -0.24901332 1.0677416 0.076588504 -0.82164437 -0.4063608 -0.036236353 -0.99403167 0.6896703 0.020943036 0.7923084 0.26962346 -0.0066428697 -0.5765525 -0.82296175 0.5909422 0.7511724 0.18670216 0.6607893 -0.08138508 0.155909 0.734672 -0.20550597 -0.54196054 -0.27349943 0.50133616 0.57100224 -0.18460134 -0.43333384 0.35399413 0.9097725 -0.7066991 0.357923 0.494945 0.7221654 0.09602481 0.21632338 0.81771356 0.26324886 0.34678704 0.49869898 0.2605858 0.393819 0.37880784 -0.48180434 -1.4684813 -0.503333 0.34695 0.15396222 0.9220282 -0.5637676 0.3547123 0.2688423 -0.23816615
1958 0.3549287 -0.11676186 -0.6250542 -0.117906675 0.5347184 -0.7372362 -0.21329445 -0.78423244 0.56493205 0.3232549 -0.1248754 0.4780559 -0.34738177 0.12866057 0.13457683 -0.53493536 -0.52344537 -1.5144975 0.19871666 -0.55143464 0.24785237 0.5957728 0.35983655 -0.18548845 -0.22974423 -0.09608229 -1.3803909 0.731634 -0.15045692 -0.018249424 -0.40984926 -0.3914634 -0.35121238 -0.7187975 -0.58578974 -0.12026928 -0.21955056 0.31636155 0.4178443 0.30630735 0.84820694 -0.29811525 0.24160334 1.3151987 0.15626217 0.44880354 0.9914159 -0.18905659 -0.14369133 -0.6168677 0.27697688 -0.22157905 -0.31721336 0.37810713 -0.6564201 -0.65500075 0.6406849 0.5958665 -0.04770085 0.77039766 0.42483962 1.4437128 -0.02854782 0.19833781
2306 0.09786161 0.34008363 -0.64406836 0.4115963 0.6796539 0.061228003 1.3860073 -0.64028716 -0.9266826 0.08899274 -0.9515394 -0.58844185 -0.6639226 -0.13455395 -0.53716874 -1.2678897 -0.55603874 0.016768545 -0.28190428 0.6918646 0.07020284 1.3707771 0.49853125 0.41142792 -0.13614127 0.3814911 -1.9191457 0.522967 -0.36588225 -0.5838362 0.3223843 -0.3586225 -0.54807687 0.12971796 -0.31199425 -0.31001908 -0.7181321 0.90926564 -0.058845174 0.32568517 1.1472644 0.04118954 -1.1404185 0.96481824 1.0961038 0.23265997 -0.15277034 0.59068197 -0.48515952 -0.4509035 -1.1243485 0.59686583 -0.28081626 0.84151685 -0.2825469 0.002881828 0.574254 -0.81453574 0.30318806 0.12443402 -0.27737004 -0.013291149 -0.6003357 0.81008935
2395 0.03740152 0.42302933 -0.05743744 -1.1015295 -0.5738865 -0.46107367 0.63717085 0.18078616 0.76039124 0.6036632 0.51606166 -0.047083337 0.54230046 -1.0984731 -0.3175407 -0.48746353 -0.3604852 -0.20308225 0.18855995 0.40767893 -0.09214194 1.0598956 -0.42054844 -0.84050727 -1.163804 -0.0732735 -0.6223081 0.47128865 -0.1795339 0.35304734 0.0052341404 0.08010334 -1.0378245 0.32174987 -0.13274518 0.5859232 -0.9190046 -0.20605054 1.0466739 0.88205355 0.12482721 -0.07579435 0.3271059 -0.26141727 1.4856901 0.9271814 -0.4589116 -0.06333577 -0.60276145 0.13761131 0.3201895 -0.40625155 -0.35459894 0.90350455 -0.14252152 -0.97884303 0.053980097 -0.31865838 -0.4064636 0.15675509 -0.3705036 0.04649239 -0.35584596 -0.66375995
2247 0.37668008 0.20727125 -0.4421614 -0.5828667 0.031579673 -0.05899505 -0.17293373 -0.53997993 -0.8278814 0.8163852 -0.34435168 -0.4336628 0.043871507 0.6240381 -1.0706662 0.65365183 -0.37991965 0.042443905 0.7262223 0.9339563 0.75641215 0.63832253 -0.031698927 -0.80217016 -1.3223678 0.24427937 -0.65778726 0.17257492 -0.1571121 0.5910187 -0.39880097 0.3155718 0.1973867 -0.5391409 -0.8773088 -0.4132392 -0.68575156 -0.6519958 0.49613354 0.25666973 -0.32533133 -0.27348116 0.31410605 1.123865 0.67843616 1.5769043 -0.28664866 -0.17883825 0.031225769 -0.33926603 -0.3665591 0.46463856 -0.027347745 0.28749478 -0.779864 -1.3805786 0.45772594 -1.1146466 -0.09008859 0.94700027 0.13658468 -0.18251948 2.6069827 -0.15511987
2117 -0.11121177 0.10390605 -0.4144114 -0.74991137 0.8197925 -0.53752744 0.8579132 0.990191 -0.3497302 0.9083582 0.14562933 -0.7358402 -0.23415555 0.08329685 -0.5938492 -0.38686478 -1.4029008 -0.1915779 0.30832317 0.24971135 0.48849458 0.6609808 0.33105823 -0.42794022 -0.12487574 0.63541573 -0.42579225 -0.082074665 0.41259712 0.39442748 -0.4979439 -0.09209694 -0.19786274 -1.399515 -1.0387136 -0.09051085 -0.75537956 -0.3753763 0.31270137 -0.0068281773 -1.0961105 -0.8586602 0.55426747 0.4640182 0.8424991 0.7870832 0.061661154 0.4534431 1.5638852 -0.28902742 -0.5319813 1.1434119 0.38329187 0.55636483 -0.6061868 -0.7275483 0.96179867 -0.006587757 -0.04880738 -0.18959221 -1.1784403 0.8541811 -0.1207644 0.10976331
2503 0.57197374 -0.26868182 -0.69012207 0.06894301 -0.37997413 0.36296573 -0.43561742 -0.613987 0.4220906 0.55545574 -0.7271846 -0.5970108 -0.711848 -0.08897629 -0.9071655 -0.69292873 -0.7059499 -0.08334645 0.78331506 -1.0601248 -0.7515837 0.5840672 -0.6433239 -0.96051574 -0.16298845 -0.546499 -1.5631152 -0.30724564 -0.4394143 0.22852713 -0.507578 0.2927704 0.32184935 -0.123228565 0.42284697 -0.18385856 -1.1528139 1.0580473 0.36812004 0.23218843 0.96971685 -0.3108578 -0.47382984 -0.21893771 -0.052755877 -0.113470234 -0.040205535 0.008080767 0.44108143 -0.27828047 0.6163107 0.48323074 0.2916762 0.1333628 -1.0189978 -0.3656569 0.43712816 0.07184071 -0.5467953 0.8145338 -0.14454739 -0.11796543 0.27160728 0.7736949
2161 0.7515017 -1.0964555 0.5870956 -0.22308424 -0.5285041 -0.40643167 0.534079 -0.37036937 0.19720289 0.790541 -0.41784668 0.23715138 -0.78911847 -0.1596639 -0.44916067 -0.045709103 -1.3186986 -0.57637715 1.5879312 0.17848204 -0.62437403 0.16693194 -0.5848989 -0.00012782885 -0.66977435 -0.15261504 -0.57181865 0.035497267 -1.146258 0.7381844 0.011981817 0.24160227 0.09045423 -0.32100365 -0.6642147 0.04654987 -1.201272 -0.11882659 0.15649326 -0.89157844 0.94957936 0.10958717 -0.10786098 -0.36411294 0.45828357 0.57096773 0.4196964 0.8341394 0.16555536 1.0798 0.15238482 0.99503094 -0.1733205 0.13169117 -0.1879859 -0.46454898 0.45434093 -0.19508426 0.00024831214 1.0129796 -0.84651095 0.39743555 0.25936738 1.2623966
2399 0.02852547 0.40184605 -0.13342853 0.7029102 -0.33894047 -0.3818308 1.1087402 -1.2982999 -0.44388524 -0.5607209 0.6173029 -0.85067594 -0.42623955 0.36039957 -0.87297696 -0.7842677 -0.08891424 -0.4031454 0.42239398 0.17374209 0.017365357 1.4953351 -0.43973354 -0.44659638 -0.4081478 1.1112536 0.7492532 1.2225016 -0.95662034 0.75918186 0.26630294 0.53149813 -0.2820336 -0.8738539 0.5257157 -0.8686681 0.10369466 -0.3949889 0.31406897 0.79752713 0.4920117 -0.4869951 0.27301255 1.4269837 1.7314222 0.2912076 -0.66497 0.36403474 0.5120098 0.6754811 -0.118387476 -0.45739898 -0.4755722 0.8786298 0.22114138 0.27433276 -0.13144265 -0.022293778 -0.6055893 0.33589908 -0.0055656307 0.72721654 0.59874254 0.3736978
1317 0.42718598 -0.63294643 0.5195552 0.038107343 0.162888 -0.14321297 -0.14316538 -0.9246454 -0.21956094 0.7720238 -0.67418504 -0.42924282 -0.43381476 -1.1816785 -0.5533245 -0.6388283 0.032497287 -0.43202138 0.10315388 -0.2792091 -0.010438866 1.3321391 -0.48301652 0.1652983 -1.1765629 1.274851 -0.6828838 -0.75087476 -1.5391818 0.12732211 -1.1932364 0.9569822 1.0901538 -0.8403374 1.4664885 -0.3089517 -0.59444624 -1.1015958 -0.11908286 0.10197619 0.39873895 -0.33916897 -0.09353758 0.4215788 0.4273394 -0.5838996 0.45319733 -0.38402346 0.98584896 0.55976504 0.2818053 0.6771613 0.1797315 0.6346322 -0.36504185 -0.36426443 1.104349 0.25469267 0.43698347 0.009212735 0.16487114 -1.1828418 0.16690156 0.56556195
2465 -0.53450733 0.37889475 -1.3527297 -0.38088608 -1.1959288 -0.47377208 0.43298605 -0.99071306 -0.38353413 -0.13341238 0.61497223 0.31163165 -0.35158208 -0.43718612 0.15224737 -0.075777784 -0.3892268 -0.032185737 1.2683234 0.24160951 -0.54513305 1.4926224 0.62505597 0.15918733 -0.6293966 0.25068355 0.79851943 -0.66718346 -0.79946756 0.2781886 0.14154144 0.43276432 0.8793828 -0.57414716 0.3367522 0.43908972 -1.3714556 -0.040952798 -0.08463994 0.0020429762 0.98800254 0.046327718 -0.38935322 1.1590779 0.92102504 -0.15845661 0.28027096 0.056183152 -0.7537835 0.21753396 -0.2569421 0.23020865 0.14520185 0.82990116 0.12262024 -0.44981757 0.5996439 0.023279749 0.5754905 0.0624356 -0.304201 0.5527842 0.42774683 -0.05263914
1413 0.9795569 0.11354318 -0.572984 -0.44071615 0.05422305 -0.5666238 1.5164961 0.1007702 -0.06425258 -0.0911696 -1.0714314 -0.28588417 0.31506774 -0.9645093 -0.63208085 0.31134433 -1.395577 -1.5018282 0.24669479 0.68006235 -0.6769824 1.3618181 0.11065909 0.06064948 -0.003309435 0.17620644 -1.504482 0.46770313 -0.49687088 0.3504507 0.10062657 0.06845204 -1.0904849 -0.89864594 -1.1451077 0.6140575 -0.36760318 -0.16141962 -0.15601629 -0.6557945 0.029097456 -0.36518937 -1.0365156 0.5837912 1.391904 -0.6949123 0.40477368 -0.13238312 0.42271724 0.1904523 0.07811306 -1.1525785 1.2661927 0.41934195 -0.16252494 0.23488009 0.9024818 0.5827919 -0.38421088 -0.06780775 -0.5660407 -0.25062984 0.92389077 -0.50397277
1929 0.20325616 0.6339945 0.0094978735 0.29368892 0.66453195 -0.2564092 0.7673343 -0.2878553 -0.23861022 0.21260586 0.47941348 0.1519451 0.85696936 -1.4876561 0.2727302 0.22836427 -1.5180542 0.5168131 -0.8498739 0.031417664 0.4896997 1.0583044 1.1468017 -0.7996075 -0.24672326 0.3017315 -0.7227195 -0.08043286 -0.7723732 0.17671436 0.077573374 -0.18581061 0.3382995 -0.5060315 0.10291845 0.82570934 -0.31643116 -0.12466295 0.5184669 0.51133204 0.34554708 0.33564824 0.3140898 1.3067588 1.1676548 0.7068985 0.31107637 0.84596866 0.3039344 -0.63509095 -1.1970913 1.2242676 -0.45616847 0.17904653 -0.8194798 -0.6558161 0.14726515 -1.1882354 -0.20771685 -0.39896724 0.035791058 -0.35620424 -0.8799504 0.7432454
2385 -0.073801205 0.22485411 -0.37261164 -0.67640984 0.6693957 -0.17454155 -0.10019808 0.27198112 -0.4425258 -0.01336934 -0.020144664 -0.29568416 0.4109013 -0.7830375 0.07446297 0.7698946 -0.36158544 -1.0958536 0.11153534 0.35635328 0.23312598 1.0815204 0.35658646 -0.5329047 0.035659876 -0.15693651 -0.82502496 0.3203479 0.41841254 0.22430357 -0.36210516 -0.42822576 -0.86805665 -0.73778135 -0.90584314 0.81707466 -0.74896544 -0.39254528 -1.1605759 0.3234021 0.49696276 0.66760606 -0.11175755 -0.30273712 0.92333937 0.5969558 -0.6645827 -0.15088516 -0.06905861 0.3290034 -0.40624163 0.124707825 -0.23209393 0.7218979 -0.6290012 -0.2629133 0.8052288 -0.8725363 0.09108687 0.63251835 -0.48988402 0.8026078 -0.9590708 -0.41794032
2080 0.9963712 -0.5285079 -0.82418686 -0.68804336 0.17664097 -0.8129775 0.64665675 0.3082499 0.15193245 -0.3779243 0.27982694 0.36689597 0.083525546 -0.6444643 0.2999439 -1.0322115 0.091371246 -0.8403183 0.24575657 -0.3137502 0.1934573 1.7678386 -0.8694832 -0.3853191 -0.07184994 -0.12106535 -0.38612637 1.0698522 -0.3173528 -0.26565668 0.42501238 0.04947948 -0.25650704 0.15191926 1.0614622 0.31871212 0.41787112 -0.21637137 0.4160811 0.12029547 0.8411614 -0.26961887 -0.5529165 0.36935884 -0.12304852 -0.35842732 0.3956735 0.042278815 -0.39453718 0.99695826 0.4439948 -0.40814126 0.17351092 -0.2669827 -0.45228112 0.15229489 -0.290126 -0.46572384 -0.21897809 0.5857251 -0.356883 1.2006882 -0.34997144 0.48905507
1829 -0.66827226 -0.657733 0.55579793 -1.119741 -0.7578043 -1.0733818 1.0036188 0.2493118 -0.38802212 0.12019928 1.0602463 -0.45234364 0.06569254 -0.5170336 -0.34641975 0.309605 -0.28637198 -0.43347454 0.5910313 -0.10450035 0.52399176 1.383649 0.28284705 -0.93981963 -0.59794277 0.30701038 0.30411857 -0.6521739 -0.9742957 -0.20184374 -0.00072772277 2.1052012 1.0963522 -0.046695367 -0.21742943 0.68432206 0.060213678 -0.6623319 -1.1154438 0.56690264 -0.6328539 -0.12551434 -0.0012137855 0.18084612 1.1529527 0.70234805 1.03383 0.3538019 0.107664384 0.24557717 0.5376034 1.1895549 -0.12977067 -0.20524691 0.2892206 -0.39246133 0.40063235 -0.5381698 0.20462412 1.2489297 -1.313333 0.8808062 0.86264354 0.512979
2056 -0.34141785 0.16216674 -0.6632307 -0.22613397 0.10268123 -0.20250285 0.7631352 -0.89297014 0.1201939 -0.1514522 -0.33472618 -0.29505426 -0.5408697 -0.1810899 -0.69044274 0.51548684 -0.92876303 -0.27788648 1.2258092 0.22107673 -0.08084562 1.0425937 0.9448219 -0.46228933 -0.3504245 -0.07831412 -0.6476677 -1.5603223 -0.44358757 0.5724981 -0.7537323 1.3652804 -0.34770307 -0.30871686 -1.2432187 1.2821602 -1.0374799 -0.0922869 -0.13246351 -0.6300358 -0.37783533 -0.22921152 0.3577614 0.8796474 1.5799906 -0.09811762 -0.057306904 -0.14167586 -0.2490081 0.3868493 0.21009468 -0.8929205 1.1830971 0.74695545 -1.6541886 -1.0364115 0.017203137 -0.48555025 -0.34184507 0.89606535 -0.12837058 -0.7241049 0.24463753 -0.34567797
1975 1.3874732 -0.4724348 -0.76790917 -0.9951047 -0.2534762 -0.08958413 0.590248 -0.44530395 0.025155488 -0.30334058 -0.26851112 0.2496526 -0.87633944 -0.73824537 0.18856284 0.399404 -1.2261462 -0.82883716 -0.5532778 -0.093376026 -0.56413287 1.782209 -0.37548658 0.08055238 -0.06511877 0.12754427 -0.56338483 -0.94986826 -0.058971275 0.55980605 -0.067618065 0.4458413 0.4090535 -0.83401066 0.14343187 0.55454415 -0.45702323 -0.6177817 0.60105616 -0.32886183 0.45398968 -0.015778797 -0.9660857 0.3883271 1.4926605 -0.77402323 0.27963898 0.4180952 -1.1352063 -0.043814816 0.7032053 -0.40504044 -0.7380557 -0.5719552 0.33844978 0.762745 0.08926744 0.31163725 -0.56288135 -0.7363305 -1.0488186 -0.3477692 -0.5245652 0.32527027
1721 -0.24460302 0.19128284 -1.1168827 -0.5963572 -0.28641954 0.34961307 1.0043164 -0.79795164 -0.8093695 0.12621519 -0.6287756 -1.091417 0.07659217 -0.0431237 0.017765937 -0.008420416 -0.28050548 -0.051394444 0.18332808 -0.4754293 0.22477041 0.52274144 -0.13286975 -0.7630316 -0.14934818 1.3396744 -1.0884967 -0.7210488 0.15239958 -0.777317 -0.1707197 -0.21243049 1.3362526 -0.035390105 0.33222622 0.73997635 -1.3572477 -0.03427198 0.11794324 -0.40663865 0.54801345 -0.772308 -0.23571904 0.9851396 -0.4006634 -0.31448516 -0.030420125 0.073301174 -0.73982674 0.22829631 0.59330446 0.92733246 0.526743 0.5433211 -0.12826622 -0.8966451 0.16636446 0.16327691 0.053439055 1.064737 -1.226503 -0.72557425 -0.44857526 0.75336355
1778 0.5407336 -1.2832009 0.24810317 -0.63609457 -0.2824585 -0.7975687 0.39928305 0.058222122 -0.31388205 0.84456044 0.02802246 -0.17254297 -0.36982206 -0.33271343 0.3780053 -0.634932 -0.023492852 -0.7608641 1.0997317 -0.15517822 -1.0385562 2.078591 -1.4892156 -0.8018117 -0.32028064 0.0027469867 -0.7448128 0.12720892 0.577939 0.31761047 0.84941417 -0.70619994 0.56798065 -0.3746589 0.35165098 0.006204422 -0.5245134 -0.1957393 0.5925036 -0.37999234 0.46319643 -0.9158822 0.0022510919 0.39634237 0.3972353 -0.9669234 1.1043226 -0.08996759 -0.042956088 0.713704 0.6052925 -0.029137282 0.06802607 -0.26055792 0.042922474 0.20719732 -0.7028291 -1.3810973 -0.19846258 0.24827887 -0.31324282 0.9042343 0.50286585 1.2774204
1627 -0.19415134 0.5299421 -0.33786893 -0.3372421 0.16549568 -0.74983525 0.19122027 -0.73507184 -0.24082801 -0.19662333 -1.1471053 -0.77616847 -0.009821717 0.4394227 -0.611003 -0.2771896 0.056398004 -0.7703789 0.675526 0.2394345 -0.44991815 0.8291325 -0.83567417 -0.34152648 0.019001333 0.7696348 -0.8571109 0.7976505 -0.6833675 -0.98980814 -0.13933489 -0.29520378 0.45290807 0.24821833 -0.84312236 1.319027 0.2211329 -0.058394782 -0.9636553 0.10950848 0.44469127 -0.5465742 -0.6378172 0.23750079 0.87560004 -0.9608215 0.44200197 -0.057743702 0.21968524 0.2447856 0.12714139 1.3751341 0.85767615 -0.18057337 -0.15274686 0.04588488 0.21747647 -0.70291114 -0.004076152 1.6690534 -0.4660771 1.3677942 0.3197463 1.7794071
1042 0.41848296 -0.4590207 0.48692387 -0.15460835 -0.6850557 -0.8346216 -0.7732711 -0.52616835 -1.0305072 -0.2450129 0.11275955 -0.6854854 -0.37385762 0.34439677 -0.61403185 -0.40278327 -0.5963162 -0.6235414 -1.1874368 -0.6251102 -0.027281143 0.95160913 0.66372097 -0.80665547 0.24788915 0.12291505 -0.6203633 0.08170839 -1.2586819 0.1711171 0.17696972 1.1283927 0.1533542 0.22262138 0.08686257 1.4983879 0.17125341 -0.4736215 0.1633789 -0.78427535 0.016272485 0.58499104 0.13364904 1.4273221 0.9866235 0.1683874 0.06269821 0.6711726 -0.9689153 -0.05033376 -0.112670444 -0.75118905 0.7439558 -0.18537253 -0.031732574 0.12683524 1.1371875 -1.0943788 1.0079875 0.5314925 -0.17680436 -0.027379014 0.5178524 0.3420916
2199 0.7851253 -0.24056245 -0.194027 -0.9371057 -0.87608343 -0.6973117 0.64243674 -0.48673114 -0.31975585 -0.42581633 -0.645906 -0.40591228 0.48160872 0.94365615 -1.0981357 0.67745876 -0.41050097 -0.9482818 -0.9715518 0.3529478 -0.080586396 0.8495221 0.76591855 0.24577826 -0.24047227 0.8329988 -0.98748136 1.1835047 -0.61482346 0.16619861 0.20910047 1.0149307 -0.10453078 -0.5861984 -0.9127013 0.33334246 -0.6899094 -0.0729622 -0.05061826 -1.379186 -0.9201736 0.61182874 -0.6539958 1.7213714 0.37031546 0.24076766 0.25537643 0.7797471 -0.53308475 -0.072761446 -0.40203935 -0.18385413 0.22041021 0.28002894 -0.9478804 0.30063397 0.8120189 -0.5308316 -0.7863431 0.11832358 -0.8592063 -0.31232 0.89114547 0.83157367
1038 0.57454807 0.5194248 -0.12600449 -0.6933609 -0.38797355 -0.08167176 -0.061593167 -0.6063235 0.0870551 0.8007553 -0.59864146 -0.66694736 -0.853193 -0.38637882 -0.2722893 -0.44015807 -0.40448624 -0.097028516 0.7406436 -0.18991391 -1.1845549 0.6613355 -0.73971546 -0.459252 -0.42773056 0.47415397 -1.2572422 0.05547105 0.16995734 0.2661325 -0.968182 0.074357875 -0.10198472 -0.7870082 -0.123799734 -0.6134937 -1.3085783 1.239276 0.92466885 0.5024677 0.3029392 -0.72228307 0.2835291 0.37390125 0.12069216 0.21333942 -0.09689796 -0.33134025 -0.66604054 0.033134412 1.1379149 0.09391857 -1.0138043 1.0355666 -0.31840652 -1.1614093 0.50601655 0.50370497 -0.4950881 1.0524635 -0.14509349 -0.4496685 -0.32797506 0.40827134
2237 -0.22125211 0.63968253 -0.6575315 0.40538478 0.43194103 -0.986203 0.7941725 -1.3997682 -0.6577854 0.061803054 1.0551672 -0.1597023 -0.619992 -0.036143683 -0.62847537 -0.90796554 -0.1387879 -0.5673164 0.4749358 -0.047245163 -0.15076034 2.0953689 -0.85436624 -0.038522214 -0.27414837 1.0554091 0.1259196 0.96061903 -0.7115571 1.1125973 0.4936984 0.616164 0.48100835 -1.3460743 0.7962486 -0.61465657 0.1361509 -0.43938622 -0.28803992 0.94198173 -0.17163676 -0.14784093 0.4612345 0.86456525 1.6830407 -0.10033705 -0.23879963 0.10752224 1.0998381 0.27174315 -0.82516336 -0.28004685 -0.0012937613 0.5254928 0.005861659 0.080975 0.460978 0.38593143 -0.16028659 0.3647491 0.288339 1.2154998 -0.116458006 -0.0043122224
2027 0.79437786 -0.5832111 -1.1091764 -0.8564728 -0.19825357 -0.9548197 -0.31945205 -1.5516881 -0.17161027 -0.7630065 0.19746695 -0.11473187 -0.4867293 0.28325722 0.1218885 0.2289227 -0.11492157 0.18161383 -0.35164186 -0.98903453 -0.015692396 0.9288464 0.041218042 -1.0262897 -0.28928038 0.09753082 -0.18757685 0.056673344 0.51640207 0.46122426 1.122195 0.57670206 0.67758673 -1.0338368 -0.17306788 0.657931 0.34423342 -0.62643003 -0.048727617 0.16072136 0.595013 -0.0673484 -0.636842 1.2282759 0.8700086 -0.5025924 -0.581704 0.8734234 0.24194266 -0.38324168 -0.21275909 0.20637392 0.17548695 0.49490386 -0.10496308 -0.5278514 1.8329268 0.6201535 0.023116421 0.54328215 -1.3512473 1.0668128 -0.4476858 -0.19606256
2476 0.09745639 0.040873125 -1.0538967 -0.9873014 -0.071843766 0.45077008 0.69706774 -0.61844975 -0.9623614 0.17919551 -0.42694896 -1.1065007 0.32746756 0.13588573 0.53208745 -0.12147034 0.06766655 -0.021347981 0.29854712 -0.4117565 0.18748392 0.93072665 -0.5324427 -0.48014283 -0.15395376 1.0477778 -1.0874697 -0.9306548 -0.027867893 -0.08313851 0.039150767 0.5307078 0.85020137 0.14086258 0.7100041 1.1417296 -0.5032332 0.33902413 -0.5742129 -0.560904 1.1676072 -1.1154227 0.15772659 1.5624197 -0.26081383 -0.7650362 0.6359644 -0.086867385 -0.3699645 0.1128853 0.71306944 0.45279527 0.037420038 0.32499 0.1524823 -0.57887363 0.20098785 -0.010624901 -0.31255123 1.187036 -1.3785993 -0.5203129 -0.72001576 0.78319794
2425 -0.34075454 0.37440953 -1.129035 -0.382812 0.50531936 -0.77252626 1.1087389 -0.5316067 -0.17226717 -0.5714732 -0.2051856 -0.2328583 -0.8111434 0.99540156 0.64758945 -0.4366523 0.31875494 -1.2972319 0.6703648 -0.42185238 0.10582217 1.8312215 -0.24044125 0.29632413 0.14716147 0.12909661 -0.24047378 -0.5872601 -0.32514325 0.22007427 0.003774953 -1.2150166 1.0796862 -0.86428505 -0.10607114 0.87784374 -0.88557714 -0.79091686 -0.37036675 0.35316384 0.83771765 0.33960944 -0.5176777 0.98379016 1.1347877 -1.132833 -0.07459635 -0.12695216 -0.34366816 -0.48508778 -0.09020615 0.64010066 -0.30724692 -0.395336 -0.9135761 -0.8445553 0.31262934 0.05448624 0.054456245 0.24407332 -0.04122186 1.8178036 0.3723444 0.35603285
1873 -0.020638444 0.59637064 0.088162154 -0.8011342 0.17993481 -0.9808043 0.041173693 0.035618797 -1.0850855 -0.25687948 0.45488486 -0.1983639 -0.06476849 -0.3173334 -0.2281785 0.30998418 -0.72058743 0.90568703 0.64775825 0.11452149 0.38662156 0.47999966 0.078009486 -0.88493705 -0.31330174 0.7101816 -1.2942278 -0.18496801 0.5251495 0.25025928 1.1463718 -0.2595758 0.24588618 -0.8322213 -0.11615932 0.67934924 0.14234054 -0.08665331 1.0079507 -0.293342 1.0394832 0.14952503 0.3265963 0.15372325 0.08195551 0.67567575 0.011157515 -0.30381605 0.37178656 0.24799626 0.065815166 0.5667627 -0.23931356 0.21538013 0.24276438 -1.1426709 1.1749992 0.2935384 -0.43756637 0.17305724 0.4681754 0.3304258 0.7238152 0.6524287
1703 0.5648869 0.73072344 -0.9754032 0.15493722 0.92803085 0.035421323 0.87140346 -0.9407784 0.37648496 -0.36738962 0.43144447 0.63455033 -1.0229456 -0.14872159 0.1739335 -0.22939777 -0.9706903 -0.5919965 -0.011738483 0.56446147 -0.5269792 1.3320776 -0.22833681 -0.4705394 0.18918896 0.40117818 -0.7820972 0.46618333 -0.73292565 1.384071 0.31161043 0.7346566 0.428248 -0.67679846 0.391936 -0.7000608 -0.018421074 -0.70935965 -0.8714493 0.66330117 0.26179957 0.50024265 0.6303743 0.22060806 1.6128395 0.55670756 -0.28921503 -0.45457685 -0.25628686 0.8700583 -0.4304081 -0.13138947 -0.51468956 0.53114957 0.30035514 -0.17969635 0.2527785 0.31364802 -0.02611677 -0.15141724 0.17904496 0.3251656 -0.65110576 -0.12101114
1842 1.209151 0.8901484 -0.34692174 -0.9623063 0.22086263 0.08757282 0.081909746 -1.7881415 -0.72860664 -0.50436807 -0.25728428 0.46404433 -0.2022056 -0.27715263 -0.48503155 0.018510234 -0.8446524 0.818132 -0.5120551 0.07792691 1.4982806 0.46454442 -0.7734294 -0.12634605 -0.17016476 0.5693813 -0.36928284 0.24452014 0.6082534 0.72071236 0.29479054 0.13977276 -0.43234736 -0.49648267 0.63560843 0.20512544 -0.69138616 -1.3567926 -0.3584816 0.899115 -0.43001384 0.34693113 -0.5611003 0.17243257 1.5700086 0.3046527 -0.63538504 -0.7720677 0.45391458 -0.2668642 0.44173002 -0.070059486 -0.7843461 0.022256799 -1.091131 -0.06586536 1.586872 -0.20279616 -0.029678313 -0.5281977 -0.2086337 0.88745075 0.4085858 0.20146528
1385 0.048099995 0.44122142 -0.36827487 -0.3171429 -0.55468136 0.38053775 0.38795143 -0.7271397 -0.7811462 0.045393474 0.18459395 -0.15039557 -0.519141 0.20466277 0.05590693 -0.5233873 0.036482893 -0.2510879 0.28612646 0.055286165 -0.33477578 1.7466314 -0.26699087 -2.4020867 -1.234465 -0.4806039 -0.8192374 1.0623353 -0.162282 -0.3189981 0.1386872 -0.54615974 0.24359107 -0.40336186 0.37400743 -0.09650433 -0.10981114 -1.1431525 -0.73454547 -0.44992876 0.86624354 0.16447881 0.5466685 0.13400337 1.0298848 -0.40353617 1.2946303 0.25521654 -0.74113876 -0.40434644 1.0632215 0.2980718 -0.88629967 0.30594045 -0.8587641 0.14071546 1.2486687 -0.054887995 -0.00673031 0.6553998 -0.98352677 1.3587492 0.8074804 0.48188224
1416 0.57933813 0.16816773 -0.24201381 0.6236751 -0.43654254 0.25386629 0.50298727 0.0026613257 0.06651839 0.019467592 0.4695053 -0.5471449 0.06508851 -1.2339865 0.47233772 -0.8627529 -1.16809 0.51531875 -0.4871599 -1.0922805 0.6399467 1.4541698 0.915973 -1.1609136 -0.41833293 0.0133109335 0.4393289 -0.4308012 -1.02189 0.34885323 0.020477949 0.45001468 -0.115265146 -0.03255535 0.23003294 1.3989205 0.2734956 -0.8145006 0.062620334 0.50021845 0.4984091 -0.072887115 -0.108124994 -0.17817134 1.4600226 -0.22800241 0.07570654 0.7740913 0.4213976 -0.3915728 -0.5357253 -0.30877885 0.834761 0.49349004 -0.76787776 0.2506489 0.35649088 -0.61901385 0.40888986 0.24191739 -0.46267173 -0.3895472 0.23137385 0.75534844
2046 0.2701871 -0.043719254 1.043486 -0.13968703 -0.1761529 -0.58835155 0.6025817 0.27757692 -0.3779008 -0.106347986 0.40337443 -0.667938 -0.580483 -0.45276326 0.7408196 -0.21896805 0.24626082 -0.6874778 -0.21477103 0.5299732 0.76205134 1.645517 -1.2270604 -0.3574011 0.80671155 1.2843428 -0.34016362 0.24056025 0.08463685 -0.13650468 0.8057602 0.29793423 0.2998547 -1.0529661 -0.6599109 0.5122818 -0.23072815 0.86424935 -0.3986206 -0.7379261 0.022066806 -0.2527409 -0.41722876 0.041927487 0.8394777 -0.055123303 -0.5324 0.025719458 0.5858908 1.0038422 0.4656531 0.50302964 -0.43606034 0.35469437 -0.07492628 -0.80273724 0.14761934 -0.34260827 -0.62786067 0.6596661 -0.10493657 1.5125443 0.27401444 0.5177622
2539 0.2396268 0.2559552 0.40197036 -0.6169861 -0.5317188 -0.32039776 -0.1884253 -1.3393663 -0.19178747 0.06344128 0.19925246 -0.12984689 0.20547535 0.41611058 0.047440227 -0.2232562 -0.85495186 -0.26352078 0.26709542 0.51829803 0.8328619 0.79886174 1.0878445 -0.2327984 -0.5429706 0.65086675 -0.26312724 -1.4267596 -0.18932416 -1.1097519 0.17659487 1.9224396 -0.26117 -0.6145388 0.17766348 1.1208032 -0.5855984 0.05204576 -0.8666913 -0.5162017 -0.78915703 -0.91958225 -0.23324068 1.4040302 1.0428206 0.06719419 0.048101656 -1.2328961 0.14069195 0.955217 0.7624413 0.5976223 0.028111449 0.10500433 -1.1577313 0.06709072 0.4496271 0.5574085 -0.8546929 0.9406567 0.37644228 0.30948326 -1.1047982 0.1827067
2434 -0.15106012 0.49132067 -0.23940566 0.11271288 0.0346306 0.049727265 0.9517595 -1.113339 -0.3312472 -0.28757226 -0.2046505 -0.87972003 -0.61053514 1.0037856 -1.0917867 -0.33227304 0.05059913 -0.88141876 0.42977592 0.07654643 -0.056477267 0.87275785 0.037885953 -0.30408028 -0.027066557 0.8616029 -0.0061916984 0.68782836 -0.9601159 1.2876214 -0.17033637 0.4649409 -0.39865917 -0.72218114 0.12765543 -0.5977013 0.0887324 0.1264599 0.57439893 0.85465586 0.81358737 -0.1740381 0.4547052 0.7302608 1.3348058 -0.13692938 -0.31245396 0.38543448 0.46916038 0.21188511 0.07730823 -0.5089141 -0.52955383 0.5849707 -0.29063058 0.5100733 0.018114721 -0.4587788 0.09636527 0.5939644 -0.41899943 0.38050058 0.01211576 0.0026778143
1224 1.5656742 -0.42808324 -0.6911757 -0.32784006 0.116777554 -0.059987538 0.34329447 0.22676593 0.6693502 0.032690335 -0.26185504 -0.18394795 -0.4868972 0.11574138 0.20634693 0.6494977 -0.656598 -0.12473168 -0.108526535 -0.5023141 -0.3116619 1.6227082 0.22476397 -0.7082212 -0.08102926 -0.031129032 -0.16262421 -1.2948301 -1.3422335 0.9518093 -0.6976646 -0.21845907 -0.17980093 -0.535531 -0.744147 0.9964138 -0.19525775 -0.5687063 0.5424518 -0.27793884 0.9026835 0.13553146 -0.6775208 -0.4244358 1.3451102 0.03647878 0.053334594 0.2908018 -1.1547744 -0.74931985 0.117505156 0.18939559 -0.26086625 0.11864801 0.29928088 0.2353359 0.43087637 0.4103988 0.20247492 -0.4340611 -0.59538484 0.944537 0.05027654 1.0651957
2198 0.10588176 -0.4323077 0.3311002 0.603973 0.14469104 -0.14604095 -0.48463544 -0.38486323 -0.93793446 -0.5870553 -0.007155903 -0.7428716 -0.3862176 0.33667234 -0.7466063 -0.16165215 -0.04872314 -0.35853523 -0.012599539 -1.0125203 -0.2865625 1.4026979 0.64973295 -0.66362256 0.13591059 0.88659537 -0.3228796 0.10966018 -1.102117 -0.32948095 -0.6726681 -0.44326544 0.08645996 -0.6116798 -0.009401414 1.1624914 -0.24575451 -0.2695012 -0.49453935 -0.94103163 -0.0779675 -0.33090565 -0.33713567 0.8907977 1.10451 -0.41927376 -0.33253422 0.50207865 -0.7112446 -0.04685639 -0.52256763 0.09214004 0.7334413 0.037704647 -0.4516575 0.6034286 0.06777634 -0.5038155 -0.31559503 0.4183001 0.06140419 0.019395547 0.34671834 0.457309
1558 0.4700369 0.25081593 0.7971646 -1.5646486 -0.27211872 -0.5926334 0.06792239 -1.6378059 -0.642068 0.036615755 0.17889017 -0.50990427 -0.32822627 -0.46440414 -1.7224058 0.63474697 -1.1635336 0.5080926 0.10417855 0.8683992 0.2056022 1.2873508 0.45995596 -0.7251822 0.18749139 1.0534798 0.58721924 0.2621287 -0.38447592 -0.847043 0.27377278 0.9729284 0.09553932 -0.7142063 0.19989096 0.635691 0.8369997 -0.5507715 0.28418046 0.05585085 -0.9829027 0.52701515 -0.7082404 0.76412046 0.29670346 -0.16394097 0.67149305 0.3676477 -0.14281753 0.8708135 0.82966554 0.525203 0.21424484 0.1911027 0.6007202 -0.0041540544 0.40695658 -0.14845648 -0.66761357 -0.20379665 -0.36994466 0.8094 -0.18040995 -0.4811607
1538 1.1889431 0.9928391 -0.31532404 -1.1292839 -0.17735492 -0.11040342 -0.10471795 -1.5048236 -1.1496577 -0.77347755 0.08683375 -0.5291746 0.022334054 0.2564031 -0.39702713 -0.7430963 -0.028184876 0.29584944 -0.35701883 0.16438833 1.0089666 1.2730718 -0.8455395 -0.5587382 0.028365567 0.33610034 -0.8647406 0.2013364 0.087793015 0.67223233 0.11327138 0.3905398 -0.086407825 0.080744244 1.0224497 0.25435528 -0.11439081 -0.8860906 -0.57614595 0.8842327 -0.26197472 0.33227453 -0.011767703 0.48910657 1.0726664 0.016815173 -0.29859644 -1.6518562 0.98541224 -0.14408188 1.0664486 0.5764089 -1.0462935 0.30228615 -0.38415754 -0.09505912 0.8103698 -0.061422233 0.048500337 -0.35134858 0.41262978 1.213984 0.20142548 0.3474143
1827 0.2560257 0.018413806 0.64442736 -1.0334512 -0.87376755 0.28379628 0.7826272 -1.09593 -0.37186915 0.1593456 1.3128098 0.021928202 0.19829471 -0.5560539 -0.92137927 0.5605523 -1.2058802 -0.22525664 0.8988531 -0.4602027 0.7220214 1.2490538 0.81311184 -1.8777243 -0.7616273 0.65231365 -0.025924891 0.3983094 -0.2392194 -0.6299557 -0.2471823 1.2797371 0.36554372 0.7292996 -0.13790701 0.3657399 0.40030667 0.20401193 -1.1048667 0.51721984 0.55212265 0.13072701 0.077869065 0.2755233 0.79996353 0.2742922 0.342433 1.2774882 0.15998642 1.0368061 0.031872865 0.7732354 -0.48338118 0.033847176 0.4454132 -0.041525804 -0.025793426 0.22125968 -0.51318306 0.77877694 -1.0839664 -0.07024705 -0.061937913 0.09019091
2405 0.6084439 0.96883786 -0.10923456 -0.81565785 0.015796736 0.025642335 0.13401815 -1.7208246 -1.2236139 0.064995736 -0.28949434 0.45304617 -0.44700995 -0.09010591 -0.23409003 0.028386604 -0.59622794 0.21729049 -0.2707049 -0.028890401 0.9195378 0.36508185 -0.18496677 0.17587583 0.10612579 0.32611004 -0.3707992 0.20509166 0.69644773 0.7212065 0.8061637 0.550293 -0.15698245 -1.1514169 0.82007277 0.29523942 -0.5324326 -0.57571894 -0.4763761 0.8935405 0.022404382 0.36185405 0.11304611 0.36337322 0.4727019 -0.21963505 -0.12350674 -0.333395 -0.0021140415 -0.47351974 0.76559144 0.54512805 -0.79426336 0.2882952 -0.46336472 0.055868443 1.5175219 -0.39565325 -0.010323394 0.25228196 -0.37410387 0.7969182 0.18677498 0.880288
733 0.34207737 0.7010754 -0.6321875 0.6990771 0.1950557 -0.16028967 0.6266524 -1.1983631 -0.005543154 -0.15043691 0.5032084 -0.53782374 -0.79672825 -0.14102226 -0.5490128 -0.05327345 -0.3630561 -1.0557445 -0.46834183 0.91896 -0.21282238 0.9318789 -0.42093027 -0.4357749 -0.49467275 0.7036278 -0.79216546 0.7899782 -0.34514496 -0.82082224 0.11674479 0.7143847 -0.24786422 -0.97023255 0.19656105 0.87551063 0.06889726 0.2744101 -1.2656592 0.32793468 0.5637245 0.54638916 0.7751848 -0.47050068 0.83525246 0.3032674 0.17176539 0.4275894 -0.19299579 -1.0492309 0.6223067 1.0540226 -0.02793691 0.726775 0.24124105 -0.4188239 0.16180113 0.4593171 -0.3614101 0.15572801 -0.4597239 0.4669602 -0.18144968 0.54767257
1308 -0.06518677 0.13029017 -0.20569758 -0.31662706 0.28895903 -0.7647458 0.17777309 -0.6409979 -0.21036218 -0.40209475 -0.8647003 -0.86016524 -0.23314577 0.43988484 -0.44088402 -0.36817622 -0.04096968 -0.87434196 0.7182769 0.00519749 -0.5148165 0.9620165 -0.7658724 -0.34893906 -0.14737992 0.40721026 -0.70651543 0.9055975 -0.7456786 -1.1713599 0.0513879 -0.43879262 0.77794605 -0.034366857 -0.97394973 1.256983 0.37500936 0.012223612 -0.98547834 -0.059475046 0.31486595 -0.047093626 -0.63059825 0.22611204 1.3817976 -0.9161355 0.5831798 0.090396464 0.14010733 -0.0386406 0.07754281 1.5132648 0.5480158 -0.37671828 -0.37463534 0.051352862 0.28469157 -0.66521764 -0.032668665 1.3472093 -0.45530564 1.509148 0.4406437 1.8451737
1897 -0.53329325 -0.67023987 -0.076753706 -1.6411834 0.14176278 -1.0215918 -0.0015207735 0.3202987 -0.9410569 -1.005777 0.39110294 -0.21474475 0.45453623 0.076436765 -0.29278874 0.107959785 -0.36948648 0.012249383 0.39070627 -0.41206077 0.21763644 1.5593355 -0.17051801 -1.2252679 -0.19557899 0.5414859 -0.32418004 0.2931826 -0.7419452 -0.15548985 0.9867541 0.9330077 1.3828208 0.17417328 0.22049166 1.3696702 0.012705957 -0.5064754 -1.3234982 0.12446552 0.19199418 -0.27352202 -0.48039523 0.3362842 0.99571526 -0.15464807 0.7195155 0.647623 0.0794512 -0.5558704 0.25046128 1.385502 0.9628311 -0.8146674 -0.08297919 0.4289423 1.4900895 -0.14964259 -0.059509847 0.68267304 -0.37484324 1.4769601 0.4017843 0.6120118
2054 -0.094559416 -0.4052291 0.57089126 0.0763151 -0.16667652 -0.5347189 0.5442716 -0.42059556 -0.6263283 -0.41753748 0.50154585 -0.58561766 -0.13775948 0.51532966 -1.2527921 0.13633853 0.17735647 0.14524113 -0.081036 -0.64358205 -0.67505175 1.828183 -0.49676487 -0.085907936 0.10477635 0.46428397 -0.08307472 0.059538946 -1.2213511 -0.5177034 0.4112147 0.65466225 -0.2658262 -0.29299772 0.18052545 1.570266 -0.42916918 -0.19080552 0.60624415 -1.1879057 -0.5856181 -0.16835582 -0.09346044 1.1533302 1.6574599 0.06539495 -0.5553345 0.5749107 -1.1653082 -0.18044767 -0.16237442 -0.57337815 0.99350363 0.10205658 -0.0731482 0.28028673 0.4540757 -0.2366675 -0.1383327 0.258141 -0.17005962 -0.2613072 0.28467727 0.8373422
1955 1.0349531 -0.2221867 -0.25048232 -0.11254006 -0.58467823 -1.7161062 0.6951109 -1.5466336 0.35897112 0.08466123 -0.29051685 -0.5953251 -1.0000271 0.1457255 0.48168337 0.22625953 -0.7728742 -2.0305347 0.015576055 0.18587343 0.3541917 0.6989859 -0.3985092 -0.3732638 -0.6064819 0.9440258 -0.29462028 0.098281324 0.37359133 0.067660764 -1.1775032 0.09168654 0.15246162 -0.70923984 -0.45375663 0.6326369 1.1661763 -0.013346027 -0.055099253 0.30411184 0.2902295 0.7214436 -0.26692316 1.1873833 -0.08614347 -0.33872223 0.33849746 1.0000275 1.2390426 0.6488561 0.08922409 0.36343583 0.5974418 0.004582934 0.13897009 -0.5337815 0.013511349 -0.4550456 -0.010744672 0.93591374 0.49839342 1.5383383 0.108588696 0.38518554
2126 -0.19066276 0.21834527 0.38465086 0.67648655 1.5007066 -0.6671016 -0.0029240442 -0.42521426 0.7103778 0.56150436 0.23328573 -0.05250262 0.1636426 -0.2682339 -1.0643744 -0.46886158 -0.96094364 -0.53200245 0.34851134 -0.25119084 -0.856908 1.0395014 -0.78558844 -0.30217788 -0.45584548 1.1591948 -0.3425001 -0.083491206 -0.37560144 0.4228547 -1.1700526 -0.04753156 -0.15022673 -0.34789822 0.13455568 0.05271845 -0.38795662 -1.0733682 0.6433968 0.5197863 0.2546178 -0.30648902 -0.09784866 0.62158704 0.559112 0.2395619 -0.55829614 1.1407374 0.3370918 -0.33185852 0.80387366 0.040590916 0.41891462 0.4796679 -0.71901935 -0.23911844 -0.5347983 -0.5203881 -0.7769197 0.25199983 0.16655341 -0.59849393 0.006670767 -0.1077576
2327 0.6907102 -1.10619 0.66371214 -0.5547376 -0.28645954 -0.5574585 0.045986522 0.15904498 -0.2838016 0.20980957 0.057811897 -0.07383371 -0.3649737 -0.45579824 0.5236323 -0.46444744 0.22951019 -0.9304553 0.54792416 -0.27153727 -0.6171097 1.9461453 -1.3999183 -1.0174956 -0.09412562 0.5228822 -0.98396385 0.25210002 0.2767174 0.17043811 0.8255393 -0.4255188 0.2936054 -0.68318236 0.2855585 0.091724634 -0.09669224 -0.07058422 1.007932 -1.037229 -0.08557528 -0.36002913 0.47171134 0.48859558 0.3363255 -0.9531428 1.0559677 -0.42211857 0.043142535 0.9126493 0.43154424 0.11877329 -0.12965265 -0.17354581 -0.610788 0.45924005 -0.531779 -1.3333138 -0.34900633 0.44567266 -0.034243967 1.0300072 0.6741409 1.2229165
1834 0.14015926 0.32168424 -0.3099139 0.29630542 0.2020628 -0.90431386 1.5913554 -0.6681588 0.75734717 -0.54888326 -0.6462688 1.2593685 -0.009702018 -0.16155659 0.40435508 -0.08931614 -0.10862058 -0.19142504 0.8206556 0.15932673 -0.39817196 1.8265158 0.21175486 0.57345074 0.0321277 0.24000362 -0.52775747 -1.0979891 0.19017123 0.07895147 -0.3244311 0.019659422 0.13629594 -0.71307105 0.6148803 0.46394587 -1.5493666 -0.16744088 1.1399115 -0.21909983 -0.073426075 0.021928176 -0.36284602 0.74595714 1.0157684 -0.24615008 -0.90698135 -0.5690506 -0.6022136 0.89018685 0.17634264 0.46728608 0.053635444 0.4852209 -2.0715477 -0.20472081 0.14196962 -0.059839066 -0.087838806 0.58964694 -0.011855219 0.119570896 0.21754047 0.01855335
1745 0.79444337 0.61818004 -0.23776092 0.26968077 -0.24807559 -0.07176602 0.876577 -0.86817145 0.8763472 -0.08566367 -0.54567313 -0.7431035 -0.0011340666 -0.10315566 -0.8969024 -0.40998667 0.32018253 -0.20201647 0.14156969 -0.03463307 -0.52047086 0.7154853 -1.3321606 -0.6734684 -0.003908608 0.23748681 -0.43995035 0.19977771 0.051349316 -0.36197713 -0.9682612 0.33829802 -0.33117393 -0.7949973 0.7816168 -0.71522325 -0.5630433 0.5899442 0.13525239 0.63791186 0.030536698 -0.33651382 -0.92588925 0.41071254 1.0153978 0.39866287 -0.70040905 0.22890241 -0.8506228 0.45285276 0.39252046 0.72159487 -1.4313 0.32373002 -0.45484528 -1.1817183 -0.123376384 -0.060025547 -0.7045352 -0.032483667 0.077618316 0.33236584 -0.64745283 0.33843082
1952 0.5505904 0.08591421 -0.20840026 0.5633641 0.5546788 -1.2595744 0.13890134 -0.6442517 0.2387911 -0.32720187 0.3146513 0.3863385 0.09432444 -0.7586266 0.09650237 -0.19503468 -0.58263695 -0.13363351 0.3006794 -0.96767306 -0.15837492 0.7004789 -0.4257479 -0.2629688 -0.82729644 0.09773009 -0.393137 0.5439128 0.19831727 -0.117085144 -0.047272332 -0.23378952 -0.29236495 -1.0849886 0.330353 0.69344383 1.004212 -0.09818936 -0.05833803 1.76908 1.363615 -0.3881873 1.2556384 0.6411629 1.675797 -0.083621696 -0.18195263 0.025194826 0.49757975 0.7029143 -0.022092447 1.068367 -0.33501002 -0.8722412 -1.2305745 -0.42055514 0.6625589 -0.8251855 -0.65605354 -0.26241302 1.4267638 0.6499789 -0.1492226 0.21350452
