2708 64
2685 -1.1674725 -0.75102556 1.0541326 -0.86621314 -1.1441007 -0.18916225 1.2104217 1.9015267 0.2314018 0.48668915 -0.1858482 -1.0263584 -1.3457376 1.2637173 1.1347585 0.4270316 -0.34083638 0.79212624 0.61643374 -0.8778793 0.69982034 0.9493428 -0.7717212 0.17870408 -0.4686192 0.083676055 -1.8691409 0.07814779 0.34155828 -0.49387142 0.051903658 -0.8447663 -0.27807117 0.18916562 -0.72201025 0.20830911 0.3295912 1.0419712 0.028298125 0.17326926 -1.9397243 -0.67811245 -1.1985568 -0.005808969 -0.58365816 0.89480054 -0.49853846 2.2052672 -1.0799457 0.39153677 0.49875143 0.68677187 -0.36154118 1.3264035 0.20391615 -1.2529358 0.58525336 -0.21058597 -0.7319065 0.79451466 0.39796942 -0.09948094 -0.75163656 -0.3137019
2292 -0.6013823 -1.0112691 0.7859852 -1.2312211 -0.27260628 0.3122952 0.41906592 0.47009206 0.10079178 -1.086251 0.51937276 0.40601963 0.28099424 0.82227737 0.63289934 0.9622398 -0.7522089 0.2735108 0.2318176 1.450094 -1.9986317 1.277398 0.50030786 0.16812746 -1.7757783 -0.049540948 -2.3489506 0.19018343 -0.11060223 0.74965954 0.8072972 0.33361977 0.121986955 -0.5546757 0.42142344 0.49257207 -1.3613539 0.6189472 1.1983821 0.6048273 -0.20967354 -0.588508 -1.1234882 0.022487983 -1.1241144 0.09800781 -0.013144199 1.0992799 -0.7457635 0.29096526 0.82666725 0.8678439 1.3983672 0.2572885 -1.5139041 -1.5436091 0.6002598 -1.6874702 -0.44384903 -0.81363463 -0.11882364 0.12396618 -0.1411417 -0.17680915
2492 -1.2636756 -0.110041834 0.67824006 -1.5321159 0.22176094 -0.00448155 1.4405152 0.121458136 1.3652085 0.89660126 0.24572538 -0.45221514 0.41764846 -0.5904255 -0.39714172 0.70704055 -0.53830725 0.73857355 1.1563718 0.6451288 0.05505035 1.0207168 0.104449086 -0.3939561 -1.2615134 0.14300264 -2.418369 0.9339614 1.5737257 0.82417154 0.13555115 -0.8463548 -0.2169172 0.41316646 -1.8836166 -0.8824392 0.76087207 0.63399243 0.71257216 0.37302327 -0.8213052 0.12692204 -0.63632363 -0.6652424 0.47219637 2.0940728 -0.6378821 0.8104914 -0.41573635 -0.46493927 0.8062358 0.11069326 -0.44753876 1.0384711 -0.61444 -0.2321484 -0.7376043 -0.74495786 -1.0407052 0.0072766445 -0.31424674 0.45442572 -0.64871854 -0.8349447
2048 0.035262793 -1.2652953 0.43823454 0.076054834 -0.19346705 0.19405237 0.923393 0.23001203 1.7817835 0.49090573 0.002496963 -0.5490942 -0.7306467 -0.4897847 -0.29338917 0.9156306 -0.6596828 0.3252582 0.93467915 -0.0807966 -0.6361936 1.042379 0.39009088 -0.30055308 -0.6003384 -0.91108465 -0.4339022 0.3304223 -1.2388563 1.90079 0.7418331 -1.0186576 0.26832154 1.0885155 -0.103653565 0.81660837 -0.12862211 0.21704899 0.5169232 -0.11482353 -0.7190988 0.23215958 -0.897313 -1.1545304 0.2728964 -0.92665946 -0.7581989 1.9435673 -0.030386396 -0.011649787 -0.71377105 -0.6712837 1.2557985 -0.00084737164 1.140853 -0.97581315 -0.4028983 -0.17304648 -1.9871851 -0.077032015 -0.40265265 -1.1139941 0.28272736 1.2486947
2380 -0.44502822 -0.9613487 -0.42041808 -0.4993632 -0.24351157 0.5724738 1.7717122 0.4833957 -0.9972224 0.86168075 0.074530214 0.1513417 -1.8403897 0.3546464 -0.43771434 -0.66854084 0.060812317 -0.25657713 0.16148137 1.3346375 1.133871 -0.3008036 0.33331722 -0.48292407 -0.25234115 -1.6621953 -1.0973531 -0.36453134 -0.24138851 1.6220533 1.7103792 0.042942446 1.1294537 0.009632442 -0.27950668 1.4353654 0.6065465 0.07484096 1.5727634 0.9251524 0.5463495 0.13060817 -0.23546611 -0.33313036 -1.6612011 -0.480065 0.3826127 0.9598253 -0.84656644 -0.35506672 0.14376651 -0.90177494 -0.45471576 0.4310568 -0.22604504 -0.6137833 -0.61238056 -0.77467906 -0.97987586 0.00094475586 0.11809922 -0.191355 -1.379152 0.69008934
2538 0.64164156 -2.36903 0.6688452 -0.27368408 -0.6167198 0.93883145 1.4058001 0.79690385 0.5386292 -0.070067614 -0.49099115 -0.84898204 -2.195533 0.20587848 -0.5131965 0.5703282 -0.16020723 -0.6843036 -0.32648668 1.4297047 -0.06952128 0.9209626 -0.15081495 -0.23169826 0.03979698 -1.5344094 -0.98504525 -0.09755153 -0.49366552 -0.3896624 0.5549031 -0.13464457 -1.4155716 1.6195946 0.078754134 -0.099272326 0.45324522 1.3670834 0.72716516 0.036733214 1.1894052 0.21437481 -0.11289036 0.55815417 -1.0224385 0.11710688 0.17952958 1.0283189 -0.7813501 0.31860724 1.4494781 0.51646787 -0.053291954 0.49190763 0.54548097 0.27297708 -0.567086 -0.33401048 -1.0691009 0.427685 -1.3284549 1.2340386 0.78303 -0.32980433
1950 -0.77271664 -1.5579935 1.434109 -1.3687999 0.57640725 0.094587944 0.31856447 -0.10080931 1.4689395 -1.2085103 1.7421356 -0.28226358 -0.81011003 -0.64975816 1.4051211 0.12439921 -1.6689289 0.26011443 -1.016355 0.5162884 0.0036503512 0.0708031 -0.98411614 0.7419983 -0.36171082 0.36011845 -0.75637305 0.60319245 -0.0039697727 0.53824335 1.2224576 -0.87499595 -0.8084489 0.31491357 1.192402 0.64076936 0.097654104 1.9645562 1.1676351 0.008065696 -1.077195 1.7942524 -0.09867907 0.46873766 -0.3898794 0.16522175 0.14220564 1.0242653 1.1305124 -0.4493659 0.85907894 -0.6235604 -0.25432897 0.72210616 0.27204743 0.5003674 0.20552032 -1.6823109 -1.5458976 2.032064 -0.6413376 -0.5173844 -0.7735219 -0.12808758
2169 -1.0722088 -0.9088198 1.224978 -1.4502345 0.7896603 0.52193 1.8064711 -0.4909255 0.50551414 -0.019124288 -0.18547046 -0.31926644 -2.4526443 -0.73211193 1.3993498 0.8546249 -1.3485202 0.59562296 1.1398306 1.2549921 -0.9217329 -0.79550076 0.21788162 0.5882068 0.15566152 0.15120648 -0.9036569 0.8374778 1.6331729 -0.5086958 1.4661671 -0.40383375 -0.30714455 -0.76744175 -0.13016061 1.2304782 -0.7219713 0.123461895 0.121234745 -0.3793962 -0.99893075 0.9054261 -1.7119316 -1.2088165 0.32711023 0.97857094 -1.615964 0.7555242 -0.2809604 0.090108655 0.17507052 0.20082767 0.3992504 0.17636916 0.023103295 -0.69220096 0.5434715 0.2937047 -0.8103539 0.64474344 0.1412621 0.056396842 -0.15409926 -0.37268516
2375 -0.26453823 -0.57297564 1.8393236 -1.5948596 0.8250361 0.2480249 1.1046708 0.22410446 1.9655476 -0.41097397 0.5986815 -1.0630156 -0.57037187 -2.024633 0.37263682 0.066690534 -0.88639826 0.7685507 0.1691054 0.35647848 -0.051552493 -0.33705133 -0.45482913 1.2345047 -1.9191482 -0.9690062 -1.4078275 -0.30654463 0.9658364 -0.77239054 0.8953279 0.44021952 0.8218424 0.22234964 0.14867438 1.0542526 0.37213805 1.3226211 1.2296368 -1.5017686 -0.0120098945 0.51966876 -2.1587741 -0.06101999 1.1004721 -0.05688605 -0.7752169 1.9448432 0.73909545 0.2981448 0.077529825 -0.72593004 1.348101 0.20307867 -0.48944908 0.87272924 0.237931 -1.3616381 0.31572422 0.790691 0.47776598 0.26804718 -0.4994288 -0.31651646
2434 -2.2901444 -1.2445557 -0.0941585 -1.4666455 2.0657134 -0.6718112 0.740129 0.4088079 1.4590532 -1.2931355 0.039739165 -0.49143884 0.16938137 -0.22580193 1.7415696 0.5935596 -1.127894 -1.5028427 0.73942757 2.596777 -0.068068 1.1583318 0.4018762 -0.6302123 -2.086326 -1.0022329 -1.4719642 0.82891935 0.8666758 0.1282443 0.85007364 1.377251 -1.086761 -0.2027493 0.8007441 0.7423743 0.62907475 0.9118684 1.055041 1.1384157 0.38120246 -0.13045137 0.042615786 -1.0401105 0.74118817 -0.8156986 0.2992542 1.2884083 -1.0872267 1.2589685 -0.931921 0.4020647 1.0012381 0.12569878 -0.41098115 0.85723203 -0.83344626 0.43388394 -1.1943508 0.8326211 -0.9025547 -0.8062291 -0.28965247 -0.3052769
2675 -0.19995503 -1.0773611 0.90177464 -1.3688537 -0.08653034 0.010191691 1.4358538 0.49511674 1.6920649 1.2982072 -0.7119858 -0.20594889 -2.019764 0.8831884 0.13037455 0.64568764 0.39930084 -1.2974235 -0.41462997 1.3237045 -0.8547505 0.39877525 0.021957267 0.703724 0.38577884 -1.15958 -2.2494829 -0.26880914 -0.31374604 -0.5744943 1.4365432 -0.29037115 -0.4719579 0.13197596 1.1355067 0.98879874 1.0156342 1.9065659 -0.44561058 0.35841584 -1.043857 -0.63873327 -0.93589175 0.6765483 -1.1817397 -0.35028204 0.9858787 0.76682824 -1.2941483 0.14999658 1.5134565 0.22147776 0.23972088 0.18694964 -1.2414387 -0.33714688 0.0248354 -0.09794687 -1.4183204 0.26803082 0.7083055 0.8632633 0.4066672 -0.5706208
2491 -0.6989002 -0.22570823 1.5524378 -3.1592095 -1.1173233 -0.9951677 0.616788 1.5228415 0.2624182 -1.1181998 -1.3055663 -1.2083544 0.39600977 -1.1228725 0.17230581 -0.063972495 -0.30490574 1.1001312 -0.05023841 -0.70698565 0.039310127 0.884918 0.12975493 1.1957717 -0.8965961 -0.8989729 -3.3791587 -0.95002675 1.0740076 0.0011875194 1.2202454 -1.0235974 0.6630252 -0.30961296 -0.28675693 -0.11319155 0.42784548 0.22626543 0.60622156 -1.7304368 -0.6062718 0.7433157 -0.52323025 0.6485553 0.04838013 -0.1998494 0.27998438 1.4934127 -1.3863373 -0.05971341 1.612957 -0.93201613 1.5276917 0.84624505 -1.7609246 0.0127615975 -0.42913276 -0.32396808 -0.8764833 1.0064845 0.7084399 -0.022202227 0.18673693 -0.25122443
2552 -1.881175 -0.591595 0.45623708 -1.5469999 -0.58860207 0.0224374 1.0240638 -0.19371714 1.7826159 0.3876196 -0.15428393 -1.5613705 0.19011453 1.7914482 0.83722854 0.48623818 -0.2806811 0.031428445 -0.68468535 1.0879829 0.4593897 1.0548143 -1.7888156 -0.7218215 -1.1164871 -0.7962045 -1.7732524 0.8152628 0.40223557 1.558265 1.3196987 -1.1999468 0.17814897 0.47178817 -0.28145954 0.18351364 -0.000512784 0.72069746 1.9279869 0.18413089 -1.0521308 0.5340321 0.5124379 0.06975992 -0.5836395 0.16270147 0.45417747 0.041634414 1.2046852 0.12758644 0.16003826 -0.4425225 0.84762824 1.4707823 -1.2272102 -0.005085573 0.2739988 -1.4908944 -2.2715507 -1.4196808 -0.75050944 0.13676123 0.80212986 -1.5162598
2176 -0.46522874 -0.23654646 -0.62771493 -1.6841642 0.9881287 -0.5649147 0.650318 1.7288022 1.4472697 0.462294 0.42827502 -1.2945524 -1.1771219 -1.0761715 -0.29289 0.5304309 1.3994784 0.7059453 0.06906099 1.2307166 0.20882869 0.36467305 -0.112420514 -0.96757483 0.7760917 -0.5230136 -2.0136929 -0.107550256 -0.37191147 -0.00062618626 1.0196629 0.14112663 -0.93264836 0.872453 -1.7409046 0.4377153 -0.76331776 -0.5299703 0.6967257 -0.8212175 -0.06366561 0.33238795 -1.9652882 -1.4930907 0.31139463 -0.32662645 -1.1146663 1.8441236 0.8236534 0.044167522 0.39498734 0.8201241 -0.31521305 0.11735069 -1.1774628 -1.8028177 -1.288515 1.3923743 -1.2666794 -1.2898512 -1.3530728 -0.48146033 -0.86367714 0.70203495
2450 0.13339712 0.15846504 0.28797257 -1.6329314 -0.30967036 -0.50694126 0.3652762 1.3141402 0.65093493 0.43040347 0.09584741 -0.037151143 -1.2198932 -0.6202421 0.5793925 0.9002182 -0.88494265 1.4532813 0.38874045 1.1619159 -0.4534966 -0.44241577 1.031609 -0.57284707 -0.5265244 0.25588906 -2.5535178 0.48554832 0.5734157 0.93367106 0.34916028 -0.408159 -0.72874105 1.1866697 -0.01211476 1.3107384 -0.15183829 1.9333473 0.21749495 -0.10726283 0.5866781 1.2756406 -0.79542744 -1.7254767 0.67143583 0.23239227 -1.0669291 1.8878025 -0.24515377 -1.4105264 -0.3539344 -0.14822513 1.4947146 0.8253354 1.1398149 -0.9418023 -0.45713753 0.669787 -0.9944423 -1.2066022 -1.5124422 -0.63854975 1.7930689 1.7103151
2118 -0.4594746 -0.013422553 0.7868111 -1.3614565 -0.42399326 0.34399295 0.19852029 0.49643144 1.2684532 -0.016266188 -0.68414897 -0.8424503 -2.7018466 0.2990969 0.1317422 0.7660966 1.4881619 -0.96817183 1.3313854 0.33911967 -0.42039624 0.30210736 -0.3473577 0.97277015 0.8638063 -0.83912575 -0.86790967 -0.3811615 -0.6538894 1.3585197 2.0686939 0.6239881 -0.9720431 0.9571092 -0.3291644 -1.2626696 0.1803756 0.6459048 1.3678755 0.9044359 0.26965925 1.660468 0.06983748 -1.7514001 0.6254363 -1.2323192 -0.6898786 2.4881864 -0.068817325 0.42455947 -0.5511786 -0.3533753 1.3432388 0.8671985 0.075547025 -0.77131253 -0.2669921 -1.600407 -1.725776 -0.0114047965 -0.924521 -0.093979985 0.602522 1.1892762
2216 0.5796566 -1.889753 0.0021265326 -1.903339 -1.2020543 1.1480976 -0.7647779 1.0468976 1.5546981 0.9837465 -0.71966845 -0.29212555 -1.2070199 -0.282712 -1.363235 0.7658066 0.5208652 1.2098404 0.44862026 0.8459997 -0.98319143 -1.1971292 -0.2864621 -0.8763517 -1.509754 -1.174381 -2.8223183 -0.3783634 -0.3853414 1.7237424 1.8430941 -0.96085906 -0.93684006 -0.025672598 -0.5668153 0.26978868 -0.43421063 0.6769425 1.5745304 -0.3916353 -1.20562 0.48757315 -0.7309256 -0.5905655 0.5508879 1.4360545 -0.6478935 1.5819455 -0.560998 -0.13977194 0.061331477 0.69623387 -0.49799937 0.74390614 0.7253867 -0.5309208 -0.5765323 1.2993639 0.46751723 0.4017231 0.48313844 0.17357355 0.8341572 -0.17688125
2519 0.10509768 -1.3139316 0.8013654 -1.7163465 -0.96494514 1.0683888 -0.6862277 2.2135875 1.0883956 -0.58470523 0.5884793 -1.0170511 -1.6111401 0.066602096 -0.89718664 0.49424496 -0.27449304 -0.402231 -0.40028474 1.5405461 0.03591642 1.0463649 0.51361114 1.3896043 -0.4821786 -1.6902523 -1.3338288 -1.3376569 0.09684824 1.6689916 0.82258356 -0.6491231 0.6727999 0.16544133 0.12569974 0.41782275 -0.19889128 -0.57123494 1.5093561 0.08892128 0.54448515 2.0201693 -0.70483047 -0.0467424 -0.88364106 -0.5724201 0.4585798 1.5203471 0.32444334 -0.66570354 -1.945063 -0.3503374 -2.1493325 0.47308487 0.38269553 -0.65454257 -0.4413193 -0.23607644 -1.663042 -0.8467722 0.5182966 -0.5107197 0.13180843 -0.5692377
2524 0.85676944 -0.8380836 0.3352254 -1.7333122 -0.0097806705 -0.19816595 0.36448807 2.4794354 0.84263843 0.43914497 1.331876 -0.47487244 -2.158651 0.9896267 -0.8207248 0.77563375 -0.8166715 1.110661 -0.16965204 1.4697043 0.59596115 0.5739794 2.1588879 0.4439485 -0.4359336 0.4972628 -0.5106762 1.4421371 -0.9578399 1.4221853 1.5300062 -2.6950326 0.81830436 0.10308484 0.2975153 0.030272475 1.9380205 0.20782015 1.025 0.0021495658 0.2758155 1.211279 -0.34095925 -1.0036942 0.41796163 -0.5728001 -0.30779102 2.0231051 0.46873674 2.1882067 -0.45898846 -0.25832868 0.28582475 0.21746245 -0.6978825 -0.9859204 -1.5822951 -0.81346196 -0.05009956 0.48079765 -1.1781542 -0.04705943 -0.41443697 0.22846599
2405 0.46469584 1.0584996 0.68450266 -1.9752482 0.8371685 1.7974075 1.2401146 1.7074295 1.8883792 0.328582 -1.576975 -1.0279171 -0.85189223 -0.50092334 -1.8425912 0.57776135 0.35496032 0.86415267 -0.5029536 0.8818346 -1.107641 -0.48509628 -0.588526 -0.53247726 -0.5984657 -0.25690612 -1.1356342 -0.5945939 0.20595379 2.3531258 1.8754314 0.04156078 -1.2208987 0.09888503 1.7971733 0.6696703 0.122269034 0.89403385 1.3368264 0.80909705 -0.04854652 1.9472548 0.097666584 -0.9618889 -1.129596 0.005974046 0.8263645 2.112944 0.5319155 1.7279252 0.0113618625 0.5600934 -0.16781081 0.6423475 1.5763115 -0.1814036 0.57072675 -0.18142878 -0.28506842 -0.8176609 -0.016536186 0.45922616 -0.7276959 -0.122902595
2110 -0.43532407 0.24487251 -0.94555074 -0.92669195 -0.9758701 1.0823574 0.16112775 0.6785967 -0.87322295 0.07708574 -0.284087 -2.4705942 -0.49491215 -0.2790589 0.69811106 0.18419996 -0.45043606 0.03353644 0.13750923 1.4658904 -1.6126097 -0.08787314 -1.0804986 1.0396779 0.33620742 -0.11289787 -1.1658193 -0.03657299 -0.6129749 0.9633337 1.4569603 -0.52623385 -0.5430216 -0.78005975 0.7364501 -0.0894337 -0.42035353 0.94070506 1.6281172 -2.1796007 -0.53765714 -0.062058773 -1.2318648 -1.4531392 -0.32083774 -0.6372033 0.89482 2.0652149 -1.5375313 0.58027047 1.3466945 -0.61979693 -1.3881024 -0.7108427 0.08593404 0.18305272 -2.0321872 0.3789992 -1.8279579 -0.7510734 -1.0085275 -0.7030142 -0.35376996 0.10263247
2309 -0.63941705 -0.92687243 0.11146203 -1.0157545 -1.4289451 -0.55044824 1.8576514 -0.30381107 0.18866932 -0.69971484 0.20979924 -0.35261354 -1.5845085 -0.058331754 0.65874594 0.2865043 1.0018307 0.3847944 0.9375698 0.7831976 0.74324244 0.120824404 -1.2300327 0.6971211 0.17355384 -1.2780015 -1.5896056 1.5809381 -1.5761646 0.748234 1.4834521 -0.7716734 -0.33874482 0.22894405 1.5542196 -0.033363134 0.33810765 1.0863531 2.5071363 -0.8319801 0.25725657 0.9174215 0.57040864 -0.29033518 -0.54195887 -0.79872054 0.3087049 1.7237757 1.5845767 0.6117452 1.4813576 -1.5584815 0.24395174 -0.61162996 -0.50150293 -0.43543345 -0.93407893 0.034312017 -0.16822691 -1.309561 -0.62353855 -1.7466741 0.21887457 0.8061981
2578 -0.38528883 -1.8818597 -0.04658798 0.065352775 -0.017103568 -0.21403012 1.2212666 1.431786 0.12966879 -0.20845255 -0.5466521 -1.501756 -1.3318563 -1.7300622 0.6935305 -0.2847211 -0.2199751 1.5124793 0.31020516 0.5153752 0.027934792 -0.0457739 -0.39413098 0.82377934 0.08631757 -1.8984586 -1.0157812 -0.953193 0.94747305 2.1694388 0.8982582 -0.98556393 1.2600363 0.46591666 -0.02035483 0.638358 0.6757433 1.121018 2.6795242 0.39249456 -0.2448494 0.70981246 -1.4224157 -0.21731511 -1.1513386 -0.99628335 -1.0943421 0.10186178 0.62174356 1.3957893 0.112979166 0.07949324 -0.43764427 -0.5531078 0.37876204 -0.52497476 0.3735731 0.06480323 -2.4313967 0.16135904 0.0092312815 -1.5464711 -1.2681043 -0.3710814
2370 -0.081527956 0.37442684 0.996821 -1.865131 -1.3352361 -0.15649289 -0.028680054 1.4037918 -0.79997 1.0105381 -0.5911493 -0.123987965 -0.34945187 -1.2846148 0.8222191 -0.5768197 -0.76890624 -0.4204919 1.9902314 -0.12781766 -0.4550993 -0.17800523 -0.037292473 -0.23082267 0.15057966 -0.50451124 -2.1618125 0.40890837 0.6031997 2.3513854 1.3661389 1.0954164 0.5547625 0.50973916 -0.22802985 1.0569125 0.009724429 4.4316363 0.17748846 -1.1701767 -1.0689694 1.4364302 -1.4405181 -0.0115340315 -0.75483274 -0.43666396 -0.24871828 1.8227346 -0.10367487 0.87469023 -0.9831033 0.050678533 -0.07956934 -0.19580251 -0.58555245 -1.0749203 0.73094344 -0.7303548 -3.0637014 -1.1996441 0.23299922 -0.49591613 -0.8892542 0.75844514
2161 -0.6232184 -2.0022192 -1.7776707 -0.3049956 -0.107227206 0.8277343 -0.14904138 2.414708 -0.8991696 1.3685093 0.1192189 -1.2536294 -1.4649959 -1.5194882 0.19817355 -1.0919331 -0.49842015 1.5635374 0.5954902 1.19543 -0.22652593 -0.399472 -1.03184 1.571736 0.29637134 -0.7398469 -1.0589334 0.6824871 0.2561815 1.1930138 2.36596 0.20054232 0.23980193 0.078499496 -0.697243 1.2440922 1.5266544 0.50431937 1.3874953 -1.0935622 -0.98341113 -0.66625 -1.7072163 -1.065532 -2.899083 0.25953886 1.3459151 2.0926874 -0.89304465 1.6786132 0.26069745 -1.322905 -0.6594605 -0.22343758 -0.28915122 1.2131265 -0.70985985 0.52664083 -2.1028464 1.0273584 0.07507126 1.3394977 -1.0624987 -0.51913667
2383 -1.5128938 -1.1536846 1.6300374 -1.1606785 0.4904758 0.64275897 0.13912348 1.4082612 -1.3663675 0.6876284 1.9546727 -0.41514778 -1.6658643 1.0775213 -0.9240246 -1.4439762 0.40202025 1.1282603 0.5112148 0.8037998 1.0868788 0.73211575 0.7887147 -0.9588156 -0.09816328 1.1006521 -1.4050931 -0.09372536 0.7306945 1.0231084 0.80745256 1.4940703 -1.1563885 0.6268432 1.8236839 1.6423103 0.8618869 0.8513689 0.10411285 -1.2119478 -0.1488197 -1.1790024 0.65191346 0.3214485 0.69118655 0.74003214 0.27444452 1.3806286 -0.4972255 1.3416796 0.052062582 -0.47220057 -0.09174579 0.011614051 -0.1711226 -1.0202966 -1.3319101 -0.79216546 -1.2144248 -0.24958527 -0.6838906 0.53221345 -0.59765697 1.0136242
2385 0.21683495 -1.1956757 -0.672944 -1.25729 0.9709958 -0.24570426 0.4855666 1.4123682 -0.45872477 0.5447958 -0.99434406 -1.0565821 -1.185016 -0.83882207 0.61361676 0.90577066 0.47933987 0.53174126 -2.050257 0.36627638 -0.047295146 1.2400626 -1.0894606 -1.1146286 -0.8863911 -0.8258655 -1.734587 1.0266727 1.0179744 0.5559563 0.6311278 0.39522606 -1.2051752 0.044696666 -0.8787485 1.8498147 0.114494726 1.2574856 2.2940207 -1.6588362 1.6542196 -0.030317018 -0.019544132 0.09884603 -0.011231735 0.41179368 -1.4357128 1.117408 -0.3900716 0.20533745 -0.31134686 0.10487918 1.1166306 -0.30264628 0.46442378 -0.08645111 0.53457445 -2.3202777 -0.9744806 -2.1706965 -0.69900256 -0.89414865 0.24889454 -1.2615106
2465 1.0396519 -0.88865936 -0.103206985 -2.116794 0.33332226 -0.20074783 0.06234994 1.8329904 0.5159689 -0.71510655 1.401694 0.7127375 -1.1396699 -0.6964094 0.023935838 1.8924613 -0.0008030394 1.4131131 -0.0055079716 -0.11936492 0.7252721 0.7012163 -0.44187248 -0.44687915 1.6215777 -0.5681791 -0.6887036 1.4025865 2.324673 -0.3206658 1.5943946 1.1255087 -1.5715902 0.9602214 2.1360893 1.419681 1.229394 0.7552563 1.3980366 -0.8997582 -0.60565186 -1.2925596 0.852991 0.23497447 0.5006607 0.121600695 -1.173469 2.26201 -0.39676648 1.4788054 -0.12552823 0.5994112 0.4152616 1.1289992 -0.8053211 -0.18313144 0.5115003 0.92801434 -1.9153712 -0.013164985 -1.2394899 -0.46820736 -0.49644426 0.34149602
2071 0.83144075 -0.96084386 0.11207073 -0.83238554 1.1217076 0.017719315 1.1351007 1.0300872 0.9180252 -1.1603864 -0.5330014 0.14979047 -1.4782953 -0.8339455 -0.36103684 0.9233894 0.81359696 1.2699255 -1.1227072 -0.75092536 0.6117743 1.0483197 0.83571374 -0.34092054 0.4461781 0.3208978 -0.9365719 0.3415618 0.088862814 -0.13097253 1.8404645 -0.7727314 -0.6729073 0.13342877 0.9269468 0.52581686 0.56189954 0.55830777 2.3581836 -1.1270387 -0.8216784 1.1792312 -0.21192926 0.9457959 0.6394118 1.2915543 0.22271475 1.8440485 -0.9283439 0.9292566 -0.09286865 0.21218458 -0.07896326 -0.074831896 -0.4629789 0.18415536 0.69346845 -0.11201071 -1.7676438 -2.301632 -0.38997346 -2.1121767 0.2123777 -0.21739762
2328 -0.021044925 -0.9312189 0.6011032 -1.9955063 -0.27853444 0.39800262 0.3201812 0.48762506 0.34392348 1.38729 0.013455623 0.13047907 -0.588748 0.055503566 -1.769426 0.5715048 0.14636566 -0.936614 -0.34328127 0.79136133 0.71641076 2.4244998 -1.3522042 -0.38883024 -1.2384322 0.7595853 -1.4510597 0.03277122 0.710632 0.26867786 0.5594305 2.2015617 0.5260813 1.4336418 2.0057893 0.50120735 1.8449786 -0.2668648 1.028245 -0.8553614 0.4958901 0.7069606 -0.2233213 -0.37079573 -1.0015755 1.4104472 -1.8012961 1.304115 -1.3382396 0.56422925 1.2753887 -0.63764507 1.3378599 -0.797553 0.4620514 -0.8550107 -0.26363897 1.0244694 -2.2687733 0.19222571 0.002596626 -0.56543446 0.08781178 1.2546154
2372 -0.17313716 -0.4783557 -0.6414552 -2.0820153 0.54867357 1.1835268 0.6610992 0.04322895 0.43379018 0.49807078 0.16651988 -0.93433505 -2.3128688 -0.8020609 -1.9175481 0.15680255 -0.9163597 0.32706326 -0.6023342 -1.3228036 -0.04007502 2.2355754 -0.23465964 0.7751187 -0.6114345 0.25367123 -2.2792883 0.42660305 0.84294593 0.71989816 0.9547331 -0.33297494 -0.25693423 1.5407014 -0.37816098 0.35126433 1.9159391 -0.23225498 1.8918043 -1.1282098 -1.1754763 -0.85531926 -1.029098 1.3140782 -0.5984555 1.8906127 -1.2282993 1.174291 1.2482107 0.5862398 -0.96312296 1.1362773 0.7112224 0.3003056 -0.97852916 -0.51315963 0.4637981 -0.2544496 -2.6410549 0.9370102 -0.62980866 1.0202483 0.6044602 0.79490215
2326 -0.011823673 -2.0376565 0.77058935 -0.21622576 0.91195595 0.82363933 0.9062835 0.52643347 -0.3321122 0.6039145 -0.5953449 0.15614879 -0.61437356 -0.43123782 -1.4406693 -0.1862416 -0.43300384 -0.5589579 -0.39439917 0.19868124 0.067416936 1.5353509 -0.5246866 0.56082046 -0.94546634 0.842891 -0.86463845 0.89291596 -0.17134096 1.0817883 2.053125 0.17132166 0.55531764 2.0093105 0.1695032 0.8986916 0.8817786 0.08903589 1.5246954 0.94068164 0.6604665 0.7353466 -0.33101368 0.43539327 -0.46396208 0.5291816 -0.88543814 1.0394176 -1.147177 0.1292717 -1.3445454 0.5737352 0.1769238 0.8691523 0.23149692 -1.1077335 0.09091676 0.7530338 -1.7516568 1.2442131 -0.5593364 -1.5198452 -1.1479582 -0.49979228
2503 0.2153897 -0.4712618 -0.0060266997 -2.016815 0.3440918 0.46669248 0.28864858 1.1055487 0.011284494 0.037945982 -0.73848075 1.2972107 -2.471799 -0.3731192 -0.8925631 0.30789053 -0.720725 1.6859475 -1.1137738 0.17878388 1.095584 1.3576295 -0.62164 -0.54606044 -0.9079701 -0.88162506 -1.7960975 1.6671338 1.0939096 0.3116257 0.09593776 0.5911248 0.27903178 1.3569053 0.304913 1.2487661 -0.3645255 0.33003184 1.1579434 -0.16955368 0.85228974 -0.3758056 -1.7111672 0.18198653 -0.11754247 1.4648174 -0.196398 1.1806779 -0.15110755 -0.3874951 -1.1964453 0.93470645 0.8179183 0.7411016 1.0555328 -1.1430016 -0.7184227 1.8969373 -1.6440353 0.4314915 -0.6671416 -0.069483146 -0.6223701 -0.96912235
1971 -0.53253096 -0.4053107 0.43816352 -0.5923228 0.92653567 -0.7378947 1.1289291 1.9265158 -1.1659318 0.9840999 0.75704616 -0.06447389 -1.3257134 1.1352258 0.29708463 -0.057132646 0.56196153 0.17091794 0.77091676 0.012123454 -0.5186567 0.7592403 0.18271554 -0.15790004 -1.7284311 0.13308443 -1.9620975 -0.15499094 -0.21539162 1.594662 0.41221318 1.7825937 -1.0361011 -0.16620713 0.8965416 0.22037797 1.8210253 -1.0128721 1.6800796 -0.20329767 0.08819738 0.90949434 1.1998076 -0.53880996 0.6652469 0.53420776 -0.15612392 2.050076 -1.1340083 -0.5511729 1.5688071 1.3046165 1.539653 0.6137968 1.5985163 0.43734664 -1.4034497 0.1524784 -2.6344938 -0.64853764 -1.2023392 -0.36277032 -0.79675525 -1.3468226
2047 0.07463537 -2.8088865 1.3086991 0.63569915 -0.47374287 0.7212025 0.69189656 -0.16156703 0.6452265 0.17681994 -0.5392532 -0.9466683 -0.8577168 -1.3496451 0.08296803 0.6811962 -0.6606998 0.50679785 1.3222582 0.110748105 0.5740356 1.9273367 0.19713524 -0.6435388 0.4086801 -1.5586878 -1.482792 0.2290898 0.04414144 0.83322036 0.035461303 -0.9934627 -0.50729984 1.809051 0.12658188 1.1422193 0.8156558 -0.91020894 1.1876885 -0.5755488 0.29399633 0.28810883 -0.12167355 -0.15643848 -0.3507649 0.55507046 0.12705114 1.8314908 -1.0638947 0.39406112 -0.61827314 0.2988591 1.3309331 -0.76545095 1.3699269 -0.123908214 -0.24904062 -0.79669064 -1.5975455 0.00829945 -0.21791038 0.084359676 0.15175651 0.41778874
2486 -0.52674633 -2.216662 -1.8166189 -3.2215495 -0.08153053 -0.58732164 0.44243023 1.0183378 -1.0898277 -0.5885768 0.9874578 -0.26104224 -2.3261619 0.7475053 -1.7345655 0.5201369 -0.51486284 0.25503924 0.71682155 0.33712813 -1.8806964 0.6094304 -0.6100503 0.4968295 0.15603636 -1.2603133 -1.9788455 -0.33525383 -0.15632755 0.17906007 -1.2915831 -0.03647709 -0.075146206 1.1657223 0.442177 1.6642818 -0.0615253 -0.416462 0.22572 -0.40127105 -0.53824586 2.03835 -0.08783709 -0.90667444 -0.1807625 2.2161093 -0.76589346 1.8401977 -0.18225247 1.7611893 0.17884302 0.14954077 0.6387253 -0.6419215 0.31165302 1.1024715 0.70041287 -1.0604619 -2.1437771 -0.008065541 -1.7390785 -1.1033653 0.28493008 0.044828776
2358 -1.2829502 -1.3648378 -0.7451374 -2.0599554 0.82693535 -0.5301088 0.47289547 3.037938 -0.87372905 -0.8659796 1.0743583 -0.89220005 -0.4459109 -1.3762233 -0.42023176 -0.23322353 0.47038877 0.97630095 0.31127957 1.638995 1.1569673 1.6994758 -0.13597338 1.497315 -0.16868435 -0.5010412 0.26063782 -0.2533568 -0.8502928 -0.08250281 1.8533673 -1.3867637 -0.3722116 1.2729667 0.7145243 1.831306 0.76566154 0.57013184 0.6409096 -0.46625933 0.24663813 0.32668364 0.7536405 -1.1217365 -0.5744342 1.333536 -0.77924776 2.7636542 -0.26871943 0.68435884 -0.18840764 0.13975239 0.48635796 1.0586702 2.3320954 1.4273696 -0.2803061 -1.1072054 -1.0884746 -0.6515349 -0.4536807 0.6730231 0.12787916 -1.5420173
2042 0.01348389 -1.7408801 -0.036706496 -0.9320621 -0.22631615 0.8295837 0.45531166 0.5696403 0.044921655 1.1278795 -0.47142336 0.3339472 -2.777864 -0.4325866 0.06397707 0.22611664 -1.1672773 0.39115533 0.078630455 0.5963092 -0.18287125 2.1655629 -0.6188175 -0.1264791 0.025256187 -1.953186 -0.9645873 -0.54533994 -1.059636 -0.17707433 1.0777639 1.7908661 -0.04151447 1.4785523 0.6943619 0.34764817 0.66753703 1.3508346 1.1235436 0.80118364 1.7117307 0.9723593 0.6285133 0.084204525 -1.4149315 0.091005355 -0.74492264 0.83870625 -0.5107405 0.27805054 0.6147416 0.29914367 -0.262447 0.780406 -0.195649 0.8239507 0.018883826 -0.31383976 -1.183489 -1.6608149 -0.68723714 0.48111168 -0.8503202 -0.06862837
2596 -0.6656601 -1.6928146 -0.016554987 -2.0810723 -1.1222347 -0.13951439 1.1793671 0.03087745 -0.5840384 0.98531985 0.4059496 0.18480931 -2.168215 -0.49925053 0.52108496 0.9604285 -0.50968426 1.4341048 1.8310167 0.28290212 -1.3217621 1.7780237 -0.38722053 -1.0396365 0.20831805 0.04230513 -2.4563394 -0.47121823 -0.08202524 0.21648203 1.092042 0.90828323 -0.14671332 1.7519921 -0.88552916 0.19891721 0.49796993 0.17015946 1.3297977 -0.30561823 0.042363554 -0.7230517 -0.09416367 -0.4084788 -0.35387677 0.14528224 -1.0252203 0.039524574 -0.058277536 0.09068609 -0.22289306 1.2215409 -0.14100885 0.60513157 0.7317852 1.3379896 0.4360702 2.0659811 -2.656248 -0.66440475 0.5144997 0.016350705 -1.5927471 -0.809468
2649 0.44273236 0.6999888 1.1298345 -1.900639 1.5352929 -1.0294652 1.9348156 -1.419286 1.2396972 0.18040961 0.7727112 0.7369975 -0.23099265 -1.6157391 -0.1799367 0.9742262 -0.83955806 0.103212744 -0.9920538 2.199006 -0.0019617262 0.8716257 -1.2515783 1.8404981 -0.3496435 -0.94333744 -1.7172563 -0.26547495 1.1135225 1.6258594 0.14165984 -0.11427744 -0.34860757 0.672463 1.4885267 0.5598677 0.3824047 1.9274744 0.79616165 -0.5066388 -1.7369362 0.86645514 -1.7390254 -1.6595567 0.3157165 -0.23813169 0.25252143 1.900974 -0.2808184 0.45755464 0.70004714 -0.7688406 0.5785112 -1.4827298 0.14945577 -0.09883683 -0.07392264 -0.2310522 -0.26916 -0.8547108 -1.9650778 -0.2781524 0.023667933 -2.0876133
2507 0.25391215 -0.51438457 1.6921209 -1.9051229 1.5057197 0.11904424 1.6514776 -0.6842508 0.21590802 -0.94745076 -1.2844822 -0.22711237 -0.7046997 0.5243378 0.7573582 2.515867 -0.8295922 1.794581 0.91238517 1.3901743 -0.1352818 1.8355368 0.60117024 -1.1723361 -0.81571555 0.11079165 -0.61080545 1.3580946 0.77178055 0.22946036 0.4219724 0.8884925 -0.43746468 -0.899255 -0.22117993 -0.33969262 -0.4907892 1.4033145 0.18029541 0.4919222 0.1933623 0.13235182 0.15296572 -3.0159879 0.8670356 0.56292385 0.9263891 1.9567031 0.18582778 1.4026139 0.26721063 -0.2258954 0.21054882 0.08441858 -0.73390853 -1.0192041 0.30245024 0.8769692 -1.7424085 0.7596316 -0.7683272 0.61149037 -0.6754744 -1.7729543
2163 -0.15258959 -1.71028 2.1508546 -1.2487885 1.3768736 1.847187 -0.10847121 -0.660027 3.14975 -0.19357646 0.673135 -0.26114166 -1.4676001 -0.079186134 1.1683606 -0.058918245 -0.5515847 0.37955758 0.07231939 2.0419614 0.50596803 1.0571098 0.56827164 -1.9627732 -0.78510904 -1.9575377 -1.1183901 0.79844946 0.34955359 0.45333776 0.55654556 1.6502233 0.84002274 -0.30268157 -1.174821 -0.42305613 0.42439565 -0.15825646 1.1677979 0.48979256 -1.3572903 0.20471518 0.36993602 -2.0189962 -0.70456743 0.8018525 0.4293511 0.843457 0.07372564 1.4734503 -1.2308112 -0.54126436 0.62376326 0.2645028 -1.8871266 0.20050783 0.5344204 -0.56143177 -1.4343668 1.5973364 -1.120476 -0.5113311 -0.6349349 -0.36986917
2198 -0.69512725 -0.24159628 1.6031011 -1.4670136 0.78762996 0.15956926 -0.50884134 0.026087997 0.6571202 -0.22041297 2.2893698 0.6227615 -0.51093924 -0.84798706 0.22235174 -0.14178273 1.11395 0.3528124 0.4401771 1.1758367 -0.82042456 1.4250457 1.0854431 -0.509654 -1.643199 0.14367028 -3.4785018 0.0056402865 0.85878885 0.22530702 -0.36766857 0.94007516 -0.34482065 0.5479548 0.8491019 0.8985249 -0.51220495 0.7291808 1.0275296 -0.21578299 -0.8333372 -0.84104884 0.17581089 -1.1368593 -1.3503358 0.0431241 0.045016274 1.5359246 -0.4660593 1.7357187 0.32585856 -0.4577482 0.26547378 -1.5645082 -1.8431406 -1.4557985 1.1353827 -1.5520812 -0.30666998 -0.42516366 -0.7303758 0.4410384 -0.42366642 -0.93226606
2395 -2.276813 -2.3291314 0.03451296 -1.9478991 -0.0937902 -0.1700167 0.11548089 0.3488106 0.05147402 -1.1291183 0.75438607 0.98100394 -1.144871 0.47740793 0.4942363 0.77447325 -0.6060602 -0.93764144 -0.56676334 -0.031195272 -0.6017982 0.6123804 -1.6558286 -0.2977144 0.024230124 -1.0265712 -2.4462326 -0.402378 0.38206342 0.6878816 -0.6131719 0.3451662 0.8790417 -0.097721376 0.57634723 0.5594703 0.56147504 0.3329406 1.1633811 -1.5338373 -1.0091763 -0.4888161 -1.3053331 -2.4126227 1.69364 -0.9764973 0.9043676 1.4711525 0.36619714 1.0325488 2.3836362 0.7698055 -0.9670223 -2.1134622 0.46237704 0.5637023 -1.4566448 -0.6211413 -2.1186788 0.75567764 -0.090509996 0.50352997 -0.7372864 -1.0709156
2485 0.05557343 -0.056686115 1.3898145 -2.2307878 -0.626251 -1.5683813 0.19697505 -0.23178338 0.52532333 -0.9679276 -0.8488001 0.62977743 -1.1445305 0.19910845 0.40306354 0.6915179 -1.2699348 -1.7039675 -0.31459025 2.4525278 1.095742 0.061197005 0.2522617 -0.039772447 0.6151357 1.1435869 -1.6996937 -0.23848662 0.18699685 0.6928987 0.35142276 0.33928633 1.0866503 0.32018 0.6188023 0.49277037 1.369166 1.1486714 0.9832642 -0.5469631 -2.7377334 -0.28024283 -1.44865 -0.13839303 0.28209597 -0.8397224 -0.6242595 2.176311 -0.4210966 1.6649309 -0.3456819 -0.38124257 0.80144376 -0.2579925 -1.7193784 -0.6812526 -0.79557276 -1.2235097 -1.654216 -0.45189703 -0.9903113 0.9578914 0.92805594 -2.961242
2597 -0.8442824 -0.6904316 1.00598 -2.350592 -1.1867744 -1.6923202 1.7425785 -0.53989375 0.48040625 0.94805515 -0.32999238 0.3639873 -0.61334103 0.11140392 0.68929285 0.82015824 -0.986843 0.36352476 0.63988125 1.0554103 0.44956544 1.554322 -0.28596228 -1.0634745 0.081201896 -0.038364977 -2.7439883 0.77498734 1.1773732 0.7155898 -0.07907426 0.6913806 0.062827006 0.6507335 -0.25748748 0.6075793 0.9437962 0.41934878 -0.09262242 -0.6205324 -1.2838743 -0.6466346 0.44948995 -1.8223127 1.2814447 0.8836179 -2.501448 1.8448268 0.3138452 0.70261717 -0.17653449 -0.27537313 -1.0713719 -0.3265465 -0.028485937 0.21636659 0.15824845 0.2548671 -0.1863495 1.2998483 -0.52020866 0.5013903 -0.3748778 -1.6963209
2436 0.96313584 -0.36285585 -0.8839722 -0.9798122 1.3694855 1.120707 1.4736093 1.0092776 0.32560137 0.45330927 0.083776675 -1.6789982 0.40917608 0.05076223 2.3636017 1.2288179 -0.70339775 -1.3709652 0.7620516 1.4554086 -1.0185926 0.7737699 -0.88214993 0.21130794 -1.3758975 -1.0058329 -3.3008745 0.6983637 -0.27495414 0.6926558 1.6868584 0.1809235 1.298416 2.6270638 1.0771406 0.6825096 -0.78576535 1.0824995 -0.44846424 0.18651898 -0.14452258 -0.1128207 -0.16374291 -0.35600668 0.27301246 1.3799634 -1.1423968 1.7624848 0.42216507 2.0125458 0.8512744 0.97558117 0.6961182 -1.5811505 -1.172254 0.20708756 1.6519874 -0.09914025 -0.66162854 0.78292996 -0.2675542 0.46615782 -0.8001328 -0.5556176
1958 0.17708372 -1.5522187 1.4337617 -2.180688 0.31421903 -0.6133535 1.5412862 0.23709933 1.6779475 -0.9711193 -1.1679975 -1.1871046 -0.054891456 -0.26146823 -0.77886486 -0.3598578 -1.2038981 1.0305535 0.36598927 -1.0836737 -0.13007724 -0.21177499 -2.2466576 0.24271837 -1.7474579 -0.18524419 -0.9625891 -1.1826693 0.1223932 1.6623178 2.2304602 1.902876 0.07036257 0.61923957 0.28901827 1.802119 0.3565298 1.9327637 0.44948444 -0.07249584 -1.2286316 -0.7861409 -0.030159706 -0.18624069 1.0922759 0.40909222 0.5886888 1.1570132 0.69605964 -0.30055895 2.2419834 0.68600035 -0.26132852 1.0291176 -1.584288 -0.98548275 -2.0520895 -2.2185283 -0.17647606 0.041206315 0.30939668 -1.4716074 0.26398292 -0.83652955
2475 0.33049738 -0.80595124 -0.2927025 -0.87045735 -0.043979555 1.2635441 1.1748506 1.8603262 1.4687937 -1.8641189 -0.40393496 -0.5930052 -1.6076605 -0.68039453 0.29608595 1.0762306 0.3149908 -0.7497049 0.83390987 -0.020393101 -0.63464224 2.2639482 -0.08256491 0.5679361 0.028066665 -1.9532242 -2.1927083 0.7633461 -0.26804084 1.3881202 0.8880458 0.49557218 0.6488849 -0.5572839 -0.9809935 -0.17195837 1.1341659 0.95033514 -0.2527326 -1.2063098 -0.74356514 -0.37614042 0.32141343 -0.98932016 -1.5137758 0.896531 -0.2826985 0.9702867 -1.3227438 0.64159787 2.1677954 -1.6834818 1.9245397 1.0950943 -2.5741577 0.8080357 0.23766549 -0.44730908 -0.71976453 0.6329651 0.89821744 0.13615018 0.20164694 -0.5595932
2357 -1.0776584 -1.2380823 0.9380951 -3.1959453 0.29384804 0.19798957 2.3058681 1.3921715 0.6270374 -1.2687422 0.05611043 -1.013417 -1.6841564 -0.10449128 1.4236121 2.1486979 0.43128666 -0.27022055 0.17878456 -0.10235457 -0.24530949 2.080195 1.4795579 1.5599313 0.258086 -0.13685413 -2.283275 -0.29990333 0.30632457 0.8461293 1.1369026 0.37961835 1.3321682 0.03391486 -0.9390348 0.34782618 0.545836 -0.32016176 0.044034224 -0.89491886 0.09472436 2.0732925 1.5671775 0.60990393 -1.6857424 -0.11784743 0.6012673 0.35630044 -0.8915753 -0.038001988 0.9019807 -1.940074 1.3137152 1.2032723 -0.37750408 -0.1247917 -1.4609834 0.05598434 -2.1188605 -0.23602787 1.5987821 1.3504571 -0.2223253 -0.7021599
2426 -1.4884752 -0.3803014 -1.3004278 -0.29315257 -0.80959696 -0.036966484 1.9960124 0.9203608 1.3955722 -1.7533098 0.041759532 -1.3699317 -1.3785326 0.28779173 -0.83210874 0.9840375 -1.7129976 0.24091111 -0.044306144 1.2232755 -1.777842 0.67052335 -0.6233878 -1.2698582 -0.82899034 0.3031655 -2.1431463 -0.18049863 0.47927487 2.3412304 2.0861816 -0.31815284 2.1109257 -0.58107364 0.086369015 1.1191229 -0.4362694 1.7397472 0.30198893 0.27892262 -0.3277287 0.5661334 -1.8988662 0.9278464 0.021636607 0.911241 0.33328217 1.3589823 -2.1763325 1.5620289 0.72431785 0.67896616 1.5001359 0.99569964 -0.41794348 -0.81400853 -0.1782028 -1.4031391 -0.53410846 0.755137 0.046080053 0.8347036 1.1736083 -2.4467099
2080 -1.9390311 -1.351571 0.7495153 -0.9513661 -1.0638962 0.1670426 2.1982064 1.0386326 1.2837635 -0.45208406 -0.37917486 -1.3011415 1.7731754 0.64379704 -0.5128813 0.97600687 -0.08376578 -0.4638128 -0.5468477 1.2045647 -0.13290483 1.9113853 -0.46955997 -0.45903125 -0.6184584 0.07399254 -2.7881026 0.47832662 1.356688 1.0986456 1.3456013 0.5362703 1.6499859 0.28249165 -0.088184886 0.40559557 0.90337646 0.7185789 0.58484674 0.57563335 -1.8561547 0.15001832 0.07157186 0.58752435 -0.91777587 -1.3128278 -1.1399908 0.4629808 -1.311492 0.36085054 0.53608423 1.004872 2.506396 -0.7723699 -0.23541674 -0.06916441 -1.0259053 -0.7093598 -1.2210128 0.6887111 0.6530476 -0.71291554 -0.54235286 0.5400431
2673 -0.9939712 -0.50495523 0.92969435 -1.05416 -0.053565428 0.15051375 1.4798671 0.098576 2.5112493 1.5753353 -0.96132964 -1.5136013 -1.582888 0.7377393 0.07511774 -0.20349528 0.09669791 -1.282846 -0.008332849 1.7817842 -0.60801446 0.45343837 -0.349219 0.028781993 -0.75014436 -1.5774648 -2.1215777 -0.13354123 -0.38854724 0.44128457 1.2109157 0.3177665 -0.68159854 0.102288045 -0.33991647 1.251934 -0.5264753 1.0428025 0.45235234 1.0128902 -1.3188015 0.1303686 -0.51063216 1.0783961 -1.5491303 -0.7313989 -0.1123833 0.48077014 -0.3226908 -0.28831467 2.2731528 0.43535346 0.12651865 0.24796818 -1.0417593 0.5706257 0.21211918 -0.45114973 -2.950001 -0.14296171 0.12835161 2.2933788 0.4102649 -1.364769
2576 -1.2969762 -1.1036994 -0.08115043 -0.36532578 0.097000934 1.2794386 1.6076798 0.20858432 -1.0514193 -0.710915 0.57119 -0.83870804 0.39982408 -0.21205114 -0.38970453 1.0504366 0.89750224 -0.28918585 -0.68931377 1.6271515 -0.02289512 2.6680384 0.2880348 1.4741781 -1.3625534 -0.41262197 -2.123008 0.14113009 1.203044 0.97409964 -0.09513183 0.00027155955 0.2679555 -1.6155292 -0.026857482 0.18927732 -1.255788 1.1210564 0.1289548 -0.04719044 -2.4139116 -1.0517151 -0.7690083 0.026305562 -1.1621921 0.25111732 0.11166329 1.8461267 0.47008356 0.8875185 1.1292955 -1.1791865 0.6919337 1.2437377 -0.18109316 -1.0211716 -0.19180492 -2.1247714 -2.407346 -0.42120743 0.36189875 -0.9999058 0.8640774 -1.2751492
1798 -2.0387752 -1.1521083 1.0936326 -2.613916 -0.12724577 1.4166057 2.285051 0.6485076 1.5325053 1.8520579 -0.9146057 -0.9852095 1.260459 0.49719095 -0.042166922 1.4704565 -0.9069099 -0.53225243 -0.98532796 1.1942872 -0.7233769 1.9751009 1.4059602 0.43074146 -1.5213033 0.348784 -0.69530076 -0.5599879 -0.46840152 0.04729906 0.17310296 0.69215786 0.8369819 0.59988624 -0.17039533 1.0349597 -0.12009442 1.9211352 0.7645962 0.24258867 -0.49012962 -0.46848834 -0.89302397 0.7830961 -0.82051337 1.5287958 -0.7417667 1.7920126 -0.92605996 -0.34974897 1.1169795 0.04471907 1.118392 -0.18434538 0.38024786 -0.811351 -0.68676096 -0.70577234 -0.28359267 1.198703 0.0026046631 -1.117646 0.10161827 -0.07133759
1828 -0.8023272 -0.08930404 -0.36301172 -2.4226973 1.124811 0.56289923 2.7921762 0.9909996 -0.69946665 -0.4743131 -1.44311 -0.12914756 -2.5271194 -1.5834295 0.06873344 0.024304314 -0.43291092 0.87811935 -0.3761939 -0.83450955 -0.24756613 -0.2830077 -0.6597137 0.72826666 -2.1278386 -0.40403026 -1.4866078 -2.3939817 -1.0827298 0.8303479 3.2557096 -0.17561378 -0.24686769 0.4380419 -0.3499717 2.518138 0.7632088 0.2332402 -1.4011128 -2.5085287 -1.5456734 1.2708412 -1.4189723 -0.82085466 -0.2788562 -1.0981126 0.05499771 3.1310067 0.77708465 0.8075134 0.09474046 -0.6490668 0.92125964 -0.72132224 0.44969273 -0.28286776 -0.419848 0.7494616 -0.62176055 0.38436615 -0.5075828 0.38650432 -1.1304578 0.98108184
2651 -1.0988992 -1.3164347 -0.11232594 -2.6228862 1.1255819 0.683499 1.7596337 1.0174506 0.22718284 0.79887766 -1.2319936 0.09697678 -1.6940609 -0.6141147 -0.8137646 -0.3488577 -0.9009331 1.4529772 -0.58948463 1.020266 0.5630067 0.42588854 1.1158739 -0.18467477 1.3011957 -0.9279268 -1.2778342 -0.3405707 -0.19475158 0.6995396 1.7606448 -1.6950272 -0.9422992 0.7915181 -0.75887644 0.8061779 1.0209968 0.17488235 -1.6084964 -1.8426769 -0.13511112 -0.17177983 -1.0452317 -2.6346493 0.49859324 -0.4607495 -1.1390353 2.8923025 1.0283366 -0.46664515 -0.3890709 -0.10027002 -1.0930449 0.8399286 0.04152664 -2.2363696 -1.3608859 0.8139467 -0.8467957 0.13345006 -1.8338857 -0.6842983 0.09082247 0.11526272
2495 -0.0015855326 -0.18516004 -0.35159963 -1.2822609 -1.3069723 1.4583074 1.5721238 1.7524443 -0.13710347 -0.29151845 -0.8361684 -0.84366906 -1.5243589 -1.7258736 -0.15840761 0.008262892 -0.6355747 -0.30999634 1.7330643 1.9436674 -1.0427792 0.6153609 1.5834535 0.8370049 -0.117029965 -0.5131051 -1.644183 -0.9522384 -0.98894036 2.2258403 0.055495 1.8152678 0.12720266 1.6655688 -1.1487459 0.109423384 1.3290035 2.5127413 0.31553456 -0.28987727 -0.65874714 0.2389407 0.3373056 -2.5550191 -0.9544558 -1.8056751 -0.42606646 1.1575516 0.9039804 -0.5975572 1.2881249 0.6537426 2.977251 0.20505804 -1.1101795 -1.2128634 -1.2912369 -0.13367014 -2.5917659 -1.2563282 -0.10128663 -0.4624891 1.3651326 0.8553889
2466 0.45438468 -0.22256632 -0.06620504 -2.5451155 -0.833076 -0.4392731 0.30410945 0.653873 0.12552907 1.0856024 0.8441347 0.7919788 -1.1888081 0.4276745 -1.5440013 1.029222 0.040787056 1.7272285 0.37529242 0.6750231 -1.2246735 1.3590133 -0.5674562 -1.3501781 -0.7956448 -1.5056891 -2.5877893 1.0577615 -0.67824143 0.8623032 -0.8745122 -0.106764816 0.13817969 1.2461789 0.9899999 0.43373704 -1.3280493 0.029031746 1.0571278 0.31153384 -0.692018 0.31640607 -0.5402609 -2.4501302 -0.101230875 0.42847702 -2.3742745 2.6748095 1.0331237 -0.16162436 -0.78358716 -0.45748806 -0.03227514 1.6092273 -0.108337544 -1.5072234 -2.1567998 0.55587184 -1.44425 -0.26053008 0.20727637 -0.67070574 2.2273014 1.3525243
2540 -0.27762374 -0.028126681 1.3894359 -1.5775268 0.56980294 1.6685948 -0.07516643 0.040167388 1.2331313 -0.02366553 0.6782753 -0.49736708 -1.8846341 -1.1592189 -2.2160943 0.06519916 -0.4614562 -0.26711172 1.3909049 0.53080606 -0.47094658 1.6458489 -1.2025578 0.763284 -2.4695046 -1.1746516 -2.313133 0.32665658 -1.6600021 1.4322374 1.2565758 0.6731633 1.0220518 1.473574 -0.49533606 -0.4555365 0.9942166 1.2790772 -0.21871969 -0.8720077 0.3180849 -0.48368132 -1.2467531 -1.1984655 -0.40817586 -1.2116282 0.04519473 2.611537 2.1282685 0.46443513 -0.9569698 0.55583847 -0.017949639 1.2270316 0.32707867 -1.9265847 -0.42059982 1.0246394 -0.89590156 -0.33762103 0.035701428 0.038723677 -0.13210502 1.3540195
2530 -0.17123678 0.016972816 -0.30747405 -3.0803304 -1.9098444 1.3148446 0.745443 2.2432187 1.281024 0.3592672 2.1100996 -0.99420464 -0.058824632 -0.03482403 -0.60781276 0.12351135 -1.5859007 0.15314408 0.46708822 2.458448 -1.9585036 0.6948481 -2.1410847 0.38016546 -3.0803466 -1.0032662 -0.5767108 0.68826896 -0.20188506 1.3842773 0.64756054 -1.3820174 -0.06515609 0.66034883 -2.0158052 1.3128493 0.022687076 0.0052326326 1.8712381 -0.011979965 -0.39028907 0.50388676 -1.9178526 -0.17457755 -0.94692665 0.47052497 -0.3797899 1.5014485 0.46711415 -0.21012674 -0.95641744 0.22401215 -0.95680887 -0.5691882 -0.8782521 0.72304356 -0.33718914 -0.0183851 -1.2694507 -0.18163145 0.39912903 -0.95917857 0.078718826 1.2064455
2599 -0.1362687 -1.1482006 -0.173613 -1.9362657 -0.44083026 0.935135 -1.1456072 0.9761433 -0.426353 1.4962164 0.9673539 -1.5953786 -1.6407427 -0.59113437 -0.74113196 -0.26391527 2.2713354 0.23944059 0.6509048 2.1257632 -1.8145636 0.45355552 -0.43703985 -0.81070125 -0.1687565 -2.020515 -2.5719006 -0.21430498 0.0017971902 1.3897235 0.32799178 -0.18051454 -0.34755495 -0.09437978 -1.3374766 0.27298522 -0.061673574 -0.5447175 2.1874313 0.48522842 -1.1388367 1.1906239 -0.41252682 -1.228091 1.2598217 1.1659498 0.053263694 3.7403462 -0.73776335 0.46877295 -0.6682842 -0.27660894 -0.5123927 0.36517432 0.2363187 -0.6942178 -0.27605993 0.7375793 -0.50723773 0.14974667 1.7001489 0.7569669 0.28656206 -0.55403906
2632 0.8512237 -0.85921085 0.8505853 -2.4901733 0.5383423 1.238389 -0.891138 1.035166 1.1606588 0.5085041 0.104162544 -1.8727919 -1.9323967 -0.60284925 -1.4259251 0.4547844 0.31183723 0.11426723 -0.32022205 1.3199072 -1.5507702 0.7140848 -0.57101196 0.69443715 -2.5818064 -1.7782779 -1.7058815 -0.23318209 -1.2356454 1.3212901 2.607309 1.024158 0.4787849 0.77710843 -0.9434398 -0.8710443 1.2814662 0.61638737 0.41136992 -0.70890015 1.158948 -0.035524525 -1.0752141 -0.69230795 -0.43143573 -0.23364086 -0.085077 1.7586391 1.1042475 0.4849298 -0.8315837 0.30636314 -1.5822372 0.29332277 0.8789282 -1.7547966 -0.51110727 0.89804566 -1.2548089 -0.78410554 1.4889941 -0.052835688 -1.248043 -0.45696643
2195 -2.1368597 -1.1010798 0.8983035 -1.284675 -0.40116256 3.2442687 0.6012237 1.7584909 1.1306837 1.3655 -1.0392257 -0.49287012 -0.4562448 -0.57969695 -1.3265135 1.2782459 0.39009368 -0.5271997 -0.043417588 0.124465555 -1.9646536 0.40698534 1.3661224 0.9288545 -0.7869165 -0.7676103 -1.1716046 0.032790102 0.3301417 1.4386898 0.69197184 -2.8829193 -0.5207331 -0.43983796 0.9709382 0.80868655 1.6726911 1.7620901 0.94717336 0.37335405 -0.26399398 1.0761496 -0.51756716 -1.208974 0.47901538 0.32904083 1.84331 2.9721363 1.2104073 1.5257671 -1.3448237 0.91006947 -0.5032115 0.9370483 0.9523045 0.8534673 -1.4347925 -0.15681298 -0.45279023 -1.106299 -1.1184444 0.297016 -0.8000432 -0.3010241
2448 0.5613455 -0.8691683 0.04636998 -2.5132234 -0.57350636 0.51269054 1.6020814 2.4171102 0.97826034 -0.04452321 -1.057044 -1.3372847 -1.4262727 0.029714298 -0.48360053 0.64645255 0.085238345 2.1497667 -0.3761442 -0.4853396 -1.2549403 1.3679297 -0.21202591 -0.05944447 0.741494 -1.3820254 -1.5537324 0.77087027 0.7053783 1.4041976 1.0644064 0.030793782 0.46516037 0.1278119 0.6390958 0.87353057 0.6992754 0.5422933 0.7239892 0.8902083 -0.6395263 0.6310842 -0.24786007 -1.7545497 0.6674291 0.799837 0.57182556 2.0712547 1.184377 -0.07521313 -0.68069774 -0.1282369 -0.8782604 0.9511943 1.4799807 -0.30316395 -1.5416381 1.6230557 -0.24696659 -0.52907586 0.015882144 1.3047315 -0.5385716 1.4210174
2637 -0.25149184 -1.0946931 -0.45677555 -0.6933639 -0.112402715 1.4585283 0.8257403 2.092679 1.2501018 -0.36547226 -0.80460346 -0.18170877 -1.5694273 -0.4051077 -0.8650621 0.52839506 0.1709966 0.34411332 -1.0055239 1.0804555 -0.34857568 0.7831425 -0.7235033 -1.0449973 -0.20676379 -0.6674409 -1.9859161 0.7627806 -1.2203697 0.83934677 2.622271 1.4082841 -0.41147235 -0.20643257 -0.7440565 1.6297824 1.0795122 0.3056399 1.3166182 2.0977762 0.35003704 1.1616187 0.18857546 -1.1144798 -1.1867642 -0.34084132 0.8209348 1.783764 0.48874214 1.2345878 0.6199003 -0.5296105 -0.2818948 -0.24083725 1.0908989 -0.3040236 -0.8229349 -0.5149871 -0.1180009 -2.383018 0.1381681 1.4424481 -0.5766275 0.90680337
2672 0.3501222 -0.8873762 0.6436872 -0.50993663 0.18146376 0.30316043 1.8253851 1.811085 1.516818 1.0476273 -0.69594586 -1.3669463 -2.2976828 0.23474908 -1.0910525 -0.40529826 0.7403695 0.3952515 -0.75719553 2.4092374 -1.4815164 -0.0660443 0.50363666 0.16863665 -0.66047645 -1.2329904 -1.6421047 -0.33655885 -0.67153424 0.49263588 1.402856 0.29081675 -0.8568011 0.39318597 0.45249102 1.5273232 0.609188 0.99502176 1.058612 1.2927026 -0.40722746 0.2816808 -1.0058494 -0.08139102 -1.2717586 -1.0109322 1.0223961 1.8684301 0.67684734 1.6488435 1.1084336 0.13973455 -0.3041627 -0.57461065 0.18644209 -0.07584594 -0.6440462 0.8355296 -1.5644245 -0.7921995 -0.05795187 2.8991036 0.57267684 1.1766012
2387 -1.59303 -2.166751 1.8384241 -2.8091958 -1.5684576 1.5072471 0.21119791 0.4767201 -0.63397336 -0.41343126 -0.26523274 -0.0014514585 -1.1847206 1.5209508 -1.1788781 0.17545731 0.08746109 -0.55516124 2.0666277 1.119165 0.43191832 -0.20708628 0.93211263 -0.3305601 -0.82062477 -1.1817918 -1.108044 1.4318984 -1.5344659 0.6260261 1.6448624 -1.5857016 -0.736144 -0.8960911 1.6547488 -0.99162495 0.16232751 0.92465955 1.0370077 -0.96537775 0.10042269 -1.8916581 0.85134757 -1.8557491 -1.753549 -1.9313284 0.010104089 2.8168159 -0.25104684 -0.043231938 -0.5560409 -0.8755044 -1.0459893 0.036893535 0.16426075 -1.6309754 -1.5305417 1.3672768 -1.4044992 -0.12136274 -1.194917 0.106823504 0.08204834 -0.66288847
2140 -0.49327764 -0.6173668 0.055043813 -1.6246917 -0.2719732 0.38084754 1.8746837 0.97245497 1.0182111 -0.6618493 -0.41063535 -0.3729813 -0.7197659 -0.2624225 0.9391467 -0.744584 -1.2090453 -0.10797116 0.23767877 0.25031403 -1.6907463 1.6303647 -0.5171407 -2.2609112 1.1184059 -1.5578549 -0.8168554 0.042916443 0.94759065 1.8333981 -0.18187088 -1.1618403 0.93190813 -0.2064306 -0.34268892 -0.1338963 0.2838505 2.1425467 3.3217466 -1.0376529 0.9552305 -0.41236222 0.26229885 -1.4467497 -1.7855287 0.09658915 -0.41292402 1.8620756 0.4588465 1.3372581 0.60118675 1.9479115 0.73790663 -0.73596734 -1.3896192 -1.3129101 -2.6907208 -0.17245993 -0.40027738 -1.382574 -1.052743 -0.14024374 -1.0266539 1.084091
2642 -0.85371387 1.5641922 0.27920535 -1.533094 -2.0826263 0.80343986 1.1388909 -0.40927112 0.42404473 -0.3130575 -0.15925536 -1.5101119 -1.2136017 -0.66534555 -0.041311026 0.37657592 1.1900944 1.5267777 0.8882499 -0.94141626 -0.16668083 0.19134347 -0.09493147 -0.51809496 0.1777499 -1.0187749 -2.2062442 1.2289375 0.39898804 0.08604284 3.2017298 -0.7978037 -0.71390855 0.6641863 0.42894173 1.0339775 -0.54788613 0.16565295 1.4268081 -0.6503103 1.0615001 -0.17458878 -1.1893183 -1.7528113 -1.3948731 1.2991427 0.36020845 2.0560482 -1.4907187 0.8056722 0.6828207 -0.84360987 -1.8905697 -0.75118876 -0.0067590834 -1.7949051 -1.6568041 1.9139291 -1.3766625 -0.32348967 -0.13848487 -0.61919093 -0.91336673 -0.5851328
2447 -1.1889163 -0.033333592 -0.15642777 -2.0505044 -2.0191948 -0.4295851 1.3547217 1.02317 -0.34069288 -0.6002201 -0.88781583 -0.24705404 -1.2576189 -0.14968228 0.1299883 0.47209293 -0.37931663 1.8125564 0.9312237 -1.1477664 -0.35290292 0.99520856 -0.79431695 -0.14993995 0.1567712 -1.0641965 -0.77630836 1.9308556 0.38664755 1.4379513 0.86147213 -0.2495765 0.8526312 0.79698235 1.4070376 0.9888894 -0.11286492 1.1727697 1.1599362 -0.2627262 0.020422 0.019695392 -1.3522894 -1.2796152 -0.27479082 0.49106237 -0.55674094 2.4628775 -0.32826266 -1.309213 1.0060712 -0.41872025 -1.7085385 0.10006466 0.5718202 -0.1253561 -1.6527236 1.6567351 -0.41960454 -0.74296254 -0.70216906 0.57816035 -0.2970926 -0.020502599
2325 -0.02662405 -1.0317353 -0.35911834 0.13326696 -0.89330775 -1.1713352 0.7116823 -0.00012281808 0.15788399 -0.26732388 -0.88477993 -1.841529 -0.8510452 -0.028652446 -1.1341351 -0.6367881 0.4623125 -0.14086823 0.29945713 1.4407754 -0.030829597 -0.08441629 -1.2481511 -0.015434422 -0.7309546 -1.4665642 -1.1820018 -0.36825505 0.88826007 2.855079 1.4724557 -1.3437054 -0.009844486 0.25255027 1.4430784 1.1056997 0.12361362 0.841895 1.5359985 0.06538781 0.6062051 1.2083764 -0.24320653 0.07496902 -1.0604492 -0.83280396 -0.65537363 1.9544932 -1.6400979 -0.19764958 -0.9082531 -1.0068973 0.5060132 -0.51292014 0.034013327 -1.59043 -0.010805559 1.1348401 -1.4906248 -0.08035462 0.0019243957 -0.98790085 -0.8468881 0.011116448
2324 -0.9650302 -0.8207921 0.18574153 -1.2514544 -1.0368484 -1.2578077 0.74011767 0.11664862 0.8536773 0.21552561 -0.03987664 -0.38036138 -0.29334882 -0.6693885 0.2083281 0.48456818 -1.0409707 0.80348945 0.5919331 -0.21564859 -0.37919292 0.6874457 -0.47552395 -1.2735509 0.48704866 -1.8608446 -1.2530347 -0.83640426 2.0485435 2.078133 1.2643917 -0.9405754 -0.2218588 1.3815624 -0.45328897 1.7958608 1.487166 1.4232186 1.2412945 -0.77944994 0.24854298 -0.26461503 -1.9874704 -1.3193139 -1.301124 -1.5151643 -0.2105771 1.4792442 -2.1349626 -1.1112642 -0.5460749 0.010880992 0.69338197 -0.5686045 0.077323936 -1.0558774 0.03965486 1.2333409 -1.5692463 -0.6029562 0.5065115 -1.1479793 0.03201694 1.1566654
2296 0.18708485 -1.7061228 -1.708332 -1.8940753 -1.1585151 -0.5241675 0.18575406 1.093528 -0.22386372 0.09069494 0.24966007 -0.895942 -0.0732724 -0.7495793 -1.0543164 1.0190281 -0.5232784 1.9339088 0.681361 -0.41509587 0.21149504 0.19873889 -1.135224 -1.6745633 0.38972756 -1.082128 -1.4327844 0.019223994 0.97684824 1.759389 1.5613452 0.16028316 1.3030359 0.7019033 0.4922108 1.6952337 1.1397806 2.6659148 1.7676498 -0.14735143 0.3006052 -0.27859905 -0.47784185 0.45807204 -0.8229797 -1.8214897 -1.7787999 1.0625254 1.1759357 2.064817 0.79508203 -1.6219654 0.3504069 -1.3641952 -1.2215794 -2.008721 -0.03876807 0.3332564 -1.5567198 1.1558838 -0.15387982 -0.6779311 -1.0923686 -0.34298414
2668 -0.7262558 -0.7000101 -0.3255479 -0.6352689 -1.1673403 -0.10498028 -0.8887122 0.78362334 0.027172362 0.2606083 0.93321615 -0.69633615 -0.7152903 -0.5444338 -0.3552377 0.050818488 1.0071657 1.5387173 -0.4973461 -0.29591396 0.7639145 -0.2523826 -1.7452519 -1.6844267 -1.0349292 -2.191184 -3.0933247 -0.17056656 1.1181431 3.3842165 2.5831292 -0.8116328 -1.1108576 -0.3902536 0.7845216 1.6123515 1.8577206 0.61529005 1.374449 0.20505293 0.6977728 -0.29830763 0.42911825 -1.0652194 -1.605352 -0.6239113 -2.0863693 0.5236743 -0.7774697 1.6454697 0.62141293 -0.59830266 -0.98089874 -1.1788921 -1.9939376 -1.6615194 -1.2404402 0.03922347 -0.9786766 1.3143518 -0.10836824 1.1560943 0.017462904 0.028893886
2096 -0.64151704 -1.3417432 1.420672 0.3101317 -2.1153903 -0.7592748 0.96390253 0.41024807 0.3380636 0.2619652 -1.2341355 -1.666365 -0.9672348 -0.84437156 -0.169284 0.2702543 -1.0299578 0.7208966 0.17175011 -0.15418853 -0.27077767 -0.48327848 -0.467411 0.17989375 -0.7076055 -0.7241776 -1.073419 0.3746278 0.21566458 1.78666 1.3902196 -0.88273156 1.2912467 0.6376722 -0.0833119 1.2664622 1.0559204 0.9030915 1.7622871 -0.1629844 -1.7435288 0.38208976 -0.53445685 -0.7833073 0.3461551 -0.8781449 -0.50723034 0.54009104 -0.901566 1.2186666 -0.13068944 -1.0552989 0.40474305 -1.0882515 2.1085136 -1.6849052 -0.27306402 -0.11072951 -2.270049 -0.5680013 0.031111265 -0.86116695 -1.5387301 0.47855487
1789 -0.6198957 -1.1161771 1.2653819 -0.5043422 -1.2196202 0.7091456 -0.06360456 1.209249 -0.8358915 0.9276131 -0.38379273 -0.38885096 -0.61879003 0.26563597 0.10793845 -0.21380597 -0.40251902 0.5863427 -0.30527905 1.7300087 -0.240127 -0.32217997 0.8007489 -0.16102903 -2.842879 -1.0037154 -0.37727702 1.6443999 1.7761064 1.9156601 0.97284836 0.6557681 1.6411165 0.5104343 -0.18294375 1.4486333 1.1965691 2.4788885 1.4334424 -0.24454848 -1.0496393 -1.2484401 -1.5931771 -0.059166517 -0.527537 -0.3550728 1.3525796 2.185893 -0.64957905 1.6919615 -0.28724912 -1.2355424 0.84925205 -1.2832876 0.5448265 0.10307633 0.080142766 0.5672614 -1.8491505 -0.65795785 -0.0566832 0.09468563 0.51347065 1.5922549
2407 0.48076445 -0.65908754 1.6653864 -1.2943974 -1.7686709 -0.69944555 0.16687907 0.65713364 -0.66155624 -0.19999754 -2.2969584 0.025639625 -0.1170855 -1.329465 -0.18375623 -0.23046981 -1.471891 -0.06727175 1.2862558 1.3947263 -0.15593156 -0.9477399 0.12571643 0.6864596 -1.181248 -0.79125917 -2.5460165 0.086665705 -0.008108519 1.5696064 1.1981214 0.5457437 2.1998248 -0.0677214 0.46504548 -0.040759627 1.226645 1.8603793 1.304966 -1.2432625 -1.1152558 0.33809733 -1.5638065 -0.06060153 0.22650382 0.765141 1.3350992 3.6047647 -0.3685394 0.21086119 -1.3807318 0.10174883 -1.1590742 -1.2021323 0.48242375 -0.77259946 1.7007076 0.6093177 -2.4043276 -0.14193852 -0.63361055 0.30648193 0.15537277 -0.17132677
2683 -1.7862724 -0.7585756 -0.91254103 0.51895547 0.87520576 -0.59846884 0.32850835 0.2904207 -1.15312 -0.00817264 -0.9662744 0.63015056 -3.5188699 -1.374241 1.6566409 0.059493523 1.010267 0.75837207 0.04237259 2.4828625 -0.12630546 0.86639476 0.39357176 0.57405925 0.351525 -0.2847284 -1.6547191 1.2111586 0.3856937 1.409542 1.1473556 0.07511081 0.8146182 -1.561876 -0.13466601 1.2274671 2.6088967 0.45767888 2.3423357 0.011043383 -1.2480785 -1.1208448 -0.6218776 -2.3540697 -2.9486997 0.8934426 0.32575187 3.327831 -1.368448 0.21016428 -0.13218954 -0.3129679 0.7963574 -0.31539878 0.17684737 -1.8929626 -0.97641104 -0.27709362 -1.7742983 0.46857885 -0.23037985 0.6291822 0.03976962 0.40575612
2063 -0.15027738 0.06290529 0.33878163 0.40133032 -0.8769878 0.3629444 -0.35795435 0.35491934 0.98312855 -1.2682201 0.30817404 -1.2308414 -1.0310031 -2.5414703 -0.6634445 -0.31180885 0.9108754 0.3547242 1.1112896 1.7543439 0.90733093 0.106201105 -1.1982869 0.8394208 0.41937116 -2.1433403 -2.099563 0.4443784 1.106384 2.2798243 0.22496985 -1.174768 -0.3761277 1.3330886 0.43568513 1.213144 1.6327926 1.799034 1.7114054 0.76244646 0.38092807 -0.3745428 0.44998637 -0.4633951 -0.70996475 -1.452705 -0.22550571 2.401592 -2.1433952 -0.972117 -0.7545874 -0.9549768 -0.94715685 0.69712347 -0.29959536 -1.2693021 -1.4024495 -1.3044527 -1.9572924 -0.6026767 0.93127316 -0.87853086 0.046512783 0.43455
2106 -0.76664865 -0.6645556 -0.099580206 -0.2573014 -0.4101928 -1.095651 0.13075772 0.846653 -0.054400582 -0.053636927 -1.7973009 -1.2203417 -0.7922961 -1.6062931 0.8335805 0.95451736 0.05144354 0.91879594 0.17383094 -0.17515844 1.1530638 -0.94077873 -0.025495179 1.6429062 -0.66445017 -1.3980216 -1.6647507 -0.9366995 1.2391369 2.0318809 1.7987854 1.9384989 0.31818306 1.4980206 -0.12541863 0.0071911733 0.700638 0.10771036 1.5803293 0.5824706 0.28335267 1.0743842 -1.2008035 -1.8810408 -2.3679676 0.16430856 0.12394616 2.881797 -1.8974057 -0.4572747 -0.3370416 -1.1729562 0.5118021 0.03542476 0.29805043 -0.30318436 -1.2929493 0.05136654 -2.3896444 0.7941289 -0.6509279 0.201476 0.28798646 0.8737602
2412 -0.7524229 -2.1158683 -0.407458 0.030489398 -0.4468361 -0.50665647 1.2245485 0.37383357 0.4604001 0.09682297 -0.2259737 -0.505101 -1.8681697 -0.9605277 -1.4589857 -0.96767366 -0.06586074 0.70500976 -1.4385105 0.78566813 0.71036714 2.2449713 -1.3322488 -0.042780504 -1.2502493 -1.3101257 -1.3032194 0.39295283 0.936758 0.36271152 0.031029578 0.95575047 0.9517611 1.4762161 -0.34845126 1.7010547 -0.85660005 0.82171404 2.051206 -1.5314853 1.8359421 1.6993589 1.345858 0.18975212 1.2929102 0.32755286 -1.1140164 1.4201041 -0.722277 1.1745744 -0.29357103 -0.033544853 -0.28871098 0.74316233 -0.1915603 -1.6128658 -0.046382442 -1.1992656 -0.69295937 0.25887835 -0.58518654 -1.0912611 -1.0853691 -0.6930348
2019 -1.730115 -3.0630398 1.4055595 -1.283149 -0.33628255 0.05604146 0.82178366 1.8744278 0.35089746 -0.26995137 -1.3169706 0.20212634 -1.5753342 0.3153641 -0.42750826 -0.6229217 0.42488685 0.39648095 -1.0590131 0.39950162 0.8648296 0.1856346 -0.8932915 -1.3972234 -1.2606809 0.6012006 -0.23120156 0.7162729 1.1223092 -0.37626457 1.2664603 -0.6726828 -1.5721115 1.0639846 -0.8491146 1.0609453 0.18203802 0.82483536 2.4003286 -2.5880952 -0.1835585 0.27645156 0.36779264 -0.45478284 0.8584203 -0.2604786 -0.29602298 1.5692513 -1.1716684 0.1574153 -0.19633892 0.4474864 -0.40369803 -0.07023527 -0.35039166 0.07325097 0.5611043 -0.2396052 -1.017998 -1.5566232 -0.933785 -2.4217777 -0.78817093 -0.5345141
2235 -1.0139484 -1.1267768 1.9555503 -1.3792759 0.4256988 -0.12903504 -0.43929198 0.7015286 -0.6259761 0.47703445 -0.8286179 -1.0444927 -0.65206105 0.0405381 -0.88488686 -0.09368765 0.37676388 -0.48716697 -0.3386653 0.81242234 0.6476178 1.3083663 -2.5914848 -0.17052394 -1.8697861 -0.61214805 -1.2682396 0.05357224 1.5210356 -0.111179106 1.6308655 -0.70500875 -0.83416796 0.23381011 -0.7624355 1.2441446 -0.46405128 0.6003945 1.9022856 -2.4523854 1.4254233 0.5660608 -0.08745749 1.5838046 1.9373279 1.3869517 0.5598826 2.5827556 -0.7444173 2.0573494 -1.4866996 0.23151836 -0.4307343 0.043437377 -0.54829144 -0.7014159 -1.0415018 0.18339579 -1.0489913 -1.2165595 -1.708674 -0.7008458 -0.8755098 -0.049891334
2535 1.3072052 -2.346561 -0.07130016 -2.4938927 0.15092726 -0.043336105 0.23117532 1.0268662 0.6675912 -0.50925493 0.90379953 -2.437204 -1.0670438 -0.35882434 -1.3751746 -0.58193105 -0.16816737 1.0091827 -0.962894 0.099276125 -0.08501531 2.6320174 -0.33783025 -1.4127876 0.6220063 -0.46555355 -1.6363914 2.031238 0.5294699 -1.1963288 1.7815205 1.3110759 0.2621314 -0.368561 0.84053344 1.3913536 0.38211936 -0.4912593 2.0845134 -2.184887 1.8366966 -1.4190655 0.83177626 0.27244198 -0.19342689 1.1958363 -1.3267764 1.9722394 0.6487199 0.88420504 0.17609647 -0.39905816 -1.0180433 0.9056475 -0.606664 -0.90096587 -1.0722159 -1.2145513 -1.5213839 0.35321507 -0.9127755 -0.29684094 0.073572434 -0.58040524
2317 1.9461459 -0.8488034 -0.6707103 0.06320793 -0.087381236 0.13238125 0.095378816 1.0336795 0.7117403 -1.1754602 -0.60793 -1.5764146 -1.9122919 -1.2760329 -1.1553452 1.1548324 -0.24893081 1.6029253 -0.41352034 0.49784163 0.012122111 2.0239184 -0.9329022 -0.93632454 1.0840185 -1.2484909 -0.47988886 1.3510092 -0.60203975 -0.06108955 1.1095699 1.1226126 -0.67403626 -0.702082 0.22759484 0.9941354 1.9704504 1.1843004 2.2000768 -0.7606201 -0.09042351 0.11180805 0.8230202 0.019466756 -0.11317337 0.2548181 -1.3415295 2.2596002 -0.30981675 2.0657482 0.9081334 -0.2700757 1.1645977 0.93201643 -0.39683515 1.4779865 -0.8297773 -0.9136307 -1.6071739 -1.3368027 0.16507953 -0.7896575 -0.4868052 -1.0881655
2126 0.53876954 -0.04058088 0.6829749 -0.66223776 -1.1026717 -0.34883505 1.5268033 -0.85417306 0.6688504 1.2015395 2.542223 -2.2340755 -3.3363624 -0.2640735 -1.0675524 -0.7218268 0.020145988 1.5161213 0.7231992 0.4814295 -0.07575133 0.6685537 -0.9234033 -0.047633395 -1.5609541 -0.28163144 -1.1361685 1.2849823 -0.42659104 0.6013266 1.7870735 1.0823135 0.53418744 1.3160713 1.1503143 0.1861631 1.8367224 1.8397535 1.4971111 -0.6188197 0.3089993 -0.30478135 0.5346311 -0.069722876 0.092864685 1.1443775 -0.994886 1.5679666 -0.34587258 0.092533655 1.466011 -0.33485633 0.25508118 1.3769534 -0.0021198473 1.4043533 0.33630562 -1.0753624 -1.8033084 -1.1623174 -0.59688455 0.6892892 1.1779219 0.8071283
2458 0.5750935 0.33913234 0.23272361 -2.1770833 1.7198241 -0.8684616 1.0366358 -1.105479 0.10204017 1.1984365 0.56327695 0.9130404 -1.575809 -0.32708147 -1.8066778 -0.3596929 -0.7087276 0.16186863 0.5415687 1.0294244 0.29677722 2.020422 -1.3729193 1.5481474 -0.4903636 -0.29684886 -1.3933074 0.27079847 0.72745323 0.65031594 0.7279997 0.5762676 -0.20652589 1.0992962 1.28495 -0.5390688 1.8047065 0.561997 1.6961447 -0.87767476 -0.19289924 0.66048026 -2.0576339 -0.18826763 0.11539545 -0.84445566 -0.46306714 2.1854959 -0.37328944 0.45998532 1.0296608 0.5531175 1.1004306 -0.13502069 0.12386997 -0.8362378 -0.6477258 0.5496608 -1.7037311 -1.6277319 -2.684048 -0.5895045 0.6183505 -0.17607045
1956 -1.0627903 -0.7793949 1.289459 -1.1642467 1.3246251 0.70373356 -0.6780181 -0.30547312 0.46622774 -0.6132023 -0.884834 -0.86655277 -0.29488036 0.16339754 -1.221264 -0.5410352 -0.28859022 -1.1887109 0.57778317 0.7274076 1.2757987 0.8412745 -1.9765143 -0.23904899 -2.4811268 0.019137014 -2.1796594 1.2307409 0.8771544 -0.10971557 2.5581486 -0.27675194 0.09461483 0.8195431 0.1862958 -0.43244687 0.79247516 0.7580611 1.6252859 -1.035941 0.5720939 0.95139897 -1.0956231 1.3420624 0.46011814 2.0371914 0.14551845 1.7297854 0.44672707 1.4228348 -1.0089291 0.78516483 -0.07052865 -0.024226211 0.525557 -1.4083031 -0.85845625 -0.37022334 -2.4480536 -0.6637663 -2.0676565 -1.3098307 -0.74417615 1.1247983
1763 -1.9796015 -0.22671151 -0.8892446 -1.8399392 0.3166724 2.1237311 0.3259957 0.43993232 -0.93119544 -0.14913835 0.39188802 0.8232078 -0.76864207 -0.89762044 -0.1707939 -0.2847344 -1.1234604 0.7741511 1.2007575 1.4777148 0.25598243 1.862769 -2.1215663 -0.16210757 -1.096897 -0.31022215 -1.6951334 1.0627753 1.0943412 -0.25756198 2.6111963 0.54539907 -0.30292958 0.8064115 -1.4913144 0.23126304 0.7843674 0.92124754 0.9365729 -0.61923105 0.91642773 -0.55897015 -0.80328614 0.22417182 -0.4689425 0.8295005 -0.59424746 1.2604878 0.4917832 -0.4326571 -1.0548785 1.1917099 1.3026725 0.36516842 0.051969223 -1.6846116 0.21704037 1.823795 -2.0610344 -0.124555215 -1.2505362 0.548 -2.33664 0.4943375
2217 0.6364255 -1.7211043 -0.6952796 -0.79031134 1.2512804 2.726479 0.45419565 0.63419247 0.6980916 0.5278263 -0.3474773 0.41563764 -0.439369 -2.6573095 -0.40857205 -0.34938174 -1.2826846 0.40631127 -1.0209633 1.3642954 1.4421481 2.9546888 0.3273153 0.8041024 -1.5411197 0.52831614 -1.3265808 0.9010214 0.38163853 -1.780055 2.5551176 1.0067137 0.95325947 1.0207207 -0.38492417 0.7799161 0.17180096 0.5923911 1.3918351 -1.1860222 0.43089786 0.6071688 -0.4225008 1.2490419 -0.12782604 -0.9235311 0.17472985 2.2074509 0.3602362 -0.8347637 0.2603123 0.39009967 -0.98430777 0.5062004 0.07740111 -2.1406856 -0.5653627 0.22302017 -1.6106688 0.7320617 -2.082684 0.31078163 -1.5557059 -0.30008754
2396 -2.584615 -2.0444298 0.5804224 -1.3044919 0.6905786 -0.66983616 0.18006587 0.55252385 -0.49389124 -1.0056001 0.09750689 -0.26984966 -2.4177935 -0.5854201 -1.09176 -0.6108493 0.5208823 1.2726856 -0.6707424 0.2162421 -0.006300281 0.7154641 -1.126619 -1.3011163 -0.4678315 0.05088535 -2.2039406 -0.05474822 0.21013264 0.6104782 -0.39662367 -0.02269029 -0.9328272 1.3350677 -0.008001861 0.6171064 1.0042713 0.09837875 1.6091752 -1.8175247 0.56136435 0.5199116 -0.20707488 -1.1805812 0.83802897 -1.2325258 1.8931067 1.4147251 -0.8622815 0.85927665 2.3890314 1.1424093 0.11450133 -2.490691 1.3199766 -0.0733841 -1.7442803 -0.5727007 -2.482077 -1.0231555 -1.6403097 0.39844617 -1.2283071 -0.46367875
2408 -2.5526836 -1.698522 -0.48955175 -0.98609394 0.4233299 -0.58810407 0.9302835 0.2463462 -0.62115395 -0.44451243 0.6744636 -0.33053192 -0.6348397 -0.34945697 -1.9146986 1.0858983 0.85218155 0.86906666 0.45890844 1.4952564 0.80520105 1.4391545 -0.033077523 0.6607163 0.57958716 0.92182916 -1.7940649 0.8095318 -0.04439222 -0.59932446 1.7858108 1.1382364 1.0205946 -0.3846673 0.39307344 -0.27389586 1.6076696 0.187416 1.3912152 -2.1289282 -0.22547694 0.023400638 0.8989283 0.25648248 -0.34846112 -0.053797957 0.50407636 3.096856 0.40986606 1.8537964 -1.1075852 0.05259452 1.4704959 -0.88081795 0.18679461 -0.26204067 0.21118695 -0.2184195 -1.76207 0.193316 -2.7020798 -0.3958671 -1.561378 -2.3233693
1653 -2.089982 -1.4249481 -0.7168882 -1.4155996 1.2508006 1.0367168 1.0117402 0.8862738 0.48521623 -0.20579158 0.2728077 -0.95884246 -1.7456993 -0.49542066 -0.14973058 0.38034585 -1.0622704 0.5497619 -0.07162608 1.8106108 -0.49218473 0.2601407 -0.23380992 -1.283991 -0.597207 -0.013114717 -1.8116183 1.3130271 0.89730954 1.5369128 0.21652955 1.6014847 -1.661897 0.17864625 0.19289866 0.19726323 2.1807978 -0.054661736 2.5964594 -1.281074 0.085444026 0.06277164 -1.6394565 1.5139725 -0.032252565 -0.92473716 -0.52211815 0.90274 -1.0396786 0.3049282 0.7706239 3.0155072 2.6192343 -0.024841184 -0.38678485 0.5503713 0.1522972 -0.07155653 -1.6398312 -0.40875164 -0.8377568 -0.83660537 0.7260676 0.62994623
2232 -1.6548373 -0.5125227 1.3170768 -0.37267023 1.0620881 1.2772303 -0.18531308 0.621855 -0.85957205 0.801029 1.17065 0.53371847 -1.734749 -0.59241474 -0.9383209 -0.37713605 0.021750813 0.7884911 0.27324694 1.3792194 -1.7208744 1.3207719 -0.045593686 -0.4762216 -2.0240638 0.184004 -2.7505376 0.8183083 -0.12452863 1.2589719 0.111046284 0.6522059 -0.33469298 1.1614519 -0.23775676 0.26365963 -0.9296691 -0.18587774 3.0356069 -0.84199494 -0.14188953 0.17128758 -0.873706 0.68641204 -0.7619285 0.43639052 0.14620502 1.4143353 0.1828819 0.8793728 0.09821646 0.96317065 1.783876 -1.4993112 -0.524701 -0.5008085 1.5224234 -0.8918856 -1.7574769 -1.1723524 -1.039453 0.77317137 -1.0129648 0.59865224
2178 -1.5965047 -0.5911604 -0.56225264 -0.876985 1.6246316 1.290169 1.0749271 1.7435267 0.08235976 0.5926932 -0.11492563 0.23064344 -1.9218658 -0.039814696 -1.1604179 0.85737777 -0.7623177 1.5458015 -1.401558 0.49406886 -0.024123825 -0.37880933 -0.980638 -1.8951459 -0.904913 -0.36950547 -0.8797822 -0.71095985 0.20597407 2.542176 0.5025946 -0.537279 -1.3273144 0.1614469 1.3172182 -0.05670709 0.79616135 0.6416042 0.26807097 -1.4262307 0.002532299 0.620169 0.6913965 -0.8523158 -0.090455845 0.079826914 -1.1352597 0.82548887 -0.6199894 1.0623671 0.89303654 1.0355346 2.5978873 -0.9920571 0.96765655 -0.19512163 1.0454197 -0.23791477 -2.4274898 -0.67769974 -1.1184254 0.28188083 -2.0249357 -0.44847602
2200 -0.14147106 -2.273878 1.1694303 -1.3483012 -0.8006558 0.4455617 -0.48413652 1.7006071 0.7865296 -0.49152303 0.6874425 -0.036060758 -1.2529168 -0.9644527 -1.1180556 1.3217051 0.5662298 1.0586231 0.7485874 1.9555094 -0.032315064 1.0186597 0.7765839 -0.36208263 -0.67508835 0.24128096 -0.6281545 -0.7323639 1.0251333 -0.22931062 -0.102908 0.083035976 -0.51444966 1.769912 -0.70706373 1.7254642 0.937108 -1.102633 1.3998624 -0.9589143 1.0925435 -0.44679707 1.4728063 -1.4929645 0.5302127 -0.6223701 0.45274246 3.5608616 -1.6125325 0.678018 0.086909644 1.0512785 0.31539625 1.0256983 1.6210613 0.19450128 -0.696313 -2.1577196 -1.4088953 0.09390439 -1.7932048 1.0742482 1.5255342 -0.5911403
2379 -0.1496146 -2.3345845 0.71707064 0.22096252 -0.45566112 1.5324676 1.6832925 0.6456589 -1.0654967 -1.0658008 0.47421497 -0.83556956 -2.504095 -0.9632844 -0.81609404 -0.7517276 -0.9886908 0.06259144 0.36537743 1.2720214 0.8708755 0.3136812 0.49393925 0.0035672763 0.5010071 -1.453007 -1.2761897 0.22612812 0.23701644 1.9453694 0.39330417 -1.0370381 -1.534511 2.3662121 1.0283265 1.4370366 0.315263 -0.3232423 0.8266316 -0.8441404 0.59955716 1.2527376 0.58108777 0.0853744 -0.0125181945 -0.84358495 -0.36935186 1.2329642 -0.47266462 0.42040962 0.06688987 0.47154927 -0.52407205 1.2527566 0.25858647 -0.94885516 0.012582471 -1.158342 -0.9300387 0.17852843 -0.43673584 0.28167492 -0.9944618 -0.706231
2418 0.30330482 -2.1727607 2.1950095 -0.56140834 0.21395466 2.038378 0.0678146 0.88020283 0.23162924 0.30555567 0.3706341 0.21870276 -0.32283473 -1.5726029 -0.27801368 -0.5909543 -0.06960877 -0.03864024 1.5937809 0.6882753 0.32562742 1.5632186 0.42960304 -1.3267362 -0.28602043 -0.81372136 -2.851864 0.6544917 1.5778548 -0.73021346 -0.385251 0.4645419 -0.7664488 2.6841462 0.20696905 0.33054665 -0.5947263 -0.26513493 1.5947777 -1.9641407 0.65772617 -0.973273 0.6962979 -0.93715125 -2.318673 -1.0998898 0.6397702 1.3240821 -0.82353634 1.5485113 0.93020636 0.5120524 -0.9993319 0.33473447 1.3016577 -1.8325167 -0.3667689 -0.7104236 -1.3161049 -0.25975412 -1.7101783 0.11293512 0.12869541 0.1166549
2388 -0.5421655 -1.1621972 -0.74989927 -1.0749812 0.8239728 0.8647402 1.4522 0.80176437 -0.29687577 -0.08049383 0.51780826 0.51824504 0.042930316 -0.8249825 -1.2738066 -0.59407616 -1.0984529 0.6181456 -0.022622343 0.23269178 -0.65037185 1.0138888 -0.2468412 0.826191 -0.2696292 -1.3405658 -1.4467607 0.7409698 0.91483885 -0.18411416 0.28429154 0.4561527 -0.11644225 2.2907667 0.4286941 0.056844544 1.6203232 0.48791423 1.9219208 -1.630572 -0.78682256 1.2488846 -1.33669 -0.78029 -1.3149403 -1.0265262 0.17595807 0.84252864 -1.6093013 1.1629096 -0.4863271 0.87295926 -0.25005558 -0.7443776 0.6508232 0.47879982 -0.93319917 -0.7372555 0.10772773 -1.1563754 -2.6488917 1.0507008 -0.20706195 -0.27621275
1976 1.3907769 -1.3470403 0.25065702 -1.8119179 1.1793739 1.4124238 -0.40290627 1.4632428 -1.1639203 0.08095493 0.45531893 -1.9303404 -1.0124886 0.026124826 -0.9866774 -0.80064833 -2.862789 -0.6690921 0.27292317 0.17693093 -0.34066212 1.3515269 -0.45172617 0.3246982 0.6043262 -0.79919505 -2.0007818 0.09249356 -0.017340787 0.23535669 2.6728363 -1.1231251 -0.7961856 0.7281276 -0.3809968 -0.5062365 -0.4451544 0.46786612 0.66467243 -1.8391808 0.013881671 1.0366348 -0.7888249 -0.85473293 -0.28730816 -0.9810186 -0.13116446 0.538078 -1.765061 1.2639208 0.9881731 0.73354495 -0.8034111 0.21583709 0.10340286 0.024037978 -1.3324931 0.06659835 -1.5137085 -0.1536228 -1.6325806 0.9042379 0.08304278 -0.25260174
2294 -0.8022007 -0.7744947 1.2340558 -2.092587 0.3354164 1.9722513 -1.2314882 1.6439393 -0.062550254 0.071740575 0.06426216 -1.6883509 -0.17613989 1.4165491 -0.7015805 -0.72561604 -1.7843425 1.1702145 0.324395 1.0103723 -0.61060846 1.6016947 -0.33262214 -0.2645946 0.78613406 -1.4425119 -0.4742621 -0.26781908 0.17735279 -0.74595827 1.6981758 -0.8260042 -0.12056822 1.8990712 -0.44251826 -0.8505486 0.86521304 0.12385286 2.4128351 0.118237175 -0.081699304 -0.7471041 0.4350168 -0.084558055 -0.19131121 -0.15285555 0.5181949 1.8053656 -1.9480251 1.5405971 0.005058169 1.0728397 -0.80986786 0.038851477 0.37333396 0.8359033 -1.164473 -1.1948272 -1.5487641 0.03552327 -2.0706658 0.15696105 0.5827188 -1.0809524
2614 0.42752227 -1.1037828 0.03604096 -1.8967562 -0.65819097 -0.8061016 0.15310718 0.61375296 -0.29806453 0.85291 0.5554877 -0.8028545 -2.445644 0.49176374 -1.497516 0.44202763 -1.4663727 1.1344506 0.6205529 0.8384693 0.043255534 0.19618726 0.56603926 -0.7649932 -0.46837083 -1.7017196 -2.385537 -0.091432236 0.7415167 -1.735012 0.16244352 -1.0802238 0.61086076 2.13525 0.4206765 2.4591901 -0.7418054 -0.67793816 1.9551405 -0.4607319 1.206841 1.4827147 -0.50101465 -1.9291749 0.346353 1.4720428 0.6663304 2.2353141 -0.95954704 -0.30551475 0.021546245 1.0056894 -0.9508755 0.47128958 1.5821656 1.1295371 -0.6784948 -0.5269236 0.4811847 -0.33698013 -0.7533488 -1.2628032 -0.45064825 -0.62217885
2029 1.331678 -1.9017303 1.8093125 -0.8687493 -0.10370996 0.8128317 0.80091465 0.4828606 -1.3619561 -0.4402474 -0.5640742 -1.0073231 -1.3196241 -0.77738553 -2.120167 0.7732055 -1.565849 1.6479743 0.95487493 -1.2851794 0.7031401 0.4271135 0.29277617 0.10155061 -0.23188978 -2.6538386 -1.1893171 -1.6614431 1.1425289 0.5333377 1.280829 -0.16175476 -1.3307915 2.1904218 0.38736188 1.1852372 -1.4220147 1.471694 0.548349 -1.17024 0.022812955 0.18952295 0.012394366 -0.18281904 -0.45697853 -1.2406216 0.0026783575 2.0589354 -1.188453 1.0054841 0.6789905 0.5473131 0.6285711 0.75110096 0.7199177 1.3105756 -1.4605578 -1.4193676 -0.3820747 -1.5134267 -0.5360837 0.40272087 -0.13877824 -0.20073287
2293 -1.307851 -0.17325427 1.2969844 -1.9290802 0.85141355 1.9035718 -0.18664542 -0.09869694 -0.20243558 0.30043384 -0.28303435 -0.7756507 -0.65099823 0.81673926 -1.1660489 0.50102764 -0.6068245 1.6190149 1.2942516 0.11995651 -0.6820071 0.6478583 -0.583707 -0.38936964 0.28451732 -0.7074781 -0.32515916 -0.91135985 -0.64596814 0.23592108 1.6143401 -0.15509482 -0.012757293 2.6160452 0.3758818 0.11157065 1.4593923 0.14157104 0.99629205 -0.43779835 -0.43580657 0.5862309 -0.53634375 -0.03401656 -0.4338616 -0.3658301 0.08020236 1.494137 -1.5124277 0.7968166 -0.27264097 1.0255036 -1.3409742 -0.23734318 -0.19679855 1.3546313 -0.59859127 -1.677837 -1.660799 -0.98306906 -1.9791895 0.03431036 0.5484728 -1.671908
1729 -0.07797007 -0.5131574 0.9250212 -1.329259 -0.41168064 1.5817829 1.4058032 0.6597099 -0.8932015 0.70856786 0.1905048 -1.5693135 -0.8905087 -1.5861336 -0.15624839 0.4522643 0.90460014 2.1053166 0.44147426 0.22861685 0.23274726 1.0000647 -0.5955745 -1.228417 -0.1402496 -0.64853185 -1.8370467 0.2643022 1.3760703 -0.29723945 0.4845914 -1.2879745 -1.3295537 1.8360732 -0.4911444 -0.020023204 -0.13301575 0.5771617 0.06943156 -0.3167336 0.9850565 0.25161803 0.073467806 -1.8674848 -0.9227294 0.23374008 -0.47992107 0.60583335 -0.55942 1.752548 -1.4516908 1.0863465 1.2146962 0.5883495 1.484862 0.34987953 -0.846706 0.30008894 -1.4054126 -0.68146175 -0.62735754 -0.4989611 0.45727518 -0.5948937
2258 -0.046331685 -2.0468245 1.0883648 -3.4550464 -0.8999596 0.44361842 -0.29353467 0.34848264 -0.7047926 -0.60635525 -0.08523936 -0.78016895 -1.1094915 0.80677575 -2.0350273 1.7418187 0.3498727 2.6539466 0.49311996 -0.180293 0.1615227 0.90020216 -0.16194011 -0.73729354 -0.046753228 -0.5625529 -2.3884053 -1.0809432 -0.10535645 -0.6711572 0.32097462 -0.048778906 -1.8407363 1.5098444 1.1973605 1.8582832 -0.7474403 0.36570275 -0.061271295 -0.025035897 0.554655 1.1158695 1.9143189 -0.8290375 -0.38901883 -0.4469137 -0.657416 1.7381427 -0.067804635 2.6865191 0.22908118 0.1557693 -0.7048448 -0.54891586 0.82209545 1.2348411 -2.5285122 -1.5032029 -0.5836462 -0.3289012 -1.7042522 0.122840516 -0.20954332 -1.4500141
1837 -0.30507782 -2.1042683 1.1409557 0.34111536 0.56906796 1.4234091 -0.6263222 0.8673664 0.42154858 0.27522618 0.4663353 -0.6704018 -0.25117585 -0.8747905 -1.80284 1.7298174 -1.6874028 -0.27070597 0.29279923 1.5159861 -0.34696677 2.5615416 -0.12484941 -0.6528602 -1.6724715 -0.5667908 -1.7643055 -0.01353519 -0.95271945 -1.6195596 1.6005187 0.5151508 1.7303251 1.620885 -0.5886059 0.5450891 0.3105585 1.9980423 0.32299662 0.85454327 1.2280322 1.6247456 -0.22376095 0.4951911 -0.5060213 0.67765427 -0.85593736 2.4348896 -1.4157426 0.6251017 -1.4849917 -0.7613186 -0.24742657 -0.9263147 -0.15440401 -0.017514048 0.19293286 0.9494982 -1.5629517 -1.2523415 -0.27839503 0.055328663 -0.84847176 -0.6673007
2201 -0.8140542 -1.768923 0.6673137 -1.4862463 -0.13874815 -0.054110434 -0.20960702 1.0624864 -1.0378239 -0.2224282 0.41920662 0.52893037 -1.4843525 -1.2893937 -1.6175239 1.4945893 0.88825995 1.1763276 0.28291383 2.6247792 0.041862216 1.385225 1.2021252 0.7090349 -0.29409888 0.25086352 -0.48180622 -0.96177644 0.15451512 0.23389533 1.2756879 0.42536694 0.7085385 0.8150625 -0.6439937 2.075046 1.0597517 -0.68497944 0.093614735 -0.7069222 0.9206158 -0.26248947 0.5551623 -0.78189063 -0.24713123 0.61613494 -0.6998249 3.3747141 -2.1404943 0.4223313 -0.96888036 -0.17927565 0.59067494 0.25773537 1.8021752 0.39763162 -0.8093218 -1.619535 -1.5867351 0.14417627 -0.7467347 0.93992865 0.6307614 -1.7795066
2364 -1.4953225 -1.1334969 0.02956417 -0.7254553 -0.089746565 0.8259375 0.52682394 0.77231354 -1.5798061 0.31449082 2.5576599 1.2379477 -1.0835385 -0.92892885 -1.3074133 0.5410755 -0.8065907 0.9357955 1.2009529 2.4683614 -0.30568722 0.3548147 -1.718915 1.0401429 -0.617699 -0.7595901 -1.5374045 -0.05415243 -1.0764569 0.22758695 1.7075508 -0.7920017 0.118684694 1.812292 0.6243621 0.23855735 0.24027526 0.47615474 1.0898823 -1.6388811 -0.42357007 0.6866476 0.051220287 -0.27186415 -2.212158 -0.14175926 0.025885902 1.5429896 -0.78489095 0.437021 0.49982378 -0.36462736 0.80813557 -1.8995483 0.14997643 0.76028115 0.023344211 -0.904831 -0.27193198 -0.71033275 -1.2737579 -0.85400933 0.07790424 -1.8059994
1908 -0.21062359 -2.8563168 0.9614903 -0.368881 -0.18439503 0.060253285 0.3465602 1.5943289 -0.85574996 1.2139629 0.44763497 0.82230556 -1.6045157 -0.053557083 1.4352394 1.1635603 0.6912199 1.9677699 -0.42503527 0.8212962 -0.240527 2.0973382 1.1114476 -1.250026 -0.021921266 -1.2114197 -2.4135692 -1.292042 0.88543093 0.8892381 1.0049784 1.1033195 0.20243788 0.63811874 0.32290417 -1.027801 -0.7720903 0.55442566 0.3623394 -1.2479687 0.09813876 1.0457376 0.99082446 0.6715943 -0.8029848 -1.4017934 -1.0522895 1.176488 -0.020836098 1.2641126 -0.38564655 -0.48733455 0.40032125 -0.9999137 0.41446555 1.7328787 -1.0353351 -0.06968469 -1.9648161 -1.1510515 -0.87305486 -1.0182033 -0.58141965 -0.43077624
2493 0.2173235 -1.1748358 -0.8279395 -2.1703415 -1.2583869 1.9776956 -0.2706114 1.8814634 -1.3958238 1.7802777 0.2563729 -0.2407371 -1.0612248 -0.60971504 -1.229842 0.4445092 -2.244944 0.2971452 0.39270723 1.9956115 -0.31433013 2.8781157 1.8369178 1.2952312 -1.1504564 0.7692684 -1.5303569 -0.97358763 0.29870418 -1.0454186 -0.37833872 0.034931228 0.6425342 1.1253872 -0.15956928 0.06795044 -0.93612134 1.4398595 1.074595 0.66411865 1.9029697 1.1824434 1.8022785 -1.4850869 -0.43214014 -0.608546 -0.3576235 2.8548126 -1.0084187 0.11767407 1.1531483 -0.3981433 -0.16930796 0.43674505 0.3520146 -0.15160853 0.29166093 -0.55462104 -1.9922435 -0.37339106 0.43019116 -0.785947 -1.451548 -0.53847176
1577 -1.2021688 -1.7371229 0.46355823 -2.3775034 -0.16230287 -0.33605108 -0.72610134 -0.10034701 -1.4535406 -1.2335873 1.300393 -0.6384371 -1.459328 -0.46535185 -1.1043605 0.9512542 -0.9633689 0.20499532 2.0073218 1.1548253 -0.3997658 0.27880934 -0.40492374 -1.2430967 -0.2735018 -0.5398563 -2.0282683 -0.14167769 -0.27468845 -1.326691 0.8521018 0.84972084 0.9246601 1.9285507 1.9064708 0.55381405 0.37207025 -1.2565396 1.8755746 -0.7160546 -0.56847936 1.2540241 0.7569002 1.2576617 -1.677463 0.03641471 0.9712049 1.815764 0.12780897 0.6388772 -0.55866826 -1.2807062 0.8556295 1.7393998 0.1793027 0.42284003 -1.7361395 0.043646377 -2.10933 0.32421255 0.92823654 -0.5056091 -1.2363392 0.027503993
2101 -0.7402297 -0.011432456 2.0024414 -1.4360235 0.80126977 0.24816439 1.7386328 0.25740442 1.3819218 -0.38203764 0.9254516 -1.641333 -0.26002458 -0.39864698 0.07598024 1.312074 -1.7019423 0.06939999 0.22063193 2.413675 -0.029101135 0.08696863 0.2647366 2.5537035 -0.93141586 -0.6510276 -1.564011 -1.1323563 0.95393455 -0.14990497 1.2175255 0.3403354 0.22841834 0.008761261 1.7671714 1.7214112 0.43716922 0.754257 1.0341759 0.24546936 -1.7481569 1.1214986 0.2781996 -0.41084945 -0.36379984 0.7334628 0.6398608 3.7002215 1.4681579 1.3090401 -0.024356328 0.9016951 -1.28084 0.51872087 0.59106946 2.4753466 0.4183294 -1.269178 0.7490215 -0.041268885 -0.54889464 0.83460474 0.35088202 -0.96001047
2477 -0.16045684 -1.1760553 0.9908407 0.3503456 -0.3499075 0.4336793 2.1402369 0.06640376 1.1697848 -1.7263658 0.92178524 -1.8772446 -1.6215556 -0.82680064 0.4309795 0.21871309 -1.3417559 -0.94245225 0.24117887 1.0252215 0.5704317 -0.1991398 -0.9469916 1.7371999 -0.6921071 -1.3294166 -2.1155207 0.8495076 1.6949419 1.599633 1.0582237 0.8851871 -0.21277796 0.39443073 1.2009269 0.7176023 0.21329406 -0.3189808 1.0859537 0.44302112 -0.80675083 0.58654773 0.5194583 -0.95908386 -0.013112686 0.14722398 -0.6390349 0.9866719 -0.31803516 0.7143589 -0.24272172 1.7386558 -0.58352363 0.517953 -0.7913571 -0.76110333 -0.18601063 -1.8673576 -0.21819364 1.2548311 0.34389764 -0.5161618 -0.32165012 -1.3510708
1936 -0.94609916 0.5146573 1.9500616 -0.8611672 1.1096004 -0.25690392 0.6605485 -0.9916689 0.9953413 -1.1523302 1.0341852 -0.14678997 -2.2079425 -0.820784 1.5129426 1.9742665 -0.9852256 -0.4086828 -0.12873699 0.82866913 -0.02478752 0.12017269 0.07139315 -0.9013029 -1.5833349 -1.1427668 -2.7963436 -0.30249387 1.9781892 0.28874978 0.17602111 0.9700293 0.09402596 -0.62861407 2.0123 0.34332964 1.1037467 -0.0486723 -0.63312286 -0.17843461 -0.32840595 0.03316907 0.47174472 -0.6364084 0.04580102 0.60299546 1.0936064 2.7225788 0.3750309 0.35598588 0.2379581 1.1441667 -1.0956019 -0.21944903 0.18103082 0.4773688 -0.7246365 -0.3878708 -0.8472674 1.2836988 0.383634 -0.07459656 -0.754603 -1.1880795
2323 1.804003 -0.2138533 1.6128465 -1.9911985 1.1166388 -0.10618545 0.1605821 0.5852461 0.988356 -0.6316766 0.57331395 -1.183341 -1.3699043 0.27091807 0.37337092 1.1841825 -0.4981442 1.3844339 0.0052106557 1.6951023 1.9209577 0.69493693 -1.2815125 -0.33486158 -0.5864524 -1.8233422 -1.8789357 1.268632 0.33371004 1.1752045 1.8259094 0.0635972 -1.677808 -0.3155293 0.27384022 0.13773926 -0.85642195 0.6774081 -0.6985076 1.4582163 -1.2089632 -0.381156 -0.04531079 -1.7486563 0.8947071 1.0118349 -1.1645488 1.9644222 -1.1454753 -1.1089478 0.055788033 0.54322916 -0.9251923 -1.4033676 -0.828298 -1.40663 1.3399874 -0.08837089 -1.2428854 0.78640324 -0.3293388 0.19151466 -0.2847986 -1.3469082
2286 0.24807163 0.23742375 2.6534765 -1.749018 0.69735944 2.2136438 2.6052787 -0.74126387 1.2947263 -0.20675693 -0.042708106 -1.2823107 -1.3496382 -1.2038262 1.1734116 -0.07875151 0.039701596 0.35886747 -0.43206915 0.8958561 1.7065262 0.70487297 -0.9577734 0.762394 -2.3800445 -1.6873313 -1.6133307 -0.557358 1.2858003 -0.9422274 0.4229749 -0.06854579 1.0372002 0.98631316 0.6082907 1.0288405 0.48638546 1.0204984 0.35632065 0.42440748 0.2804992 -1.3601661 -2.1771498 -1.5328839 0.27318355 0.6908002 0.8813186 1.3997914 -0.59273386 -0.01581829 0.19059108 -1.4645609 -1.287293 -0.7914723 -1.2491789 -0.5103872 -0.19671716 -0.031239318 -0.47070494 -0.79627764 -1.6515954 -0.34895778 -0.3089164 -1.312846
2521 0.4704948 0.27195746 1.3611442 -1.2925733 1.1039033 2.0381382 1.5040352 0.92828524 0.9884219 -0.8113548 0.75077486 -1.1337382 -2.5888488 -0.21527743 0.7263772 0.46299765 -0.6475136 0.47178578 -1.7739717 2.933709 -0.24270588 0.4036027 -1.0114841 1.5815017 -1.3260937 -1.8260534 -1.6959088 0.05663346 -0.9184861 0.7620285 1.1534827 -0.04237531 0.40369254 -0.6555605 -0.6144303 0.9737621 1.9861996 0.39778125 -1.2411076 0.33726433 -1.7555345 0.748966 -1.2924824 -0.97840637 0.41615537 0.8681778 -1.1628262 2.021058 -0.18142849 0.18391111 -0.24195305 -1.0181975 0.97889477 -2.0203147 -1.5276359 0.49708572 0.80470514 -0.59046084 -0.59417146 0.2953376 -0.7515863 0.02064036 1.1830646 -2.049802
2397 -2.1168118 -1.6103932 1.4430603 -1.6513623 0.5635342 0.0032251643 1.1266801 0.30314478 1.087129 -1.7218885 1.1430602 -0.35303634 -1.0979688 -0.043074787 1.3584603 -0.63166267 -1.1373687 0.47043657 -0.49312103 0.5691773 0.5150968 1.5757055 -0.53404284 -0.08826599 -0.33714044 -0.6080719 -1.5573027 -0.25619847 0.4239272 -0.21563753 -0.54727805 -0.05525757 0.33858016 0.24611296 0.30062464 0.7381511 -1.2315315 0.30695787 1.6476285 -1.593217 -0.39462438 -0.18540348 -1.2523296 -3.0276499 0.9131327 -1.7111028 0.9177764 2.02461 -0.8736342 0.23902225 2.0102384 1.3324913 -0.021461813 -2.0484416 -0.14348689 0.5509318 -1.0756332 -0.7310475 -1.0279468 -0.09586245 -1.2050861 1.0442331 -1.8423184 0.07789566
2573 -1.0889348 -1.180924 0.8265608 -0.44577584 0.592529 0.38037702 0.42396086 -0.4691163 -0.94460505 -0.8696305 0.53129274 -0.74856156 -2.8207874 -0.50847656 1.2937491 1.5234802 0.4759118 -0.4574295 -0.103385076 1.7382722 0.8929981 2.7511923 -0.96346545 1.9230092 -0.10069394 0.98984087 -1.2942817 -0.789096 0.21462032 -0.71142113 1.8278753 -0.08032596 0.91232634 -1.3978037 1.2225698 0.92779756 -1.429982 0.2965945 0.31082124 0.98012143 -1.2616524 1.2978354 -0.79344213 -1.0063466 0.71562177 -0.849645 -0.6794175 2.2710016 0.34012395 0.51887363 0.28230554 -0.1163095 1.1014283 -0.21821485 -0.18198727 0.9603121 -1.0886089 0.7312358 -1.1713638 0.50833076 0.060423482 -0.20596986 -0.8307508 -1.6891321
2318 -0.1082564 -0.9797421 3.4979298 -1.147241 -0.100499555 0.6590724 1.4439886 0.004743301 0.74081427 0.32474223 -0.93444586 -0.08083991 -1.4954839 0.3226677 1.064963 1.2472149 -0.064308934 -0.8019179 -2.0786023 0.7477695 1.0964115 1.6322643 0.18953693 -0.67170876 -0.19150725 1.1279731 -0.92943454 -1.5934819 0.58084655 0.1468305 1.4439092 0.73550016 -0.42908996 -0.016588736 1.1242213 0.9697406 -0.7191678 0.687792 0.14458402 0.4652896 -0.50325006 0.29814276 -1.7667838 -1.2397572 -0.93935525 0.11628387 -0.5621744 2.6904063 -1.0353409 0.3355696 0.1512371 0.33498934 1.4809448 -1.0206916 -1.0319946 -0.049306568 -0.43808067 -0.53216636 -1.0594717 1.1673887 0.0050548343 -0.7533193 -0.68569463 0.8761343
2154 -0.028606884 -0.8163499 1.4131715 -2.073693 2.310831 0.40976173 0.7453098 -0.55881244 -0.37694773 -0.70450485 0.39938486 -1.0843134 -1.8866141 -0.6994925 1.457381 1.234629 -1.0106056 0.5653541 -0.16944154 1.1019601 0.66634756 1.6527928 -0.6723708 0.73913187 -0.10641416 -0.39621025 -1.8344195 -0.19224808 0.73531187 -0.39398584 0.73370427 -1.2664483 0.6673147 0.014779114 -1.2031553 -0.4598387 -0.3244949 -0.3026097 1.3590449 0.4813485 -1.8756979 0.16133972 -1.1666962 -1.6154569 1.7652293 -0.054387327 -1.0624971 2.2054138 -1.2187424 -0.2725505 0.103982344 0.20503242 1.783652 -2.0253549 -0.91880107 0.8451395 -0.011964431 -0.937164 -2.6623776 -0.017629681 0.11600388 1.0622989 0.3756691 -0.37385604
2282 -1.3627952 0.6286315 1.6439524 -0.31791338 1.4675848 0.70999175 0.8430792 0.78532624 1.9394332 -1.3939762 0.29979894 -0.97493404 -0.45094934 -0.4266261 1.7270148 -0.32775274 -0.024998708 -0.0048187473 0.24256638 1.1052208 0.20331286 2.2045827 -0.39299378 -0.9807153 0.3709033 0.12898213 -1.4851029 -1.5223833 1.6570863 -0.08954669 2.380439 0.95237696 -0.9156403 0.14458038 1.4794064 0.254957 -1.6310381 1.0807736 1.5516094 -0.35012892 -0.5396625 1.279316 -1.7277035 -0.6831956 -1.0998031 -1.8084017 -0.56585413 0.87652665 -1.096555 0.64823455 0.41188833 -0.012670343 0.018162197 0.18452625 -0.9939321 0.0040942146 0.37425178 -0.44034812 -0.44383657 -0.08154077 -0.351065 2.1717248 -0.19449353 -0.86184716
2508 -2.3833156 -1.3159297 2.0672948 -0.74409467 0.078268036 0.017034732 0.6435979 -0.21132988 0.66788656 -0.80564636 0.4149793 -0.858535 -1.4605676 -0.5699326 1.9417495 1.1952822 -0.04186414 -1.355041 -0.012766416 1.7846266 -0.24868576 1.5043119 0.008322689 -1.8702835 -1.8537724 -0.545899 -2.3034053 -0.47080946 2.5558531 0.017302515 -0.29568842 0.2354293 0.7634506 -1.2316223 0.88719815 -0.678553 -0.8785215 0.92358774 0.8086264 0.42590788 -1.3876734 0.4423841 -0.13342166 -0.002366162 0.2276763 -0.49853942 -0.16107178 2.4113402 0.18865855 -0.24009451 0.010183128 0.734605 0.32041195 1.0700691 -0.18071234 -0.09842741 -0.20069334 -0.17557387 -1.5435652 1.711398 -0.499559 0.5529942 -0.65984315 -0.2725508
2553 -0.32217327 -1.1993868 1.664563 -2.1112666 0.72584444 0.43915665 -0.3809366 0.344971 -0.098607466 -0.68617463 0.4583914 -1.0796866 -1.9818826 -1.2502174 2.430828 -0.47554594 -1.2980767 -0.7015498 -0.5503861 0.6942924 -0.093041115 1.5037885 -0.285542 0.04911477 -1.9696685 -0.62573326 -0.27210897 -0.0074037765 2.2095985 -0.5414392 0.54713506 -0.62947744 1.4081134 -0.09453497 1.5187676 0.6937281 0.78544694 1.8416755 0.3460369 0.3270799 -0.31887984 -1.0051233 -0.10502355 -2.5309646 -1.0941958 -0.46086535 -1.6799953 2.1726227 -0.50925773 -0.06231203 -0.044545025 -0.09805903 2.0616152 0.42832726 -0.6804593 -0.030307572 -1.215469 -0.8172038 0.9006919 -0.13008559 -0.028668325 0.32628587 0.13477442 -1.6671779
2682 0.070851006 -0.65856606 2.6898305 -1.6857388 0.40144047 0.2520589 0.86758226 0.2657866 1.9418933 0.4917102 0.13936035 -0.77975214 -1.9002485 1.2835106 1.5937285 1.356733 0.31897616 -0.8817242 -1.1356918 1.6511859 0.68578976 1.826303 -0.18186569 -0.09122426 -2.2154133 -0.1994003 -0.26238194 -0.6901524 -0.047443833 1.27863 1.0918111 2.1435187 -0.57197785 -1.0350518 0.27287978 0.5102976 1.2735584 1.0112611 -0.11524631 -0.6365961 -1.0659554 0.7271453 0.2671448 -0.7223894 -0.18122193 -1.4225996 0.09777296 2.4554756 0.7627983 0.53752273 1.0464461 0.5718177 1.0598353 -0.52560467 0.084724486 0.25528592 0.30628008 1.3720696 -1.2554666 0.2795873 -0.9922814 1.8974276 -1.3795358 -1.6234481
2543 -0.20724756 -1.606738 2.3295212 -1.4465834 -1.3703489 0.3947789 -1.1125736 1.2232081 1.7556901 -1.5312009 2.1070635 -0.84826756 -1.144569 0.10961466 1.6776158 0.0057176948 0.18126109 -1.1289114 -0.7546789 1.2520727 1.018916 2.4665036 -0.74153316 1.4089047 -1.5791639 -1.1606936 -1.0627985 0.17612767 1.9501076 1.6429949 0.59721714 0.7508017 1.0788922 -0.5097653 0.9799481 0.12659696 -0.21420509 0.5246102 0.121911906 -0.6360127 -0.87168604 0.4579371 -1.7174783 -0.03356345 -0.73851556 -0.16969618 0.42907414 2.185093 -0.6103308 -0.33524203 -1.1448989 0.40281415 -0.42469373 -1.2974155 -0.6263844 -0.27140102 0.30568367 0.14665976 -1.0588421 -0.24562502 -0.25198635 -0.3812314 -0.32220754 -1.7842593
2582 -1.6656908 -0.33030406 0.46223637 -0.42439625 -1.1688759 0.1472174 1.7227772 -0.61003304 2.4970167 -0.62824875 1.1263179 -0.3336799 -1.2919564 0.23735574 1.3710326 -0.1345006 -0.63453764 -1.5699794 -0.26427305 1.1369004 1.3027524 2.7560194 -1.4288391 1.2714248 -1.920253 -0.2342714 -0.9205564 -0.27724737 0.5763134 0.97451305 1.5873249 0.056832656 0.12613751 -1.673849 2.4254649 1.4776179 0.041399684 0.41803616 -0.019756857 1.3622454 -1.5418748 0.075675346 0.0069088335 -1.665881 -0.48286873 -0.12088162 0.32281932 1.939587 0.2624781 0.53223187 -0.59329027 0.11283567 0.83110964 -0.555532 -1.1151726 -0.40575373 -0.83267456 -0.99372756 -0.20622544 1.2945645 -1.1019198 0.52899027 -0.49571487 -1.0068191
2295 -1.9147811 0.38335097 1.8039435 -1.2431259 0.5346405 1.5538255 -0.406268 0.7857731 1.3549644 -0.5881332 0.6472245 -0.9821329 -0.5727537 0.53104323 1.292889 1.5446588 -1.6220087 0.20035936 0.8744438 -0.13420233 0.60361236 0.6254821 -0.74049777 0.12313485 -0.025213113 -1.3710344 -0.8874775 -1.4541031 0.6023577 0.648789 2.6209683 -0.529051 -0.012064757 -0.12601273 0.7600828 -0.2794405 0.44041193 0.04079769 0.36615992 1.4773674 0.08011449 0.4605403 -1.4294151 -1.8585664 0.052633855 -0.35024765 1.1614395 1.2176241 -0.94582283 1.154118 0.2694049 0.19270653 -0.23860104 -0.10201011 -0.91475874 1.3629892 0.14598142 -1.1378945 -1.2472001 0.6340447 -0.865925 -0.2050409 0.47901446 -1.7605569
2365 -1.2579545 -0.10109782 -0.059942316 -0.7580522 0.98321587 0.37541547 1.1819 0.6689162 1.2831576 -1.1957619 0.7366736 0.23923382 -1.3435107 0.078850396 1.6113455 0.53603846 -1.2939094 0.5377048 0.76930803 0.1574024 0.6913017 1.5212799 0.10725018 -1.4124755 -1.0799901 -1.5070653 -2.9342668 1.3817216 1.4997503 0.6395505 2.5254016 -0.84691125 -1.3031188 -0.7870767 0.12359352 -0.31353942 -0.14556347 1.0656698 -0.9190803 1.5808908 -0.16805562 0.24207942 -0.6489281 -2.1483963 -0.07702725 0.8603254 0.050167564 0.28839317 -1.494684 0.497817 -1.1892765 0.5496122 0.46367916 0.08872825 -0.51857525 0.034961373 -0.027184876 -0.62052464 -1.3591058 1.8500149 -0.4503469 -0.11726919 -0.9769704 -0.89075696
1963 0.14224128 -0.66567606 1.2130958 -2.9638357 -0.25096747 -0.86515164 1.0163347 0.71194553 2.2247183 -2.2101734 -0.8706531 -0.5146201 -0.053513665 0.8425398 0.8421328 0.6226608 -0.11487557 0.1418141 0.87621826 0.905256 0.41143307 0.15550989 -0.16962203 -0.71950066 -1.6749787 0.08289121 -1.8161618 -0.8047561 1.4721619 -0.17555991 2.0983105 -0.38664111 0.24368384 -1.1346747 0.3336566 1.9925572 0.2941902 -0.08304602 -0.6674595 -0.97434616 -0.39621073 1.405173 0.25685143 -0.9038528 -0.45093927 -0.18907258 -0.29938918 0.8591915 1.3139321 2.4408908 -0.10494979 -1.0327334 -2.3990655 -0.38690418 -0.5094916 -0.7473265 -0.6513019 -0.33267954 -2.004316 0.8875675 -1.8628862 1.5026441 0.22076683 -1.8198625
2225 -1.6721112 -0.73437464 0.79943985 -0.86111474 -0.19860263 -0.4110851 0.69213605 0.19940883 1.1098418 -1.074046 1.4723281 0.10490447 -0.52237636 -1.275653 0.22576585 0.1821534 -0.42418006 -1.3566726 2.5830758 -0.7625527 -0.27895176 0.9840768 0.51477396 -0.9758829 -1.049317 -0.7681562 -3.090349 -2.1868942 0.78250813 -0.25972605 2.4869065 1.5130453 -0.19042961 0.80476475 1.3411299 0.7954167 -0.745024 0.5289752 -0.6049879 -0.85702443 -0.6696142 1.1381265 -1.301578 -0.9015446 -1.1340357 -0.48635292 -0.250027 0.99504566 -1.4520609 2.0879536 0.8377895 -0.4270334 -1.4117651 0.90012306 -0.86849904 -0.44539744 0.64687467 0.32353714 -1.8044273 0.54351985 -0.9654142 0.8320225 0.18537708 -2.268615
2004 0.10903415 0.0049954886 0.4551969 -0.96467423 0.77125096 -0.041536283 0.51277894 -0.3730734 1.8642243 0.080434375 -0.5034686 -1.2316066 -1.6056086 0.4459544 0.06271333 -0.66603357 0.5130569 -1.1776011 -0.2835987 0.9269245 1.1011217 0.95559967 0.08539587 0.45422316 -0.42106724 -1.7547224 -2.005114 0.42973065 0.55256987 0.46384755 -0.1435405 0.39649025 -0.9026215 1.2486873 0.8269569 2.377955 -0.22389032 -0.2824025 2.1078763 0.26197785 -1.1994385 1.5474182 0.4404507 -0.8704694 -0.6067448 0.5588033 -0.11405578 0.4307688 -0.065436594 0.8737569 -0.4455759 -0.94891846 -0.80659044 0.2391923 -1.7499745 -0.8451038 -0.33355707 -0.27813473 -1.1651301 0.16974065 0.85018504 -0.6530026 -0.44910944 -2.0818615
2197 -2.2793193 -0.43593097 2.0290325 -1.3429768 0.9600918 0.17377688 0.037232295 0.094089575 0.5852532 0.5523571 2.531213 -0.32495502 -0.2652133 -0.6905087 0.11776143 1.7274278 1.3363141 -0.32744357 -0.20826194 0.43455252 0.16323553 0.7204385 2.1239338 1.6397157 0.15911046 0.018261772 -2.5953426 -0.50867456 0.50133693 0.50000715 0.87481743 0.00058933557 -0.16723128 -1.3017875 0.06585121 0.7132433 0.6424694 0.7270355 1.4107044 -1.133794 -0.34412754 0.5225334 -0.26815662 -2.1434345 -0.97977257 0.56597537 0.06240964 0.45883682 0.068196245 1.6611089 0.34461868 0.037824966 0.49801454 -1.1452864 -0.30822933 -1.8623205 -0.8844835 -0.26543927 -1.2016349 0.43046707 0.34636706 -0.024106165 0.10935278 -1.824186
1974 0.55813736 -0.47293565 0.8991614 -1.0679452 0.97232276 2.1429403 -0.54001915 0.14204182 0.13359813 -0.103831165 0.81706345 -1.468295 -0.4246668 0.18462722 0.06851613 0.081882656 -0.41844147 -0.65880245 -0.7312086 0.4586285 -1.0670472 1.069328 -0.17618322 0.25927094 0.2714091 -0.7558354 -2.2037897 -0.28779694 0.8912395 0.98384327 1.1884938 -1.6659518 -0.8723286 0.23848033 0.6716634 0.25977793 -0.88944834 1.3792827 -0.32400653 -1.0985405 -1.0803916 0.8512235 -0.6836452 -3.0644758 -0.05623782 -1.6054786 0.10668948 0.64931023 -0.93788475 1.880735 1.3609841 -0.5026631 -0.5462608 -1.4609938 -1.4965762 -0.28334022 -1.6562432 -0.14557946 -1.8069293 1.1394031 -0.13757052 1.8722 0.016360091 -1.0858401
2340 0.8744914 -0.465625 0.31723192 -1.4397403 -0.25084168 0.93667686 1.4681152 -1.1705809 0.66045946 0.61419094 1.4448427 -0.50822675 -0.4646718 -0.6610264 0.9595122 0.052547865 0.49091077 -0.55347025 0.4443417 -0.07509803 -0.60909647 2.8476179 -0.40791848 -0.10240861 -1.5286572 -0.9410435 -2.3151925 -0.6639613 0.94359785 -0.07849182 -0.2042321 2.0848236 -0.6221646 0.5876722 -0.036834948 2.087447 -0.82263535 0.95881546 1.5936946 0.16651475 0.79265654 0.0617029 0.586881 -1.722259 0.8624386 -0.4898942 -1.3878088 1.1327574 -0.49734357 1.7591238 0.86445147 1.2537365 -0.5277569 0.116000466 -1.4194783 -1.243376 -1.0093228 -0.835981 -1.6332947 -0.21730912 1.8498114 0.9454162 -0.7336278 -1.5547622
2035 0.03371172 -1.4865391 0.1406317 -0.7431211 0.41848862 0.5528706 -0.12578975 0.5253895 1.5765365 -0.3544895 1.328552 1.8841037 -1.4759709 1.8537941 0.67920554 0.7987017 -0.9931843 -0.014376441 -0.18017066 -0.1761166 0.6671363 1.318903 -0.42931384 0.099305645 0.32680765 -1.4001452 -1.7078358 -1.0241513 0.03694894 1.0582633 0.9823586 1.8961052 -0.28464094 0.22133082 0.65655506 1.3455331 -0.3534092 2.3823636 0.7747009 1.2913946 0.6762424 0.776856 0.102034114 -1.2551711 -1.6472588 -0.07985034 -1.1851455 1.1166972 -0.4254454 0.30373582 1.358006 -1.1465309 0.66110384 -0.7748336 -0.6779142 -0.8519629 -0.19352616 -0.5634578 -0.8921007 0.24010995 0.34959406 0.9013411 -0.29754078 -1.7007221
2038 -0.13746727 -0.5436969 1.8928965 -1.3509134 -0.019596223 0.2797098 0.3663797 0.06408233 1.4545177 0.81319225 0.9093046 1.4070212 -1.6000509 0.4756936 0.6452469 0.8230358 -0.51652324 -0.8518825 0.022507027 0.960703 1.4034939 1.4038122 -0.035244495 -0.20808643 -0.8875329 -1.6293082 -2.115612 -0.71075064 -0.162924 0.46493676 -0.15854335 2.0916903 -0.6556478 0.05554885 0.86325216 1.3711381 0.4949947 1.3314254 0.44705474 2.1719487 0.053377572 0.07633323 1.8535928 -1.0459932 -0.54080296 0.6332952 -1.9262446 0.9841152 -0.7665056 1.485206 1.2814709 -1.2712756 -0.304069 -0.5225252 -0.561597 -0.47810486 -0.69120693 -0.8440033 -1.0090195 0.22797929 -0.37035498 1.6422362 -0.3040541 -0.9578375
2143 -0.8989382 -1.0726966 2.5218048 -2.2304852 -0.5776593 0.6946408 0.46670356 -0.30533132 1.6295748 0.849742 1.0258543 -0.5856427 -0.39953992 0.82766235 -1.507832 1.1427451 -0.5111497 -0.7989338 -0.04867675 0.50833815 -0.2625691 1.9070871 -0.78622365 -1.0994419 -1.3866436 0.061733514 -1.0001035 -0.3552513 1.5138661 0.2856343 -0.22338468 1.7171291 0.20496587 1.7330974 0.05275874 1.9183921 -0.430073 0.7091364 0.11309458 -0.23567615 -0.39918253 -0.16401464 0.7504175 -1.7044268 -2.0842087 -0.04470898 -1.6127106 1.150404 -1.3606937 0.16708624 1.4963568 -1.6409352 0.8907566 -2.3582203 -0.7112399 0.050967548 0.16906558 0.20668659 -1.0727247 0.9389674 -0.5880691 1.1271693 -0.8033282 -0.91297305
2376 -2.436594 0.94502497 2.0914257 -1.5013447 -0.62310684 1.4540893 -0.034075014 0.42213017 0.09239834 0.1944306 0.59920055 1.9609696 -1.2287742 0.61856186 -0.43739706 1.036672 -1.2413181 -1.1026977 -0.87418604 0.35464457 -0.31608653 1.3139282 -0.44043258 -0.8486227 0.29427615 0.30351347 -2.232877 1.710632 0.91888094 1.927141 -0.30068442 0.31834227 0.11054311 -0.6200203 0.69978034 1.626896 1.6754223 1.7883182 0.31094104 0.26644745 -1.9974633 -1.0665377 -0.09144305 -0.7178759 1.1755964 0.7941211 -0.47489527 0.9649067 0.39308152 1.8629495 1.5298656 0.10651067 1.3066459 -1.3929677 -1.6704667 -0.6992558 -0.09137382 -1.0458888 -1.527293 0.9856595 -0.8912888 -0.25881374 0.14471608 -0.7577613
2036 -0.040185176 -1.1144465 0.62851435 -1.1155585 -0.6796298 -0.87662107 0.6998066 0.68253064 1.7686584 -0.8271116 -0.47623333 2.416621 -2.3333762 0.008124941 0.60660005 0.18843652 -0.86901337 -1.0321468 0.1275972 1.2237105 0.015612771 1.0945407 -0.42331728 0.9958996 1.2592345 -0.04012715 -2.2517636 -0.8589666 -0.36574036 0.43798447 0.61443883 2.429539 0.7715435 0.3602411 -0.13389613 1.9075772 1.0143381 2.029058 -0.12839639 1.1240814 -0.19101106 0.7428435 -0.33568707 -0.7627094 -0.083871685 0.20957835 -0.46768352 1.163365 -0.60044193 0.42523453 0.7553748 -0.38197827 0.32558998 -1.1538931 -0.1326164 0.3863635 -0.5911417 -1.3228246 -1.2672566 -0.35768488 -0.5205184 0.847143 0.11263077 -1.8209354
