2708 64
2292 1.8464173 -0.45149297 0.114266574 -0.1986079 -0.5587361 -0.798515 0.7510571 0.29987296 -0.779521 -1.2385533 0.12054526 -0.68534654 0.2364836 1.5055358 -0.2776279 -0.061096348 -0.18185253 1.405377 -0.27647936 -0.5399472 1.0004808 1.7780534 -1.1066859 -0.3754213 0.38278267 0.62203914 -0.026982483 -0.17609698 -1.4596213 0.23596372 -0.7272174 -0.23135513 0.50490576 -0.38666487 0.1266232 -0.9462739 -0.13916057 0.22126369 -0.56076455 -1.1136944 -0.7164529 -0.5602131 -0.6683305 0.5558314 -1.2697455 -0.47595692 0.25416157 0.31178546 0.995068 0.59832036 -0.7400102 -0.21941438 0.02408159 -0.040062096 0.50696844 0.22846086 0.18566538 -0.29079595 -0.63950956 2.0777025 0.3293571 0.23741636 -2.1658938 -1.1174928
2685 0.8868287 -0.5913862 -0.5828682 -0.6039337 0.8786794 -0.22235665 1.0629759 0.74406874 -1.9221599 0.43643245 -0.5743873 -1.149282 -0.30330697 -0.17794672 -0.28288034 -0.9222803 -0.18875067 -0.11868525 0.60242367 0.17798825 -0.33849442 0.90730757 -1.081634 0.49768984 -0.69288015 0.929257 -0.12923992 -0.47026762 -0.62681824 -0.20997912 -0.41573766 -0.3142439 0.34576735 0.8318487 0.50570554 -0.008697785 -2.6986217 -0.2137219 -0.8074336 -0.55301446 -0.17329507 -1.1330891 -0.21885075 -0.08137585 -1.6333432 -1.6554358 0.3230354 -0.29901445 0.035332058 -0.031493668 1.8089892 -1.0098541 1.0218825 -0.2858519 -0.03353453 -0.02050774 -0.3799473 -0.18268733 -0.42770946 0.80165154 0.48691726 -0.11652086 -1.6448809 0.33051354
2492 0.6618352 -0.84479845 -0.53528714 -1.1198939 0.5813371 -1.0995977 0.9619254 -0.78314805 0.2568427 0.51379573 -0.2765155 -1.1328031 -0.1875559 -0.006393293 -0.41781557 -0.28104034 0.85467714 0.64456475 0.029723605 0.20353404 -0.1836121 0.9631508 -0.09953981 0.64367276 -0.80377585 0.54833996 -0.4189062 -0.2627529 -0.47929886 0.8788236 -1.0508039 -0.79724026 0.14473523 0.4499544 0.82510644 -0.8560449 -1.5042001 1.2924414 -0.586173 -1.8259778 -0.26981065 -0.7827256 -1.4374498 -0.024813477 0.2939071 -0.30840465 -0.058394246 -0.13128921 -0.17386267 -0.6450224 0.8644137 -1.2302399 -0.30917415 -0.6860092 0.37774625 -0.6296745 -0.61542845 -1.6353658 -0.71690124 0.2199508 0.048829243 0.31788677 -0.7050231 -0.07623225
2048 0.8190478 -0.83360267 0.7146704 0.22477676 0.60903496 -0.41867307 -0.0007673743 1.7406614 -0.07685033 0.99543923 -0.38852948 0.8663533 0.5374921 1.3172678 -0.31971794 -0.29142487 -0.87739885 0.9784138 0.11282302 0.5620667 0.123720504 -0.6096439 -0.33877218 -1.0116769 0.60358983 1.5200052 -0.8510211 0.30507156 -0.3522223 -1.5378461 -0.894517 -1.1637888 1.03498 0.30009174 1.3475989 -0.72394615 -0.5495256 1.8674678 0.35586578 -0.984406 -1.0129064 0.19749683 -0.30461287 0.38130552 0.17441607 0.7046842 0.5213818 -0.6333299 -0.9456799 0.5207318 0.4847779 0.1308297 0.0022464206 0.17406856 -1.0441513 -0.81568265 -0.17960334 -0.101504765 -0.12854508 0.26025534 0.123148 -1.4380553 -1.7599732 -0.010390051
2380 0.4756371 -0.29604018 -0.9919356 -0.0004269905 0.7317716 -0.6631622 0.4426783 0.8287679 -0.89233917 0.2608845 0.09568088 0.34420618 -0.40821043 -0.9302146 -0.35962713 2.027853 0.8488563 1.870764 0.74479437 0.80975246 -0.26210377 0.117607646 -0.73613584 1.617377 0.82529974 0.3707915 -0.48175132 0.2393193 -1.2741148 -0.5569927 -0.6340037 -1.0481026 -0.3096911 -0.009183502 0.2613599 -0.6365742 0.14759089 1.039231 0.89600694 -0.3715348 0.9290891 -1.4466243 0.9886644 -0.52910876 0.33857688 0.85738605 1.292543 -0.00040995932 0.325563 0.14016806 0.7347314 -0.41064212 0.92708343 0.26716286 -0.7608789 0.263165 0.47544098 -1.215581 0.6784075 1.1295089 0.5615447 -1.3000413 -1.0373788 -0.18627566
2538 0.54416865 -2.3264966 -0.7672884 0.6363406 0.7439757 -0.6725984 -0.11091105 0.5371895 0.47863808 -1.2853854 0.108135216 1.0107689 -0.96485317 0.8745727 0.6008463 0.1776775 -0.87964845 -0.37470666 0.8245226 1.3470111 -0.8267138 1.9214427 -0.2150866 -0.17365408 0.76725656 -0.20626752 0.40275487 0.0918379 -0.7036991 -0.25862566 -0.67342716 0.11012102 -0.40902415 -0.60864604 0.70260346 0.19516683 -0.5256885 -0.20701784 0.6989606 -0.24284856 -0.5524867 -0.37851512 0.43595272 0.67772424 0.47193643 0.78436875 0.98197156 -0.1771244 -0.7058516 0.58177555 2.003451 -1.4586816 1.2123926 -0.1317667 -0.668155 -0.39561096 0.52909416 0.23913537 -1.3222972 1.632423 -0.39614603 0.07733295 -1.0022463 -0.5922696
2169 -0.13909838 -0.9624647 1.1422504 -0.24751538 0.35390213 -1.3408786 -0.13861205 0.7312908 -0.4852765 -0.5840457 0.090004265 -0.17750588 0.24326801 0.14692755 -0.25743937 -1.4651753 0.8397633 1.2547879 0.8673161 -1.0729642 0.4386279 1.4685556 -0.18108205 0.9310951 -0.29683295 -0.17570485 -0.8739808 0.22294061 -0.16625729 -0.13477117 0.07674438 -1.3596386 1.2900306 -0.2077665 1.0413711 -0.87168765 -1.2502837 0.8536382 1.391921 -1.7022474 -0.95311266 -1.2144914 0.28153783 -1.2602528 -0.2451761 -0.95385903 0.16845684 -0.51117814 -0.9701628 -0.40989122 0.8779569 -1.3844762 0.3218113 0.23387395 -0.08816824 -0.6041426 0.5956044 -1.1922718 -1.5042236 0.42006436 0.40945533 -1.0084847 -0.42377505 0.94618756
2375 0.95149636 -0.97828656 0.5258127 -0.5506884 0.94464403 -0.7638084 1.9268008 -0.44881076 -0.3198391 0.24748902 -1.6858294 -0.43237603 -0.33991233 -0.6717579 0.55684304 0.27092794 0.3783313 2.1970017 1.1758271 0.35175836 0.18208633 1.126694 -0.7385196 -0.4716447 -0.47041717 -0.03724597 -0.2725164 -0.38782322 0.6167074 0.2606158 0.41088292 -0.61217403 0.84194744 -2.3561604 1.2210408 -0.20136473 -0.2501681 -0.17307082 1.009659 -0.7338777 -1.1476508 -1.4327605 1.0780329 -1.1941062 -0.40106675 -0.3987029 1.2494278 -1.1141526 -0.63767135 -0.17037942 -1.4201754 -0.7477821 0.6525087 0.53080094 0.6082706 -0.6735099 -0.9887154 0.1736165 -0.5825922 1.2316833 -0.18094906 -0.5598989 -1.8570589 0.6889529
1950 -0.882897 -1.5753711 0.21552396 -0.96960133 -0.01626415 -0.6136687 -1.0558419 0.00016970049 -1.0711559 -0.13766435 -0.7559266 0.17169319 -0.8652405 -0.21194623 0.57861024 0.062346682 1.462459 1.4535645 1.5509243 0.13545187 0.75616664 1.7871536 0.35380906 0.9780712 0.49640056 0.82610613 1.3306394 -1.0982 -0.42798758 -0.90557593 0.6846048 -0.99510574 0.10248108 -0.3596561 -0.059573747 1.736349 -0.2477057 0.78843856 0.21108113 -2.269677 -1.9925544 -1.0227191 -0.09225552 0.76618207 0.8592911 -0.41003296 1.2622954 -0.75280184 1.3455579 -0.50919276 -0.22670016 0.10772274 0.56880575 0.02078786 -0.120152995 -1.0232754 -0.5698325 0.027199926 0.43046537 0.36031798 1.5822064 -1.1060258 -1.5152705 -1.14993
2434 0.21622352 -0.19316755 -0.87498903 -0.8658711 0.4463017 -1.469157 -0.5724475 0.025775205 -0.9524632 -1.5566624 -1.4459345 -0.5990546 0.4284811 -1.373081 0.38915956 -0.4811715 0.73956746 1.7822998 -0.36781853 -0.059719823 1.1927158 0.3640315 0.917393 -1.0033846 1.1297259 0.14295304 -0.97484493 -2.0328531 -0.52652216 0.727998 -0.69769025 -1.1038643 2.2548115 -1.2556084 2.1132276 -0.44190165 -0.7689549 1.2767396 1.6278509 -0.39928907 -0.5102307 -1.2886852 0.1852654 0.052969974 0.37300086 1.1048658 2.1126273 -0.3102766 0.10059884 0.21683158 0.06326964 -0.46192983 -0.28836933 -0.52685267 0.6188613 -0.6347799 0.7428019 -0.37540364 0.16562721 0.4847566 -0.0016464113 0.07002201 -0.9266907 -0.8288638
2675 -0.30142683 -1.9934826 -0.8800458 -0.0042680795 -0.043620154 -1.1731087 -0.12555242 -0.9081571 -0.11540318 -0.65703213 -1.7197527 -0.5610497 -1.5860354 1.2701285 1.0208286 -0.30669957 -1.2403858 1.1183277 0.5324065 0.0026505468 -0.5726081 1.482697 0.097180285 1.1229234 0.78249973 0.7578112 -0.3301436 0.7254933 -1.149015 -0.6891996 -0.03849927 -0.855717 0.052133914 0.23790708 1.2005662 -0.53004706 -0.8698589 0.28149977 0.3403778 -0.8027611 -0.5416696 -1.650402 -0.0008819518 0.20698644 -0.15330514 0.44288504 0.5912095 -0.8072504 -0.4907815 -0.21947943 -0.1396319 0.13830666 0.9533436 -1.0945514 -0.4481322 -2.2907615 1.1256769 -0.2008283 -1.0387156 1.7620472 -1.4700949 0.8189008 -0.88534844 -1.4258393
2491 0.91953456 -0.7805697 -0.31005773 -0.6227389 0.20614381 -1.9062806 2.801749 0.28867993 -0.44479173 0.602837 -1.4287738 -0.80387485 -0.8410159 -0.16528359 1.2763934 0.3036327 1.0876532 1.3981278 1.2844658 1.4660903 -0.026456686 1.7073313 -0.8054042 -0.5152349 -0.85195076 1.0212687 -0.465931 -0.17655864 -0.6554201 -0.56339467 -0.7451674 -0.60596764 -0.95568234 -1.8498604 -0.026381746 -0.48794824 -2.20464 0.07835183 -0.8397045 -1.4616429 -0.33320582 -1.4497658 0.05845222 0.40587574 -0.5626843 -0.6352206 0.8502548 -1.2939534 0.23178504 -0.14228423 0.69324076 0.00787885 1.2708201 -0.25788626 0.55650395 0.07111974 -0.58560854 0.5328234 -0.5668987 0.5876846 1.0251586 1.1399691 -2.2574787 1.0109128
2118 0.60627854 -1.4444134 -0.43281603 -0.8328852 1.0963601 -0.5238966 -0.07950513 -0.09680064 -0.20074879 0.71664524 -0.43038884 -2.316892 -1.0021275 0.058325544 0.056950867 0.9445474 0.6882365 0.21372506 0.037936293 1.568091 -0.4853897 0.69757247 -1.0066624 1.1618863 -0.636114 0.15350913 -0.16776383 -1.5346364 -1.2983359 -0.52270585 -1.1467241 -1.0949036 -0.1380392 -0.3057349 0.8319477 -1.0255147 -0.34001118 1.4261402 -1.2865888 -1.321399 -1.5917972 0.24256217 0.65080035 -0.16098292 -0.41751593 -0.6701107 0.5402886 0.6772258 -0.09388807 -0.32193696 0.03901606 -1.5167015 0.9857576 -0.67182076 -1.4619198 -0.10777759 -0.2746495 0.18937962 -1.193496 0.49479762 -0.4745764 0.38352638 -0.5390406 -1.1036856
2176 1.4695829 0.019955778 -0.69441956 -0.1679181 1.2109516 -1.9620998 -0.04088705 -0.112839594 -1.6622458 0.57895255 -0.7267331 -0.7707232 -1.3766907 -0.37944016 0.4876966 -0.7328565 0.13603422 -0.22637233 -0.49545833 -0.51830995 -0.6093991 0.8489059 -0.53777045 0.6246998 1.3404187 1.0871518 0.2822752 -0.70220166 -0.9757386 0.0055196737 -0.5182506 0.043585557 0.28093436 0.26630425 0.020608203 -0.64007825 -2.1700377 0.5527147 -1.5381125 -1.1997586 -0.35448554 -0.8371334 -0.20839533 -0.4510366 -0.54799336 -0.7564711 0.8382648 0.18910147 -0.5485422 -0.94495976 0.8191341 -1.2152435 0.04310625 -1.5453619 -0.7422941 -1.0849124 -1.7875344 -1.22601 -0.4165937 1.9136707 0.44619554 0.3623537 -1.5002785 -0.9683106
2552 0.21896765 0.22040911 -0.39298362 -0.8348633 1.0204451 -0.17569348 -1.9240493 0.5877164 -1.068168 -1.0757264 -0.81407505 -0.012246015 -1.1600765 1.956555 0.37452096 0.23837557 0.4214925 1.8897774 -0.38228315 0.5001463 -1.4166605 -0.17907661 -0.6458362 0.2248079 -0.85298306 1.6827773 -0.21743134 0.45246536 -0.2983596 -0.47798458 0.29742098 0.27651504 -0.8832944 -1.3235817 0.8174492 -0.08413669 -0.0788425 1.8786913 -0.8123419 -0.336493 0.43574557 -0.34693864 -0.06711324 -0.81169003 -0.15409094 -0.98637885 2.0828414 0.3162244 0.42838162 0.6892157 0.4746934 -2.0783782 0.4020326 -0.028771905 0.72407335 -0.51229995 -1.6952347 0.72502965 0.16575956 0.4992189 0.07892715 -2.1660943 -2.4982374 -0.43638334
2450 0.13957453 -0.3909076 0.21999705 -0.46023828 1.482522 0.7999957 -1.8585362 1.0083189 0.2727815 0.90089154 -0.09726162 -0.30765125 0.5185959 1.2510669 -0.7345566 -0.7691392 0.42138213 0.49843946 0.8665655 -0.13876615 0.15537512 0.9623943 0.2610062 2.0724192 -1.1968204 0.9897184 -0.28482562 1.4634037 0.09931683 0.6645327 -1.4718726 -0.5203833 -0.05861966 -1.2456852 0.21295395 -1.1396832 -1.1758363 1.3954161 0.45823777 -1.2334827 0.50878817 -1.9205574 -0.4129035 0.017755635 -0.97558016 -0.25475127 0.8228403 0.47915548 -1.3400826 0.35012966 0.74688125 -1.6941179 -0.18280429 -0.09042534 0.77428126 0.85771614 0.35686213 -0.13190298 0.31197327 -0.32057503 0.48450896 -1.70973 -0.9885312 -0.35151035
2519 -0.1443118 -0.25707817 0.39136416 -0.7188953 -0.23153007 0.17573805 -1.0838586 0.4341386 0.38529208 0.58291674 -1.1312959 0.014085936 -0.4645326 -0.18768886 -1.4247727 0.38072497 -1.325935 1.3046058 0.75683 1.0860363 0.17018749 0.5917195 -1.0266913 -0.28261566 1.5094784 0.36619648 -0.08126058 0.07218858 0.47421053 0.14159466 1.1095941 0.065684155 -0.31421483 -0.58149004 1.5031778 -2.184244 -1.1601322 1.4309951 -0.3111214 -2.101077 -1.7588128 -1.9996313 0.07319553 0.35874757 0.8609173 1.2211431 2.4115386 0.5158887 0.34349966 -0.26752433 1.16264 0.6173185 -0.7438806 -0.7797669 0.2312353 0.46777597 -0.15176824 0.030314405 0.28540206 0.23567706 -0.72643715 -0.7326372 -3.0514095 -0.09482963
2405 1.350019 -1.5332792 0.6799889 0.7009871 1.4104975 1.1829323 -1.3269049 1.3995045 -0.02007527 -0.4692506 -1.6193835 -1.0264981 1.3210093 1.2758812 1.4715171 1.6874971 0.18156485 1.3070799 -0.11140703 0.6962922 0.103277326 -0.069720075 -1.3171842 0.63698477 0.006621633 1.341078 0.18918703 0.061143223 0.85372764 -0.8831168 -1.1718452 -1.2739748 -0.108169325 -0.16898802 1.8197676 -0.09749101 -0.23737656 2.0044918 0.5069528 -0.4832372 -1.048754 -1.2166308 0.23778377 -0.85635895 -0.18758902 1.2545127 0.54487175 -0.20846137 -1.3032857 -0.2654353 0.58513004 -0.8012703 -0.60097694 -1.7233019 0.3357391 0.8834045 -0.49537724 0.81948537 0.9022322 -0.10702177 -0.27935567 -0.1053154 -1.65327 -1.4149221
2216 0.7316186 0.9866296 -0.7301247 0.5619802 0.7317416 -0.31560546 0.07612112 -0.10526046 0.7046487 -0.7684026 -0.087893784 0.9692321 -0.21728541 0.14228253 0.595414 -0.34313166 0.03407368 1.75057 -0.46471053 0.5132787 -0.20776819 0.9753407 -1.4144688 1.4388174 -2.297159 0.97659624 1.4829308 -1.4759966 0.5606075 0.21650024 -1.9105991 -2.0029826 1.0184104 0.36668995 0.9901554 -0.4702089 -0.71866626 1.8824091 0.111605406 0.92540884 0.7373809 -0.9557801 -0.2717964 1.6754868 0.85084295 0.7776288 1.4402864 1.271398 -0.4790222 -1.4755343 1.312519 -1.5788758 0.5434157 0.879416 1.4002002 -0.50129247 0.29955432 -0.5570731 -0.5030385 1.5046263 0.4785173 -0.37085894 -1.2572035 -0.6397359
2524 -0.0020228734 -0.8811837 -0.8621139 -0.51113737 -0.535467 -0.51049143 -0.023230653 0.76440316 0.45765623 0.22790667 -1.4662961 1.2874515 0.011703653 0.38823006 -1.3944871 2.6986177 1.1365957 1.2401326 -0.5865077 -0.6379831 -0.06381489 -0.83732194 -1.1284578 0.15549748 -0.13027187 0.77823365 -0.20216501 -0.8420637 0.03171519 0.50692767 -0.2879454 -0.33935115 0.3053583 -0.18824987 2.2021785 0.4004582 0.09932939 -0.4684267 0.9430849 -0.5567387 -0.4804053 -2.0102472 0.096099705 1.0007339 -0.3311132 1.2906922 2.488349 0.56160325 0.096376784 0.28088602 1.7072648 -1.5116411 1.724823 0.086291306 1.2508783 -1.1675789 -1.0496856 0.46684864 0.31929085 2.4690468 0.55917394 -0.8006475 -0.9428337 0.17408124
2110 -0.060020696 -0.3625771 1.3187875 -0.7045693 0.1708318 0.39242953 -0.3873254 0.47955567 0.4094952 1.2617012 -0.6509394 0.16486368 0.2321122 0.2535478 0.6186061 1.1489776 -0.45912164 1.3314435 0.29843646 -1.1419475 -1.5877892 1.241183 -2.0582008 -0.65989596 -0.83702594 2.7227871 0.09278264 -1.7684598 -0.64187914 -0.5599104 -1.7563947 -1.5164798 -0.19702612 -1.1545719 1.6807952 -1.0260594 0.45241743 0.68266654 -1.0320776 -0.14572245 -0.13478042 -1.6819825 -1.2051525 0.47404113 0.4345147 0.5015277 0.52790105 -0.82904243 -0.0923963 0.0034239588 1.3269161 -1.4579656 0.7906314 -0.74510556 0.6893544 -0.60724276 -0.054559726 1.1894739 0.72083473 1.2720156 -0.83853877 -0.80465454 -0.408881 1.1274333
2309 0.36071962 -0.5779386 -0.7821095 -0.055433027 1.3016965 0.8548576 -0.9430165 0.98946184 -0.5651625 -0.60131323 0.20875075 0.5623853 0.43396142 -0.21553424 0.77144283 2.0882652 1.976932 2.1055698 0.84606326 0.53315014 -0.38697302 0.12579198 -0.9187193 1.5591792 0.120150656 0.78598636 1.2139016 -0.055231445 -0.84068185 -0.05557837 -1.0243444 0.12943242 0.18154193 0.030335799 1.9877194 -0.3979517 0.06771271 1.3599639 -0.47001645 -0.7381507 -0.48243865 -0.88599366 -0.817632 0.9706394 0.6005817 0.036014244 1.6116636 1.1187623 1.8431461 0.5635278 0.73225313 -1.6564032 0.68914104 0.49388102 -0.45502833 0.19119868 0.85046196 0.2708063 -0.4968719 0.17329787 -0.020717425 -1.1315002 -0.50338167 0.35702616
2161 0.19734485 -1.0438747 0.538939 -0.5197479 0.668112 -0.40378714 -0.045720283 0.45621985 0.81319255 -0.20090215 -0.16386166 3.2825181 1.0658646 0.03772831 1.1580155 1.7108263 1.6887269 2.1392233 0.34917223 -0.7853439 -1.0343423 0.7067417 -0.85732156 0.19683835 0.07601274 -0.15922056 -0.7619169 -0.770495 -0.03705022 0.6718373 -0.4142834 -0.2299216 1.0467069 -0.6878914 0.21113561 0.22089925 -0.16727404 2.4272804 -1.2631427 -1.111042 0.16026504 -1.0616741 -0.070114374 -0.13147442 -0.62599653 -0.96011573 1.6788495 1.0816783 -0.0097343065 0.006638113 -0.079585575 -0.5091828 0.7714815 0.19030267 1.2460229 -0.63834983 0.5177576 -2.0290594 -0.046534296 1.2890195 -1.4106846 0.47571048 -1.674156 -0.5054833
2370 0.66302717 0.41624635 0.6109958 -0.08168084 2.0539324 -0.18433426 -1.22401 0.15271375 -0.8033856 -0.2858335 -0.5976076 0.870705 0.21563654 -0.7608819 1.2892908 0.6851905 0.98181796 1.1039122 0.1633382 -0.062225837 -1.1376718 2.405864 -1.4693968 -1.3305163 0.022030974 1.2181151 0.6989573 0.313288 -1.2537937 -0.011839719 -0.38679013 -0.9314054 0.07064306 0.24304003 0.47656786 -1.8195707 -1.2289748 1.9559643 0.30884603 -0.17433958 0.19294865 -1.9994857 -0.29076955 -0.13790469 -0.46544164 1.2262809 1.9605185 1.5082115 -0.016818695 -0.30921254 0.006457731 -0.08755171 -0.08881246 0.9378105 0.7914807 -1.0830277 -1.1073481 -2.822074 0.95599157 0.5296033 -0.70261663 -0.009421303 -1.4719245 0.659017
2385 1.9883819 -0.76489264 -1.751131 0.39554736 1.0475343 -1.0058284 -1.4586647 1.7614584 0.76971245 0.8530553 -0.77544737 -0.7897738 0.7940771 0.8554929 0.5738757 0.99306864 0.39367577 1.3073177 0.59358877 0.058453124 -0.45318925 0.9022164 -1.9198041 -0.14929378 0.36039934 1.0575944 0.57079273 -0.8191667 -0.086510025 0.8506758 0.46058822 -0.31541693 -0.12197298 -0.38460523 0.5879567 0.67005146 0.11723116 2.961015 -0.35851914 -0.17379701 -0.048293147 -1.1863142 -0.86266726 -0.00580434 0.06821594 0.3764704 -0.45516652 0.20876558 1.2608947 0.62731975 0.8856776 -1.1272944 -0.8963506 1.299538 -0.6059122 -1.0707147 -1.028118 -0.9872693 0.76877093 0.86575717 0.4332305 -1.6091207 -0.2425758 -1.1918226
2578 0.61260796 -0.80159146 -0.2606243 -0.106238104 -0.17875531 -0.6234136 -0.7638375 0.946157 -0.26326397 0.1240427 -0.6881387 1.3367211 -1.6743253 0.29582977 -0.18429857 1.567417 0.36756295 0.5265425 1.628696 0.015095076 1.1017791 0.44245446 -1.7413934 0.08295494 0.27127197 0.8373543 -1.0698528 -0.3313377 -1.2873425 0.23844066 -0.029702228 -1.4402494 0.30345693 -0.30618706 1.344385 -0.35422856 1.0261909 1.9501774 -0.7531198 -1.1808238 -0.6494057 -2.795297 0.57933277 0.4873257 0.56644285 0.9483423 0.57593256 0.7826729 -0.033542685 0.7509544 1.1991402 -0.94918054 0.45831266 2.2098944 0.7235932 -0.98638934 0.43328753 -1.748978 -0.4753529 0.04793599 -1.1509827 -1.2943265 -0.82149786 1.0338154
2372 -0.40808702 -0.8973227 -1.034456 -0.103624366 1.0833346 0.666177 0.510953 -0.35664254 -1.745237 1.0331047 0.9942132 -0.24470173 -0.25062513 1.872602 0.37542588 -1.1381553 1.8163612 -0.336352 0.8566755 -0.4699014 -1.1004176 1.8562344 -1.5128706 -0.6344227 -1.0363522 0.12790361 -0.08872312 -0.046485085 0.4368959 -1.1809304 -0.8266339 0.40001595 0.32481164 -1.5503395 0.16524577 0.6237561 0.28777096 3.0605733 0.43831083 -0.55966216 0.5548516 -1.1768308 0.66985303 1.0095277 -0.47192514 0.12146746 -0.7507537 -0.034408208 -0.72027785 0.6285875 1.113132 -0.46543992 1.6471608 -1.0866523 0.6270589 -0.81737494 -0.060735382 -1.590628 -0.34252617 1.2434655 -0.5635933 -0.16874698 -2.175302 -0.28411007
2328 -0.010112666 0.6620417 -0.49417835 -0.37233403 -0.38920557 -0.6823744 1.5096443 2.516589 -1.7137743 1.6854782 -0.11317645 0.16512102 -0.11777631 1.6080691 0.080452956 0.21132576 1.1983736 0.3411941 0.6780235 1.0716691 -1.2012923 1.6953663 0.06517121 -0.36418143 0.18499084 0.31835634 -0.8809593 -2.6781201 0.7195714 -0.28211975 -0.29859838 -0.8335119 1.0474843 -0.97726715 1.8395324 -0.5008218 -0.4969869 1.3348651 -0.14043501 1.1525333 -0.952105 -0.86354584 -0.12688397 0.7388353 0.24335453 0.24964017 1.5559565 0.2438708 -0.9572543 0.7772285 1.8687193 -1.1961925 0.36102337 -1.4466131 0.92539847 -1.4652947 1.4189706 0.00057022914 -0.6269173 -1.1917142 0.9328501 -0.4900075 -2.1692877 -0.3479114
2465 -0.8072949 0.5497226 -0.2917547 -0.5982109 0.40845233 0.20485352 0.36935127 0.45218477 -0.4085508 -0.27999863 0.16824852 -0.2300243 -0.84450924 0.53590727 -0.19768032 -1.0058745 0.30282664 -0.020438189 1.4605777 -0.3379676 -1.7327353 1.8018893 0.28026572 -1.30252 -0.6787596 -0.35522586 0.6339329 -1.085751 0.24947713 -0.97843426 -1.6271555 -1.6695836 1.458126 -1.2960385 1.0011657 -0.9669592 0.18993917 2.1046565 -0.86938727 1.0709068 -0.47596863 -0.8917817 -1.4047062 0.7233913 1.4123309 1.1496505 1.5713786 0.5907228 0.64501053 0.12446819 1.2235639 -1.0236899 -0.18549709 -1.7557701 -1.4967822 -0.47465 1.1137073 -0.81750596 -0.32312787 1.2705846 1.0934755 -0.35491127 -1.748847 -0.9711979
2326 0.06642248 -1.9242591 0.18757054 0.6340714 1.5368128 -0.5835009 1.0341809 2.3325715 -0.869752 0.9183089 -0.28497803 0.64337325 0.077516735 0.32304212 0.3384227 0.21995239 0.15757097 0.56774336 1.8696125 0.6347562 -0.34901562 0.90168154 0.5259871 -0.96700555 1.1995704 -0.11447455 -0.22999902 -0.15458995 -0.1161047 -0.32222456 -0.99993026 0.5650571 0.85986733 -0.2000149 1.9089557 -0.7063311 0.69146585 1.4840494 -0.49150854 0.53332597 0.339246 -0.4008081 0.26847604 0.4748928 0.35777083 0.67308414 0.4460696 1.6339723 -0.7503729 0.43037826 1.2244058 0.24109434 1.2661784 -0.7723634 0.38521603 0.44061512 0.1102622 0.44510144 0.71262616 1.1293571 1.2797326 -0.09426765 -0.9019746 -0.004537243
2383 -1.2698492 -0.8572529 -0.37320396 -0.8768817 -0.6838292 -0.23130222 0.9683485 1.30661 -2.0558045 0.7301074 -0.2945311 1.8588005 1.1259055 0.29925388 2.0616057 0.66802853 0.39902604 2.237869 0.5311731 -0.9790278 0.066393025 0.1987948 -1.1519405 0.43581828 0.1654799 0.12593397 -0.5986522 0.40524352 0.08729179 0.09506599 -1.0519698 0.44249505 -0.8789582 -0.62539035 1.5464512 -0.14432134 -0.9173346 -0.22211912 -0.21912873 0.98351914 0.18302937 -0.4081149 0.37455112 0.12933365 0.55987096 1.2224988 0.82608783 1.3353502 -1.2354535 1.44309 1.3582199 -1.371106 0.69929904 -1.38292 0.2574654 -0.3348082 0.8550635 -0.21409935 -1.238247 1.1296202 0.5597028 0.111419365 -1.5124254 -2.014456
2071 0.5963341 -0.5160549 -0.4766353 -0.09535185 -0.67871314 -0.6384443 -0.23471393 2.4782507 0.34128857 0.18042041 -0.80381453 -0.68080205 -0.35873204 0.5369572 1.2240617 0.41682458 1.8168961 1.3295379 0.11274988 0.3818413 0.18301629 0.1114363 -1.5320746 -1.3488332 -0.42705873 -0.16105281 0.99499017 0.13359204 1.0653973 0.5975977 -0.15194899 0.32012022 -0.006319903 -0.20171225 0.41415197 -1.5849111 -0.09915697 1.6348234 -0.50802815 1.0030925 -0.8180434 -0.9791445 1.1312321 0.64030063 0.20226607 2.1609893 0.20443074 -1.2539332 0.39629653 1.3430812 1.2119774 -1.8389401 0.72085065 0.981359 -0.619843 0.25211826 -0.9641742 0.10323471 -1.0873855 1.9013046 1.5746983 -0.08680526 -1.6147442 0.74765843
2503 0.070616946 0.5972147 0.24236493 -0.55821186 0.20429832 -0.4332784 0.30192342 1.5946798 0.8175839 1.1837945 -0.12251258 0.24967036 -1.5545732 0.9479196 -0.97897565 -2.2336953 0.71223176 1.7053274 0.78747344 0.03849021 0.11392622 0.22949558 -0.74688894 -0.04170504 0.055079512 -0.7549749 1.2971737 0.10422484 0.44794893 -0.32580936 -1.002334 -0.19209772 1.0353584 1.0627558 0.66875726 -0.24035977 -1.3370136 1.7021233 0.81513137 0.28940034 0.32431793 -1.0669649 -0.11410456 0.17056298 0.2916862 1.4227489 1.4605682 -0.24126229 -0.5747862 -0.03959073 2.0384414 -1.8159058 1.3329313 -1.4926794 1.1367301 -1.5543365 -0.25952962 0.27456197 -0.26168403 1.2201221 1.2061936 0.3071991 -0.53835946 0.14636236
1971 -0.4045243 -0.23211235 -0.67868185 -0.3068882 2.0270686 -1.8924851 0.6330533 0.52215713 -0.008707208 -1.8964292 -0.3862613 0.30286977 -0.5992757 -0.1010882 0.47534844 0.13173312 1.2504675 0.7838731 1.6023552 -0.44564775 -0.91593194 0.43652323 -1.3156271 -0.8046443 0.49376625 0.24032569 1.1636909 -0.3432006 -1.7239081 0.06074949 0.14725685 -0.4951649 -0.4736494 -0.41736406 -0.28934452 -0.9423471 -2.3612509 0.7879115 0.28591412 -0.15598316 0.09100993 0.6016916 -0.12472916 0.8564573 0.80453634 1.8241976 0.67367274 -0.5642614 -0.32074606 0.5233301 0.9933734 -1.1006101 -0.303136 -1.376024 0.6260247 -1.1084107 1.2427622 0.74614376 0.86728245 0.6838848 -0.8681593 -1.6325433 -2.2849543 -1.5723133
2047 0.5414021 -1.0648664 0.5357677 0.2030253 -0.065020315 -1.1764368 0.6093089 0.81916934 -0.3870175 0.016151521 0.6973117 0.73904526 -0.03327948 0.9670407 -0.22374335 -0.30602035 0.39708334 0.4043458 0.6210642 0.12069619 -0.1621159 0.65693116 -0.3700656 -1.0352917 0.8313669 -0.5899785 -0.3090036 -0.15754575 -0.4208075 -1.4492737 -0.5725234 -0.57813823 0.95148253 0.52873886 0.9126604 -0.8566427 -0.6629405 1.8152325 0.21423036 0.42832974 -0.055786677 0.21347153 -0.28006744 1.516425 -0.15890214 1.4575368 0.3888959 -0.07177975 -1.7097225 1.4745632 0.079485826 -1.2438774 0.8834922 0.1260734 -1.4676012 -1.2588574 0.07017035 0.59276116 0.98909205 0.7678833 -0.035430223 -2.1030304 -1.9478163 0.1744407
2042 0.52115524 -0.9824895 0.019991715 -0.43151525 1.7103524 0.18653274 0.3497764 0.81948185 0.9705352 -1.515897 -0.2327174 -0.5002928 -1.0779992 1.1269513 0.15682894 1.5756757 0.84323674 0.41633016 1.4848404 0.8009785 -1.2302272 2.071117 -1.6322474 0.4410755 1.5335388 0.42556062 1.0956229 -1.1545837 -0.9090631 -0.41866633 -1.0537691 -1.2414167 0.002977432 -0.43878567 0.67162097 -0.6271184 -0.38538244 -0.04861764 0.9494473 -0.63018066 0.934069 -0.07412426 1.5428864 -0.566983 -0.6006134 1.1500252 -0.19045983 0.08813305 -0.3319862 0.19246386 1.25845 -2.2397025 -0.17055698 0.3455629 0.34441552 -0.54516155 0.86568975 0.19732265 -0.93590575 0.9799093 0.20883316 -0.77173674 -1.6698654 -1.0763867
2596 -0.39896792 -0.46999604 -0.9792132 -0.45080546 -0.25742918 -0.33647028 -0.3423088 0.6981539 0.65774405 0.46119258 0.85387045 0.2354299 -1.0583662 -0.3857788 0.54848105 -1.4198041 1.434199 -0.25609365 1.3193599 -1.3345891 -1.2212005 1.1756066 -0.80881506 0.7475508 0.8743983 -0.062956326 0.46591887 -0.738294 -0.62912387 0.038549624 -0.30340096 0.7192188 0.4035201 0.8617814 0.3611357 -0.8469424 -1.2069455 1.0257099 1.0808908 -1.180186 0.6338619 -0.58543044 0.8960222 -0.45550016 -1.2696885 0.50121135 1.8742732 0.12282661 -1.4979147 0.25374925 1.2661103 -0.90410626 -0.10045067 0.3795459 0.18187451 -0.3123472 0.99964285 -0.8654659 0.08421966 1.7071471 1.0896783 -1.2470133 -2.7720015 0.5850341
2358 1.7218893 -0.9622181 -0.76058656 0.33091807 -0.451198 -1.3610466 0.38571388 0.5176646 0.21748653 -0.8061846 -1.4766043 0.48818952 -0.41492498 -1.6134429 -0.21132068 0.5134642 0.6577444 0.3095295 1.1509835 -1.3614359 -0.82168025 -0.29103646 -2.1249447 -0.78469855 0.32926688 -1.244363 -0.054858133 -0.48216924 -0.26699618 -0.7878172 -0.67165416 0.6261061 0.065593675 -0.16639645 -0.014969906 -0.9400137 -0.68529296 0.4148581 0.23106505 0.09172154 0.33710557 -2.7401593 0.27835527 1.5185938 0.45337695 0.12646393 1.0387086 -0.23890407 -2.2725782 0.5148976 0.942588 -1.7332298 0.1452483 -1.1383494 -1.7956738 -1.2352728 -0.18303274 -1.5182165 0.64838344 0.6641832 0.71256375 -1.4781938 -2.3073 -1.5307289
2486 0.30640042 -0.95343584 0.3767175 1.021452 -0.06594212 -0.32962114 0.47418424 1.4609703 -0.44152197 -0.5285523 0.35399115 -0.2066168 -0.5605211 -1.4589722 0.8824833 -0.07104864 0.181939 0.076352865 1.1563838 -0.31146267 -0.77570754 -0.06723866 -1.7259232 1.0700309 1.1100688 0.19608296 0.48490795 -0.120602086 -1.2255263 -0.12055084 -0.9800592 -0.83860606 1.8771498 -0.82566124 -1.0187178 -1.3494415 -0.9913922 1.6174328 0.46131787 -1.7161198 -0.9281807 -0.34755474 0.23827882 1.1740601 1.8086855 0.41541994 1.0159127 -0.71718025 -2.3463666 0.7283214 1.3594486 -1.151943 -0.7359741 -0.50474375 -1.3817233 -1.1031466 1.5519478 1.5645726 0.40872392 1.7627218 -0.32531932 -1.5535015 -1.7780327 -1.8834686
2485 0.36958373 -1.605705 0.33809298 -1.6717199 0.8282993 -1.0649041 0.02514787 1.3371707 0.3772886 0.5884878 -1.3669684 -0.21323104 -0.6180313 1.055096 1.8662567 0.67523867 0.34169352 1.5605896 0.47758502 -1.2481617 2.0252757 0.39040956 0.09016847 0.36661258 -0.37587604 0.1958447 -1.0961344 -1.2306057 0.75755143 0.51502573 -1.2937905 -1.4553404 0.61192846 -0.9133314 -0.024195304 0.841993 -0.9767699 0.43713564 0.1203459 -0.21931845 -0.49477118 -1.3817813 0.6367624 -1.21709 -1.7456831 0.5853238 0.54982984 0.15259276 -1.1496377 -0.6814975 -0.63579804 -2.1040637 1.3866872 0.8623243 -0.27272487 -0.4932924 0.43456078 0.66747653 -0.7087925 0.6443894 -1.5450772 1.0156868 -1.6226091 0.92632645
2507 -1.2094703 -0.95693105 0.71422493 -0.6458174 0.24861899 -0.67564094 0.41465384 -1.4260104 0.91322285 1.0051509 -1.591502 -0.30927777 -1.8569851 0.70393974 0.4314222 -0.8203609 1.7370074 2.860624 -0.29905695 -1.1601663 0.3049977 0.47893986 0.8582997 -1.3769165 0.44953305 0.15526608 -0.33966705 -1.0569522 -0.28718764 0.7626049 -0.8464553 -0.8933607 1.0018765 -0.36006358 0.27179703 -0.16839932 -2.191174 0.5384778 -1.4066094 -1.8261962 -0.21109286 -1.6163731 1.2772006 -1.2367351 -0.37058967 -0.54563767 0.88719195 -1.3821744 -1.267172 -0.30744568 1.32328 -1.4718683 1.5668588 0.0950624 -0.8501348 -1.1816999 1.2608769 -1.1550883 -0.8093001 0.5291805 0.72746587 0.075168565 -0.8339378 0.6054645
2163 -0.2778533 -2.0301363 -2.0958502 -0.0584592 0.13111214 0.1430959 -0.21794096 -0.7682468 -0.0940833 0.5248867 -0.49378622 0.7720845 -0.35230345 0.7816085 0.6441804 -0.13098577 0.94737947 0.80180997 0.20993668 -0.398694 0.15528479 1.3156674 0.7558509 0.1522521 1.3881546 0.5116065 1.2795272 -1.328395 -0.6036192 0.8194431 -0.1277446 -0.5786384 2.345151 -0.69284725 0.78805506 -1.4169683 -0.83575064 0.17790318 0.14781395 -0.037844505 -0.94879055 -1.9103963 0.7010077 -1.1727318 -0.66702807 -0.17845947 -0.2516607 0.25387704 -0.17598024 -1.9270697 -0.7366835 -0.56342226 0.9368124 -0.368225 -0.712813 -0.14721301 -0.14933957 -0.9311295 0.23238036 1.6304692 -0.39715338 -0.1213116 -2.040351 -0.48220673
2649 0.6138314 -2.2111914 0.08766377 -1.8991257 0.96619296 -1.6213242 -1.3181596 -0.4543516 -0.5453159 0.20448244 -0.45882544 -0.08591166 1.2521839 1.1456125 1.0214275 -0.33868897 -0.28715083 1.6403968 1.105637 -1.6362362 0.49051487 1.5867811 0.33314097 -0.040862136 -0.31753546 1.1304054 -1.743915 -1.4623406 0.66231287 0.089078136 -0.46930945 -0.95059705 1.0028454 -0.32955945 0.64721286 0.8192067 0.02483775 0.6318974 -2.6377826 -0.29764566 -0.7772881 -2.7549539 0.1846487 -1.0587809 -1.2772009 1.4746845 0.28441238 -1.2400047 -0.39286914 0.52278394 -0.036798947 -1.5877593 -0.234043 0.6756284 0.3870399 -1.0755082 -0.5858913 0.40417737 1.1757138 1.5827576 -0.35736108 0.73453224 -1.5341309 -0.22181615
2436 0.6121568 -2.983803 0.90316814 -0.6192704 1.5428793 0.47455683 -1.3427178 0.6373122 -0.7816813 -0.05960422 -0.9876928 -2.1704578 0.6389232 2.377622 0.39583027 -1.2701783 1.0659975 0.9720522 0.054904476 0.21073899 1.4699882 0.97679836 0.42314366 -0.6336931 -1.1429111 -0.2981616 -0.23327325 -0.8785499 -2.2983105 0.95663095 0.2165311 -1.1222264 0.8423249 -1.1514665 -0.37201157 -0.41325217 -0.909781 -0.13857713 -0.69765717 0.02967755 0.09480275 -1.9069209 0.21711536 0.8205961 0.75029546 -0.71102864 0.4353546 0.15318474 -0.40142354 -0.38950458 0.5898705 -0.47940868 -0.17782874 -0.36459044 1.4153444 -2.1506135 -1.2483175 -1.3021963 -0.25973076 1.2433444 -0.15705171 0.48637885 -1.644591 -0.53758883
2395 0.31078476 -1.2167295 -0.39553505 -0.5162894 0.14453273 -0.570189 -0.66082263 -0.40241012 0.012190639 -0.25075734 -0.7582605 -1.2882361 0.3057138 0.93055457 2.6158316 -1.0636219 0.7167012 0.6371296 0.764209 0.034337383 -0.33754322 1.1268126 -0.59296775 0.72438747 1.2177216 2.6557136 -0.06732541 -0.34409127 -0.6657092 0.2965306 -1.001442 -1.0029753 0.22330594 -0.41722897 1.7658578 0.4399842 -0.9222703 0.11272192 -1.293901 -0.60479367 -1.408469 -2.884309 -0.0959294 0.57748944 -0.9282948 0.24739636 1.2088774 -0.044557076 -0.32021177 2.169495 -1.1906012 -0.8537572 1.4980922 -1.5780545 -0.17277397 -1.4484034 0.7118437 0.4324886 -0.6751237 0.32830462 1.6019737 -0.5650542 -0.045897763 0.061561536
2597 -0.7314126 -1.0812956 0.06602082 -0.1334671 0.3154424 -1.3085883 -0.17971301 -1.0645646 0.545233 -0.00096391345 -0.31414086 -1.0605234 -0.9451378 1.1035478 0.71653664 -1.9858348 0.77543944 0.65256107 0.57002866 0.047890823 -0.13261443 0.79073673 -0.4166729 2.0545106 -0.5967162 1.0798817 0.6572998 -0.9464457 -1.1940827 0.34576342 0.43915048 -2.3508956 -0.24132885 0.77405894 2.624876 0.04208838 -2.1915617 0.25277758 0.07745588 -0.94783396 0.4715355 -1.8763472 -0.4826044 0.47807547 -0.8339764 -0.36899942 1.3104721 -0.58896315 -1.2318732 0.46883985 0.08517516 0.3319331 1.3025187 -1.1406229 -0.53455937 -1.2881329 1.3019713 0.120937936 -0.33053064 0.9798508 0.5494472 -0.19539927 -1.8371329 0.6744185
2198 1.0448891 -0.4224747 -0.8965423 0.14006996 0.90255904 -2.5980186 -0.11723103 0.79051673 0.21368013 -0.7657024 0.18292592 -1.0641161 0.87803406 1.931564 1.4170437 0.83261585 -0.3547279 0.90001714 0.9911943 -0.97147316 1.5239047 2.1153386 -1.0479856 0.63674295 -0.638029 0.07807387 0.3938154 0.9764593 -1.4276323 -0.32025304 0.5847726 -1.3456267 0.5330091 -0.80645096 0.9720958 -0.5865984 -0.15709648 -1.1444105 -0.39664292 -0.44569236 -1.2626841 -0.8684437 -0.26599467 0.9286061 0.12652442 -0.06398222 0.9655946 0.7217733 -0.55708224 -0.20093617 -0.9211681 0.28986967 0.6676808 -0.6625898 0.27868527 -0.9928307 0.8220765 -0.5602016 -2.0038218 0.75974226 0.2815051 0.025537133 -2.380477 -0.31717277
1958 0.11845438 -1.6755391 0.15004486 -1.2123716 1.8867464 -0.2599477 0.32830918 0.46933812 -0.8126324 0.93804044 -2.3993058 -3.2035115 -1.0509828 0.43293118 -1.4514271 0.5695471 -1.0924902 1.1138594 0.0047914847 -0.4621548 -0.82981855 0.27789584 -0.086467855 -0.019182378 -0.03974826 0.39635897 0.8571443 -0.8095229 0.06989955 1.3570511 -1.511773 0.5394592 1.5399466 -0.51973855 -0.9591518 -0.17402084 -0.957693 0.5408045 -0.24430768 -2.61413 -0.9837099 -0.7850713 -0.0682856 0.8182642 -0.79801905 1.3423556 1.4503849 -0.37783533 0.17159124 0.72176945 -1.3365021 -0.99981475 -0.15094627 -0.52557415 0.07530929 0.4499277 -0.03717149 0.27825323 0.40797058 2.0573516 0.6001044 -0.17591062 -0.8762273 -0.020566633
2426 -0.13175617 -1.4287158 0.024932018 -0.049879257 0.4383527 -1.3765731 0.88517064 2.0184925 -0.104153536 0.42970493 -1.482439 -1.8467996 -0.65601027 -0.23463292 0.80197257 0.22535971 0.56131303 1.2300274 -1.1779997 0.46878526 -0.4966755 2.5937932 -0.75543344 0.7890337 -0.37245572 1.0452802 -1.2818439 -0.36090648 -0.511541 -1.3784671 -0.85892993 -1.7620692 2.4869385 0.084110446 0.9153204 0.42001724 -0.011869115 0.6096224 -2.2056088 -0.6680318 0.018244501 -1.8770739 -0.6873092 0.9547596 -0.062957056 0.6461093 1.1184827 -0.4374657 1.216796 2.2918477 1.51334 0.0951646 1.1271925 -0.39301857 -0.22443037 -0.73536694 -2.110931 0.062906206 -0.16672835 0.9787769 -1.2321026 -0.41705465 -0.40135223 -0.51733166
2357 -0.16291724 -1.1176224 -0.01597592 0.09456321 0.7849491 -2.1149998 0.08421955 0.59929055 0.49135596 -0.35482365 -1.9288931 -0.974763 -0.09451387 -0.6118346 -0.18290848 -0.22363102 0.29638743 1.9127499 -0.7365154 -0.34810442 -0.31304768 1.5690044 -1.282703 1.2861906 1.3499345 -0.9072407 0.85455084 0.28775173 0.35245505 0.34890702 -1.6228076 -1.4557402 0.019814221 0.7456308 0.5515585 -0.061395694 -1.1178467 0.6080874 0.900943 -1.4966655 -1.0513252 0.3007212 1.6099223 1.9208826 -0.28330672 -1.0868112 -0.08955443 -0.30424088 0.12594558 0.68639016 -0.8870388 -2.7816243 0.2142752 0.43017676 -0.5539742 1.1951271 -0.35962233 -0.09805442 0.11462409 0.7129095 -0.8431261 0.0254105 -2.5375617 -1.1154045
2475 -0.8030788 -0.64649767 -0.5155719 0.14874439 0.61763656 -1.1983519 0.70195895 0.33570358 0.19916447 0.77345884 0.36860082 -1.5351739 -0.9420048 0.6455499 0.5804423 -0.3004963 -0.054425202 0.5705266 -1.0283607 -0.9667106 -1.6344488 1.5588568 0.59218955 0.483746 0.38709676 0.9427259 0.10543404 0.7785666 0.9062857 0.36675492 -0.5697453 -1.5777643 2.1099737 0.078042075 -0.7186906 -1.7960752 -1.6374631 -0.001737487 0.295188 -0.6245803 -0.66959786 -1.809959 0.34727868 0.5772879 0.56988245 -1.0310409 0.7921381 -1.0138037 -0.42460757 0.560013 -0.25844675 -1.9258116 1.3069752 -0.17898375 1.8828517 0.5082076 -0.8287861 -0.037866425 -0.32318282 0.7631319 -0.42473045 0.9289618 -2.3390973 -1.8290058
2080 -0.5638781 -0.8768069 -1.3568281 -0.09681915 -0.92418134 -0.63504624 1.1910914 0.03004338 -0.12051477 0.8257339 -1.8427025 -0.4875302 -0.15759242 0.35805547 0.41346124 0.57897353 1.4959292 1.2151549 -0.79097694 2.6577013 -0.5952773 1.5397043 -0.2051051 -0.9028747 -0.2877648 1.9838347 -1.9548428 -1.3799808 0.5699608 0.17569709 -1.1311551 -0.7953691 1.7421184 0.50623435 0.8176842 -1.8012961 -0.95415634 0.2722911 0.21953647 -0.62587404 -1.4509995 -0.9632285 1.0259011 1.5574776 -0.8413067 -1.5068374 1.1263919 0.11971955 -0.5319174 0.22469082 0.27528456 -1.0543827 0.0088263685 -0.8177336 0.101094395 -0.99089223 -0.8883519 -0.51984775 0.16287957 1.1274542 1.0007056 0.22708984 -0.6401421 -1.1616546
2530 0.7539766 0.26493216 -0.35846695 1.123698 0.3049419 -0.32393745 -1.0764083 0.49666047 0.38276833 -0.10886009 -1.5755209 1.5836136 -0.9696398 1.5825 -0.18961222 0.120988235 -1.3748645 1.6710454 -0.8233825 0.36172023 0.40751493 0.8481627 -1.6472676 -0.3411914 -1.6579896 1.1133425 -1.0137799 -0.05228118 -0.17376834 -0.88011557 -0.67575026 -0.9429853 -0.5051687 0.11808813 0.9560881 -1.047621 -1.0291904 0.7780413 1.2057835 0.3919701 1.1993366 -1.2788099 0.25135782 0.2210968 0.65884453 -1.8733742 1.4955755 0.9434334 -0.89801466 -1.1724443 0.7876021 -2.2525063 0.27144432 -0.04416966 0.5674986 -0.1635259 -0.62202764 -0.34858167 -0.5744756 0.467696 1.3338698 -1.0092491 -1.702702 -1.9498934
1798 0.4975858 0.598133 -0.20825009 0.52069485 -0.28240696 -0.5131447 -0.10279468 1.4175752 -0.71352124 0.63090795 -1.1569421 0.27486488 1.1100056 0.1061558 -1.2577593 -0.018569553 -0.16939642 3.9607882 0.98723596 -1.0184492 -0.27153108 1.1166524 1.9539176 -1.762606 -0.379277 2.272021 -1.0074449 0.58501923 -0.01875936 0.17732239 -1.1418494 0.11617464 0.3029669 -0.38776934 0.7553365 -1.1810868 -0.70356435 2.2317827 -0.60841966 -1.2161045 0.82470727 -1.0356463 0.55970955 -0.2911036 -0.46608406 -0.46798187 1.6588677 1.0070599 -1.7461249 0.53560233 1.7225292 -0.95295197 0.23551892 -1.3071413 0.6117121 -0.20377287 0.13444632 0.56418777 -0.34360993 0.24073906 0.81620777 0.35005456 -1.2653748 -0.5349095
2495 0.41168022 -0.056790818 1.1009657 -0.47029084 3.1885266 0.7124643 -0.010276732 -0.51974654 -0.38991955 0.21748792 -0.1769007 0.41245815 1.2208855 1.3615059 -1.3877726 0.87413716 -0.8094054 1.6335953 1.3750644 -0.6696949 -1.0651709 1.7062683 -1.7376279 0.19445796 0.18522055 0.39690018 -1.3597553 -2.6344483 0.5185543 0.5088358 0.27073666 -1.4867811 0.17925149 -0.6549313 0.257002 0.3748643 -0.19030736 2.1081982 -0.70009863 -0.63326514 0.54907006 -0.49050263 -0.92728853 0.3441987 -0.4223548 0.46585554 0.96727264 -1.4830527 -1.5184897 -0.7601395 0.047805134 -1.5911885 -0.334371 -0.8756521 -0.37951612 2.2585547 0.022621889 0.01311407 -0.2978079 0.6488868 -0.38470584 -0.72765446 -2.1995475 -0.95742613
2651 1.6073147 0.29407787 1.0201591 0.16890015 0.29368144 -0.57119155 -0.5420489 1.9865373 -0.4674357 1.2790405 -0.23203002 0.26596642 -0.8294018 0.87637484 0.30363134 -0.017567711 -0.36335957 1.4110487 0.11659399 -0.48183742 -0.7137068 0.11905251 0.44525635 0.29956117 -0.7834214 2.1392658 0.32285023 -0.40111348 0.69525295 0.83302784 0.96811485 -0.64210194 -0.47429982 -1.2488528 0.836445 0.09381092 -0.826758 2.7208648 -0.6764308 -0.8530829 0.63109666 0.29943883 -0.9412904 0.1943563 -0.42762566 -0.16013986 2.804525 -0.13918841 -1.4745126 -0.6942394 0.5820348 -2.6200063 0.17618772 -0.9032082 -0.24213208 0.17837687 0.86788434 -2.3053133 -1.4883461 2.01367 0.80010986 1.0633489 -2.0784156 0.13396144
2576 0.8756091 -1.1591369 0.68439806 0.28232265 -1.0926961 -1.0048923 -1.73404 1.3629204 0.9758755 0.4700708 -0.94686913 -0.26683426 0.36923274 1.9194276 -0.017834704 1.6057769 -0.14961281 1.8979288 1.6406502 -0.07487333 -0.015400681 1.0697953 -0.9249656 -1.5596135 -1.1912665 0.92292845 -0.2883437 2.0156834 -1.260829 0.6407387 -1.6323678 0.04721716 -0.29914984 -1.1636357 -0.35571542 0.16699518 -2.3168902 1.750607 0.077719554 -0.28518015 0.11594402 -0.19569756 -0.8362202 0.32180038 -0.80281997 0.30132782 1.8450724 -0.3683191 -0.35375664 -0.32818675 -0.93115616 -1.502584 -0.89421386 0.842074 -0.11277209 0.26084322 0.7632844 -0.9756575 -0.993617 2.2853336 0.81277263 0.2580222 -2.3970692 -0.041790765
1828 0.6368371 -1.501597 0.5760078 0.60347724 1.686645 -1.4955512 -0.350244 0.08128072 -0.065537065 0.3217327 -0.72619647 0.53852785 0.32875684 0.4980558 -0.7037047 1.9834378 -0.18196091 1.1936988 0.78638506 0.36068726 -0.10727449 0.8003626 0.06943534 -1.320917 -1.3169916 1.0703913 -0.3699405 0.0029872737 -0.17804895 1.5803039 -1.0029659 0.044518296 -1.5182418 -2.7322955 0.42805845 1.2014261 -2.1481383 0.25190425 -0.5375791 -1.4724698 0.4396479 -0.45570406 -0.4691413 0.49815935 -0.4548183 0.77101535 2.4165952 -0.31753007 -0.85140127 0.5035468 -0.5701133 -1.6080177 0.31362548 -0.30079657 -1.0885239 0.3036661 0.9768292 -1.4235681 0.9357531 0.36472666 0.39815962 -0.38853642 -2.412785 0.6519458
2599 -0.5389823 -0.32564825 0.5178205 1.3828132 2.4025757 0.5274597 -0.9824717 0.96395534 -1.1327202 0.45475516 -0.29500693 -0.39441824 0.6280259 1.6937274 0.42343265 0.7579347 -1.5146376 1.0834475 1.0897261 -0.59478164 1.7673612 1.4155204 -1.8290225 0.1302642 -1.1968008 1.2850354 -0.13452697 -0.5192476 0.26999804 -0.4066414 -0.017998243 -1.3880033 -1.053956 -0.3238603 2.1228654 -0.8589002 -0.6075713 1.2521777 -0.8925159 0.28029263 0.7284772 -1.7741197 -0.27247572 0.05559809 0.7406739 1.920314 1.7871387 -0.7254704 -1.8295358 -1.3911574 0.08694531 -0.2110578 -1.0158745 0.34228992 0.021586947 -0.5345862 0.7263098 -0.7060515 -1.2769772 1.3954431 1.1918763 -0.3431742 -0.35720757 -0.5302263
2466 0.07578125 -0.46426153 -1.0837892 0.18050595 1.7872524 0.30674073 -2.6871035 0.96418566 0.92876214 1.5999656 0.011958602 0.81506836 0.028386308 1.0187315 -0.64980334 -0.093935 -0.5235924 1.2006066 0.19052897 -0.03612011 0.5953909 -0.6422586 -0.55838174 -0.9692631 -0.8041881 1.2979422 0.68727154 0.67309004 -1.0714581 0.19212058 -0.61581177 -1.6609789 0.78413814 1.2396526 1.073591 0.89382625 -2.0069396 1.3926826 0.9155805 -0.9841255 -1.4160874 -0.12772752 -0.81703883 1.5237521 1.5070297 0.3499719 1.309262 -0.10387156 -0.8195365 0.09372542 2.042494 -0.66598314 -0.013096894 -0.5692301 -0.40946516 -0.55921334 0.6151218 0.27408528 0.17646399 0.8358487 0.53145623 -0.53382903 -2.1503184 -0.027582278
2632 2.014187 -2.210046 -0.33666357 0.3267574 0.881038 0.59902835 0.12107903 0.36701068 0.88063455 0.730261 -0.86161333 0.53530157 0.2770182 0.58253455 0.092453755 1.3580735 -1.6624128 1.8009285 -0.0454075 0.21745178 -0.3073699 -0.81591165 -2.1328914 -0.37226984 0.29844084 1.7745309 0.6517504 -0.4924122 -0.089280225 -0.41765377 0.26406127 0.845532 0.19349568 -0.4910936 -0.35709864 -1.0935127 -1.2143388 1.2304622 0.24948074 -1.309747 -0.7728159 -1.6025958 1.0480478 0.29364243 0.38869295 1.4425232 2.53486 0.38102737 -0.5325313 0.099974416 0.19409545 -0.645956 -0.09826049 -2.7200851 -1.2302089 1.2087762 -0.02550263 -0.078131616 0.06090552 1.0625921 1.221359 -0.59491897 -3.172055 0.10765411
2540 1.9495856 -0.96902025 -0.278036 0.6066702 0.47654006 1.2257909 -0.008370194 0.12252269 0.89507234 0.9629492 -1.4917618 -0.67636186 1.7737932 0.6192485 0.48165157 0.90989304 -1.4124489 1.5997356 0.1704079 0.35709497 -0.9084434 -0.44625837 -1.9345782 0.5371001 0.19659682 1.8086958 1.1738255 -0.6690594 0.3287973 0.4155055 -0.8208986 0.61870223 0.19675083 -0.8546648 0.23857553 -0.7589855 -1.8522886 1.3215073 0.308809 -0.9765057 -0.49899873 -1.878205 1.637338 0.26009285 0.39066884 1.7409587 1.982828 0.19918877 -0.19414964 -0.5783235 0.6670415 -1.501235 -0.44440603 -2.1875882 -0.795511 0.91310287 0.18941624 -0.3819595 0.38522464 1.1119599 1.6673352 -0.5960052 -2.6010072 -0.87672323
2195 -0.042389542 -0.04790163 0.37948868 0.8259409 2.110616 0.61404115 -1.0406716 0.6464171 0.64611095 0.21261577 -0.8847919 0.3276317 0.4869632 -0.06360173 1.0033644 -0.44370046 -0.6158429 1.9762967 0.07457494 -0.2665154 -0.7396879 0.0008091743 -2.5456178 0.66915363 -0.78091365 1.4875611 0.12608215 -0.31621873 -0.7133297 -0.4496216 -2.0525177 -0.9298899 -0.5525849 -0.4468479 0.9658207 -1.573702 0.13810343 -0.25763696 -0.6681176 -2.2288234 1.0186383 -1.954357 1.4893218 0.012772827 -0.9278206 2.0559375 -0.20874356 -0.57899547 -0.09547206 -0.36930612 1.2181026 -0.6942153 -0.5828515 -1.7297204 1.0771929 0.18804044 1.3308794 1.2536644 -0.08380402 0.78327596 0.5691326 -1.0090573 -1.7845793 -0.20809758
2448 0.50345373 0.39591163 -0.5274523 0.3128142 1.8895257 0.83891714 -0.6921967 1.2328489 1.4240947 0.90724117 -1.0605042 -0.07771977 -0.6970727 -0.7494384 0.6341181 -1.1102437 -0.31223226 2.5760803 0.675115 -0.33982962 -0.0066663767 0.2358156 -2.4298992 0.54806614 -0.563777 1.0498902 -0.6091903 1.4083352 -0.63121814 0.2870962 -1.2197399 -1.0278292 -0.26345626 0.44156414 1.1116784 -0.12484735 -2.012934 1.240534 0.6527916 -0.93996686 0.5253897 -0.31158262 0.5275653 0.12246191 -0.8443233 0.6299589 0.53551376 -0.13791701 0.15241422 0.11583167 1.3027587 0.0732429 -0.5053098 -0.38938424 0.7132818 -1.1927986 0.6375958 -0.61441076 -1.8577594 1.3436915 2.005037 -1.1904852 -2.3269823 0.5317722
2096 0.15208407 0.10991923 -0.5281998 -0.11629458 1.0023718 -0.29972234 0.34283537 0.6952503 0.37890324 0.8831606 -0.947753 1.1842685 0.14189915 -0.27436942 -1.6465111 0.73787236 0.9624759 1.3648454 1.4214702 -0.18964384 -0.1330303 0.09450821 -1.6283907 -0.89743817 1.3351182 2.5417972 -0.37827137 0.68218166 -0.60453326 -0.3034744 -1.6952081 -1.3878056 0.03573876 0.45162162 1.2276754 -0.9574385 -0.67559266 1.5452689 0.92346036 -0.6873269 -0.8109032 -0.9970582 1.2276378 0.97148466 -0.74685335 1.6855613 -0.119907975 -0.41288462 -0.4799681 -0.3673951 0.054351006 -0.65531766 -1.0848634 0.44412145 0.1873882 -0.39193973 0.7949245 1.0879824 -1.4643307 0.033463545 -0.21451709 -1.796757 -2.1289055 0.058471482
2672 0.05068527 -1.341679 -0.7671703 0.6252941 0.97085446 0.11514526 -0.43848827 -0.06992274 0.33098298 -0.029584646 -1.5814853 1.2995855 -0.754192 -0.05877069 0.2580305 0.684186 -1.1610974 1.9615668 0.19857782 -0.18099327 -1.0302525 1.3677412 -1.3631514 -0.29335836 1.5954715 2.2580714 0.023023974 1.5380613 0.10229525 -1.1397934 -1.1699371 -0.18535359 -0.6477186 -0.3338524 1.1759961 -0.7874662 -0.5717744 0.91200763 1.6081886 -1.4586141 -0.4583765 -1.251799 0.23034391 -0.26616013 -0.34630457 1.1715884 0.24591647 -0.33230242 -0.64593637 -0.7302484 1.2370918 -0.14728329 -0.18864998 -0.188315 0.25070614 -1.4223192 1.0701046 0.04554397 -1.6594366 1.4614565 -1.1677476 0.042070273 -1.426956 -1.9435606
2642 0.92341334 0.5466137 0.037133705 0.9382487 -1.1715184 -0.50760293 0.9398893 0.24484356 0.14125714 0.6083743 0.2781257 0.8614492 -0.26890627 0.37745985 -0.950341 1.2027134 -0.41801265 1.7101108 0.43714517 -0.18392903 0.27579743 1.702236 -1.7894459 2.3054967 -2.088615 1.5166265 1.8362116 0.65842575 -0.11590781 1.0526348 -1.7451516 -1.8807435 1.6331036 0.3893877 0.6027213 -0.025071513 -1.2290304 2.5047083 0.9266997 -0.35926288 -0.5105216 -1.8127238 -1.1369098 -0.4908077 0.4701098 0.5189894 -0.51653594 1.310478 -0.14855158 0.054629628 1.0581307 -2.0106196 0.9219385 -0.47429654 -0.5482586 -0.86267203 0.3192422 -0.4782243 -0.039899416 1.3400513 0.52463186 -0.6761673 -1.6191478 -0.34594187
2673 0.42377573 -1.5873188 -1.2250624 0.60056424 -0.5944592 -0.3634855 -0.11344826 -0.8140411 -0.029367063 -0.61174595 -0.6275019 1.1199789 -0.7292779 0.1341566 -0.23990533 1.676248 -0.5825604 1.4347016 0.3953701 0.5969335 -0.94362366 1.9925344 -0.98269355 0.4362893 0.9683656 2.1774905 0.9577629 0.56244135 -0.020445526 -0.6661228 -0.13780478 -1.2343124 0.301192 -0.68510616 1.1848106 -1.0924348 -0.5655727 1.3688891 1.1370151 -0.98148113 0.1751632 -2.1219757 -1.9202368 -0.0028191481 0.84213537 0.7084493 1.0398997 0.07843236 -0.40390977 -0.7594782 1.595301 -0.29270378 1.080121 -0.57351613 -0.037095573 -1.7452453 0.6869029 0.07009256 -0.4243967 2.0167794 -1.991175 0.23930982 -0.56758535 -1.6798955
2447 0.795629 0.84028584 0.47829565 1.0213019 0.5570863 -0.4851245 -0.3304961 0.8832325 0.59899145 0.8531722 -0.17685382 1.747594 -1.0244693 0.03846985 0.442334 0.08331708 1.0331837 2.5073693 0.048851345 -0.07564693 -0.15212652 0.7003191 -2.3378582 0.4950192 -1.5864577 0.23799315 0.36613214 0.13994792 -0.50937104 1.1422404 -0.29794803 -1.5256943 0.7582091 1.3619448 1.205044 -0.67788404 -1.6696187 1.6670012 0.12696403 -0.0789496 0.044454154 -1.1088144 -0.11417339 0.44753918 -0.33804342 -0.6048701 0.6764607 0.6058106 -0.08647805 -0.7199194 1.9812341 0.9228928 0.07745292 -0.4912659 0.82122 -1.5976024 -0.42085424 -0.89194894 -0.6987335 1.6262133 0.9712056 -1.7032201 -1.6438569 -0.23076743
2637 0.7724355 0.43665937 0.7244025 0.3113918 1.3486097 -0.3232292 -0.05447895 -0.03808344 0.1627359 0.021701612 0.32898328 1.0743123 -1.4755133 1.1445322 -0.03671363 2.9838572 0.12916028 2.258688 1.6048263 0.45977134 -0.37808332 1.023163 -0.7003231 1.550643 0.22617048 -0.16978829 0.87853146 -1.1361914 -0.7038578 0.3264218 -0.4877324 -2.0459256 1.2290108 0.02559665 0.943916 -0.7177473 0.034886193 0.54191446 1.0160708 -0.41198757 0.35078117 -1.1671461 1.0783986 -0.5919817 0.2794097 0.6128467 1.2136607 0.75148946 -1.5125543 -0.050239637 1.2705678 -0.92488104 0.73414236 0.5840535 1.1305987 -0.6154263 0.86058223 0.4412612 -0.5735791 1.9762574 -0.6695159 -1.6281985 -0.32526937 -0.60848725
2140 0.51438063 -1.3462213 0.07897857 1.6693851 0.4478023 -0.32108498 0.14598854 0.77946967 0.13742913 0.20845248 -0.8012875 1.7768271 1.466438 0.66496104 -1.7006965 0.41332653 0.5599955 1.8858268 -1.2381728 -0.8545004 -1.7096041 0.3036434 -2.3606148 -0.45781356 0.25550592 0.13850218 -0.1378668 -0.19960353 0.021751504 0.37476417 -1.027949 -0.72427166 0.6898413 -0.9001463 1.5199051 0.08506192 -1.4268261 0.68550515 0.07906713 -1.0135087 1.1176558 -1.8028278 -0.38033432 1.6617242 0.5822855 -0.6934548 1.4453118 0.8091676 -0.55291003 -0.6175694 1.4961603 0.7507219 0.62760586 -0.75771505 0.82053506 0.22267863 -1.3729925 -0.4590604 0.8784197 2.6347225 -0.2876299 -0.682216 -0.65644795 -0.26069707
2668 1.0699674 0.101450816 -1.0147743 1.0001537 0.1837149 -0.31645247 -0.14344367 0.8805707 0.91213226 -1.0800124 -0.22213566 2.9922676 -0.8238424 0.44484377 0.22347757 0.71108866 0.60026777 0.8122726 0.78735423 -0.6359052 -1.8241802 0.14662898 -1.5947713 -0.30338636 -0.47650662 1.7661462 1.4148195 -0.1111919 -0.33506387 -1.5127504 -0.4771967 -2.3113668 0.21466245 0.08686201 1.2957833 -0.67930186 -0.72458 -0.5166781 -0.5290461 -0.1989057 0.114201635 -1.8246777 -0.53814185 0.069002725 0.430195 0.08424046 2.404543 0.12955156 -0.7540427 -0.05330712 -0.14532879 -2.1642563 0.25804576 0.05165402 0.012480986 -0.72752815 -0.11578282 -0.53177327 -1.2455626 2.698087 0.3644127 -0.5003367 -0.7187038 -1.298013
2387 1.1852288 0.028238373 -0.5016545 0.4727079 0.8758579 -0.851456 -0.9392007 1.4473664 0.3473266 0.060836148 -0.2751927 1.0885211 0.8455735 0.44245943 -0.8628783 1.9133621 -0.2997489 1.3787038 -0.26904732 -2.6905122 -0.36647335 0.79591095 -0.53576404 1.5247767 -0.25110722 1.9037691 -0.021992993 -1.1608163 -0.2892212 0.77700907 -0.8191572 -1.4984727 0.2595579 -0.1396449 0.40549922 1.7065288 -1.2557559 0.9114555 0.08204325 -0.95729125 0.5475337 -2.013131 -1.0987442 0.24569517 -0.10528571 1.5995077 2.00796 1.7611058 0.25500643 1.3204669 2.2334702 0.056703527 0.8815552 -0.015453578 -0.17382692 -0.9403468 -0.17282654 -0.7962044 0.016078945 0.2381329 -1.4662842 -2.1892962 -1.0955113 -1.7521307
2412 1.1071658 0.32567173 0.18548325 -0.041031484 -0.18864368 0.12477386 -0.23095623 0.30546513 0.020546328 1.5006162 -0.1708481 0.787156 1.3718472 0.077265695 -0.49282846 1.0335954 0.35121918 1.4692463 2.0412142 -0.12105244 -0.75308424 0.3277955 -1.198818 0.21399373 0.695922 1.0054847 0.43992254 -0.70377105 0.37219262 0.305777 -0.56411356 -1.3242118 -0.91743267 -0.68454164 1.7549121 -1.1392615 0.29992068 2.0589807 -0.5352794 -0.5048515 -0.1034502 -2.0727632 -0.16085038 1.0284154 0.20489778 0.41214556 2.2962115 2.4920893 -0.28629354 -0.20609102 1.4175881 -0.01600249 0.7795793 1.0624871 0.59642166 0.03758066 -1.2562993 0.44968963 0.73843914 0.5814716 -0.12765507 -0.83495706 -1.5377961 -0.39286998
2407 1.2756447 -0.5286371 -0.4614692 0.08126561 0.01060712 -0.04985825 0.09353988 0.6363106 -0.6073768 0.42494065 -2.2738464 1.0267491 0.04929699 0.31068954 0.5144826 0.4816351 -0.46517837 1.4124677 1.023119 1.0700749 -0.48514456 -0.036537368 -0.16513442 -0.32304484 -0.19031201 1.1703048 -0.151508 -0.3232869 1.9157813 -0.47268438 -0.5956522 -2.6045272 0.17258506 0.32547614 1.2682024 0.86003745 0.27340737 2.3460176 0.8918752 -0.3520567 0.33705455 -2.4926417 -1.9544553 -0.13688235 0.07005837 -0.47585624 2.298922 1.8996313 -1.1567634 -0.066381805 0.96372664 0.4323021 2.6403635 -1.3984194 -0.17406356 -0.18446645 0.966786 -0.32315278 0.34813696 1.1823745 0.43369642 -0.8120819 -0.98617935 -0.44118625
2324 -0.4784377 0.6999319 0.700939 0.24019207 0.8617561 -0.0037187792 -0.32995087 1.6127876 0.6673304 0.8609595 -1.2346122 1.5371696 1.2751306 0.33945072 0.50888026 0.5311539 1.1392212 0.8529342 0.20204839 -0.5217498 -0.5593442 0.874872 -0.5613415 1.0314261 -0.70438296 0.24924605 0.59128404 -1.441928 -0.28767332 -1.1993891 0.020804157 -2.155336 0.5782427 0.16193298 0.8456933 -2.4595523 -1.531516 1.1938003 -0.43460843 -1.6677215 -0.10065671 -1.3363389 -1.5455811 -0.15454261 -0.8265432 1.5885348 0.7422617 -0.63910043 -1.1760613 0.7492885 1.6675526 -0.28463927 1.4452733 -0.30000007 0.022035722 -1.0740888 -0.31818724 -1.9090278 0.00039746467 0.035202317 -0.16082564 -1.334538 -0.58248454 -0.2378919
2296 -0.23140122 0.5284976 -0.30413303 0.33005077 -0.8055039 0.04583989 -1.0679588 0.90057063 -0.59328926 0.07809854 -1.2578114 0.8411318 -0.41736847 0.46691567 -0.14909528 1.6819605 1.6442156 0.73567253 2.255741 1.0628538 -0.4645281 0.39081472 -1.873618 -0.2431731 -1.251709 0.8649112 -0.25098673 0.104387894 -2.0001044 -0.8439827 -0.6446252 -1.246658 -0.42321903 -0.81934816 -0.012820154 0.80120575 -1.0797213 1.7260025 -1.3186334 -2.923162 -0.10820526 -1.0869561 -0.6179721 0.6772675 1.1673397 1.1532681 0.8415378 0.66397214 -0.5757529 1.6761403 0.8266288 -0.65276194 1.6201732 -1.2464348 0.47222045 -1.9505483 -0.20731223 -1.6866388 0.57084346 1.3245957 -0.27040306 0.008803558 -1.4509522 1.5317903
1789 2.0218298 -0.8482586 -0.95853645 -1.1142639 -0.88932043 -0.26512685 0.37090105 1.290551 -0.7443664 0.15014344 -0.70837355 1.6554456 0.20581983 0.05441736 0.44256496 2.384338 1.8083118 1.9704623 1.3851767 -0.032405782 -0.96490645 1.0561495 0.45673198 -0.08415718 -0.0007666946 2.5327847 -0.811231 -1.0749303 -0.09673866 -0.15506876 -0.04833074 -0.4239024 -1.015611 -0.027067699 0.6755506 -1.1289157 -1.3387836 1.4237368 0.9403665 0.12867092 -0.467781 -1.9426507 -0.7038927 -0.3167157 0.725358 0.89803445 1.4217663 0.37880403 -0.033516943 0.56793505 0.4917622 -2.0913796 1.4036813 0.015191199 0.48607865 -1.6312468 0.6487728 -1.34715 -0.13952807 0.36863625 0.7602725 -1.0550717 -0.26121017 0.07330203
2325 0.13830537 -0.08931772 -0.34675667 0.87795216 0.83771735 -0.9865926 -0.71078634 0.85058004 -0.6041205 1.1930828 0.041007254 0.06933668 -0.0039209197 -0.29362476 -0.04892685 1.596179 1.1963702 2.0567195 1.6997975 0.95884824 -1.1825213 0.53092295 -0.36254087 -0.06003206 1.4673251 0.5587626 -0.7400725 0.27819124 -1.0720841 0.1743702 -0.5884791 -1.3043437 -1.33263 -0.32825318 0.40948 -0.5216844 0.29360867 3.5130866 -0.44125262 -0.62530494 -0.8880404 -1.5496429 -0.75575185 -0.4984308 -0.3901944 1.0580617 1.34555 0.5854915 -1.7851583 0.55127496 0.74625325 -0.4269652 0.15576251 0.62392455 1.0960014 0.8857734 -1.5244073 -1.0500059 0.17893416 1.0487125 -0.8620668 -0.40087092 -0.8755675 0.35528964
2683 1.282219 0.22066256 -1.3336005 0.8135341 1.6611781 -0.23138167 0.6283309 -0.31894392 0.123770036 -0.4999923 0.3841658 0.5563648 1.1790969 -0.4896768 1.8014641 0.902675 1.4517736 1.3626002 0.12384442 -0.3496728 -1.4306232 1.1136932 -3.0533001 0.82035536 0.91099375 1.2792126 -0.44866467 -0.027117604 -1.3578583 0.4859826 0.50466156 -1.609093 0.079813644 0.4522518 0.39221263 0.25084496 -0.61909425 3.3454423 -0.6269523 -0.41889545 -0.17659187 -0.9797457 -0.33087337 0.85906994 0.82184714 1.8273759 1.5628473 0.8010998 -0.77106494 1.064737 0.253154 -0.7837292 0.1875207 0.4657794 0.6821046 0.104964174 -0.5763559 0.14130078 0.68021244 1.6624405 -1.4664881 0.67687863 -2.0015209 0.38631636
1976 -0.73176765 0.032301802 1.1964339 0.02230413 1.052596 1.1738937 0.5001944 0.4845062 -0.3069988 2.0248468 -0.45501658 -0.26912275 -1.2931008 0.6185572 0.39222863 -0.24254178 1.4847121 0.0071451003 1.5045861 -1.0740663 -1.0179625 1.0642592 -1.2347172 0.67046005 -1.4443672 0.834402 0.7034192 -0.02628413 0.5948737 -1.2505816 -0.83738047 -1.0005077 0.13820578 0.15439706 0.5164493 -0.8438609 1.5600426 1.3727783 0.088307776 0.043388806 -0.7947947 -1.4825432 0.5765846 0.5050141 -0.14197649 0.87279093 -0.09427389 0.023006232 -0.15931988 0.72079164 2.1241493 -2.5526075 -0.3725239 -1.745046 0.29744324 -0.84265983 0.7937795 0.86232126 0.87912446 2.5451152 -0.2828923 0.7299285 -2.38202 0.94655895
2408 -1.1917677 -0.3817654 1.225143 -2.0591059 1.1425897 1.300758 1.8248355 1.0354328 -0.6247234 1.2165139 0.8783703 0.37117076 0.2020911 1.4925182 0.24576502 0.17218588 1.0143284 0.70209557 1.941965 0.07600021 0.26382 2.517419 -0.46892598 0.13737114 -0.8462053 -0.29300994 -0.30189922 0.58426195 0.7311695 -1.5832442 0.12298331 -1.2343884 0.44272217 -1.3696474 1.195182 -1.7471148 -0.7144579 0.75208914 0.20239346 0.26442003 0.26320556 -0.4662956 0.93412477 1.1468762 1.1110405 1.0846498 0.6871395 0.889575 -0.6430336 0.14932133 1.1990559 -1.700737 0.4024072 -1.0892487 1.6482447 -1.0842763 -1.0074236 -0.30016857 -1.5347534 0.8860404 0.5914175 0.4769084 -2.278492 -0.42475224
2235 -0.96596605 -1.4496275 0.5755225 -0.77596813 0.49353164 1.4696041 0.54243463 0.7584253 -0.8898409 1.0410397 -0.29970616 0.780347 -0.6245445 1.492545 1.331514 0.79475385 -0.38439494 0.48295733 1.729629 1.204549 0.17530589 0.7717063 -1.4984455 -1.545691 0.99943316 0.15406261 0.28125775 -0.41561913 2.013835 -0.9559112 -0.67272866 0.11646924 0.44079885 -0.48063466 0.13316037 0.8545368 0.5014378 0.67883646 -0.6858021 -0.9235505 -0.828058 -0.84103775 -0.03563964 1.1247524 2.1530473 1.5249732 1.586246 0.5803525 -1.4374721 0.68854403 1.8184853 -1.6842142 0.5121967 -1.4113253 1.5117252 0.43290076 0.5310554 -0.15277663 0.49986947 1.0104783 1.180552 -1.3817707 -2.172767 0.091908045
2106 -0.8101604 -0.62600446 1.5029038 -0.27152526 0.39967126 -0.1339901 1.042471 2.7470696 -0.5749577 1.7333665 -0.21003829 -0.030838614 -0.8795529 0.4780138 0.4827894 -0.6323256 -0.14837925 0.4107264 1.5477095 -0.87082916 0.8262002 0.590612 -1.1275748 -0.5624998 0.45924684 -0.77360857 -0.3688985 -0.786894 -0.30148354 -0.43863833 -0.40898016 0.0832671 1.1623707 -1.0979425 1.9214919 0.5251453 0.08752964 1.2113299 -1.2221515 -0.8575822 0.63698125 -1.1465673 0.07626458 1.042801 -0.46788403 0.11788157 0.7293658 1.705849 -1.4211504 1.533369 1.7938671 -0.7135262 -0.10560195 -0.87903005 1.1368722 -0.6118913 2.0076883 0.32321072 -0.57933366 0.27201787 2.1463034 0.42223242 -2.1195533 -0.18508208
2126 -0.97911566 -3.3502274 0.19722314 -0.01980145 0.12073699 0.6684959 0.13372868 1.2613939 -2.5781615 2.282645 -0.3331438 1.1123813 -1.2839191 0.63910615 0.3552516 0.20963559 0.8688132 1.349266 -0.087621495 -0.32686052 -0.31623688 1.2055503 -0.94605684 0.20253032 0.5233062 -0.6262741 0.3911628 -0.55649036 -0.24645485 -0.38329694 -0.15580288 0.110618636 -0.37572446 -1.7952944 -0.49742612 0.48097312 -0.1487356 1.2686242 0.60682786 0.88232297 0.01771336 0.28928584 0.45978087 1.6002984 0.46666005 0.65069836 0.35635817 0.12857263 -1.309903 -0.064150125 2.1947567 -0.8138786 1.191588 -0.74206346 0.23263381 -0.6844398 1.3228016 -0.92789996 -1.137196 2.3269725 0.4593267 -0.24783967 -1.2069142 -1.4679743
2582 -0.47137845 -1.2900925 0.20827866 -0.6775574 0.94789547 -0.37430343 0.51483005 0.9191402 -0.92832315 0.13760014 0.4179091 0.7116642 -0.054683853 -0.0049840994 -0.008300929 0.020736486 1.0851806 0.56837666 1.8226011 -0.55858254 -1.0553316 -0.20715137 -1.922696 -0.21346533 1.2161806 0.4678592 0.26710317 -0.6400336 0.27452573 -1.2693701 -0.31308934 0.62038696 0.9540265 -0.30853653 1.3853596 -1.3530914 -0.8657062 1.0551219 -0.09835949 -0.20328167 -0.602535 0.5054324 0.5852303 1.2149858 1.1538435 0.6762123 -0.06812283 0.88963044 -1.1582826 0.69475895 0.08782665 -0.54978955 1.6496755 -0.264418 1.1174952 1.0189227 0.68728215 -1.0114427 -0.14575548 0.92502254 0.9708241 -0.3908625 -1.4435618 -2.1846433
2317 -0.6822972 -1.3133912 0.34991765 0.42753652 1.0063505 -0.6550791 0.36177063 1.0095432 -0.95190114 1.1336627 1.783027 0.58943367 -1.3843555 0.9623837 0.6484623 0.70937264 1.1089897 0.19892359 0.4959586 -1.986065 -0.62124157 1.2008245 -1.160726 0.19144803 0.29210007 0.29878488 1.2405494 0.8126016 1.0055333 0.14100954 0.18148856 -0.6917624 1.494491 -0.58781993 1.1941329 -1.329406 0.0008464757 0.9395916 0.28359893 0.47399393 0.25211176 -1.0506561 0.27509597 0.16975309 1.2777419 -0.4272261 1.4655536 1.1527005 -0.70555687 0.41200283 1.8874482 -1.4647909 -0.11518806 -0.6744313 1.7854737 -0.43253922 0.4471476 1.0461195 0.1387624 1.7761441 1.0168215 -0.35790014 0.18270516 -2.0540442
2535 -0.9101489 -0.65886253 -0.9520991 -1.1098602 -1.0602387 -1.5278174 -1.2865273 2.2290637 -0.9131849 1.4945874 -1.2363923 0.22204657 0.062103868 1.6063625 -0.46403435 0.6885721 0.80139995 -0.6933035 0.7208816 1.3128345 -1.2311734 1.6728247 0.0479799 -1.1812608 0.92530274 -1.0417879 1.137543 0.18849859 1.1934512 -0.15281005 -0.6552142 0.049765583 0.6542933 0.19951317 -0.22657372 -1.4113165 0.3481912 0.76141846 0.57543844 -0.21465653 0.09564125 -2.1403663 1.0814285 0.55600566 0.7856514 -0.15406892 0.52300864 1.360389 -0.5860067 1.2120893 0.21053134 -1.994275 0.1457151 0.061731875 0.38844264 0.43018356 -0.63895893 -0.13241802 -0.010797603 1.5636969 -0.95550585 -0.8020145 -2.4523067 -1.7271963
1653 -0.8283014 -0.6236165 -1.5040373 -2.7396638 0.5002309 -0.3686712 -0.7939484 1.5628844 -1.1626934 -0.6883238 -1.3343207 0.011197078 -1.3459576 -0.20083174 -0.410706 0.32272387 1.4563724 -0.13967255 1.0063871 0.83535486 -0.023666965 0.84244126 -0.9709562 -1.5868175 0.073299974 0.36942127 1.3175275 1.4612176 1.347355 0.1328329 -0.2661891 -0.9291095 1.1536367 1.0161647 0.5108572 -2.5906386 0.12393353 2.156777 0.45952418 -0.09244347 -0.3315136 -1.3067375 0.38116896 0.17865281 0.06681011 1.6967862 1.8811718 0.81898916 -0.78967184 1.7965052 0.20472468 -1.236597 -1.1379864 -0.4317996 -0.110407114 0.6353815 0.42750174 -0.5702976 -1.7810154 1.5618496 0.53204757 0.17825893 -2.396515 0.36590615
2063 0.19228257 -0.6826522 0.22461219 -1.7094533 0.5735362 -0.35309175 -0.076512665 1.447559 -0.27969137 1.469519 -0.36648142 -1.1604601 -1.16721 0.030064167 0.49233824 0.071110636 1.0400252 0.71976584 0.8860272 1.1856172 0.9714092 0.80323416 -1.559307 0.40431327 0.33170304 -0.7545742 -0.00092255947 0.98321676 0.2976304 0.5281394 0.30809703 1.3157113 -0.5916814 0.053917386 1.2762332 -0.59801704 -0.17927091 2.1028523 -0.07346157 0.099225715 0.9020123 -0.79783696 0.59283817 1.2154536 1.4929637 0.7899399 3.366833 0.99586445 -0.6209665 0.044179566 -0.21676853 -0.049068194 0.44503877 -0.50704926 -0.44998145 0.5781502 0.035104595 0.39788884 0.27331415 1.6378351 -0.28012913 -1.0232855 -1.7930048 -1.577182
1763 0.8678591 -0.05472638 0.16303068 -1.3536801 0.096766405 -1.0730363 -1.3171105 1.8801466 -0.111153096 0.44961783 -1.1094975 -0.8855349 -0.76427555 0.21167754 0.5059143 -1.3450066 1.1442165 -0.22170733 0.21593198 -0.13577487 1.4015762 0.7852442 -1.8113892 0.044291243 -0.31399623 -0.05614366 0.248398 -0.3579833 1.4440461 1.2627628 -1.1246804 0.4639562 -0.1354522 1.1315304 1.567999 -0.85869753 -1.0157076 1.9186677 1.2338316 -0.4462425 0.2675574 -1.0330901 -1.1228454 0.18712138 1.3097756 1.869348 1.2317349 -0.40893233 -1.2376708 0.6146309 1.0698249 -1.9652753 -1.0540682 -0.8834145 1.1580532 0.04683076 0.16700551 0.5169871 -1.8751785 1.041926 1.5929285 -1.0952042 -2.272715 -0.7615147
2200 -0.07841458 -0.36446318 0.36664757 -1.3702499 -0.4170278 -0.47772667 0.02545893 1.3501585 -1.3820858 0.031744342 -0.81809205 -0.5510413 -0.95212775 0.13119474 -0.38572356 -0.70708627 0.9518652 1.4511673 1.096132 0.2669549 -1.069685 0.102383055 -1.691623 -0.3224284 -1.6284975 -0.44410795 1.3431674 0.50398177 0.6172505 -0.8945456 -1.0646635 0.870389 0.62604654 -2.0040126 -0.49122608 0.059581053 -0.10906835 -0.24137117 -0.046823204 0.4183148 1.0216187 -2.848415 -1.1161803 0.83761346 0.97651243 0.58570796 2.3857155 -0.121604025 -2.8230076 0.15804483 0.53989756 -1.466171 0.6762291 -0.48017165 -0.04400627 -0.15237798 0.19625854 -0.8838641 -1.5466491 -0.3632782 0.755306 -0.0803497 -2.2613556 -1.3708467
2232 1.8056523 -0.6969026 -0.08680488 -0.2695817 0.024263293 -0.66215104 0.9094062 1.4279548 -1.0755126 -0.5020588 0.5297611 0.010805741 -0.22887588 0.7496588 1.3528093 0.098273754 0.9827338 0.5860989 0.6016836 0.08815713 0.58814836 1.0229051 -2.511976 -1.243098 -0.95281136 -0.5380964 1.285823 1.0489517 -0.13378657 0.15530103 0.49085134 -0.19556315 0.2164093 -1.0596021 0.59940577 -0.8754154 0.916359 0.3310552 -0.2651816 0.004908618 0.93391013 -0.73947656 -1.1972275 1.3403814 0.04232508 0.34177777 0.9993214 0.7716564 -0.5668564 -0.24018514 0.58092374 -0.958247 0.29742083 -1.2886727 1.0298359 -0.0378395 0.82280076 0.1514361 -2.2605083 1.031754 -0.5597031 0.3743909 -3.5381424 -1.6866765
2364 0.8965601 -0.9834877 0.44301116 -2.26266 0.79434973 0.7083468 0.6386224 2.5679667 0.1886279 -0.46911636 0.7175798 0.8825089 -0.68759966 0.48320377 1.4772447 -0.8491845 -0.41555375 1.606633 1.6144986 -0.2028982 -0.65648425 1.1965611 -1.935927 -0.49724212 -0.7961523 0.86291903 1.828033 -0.100303896 1.0432239 -0.2606116 -0.20195746 -0.10119681 1.8134131 0.19671893 0.76645035 -0.3557127 0.732521 1.3173115 -0.46098915 -1.1969765 0.96083844 -0.6887563 -1.0438368 0.9334506 0.18016523 2.1153948 1.3971382 -0.33002648 -0.1262694 -0.10580011 0.2890101 -2.0022902 0.30250216 -0.98590773 0.55563104 -0.13197818 -0.28705147 0.49712026 0.32426512 -0.68805766 1.0848022 1.8266319 -1.6054556 0.034359742
2295 -0.5459176 -0.6894211 0.115237765 -1.0813211 -0.23557581 0.16263281 0.5892184 1.7108147 -0.5126779 -0.14178947 0.254882 -0.81539786 -2.092982 1.7952625 0.89220154 0.99877864 -0.66111946 0.69200784 1.9989554 -0.5792558 -0.59597075 0.89383006 -0.94308746 -0.043440107 -0.64628565 -0.6258869 1.1123166 -0.24923955 0.25336796 0.29996476 -0.00019193819 -0.28674483 -0.4748031 -0.6428841 1.1269875 -1.2991091 -1.1022031 2.4114668 0.56904703 -0.40975493 -0.49950975 -1.388255 0.4557803 -0.27249599 0.55433035 1.077784 0.22482575 -0.10328636 -1.3152287 1.6275167 0.7889002 -1.5450993 0.77654654 0.08469025 -0.41524005 -0.22102858 0.9744207 1.3441242 0.8600527 0.77788377 0.002541514 1.215357 -0.0066259773 0.031408656
2294 0.07981062 -0.29951626 -0.07140932 -0.49434698 -0.107773274 -1.0012847 0.7806178 2.2486155 0.0062771044 -0.43929175 0.11820274 -0.05985021 -1.8619442 1.3104843 1.0449381 0.42977983 -0.6142216 1.2258812 1.7549249 -0.3724551 -0.31716582 1.2261379 -1.0842265 -0.34487593 -1.1705568 -0.8650831 0.7004416 0.7149181 0.62417006 0.97047764 -0.31910366 0.3073039 0.27770498 -0.11612272 0.5576094 -1.1081908 -0.021974845 2.6045148 0.61513597 -0.23993833 -0.8709883 -0.08648859 0.31602573 -0.20422006 1.4359647 0.63622326 0.4840594 -0.24078819 -0.3179369 1.0627512 1.4085202 -1.3696138 1.6153718 -0.004176206 0.9972766 -0.7290622 1.8012439 1.0717455 0.5620737 1.5474372 0.34037772 1.1096952 -0.28007057 -0.13630371
2396 0.099133134 -2.0169983 -0.2029476 -0.9749115 0.94284785 0.83939606 -0.29599562 1.2771184 -0.3709747 -0.32101354 1.1934223 -0.3383843 0.24978586 0.26410952 1.164963 0.7043945 1.1040531 -0.2723985 -0.23292594 1.253829 0.30570388 1.6363846 -1.3642995 -0.76563025 1.4386545 1.5884353 -0.4218324 -0.19550179 -0.42101818 0.013837717 -2.9310684 0.8738471 0.1711024 -1.0646229 0.8582531 0.7551739 0.32157648 0.046386983 -1.3006613 -0.5595272 -0.43111974 -1.9785091 0.060767498 1.2370598 -0.67217314 1.7162126 1.3618714 0.30682588 -1.2089196 1.8270682 0.34401602 -1.9221497 1.6415061 -1.5045136 0.73001665 -1.0314263 -0.25095612 0.30335605 -0.2913142 -0.04426935 1.3735267 -1.886319 -0.28251287 -0.5899798
2458 0.6197889 -2.5955303 -0.49767202 -1.2287725 1.2369767 -1.8293653 -2.2182863 0.6338124 0.15705998 0.39780962 1.5639485 0.73793995 1.0832705 0.75258476 0.4045812 0.0081752995 -0.37033135 1.0728785 1.3985405 0.40219608 -0.3147886 1.9553767 -0.7106851 -0.8669629 -0.43462288 0.93685126 -0.14839602 -0.74707156 0.75854594 0.37283525 -1.3687459 -0.36613494 -0.3245796 -0.42830217 0.9755414 0.68375015 -0.3718748 -0.31571883 -1.4911973 0.957048 0.022771167 -0.85784906 -0.08306141 0.9068864 -0.8752059 1.3999039 1.0849392 0.05583701 -0.93122315 1.5734271 1.248596 -2.946167 0.10286908 0.09777987 0.40464124 -1.1360528 0.16473539 0.48603085 2.1112566 0.8008414 0.6852796 0.04688306 -1.6880324 -0.46462587
2019 0.21233329 -1.4107094 -0.46433696 0.64728266 1.1921178 0.26654437 -0.6894776 2.2445002 -0.66189635 1.1133071 1.0885519 0.53023475 -0.1344391 0.6774177 0.61596745 0.9495202 0.88749874 0.5868414 0.30947465 -0.4454561 1.4910313 1.2558827 -1.849266 -1.8880621 0.10017972 -0.6186376 -0.60111296 0.1646346 0.07847082 1.6709855 -1.6298877 -0.309675 -1.5171796 -1.1058432 -0.7741188 -0.36867133 -0.12101939 0.05951335 0.270508 0.31388354 -1.8200064 -1.0313048 1.0033735 0.28892985 -0.5931951 1.2250886 2.4921563 -0.8174832 -1.2187328 0.62853533 0.68898857 -0.7618259 1.1293133 -0.122968 -1.1776986 -1.3661708 -0.3546067 0.19727877 0.9008278 0.48684597 1.8275275 -0.9849727 -1.883898 -0.6547875
2258 -0.7623025 -2.0023227 -0.46361434 1.946582 0.3004441 -1.3957832 0.7504623 1.9112743 -0.6703641 -0.3083785 1.3815072 0.79381 -0.69061804 0.037166916 1.056006 0.146934 -0.33429092 1.4244727 0.5419215 0.33577043 -0.15818033 0.31151688 -2.634537 -0.18194166 -0.04445289 0.27470833 -1.6657892 -1.6792345 0.45010042 1.0662941 -1.0464451 0.23403026 -1.3082013 -0.7235098 -0.6919758 -1.5195726 -0.41056517 0.9181137 -0.5582473 -1.0290489 -0.77130437 -0.43705547 0.29311433 1.040642 -0.71528864 0.25097293 1.1607027 -0.56740326 -1.3676853 0.5714134 1.7885653 -2.7273028 1.0734271 -1.4168938 -1.3541877 -0.8333579 -0.45359427 0.43553293 -0.20916192 1.1614432 2.34204 -0.57473606 -0.6476357 -1.5408994
2614 0.22798678 -0.43011513 0.27046743 0.37739646 -0.05317669 -0.8352039 0.18850373 2.0355399 -0.13087542 -1.4285074 0.09684263 0.9831826 -2.1550765 -0.42796922 0.01666914 -0.91430825 -0.07733241 0.7211673 0.5333239 1.1124588 -0.48445445 1.7297056 -2.1313975 -0.41863632 0.12045314 -1.622275 0.08224183 -1.2031754 -0.01797913 1.3425853 -2.01534 0.22090827 0.2263374 0.35335532 0.34515125 0.30036837 -0.39139104 0.5351969 1.5000219 1.2715014 0.075903125 -0.510747 -0.15969789 0.86502576 -0.6959489 0.048419237 0.57880217 0.0041881427 -0.892932 1.4475387 1.0175697 -2.0286632 -0.056543823 -0.48295197 0.5259445 -1.6815027 -0.87183386 -0.23733172 -0.84067065 0.28344625 2.1281908 -1.2035096 -2.473885 -1.1438633
1837 0.53914225 -0.6637211 -0.11242378 1.1349427 1.3383887 -0.70602185 0.3567417 3.1192803 -0.24342287 0.26960355 -0.03248617 1.493949 -0.3888429 0.6558255 1.1444283 0.022027154 0.7959683 2.1830611 0.72506094 1.2905641 -0.15181565 1.9059998 -1.1867703 -0.48099926 0.71495605 -0.8694968 0.52830434 -0.947442 -0.590883 0.16280797 -0.5474558 1.2478127 -1.6525344 -0.5713241 0.18564296 -1.2956266 -1.5035789 1.6296862 -0.6117779 0.97950083 -1.0004638 0.15908004 1.0229384 0.71304363 -1.5831023 -0.030452328 1.7995031 -0.7164669 -1.8192317 0.44224843 -0.58020043 -2.6652057 -1.4085602 -1.476984 0.24705736 0.1269305 0.044707045 -0.08445491 0.11859003 0.4430821 0.38148108 -0.031506192 -1.5405694 -0.2246536
2543 0.23356085 -0.17055866 -0.5418736 -2.0298324 0.4936682 1.3284384 -1.0173799 1.1682631 0.20522857 -0.72794366 -0.5938602 -1.2249572 0.1058821 1.0532471 -0.061125576 0.011901702 0.8827747 0.019630007 0.78736824 1.1069962 -0.33802187 1.7523676 -0.71751726 -0.2967533 1.5462853 -0.38741687 -0.09006588 0.5181889 -0.06796981 1.5632749 -0.15906353 1.5810889 -0.2087223 -1.6283108 1.2365184 -1.1499165 -1.0214437 0.8328855 -0.90489745 -0.93375266 0.06765705 -1.1654292 1.274424 0.80894303 0.13856371 1.8686378 2.6604223 0.7337413 -0.589532 0.522924 2.148821 -0.53847605 -0.15416238 -1.4061903 -0.78307825 -0.71899885 -1.1898323 -0.67441547 0.50358415 0.71558595 -0.3643886 -0.47882795 -1.6766506 -0.083761714
1908 -0.86949176 -2.1303115 -0.5891807 -1.2379667 1.5607673 0.25773764 -1.4477625 2.1561074 0.052000176 0.16892478 -0.45073527 -0.1529809 0.027164971 -0.53827953 1.0826064 0.5842899 0.39459375 0.15436721 0.9338171 -0.3643714 0.45308957 0.35002276 -1.235717 -1.1407163 0.8480677 0.13675515 0.24401447 -0.42360985 -0.04260823 1.7197037 0.24382229 -0.1551294 -0.7563885 0.56490934 -0.050649658 -0.80445904 0.6006724 0.2270396 0.76976365 -0.9239843 -0.4037894 0.46696883 -0.99986726 0.8046611 -0.39715654 0.07627304 1.5151691 1.5007967 -0.5877503 1.952128 0.7723832 -2.0464406 0.7975295 -0.93238974 -0.77965987 -2.1185958 -0.5631296 1.3823344 0.6643234 0.51103973 0.2938676 -1.1882584 -2.336999 -0.12393045
2418 -1.2565826 -0.8160878 0.2581559 -0.37569162 1.5855774 0.74934274 0.047204595 1.618561 -0.1875769 -0.5039094 1.4346559 0.4160625 0.040830605 1.7526667 1.7601019 0.6741231 0.7092279 0.9730198 -1.2676557 0.6688793 0.5409078 0.4085768 -0.55982304 -0.90190476 -0.3353275 -0.5200356 -0.47517103 -0.25668004 -0.85562307 0.34469944 -1.2818377 -0.9400815 0.39709002 -1.8561884 -0.8262775 -0.05518978 1.053386 0.786555 -1.8729167 0.7665011 -0.9285107 -1.501939 -0.13299678 2.0669088 0.99651736 0.3099609 1.450958 0.39209408 -1.8342265 0.37606183 2.3198876 -2.1152167 0.404651 -0.3131893 0.5095762 -2.14587 -0.95631176 -0.5295573 0.025917917 1.4770666 0.4788208 -1.3083781 -1.2631886 -0.5505785
1936 -0.9360732 -1.782817 -0.5186544 0.46641806 2.0659058 0.39154768 0.10648772 1.4816296 -0.5849061 -1.297428 2.101597 -0.25240377 -0.28168586 1.8349316 0.7536982 0.85465753 1.5140301 1.2312038 1.0100273 0.7921799 -0.8151199 0.8520592 -2.0543246 -0.19446631 1.0312365 0.10318493 -0.7859743 0.40322793 -0.15996528 0.21837796 0.10561257 0.11613053 -0.13817587 -0.554941 -0.17268169 1.3573627 0.49507174 0.87381655 -1.0513493 -1.8703736 -0.64277184 -0.76268935 0.8436632 1.3329959 1.4350002 -0.13601236 -0.22273436 0.21856695 -1.082148 1.2927163 1.0852386 -1.9846692 0.42155242 -1.2048503 -0.18876967 -1.3726112 0.91080993 -0.18367092 0.9092943 2.079101 0.13366754 0.20534797 -1.4686619 -0.43818605
2201 -0.1877705 -0.8978032 0.0869074 -0.5428824 0.9802144 -0.5754822 -0.52539814 0.810154 -1.3224999 -0.3165968 -0.34255332 -0.7909434 -0.47057486 0.18722722 -0.8541211 0.02539273 0.94332355 0.82104194 -0.34492317 0.28098485 -1.747367 -0.14862354 -1.5030473 -0.4441836 -0.2682338 -0.0999694 0.34069684 -0.20584898 -0.26506346 -0.35740995 -0.763182 0.9182529 0.5705155 -1.6572316 -1.4267935 0.38481838 -0.1884846 -0.6684922 -0.73818576 1.0819567 0.5215367 -2.6781511 -1.1051412 0.6902361 0.26948646 0.35983574 1.8815461 -0.73061603 -3.4729073 0.5550821 1.1264496 -1.6732962 0.524529 -0.70432276 -0.53548956 -1.2984524 0.07064237 -0.6921266 -0.69718295 0.025871294 1.0467728 -0.71485734 -3.1081827 -0.37112927
2379 -0.74986565 -0.57801545 -0.09186281 0.85922474 0.6899608 -0.5573645 -0.52525014 1.1773102 -0.7725064 0.2827665 -0.6174617 -0.4722622 -0.4127433 0.5987068 -0.94137084 -0.78444064 0.84602255 0.94541144 0.34674647 1.3807433 -1.2870362 0.9668926 -2.005672 -0.6651287 1.8386221 -1.0179349 0.11165605 0.4650782 -1.2453827 0.5575773 -1.2216247 0.8224887 -1.2577837 -0.7828326 0.9388239 0.25251287 0.8629233 1.450953 -0.9036664 -0.9346898 0.24728844 -1.6580867 0.87952006 0.5086997 -0.06353843 0.6278704 1.236557 0.122207314 -1.7163625 -0.37134326 1.5574641 -1.0640783 0.57670015 0.8985136 -0.7454034 -0.2910374 -0.7402071 -0.1210656 0.41764176 0.7921595 0.6939475 -1.2546171 -2.1133618 -1.1056751
2365 -0.518207 -1.5662973 0.86749625 0.14210011 1.2047215 -0.54240614 -0.5261609 0.24614337 -0.7241283 0.046829127 -0.061510727 0.5167598 -0.9065071 0.19768873 -1.0687481 -1.1720871 1.3186684 0.58916134 -0.07531138 1.5625808 -0.73694336 1.4390655 -1.7952126 1.0758991 0.8838899 0.71192765 0.6848481 -0.40193683 -0.9987836 1.1518956 -0.33122995 1.6432945 1.161497 -0.09295591 0.17892237 0.5696871 -0.7632287 1.1435513 -1.4161491 -0.5133354 0.27128756 -0.64185506 -0.097896814 0.23612751 0.98105407 1.579522 1.3959932 -0.12430675 -2.488971 -0.75279325 1.8909214 -0.7539418 0.19441636 -1.2598114 0.18177554 -1.1903622 0.20976138 -0.39304772 0.58339256 0.2939509 1.0802189 -0.77726555 -2.2605944 0.91626894
2508 -0.5492686 -1.3672725 0.024271319 -0.31687433 1.497946 0.2984598 0.85590374 2.4001298 -0.42474735 -1.3527447 0.2369791 -0.27172497 -1.1149232 1.3634665 -0.26215765 -0.6120514 1.2296944 1.75399 1.483888 0.62991345 -1.5086619 1.3695916 -1.1758626 -0.31891888 1.1385587 0.2926054 0.25519866 0.69005495 -0.6940991 -0.26232013 0.038697712 0.35135764 -1.1774461 -0.14297801 -0.9763573 1.5149578 -1.3233323 0.60877156 -2.2013104 -2.0441766 0.3958495 -0.4111097 1.0203947 1.0687882 0.70152926 -0.63446635 1.3266788 1.4105855 -1.2720556 -0.9090391 1.8319703 -2.4889894 0.40417293 -2.3779695 0.2261879 -1.0030138 0.2914858 -0.33682182 0.6426812 1.5145648 0.17673025 -0.66829854 -1.1872759 0.9211321
1956 -0.27820414 -1.1348962 -0.25579405 -1.0822916 0.80671084 0.98231494 -0.64754933 -0.04803496 -1.0726916 -0.27610558 -1.8373929 -0.25396186 -1.1800547 0.37354493 0.19112734 0.39538962 0.3740845 0.95149237 2.1063793 0.8467921 -0.9599415 0.57151765 -1.3586321 -0.5669325 1.4189187 -0.88745064 0.102245495 -1.2799292 0.30932647 -0.30867493 -0.28056237 1.133485 0.6773762 -1.0332732 -1.345074 1.0220703 0.7561868 1.3413558 -1.5158159 -1.0536413 -0.72738034 -0.18784983 0.8530711 0.46026543 1.3171446 1.7999358 1.4297328 -0.19466157 -2.5365732 0.13107221 0.74220926 -1.9362075 -0.14553176 -0.9419721 1.1103164 -0.73852605 0.102677405 -0.8541274 0.8076569 1.3486075 0.0602248 -0.5607556 -2.9347384 -0.016186848
2388 0.27297226 -1.1210653 0.06444144 -1.147814 0.6451652 -0.9374331 -0.9703269 0.31056607 0.81807494 -0.38322118 1.1035327 -1.1622883 1.0124527 -0.44610342 0.48284408 0.14174064 0.99355906 1.5639111 1.5005357 0.47103786 -0.12605211 1.6789457 -1.5761987 -0.37718973 -0.059253868 0.3695443 0.2751197 -1.4660352 0.6655374 -0.74089175 -1.1419257 -0.47058383 -0.39311656 -0.19980015 -0.06781774 -1.102095 -0.10729813 0.6767375 -0.7369582 0.28425634 1.4263817 -0.13883568 0.2501381 0.57652074 -0.7883441 2.5775518 0.44458032 -0.020277107 -0.5040834 0.5115519 1.5075382 -1.5471671 0.33965462 0.007664203 -0.15149039 -1.4157712 0.1515816 1.1145629 1.3625774 -0.039242063 -0.039341077 -0.5407449 -2.243444 0.21042237
2217 -0.8975791 -1.2852098 0.2745658 -0.47022182 1.3011591 0.901257 1.4338636 -0.383153 -0.5465142 -1.5193187 0.6259126 -0.2992329 0.9102873 -0.3770153 0.008032999 0.034086384 1.2416326 0.34455088 1.3802406 -0.48763904 -1.277418 1.5984894 -1.7655513 -0.31622285 0.2682954 0.41444013 0.49228784 -0.42371958 0.104613945 -1.0699434 -0.158794 -0.7461587 0.8673114 -0.10980655 -0.40792042 -0.43475166 -0.8387193 0.5026598 0.05364811 0.8328222 1.5829946 -0.42034787 0.64147353 1.0452589 -1.1199247 1.3979645 1.0064124 0.015339065 0.6513436 -0.48640803 1.3607534 -1.8072387 1.5124711 -0.58101714 -1.1921462 -1.4537857 -0.5384736 0.2906374 0.5066383 1.0675118 1.4849553 -1.4685289 -2.9845295 0.1147079
2029 -0.16088115 0.13943966 0.5422181 -0.25525996 2.599156 0.41976115 0.52410334 0.8682643 0.07926586 0.19030866 0.13524637 -0.89955264 -0.7318037 -0.9939981 -0.53718704 0.093408376 1.6717852 0.53891253 -0.11177718 0.8523402 -1.0643383 2.4023533 -0.7926425 -0.21469803 1.2148291 0.45212597 0.7656595 -1.2420975 0.9046769 0.29558045 -0.7464802 0.97652596 0.20304212 -0.5038445 1.646083 -1.2612305 -0.738468 1.1241401 0.16850857 -2.6987522 1.029915 -0.6436716 0.98857045 1.5303771 -0.06680369 1.2705508 -0.2444344 -0.81481344 -1.2320812 1.1870435 0.82689255 -1.666804 -1.0992666 -0.32851547 -0.0048891967 -0.06022656 1.7526639 0.3443531 0.8301638 0.7807144 -0.54008335 -0.3526284 -2.7865222 0.430815
2397 0.45833245 -1.3975099 -0.4443266 -1.1377393 1.1250329 0.3538044 0.083206266 0.56120676 0.42222714 -0.16536157 1.0738125 0.009342645 0.27440432 0.10869796 1.084141 -0.15823385 1.7854625 0.014542982 0.92777985 0.5874382 -0.91472226 1.7955666 -1.752273 -0.73950446 1.2700901 1.3987753 0.65676683 -0.9582103 -0.7447179 -0.4792027 -1.6718457 0.08410639 0.16768004 -0.26443383 1.218101 0.648525 -0.7147931 0.6852919 -0.5982066 -0.8230361 0.1532762 -2.4318185 0.11792718 0.83139104 -1.0118139 1.352855 0.71704346 -0.69793254 -1.203321 2.8798041 0.29531634 -1.7530464 0.3578937 -1.1849269 -0.26193994 -0.58091944 0.23770788 1.2968291 0.08893515 1.0279158 1.4357578 -1.5454378 -0.045092173 0.6045728
2493 1.0804416 -2.2553244 0.32772833 1.0207207 0.49657002 -0.18893418 1.2717026 -0.26589814 0.87663484 -0.49209133 0.7651871 1.4470971 -0.4570983 0.7060037 -0.38974094 -0.486527 0.8275231 1.0437849 0.7715286 -1.9566721 0.032957077 0.5684833 -2.311632 1.9805771 0.07369679 -0.41659617 1.3664104 -2.0449414 -1.9629207 -0.080376804 -0.73979944 -0.02697265 0.25471646 -0.7907703 -0.24535081 -1.0224411 0.12825865 1.2651223 0.44310394 0.39325148 1.0306221 -0.96634066 0.34187898 2.0762074 0.94725406 0.4605432 0.9611358 -0.12382266 -1.1443372 0.39160258 1.120801 -1.6261489 0.5635812 -0.80245495 -1.8686686 0.22382234 0.68095106 -0.77440345 0.9234509 2.4398332 1.4013337 0.10504437 -1.9738894 -1.196991
2282 -0.24470548 -2.0367715 0.23171262 0.2177361 -0.21092862 0.64897513 1.3380834 0.7023132 0.14428395 -1.7888621 -0.9907986 -0.46841115 -1.2158704 0.3390331 1.0569862 1.31638 1.8744168 0.6854428 0.030849028 -1.0803877 -0.39395133 0.57649946 -1.7254052 1.3149257 -0.0658122 0.29418355 -0.54631436 -1.909877 0.075248666 -0.39714128 -0.3149641 1.1500925 -0.78106844 -0.9883584 0.27865335 -1.7867137 0.12679027 1.8939908 -0.7506798 -1.3449442 0.21889889 -0.48826212 0.764941 0.23010713 0.80057096 0.02723361 0.3504806 0.04530615 -2.2585008 -0.41486597 1.3203918 -1.3585505 1.0688819 -1.3956381 -1.8699309 -0.6535571 0.59461784 0.18849868 1.5068934 0.48293024 0.95815635 -0.3597657 -2.749351 -0.27143028
1577 0.27253243 -2.4432771 -0.79581463 -0.26610672 -0.11957796 -0.16958944 0.6639479 1.0633038 -0.858639 -1.9398762 0.18320407 -0.2899537 -0.22921097 -0.109402224 -1.2450024 -0.2720086 0.73612016 2.2446556 1.3632683 0.47317344 0.871916 2.0301223 -1.0842166 0.22880234 1.00788 0.31743675 -0.009217166 -0.28176686 0.36869204 0.024483584 1.4373182 -0.9508782 0.62303114 -0.7629449 1.1390758 0.850985 -0.6297794 -0.16081963 -0.34264332 -2.7932832 -0.8070664 -2.7250037 0.28102252 -0.5867213 0.8390303 -0.885796 0.12712124 -0.4076145 0.7049025 -0.12947017 -0.55633426 -0.82265073 -0.09857113 -0.9604123 -1.1250906 -2.1528025 0.80592704 -1.4555482 -0.58185595 0.21238266 -0.50690025 -0.38547826 -0.8633238 0.05855812
2101 -0.42226008 -1.992928 1.7956074 -0.14422558 1.2295668 -0.37652865 -0.41886458 0.52672654 -0.62130034 -0.46643135 -0.9939733 -0.25386325 -1.0614576 0.48548073 0.46033633 -1.1905458 -0.15149678 3.1021447 0.8064472 -1.2270017 1.2170182 1.499874 -0.7161715 0.94514877 -0.939424 -0.5843365 -0.8881262 0.34890297 1.5108228 0.12726963 -1.7151774 -1.4353195 1.7234169 -1.3148897 0.68530834 -0.52234465 0.40068126 -0.70696634 1.7681316 -0.71718717 -1.2593036 -1.1410078 0.85335314 -0.58720374 0.0068835285 0.64554536 -1.235843 -0.28880036 0.3241398 0.022994315 -0.43059087 -1.6055832 -0.48249727 0.92859316 0.90179145 -1.5043267 -0.68271 -0.06057652 -1.6061039 1.2856827 -0.27159306 -0.8774088 -2.1375306 -0.767954
2521 0.7062482 -0.93759674 0.9895541 0.58097833 -0.76425433 -0.76242936 1.0314097 0.62991476 -1.3000423 0.12704076 -0.93641347 0.06395662 -0.9707337 2.7830606 0.25551885 0.014377156 0.2028714 1.9325763 0.7825107 -2.4132574 -0.8044894 2.4166923 0.22019325 0.5440457 -0.23146828 1.6399723 -0.7581975 -1.7056652 -0.36817703 0.36595806 0.70505667 -0.99396783 1.5021888 -0.9119714 0.9784633 0.119410835 -0.6337535 0.8601867 0.94420224 -0.2030519 -1.8250479 -1.2911887 1.4849439 0.11617917 -0.25891986 -1.2900207 1.4160043 -0.74664634 -0.18079162 -0.5767296 -0.14765473 -2.474966 -1.1763171 1.0032024 -0.4231103 -1.127253 -0.6149512 -0.25326642 -0.22923967 0.029405145 -0.6379549 -0.8488734 -1.2423766 0.47108665
2286 -0.13918261 -1.6131532 0.66767544 -0.24233137 0.55231565 -0.3288452 0.012205574 0.053291753 -1.7327092 -0.74313337 -1.3558624 -1.4535877 0.8666518 1.530113 -0.020877082 -0.7762928 -1.8104972 1.363384 0.97692543 -0.73010457 0.3995416 2.4216826 -0.20976666 0.41208747 0.919155 0.82688534 -0.1634561 -0.54596597 -0.22336492 1.8724161 0.04528454 0.064788535 1.4331079 -0.730812 1.2736408 0.55789435 -0.9615594 0.8144942 1.2218312 -0.55517286 -1.5214814 -1.3936208 0.019911967 0.42555857 -0.18515752 -0.22176361 0.13671835 -0.61121094 1.0914787 -1.2083306 0.918325 -1.0474765 -0.35574806 -0.046805568 0.0553907 -1.7857407 -1.3663162 0.38445574 -0.30228364 -1.1857326 0.66314465 -1.636318 -2.892391 0.17450026
2323 -0.13758369 -1.5621594 1.7039223 -0.63196915 2.5225358 -2.1593733 -1.2363298 0.36965615 0.8319242 0.3127729 -0.04217996 0.19310528 -0.23036285 -0.8605436 -0.18390374 -1.2106177 -0.45658344 1.4732494 0.7634613 -0.72151333 1.4602519 2.7460191 1.0602499 1.351458 0.5418948 0.3168094 -0.07537481 -0.6244147 0.8062251 -0.29831305 -0.025064627 -0.1173803 0.9562806 -0.31582966 1.2979703 0.97678494 -1.1793989 0.5183471 0.6854323 -1.562774 -1.051313 -2.1546955 -0.11423589 1.3471023 -0.34245244 0.068360135 1.0072598 -0.8713442 -0.7252361 -0.53082657 -0.26717344 -0.12932256 -0.3779976 -0.62772214 1.1728178 -1.0672959 0.26822498 -0.5243372 0.19165204 0.23264897 1.6221008 -0.32457894 -1.3734615 -1.8386439
2301 -0.007916591 -1.1905111 -0.6665083 -0.28506738 -0.19031152 -1.6379849 -0.6119455 0.5651459 -0.66544306 0.82768095 -1.6427449 -1.8612983 -0.5989549 -0.21045801 -0.4018744 -0.4944335 0.028858164 2.4663088 1.1941209 -0.47753283 1.3091886 0.88676935 -0.063609205 -0.3415755 2.5814452 0.29063046 -0.48377734 -0.5626753 -0.5835711 0.6125794 -0.80891883 0.080352746 0.29391357 0.46569613 1.3755167 0.40081817 -0.012372633 0.80168647 -0.23142326 -1.8419092 0.18969952 -1.9111574 1.5450202 -0.63146764 -0.37014008 0.60364664 0.1790431 0.6563463 0.10722049 -0.77728736 0.2854693 0.26101092 0.9144325 0.75192213 0.2395603 -0.3121174 -0.8189461 -0.072334744 -0.54325837 1.293014 -0.5247904 -0.8335303 -2.0824451 -1.4661574
1729 0.8294087 -2.0488665 0.9785459 -0.24766248 0.18884714 -1.966075 -0.71787494 0.83463717 0.83165646 0.12182115 -1.416753 -1.256994 -1.7055371 -0.32516932 0.3656498 -0.1253221 0.59379363 1.1559097 -0.9958029 -1.3055677 1.2306291 1.8249218 0.42548108 -0.038992662 0.4622729 0.16685079 -0.5369197 -1.6342129 0.530562 -0.27293366 -0.4598065 -1.4528047 2.377207 0.60639656 0.43005052 -0.15744178 -0.704044 0.39365423 -0.4283477 -0.61654073 0.025049457 0.104449295 0.2811833 -0.16921309 -0.11996986 -1.2004008 -0.49661896 0.5486274 -1.1955972 -0.6253467 -0.46970674 -1.0794537 0.39429212 -0.06465886 1.4809082 -1.3976977 0.5360252 -1.4173664 -0.4349407 1.4637626 0.5221131 -0.1390905 -2.3826213 0.29125264
2178 0.47373945 -1.9109534 -0.016636016 -0.31778616 0.9719521 -0.49786296 -1.9417181 0.9119314 -0.3313317 -0.030885888 -1.8525996 -1.6475366 0.87102574 0.24105085 0.8579183 1.1694242 1.4000285 0.54091394 -0.34867594 -0.6942141 1.9507972 0.98347676 -0.6670809 -0.29820737 0.25427702 0.3694487 -0.28341702 -0.45322296 -0.25247684 0.21504653 -1.1942896 -1.1008425 1.7406235 -0.7052407 0.9003474 1.1497649 -0.14872469 -0.57581294 0.33884543 0.59953755 -1.3576065 -2.3577456 1.1534948 -1.115322 -0.78684115 -1.0149398 1.377442 1.3361734 -0.9694385 -0.5062285 -0.38518044 -0.2758267 1.2285802 -0.9780414 -0.11011078 -1.1042392 -0.45595118 -1.0770582 0.7605518 0.15479109 0.052810937 0.3892696 -0.8201763 -1.2276677
1974 -0.27066228 -0.31491408 0.923129 -1.8068411 0.24618797 -1.0911591 -0.7257935 1.4111903 1.0990849 1.1711245 -1.733668 -1.3173352 -0.75928646 0.32422003 0.686114 -0.8808373 0.68475103 1.5491927 0.6785227 -1.9066737 0.40650642 0.86977524 -0.07565469 -0.049854893 0.3184775 1.0426528 0.41059425 -2.1189704 0.07531274 -0.742926 -1.285004 -1.9158791 0.3792065 -0.4121067 0.28542516 0.019544918 1.2696303 -0.36154726 -0.005869306 -0.5273299 -1.6778319 -2.5304494 0.06034399 0.33022988 -0.64884126 -0.13284904 1.0186883 -0.91523165 0.65761757 -1.741513 0.21099502 -1.9245443 0.39148986 -0.10372372 -0.5203071 -0.7517517 1.1164657 0.5487759 0.4027219 0.73872393 -0.58305967 0.2552715 -1.8549311 1.5806258
1963 -1.536117 -0.8233387 -0.5996437 -0.46982127 -1.048594 -2.0679305 0.6845066 0.5714381 0.6665019 0.5434963 -2.03575 0.024625113 -1.5469131 1.1522331 0.3129806 -0.0066041565 1.8809457 2.9143016 0.7112106 -0.4025741 0.52107507 -0.99479544 0.75772893 -1.4029193 0.6171929 -0.4926032 -1.128826 0.08731916 -0.28180867 -0.5279631 -0.33120847 -1.4273789 1.8650244 -1.9854753 -0.061212204 0.23382607 -1.358704 0.6747998 0.3419618 -2.8127472 -0.801711 -2.0861452 0.6001532 -0.13564697 -0.4793794 0.22317661 0.2925396 -0.068995535 -0.793006 -0.8274425 0.3825865 -0.26046014 1.7114196 0.5219042 0.43429786 -1.082761 0.8415971 0.20628473 -1.316857 1.4425967 -0.88059115 -0.015810285 -2.0097895 0.71104485
2477 -0.508324 -0.7618989 -0.56461823 -1.2710594 -0.19258246 -1.653823 -0.59629154 -0.54868805 0.062059253 0.41162857 -1.1834048 0.22503479 -1.7288581 0.9127928 -0.89873135 -0.9065337 0.65922064 1.9615322 2.1069047 -0.22569422 0.9458562 1.0706388 0.23632953 -0.7451694 1.2458768 -0.8034058 -0.2242027 -1.0895871 -0.20124051 -0.19199878 -2.047979 -1.1895745 0.73874754 0.047718853 1.3665473 -0.43745264 -0.17781213 -0.027312016 -1.44029 -1.1161478 -1.2615421 -2.6293347 1.0292104 -0.36584306 -0.8205581 0.09428172 1.5059645 -0.17833485 -0.4619884 -0.7938182 0.016433848 0.068443105 0.13103706 1.1273888 -0.73437595 1.1027815 -1.025335 -0.28941748 -0.13528635 0.5957211 -0.54875344 0.49491173 -1.734881 -1.3963983
2154 0.059423953 -0.4696641 -1.1885785 -0.5627298 0.42443106 -0.22141777 0.034442652 0.8944012 -0.3538822 -1.7959168 -2.1444597 -1.7402703 -1.2943896 0.39358357 2.5460467 -0.16068421 -0.093584694 1.9994453 0.2960036 -0.013203755 -0.11457343 0.6489594 -0.93849075 0.9552563 -0.54848874 -1.0235276 -0.694774 -1.0139012 0.48952243 0.21562818 -0.12864043 -0.8125696 1.4391876 -0.37665272 1.0120751 0.6352718 0.8189257 1.8284513 -1.7322885 -0.4716216 -0.28417444 -1.7341704 1.2152413 0.65935594 -0.5288819 0.3235416 2.1164236 -0.28576988 0.42403468 -0.23844664 -0.3239353 -0.9494367 1.5847857 1.1857624 0.7297729 -0.3584181 -0.2650867 0.3694873 -1.3908403 1.279853 0.8237331 1.4106556 -1.2994022 1.1706054
2682 -0.9516065 -1.7563895 0.039993405 1.6755549 0.9429527 0.22396913 0.17141142 -0.9655376 -1.5092584 -1.4943689 -1.0058137 -0.7323017 -0.16285315 0.22279677 -0.12714458 -1.0706143 -1.3906338 1.6828938 1.2903798 -0.60905766 -0.4021556 1.1240054 -1.9657943 0.8630469 0.97468317 -0.38908562 -0.99226993 -0.8401873 0.2608837 -0.5472017 -0.43733507 -2.0071228 0.26229388 0.14704704 0.34298515 1.5395018 -0.93044794 0.7196013 -1.7455928 -0.78357464 0.20822436 -2.1027596 0.9238804 1.0314709 -0.17710575 0.008106273 1.7275085 -0.9196706 -0.16852224 -0.66983515 1.4696695 -0.20315124 1.630858 -0.7599564 0.26267844 -2.5856836 -0.43493938 0.81891024 -0.9207085 1.4092475 0.0024454892 0.43035385 -0.26728874 -1.2341708
2293 1.0266216 -0.47084728 -0.8217355 -0.98837876 1.294597 -0.026145691 -0.22300772 0.17982835 -0.48792034 -0.90880066 -1.1387712 -1.0441586 -1.6816616 0.90406513 1.0108097 -0.18606497 -1.7158449 1.9756411 0.54789525 -1.3450377 0.61874264 1.3044338 -0.40051645 0.6867874 -0.44153214 -0.6852756 -0.7267923 -0.44468656 0.29684088 0.5761488 -0.24549972 -1.8746688 0.63540965 0.59814095 -0.21707863 -1.1165993 -0.724134 1.5896446 -0.6427348 -0.69677883 -1.7405246 -2.798232 1.0806277 0.16150229 0.73062 1.0491453 0.76396734 -1.4848194 -0.82960904 0.16742003 -0.32629582 -0.9983161 1.1069541 0.97310925 -0.038726192 0.027508624 0.5405971 1.3162174 0.009365131 1.2810222 0.6445064 1.0153475 0.52801496 0.28972164
2553 0.01291965 -0.2456226 -0.89781225 -1.2107576 1.1266708 -0.9108215 -0.25044742 1.442108 -1.5139084 -1.5864098 -2.1432803 -1.5979644 -0.5006596 0.49763054 1.3943347 -0.83113366 0.63334405 0.96742 1.9310418 0.19451791 0.80574495 1.5317612 -0.6440831 -1.3822235 -0.27820906 0.22295982 -0.2664085 -0.6798457 -0.41929442 0.43745622 0.93686175 -2.6043694 -0.009965339 0.4800683 0.41027763 0.8678427 -0.6432705 0.6330566 -1.4092643 0.0015820498 -1.1038338 -0.31202817 0.65043163 1.2302736 0.20557044 0.8827018 0.9111586 0.45564118 -2.4739566 -0.5744178 -1.4856211 -0.8168791 0.40083233 1.3870722 -0.59072345 0.64101464 0.25786376 -0.9127511 0.10900782 1.9822197 1.0166423 -0.14915745 -1.2242999 0.3959798
2573 0.30817962 -0.9235788 -1.0141847 0.67142814 1.2624369 -0.96814793 0.3223586 0.00830646 -1.7117548 -1.1354895 -0.95695376 0.19261727 0.70362246 -0.10585643 0.19380598 0.31410033 -0.5029591 1.4457914 -0.07480975 1.5313648 -0.20844358 -0.13696495 -1.3500279 -0.7718122 1.1769028 -0.70895207 -0.66583425 -1.8085358 -0.54399294 -0.75299454 -0.59125334 -1.6250033 0.7482009 0.6020558 0.8044742 0.5080385 -0.07145016 -0.5721356 -1.1280676 -0.24488375 -1.9394232 -2.73561 2.0374563 1.5366634 1.3293695 -0.35673696 0.36867923 -0.56769097 -1.9316269 0.0039481693 -1.0981617 -0.5341041 2.4434736 0.09339288 -0.1498959 -0.26787513 0.32109687 -1.2861602 -0.71068025 0.17640117 0.3339001 -0.5358313 -2.2188544 -1.1356741
2318 0.61274034 -0.20610678 -2.1492014 0.46054697 0.6735747 0.43548018 0.4620736 1.1634821 -1.1236945 0.051305752 -1.567939 -0.084215134 0.036780346 0.73993313 0.61764854 -0.9025572 0.58351904 1.2387887 0.18766123 0.72566783 0.4855309 2.0728827 -0.21413772 -0.4701487 0.61119443 -1.1598366 -0.94529086 -1.776525 -0.18565983 0.43030372 -0.28099746 -2.11783 -0.5291733 0.9038668 1.4458627 0.2792161 -0.63686335 0.18306969 -0.16382617 -0.15482831 -1.436068 -1.602158 0.72605294 0.64762706 -0.2757733 -1.2931079 0.5668886 0.41389376 -2.2032592 -0.8514145 -0.7179326 -0.7625468 0.9467482 -0.7297339 0.83087575 -0.62883604 1.1557118 0.28354913 -0.48044008 0.66492736 1.3954362 -0.7371631 -0.5359578 -0.24654788
2143 0.56778204 0.71598387 -0.88663876 0.46572074 0.1914761 0.05420878 -0.31275648 1.0840616 -1.3224446 -0.17882243 -2.3358011 -1.3058552 0.46851605 1.2684398 1.2250671 -0.31610876 -0.28047615 2.2911925 0.6439707 0.2508127 -0.58872205 0.7979924 0.77812856 -0.29944354 0.9652362 1.5763004 -0.59090126 -2.1592276 -0.5070029 1.000258 -1.3603866 -1.5908867 0.23495093 1.912341 0.93891066 0.24307565 -0.3849211 1.2825457 -0.13950121 -0.16905685 -1.6829921 -2.0243368 0.69096696 0.7421227 -0.094587184 0.037056 0.40130094 -0.85701835 -1.35088 -1.2542057 -0.41276443 -0.5880892 0.44166934 -0.6559555 0.2322673 -0.8206816 0.8384029 0.41849414 -0.69347197 0.8832885 1.1733714 -0.19681449 -0.7662997 -0.28665105
2225 -0.23959643 -1.7837389 -1.1524472 -0.7530924 1.1436517 -0.2947754 -0.087829985 -0.36399803 -0.34135216 -0.122166686 -1.1494411 -1.0602701 -0.9544656 2.5679307 1.6940719 -0.37946367 -0.46156907 2.6128542 0.786114 -0.78535837 1.6251886 0.29405323 0.15552352 -0.4722344 0.6458011 -0.99333763 -0.18219455 -1.2913804 -0.1651567 0.15815245 0.15281422 -1.78776 2.0071127 -0.19441366 0.84084153 0.32722095 -1.7512233 1.2420981 -0.7571437 -0.70556825 0.53357613 0.6405656 0.79158235 2.3316789 -0.5142627 0.14431323 1.0873085 -1.2837743 -1.4291943 -1.5795563 0.7376685 -0.673557 1.5307338 0.6296243 0.39979887 -0.050133232 -0.19795167 0.15771316 -1.2867042 1.3386753 -0.30281356 0.20409174 -0.8701434 -0.84653324
2038 0.76408553 -1.1892395 0.41082457 -0.29026404 1.9156878 0.48181275 0.34776044 0.4907948 -0.5167503 -0.36939788 -0.68423665 -0.8466193 -1.1415092 1.7732838 0.27737144 0.124760084 0.18450943 0.7758645 -0.2951541 0.4383083 0.5239355 1.7428247 0.51856893 1.4203652 0.9175196 -0.033583406 1.302048 -1.511712 -1.3097402 -0.10051448 0.16330324 -2.6525369 0.9444967 -0.16262762 1.087622 0.16243792 -0.32335988 0.01686191 0.25688556 0.53869313 -0.087985516 -0.6935886 1.712862 1.0513523 0.8846577 0.34547472 0.23570712 -0.43466234 0.08073446 0.3362541 -0.5919637 -0.77145123 1.1154729 0.76628774 1.4026873 -0.18951912 -0.26009044 -0.7720824 -1.385337 1.3263774 -0.9619591 0.81780463 -1.5929065 -0.65145636
1727 0.31436852 -1.42114 -0.3811796 -0.24140051 1.3462031 -0.65940565 -1.2974281 -1.3091784 0.8358111 0.041803163 -1.576157 -0.8709108 -0.68326795 1.0579772 0.5053251 -2.0612752 0.9795013 -0.05483765 0.78565484 -0.79380184 1.471609 0.11080762 0.7270369 0.6899001 0.055962346 0.2546669 -0.49174923 -1.0952133 -0.13895757 -0.16490363 -1.0471917 -1.6902338 0.6109997 0.25115964 1.2016563 0.15267676 -1.6425742 1.2853184 -0.17915827 0.13390243 -0.502164 -2.1953819 -0.5679115 0.7470425 0.5718114 0.022915361 0.74101543 0.689065 -0.95981216 -0.9727907 1.0894915 -1.31636 0.85062987 -2.3175325 0.5793313 -0.09769847 -0.9569646 -1.745692 -1.1116662 1.0712394 1.0781002 0.47501096 -1.3584896 -0.32298055
2707 1.9118551 -1.1732966 -0.21801348 -0.9074229 2.3799133 -0.88880414 -0.36907393 -0.027671462 0.104457386 0.20385487 -0.28835854 -0.40114814 0.34368074 1.273477 1.3209095 -1.7336255 -0.016283533 3.0841904 0.17278323 0.023814283 1.6488086 0.7407449 -0.21957733 0.46100575 2.039421 -2.0178618 0.039155938 -2.0035903 -1.4583275 0.9809347 0.24665327 -1.1609296 0.40590572 -0.20367746 1.2182497 0.024039341 -1.1177971 0.30947748 -0.09467915 -0.55062866 -0.06045535 -0.9973082 0.7403552 2.538905 0.5162977 0.038887367 0.2048893 -0.18289497 -1.0218191 0.27299902 0.15315881 -1.1329736 1.3942155 0.094294555 0.8583399 0.34166217 -1.5860094 -0.9488201 0.29361236 1.5834215 0.20017353 1.0350832 -1.799917 0.9694374
1822 -0.93014395 -1.374421 -0.5104836 0.2917469 0.5583563 -1.9114035 -1.6224555 0.41256523 -1.3443785 -1.4104052 -1.118823 -1.4594514 -0.28628114 1.2239467 1.247681 -1.0615395 1.1803317 1.2101531 1.7288386 1.1166894 -0.07837813 0.28305662 0.3812443 2.1429677 0.13605133 0.82340324 0.445206 -0.29422835 -1.1575456 0.9934819 0.18362194 -0.8651341 -0.8752305 -1.8341985 1.107168 0.50914425 -1.4619052 1.1045746 -1.3233868 -0.8828602 -1.2752657 -0.57752305 1.4479272 1.521766 0.097630836 0.29976535 1.0108821 0.44723934 0.12742768 -0.3891938 -0.15795292 -0.00986742 0.3180278 0.26626083 -0.269354 -1.7055672 -0.054432176 0.6426554 0.9877936 1.0706553 0.35242566 0.0574345 -1.7094616 -0.4672054
2340 -1.8281229 -1.6494117 -0.6679925 0.50888014 0.43013388 -2.9876802 -1.3232068 1.3629769 -0.78598624 -0.37244433 -1.4981962 -0.37325057 -0.17391665 0.604217 1.1831205 0.21999536 0.34628648 1.6796327 0.50495243 1.0510926 -0.3418098 1.5910764 -0.6782562 1.5798876 -0.85431486 1.2998053 -0.7135571 -0.13338143 1.4474571 0.33201906 0.05556397 -1.775388 0.2586109 -0.011267216 2.2577662 -0.34605214 -0.04236441 -0.057068694 0.5227243 0.6400211 -0.09944549 -2.551078 1.255738 1.6593909 0.7182282 0.044777043 0.71264815 -0.40946627 -0.51264274 -1.0303298 -0.6113593 0.9233922 0.18877034 -1.106617 -0.21908812 -2.1263177 0.7851024 -0.23739816 -0.38611048 1.0694002 -0.5615387 0.38559264 0.41186976 -0.9391873
2004 -0.121465296 -1.4234627 -0.5418063 0.7347141 -0.44019687 -1.9007448 -1.4891903 -0.17928836 -0.07271254 1.1507157 -1.2545117 -1.446312 -1.0107341 1.2725983 -0.19615304 -0.6888714 0.058427036 1.0368043 2.0922947 -0.31117478 -0.5512461 0.44779798 -0.9829189 0.81872886 1.417481 0.047438852 -0.6244606 0.374135 -1.0198764 -1.0073373 -0.36111018 -1.0656139 -0.19649549 -0.09826515 1.4148388 0.20823565 -0.08502273 0.3874317 -1.0296435 -0.5927884 -1.1425563 -1.8928366 1.1730092 0.7070607 0.14854233 0.1185712 1.3925493 0.15863046 0.42842415 -0.9106199 -0.37188315 -0.21462311 1.3243955 -0.014092179 0.27989498 0.12894161 -0.50246143 0.38096634 -0.35457915 -0.1363136 0.33691147 0.08110471 -1.4739063 0.67493886
